9314 16
9 2.0512738 -0.36427537 1.2238898 0.3909473 -0.42895555 -1.667094 -1.1134137 -2.701774 -1.2019831 -0.21345568 -0.6643762 2.9774885 -1.3380437 0.3753502 1.3067536 -1.4462885
6999 2.0292976 -0.6281549 0.7230931 1.0632476 -2.984559 -0.9187398 1.616699 -3.1802673 0.7734074 2.1208432 0.37989828 -0.69992644 -2.5670536 0.10416757 -1.6646062 0.71853495
75 1.9566565 -0.5986094 0.74906945 1.0364699 -2.8698623 -0.9206851 1.5836319 -3.0815945 0.7341553 2.062393 0.43885627 -0.658064 -2.585488 0.07749263 -1.6247131 0.61714983
2076 1.046949 -0.8687096 0.33771083 2.932936 1.026506 1.3132242 -1.8007394 -1.5663885 -0.52765924 -0.76227844 -0.17212571 1.1404297 0.77261657 -0.346532 -3.6515272 -0.0020934483
3540 2.038238 -0.3136602 1.3180782 0.4727873 -0.5497677 -1.5417274 -1.1098366 -2.9327068 -1.2117668 -0.3454594 -0.35600603 2.9965813 -1.3908617 0.23050995 1.5066931 -1.503017
2180 0.9701602 -0.7783023 0.19215865 2.9638958 0.98681927 1.3597522 -1.8597318 -1.6431885 -0.6113863 -0.501852 -0.12950271 1.1920261 0.75805867 -0.32193568 -3.756918 0.109154046
5648 0.76440346 -3.6066155 1.0424091 1.2157028 0.9580464 -1.3220228 2.7692308 -4.254581 0.7114713 -0.7175595 0.6744035 -0.2559036 0.12110752 -0.49304333 2.0683556 -2.9665408
9026 1.8255036 -1.6970918 0.23851217 1.0126014 0.2296661 1.2746574 -0.31921694 -1.9518106 -0.2859821 0.9600872 0.98382074 -0.016168226 -1.1402555 -2.9961314 -2.5256662 1.5183804
12 0.6275947 -1.8576988 0.047029924 0.037111845 1.0450877 0.007880446 0.9794933 -1.7919155 0.47938737 -0.34216252 0.08012948 0.25443462 -0.436665 -0.38481742 1.1006793 -1.0050734
1470 0.8009731 -3.6483073 1.129742 1.3750365 0.82412463 -1.4726169 2.8753512 -4.4140573 0.907477 -0.6815426 0.9987061 -0.15208118 0.19119667 -0.5065854 2.0427494 -2.900133
5 2.2907047 -1.8297623 -0.17124914 1.1194466 0.020011699 1.3195384 -0.43627262 -2.6464617 -0.3393272 1.0636802 1.43828 0.42024738 -1.0317788 -3.320398 -2.605792 1.5351719
1 0.6174572 -0.53209966 1.7792985 4.462788 1.6746458 -0.91624135 0.7267932 0.9096963 0.031016668 1.0817361 -0.6657481 -1.3749673 -1.6133251 -0.38122886 0.12276 -1.02766
9025 2.4575024 -1.7547648 -0.027762687 1.1146748 0.060922828 0.99594086 -0.24468747 -2.332494 -0.356121 0.98664826 1.3901441 0.1918643 -0.9636897 -3.2285972 -2.5764163 1.210684
1177 0.7112794 -0.32539576 0.45058468 0.33984947 -1.5126964 -0.7431865 1.30301 -1.7766273 0.47130185 1.2315553 0.49124017 -0.20727009 -1.3091794 -0.065583795 -1.0984473 0.56375027
8076 -0.96307725 1.541467 1.1958369 0.10742384 0.07079748 -0.28963873 -1.4686917 -2.3406832 0.22911544 1.1154921 -0.46961263 -0.5800365 -2.2901928 -1.0343436 -0.07661302 -0.806122
3676 0.07722198 0.7202704 0.1992694 2.4488826 3.4242728 -2.2297022 2.1270592 -0.99481744 -0.53806406 1.352579 -0.12006954 1.2241244 -1.5640583 0.49112183 -0.17681432 -1.1721325
287 -1.5260725 2.011977 0.93804 0.28418353 0.22010377 0.032890264 -1.9660765 -3.1339767 0.28584284 1.4636948 -0.6729832 -0.33548245 -2.9349046 -1.1180015 0.049846385 -0.741386
9071 -0.20827371 0.012383253 1.95732 1.2668539 -1.415364 1.3499179 1.3349749 -1.0688701 1.0440897 1.0406603 -2.8278258 2.6324613 -0.8847063 2.1217482 -0.26751566 -0.7435793
22 -0.02033911 0.86586094 0.112135686 2.314657 3.4993372 -2.284755 2.0495024 -1.239637 -0.6228164 1.6428491 0.15115698 0.966512 -1.6578757 0.49486718 -0.13197237 -1.0521958
9070 -0.8382842 0.09886095 2.0620487 1.3644654 -1.7402208 1.3799146 0.38633183 -1.0896333 0.84148437 1.1012022 -2.5901089 3.484438 -1.4564074 2.4800525 -0.80888414 -0.831473
34 -0.8591293 0.09145081 2.0484796 1.337316 -1.7040439 1.3981463 0.50401074 -1.0831834 0.65586644 1.0087459 -2.367417 3.73565 -1.5594611 2.4278998 -0.8338771 -0.8539064
93 -0.5341961 0.6247283 1.9513589 0.078095414 2.1216373 3.9276712 0.56615216 -3.866202 -0.25412065 -1.8874996 -1.1295068 1.5916846 -0.53512925 -1.0767971 -1.8131646 0.9368965
8944 -0.6987256 0.8890382 2.1043715 0.36810046 1.9917086 4.3229337 0.80404115 -4.2209005 -0.27632403 -1.8597133 -1.3428326 1.5611117 -0.7943231 -1.2617024 -2.0688057 1.3427647
8943 -0.68708175 0.77432954 2.2624953 0.3545599 2.323336 4.5308533 0.6232186 -4.412305 -0.046530724 -2.1326692 -1.1636211 1.832335 -0.5996667 -1.1784437 -2.1990035 1.0327643
8851 -0.3070746 0.094415374 0.8348984 -0.2911419 1.457974 2.061945 0.8431248 -3.2667105 -0.4851447 -0.33725363 0.25971788 -0.109266356 -0.16745004 -0.22297536 -1.3886877 0.7992075
1340 0.68793136 -1.3980457 -0.2840317 0.13928474 1.1488247 0.1749593 0.7854562 -1.3520168 0.31116587 -0.4345634 -0.07683271 0.27090374 -0.61518276 -0.6591037 0.78069717 -0.6697315
30 -1.2667519 -1.5204655 -1.0014774 1.9107883 0.475586 0.04321358 0.25818318 -1.4674612 0.9827512 -0.050466035 -0.565237 -0.6416516 -1.004311 -0.4528792 -0.0014656677 1.0262007
9159 -0.4459953 -1.4199973 -1.4626937 3.658595 1.1282084 -1.542273 1.4849819 -2.7229936 1.9282445 -1.0530932 -0.7393179 -0.7190823 -1.7089354 -0.6290568 0.7753152 1.1534104
1984 -0.06308626 0.9371164 0.44129774 2.151067 3.561034 -2.3139458 2.0287478 -1.3464627 -0.7751469 1.4782832 0.060904898 1.260619 -2.0291479 0.8431582 -0.18415779 -1.2524819
9160 -0.59058577 -1.4649057 -1.8421834 4.0629034 1.4326582 -2.6594632 2.2267096 -3.8317182 2.1178253 -1.219118 -1.2965028 -0.69429135 -1.7917529 -1.172549 0.8903279 1.5033599
76 -0.36709198 -1.5568552 -2.1882083 3.9148755 1.5923871 -2.3015263 1.8753008 -3.8015463 2.152993 -1.2943085 -1.5923779 -0.67881346 -1.7063245 -1.4588977 0.9961524 1.3163568
8850 -0.4787039 0.12012026 1.1389626 -0.418502 1.3448815 2.3967652 0.5401434 -3.5697494 -0.29083765 -0.9176051 -0.14728741 0.14137797 -0.49324197 -0.46277317 -1.567574 0.7942545
372 -0.74340546 -2.251194 -0.94118613 1.0890927 1.1393704 0.6441953 -1.3787596 -2.2031267 0.4823972 4.0223083 0.03865462 -1.3148541 0.21684986 -1.0206885 0.16589907 -1.7251356
1293 -1.5581234 -1.7788435 -1.4191663 1.9557297 0.57444406 -0.034053285 0.47966665 -1.6206526 1.1706779 -0.16093221 -1.2128266 -0.44532079 -1.3563185 -0.670375 0.032665204 1.0834074
8657 1.7708746 1.2560958 -1.2366369 1.5460151 -2.1655047 1.5975258 -1.5711273 -1.7080863 1.3084362 3.4595423 -1.2635945 0.58538693 -1.4264995 -3.2916486 -0.4432004 -2.517009
1759 2.0494103 0.9864898 -0.6458723 1.5517135 -2.154333 1.4747108 -1.7036982 -1.7074963 1.5067304 3.26582 -1.2390076 0.50163394 -1.049288 -3.5203629 -0.25806424 -2.5688603
200 -1.6244671 -0.013222663 -2.3879056 1.9840399 0.8005604 -0.90123224 -2.1172347 -4.3227177 -0.37735385 0.34023505 -0.48169553 0.20909956 -1.6197695 2.2065892 -2.2311804 -2.1261067
1381 -0.16577464 -0.07072651 1.3757846 -0.35185358 1.4941883 2.2584448 0.79372656 -3.6641161 -0.2422678 -1.1719463 0.043654393 -0.20151366 -0.4754989 -0.75013316 -1.8527356 0.9453972
13 1.7205242 1.0647368 -1.1067336 1.5064089 -2.0466785 1.2765584 -1.3773159 -1.5847178 1.358332 3.199214 -1.2153198 0.37852252 -1.1102134 -3.4408655 -0.32774976 -2.5547338
6019 -0.6535354 -1.3534836 1.6959 1.6893294 1.3024694 0.35274786 -3.3759978 -1.6579515 0.27785507 5.2452035 0.77322954 1.2326888 -0.78283966 -0.8700935 1.3686092 -0.103432015
27 -0.6584875 -1.2256182 1.7344497 1.9385318 1.0863777 0.4255313 -3.4783297 -1.7418687 0.17680824 5.427777 0.6279417 1.4712836 -0.7416196 -0.6334126 1.5538579 -0.13150935
5551 -0.5915279 -0.041815683 0.5614381 -0.24747553 1.4850814 1.5805345 1.0330329 -2.8734348 -0.7017177 0.2746175 0.35870668 -0.23743862 -0.17151448 0.46730214 -0.5008513 0.27634332
5491 -0.44478393 -2.7621796 -0.77813137 0.461905 1.2171751 0.5893439 -0.6267733 -2.9303393 0.35423377 4.30949 -0.31364438 -1.6830039 0.6381194 -0.7301922 0.83608836 -1.7845241
6020 -0.6690295 -1.3271526 1.7839161 1.8091909 1.1175765 0.69436836 -3.438627 -1.9034187 0.4127456 5.6134224 0.79974645 1.4259696 -0.7434883 -0.5178738 1.4478767 -0.017895894
733 -0.49444962 -2.659009 -0.5456391 0.4062674 1.2238592 0.37470666 -0.79545695 -2.9218795 0.325873 4.425867 -0.3813555 -1.6933295 0.5941092 -0.54756397 1.1186059 -1.8252107
1268 0.61827636 -1.7418638 -0.10614025 0.25265634 1.1117992 0.02721216 0.9879232 -1.5764233 0.51673806 -0.41516173 0.0865676 0.31013545 -0.33031324 -0.5702868 0.91835743 -0.8357378
1302 0.6465349 -0.6858914 1.0098094 0.5957842 0.48595813 -1.1285933 -1.0059832 -1.1090374 -1.273192 -0.20730747 -0.018259248 2.1568189 -1.3696789 -0.03143429 0.5284265 -1.167728
900 -1.6241989 -1.8032814 -1.3164352 2.1670547 0.33617026 -0.15038568 0.61030686 -1.811126 1.1015636 -0.33609456 -1.5449601 -0.6866468 -1.3397038 -0.8215298 -0.090369344 1.0935673
28 -0.1157384 -0.87365746 1.2420622 2.3778718 0.9564805 0.91195214 0.28968015 0.3746888 -0.8222636 1.2832146 -0.7515613 -1.2613549 -0.86561275 1.001243 -0.13397482 -0.8744081
5605 -1.7906419 -0.07944267 -2.5154114 2.0813637 0.7106891 -0.8394873 -2.2857518 -4.498747 -0.43654117 0.3340072 -0.50982845 0.3121753 -1.6434741 2.090268 -2.3670318 -2.0759473
42 0.8398521 -0.8166492 1.112782 0.4517107 0.5226591 -1.3172235 -1.0331037 -1.4462055 -1.1982177 -0.14427905 0.007960376 2.6006787 -1.756251 0.024339532 0.7962812 -1.3023231
4210 -1.4606596 1.2966589 -0.1581308 2.496133 -1.5113987 0.21018559 2.0543687 -1.1892908 -0.5768236 1.163937 -2.883856 -0.38808602 -0.20089607 -0.37282726 0.37897235 -1.7288454
881 -1.1463672 -1.4819747 -0.7745586 1.9576852 0.6834037 0.47024393 -0.0037069155 -1.501154 1.0973117 -0.15427567 -0.23944 -0.093029566 -0.7635552 -0.41832983 0.022268983 1.2725548
1424 0.4781694 -0.35112196 2.4528956 4.980744 1.4986693 -1.2178229 0.90067273 0.70306087 0.1359634 0.6956137 -0.7778923 -1.4590912 -1.6389823 -0.9584635 0.46195406 -1.0943626
1445 -2.3432853 -0.04058737 2.850128 3.5258856 1.5646377 1.2834337 0.72839284 -0.5908483 -0.2822294 0.40836018 0.71713275 1.1022388 -0.12779722 -2.362374 -3.9446785 -1.1882204
819 -2.224617 -0.10112881 2.6392648 3.2751248 1.508908 1.1995709 0.6518055 -0.54423904 -0.20290102 0.36353233 0.63902247 1.0228958 -0.10787733 -2.1722767 -3.7577965 -1.0483572
74 -1.1484265 1.6934956 1.8507032 0.8466214 -0.15792525 0.17864352 -0.517344 -2.1315894 1.4546092 0.48200354 -0.42613232 0.31293002 -1.4280905 0.020524936 0.41980985 -0.35567945
789 -0.89961505 1.7244059 2.0414627 0.8159722 -0.21509641 0.17217702 -0.48698243 -1.9811951 1.6322454 0.5784234 -0.4321793 0.24761596 -1.3539468 0.22483175 0.19448954 -0.42658588
5979 -1.4863738 2.147411 1.8897858 0.9531329 0.12754191 0.49615157 -0.6129481 -2.47924 1.6214386 0.5887811 -0.9038008 0.52085805 -1.8089623 0.3688999 0.6253081 -0.18028398
3053 0.3898994 -0.31488395 1.6892475 4.6658854 1.5204825 -0.6291766 0.64114743 0.78802496 0.16991928 1.217156 -0.854173 -1.563307 -1.6281954 -0.8605729 0.4636681 -0.7862541
5745 0.43589568 -0.44848904 0.38589084 0.08395642 -1.562149 -0.57111835 1.0744371 -1.3387077 0.61620134 1.201533 0.39009896 -0.10885443 -1.5705683 -0.11889264 -1.2044077 0.24614055
715 2.6766305 -0.015437586 1.4976665 0.57543135 -0.54260594 -1.6951083 -1.1289811 -3.7721405 -1.5887151 -0.26921275 -0.6093699 3.9976873 -2.1760006 0.14091387 1.9816182 -1.8830423
1360 0.73953587 -2.7421267 0.14833458 0.065592565 0.6674908 -0.042481184 1.591071 -3.0323358 0.6001035 -0.15996893 0.6457141 0.62750626 -0.07935688 -0.36274722 1.3148351 -1.5140281
1970 1.9899771 -0.08394464 2.7623246 1.3199356 0.45313084 -0.92869526 0.2590261 -3.4422374 -0.78649974 0.14637 -1.9919457 -1.8117963 2.723067 -0.64764065 0.10678573 -2.2735395
8756 -0.9618497 1.8281345 3.277433 0.72882116 -0.022924554 -0.00824072 -1.333681 -2.1422203 1.281202 1.0162266 -0.5787403 -0.07592816 -0.5107303 -1.1509625 -0.53775316 -2.6963518
2181 1.0895036 -0.9758326 0.24164085 2.6486962 0.8736656 1.1082808 -1.6411376 -1.5560231 -0.49168447 -0.6708155 0.012662049 0.9467966 0.813892 -0.1317275 -3.3620682 0.013979496
66 0.23298988 -1.5538763 -0.31325054 0.25164568 1.0872517 0.49954045 1.0534211 -1.5895269 0.4104481 -0.46249434 0.13064003 0.46121135 -0.93241036 -1.2023183 0.9801541 -0.69689447
1610 1.9652141 0.12073413 2.6329155 1.15526 0.6391615 -1.1130466 0.03742164 -3.6105754 -0.4329797 -0.055495787 -1.6714326 -1.4998614 2.8030455 -1.1478986 0.21233895 -2.438717
4704 -0.7301763 1.2756273 1.5476705 0.20150469 -0.24236436 -0.36833352 -1.1035889 -1.9158585 0.09080763 0.9834955 -0.20394245 -0.41469097 -1.0567986 -0.95326793 -0.2915713 -1.1308714
716 1.8492796 0.085180044 2.812528 1.2156793 0.49879673 -0.88684237 0.22973378 -3.4812467 -0.69374484 -0.029464582 -1.8345631 -1.475733 2.7643993 -0.7251673 0.15362805 -2.1454964
4773 -0.8993491 0.8945102 0.17630567 4.093066 -1.6229082 0.51832855 2.7304263 -0.9101627 -0.9739717 1.4255726 -3.6987164 -0.13421336 1.1070426 -0.14507872 0.5225986 -3.0690064
1634 0.6677806 -2.467904 1.832731 1.6275166 -0.6560095 -0.43765974 1.1766988 -2.1687863 -1.5229222 -1.2828803 -1.5081614 -0.5859462 0.24852295 -1.7093011 -0.039305914 -0.14991279
6739 -0.017405964 -0.7827891 -2.1004715 2.765975 -0.64875156 0.29961506 1.2459142 -0.90123224 0.88081545 -0.5013617 -0.9434775 0.29762837 -0.2557772 -0.16194326 -1.9686964 -1.0145956
1727 1.4092596 -2.4614558 -0.63153416 0.92827183 -3.1271844 1.9185438 0.8574852 -3.3820739 -0.31963614 0.79782134 -2.292836 0.1258898 -1.2736785 -0.80538845 0.38875353 0.84746045
1265 0.67404956 -2.5316012 2.047225 1.817493 -0.6339521 -0.5000068 1.314958 -2.2920747 -1.5351876 -1.4004768 -1.6712474 -0.62236977 0.375238 -1.6043875 -0.1217513 -0.18629421
248 1.5151749 -2.3843193 -0.7750494 0.8794222 -3.1069105 2.0252173 0.54664886 -3.359913 -0.26417166 0.91270906 -2.101486 0.017207203 -0.89169496 -0.74272174 0.30835617 0.73619515
1637 0.24124773 -1.897745 0.104959734 0.17859933 0.78251284 -0.017794259 0.9505084 -2.8449404 0.04927062 -0.898102 0.08044323 0.5218741 -0.2355983 -0.3958243 1.3342118 -1.2422961
6602 2.3935895 -0.34094414 -0.94851553 1.4718186 -0.10157232 1.491132 1.2662553 -0.7046549 0.3936208 3.8572135 -1.1806438 1.1354753 -1.0569078 -1.825477 1.308092 0.9957085
5644 0.11506191 -0.18215168 0.26969686 0.36716944 -1.2365832 -0.6899631 1.1531882 -1.7584816 0.29110697 1.2412612 0.79369986 -0.010424094 -1.2621653 -0.068291925 -1.1384683 0.65406704
4415 0.67827505 -0.8005506 1.5469881 4.754073 2.0199757 -1.2015622 0.36991414 0.94199306 -0.43582767 1.2251035 -0.9471118 -1.390971 -1.4312565 -0.22721073 -0.033093497 -0.99090266
177 2.627399 -0.14818811 -0.9047273 1.4997586 -0.22131363 1.1619248 1.5667057 -0.7769616 0.6765629 3.8015225 -1.0453992 0.7278078 -1.0084422 -2.1195657 1.4323593 0.903096
6924 1.7992269 -2.534833 -0.636712 1.1650943 -3.499973 1.454308 1.1050483 -3.5210574 -0.07053764 1.1394871 -2.0198665 -0.17338966 -0.7514801 -0.70952314 0.29933283 1.0987892
5891 0.8577154 -1.0763991 0.4405622 0.33213744 0.41697732 0.6262461 -0.4831838 -0.6108916 -0.009430859 0.6909506 0.2630782 0.275049 -0.84288794 -1.7659371 -2.0012844 0.89310914
5957 -1.9925287 2.5604753 0.85520035 0.38645518 0.59260255 0.640288 -2.8786557 -5.270419 0.29452935 2.5530276 -0.7909458 0.4827826 -5.2261076 -0.2014375 0.85512674 -1.050661
4340 -2.2375274 -1.4709061 -0.49237648 1.9027255 -0.35170957 0.31556597 1.8498651 -3.6881814 2.3578951 1.7854016 2.1166534 2.033804 -0.49213347 0.09412622 0.09288753 0.95787174
7992 2.0138707 -1.2755946 1.2201381 1.2320561 2.786936 1.4561456 2.4145904 -0.07959953 -0.23518018 3.7697344 -2.2734284 4.0328884 1.9796165 -1.0091405 -0.14539143 -1.6413751
31 -0.48894015 -0.13697886 0.6710399 -0.13553615 1.6096108 1.7921422 1.2208261 -2.9073963 -0.6903992 0.2020575 0.21764727 -0.60582036 -0.12474021 0.77038914 -0.87772846 -0.047950357
6947 -0.020862682 0.054266267 -0.051567607 1.1964113 2.3531246 -1.1070831 -2.4787376 -4.355664 0.91667813 1.3639891 -1.2248597 -0.96213293 -1.3321158 2.046766 0.98230577 -0.8579688
6950 0.16626023 -0.043908823 0.14076151 0.61120707 2.7079067 -1.0367805 -2.2865374 -4.3806014 1.0305934 1.28145 -1.2951735 -1.2210879 -1.9373549 1.469594 0.67970467 -0.47055826
1276 -0.4431929 -0.053061523 0.9039804 -0.50293744 1.410862 1.784209 1.2698871 -3.1955538 -0.8910234 0.40656525 0.042236567 -0.16431336 0.15164296 0.6387262 -0.76520777 0.0038124733
8345 -1.9380585 2.357867 -1.8935584 1.8716865 -0.37688547 0.38555813 1.9056242 -2.7042787 -1.0697463 1.980852 -1.8316457 0.8895202 -1.2657374 -0.79026437 0.39725745 -1.3066776
639 -0.80534893 0.33914527 0.8225581 -0.52391315 2.2956626 1.5135326 0.8833869 -3.2829056 -0.44060707 0.77698016 0.64490736 -0.13596404 -0.122267336 -0.26843792 -0.12151232 0.53863627
62 0.42795634 -1.6017189 0.49931067 0.0602393 1.0534179 0.60298723 0.7019557 -1.3869624 0.32800183 -0.87307197 -0.40042606 0.43786195 -0.48547456 -1.1696712 1.0628203 -0.7714281
113 1.4689455 -1.3770202 0.7987524 1.2800671 2.7252226 1.0760015 2.0708787 -0.20121625 -0.5500122 3.9350145 -1.8741894 3.875103 2.0978231 -0.7100565 -0.022750832 -1.8341466
4292 0.16725215 -0.099085204 0.886627 1.8194667 1.0991211 1.0974454 0.6628547 -0.21089573 -1.1000748 1.4625213 -1.2166122 -1.7556608 -0.62241757 0.45685926 -0.4774971 -0.8509732
7993 1.582829 -1.8788197 0.62389755 1.2069602 2.5752952 1.2677698 2.2683077 -0.15896426 -0.01920368 4.0092387 -2.0175796 4.042112 2.2893877 -0.7346848 -0.08299806 -1.8254731
5867 0.42662486 -0.70674884 1.1903387 4.1445975 1.7423804 0.41275075 -0.30280292 0.1505379 -1.4724144 1.6643461 -0.6637043 -1.4632982 -1.5767525 0.8244066 0.3573429 -0.31935355
6384 -0.12534532 0.24792089 -2.604745 3.321751 0.10173508 1.4841608 2.212032 -0.5636814 1.1586794 0.31944078 -1.9735857 0.661941 -0.27705646 -0.34893733 -2.4893804 -2.7274752
249 -0.09216728 0.8259676 0.4992211 1.7225169 3.266585 -0.89918417 1.5152053 -0.47766215 -0.11054304 1.1752567 -2.6356956e-05 1.6867383 -0.398558 -0.30142176 -0.74123913 -0.9945345
4107 0.12479586 0.8283067 0.30214703 1.1701646 2.7410295 -0.47258484 1.0868683 -0.34270376 -0.14223795 0.93255454 -0.002237024 1.3002026 -0.24862944 -0.52783626 -0.82488954 -0.7848835
8755 0.1586606 2.9115515 4.1220703 0.6743546 0.89241946 -0.07546532 -0.332508 -2.2443585 0.75917214 0.7241303 -0.84288156 0.6815589 -0.5363538 -2.1691556 -0.3957924 -2.855493
6695 -0.04351456 -1.1583042 0.9554387 2.085791 -0.10082904 -0.0750433 -1.7263356 -0.9218123 0.43433592 1.9133811 0.5488571 0.87258506 0.13352259 -1.0733917 0.958921 0.3470883
7698 1.1147561 0.43331802 -0.07920873 0.91493684 -0.40133035 0.995805 -1.1779586 -0.44664046 1.3966738 1.3450327 -1.8672568 1.1651647 0.045338936 -1.073972 0.16938464 -1.5195544
49 0.14209422 2.9495587 4.149635 1.0046033 1.1954684 -0.018888023 -0.3903507 -2.1673584 0.66178495 0.8829584 -0.5836342 0.6798834 -0.11387815 -2.0065567 -0.37485066 -2.7284956
1896 0.3550769 -2.1376495 2.809173 1.2698761 -0.05416283 1.1844488 0.72552204 -0.823867 2.4954684 -0.6408154 -1.8443711 0.024314856 -1.5336293 -1.4404784 0.7201204 -0.16986349
3005 0.5746037 -0.19020514 1.2568005 1.3220457 0.04119214 1.2154036 1.9154799 -0.6164837 1.6871954 0.8374864 -1.4533399 1.2237799 -0.17153986 1.0438468 0.7606969 -0.41238722
9044 0.27480996 -2.1923952 2.9163835 1.2755693 -0.06521724 1.1815817 0.8001867 -0.78619355 2.3999012 -0.68930626 -1.9514086 0.025821233 -1.6383746 -1.333331 0.86200184 -0.3916802
9037 0.26752323 -1.8942614 2.4037793 1.1159867 -0.13635091 1.5135404 0.664878 -0.5731332 2.1622155 -0.40968522 -2.080314 -0.089224875 -1.4235973 -1.384754 0.540552 -0.24789207
6946 -0.6146162 0.27009204 -0.45706505 1.4010364 2.3464587 -1.1188993 -2.8800912 -4.213773 0.92012465 1.5085677 -1.5379536 -1.0627382 -1.4820057 2.1633515 0.82730025 -1.2235154
72 0.59699965 -1.5033996 -0.40291944 0.18879627 1.0475533 0.5297328 0.4812295 -1.2255392 0.13874099 -0.69633126 -0.33357647 0.4474149 -0.786506 -0.8833614 0.66373205 -0.9616958
2 -1.4342321 -1.6122822 -0.963445 2.5518126 0.826678 0.6414929 0.029859297 -1.6018145 0.7989987 -0.11231422 -0.21224189 0.1938286 -0.69544005 -0.47722387 -0.048183654 1.3414899
4514 3.620454 -0.05061261 -0.14295572 1.7533069 -0.500024 -1.4803919 0.6999676 -3.3458622 1.4538025 -0.06552229 -1.6026846 -0.6456775 -0.694977 0.66628706 -0.58183944 -1.2690036
5198 2.9583154 -0.11158027 0.24754652 1.9715185 -0.40193933 -1.7196097 0.2255639 -2.7589705 1.1319871 -0.27689904 -1.3521041 -1.0254505 -0.33616516 0.3734133 -0.91883916 -1.0865084
4184 0.44639868 -0.7357655 -2.192902 2.8380566 -0.94659007 0.6286785 1.3796479 -1.1461468 1.4829745 -0.78494024 -1.4201746 -0.03460549 -0.22967799 -0.8489549 -2.307661 -1.1635637
3926 -2.5429335 -1.9064857 -0.4508713 1.8225933 -0.27076328 0.7060272 2.0373473 -4.119844 2.5724952 2.0974169 2.2263947 2.1880887 -0.85699683 0.17961584 0.17307115 0.85798424
8571 -1.3207754 -1.6803029 -0.94121534 2.073044 0.73690194 0.5198545 -0.60184723 -1.6878184 1.0465827 0.03143035 -0.2666477 -0.023591746 -1.1714801 -0.013908277 -0.15278432 1.4496135
1244 1.1903492 -0.7928061 1.0857418 0.75208056 0.2769148 -1.295461 -1.0743204 -1.9686704 -1.8537216 -0.20270945 -0.48780873 2.1226118 -0.27741438 0.043559413 0.8802029 -1.603153
5550 -1.6232742 0.273462 0.6099241 -0.5860201 2.0665967 2.3035853 1.0303237 -3.2744577 -0.97475606 1.1231158 0.7482985 0.012350422 -0.42896706 -0.8821387 -0.31877854 0.10758734
4387 -0.31798697 -1.478607 1.1518981 -0.7103797 -1.0555888 -0.67980325 0.19919004 -2.5162847 0.9971965 2.4374247 0.8756845 -1.008704 -1.380502 -1.5178303 -1.0047482 -4.733989
139 0.7060713 -5.318551 -0.26453623 1.9436618 1.3935189 0.7194299 1.633726 -3.7215986 -0.5623316 -1.7297246 -1.0638474 -1.7878846 0.71191156 -1.3854326 0.2856682 -1.1095675
989 0.51081634 -5.354164 -0.30906716 2.0455806 1.4357092 1.0829675 1.6948836 -4.190905 -0.5275506 -1.8046511 -0.7438539 -2.148393 0.52625525 -1.6811132 0.24805002 -0.61676395
1135 0.17119549 -1.010245 0.20155762 0.05933071 1.6549765 0.40255228 1.2007271 -2.065366 0.15500855 -0.70719296 0.08924812 0.90940076 -1.05561 -0.83187294 1.4164352 -1.0637437
2649 -1.1209173 -0.7791998 -1.0098724 1.9797695 1.0376672 -0.8048682 0.53993565 -1.7411584 1.576089 -0.53837895 -0.919914 -0.76060885 -1.1489218 -0.09742416 0.31001654 0.39196017
5981 0.8697751 0.11677989 1.3914562 -2.0494685 1.8625675 1.4246553 1.5508299 -1.5246701 2.3245046 3.1602201 -0.30287847 0.61783856 -2.1050353 -5.0784364 0.5874658 -1.712302
9040 0.085801594 -2.7222939 3.119667 1.2895339 0.121151604 1.3353806 0.76698744 -0.7839081 2.5905414 -0.8285035 -2.1116552 0.37599123 -1.8001939 -1.1901854 0.6560615 -0.16033411
1524 0.35804367 -2.4541063 1.7552575 2.7224772 -1.0785915 -0.6705456 -1.0213133 -0.6374163 3.6489875 -0.5279529 -1.0548942 0.0022304803 -1.8541826 -2.2008483 -0.033311497 -0.9022427
353 -0.5885253 -0.81688267 1.3152525 2.2440379 0.10612011 0.22878467 -1.5924847 -0.8534349 0.8752801 2.5041606 0.44427556 1.4576035 0.16690812 -0.90322125 1.3621676 0.1422089
48 -2.0440593 -1.7532326 -0.5078811 2.4311745 0.6050634 0.086664 -0.10436063 -2.1944218 1.2805474 -0.14307718 -0.023784023 -0.4970522 -1.1972685 0.25255093 0.018534131 1.1416662
7533 3.2657604 -0.23571828 -0.20000759 1.7145711 1.9692404 1.683698 0.94205076 -0.75559235 1.9037372 1.4825151 -0.67392576 1.4641209 -1.5421253 0.46815506 0.6841321 0.9245644
6050 -0.46444982 -1.049513 -2.1259305 3.4147382 -0.6261489 0.34283012 2.0495167 -0.77076715 0.64233816 -0.47471845 -1.2719991 0.21044527 -0.04531569 -0.32951045 -2.3591423 -1.7006975
5392 -1.9152027 2.1749442 -1.7692083 1.6551832 -0.14133964 0.4079871 2.0829523 -2.4804811 -1.1230657 2.009577 -1.9089632 0.45416486 -1.0182253 -0.61081266 0.34803462 -1.3281882
3342 0.8970773 -3.6184208 1.2871629 -0.024323849 -1.2759907 1.6832455 3.38728 -2.4083881 -2.6625447 1.3523141 -3.7198107 2.5511205 -2.0949163 2.1766841 -1.7173916 0.6397321
7946 -0.4465781 0.73471344 1.9277048 -0.13430169 0.8533153 2.4490397 0.86472297 -2.9131262 -0.14744474 -0.93995124 -0.5629003 0.6075973 -0.1198979 -0.973031 -1.6535718 0.6856041
181 -0.1084163 -0.96237105 1.2914364 2.2943354 -0.1946716 0.008091776 -1.183599 -0.5246205 0.7772242 1.7867467 0.34791723 0.955621 0.110163756 -0.932711 1.0146409 0.3948105
3335 0.9133664 -3.3104947 1.0682371 0.15752198 -1.0480143 1.5236597 2.9872038 -2.2220228 -2.4451888 1.1037463 -3.5765007 2.3388498 -1.8049052 2.053946 -1.4954242 0.7823924
4141 -0.61429095 0.75684625 3.0333765 0.28657892 -0.42624316 0.25240618 -0.45023367 -1.4480267 1.1722757 1.1968493 0.6060988 0.23413767 -0.91811424 0.015714511 -0.11503948 -1.6085643
774 -1.4336716 -4.6448736 1.04632 -1.2748148 2.543494 2.621795 1.6850287 -1.4772809 1.1918743 1.4820725 -1.9736654 -0.5491278 -2.4868338 -1.1383307 -0.35058185 -0.54495174
3013 -0.7043076 1.2817723 1.865067 0.6270044 -0.5869414 -0.09735283 -1.0569308 -1.7814294 0.42181048 0.4858031 -0.1034906 -0.05196795 -0.66391385 -0.7086408 -0.5235139 -1.0384532
4358 -0.16260685 -1.0209272 -0.84980315 1.481795 0.44307885 0.6356075 -0.9267261 -0.9721558 0.065119706 2.1604578 0.09957655 -0.32439607 0.41490942 -0.48655793 0.2420271 -1.5436945
839 -1.4718978 -0.35230395 0.39394188 1.3493906 2.9698675 2.148678 -1.4860709 -1.4796883 -0.93909717 1.9212984 -3.2236855 0.47465637 -0.6481752 1.0424969 -0.22413668 -0.14505072
3112 0.31683058 -1.6292653 0.9475932 -0.653156 -1.0133096 -0.8263615 0.097302236 -2.7134287 0.82475924 2.2606707 0.93228495 -1.1621376 -1.2856733 -1.2364856 -0.46678686 -4.286077
1339 -1.6007398 -4.399848 2.1053314 -1.0706834 2.0077274 2.1204524 1.3745146 -1.3196034 1.6888641 1.9879018 -0.9917592 -0.5626279 -2.2936954 -0.55943626 -1.0936576 -0.37139508
9173 0.5664055 0.713009 0.35684866 0.9728895 2.6875565 -0.39593688 0.6848341 -0.3187429 0.2957825 0.6664197 -0.19786675 1.2127936 -0.13241632 -0.4824085 -1.3820878 -0.67535233
7001 0.8515624 0.4681005 0.12681112 0.8204014 1.1717395 1.4193269 1.3418406 0.16783628 0.8211032 1.7546018 -0.42871907 1.1248698 -1.9795427 -1.172217 0.22008708 0.95483226
1449 -1.4901881 -0.56601673 0.5638655 1.5457385 3.0541873 1.8617287 -1.5012124 -1.4441693 -0.7342534 2.2978382 -3.0316308 1.0198927 -0.31257626 1.6538672 -0.29728532 -0.19447196
3144 2.7105844 0.2375269 0.19744492 1.6699368 2.0931542 1.4005455 0.44353133 -1.0545819 1.8383493 1.2156198 -0.5680794 1.3956856 -1.4357969 1.2590295 0.69450796 1.1084857
505 0.6314076 -0.6145915 1.929593 0.4358403 0.52876246 -1.3671895 -1.177303 -1.5146742 -0.47826293 -0.27450976 0.59560513 2.9795122 -1.6183343 0.126136 0.7783442 -1.6378119
3376 -1.0299662 -1.6512829 -1.0632957 3.095192 0.47273144 0.049637858 -0.22575353 -1.6131951 1.8716635 -0.1666431 -0.85909015 0.065636 -0.66763794 -0.8345027 -0.69424945 1.6577625
5166 2.1626837 -1.1462052 -0.6150821 1.3765742 1.0311852 2.0088396 0.79348123 -0.9467413 -0.026411168 1.9355444 -0.8802304 1.3158087 -0.8220029 -0.14392383 1.698073 0.84904426
3805 -0.6831659 -2.0691147 2.4949234 2.8806188 2.1569288 -0.886102 -3.986415 -1.3713845 -2.8531387 -1.002555 -2.3477705 -1.4201162 -2.340382 -2.7422266 -0.9131685 -2.1461303
7025 -1.3497775 -0.92593336 2.0274198 0.6367055 1.0210795 -0.72012866 -0.81648743 -0.4415099 0.4671673 -1.0933996 -1.0689068 3.4141436 -2.3116908 1.1238139 -2.8971105 -0.75575495
1093 -1.5473139 -0.61746466 0.05968407 1.3743073 2.9072847 2.0581317 -1.5646778 -1.6611931 -1.099437 2.4289794 -2.829903 0.552479 -0.33068827 1.3810858 -0.1706579 -0.4571305
5080 -0.13507351 -1.1808534 -0.42021653 1.9626912 0.05653307 -2.8805223 1.5966673 -1.300415 -0.17989992 0.17930056 -3.539842 2.577843 0.7987354 -0.43661633 -0.82425916 1.5988374
8761 0.6938159 -1.4703219 0.5184195 0.06380769 0.44488552 0.68390894 -0.62637556 -0.49425066 0.11413113 0.79743123 0.048573434 0.4490613 -1.0134656 -1.6231049 -2.4216073 0.78171766
3000 0.009753705 0.032963227 -2.5213537 3.500419 0.5145675 1.9974942 1.7067938 -0.26488617 1.2735025 0.10841275 -2.4544616 1.0557714 0.13170944 -0.572348 -1.7808491 -2.901186
5013 -1.3108867 0.77057177 -0.07500797 1.7567704 -0.95128644 0.09513821 1.8771755 -0.48199487 -1.2507145 1.2864407 -2.0276172 0.5550582 -0.8595201 -0.64927167 -0.7715732 -1.655194
7546 -0.33300328 1.0820613 -0.28654385 4.697889 -1.8625364 0.32579505 3.220924 -1.29661 -0.9318714 1.2117367 -3.772906 -0.36282542 1.1562812 -0.12366474 0.5794005 -2.9972947
743 -1.5673637 0.13619897 0.95531034 1.2370365 0.24199627 0.69234246 -1.0408041 -0.6507269 2.0758104 3.5857286 -0.57261336 0.98499364 0.91007274 -0.4028009 -2.8621283 -2.858792
8659 1.5137933 0.83563375 -0.4328484 0.91585124 -1.5094888 1.6194601 -0.7677587 -1.0323318 1.096761 1.2717849 -2.5088909 1.6873224 -0.29358342 -1.328366 0.14936906 -2.3123
4479 -1.2055664 -3.203918 5.351307 2.5146916 -1.6583709 0.7803792 -0.6298614 -1.9862835 0.7611172 0.03688504 -1.6397841 0.6631257 1.7696137 -1.865725 -0.69769204 -0.6679361
2955 -0.14236405 0.8478135 3.3677917 -0.6027762 -0.65531635 0.32817304 -0.8880766 -2.37668 1.4288815 0.8741907 -0.3021889 0.1495357 -1.7876506 -0.035385508 -0.3392305 -1.6541746
7020 -1.4563618 -1.2213447 2.398645 0.85309666 1.3672897 -1.1340773 -0.8327526 -0.7342233 0.32293507 -1.1581692 -0.94680977 3.6776893 -2.4635289 1.469561 -3.3856337 -0.8203781
2920 0.9575037 -0.116449006 0.18994959 1.268133 0.7742069 -1.1809374 0.7568999 -0.87899137 2.0096614 0.45723686 0.8450911 1.3366544 -3.2753403 -1.5450513 -1.3856026 -0.8651849
9085 1.0180178 1.5965425 -0.37110427 1.0399246 2.6733675 1.4521981 0.52846164 -1.0669059 0.82387114 2.1823587 -1.317891 0.6025383 -2.301766 -1.6752352 1.1662589 1.4038087
4284 1.0641474 0.26105222 0.72652864 -1.5994644 1.2877843 1.0733423 1.099567 -1.7748694 2.3061907 2.697478 -0.3383826 0.5579118 -1.5116854 -4.650048 0.81576693 -1.3560252
32 0.04572492 -0.7180594 1.5311513 0.37869382 -1.2947879 -1.2916698 1.6773747 -0.9991673 1.4359324 1.5864581 0.6624253 0.66344345 -2.0264668 0.33174738 -1.5606856 0.3698477
5972 0.9604897 0.2255065 1.4331468 1.2788143 0.4752072 -1.3757474 -1.4087654 -2.3135092 -0.952641 0.27282915 0.68567723 2.8812957 -1.5227486 -0.04805465 1.7174032 -1.2398957
5272 0.42185938 -0.19451585 0.59086233 0.5732907 -1.2640133 1.1971889 0.90876085 -1.7425507 -1.0005579 0.35970595 -3.6242762 0.77144516 -1.5021952 -0.019958831 -0.034230582 0.7761971
768 -2.174125 -4.15609 1.7402492 -0.46208528 1.3644834 1.0420669 0.7758406 -0.9364222 2.2394238 2.4114876 -0.4074737 -0.9022669 -2.5688689 -0.07140946 -1.4057239 -0.25165346
3400 0.7470771 -1.1897274 0.39435327 0.49085715 0.6198413 0.66457605 -0.5596014 -0.68926996 -0.31045485 0.87268674 0.39990973 0.48336792 -0.6968317 -1.955452 -2.3952932 0.757286
6741 0.8390228 -1.9587345 1.6149017 2.8128278 -0.7966874 -0.9829095 -0.48414433 -0.47531042 3.0959573 -0.23110539 -0.9369363 -0.32831126 -1.5011911 -1.9580967 0.059251875 -0.8079477
3343 0.3744734 -0.19826472 0.74272203 0.84657687 -1.2604934 1.1016861 0.8714148 -1.5654099 -1.1885705 0.5972889 -3.475914 0.84921557 -1.4880054 0.3708945 -0.104216896 0.91817135
4087 -1.2352718 2.2746377 0.22124119 1.6603012 0.9683207 -0.23275106 1.7874484 -1.3043039 1.541339 2.9513834 -1.8497287 0.045423277 -1.2858725 -2.9216821 -2.6515288 -0.26521122
5204 -2.1801884 1.5745635 -1.1022611 2.2741742 -0.17561589 0.43079 2.4818437 -1.2563809 -1.382998 1.4990329 -2.6659963 1.3992395 -1.9779315 -0.6523311 -0.4557124 -1.0764781
3234 0.16953169 -0.56183696 -2.0909243 3.0170815 -0.4002979 0.6089921 1.1302571 -0.82650876 1.1889215 -0.8952739 -1.1809616 0.5484375 0.09561739 -0.8292636 -2.2932239 -1.5461392
1318 -0.19858159 -4.4161596 1.1619217 -1.7742304 2.3343866 3.0868883 2.1015017 -1.8169584 -0.20366466 1.417225 -2.251896 -0.69399774 -2.0941522 -1.6624687 -0.16446096 -0.7696555
4277 -1.3258344 1.5307605 -0.15037942 0.9893582 1.1088251 -0.78642553 1.3998275 -3.4762836 6.521624 0.74338967 -0.43467057 0.2678251 -0.019927252 -0.35696107 -3.9310448 -0.92565584
1989 -1.986239 -0.37787288 1.6963013 1.2334224 -0.093733825 -2.6241148 1.8157616 -2.4528992 -0.43996885 -0.8447029 -2.768159 0.9440128 0.05513712 -0.71665907 1.2270472 -2.3174238
5982 2.9026835 0.38628703 -0.10871605 2.7375906 2.7151961 1.3351263 -0.19643806 -1.3422492 2.232111 1.2888534 -0.3005239 1.6878381 -2.5038934 1.6398793 0.6469394 1.4845386
7027 -1.2873113 -1.1636612 2.3876364 0.9358147 1.0524805 -1.0366154 -1.1236578 -0.54638875 0.4917061 -1.0966551 -1.093733 3.8092499 -2.5568933 1.3784001 -3.3507097 -0.75729865
1890 0.38383898 -0.83106345 1.6037124 0.9340403 0.6098222 -1.5092319 -1.0468025 -1.9735675 -1.363466 -0.12157242 0.35752958 4.2780704 -2.563982 -0.1891684 1.5228305 -2.1277075
3888 1.2291298 -0.4089601 0.53837657 1.1157863 0.96691334 -0.9766235 0.95487976 -0.88678503 2.1982598 0.5854994 0.87187475 1.5754273 -4.029529 -1.8532171 -1.9681978 -0.6589247
4192 3.1542146 -1.5148523 2.25542 3.2453265 -0.10964032 -1.1119264 2.2366204 0.3929386 -0.029764254 0.93979824 -3.6114445 1.1259444 -2.3851678 -2.1646874 -0.6550963 1.683461
516 0.10928254 1.0281286 2.9427922 1.3773628 1.8559173 -1.4170432 0.9367622 -1.4531692 0.5275683 -0.16596383 -1.6990584 -0.35325715 -0.5923908 -0.93465894 -1.6118425 0.5383527
3350 -1.8540552 1.6463776 -0.0712274 1.3504752 0.94179577 -0.74551016 1.2161025 -3.2217865 7.017548 0.8036661 -0.9040895 0.90040576 -0.17799911 -0.15080188 -4.0277753 -1.2817965
1346 0.05157803 0.9559475 2.956533 1.3129529 1.8338544 -1.3554546 1.1582505 -1.4212068 0.6018933 0.0013976059 -1.7709984 -0.28916672 -0.45230398 -0.93610966 -1.5383925 0.5483808
1992 1.3713193 0.88509035 2.0446577 3.0218782 -1.2831013 0.1745173 1.3180051 -2.3274958 1.1408142 -2.039329 0.054435473 0.6531094 -0.31611684 -1.016508 -1.6744405 -1.2397792
8294 0.0905644 1.0093954 2.436562 0.32665434 -0.32334548 0.44438833 -1.4165634 -2.0758948 0.42492297 1.4334124 0.5964494 -0.56910455 -0.58650035 -0.7966823 -0.13765001 -2.0206623
1060 -0.73069406 0.3919359 -2.0578191 1.1240584 1.1095449 -0.6362357 -2.7071104 -3.2439363 -0.6866523 0.5768913 -1.400724 0.55692756 -1.5065026 1.8216031 -1.8474278 -2.228303
3727 0.91318864 -2.5972955 1.4910804 1.999073 -0.57737714 -0.71210885 -0.95790845 -0.37188116 3.2730663 -0.075464875 -1.2889017 -0.3161292 -1.8954941 -2.0830839 0.36408648 -1.2099085
5178 -0.32279995 -1.4276713 -0.41422197 2.352331 0.18784927 -2.944819 1.8701562 -1.3838389 -0.23944564 0.23327251 -4.3382125 3.2660947 0.93076396 -0.406867 -1.121048 1.8908888
6697 -0.3731044 -1.2869405 0.93466944 2.633752 -0.49363896 0.5007203 -1.6762842 -0.4976778 0.5483463 1.8749579 0.36468014 1.108468 -0.16478133 -1.3484579 0.79361093 0.25827485
7628 0.56681585 -0.36404872 1.1711197 1.1397814 0.00066744373 0.8786658 1.5640721 -0.43244496 1.4986293 0.40882352 -1.2462271 1.0025954 -0.2865418 0.56496924 0.79445916 -0.39599094
7926 -1.6837722 -0.23812205 2.357205 0.7784819 -0.7115421 -2.219423 1.562202 -1.8345902 -0.84004724 -0.80696976 -3.1147575 0.7088978 -0.76197577 -0.26063842 0.60016805 -2.1419206
6489 0.5668397 -0.43278235 1.5681363 1.1365682 -0.007949508 1.0818185 1.7274405 -0.71117586 1.6658529 0.5590445 -1.4218733 1.3417466 0.01799959 0.83432966 0.76705074 -0.48036286
2795 0.16285905 0.7085454 -0.099810734 1.3072861 3.189102 -0.073069796 0.68675345 -0.19501343 0.4448255 1.0239319 -0.4118721 1.6383251 -0.47603574 -0.4364165 -1.2570417 -1.0127983
1729 -0.14822787 0.9052128 3.204879 1.6450269 1.8132915 -1.5485317 1.3327986 -1.5842948 0.680393 0.0163199 -1.8439685 -0.28951228 -0.73852015 -0.8251025 -1.7022133 0.8443208
5702 0.9039535 0.31267273 2.8246706 3.6898718 -0.246984 0.07250585 0.30621377 -1.5676049 -0.65790045 1.3689098 -0.41354337 0.15247133 1.4810834 -0.087676704 -0.18183416 1.2949486
5072 2.345989 0.03344175 -0.80247533 0.8710559 1.4118348 1.9188757 1.9845178 -0.9919978 0.7665503 2.4300907 -0.96976155 1.8163606 -1.0675547 -0.66896516 0.8528493 0.9865921
5937 2.8800771 0.054392807 -0.6187413 0.6998584 -0.07803495 -0.8058769 0.87236094 -2.5102134 2.1093547 0.17703879 -1.6264262 0.07022578 -1.1610968 0.8751387 -0.44471937 -1.150857
3677 -0.8992379 0.5847207 0.61458856 1.7500479 3.425691 -1.8798769 1.4479764 -0.6798582 -0.20420386 1.3323735 0.018445628 1.3903359 -1.5828376 0.49048173 -0.6741869 -1.4806561
4083 1.5956542 0.9768051 2.1549716 3.4197953 -1.1562942 0.06160707 1.5553606 -2.605766 1.4804062 -2.2642276 -0.035261713 0.46033436 -0.5478581 -0.86647683 -1.6501099 -1.1854196
926 1.2461399 0.09553658 -0.5283826 0.9608224 0.32317927 1.0251253 -1.4568117 -0.61069673 1.8312614 0.656762 -2.795162 1.2595602 -0.37199983 -1.3264502 0.036612157 -1.2562685
137 1.6046133 0.9357931 2.300974 3.617244 -1.1477891 -0.11151923 1.3704785 -2.6382792 1.4028203 -2.453879 -0.107489884 0.60455155 -0.7244505 -1.0477488 -1.8034772 -1.418758
4397 -0.3552638 -0.49037895 -2.4985244 3.2868612 0.37363577 1.2864509 1.6312516 -0.27575383 1.8340367 -0.7522202 -2.29619 0.90817446 -0.4567346 -0.96904826 -2.0589106 -2.6563568
520 2.3061206 -0.22019759 0.4550404 1.7395687 -0.10123635 -1.5832155 0.13195871 -2.1223567 1.1145456 0.30397058 -1.0935853 -0.88717645 0.42357945 0.9455441 -1.0475968 -0.5799668
609 -2.4216475 -0.26804858 1.1036006 1.1416728 0.2579246 -2.0114584 1.7850035 -2.2451792 0.26774445 -0.9766466 -2.567415 1.0824713 -0.40750477 -0.7291498 1.1869775 -2.366173
7174 0.9880614 -2.873922 3.3398988 0.54446137 -1.4880902 -0.31612247 -0.43372345 -3.130558 1.7264051 1.0944651 -2.2349784 -0.57105565 2.797095 -2.664362 -0.98224866 -0.84223926
4896 1.0437251 -1.3253998 1.6886011 3.0600982 -1.191124 -0.72834176 -0.086324684 -1.0690253 2.7675912 -0.6482838 -0.850311 -1.1013252 -1.669533 -2.1732094 0.18797499 -1.0828056
3581 1.0283015 0.8452938 -0.31083554 1.4989828 -1.4894824 1.5701418 -1.3517994 -1.0282106 1.4342623 1.5163891 -2.1093419 2.0605886 -0.14532655 -1.2670116 0.22988506 -2.010792
3948 -1.309747 -2.8992097 5.054059 2.4355788 -1.2397326 0.87595826 -0.6854962 -1.6681007 0.70878035 0.22910763 -1.2434206 0.75865984 1.766932 -1.4660159 -0.5190104 -0.727131
3977 -0.032278255 -0.060282793 0.69845027 1.6538079 1.0237335 1.1022573 0.9960327 -0.28520542 -1.2676433 1.4953921 -1.6388949 -1.6232945 -0.9264668 0.5964841 -0.553525 -0.78517306
7180 1.0363711 -2.8400948 3.45082 0.6031463 -1.5878794 -0.4143757 -0.3886053 -3.3693392 1.5669518 1.1716298 -2.36572 -0.6658732 2.7686327 -2.8941815 -1.0121536 -0.8493515
4023 0.29059982 -0.11390004 0.7889037 1.2990024 0.87220985 0.9535831 0.820224 -0.26787636 -1.1434392 1.1402626 -1.5262294 -1.4878682 -0.77207386 0.5188808 -0.26627123 -0.654207
4429 0.8754211 -1.1884089 1.526059 2.9340513 -0.747078 -0.819037 -0.7144812 -0.85391176 2.4266224 -0.38559678 -0.8912252 -1.1611851 -1.5359786 -1.7708012 0.20513792 -0.79032445
63 -1.4634978 -0.93037677 -0.41300446 2.4992974 -0.57471246 -0.22627264 2.9242039 -3.7955458 -3.966087 1.712559 -1.1844894 1.7457448 2.392437 -2.9207413 -1.9177243 -1.0437745
191 -0.84254795 -0.6030078 -0.27290908 -0.054478537 -0.75891995 -0.7672426 1.1013149 -3.3670666 1.2764148 0.9490388 -0.037629616 0.7991673 -0.8952749 -1.1992145 1.0061042 -0.35795146
1623 0.42031524 -1.9475193 1.5940003 -0.9478917 0.2564422 -0.7571521 2.308516 -1.3882222 2.5166848 2.2806962 -0.3896969 0.21918951 -0.4416317 -1.5766162 0.038822528 -1.5791857
3165 0.028377052 -1.2566537 -1.0911558 1.817373 0.46566683 0.69422245 -1.039296 -0.8062385 0.22349589 2.108075 -0.069679864 -0.21966322 -0.0075374106 -0.350895 0.2854815 -1.6512096
4333 -2.6900454 -1.3248254 -0.41976762 1.5790994 -0.41606405 -0.07525587 1.5136389 -3.1952379 1.9596345 2.2829547 1.8899859 2.3406985 -0.2520939 -0.35340145 -0.41434565 0.5152828
8956 1.5990032 0.19989353 -0.35396045 1.2790623 0.63172024 1.1452996 -1.0724488 -0.49629202 2.0663013 0.39999792 -2.8875585 1.4072845 -0.13206452 -1.4024439 0.19629441 -1.518362
8598 -0.28632727 0.22724211 -1.1457305 1.0265951 0.425122 -0.580596 -1.8837265 -2.3808775 -0.14427648 0.58896005 -0.5958769 0.11213494 -0.64228433 1.8424418 -1.7104217 -1.4155173
8588 -0.50594085 -0.21716751 1.1485131 -1.269677 2.2581036 -1.9375362 1.0244404 -1.6892886 0.4707525 3.2157285 -4.180394 -0.33663565 -0.7976186 -2.1666353 -3.33751 1.5949258
684 -0.46838495 -1.1672318 -2.865224 -0.017102517 -0.55630827 0.24244492 -1.888554 -1.9061424 0.33097038 1.9500878 -1.5995196 3.3387988 -1.5181024 -2.8077958 -2.5330367 -2.2698638
6009 -2.521143 -1.153044 -0.8353439 -0.60001993 1.6037961 -1.7265842 1.284581 -2.175177 1.1954845 4.0899687 -4.086091 2.0365136 -0.94259727 -0.14600606 -5.466432 0.457318
1333 0.004089268 -0.8481233 0.7669016 1.4545876 0.2472556 0.07503356 -1.1693045 -0.52739465 0.4557516 1.4381634 0.5352216 0.6865161 0.32568154 -0.67874753 0.5815987 0.12986326
5247 1.1883638 -0.1318433 0.7581144 3.3560188 0.49894634 1.0748118 0.01146929 -2.0006392 -0.9142207 1.7166607 0.60967076 0.8936045 0.42924246 1.3834405 -0.18738417 0.9361713
651 0.93689436 0.7499142 -0.362994 1.862135 -1.7484552 2.2443535 -0.6130966 -0.8495603 1.4296744 0.9642753 -2.3834336 1.2516308 0.1393745 -0.7162411 -0.108216524 -2.7320495
5506 4.0209312 1.2587172 -0.54223293 1.5571105 3.566638 0.21855521 0.43649352 -3.3840663 1.1879818 0.72872126 -0.32217926 0.79393494 0.31200862 -0.64048034 -4.254334 -2.3435118
43 0.11951236 0.57079047 0.102593 1.4331052 1.0537384 1.3897578 -1.7953846 -3.956973 3.194237 1.3078518 -2.229885 -1.3610727 1.1223117 2.266638 0.20774867 -0.73188955
8580 -0.43923247 -1.3549078 -2.948943 -0.08344862 -0.42997456 0.2065381 -1.9645044 -1.805022 0.46240872 2.1459043 -1.7711327 3.3517673 -1.6956587 -2.7017183 -2.5499926 -2.171392
3584 1.5911881 0.75950766 0.0066167237 1.6726685 -1.5511712 1.7990726 -0.6993222 -0.9612371 1.9982915 1.763091 -2.7044995 1.2637705 0.37780613 -1.0982244 0.4765474 -2.4112837
5323 -0.90810645 -0.8572189 -0.22007817 3.1166055 -0.8243318 -0.39817473 3.1130006 -3.9711888 -4.240518 1.6734825 -0.86237776 1.4714708 2.4615214 -3.1466675 -1.8372597 -1.116475
4068 -2.5852158 -1.5646297 -0.2098591 1.5394424 -0.6201642 -0.3998686 0.36020678 -1.4631381 -1.2100897 1.6198906 -1.6575006 2.713633 -0.094972886 0.7493572 -0.93018264 0.9871265
245 -0.26089433 -1.3807625 -2.9146178 -0.16876307 -0.54627806 0.32160065 -1.9944502 -1.9188099 0.29108495 1.8360991 -1.7694889 3.1442826 -1.6710956 -2.5965552 -2.340207 -2.1067872
6340 -2.6374526 -1.1802977 -0.5085238 1.7100511 -0.26306874 0.40942279 1.3535285 -1.732704 1.2792122 2.0313272 1.4907291 2.7835302 -1.0017782 -1.0140252 -0.5455845 0.82853466
9068 -0.119290486 0.47298077 1.5479031 0.77090406 -0.69114906 1.9479578 0.093709804 -1.035918 0.39116034 0.43366393 -2.473213 3.0156648 -1.3895146 2.5132232 -1.3629467 -0.99192786
3941 1.7196219 -0.47764114 0.70394117 -1.1757929 0.2775788 1.6299644 0.8656658 -3.003976 1.2229873 0.8677564 -3.1058273 -0.37550065 0.1097491 -0.2196202 0.025318122 -0.76340866
5325 1.1682193 -1.1540552 2.469829 0.98218536 0.22348894 2.6344333 2.1968312 0.17658854 -0.25410795 1.2490209 0.2767511 2.8825119 -2.6263838 -0.6375992 -1.4874043 0.92614514
5593 -1.9262688 0.46713874 1.5242585 1.9459221 0.21286416 0.9274813 -1.3282785 -0.767253 2.6558275 3.824099 -0.98204404 0.9030988 1.1123155 -0.2413826 -3.091894 -3.3109033
5164 -0.6034611 -0.8095751 0.53978175 0.20954612 0.8307621 0.7107872 -0.7603705 -3.44249 -1.1736604 2.2240994 -0.34560406 1.3660169 0.23020771 2.6200645 -0.9619313 -0.009120094
9069 -0.97370136 0.9362702 1.5675299 1.1021107 -1.1952459 2.4435987 0.36454457 -1.362962 0.53650755 1.3060511 -2.338741 3.7841375 -1.6028075 2.1386707 -0.59601367 -1.6722013
5716 -0.68701845 1.5318244 0.003047134 -1.2426686 0.6518957 1.3021135 -0.24088949 -3.938996 1.2715123 3.8983033 -0.25345692 2.7848384 -0.18935877 -2.8084106 -0.7403678 -0.09299082
318 -2.2603724 -1.3629318 0.59285086 -0.07278474 -1.7981788 -1.5346656 -0.7523604 -2.852261 -0.053890962 3.7434897 -2.9208944 -0.2317507 -0.881382 -1.7233826 -0.17625336 0.012553441
7882 2.7279494 -0.04213228 0.7347093 1.3882345 0.517948 0.9592969 0.04251471 -0.4943057 2.8310049 5.797735 -0.64536035 0.9896234 -1.6640075 2.617974 -2.9961677 -3.747447
5718 -0.6814863 1.4534497 0.11553816 -1.4400522 0.65979624 1.5093529 -0.18253884 -3.996352 0.87453127 4.05395 -0.35996026 2.8731523 -0.19259618 -3.0854514 -0.813229 -0.2327932
1895 -2.0531642 -1.5449 0.7560629 -0.37191078 -1.897276 -1.3828964 -0.47262046 -2.6147544 -0.08285487 3.7468092 -2.660886 -0.09439465 -0.45764026 -1.7983443 -0.37265673 -0.21639994
6827 -0.87912923 1.6359187 -1.6810323 1.8502 0.340175 0.6131093 1.8639523 -2.3738856 -2.2470636 2.5168679 -1.8729023 0.7253069 -0.29547998 -0.14347301 0.4035505 -1.1395465
7604 2.7507951 0.058212887 0.5411765 1.5710764 0.4004873 1.1950469 -0.12074075 -0.53534895 2.751891 5.9208207 -0.66883886 1.083787 -1.4594682 2.5307486 -3.0291028 -3.7062566
2815 -0.14413984 0.1720608 0.05743333 0.59565884 2.722597 -0.5612577 -2.351991 -3.9938385 0.50826955 1.6403018 -1.76596 -1.178097 -1.9234029 1.7610909 0.6037905 -0.6228418
8190 -0.031278733 -1.9063706 0.8186911 2.0193644 1.4011345 0.50872093 -0.24576634 0.040477693 -0.9528887 1.4069386 -0.63988787 -1.3002287 -1.1614027 1.801705 -0.17773744 -1.5640962
8139 3.1645215 -0.85938734 -0.63025 2.7579129 1.2833041 2.8668966 1.0786253 -0.21590556 0.4955436 1.9876362 -1.1731845 0.88826835 -1.3971009 0.018894773 1.1193533 0.3656579
5381 1.0217783 0.22672586 1.2508835 -1.8629048 1.3999343 1.1992658 1.4268667 -1.8099558 2.350182 2.8389986 0.14072527 0.62750375 -2.0472498 -5.148997 0.60319704 -1.8483342
727 -0.39763212 -0.32586804 0.677524 -1.1842777 1.8787516 -1.64847 0.730077 -1.8795696 0.26471847 2.8833833 -4.308668 0.34844902 -0.4844478 -2.2369516 -2.6200006 2.0143054
3698 0.4643881 -1.5193799 1.1096381 -0.15855886 -0.1778651 -0.6921971 1.8094081 -1.27235 2.163404 1.7940772 0.2224515 -0.35611677 -0.2731777 -1.3093112 -0.16472071 -1.1359901
6444 -1.0783079 -0.23704752 0.24059117 3.4954638 0.293714 1.9573629 3.5353389 -3.3506496 0.80653113 3.5825067 -0.8855783 3.194653 2.454327 1.7777072 2.447531 -4.456888
7825 -2.2314625 -1.4336797 -1.1100807 -0.5960756 1.2998769 -1.4730232 1.1137903 -2.4048686 1.2745228 4.2035975 -4.5818663 2.0406828 -0.93940383 -0.091315895 -5.606616 0.14783128
1835 0.117145956 -0.2533154 0.7012824 -1.2743456 1.8667284 -0.9682663 0.6181313 -1.7810382 0.647504 2.5874627 -4.424485 -0.23631123 -0.37338442 -1.801507 -2.6500022 1.6250144
6021 -0.123022184 -0.7736486 1.0742968 1.6425956 0.32512757 0.6316527 -1.6433865 -0.9660977 0.37535045 2.6460733 0.63363194 0.5435263 0.5082167 -0.57812494 1.1443882 -0.23549967
3435 -0.2540156 -0.63831663 0.45045686 0.27224982 0.82266974 0.55827594 -1.0268774 -3.38721 -1.2068713 2.1214733 -0.43892786 1.4435378 0.18695621 2.6195543 -1.268487 -0.09125245
5202 -2.1572964 -2.6056995 0.60601646 1.3708819 -0.24725288 2.644206 -0.17009334 -4.4029894 -0.70901424 0.05379853 -1.9675275 -0.027699126 -2.100151 4.048103 -0.56345326 0.38503426
4569 -4.7403493 -0.23423278 -0.5580766 0.65781105 -0.8695114 -1.3282101 2.180863 -3.1922548 -1.4282262 2.4061863 -3.5733125 4.0222077 -2.916325 -0.2128009 0.010643928 -1.0547662
94 0.24352832 -0.102153294 -0.7667385 1.466602 -0.48583403 -0.97570074 1.2269697 -1.5578024 -1.2137498 1.8613743 1.624851 0.764471 -0.6648859 0.2263228 -1.134904 -0.03437713
4155 -0.0054289857 -1.4003994 2.3994956 2.4417946 1.9990855 -0.9689802 -3.8947155 -1.4678544 -2.5934355 -1.1294686 -2.472001 -1.2075869 -2.6427147 -2.7086413 -1.0439413 -1.754226
151 0.007082773 -1.5049175 -1.101553 1.8362992 0.22420356 0.93165624 -1.3327484 -1.1190689 0.22995308 2.3453026 0.08071562 -0.13611019 0.27739418 -0.42681098 0.41641477 -1.586936
4981 1.4892998 -0.6153954 0.41186884 1.1426642 -0.39991754 2.1263335 -1.1568432 -2.283629 -0.5998584 0.12393116 0.32475418 -1.6644174 -4.312287 -0.312826 -0.5683946 -3.6611702
164 0.8200518 -1.6559515 -1.2654263 1.0428761 1.1303688 -0.31853372 0.11782488 -1.6663401 1.0086492 -0.9387938 0.5734998 1.3715051 -1.0085095 -0.19725515 -0.3210765 -0.8647694
4473 -2.421522 -2.5401611 0.751939 0.919371 -0.23424727 2.8018374 0.12322156 -3.8505127 -0.22903356 0.32680607 -2.0809338 0.3723804 -2.5370414 3.7990782 -0.22225136 0.11491899
4359 -4.486261 -1.7805047 2.1190372 4.133221 -1.2328496 3.4843445 0.14820233 -0.32772228 -1.8648648 2.4735894 -4.750182 -1.016953 -4.199499 0.17932121 -1.2844006 -1.5761805
2059 3.1797473 -1.268842 2.5733354 2.9928694 0.35542277 -1.4756433 2.057371 0.14290027 0.24355267 0.39778447 -3.5600333 0.3389198 -2.4230847 -1.7322176 -0.7548577 1.1455963
8563 -4.4772635 -1.9279716 1.7794046 4.0415926 -1.1237727 3.625687 0.27686802 -0.35404605 -1.9108441 2.631771 -4.0182786 -1.6031413 -3.862405 0.41399738 -1.6160955 -1.8358164
1838 0.92083067 -2.385808 0.017587032 3.6239676 1.293357 2.3558557 2.6039813 1.0301942 0.929326 0.8674856 -2.030774 1.8458511 -1.2413057 -0.2542988 0.16053209 -0.83944887
5326 1.9066359 0.007791693 2.2975829 0.90975434 -0.10176047 -1.5323673 -0.69799745 -0.99846005 0.71604115 1.6628526 -3.4070268 0.020014396 0.9425705 0.81796384 -0.7393415 0.74766445
3587 1.349647 0.3881682 -0.095648184 1.4707114 -0.53159636 1.9786611 -1.7922497 -1.3109804 2.858684 1.7931846 -2.9312463 1.0123681 0.115299016 -1.9041306 -0.122491404 -2.3183262
5735 2.9391186 -0.88141876 0.33573613 3.1609595 2.595823 2.142543 -0.0068694167 -1.4119222 1.6600596 1.4206516 0.028460817 1.4350852 -1.8781786 1.6771649 1.9128333 0.9292411
4188 -1.733462 -1.9265095 0.97069836 0.87399876 0.7058705 -3.2728577 0.382825 -0.67533606 -0.2751232 2.2696917 -2.606703 1.6173235 -2.2832353 -1.437719 -0.582123 2.733541
5619 0.74536115 -0.24431878 0.69150084 3.3619468 0.44791192 0.760085 -0.50225157 -2.0398738 -0.79753685 1.850644 0.584827 0.6403743 0.29471648 1.3640678 -0.14806269 0.9955605
3478 -0.6500989 -0.51401055 0.7873017 2.2557828 1.0804052 1.8818451 2.9088855 -2.8469257 -0.0513746 3.7077374 -0.47411755 3.2808697 1.8294724 2.2568173 1.9901532 -4.2837067
3088 0.4435154 -0.38169894 2.0897038 4.295345 0.46470237 0.093905546 0.55880517 -1.7574984 -1.103593 1.0257576 1.1568336 1.5389968 -1.3982947 0.8857751 0.39803904 1.7232217
1306 1.1641573 -2.4335675 0.15673712 3.6214006 1.0015745 2.4807026 2.18971 1.2412174 0.92745805 1.0452291 -2.115248 1.5800576 -1.404358 -0.26799905 0.056789234 -0.94362706
44 -1.3149154 -1.4114856 0.9614976 0.18043752 1.897104 1.4956156 0.9426783 -1.839896 -0.9379904 0.6782351 -0.27274325 -0.17216063 -0.6241832 0.98334306 0.10979837 0.19684006
7375 -2.8941734 -1.2606329 -0.6225369 1.7378291 -0.925082 -0.31192487 0.45555648 -1.9055952 -1.1226035 1.6238078 -1.5324475 3.167015 -0.028227655 0.46593848 -0.6540035 0.35682526
4708 -4.375308 -2.43175 2.0425234 4.393331 -1.4204895 4.0028057 0.28889802 -0.3720026 -2.1345146 2.8921516 -4.4860616 -1.7224815 -4.072674 0.49355045 -1.2097241 -1.8676475
53 1.1759063 -2.6491396 -0.02208408 3.763622 1.1250658 2.467688 2.7607572 1.0854175 0.8402335 1.1175214 -2.2426279 1.9744471 -1.5143696 -0.2292404 0.14900956 -0.9680628
4552 1.074068 0.37469053 2.6365561 3.7299516 -0.19218455 -0.07826348 0.42676616 -1.690933 -0.68104434 1.1188426 -0.48053628 0.41940492 1.5628272 -0.15747617 -0.25167572 1.2081184
4765 -2.1333 -3.7069094 2.3128319 3.441158 1.800135 -1.3353885 -2.729154 -1.1337914 -3.0005264 -1.5466601 -2.041719 -1.6187027 -2.2463048 -1.9815865 -1.1667292 -2.806998
241 -0.0019518998 0.9506881 2.915511 1.193216 1.6038557 -1.488802 1.0619373 -1.5054904 0.7713992 -0.26784107 -1.8423154 -0.27406028 -0.5112838 -1.0437716 -1.3312798 0.54271007
4601 0.7079144 -0.24505316 -0.09061421 0.82014674 1.3265458 1.364453 1.9672096 -0.06483212 1.1217297 2.4042375 -0.23614685 1.3123382 -2.3690593 -1.4994298 0.3271734 1.2873316
5103 -1.3961949 2.1340415 0.35527653 1.4139262 0.77980834 -0.09233246 1.7890987 -1.1180921 1.4486601 2.4893763 -2.016757 0.17373733 -1.3365972 -2.711341 -2.3554208 -0.33180332
4086 0.92985654 -1.2148365 1.3343751 2.150073 -0.2568036 -0.6329946 -0.8402416 -0.3020864 2.2223964 -0.29153058 -0.73249656 -0.3247954 -1.3193475 -1.4782773 0.18648739 -0.4278725
4421 2.3578842 0.53477186 -0.5267958 0.3405834 1.0330802 -0.7146471 0.94625443 -2.085645 2.2395883 0.35206985 -0.8527824 1.2284495 -1.30527 1.1303289 -0.4789996 -1.5134616
8402 0.5704406 0.035124786 -0.05483098 1.0718728 1.355656 1.312145 1.691904 0.035572074 0.9836508 2.2544253 0.09517631 1.0547632 -1.871891 -1.2923551 0.21632968 1.0826159
4481 -2.5228477 -0.13080762 0.47487918 1.646623 -0.29886582 1.9723674 0.20978177 -0.6918441 -0.2661608 0.24296685 -2.7431839 0.7170554 -2.8014605 -0.256312 -0.51890934 -0.7555912
6890 1.3350303 -2.1428857 3.0889373 0.8092037 -0.8929459 3.3791776 1.0518668 0.037041683 0.20155992 1.9328834 -0.31404674 2.3289099 -2.5822825 0.023598613 -1.3453455 0.8509534
524 -0.7672124 1.6123492 2.00103 0.24908684 1.88869 0.6287042 -0.5707457 -1.8817152 -0.39342976 0.31063282 -4.283937 0.1870438 -2.6649442 -1.73938 0.9797479 0.6673705
8031 -0.94342744 1.2229427 1.9252474 -0.30659562 -0.014658419 0.49902627 -0.4169574 -1.739668 -0.17662673 0.51893646 -1.0814738 -0.26326737 -0.5527871 -0.90872025 0.21457335 -1.5678145
1533 1.9171908 -0.104698114 0.7342689 1.5335587 -1.4900378 2.1714902 0.57304835 -1.043856 1.3277054 -0.27446154 0.8307845 0.19950616 -1.985044 0.0048594926 -1.5196728 -0.82261753
3879 1.2939879 -1.6069313 2.6878376 0.95159805 -0.58401763 3.371312 1.294386 0.17381378 -0.06875301 1.7463247 -0.09960186 2.3202379 -2.3737445 -0.12772912 -1.2202293 0.7628125
1699 0.21416292 -0.858689 -0.14005141 -1.3977277 2.1430774 -1.421587 0.09578677 -1.688667 0.88422567 2.4793081 -3.8589737 0.4250607 -0.28382286 -2.0733368 -2.6986845 0.66971487
8032 -0.7988742 1.0583413 1.9386276 -0.31713587 -0.19866249 0.690206 -0.6136166 -1.7293929 -0.016633436 0.65235806 -1.0318259 -0.25347045 -0.69138855 -0.8852647 0.4746083 -1.6124246
4051 -2.7889557 0.05416576 0.69719946 2.2052655 -0.58921593 2.155804 0.32552892 -0.8889771 -0.2264166 0.23318514 -2.9238133 0.5018352 -3.2655408 -0.20533921 -0.6601042 -0.7037112
1817 -0.6905316 1.5028449 2.0130248 0.29249614 1.9118447 0.6482288 -0.3831417 -1.9121923 -0.17911209 0.4204044 -4.231869 0.026603814 -2.7896376 -1.5133039 1.1901006 0.69276285
3824 -1.3660036 -2.1911018 4.213927 2.3595004 -1.0566295 0.8479104 -0.56442094 -1.2246282 0.20632976 -0.14098388 -1.6129731 0.7309667 1.1706855 -1.6261612 -0.49786383 -0.6939795
8808 -0.6459435 1.6036463 1.8039255 0.3456708 1.7301575 0.961313 -0.6940151 -1.7955076 -0.26478547 0.4164833 -4.3707767 0.083778664 -2.6489987 -1.637316 1.0821624 0.55577743
5704 -0.15227002 0.8790054 3.2087076 1.8258615 1.8165948 -1.4334054 1.0457801 -1.4598737 0.29777268 -0.0075717396 -1.7549884 -0.3136661 -0.035501998 -0.8027577 -1.3300678 0.70746964
1013 0.31806952 -0.28356203 0.6297041 -1.2584041 2.646615 -1.894785 1.3048245 -1.9023371 0.5615926 3.8516657 -4.661323 -0.041448634 -0.8326333 -2.376135 -3.705534 2.6712122
4294 1.5669521 -0.43936443 1.5777851 -1.2249447 1.4391872 1.1072164 1.3220414 -2.6001177 0.7105363 -0.31599137 -3.5043724 0.84953284 -0.22284326 -0.51976806 -1.5848799 -0.32154167
3388 -5.105889 -0.09234576 -0.7944554 0.25682542 -0.23415048 -1.2706046 2.5234406 -3.6449742 -2.1168199 3.0380538 -4.087429 3.9893262 -3.717647 -0.36942798 -0.28252536 -1.04108
5960 3.0894382 -0.45833504 3.4748442 2.7031038 -0.018168572 -2.4644854 -0.017194558 -1.2745911 0.21219748 1.460519 -2.9532235 -0.9087262 0.7325791 0.60798633 -0.5110302 1.073538
3950 3.3613992 1.5888969 5.529237 5.938677 -0.68287677 -1.4833105 0.9808945 -3.077621 1.5374676 1.0093579 -0.8698279 0.23696792 0.23869413 0.5406052 -0.58470684 2.0122688
3937 0.5917962 -0.16143887 1.8751644 3.026169 0.48153487 0.29364794 -1.3705761 -2.7117074 0.16740577 -1.7229563 0.34052417 1.8603526 -3.9650426 -2.3151648 0.33212614 -4.360653
4257 3.0959322 1.5208423 5.1940746 6.0287676 -0.030731224 -1.1959529 0.9823274 -3.2782798 0.88686997 0.89974475 -0.8305774 0.10567717 -0.059681714 -0.2026772 0.019823054 2.7401767
5324 0.42064992 -0.06561706 1.0375621 3.5856042 0.31015298 0.8875246 -0.28511325 -1.5533892 -1.0198396 1.191262 0.8084171 1.2324576 -0.5337548 0.86205214 0.15096942 0.8092422
885 -1.9934713 -2.179014 1.0388489 1.1636691 0.45745063 -3.4713874 0.40937787 -0.68426985 -0.61594564 2.7296546 -3.1569989 2.2994528 -2.675016 -1.8545574 -0.32261008 2.7706773
292 2.1200995 0.35734513 -0.45742604 0.28719276 0.6518811 -0.56588984 0.8355559 -1.6245114 1.7113651 0.21856734 -0.9573036 0.70442724 -0.9536527 0.76311606 -0.27635917 -1.1792756
4570 0.7879177 -1.4112549 1.2424172 2.532009 -0.23177293 -0.31734774 -1.1388034 -0.26154563 1.9835796 -0.34262598 -0.8025802 -0.5619291 -1.267282 -1.5905195 0.1688356 -0.5768525
288 -1.0876675 -0.91305053 2.1118364 0.75469697 0.44704702 -2.2343524 1.1513864 -3.6829326 -0.18231471 -0.38904747 1.2151349 4.17422 -1.3903452 2.5543528 -2.9250207 0.9225706
3573 0.38159394 -0.5620799 2.2832317 4.154783 0.18293591 0.5267849 0.5780677 -1.714 -1.1057338 0.84266394 1.14856 1.9456651 -1.6396209 1.1482741 0.13436 1.5244119
7 0.129727 -1.1312025 1.6715722 0.23667522 1.3892828 1.0043775 0.82929736 -2.7090316 -0.22022054 1.3211092 1.1583998 -0.914547 -1.0551044 2.4503665 -1.0113721 0.21742466
3832 4.2615566 -0.61352915 -0.9741797 -0.8815297 -0.8131894 -0.582578 1.989568 -4.2831674 -0.42291835 1.3591782 -2.804719 -0.36415136 -2.5003397 1.8055117 0.14303601 -0.05438727
653 2.3460472 -0.28149524 2.9597867 1.7596371 -0.2692193 -2.006612 -0.3066801 -1.0295875 0.7278222 1.2779984 -2.891668 -0.34139612 0.95194376 0.4682571 -0.65154546 0.81173956
8599 -0.5083696 -0.05459562 -0.97469926 0.8841078 0.28143448 -0.20464233 -1.5426344 -2.4951224 0.30539393 0.95464104 -0.48796365 -0.04770216 -0.38034558 2.181563 -1.9200085 -0.83265394
4115 1.7225115 -2.0347445 0.107406735 2.5489163 2.349645 -2.4748363 1.2922101 -2.2267275 0.19105466 1.657009 -0.6532461 -1.4595428 1.7028186 1.465434 -2.681018 -3.1872907
5110 -0.13308859 -1.7669357 2.4143198 0.6348701 -0.43462437 -1.2260232 -1.4648377 -2.0181932 3.472863 2.6864927 0.4507655 0.042960834 1.7571254 0.5277873 -2.6509402 -2.4525769
1559 0.025255138 -0.081324816 -0.39785087 0.9853827 -0.6451422 -1.0613184 0.8056574 -1.4941523 -0.62887555 1.6528028 1.6575631 0.96268976 -0.52342355 -0.032395296 -0.9422864 -0.05927265
5231 -0.07679692 -1.8825582 2.6210372 0.46999234 -0.44284692 -1.3860105 -1.5159413 -2.0794957 3.4870872 2.8330574 0.31400186 -0.0672155 1.7877084 0.5410669 -2.8205135 -2.5449262
81 0.7111326 -2.2568703 -0.50000006 1.4667978 1.5070765 0.16141845 0.4815498 -0.85896134 1.5825944 -1.456264 -0.026421823 0.9751783 -0.3911981 0.459154 -0.6810667 -0.7554732
321 0.93867654 -2.003904 -1.5647753 0.8328391 1.428453 -0.2826767 0.16500227 -1.8187492 0.8608511 -0.72436166 0.6509087 1.9765174 -1.3011061 -0.3881043 -0.33622462 -0.90531325
5821 0.0988335 0.89416105 -0.08209516 1.4343278 0.9750118 1.3701774 -2.0667648 -4.0146575 2.8702695 1.4617983 -2.6641219 -1.2257053 0.9905339 2.0122793 0.2849759 -0.6701771
171 -1.5054611 -0.55771285 -0.81146413 1.2924954 -0.7262753 -1.5701666 1.4977597 -3.3999252 0.8462441 0.75997573 0.18626913 0.8886873 -0.4782117 -1.6827389 0.9947581 -0.98355526
8086 0.81055665 0.6266435 1.2955146 0.23187508 1.8875362 -1.1028141 1.0013117 -1.3727535 -1.7016716 1.7779833 1.5013838 2.1948013 -1.601466 -0.8266685 0.034984045 -0.31085253
7099 3.2232988 0.8302756 2.9229045 4.285615 2.6797998 0.6211738 0.7273793 -2.2138305 2.5308013 -2.857818 -1.8664132 2.3386197 0.55525595 -2.0344684 -0.81284124 -0.79144603
8587 -1.5626451 -0.8167503 0.42513573 -1.2851312 1.7708707 -0.5522905 0.61718583 -1.3250157 0.47227353 3.3330138 -4.790647 0.47720653 -1.3397565 -1.7832495 -2.9717782 1.6591328
6090 0.88424087 -0.19821908 0.7276285 -0.155765 0.66133714 -1.4095838 0.52278817 -2.2773983 1.5437801 0.81984514 1.302386 0.7459038 -2.6667376 -1.5601996 -1.8961614 -1.1991433
100 3.2316532 1.0279402 2.9777017 4.380661 2.603542 0.69991386 0.88231725 -2.359498 2.6992326 -2.8237383 -1.797523 2.378339 0.5216677 -2.1629245 -0.8028348 -0.70589757
4203 0.26229763 0.3377412 1.6569328 2.4842844 0.10995477 0.1744973 -1.355984 -2.508813 0.20070672 -1.3341488 0.09803355 1.518766 -3.612675 -1.9470552 0.5779261 -3.2872913
4764 1.033014 -1.558152 0.8723173 1.1263881 0.4082114 0.2506777 0.45859894 -0.07865431 0.65511644 -0.4254215 -1.4811211 0.23104452 -0.5631317 0.8884938 0.35874808 -1.2278056
7991 1.4069185 -0.45815444 0.84037197 0.9257399 1.6822685 1.1093267 1.6014215 -0.12902755 -0.6330502 3.0754852 -0.4655177 2.0394049 1.1733634 -0.6238314 -0.89223546 -0.46723807
8037 -1.4568104 -0.0114918025 2.0679274 2.509611 0.9761969 1.0481155 0.5324063 -0.28004536 -0.43394148 0.15955198 0.49629727 0.6998276 -0.4639626 -1.6260328 -3.2281115 -1.044043
5938 0.4633048 -0.75381374 2.5503268 0.2749167 1.6206983 -0.9687797 1.1150072 -2.0658343 1.6732726 1.5088843 1.2444073 -0.4039145 0.07407073 -1.1643679 -1.0638987 -0.5192108
346 1.6556536 -0.17314705 0.5764845 0.77176386 2.02839 0.7217433 0.89758503 -0.13358566 -0.4019198 2.4476998 -0.5466462 2.4445026 1.2326208 -0.74921715 -0.686861 -0.81449986
1287 0.3340731 -0.29517978 -0.7331661 1.0563213 -0.5479108 -1.3082701 1.5287976 -1.7352273 -1.6080557 2.2020497 1.6013602 1.0261394 -1.1952822 0.83485365 -1.1859151 -0.53451765
68 0.15515682 -1.9176034 1.7152833 0.6590888 -0.881338 -1.2218647 1.5096643 -2.6760218 -1.0136003 -1.2434692 -1.0775968 0.5541887 0.6465867 -1.6230836 -0.38686326 -0.020853244
4992 2.0437005 -2.1474872 -0.017801285 2.62562 2.281072 -2.4711726 1.0680977 -2.161697 0.6704637 1.7338132 -0.7024707 -1.4808117 1.650202 1.7106355 -2.5296066 -3.0207543
4556 0.9211146 -0.10938561 0.2697199 2.8454788 0.63968813 0.4998353 -0.45505735 -2.2405195 -1.0138366 2.0359778 0.39901868 1.221169 0.71959674 1.4236053 -0.59622145 0.9207345
7850 2.1411881 0.58345187 -0.0019241439 1.3577656 1.7843136 2.0705042 0.3852647 -0.90906185 1.2628664 1.9871451 -1.2262522 1.3495859 -0.97040987 0.18854453 1.3017651 0.76174015
4972 4.142806 0.9997976 -0.66456336 1.012035 3.3137083 0.4936292 0.40854308 -3.7585979 1.2615597 0.7411821 -0.7029648 1.0867367 -0.025609622 -1.0118215 -4.4187427 -2.28539
3886 1.559644 -0.28370002 0.5912635 -1.2017381 0.2696066 1.5824703 0.6031388 -2.888536 1.259097 1.4782062 -3.1193757 -0.24767476 0.44175553 -0.17900825 -0.045513898 -0.5192942
1672 0.54684645 -0.36418194 -0.9494791 1.0733483 3.3012495 -0.23521706 0.6822672 -1.2444359 0.76965946 -0.4292228 -1.5538251 1.9689885 0.30663878 -1.6683189 -0.17269559 -0.6771944
6870 -0.8755125 0.6344414 -0.40935165 0.4527606 1.1100712 1.0313754 1.1532044 -4.4542108 4.4423456 1.3662846 0.8908411 -0.51113576 1.4071494 1.5668049 -2.108161 -1.2079333
3827 -1.5417625 -2.8570237 2.4289434 3.2712064 2.5622735 -0.5571528 -3.7728896 -1.2272394 -3.271439 -1.16152 -2.4385767 -1.3171933 -2.1853468 -2.2616532 -0.74621445 -1.9693642
3760 -1.293936 -0.5335972 -0.6177777 -0.41981107 -0.42149857 -0.85675055 1.2861164 -2.9261777 0.6675655 1.1858695 -0.3281206 0.56297386 -1.1036426 -1.4221243 0.36273596 -0.72011036
1679 1.1229881 -1.225142 2.1008024 0.19803344 -0.8024461 -0.38866153 3.1981454 -2.3701742 2.9325385 1.4866922 -0.043277845 -1.1139938 -0.58664644 -2.3910444 -0.38931918 -2.2476246
4383 -2.138258 -0.81227547 0.64265555 -0.41661718 -1.7293894 -1.3159004 -0.9900472 -2.1050668 0.5032537 3.7895834 -1.99443 0.42235416 -0.7164256 -1.8024545 -1.1434157 -0.34970918
3936 0.9738958 -0.065901294 2.2504735 3.3655457 0.47567457 -1.364181 1.5010042 -1.3852252 -0.5986537 1.528747 -0.896743 -0.060404535 2.2012236 -0.18259008 -1.0094612 0.38538998
57 -0.6876025 -0.22285129 2.8589525 -1.2258707 1.0174426 0.80546576 1.6631072 -1.2441564 -1.1140869 1.187174 0.2060528 -1.1135178 -1.6937714 0.48226893 -0.76377636 -2.5767245
4002 4.993326 -0.64439976 -0.96426517 -0.83948076 -0.63750386 -0.7840286 2.194595 -4.8672504 -0.10558696 1.8494331 -2.9876864 -0.34834898 -2.6835866 2.3999994 0.36557066 -0.047778275
3938 1.468764 -0.2688075 0.4427029 -1.2028482 0.18922691 1.672487 0.7050697 -2.7797039 1.2844454 1.5002465 -2.8515847 -0.055358123 0.24371873 0.053814106 -0.0144079765 -0.52581346
9041 0.22405069 -2.033766 2.4319565 1.0886258 0.36275366 1.0480714 0.44467148 -0.45459437 2.1644847 -0.6059816 -1.5943034 0.3504967 -1.270775 -1.1950347 0.64361864 -0.27575707
2074 1.5647612 -0.7646185 1.0684906 -0.5500441 -1.6477431 -0.060973532 -1.001535 -3.671742 -2.7276335 1.7332022 -1.9794332 1.0720615 1.0852741 -1.4468706 -0.38878444 -0.41959685
3070 1.6485795 -0.82313734 0.42864227 1.2459799 -0.0356045 2.7350314 -1.4084982 -2.7018447 -0.95711374 0.3465595 0.5512054 -2.110924 -5.4002995 -0.02823161 -0.9873817 -3.965903
2467 2.105301 -2.6859782 -0.49979162 -1.1388354 -1.301706 -1.9193434 -0.1404336 -3.8459113 -2.3108516 2.8493812 -1.4186215 -0.35343063 0.16453095 -2.6165915 -1.0814815 -0.80209064
2066 2.2823403 -2.2469842 -0.45536268 -0.752307 -1.6568526 -1.8517196 -0.0318738 -3.5986032 -1.8666992 2.5301003 -1.3231055 0.09242206 0.47611398 -2.5718913 -0.84436375 -0.68941426
170 0.5786406 -1.7854718 0.8739175 1.0880512 -0.024248095 0.598408 -1.5437844 -0.93826735 -2.1893156 0.73923105 -0.19813102 1.1902076 -0.8939754 -0.8168766 0.9722789 -0.89966476
5152 2.6790574 -1.3294926 2.5303652 2.9960353 -0.041215573 -1.6373996 2.467986 0.2590976 -0.11517127 0.6809764 -3.0363462 1.2648811 -2.0830135 -1.8605645 -0.82185376 1.5731211
3312 -0.7770074 -0.042475265 -1.1541363 1.2125399 0.1932766 -0.09488585 1.1754737 -2.9187016 -0.45287514 0.5721518 -1.134037 0.87511533 -4.4762874 -0.9329782 1.9346136 -0.5336934
6248 0.55470234 -0.77544683 1.5408258 0.5410507 -0.2852543 -0.35742635 2.3930779 -1.9019648 1.7543398 1.4501045 0.38002634 -1.179514 0.031611554 -1.738903 -0.53711194 -1.4788587
3218 1.7704198 1.3363944 3.237389 5.4820733 0.2034915 0.6818354 -0.38875625 -2.5109644 -1.0095367 2.7448757 0.7331797 -1.1548657 -0.3488728 -0.03021602 0.2518307 1.8330691
6952 -1.2833097 1.8176699 -0.62179285 3.350697 -1.0269008 0.16240183 1.6588684 -1.732105 -0.9437916 1.5779427 -2.9931521 -0.1924739 0.51298195 0.39287165 0.62132376 -2.0762126
1683 -0.9915091 0.8212517 -0.19678372 1.5886474 -0.36270607 0.43919283 1.2185804 0.026829537 -1.1016004 1.409764 -1.6060356 0.5524101 -0.7804228 -0.36219493 -1.1727992 -1.6162317
3700 -1.5175593 -0.7175694 0.171707 -0.09605174 0.27302027 -1.2052612 0.37753183 -0.8614678 -0.6595621 1.5260614 -1.7243739 1.8516984 -1.0279268 -0.77747697 0.47370952 0.84483373
6833 -1.8563547 1.4383752 0.04586872 2.1186934 -1.075892 -1.2615081 0.23155577 -2.584219 1.4111148 2.9718246 -1.7910792 0.95481277 -0.30226332 -4.7736287 -2.1945524 0.0064349645
3106 1.7339507 -1.7854767 -2.019224 -0.29710492 -0.2808601 -0.5620578 1.8943509 -2.2922912 -0.05017843 1.5629201 -0.2174725 -0.35263678 -1.3225921 -1.7178377 -1.1649939 -4.9804096
501 1.8588736 -0.0566212 1.5417545 0.8777912 1.6295321 0.8279864 1.6617393 -0.39531428 -0.77549046 2.0626636 0.06511663 1.6977725 1.0432477 -0.86268395 -0.6134637 -0.5155614
2033 2.002896 1.0641094 -0.84037626 0.05113014 1.7403164 -0.45432544 0.65749955 -2.280086 3.0543063 1.1389021 -0.9498114 1.6333371 -0.82616764 1.4047471 -1.0515385 -1.7396637
4290 0.7419348 -0.17521258 0.97575873 2.6688092 2.8190777 2.0543761 -3.4986837 -1.9348661 0.5838149 2.2461028 -1.0046823 -0.8142809 -1.5874326 0.7078614 0.44835007 0.7303625
3882 2.7513127 0.37730226 -0.32083324 0.74326265 0.33585304 -0.68022555 0.82234496 -1.9897577 1.643245 0.39612874 -0.8121294 0.41734 -0.72652346 0.48848066 -0.22696733 -0.9874229
65 0.27027318 -1.7650445 -0.8301951 -0.46671322 -0.7173009 -0.78331083 -0.25096366 -3.4141085 -1.2096914 1.4560546 -3.7683804 -0.6851719 0.57655066 1.6219398 -2.5435948 -1.2996873
6989 -1.7041156 0.02495478 -1.4640019 0.27299067 -0.9450722 0.022123106 1.9825015 -4.6008716 1.2923595 1.3847218 -0.8585146 3.0274174 -1.3023041 -2.1763716 0.41309237 -3.0640051
796 0.09014664 -0.85297155 0.9966421 2.1886091 1.3976802 -0.24355565 -2.532599 -1.5229166 -1.9099698 0.3872823 -0.06361159 2.2209406 0.36213735 -1.2051171 1.7284591 -2.1136868
7629 -0.6153625 -1.7879952 0.8247141 -0.10460316 0.79522955 1.1289554 -0.37502763 -0.5776566 -0.90659297 2.3045924 -0.40764955 1.2469388 -1.2795806 -2.0711815 -1.6567088 1.2045295
7125 -1.6229374 1.4558794 0.24660663 2.1366215 -0.95702463 -1.3430591 0.3555589 -2.644835 1.5288934 2.7628016 -1.5511063 0.5862386 -0.21586205 -4.927784 -1.8032475 -0.08872713
2526 0.929665 -0.17209497 0.3771873 0.3546744 0.19113436 1.9958696 -1.6191999 -0.95250636 -0.82690597 1.3258086 -0.88687235 -0.5502731 -1.2582924 -1.6213474 -2.17308 0.23281115
5165 -1.3652726 -1.2803172 -0.7165692 -1.1783502 -0.99928606 -0.111405335 1.5648149 -4.1591783 0.8154231 1.7286576 -1.3269043 2.2084062 -0.90293455 -2.2265475 0.16969116 -1.7380272
4259 2.4266205 -1.125192 0.58187175 -0.25897053 0.5647177 1.4225453 1.160189 -0.28311563 -1.5836413 1.6825483 -0.77937543 0.717375 -1.2804625 -1.3220985 -0.8848803 -0.7329058
1654 -0.7951062 -0.90946203 2.664217 0.8070447 0.70538723 -2.8408341 1.0781988 -4.1030135 0.5127728 -0.8764485 1.1998873 4.224353 -0.9664783 2.3983436 -3.0624046 1.2728344
3759 1.4003537 0.19666548 1.9494362 0.9091972 2.5745895 -0.3169351 -3.5837839 -2.3370256 -1.351417 -0.36157078 -2.878249 -1.6209873 -3.9143598 -3.3792403 -1.7490786 -1.1278621
8593 -0.12840945 0.18908165 -1.1882294 0.5679491 0.29861265 -0.6447738 -1.6032095 -2.3996344 0.03761621 0.59190005 -0.9569545 -0.06360801 -0.4971409 1.738599 -1.7207088 -0.8448458
4562 4.07371 -0.4525191 -1.3253963 -0.33548892 -1.0907028 0.0038597637 1.130303 -3.8028204 -1.2194089 1.1829603 -2.3197637 1.4126488 -2.9616477 1.938317 -0.070847616 0.3038988
4056 -0.13646701 -2.1798434 -0.5028024 -0.35738477 -0.85366017 -0.81777996 -0.2972786 -3.3064532 -1.1839671 1.6757541 -3.9817712 -0.52888644 0.4612772 1.4314805 -2.1870244 -0.36930993
8600 0.18877956 0.050738078 -1.3060359 0.82433057 0.3017019 -0.5113754 -1.6409587 -2.354963 -0.2668536 0.46071556 -0.81842387 0.1004671 -0.7521868 1.9793816 -1.8040287 -1.0809997
84 1.1268101 -0.90217435 1.6328632 1.2626771 -1.0428838 -0.4715258 -0.65601367 -1.3273174 -0.4866246 0.774052 1.6395146 2.5882268 -2.2333255 1.1180047 0.5404738 -1.3851681
3219 -0.89495707 1.4004265 0.21787086 1.176588 0.7314529 -0.33850297 1.3975403 -0.7503604 1.6939678 1.8567907 -1.5384458 0.113446526 -0.7919654 -2.5400896 -2.06091 -0.17617966
7932 1.7415632 1.0018129 2.8431916 4.3290806 -0.023305206 0.09168962 0.11198807 -2.1018667 -0.7938982 2.1827366 0.10430704 -0.9167263 0.1686188 -0.68065065 -0.1243514 2.0715234
4423 2.3646746 0.31410226 2.7350318 0.98947376 -0.38122734 -2.2137885 -0.65065193 -1.1467044 0.8944653 1.9165027 -4.3259697 0.6684759 1.1507441 0.26819652 -1.011678 0.98580635
2069 2.024834 -1.1704707 1.2593654 -0.4280492 -2.1963181 -0.33186516 -0.5488388 -4.0181303 -2.7877126 2.0840015 -2.374995 1.0129377 1.4579651 -1.421888 -0.4590781 -0.4158788
6679 0.2451212 0.07798377 0.89722043 1.9671906 0.22259033 0.22269346 0.29633883 -2.6154597 -1.4068068 2.7860954 0.79791903 1.0745145 1.031863 1.9883467 -1.5219092 0.011603421
2553 -1.1735749 0.6048555 -0.1052795 2.5572746 -0.9132298 0.2659817 1.8514421 -0.23891935 -1.2582798 1.204983 -2.111697 0.44016004 -0.87074006 -0.90069836 -0.38103512 -1.8728523
6861 0.03935209 -0.0017551207 0.22522692 1.8881782 -0.7354164 -1.2281818 1.3470529 -1.9009278 -0.52669007 2.1778316 2.2884607 1.1982826 -0.3902865 0.56774586 -1.0830168 -0.42239007
3134 0.32965526 -0.21480794 1.2037456 -0.24020398 2.13132 -1.2743431 0.96343434 -2.530425 -1.1371293 3.6031933 -3.3062985 -0.51756436 2.1961784 -0.1150027 -2.1496742 1.0041525
5293 0.28566203 0.39505723 0.47852832 2.3839352 1.5902733 1.6638179 -2.0071766 -3.6370757 4.234654 2.269281 -2.0071282 -0.43235978 1.7542958 2.6345155 0.37200478 -0.13465692
6331 -0.41192824 -2.1071086 -0.15043604 0.91876936 2.0785325 2.282604 -0.27440998 -0.9795702 0.5831263 -0.35932535 -0.008493797 0.9785127 -0.95129126 -0.6027717 0.94494367 -0.94715536
4424 1.3611854 -0.37247756 2.2163954 0.5644876 -0.20417115 -0.86344236 -0.43683866 -1.6901385 0.52741736 0.5560626 -3.4259343 -0.59903157 1.815794 0.4097644 -0.6762975 0.118674435
5595 -1.7084724 0.10266984 1.2037477 1.3418126 0.3474756 0.78568524 -0.9453602 -0.5562259 2.205689 3.2301736 -0.5855203 1.2970356 1.0150319 -0.7114572 -3.0963066 -3.0282474
5282 -0.49825126 0.5395568 -0.37884405 0.3418303 0.8921315 0.8804322 1.2073071 -4.3216434 4.0870066 1.3160862 0.9780458 -0.6006755 1.476895 1.3062818 -2.0239449 -1.0510145
6979 -0.8082381 0.30709666 -0.97155446 1.7125431 1.029525 1.8113731 0.7903675 -2.237373 0.20078076 2.7474353 -1.1456164 2.0332084 1.3826473 -1.395408 2.583116 -3.317939
4656 1.6064585 0.343605 1.588268 -0.9611199 5.054547 -0.24438347 0.22740875 -2.69078 4.8875823 3.5851135 -4.0473113 1.3468047 1.9507293 1.6192092 -0.5800514 -0.72303706
3815 0.34625265 -0.008918322 1.1560088 -0.15238269 1.8798505 -1.4241979 0.81739455 -2.4940288 -1.0082843 3.621179 -3.2173944 -0.23978017 2.270038 -0.03893435 -2.3010554 0.98626655
320 1.8180872 -0.4927866 0.4427944 1.0692348 2.030702 0.40335009 1.8398913 -0.23050694 0.112964 2.7541993 -0.7347124 2.7482197 1.8608935 -0.79358196 -0.64311767 -1.4709758
6271 -2.628063 -0.73703164 0.07889273 0.76150215 -0.36703894 0.062311266 1.6813889 -1.2809801 0.4303806 1.3663765 0.31981865 1.7764441 0.015595173 -0.96296483 -1.1050284 -0.7931891
4782 -1.6829852 -1.5600927 1.5599071 0.24803165 1.8072772 2.0717824 0.5699492 -1.1409636 -1.0533477 2.006043 0.61188275 0.70830595 -1.2263348 1.6170343 -0.5614857 -0.55307674
2729 -1.6110829 -1.6456176 -0.5706219 2.5472414 1.0346894 -0.74339813 -0.13500232 -1.6690489 1.1822832 0.5418448 -0.3641596 0.7442071 -0.86893755 0.114584416 0.008464238 2.1275885
1171 -1.809694 -1.5100435 1.6155387 0.3595997 1.5809538 2.0593646 0.6077081 -1.3184255 -1.248553 1.8487208 0.5173985 0.42232567 -1.1421076 1.6332829 -0.66572106 -0.54830176
3339 0.5098897 -4.226011 1.3021744 -0.8156781 -0.6709089 1.0555496 1.4788961 -1.7160723 -1.2388164 2.5457633 -3.3367078 2.2480402 -1.1457793 1.6755975 -0.7746808 0.6132903
3340 0.64449984 -4.480908 1.3667461 -0.8024908 -0.7499114 1.2597836 1.9629174 -1.9297136 -1.6352266 2.489675 -3.5322773 2.4880345 -1.4463818 1.9670862 -1.0760512 0.55046153
1760 0.9474467 -1.2880522 3.6148515 0.22123861 -0.057673167 -0.5521923 2.0099478 -1.2141855 0.48845524 1.136133 -0.4929551 0.5283323 -2.5883205 2.68872 1.1912432 -2.0118113
2018 0.11848693 -0.99486643 1.7840074 0.41399553 1.3570191 0.69557345 0.94435513 -3.0665581 -0.055589955 1.1971763 1.22133 -1.3005592 -0.88433975 2.4808834 -0.9425526 0.16538318
5753 0.49649653 -0.5788862 1.5427002 0.7236702 -1.854336 -0.7150902 1.8419275 -0.8373009 1.6502699 1.1301211 0.19312988 0.6723321 -2.4685783 -0.01641938 -2.3183749 0.30530822
3983 -2.2212858 -4.992683 4.8245397 0.8165675 0.92203957 0.39497453 -2.7363625 -3.5222683 -1.5088675 1.426044 -0.93341833 2.0537746 2.5159903 -3.4464881 0.4237043 -2.596528
102 -1.5008837 0.45795926 3.0653942 0.67998374 -1.1417558 0.7098069 -0.4606647 -1.6057997 1.0008122 1.6953893 0.112762816 0.5754699 -1.3743566 1.7576743 -1.0336155 -1.008219
2925 1.3146573 -1.6575966 0.019361936 1.747411 2.71664 0.91897804 2.004772 -0.9022891 0.37009728 4.680433 -0.67455184 2.4104855 -0.7147206 -1.3699919 2.0356507 2.4356344
8187 1.2032694 -1.6624389 0.0017677704 1.5755552 3.0630696 0.57006055 2.0584567 -1.0057678 0.8256508 4.7460175 -0.72420716 2.4060745 -0.80961126 -1.797694 1.9380288 2.7030149
4379 -1.7403252 -1.2282242 0.44776335 -0.21827362 -1.8523381 -1.3596501 -0.91966206 -2.5539217 -0.33482283 3.5036888 -3.3408468 0.447259 -1.0595137 -1.5146871 -0.39135852 0.02982902
4945 -1.7943664 -0.6038814 0.2846408 0.35740483 0.56718653 -3.0019064 -0.058617536 -1.8251517 5.319466 2.237519 -3.118484 1.0669408 -3.0141034 1.6513479 -5.064728 0.28060535
8572 -0.8495321 -2.0406096 -1.0181923 2.5049675 0.8161494 -0.6000888 -0.7026128 -1.7447656 1.1185267 0.25409195 -0.18720753 0.7742767 -0.81799805 0.9352836 -0.44829524 1.7094948
1946 -1.4341698 -0.27464432 -0.92759836 -0.76685506 -0.63479924 -0.61848503 1.0915631 -3.3279598 0.5252922 1.5388005 -1.1055293 1.5712383 -0.9384389 -2.313274 -0.46034348 -1.4733051
79 0.12808818 -1.6345252 1.1624426 1.3578622 0.21771517 0.3318844 -1.7814188 -0.86565053 -2.2524292 0.75258785 0.16236594 1.7412994 -0.7166452 -1.3186207 0.9690058 -0.713685
2543 0.8301934 -0.1385458 -2.2046452 2.04188 1.2244666 -0.955078 0.42168477 -0.8220996 2.993602 3.0833647 -1.3725848 0.6863676 -1.2164619 1.3111852 -1.0353578 -3.2283478
4241 0.5778484 -0.23262587 0.25116834 0.6951766 1.0018743 -1.0604497 0.42456084 -0.6197268 1.5092933 0.3743025 0.6295759 0.80393356 -2.182471 -1.3233954 -1.3899744 -0.7598629
1144 0.53867674 -1.0739921 0.04235494 0.35746515 0.6126508 -0.11729505 -1.551491 -1.0259361 -1.2532638 0.17594245 -1.6992341 1.3509554 -1.3608034 0.7380084 0.84214807 -1.7306173
2641 -1.4809133 -2.1018198 -0.6695651 2.386868 1.19977 -1.0612769 -0.93204176 -1.9129115 1.7856178 0.48269185 -0.49565014 1.0426698 -0.7024128 0.61443853 -0.39903498 2.0913274
3129 3.8128695 -0.5942583 -0.5529455 1.3772599 1.2273415 -0.7709281 0.36693126 -0.18474323 -1.2360163 3.215463 -1.8673639 1.1424499 -1.2895583 1.3983215 -1.8644335 -3.55798
3905 -0.10404557 1.6413673 0.03254655 0.7745005 0.87750787 -0.2646365 2.2724662 -0.9251064 1.3855742 2.3240125 -1.5240446 -0.23113482 -1.0938455 -2.2629628 -2.5148776 -0.21037896
7999 0.53116286 -0.26657918 -1.6689749 1.9130218 0.8059621 -0.66167045 0.43535113 -0.50607634 3.3507373 3.2538452 -1.2886653 0.84570205 -0.93979406 1.6313573 -0.9902129 -3.2798097
24 0.78447354 0.36267355 0.44158182 1.0425341 1.7182598 0.978072 -0.20823038 -0.7479255 -2.2722857 1.4643012 -1.0411775 -0.9594751 -0.3693287 -0.20982136 -1.3534055 -1.3604337
6250 -2.2396746 -4.945491 4.970754 0.8577867 0.8627267 0.20865358 -2.68628 -3.3726099 -1.3973451 1.571629 -0.7722248 1.9338738 2.4047174 -2.8388093 0.26915705 -2.3421292
14 0.7706679 -2.7501814 -2.0065386 0.86317575 3.4818892 -0.12628067 0.6064356 -1.1103717 -0.35235554 -0.56110233 -1.2252344 1.0372988 -0.72040397 -0.68274134 -0.81195885 -0.33835122
3200 0.8003126 0.015036145 1.1111338 3.4399288 3.4863832 2.2367787 -4.21732 -2.677551 0.68809307 2.560756 -1.373913 -0.4466322 -1.9076097 0.9343847 0.36183852 1.2995037
4308 -0.18989795 0.09578014 -0.31446996 0.71067566 -0.38283378 0.63218325 -0.10133157 -1.2950944 -1.0730551 -0.07933423 -0.97111505 1.0018547 -3.438216 -0.8507644 0.06283372 -1.1957387
224 2.1405187 1.2367107 -0.9414608 0.30190963 1.5116419 -0.27125263 0.4054501 -2.3721952 3.029127 1.3027837 -1.2082597 1.5539517 -0.25999895 1.2503724 -1.2685171 -1.4666119
941 1.1352894 0.54245 1.4827074 0.24176936 1.7264247 -1.3263562 1.3359706 -1.6286163 -1.7744262 1.4080361 1.592052 2.2691329 -1.103692 -1.0138211 -0.04436595 -0.28962317
791 0.71789646 -2.706368 -1.8885491 0.6816139 3.3707252 -0.1937134 0.596389 -1.2544068 -0.15833467 -0.686212 -1.2268118 0.8850808 -0.63242304 -0.8678421 -0.66395473 -0.39306283
3873 2.4944017 0.5744994 -0.35117412 0.24023938 1.1540046 -0.8141804 1.129353 -2.0015523 2.3775485 0.19173925 -1.2791624 1.9225407 -1.5005147 1.0020713 -0.58182496 -1.5076381
314 1.6254567 -1.7151315 -1.397241 -0.36906832 -0.58773583 -0.61092484 3.3409042 -2.691363 0.29346803 0.925171 -0.0661503 -0.39874414 -1.6748991 -1.4136834 -1.0271899 -4.8087554
4211 0.30458623 0.24988426 -2.1930373 3.630713 -0.6436248 2.0032675 1.6214147 -0.1010999 1.2969888 0.8761409 -2.4856882 0.7178985 0.23379736 -0.74206084 -3.0637176 -2.4774091
3575 1.012301 -0.16281968 -0.22254711 -0.39740244 0.5372342 -0.9111334 1.5132159 -1.9333072 -0.30401403 -0.092266895 -1.1097356 1.20592 -2.6759217 0.73422825 0.07373898 0.57974213
4775 -0.766189 0.21593195 1.3012332 2.0614622 -0.67025083 0.4769517 1.2816473 -0.29335588 -2.2352035 2.7690084 0.59422606 0.5114815 -1.104604 -0.6994046 -1.0479835 -3.2942913
1011 2.563882 0.5860246 -0.60641384 0.42536908 1.4726291 -0.16905916 1.1065638 -3.2134151 2.4523535 0.34153852 -1.0986061 0.5594557 -1.5005218 2.3835826 -0.37036216 -1.4449565
3780 0.33775213 -0.5491402 -0.06332557 0.31577107 -0.033014797 1.3544773 -0.30551243 -1.4892142 -0.26212642 -0.31700802 0.08145634 -0.13050242 -2.7565126 -0.8124 0.1914346 -1.9649613
3847 0.9413389 -0.44742635 0.31265196 0.31858367 0.78844684 -1.4646078 0.5326376 -0.6229541 1.6480205 0.79293627 0.28534305 1.4840695 -2.5832357 -1.8555429 -1.7442901 -0.34353253
860 -0.80703735 0.4353991 1.4812392 2.1062293 -0.71333814 0.47534686 1.4802403 -0.3417287 -2.1343286 2.7691426 0.750244 0.409334 -1.0623418 -0.56730723 -1.1346748 -3.0419848
5734 3.8548105 1.0744766 -0.45185253 1.5368208 3.3403635 0.6300202 0.42106238 -3.3150291 0.98750067 0.7492663 -0.69785434 1.0387344 0.5273521 -0.5108362 -4.120796 -2.0464694
6883 -2.0448897 0.27080172 -1.5853132 0.78946775 -0.14885613 -0.100498594 1.533834 -4.3244567 1.1157273 1.3239833 -0.4313641 3.0548017 -0.65108705 -2.714112 0.45903438 -1.9557298
3403 0.7278578 0.63864 0.38715523 1.1347675 1.6853927 0.9188316 -0.01894964 -0.85253316 -2.215534 1.7079546 -1.3227013 -1.2352039 -0.19046849 -0.18390895 -1.1257713 -1.2885466
6 -0.45978236 -0.29145053 -0.6078963 2.4838443 0.98057264 1.5259658 1.409063 -2.0916905 0.100686386 2.628808 -0.8749131 2.0292144 1.9327707 0.41266152 2.729032 -3.3613994
4686 1.1199726 -1.0849392 2.5508826 0.74264073 -0.28700122 2.541811 1.0191929 -0.01506477 0.51770616 1.5605885 -0.069980785 2.2097716 -2.927747 -0.15672429 -0.74978447 1.4610554
3951 -0.76882464 0.010943741 -1.0141023 1.3681631 0.12614676 0.12933983 1.2463412 -2.9225256 -0.23856731 0.23496328 -1.4533687 0.4854986 -4.2367196 -1.1969271 1.9989922 -0.5502086
6896 0.6919215 -1.3586199 0.18288712 0.47905838 0.8007545 0.16862972 -1.8332326 -1.3874233 -1.0527521 0.34671614 -1.6891332 1.9217266 -0.91661805 0.30833837 1.6111066 -2.0998425
3662 1.6299609 -1.0080241 -1.0737197 1.9086405 2.1365397 1.3083515 -0.15635498 0.070222005 -1.062374 0.6768344 -4.447229 1.1559482 -2.848704 1.292489 0.85536724 -2.3643212
7176 0.23045054 0.10652856 1.8249997 2.316792 2.3371236 1.6738691 2.7825084 -0.70390505 -0.69902796 1.4241728 2.8101542 4.41097 -2.2070801 -1.4216357 0.14713234 1.1073147
4668 2.7076159 0.13618329 -0.49521518 3.3006296 1.7380705 1.2646316 0.21583651 -1.3615117 1.3323833 0.80555356 -0.6914605 0.3518918 -2.5589519 1.7139878 1.239487 0.78917104
6458 3.6448033 -0.97103417 0.024464745 3.5774605 1.9002624 2.9753366 -0.9448123 -1.734292 2.705735 2.132675 -1.4563229 1.7344365 -2.2717507 1.4308591 2.4376683 1.4860257
5495 2.6783707 -2.245964 -0.1450241 2.8469322 1.0188118 3.917124 0.5298909 -0.74845135 1.6366427 2.300407 -1.0774075 0.26805547 -1.5940437 0.91091937 0.9803527 1.5807993
6377 0.3600285 0.19028787 1.6468229 2.3437505 0.2839191 0.09920924 -1.1316298 -2.3950887 0.36327264 -1.4132563 0.23215689 1.3431199 -3.510568 -2.0294938 0.44347554 -3.3988454
4267 -1.8060166 -0.6102543 -1.7832106 0.45889556 -0.13378236 -1.4609442 2.3567915 -3.5948672 -1.1040487 1.6444393 -1.1476028 2.0092368 -0.16636613 -3.7035918 -1.2494931 -1.8014266
4418 1.3534124 0.36491975 1.4423941 -0.94393706 5.1676264 -0.5784696 1.0110035 -2.8889017 4.6509576 4.4441137 -4.0467806 1.0595369 1.4873536 2.1875463 -0.4530452 -0.45622125
4771 -0.3788718 -0.29183024 0.81049544 0.9813056 -0.78294855 0.41975352 0.32371983 -1.0296489 -1.2637118 0.08843184 -2.1074977 0.66806495 -1.5239803 0.50943536 -0.5155652 0.6623263
3872 0.6020754 0.3511144 2.3407884 2.1383457 0.14308408 -0.7695154 0.12746549 -2.4212234 2.84109 -0.45809576 -2.755178 1.1731236 -1.0924681 3.889783 -1.7543825 0.66656595
78 1.4736748 -1.0614262 0.99087477 0.0987254 0.054192718 -0.58003193 0.08418208 -1.1423646 -1.9893596 0.7563826 -0.5345479 0.95029426 -1.017183 0.8131002 0.08984801 -0.79046565
7021 -0.567124 -1.0703002 2.4657638 0.39317793 0.5829423 -2.4934053 0.87012166 -2.9933498 0.20108518 -0.4170356 1.1546491 3.5459635 -1.57906 2.4478316 -2.6769276 0.6318832
5040 1.810731 -0.97015446 -1.2509238 1.6614447 2.1973403 1.3533939 -0.11447201 -0.29390213 -1.1957939 0.94388795 -4.3832316 1.1938214 -2.9706712 1.5109138 0.90775615 -2.2984855
8480 0.15569772 -2.0263286 -5.370374 7.166133 -0.8512432 2.061815 2.91478 -1.5554872 0.31975806 0.9770971 -3.1535678 -0.794927 0.03672401 -1.7692734 -4.29759 -3.162293
4763 -0.7764051 -0.77368283 2.066253 5.091284 0.775163 1.2531525 -1.3927422 -2.0002272 0.3290339 1.6530071 1.1220781 1.1410018 -0.89227176 2.213295 0.19740583 0.75824517
7266 -0.30422258 -0.946547 -3.017872 3.5837853 0.032001127 1.6490383 1.1033217 -0.62355053 1.6623943 0.4976389 -2.0458431 0.3148513 0.03434892 -0.33913007 -1.8078088 -1.4311994
4565 -2.1651332 -2.149608 2.5723314 0.7119179 1.1352345 -0.35779005 -3.061206 -0.8305101 0.6278301 0.072422214 0.11314309 2.314203 -2.1384652 0.86110824 -4.4793587 -1.4805509
3772 0.78187954 -0.44592434 1.880048 4.7489038 0.2554769 -0.15072574 0.14646362 -1.4000652 -1.4115866 1.2829521 0.9694247 1.4859726 -1.4673827 0.6538933 0.09038523 1.6914828
3942 2.0999026 -2.3607893 2.2278295 2.5750394 -0.030602345 -1.8456105 2.6939545 1.1294202 1.0814081 0.11420086 -2.6727014 2.084663 -1.9928775 -3.5952287 -2.646303 0.60678893
6092 0.31657693 0.06374131 1.7921883 2.308841 2.584846 1.8165503 3.1876163 -1.110272 -0.9137818 1.5897939 3.451038 4.6881976 -2.6506214 -1.7036016 0.13823637 1.1983747
5658 -0.46606436 -0.9557552 2.2819757 5.6696253 1.4173338 1.4290758 -1.7488687 -2.1963112 0.590734 1.3217868 1.2982955 1.4713243 -0.9813362 2.7254958 0.12315256 0.53796667
7990 2.363749 -0.84249544 0.014063684 1.3694288 1.6473106 0.5590671 1.157747 -0.28598994 -0.23444234 2.3680527 -0.6579875 1.9575696 1.7770925 -0.22872321 -0.8257397 -1.2738717
3462 0.29702222 -0.40950704 0.16033432 0.6875534 0.933975 -1.1403497 0.44902304 -0.5516794 1.6184399 0.5078957 0.6295278 1.0986419 -2.7161462 -1.5296358 -1.4467618 -1.1139593
6010 -2.7161644 -1.4581794 0.055707905 1.4274299 -0.3690637 0.575337 1.4830539 -1.9363338 1.3482614 1.8375587 1.8756697 2.469838 -0.70560193 -1.2935408 -0.979134 0.2785386
4446 -0.24817102 -0.60319465 -0.29952866 2.0433142 0.2126305 0.7925707 -0.7222459 -0.19017336 0.17738494 1.7535187 0.111355476 0.18693435 0.2514742 0.17824039 0.03685125 -2.0887136
8820 -0.785411 0.006656003 1.301713 -0.035523757 -0.6713752 0.29921013 0.1411253 -0.07317214 0.027523337 1.6892151 0.56231475 0.8590803 -0.47368792 -0.31269857 -0.5517121 -3.0452197
1320 -0.2941547 -0.42974624 2.7316775 -1.0997822 0.840644 0.46692234 1.6652298 -1.5382613 -1.3377765 1.2191117 0.3665636 -1.5948933 -1.5562444 0.5076237 -0.84288925 -2.4554796
4388 0.48485842 0.30246365 2.416119 2.5161948 0.31082016 -0.59018165 0.2826357 -2.4173784 2.7735312 -0.36179224 -2.3699524 1.0596136 -1.2765027 4.2137265 -1.7952576 0.6461758
4026 0.5385863 -1.3574162 1.8138983 -0.21776082 0.19705565 -0.7010516 2.018952 -1.3672986 2.0654762 1.8778077 0.019122949 -0.34386867 -0.103407845 -0.886255 -0.10840322 -0.7751588
6929 -0.028344814 -1.2305529 0.34137684 1.3159693 -2.0765355 2.032169 1.8079226 -2.040465 0.0017475561 -0.297464 -2.12824 -0.14639314 -1.1905301 -0.43314382 -0.26179504 0.80166763
1468 -0.3779273 -2.3872464 -0.35165662 0.810338 2.376426 2.3646805 -0.564633 -1.1290599 0.5880926 -0.048989728 -0.029791282 0.89250183 -0.67293704 -0.3774893 0.89242494 -0.9216322
3770 0.11092721 -0.2619409 0.17562768 -1.0290023 0.7098247 0.6937527 0.0041358136 -1.229531 1.5472358 1.7376937 -0.060333002 1.1328338 -0.34975415 -1.9663845 0.43001384 -0.53103226
1939 0.77303195 0.6651105 1.87262 0.73009986 -2.1218371 0.60170054 0.42895442 -0.6586499 0.017689813 1.0815638 -0.48305163 0.6683524 -2.6300938 0.05653979 -1.9541001 0.49185205
5223 -0.55623484 -0.18922243 -0.44448417 0.3322134 -0.37594393 0.9103401 0.0005450098 -1.6455572 -0.35528803 0.09433589 -0.7501439 0.52957416 -3.191351 -0.6588351 0.7349191 -1.5901535
4114 0.26602972 -0.16692413 1.6077691 2.4749386 0.27979657 0.28790188 -1.2634547 -2.2474186 0.07258268 -1.2279286 0.360928 1.2658175 -3.3677905 -1.9864537 0.4976964 -3.6624656
3018 -2.3082817 -2.3747249 0.45133656 0.61515063 0.07591659 3.1672857 0.37456554 -4.252129 -0.2605801 0.2816386 -1.8746535 0.44139412 -3.2237723 3.6213732 0.111228436 -0.012795373
5161 -1.9729288 -1.2581314 -0.12442675 2.084251 -0.13576628 0.14335044 1.6574862 -2.7702873 1.5117301 1.8935862 2.741633 2.1070595 -0.5214798 0.09594838 -0.55095136 0.4675203
1588 -0.3555158 -0.992495 2.2270544 0.6648917 0.37705338 -2.6550424 0.7083877 -4.111527 -0.06507665 -0.54128647 1.3245277 3.8743916 -1.1747104 2.7707317 -3.0440955 1.1085912
77 -0.15709178 1.4451281 2.1323342 -0.60296804 1.4453616 1.6909821 -0.016968504 -2.5018294 -2.0002918 1.4389646 -0.5168965 0.20813392 -1.1922232 -1.1465137 -0.29376018 0.6406645
3528 3.0544844 -1.488772 2.730337 2.6471272 -0.4163241 -1.1282535 2.178859 0.60213053 0.58404404 0.29185048 -2.4132402 1.1670593 -1.6954826 -2.1452749 -0.36508834 0.2803678
3204 -2.2261403 -1.3563393 -0.2887098 1.6833855 -0.5119704 -0.044071067 1.2665869 -2.5533822 1.5427747 1.9741238 1.8832153 2.1934633 -0.17674543 -0.15773688 -0.3319788 0.26035574
4497 0.6524082 -0.3594877 3.118921 0.3110095 0.47661763 -2.3787036 0.23913124 -3.131992 2.736041 1.1456891 -3.6074116 0.73479795 3.3684776 1.057884 -2.1754808 0.89766836
5112 -2.3295927 -2.192092 1.2920734 0.7546387 0.691415 -2.7135441 0.053358085 -0.50142545 -0.12632997 2.2828183 -2.177588 0.962968 -1.9857682 -0.48423415 -1.3187732 2.2219594
4587 0.469056 -1.5838095 2.561389 1.7030162 0.017336199 -2.0955408 3.1093423 1.1374477 0.38849324 1.3596414 -1.6824639 2.3819788 -1.7396222 -3.6758018 -2.2530775 -0.8602233
5255 -1.4120824 -0.11322544 -1.0463454 0.3535123 -0.84644616 -0.04212548 1.5554882 -3.6111312 0.9363907 1.3077251 -0.35994914 2.4895186 -0.82069623 -1.959035 0.4053609 -1.5159324
5099 -1.4140568 -1.8465267 0.45321223 0.44853076 0.23711237 -3.0746996 0.75937015 -0.6007635 -0.55220705 2.5766687 -2.7109878 1.9373543 -1.8890556 -1.9682109 -0.6179004 2.2538986
4373 1.2526674 -0.1112333 0.29243803 -0.8587816 0.5456042 1.2428999 0.5257523 -2.137543 0.66540945 0.81530577 -2.3875365 -0.08213593 -0.10674159 0.16963847 0.19345082 -0.33414796
3029 1.076218 -1.3748207 1.2180364 -0.4784895 -0.18020037 -1.080371 2.4339106 -1.3957362 2.657921 1.4889504 -0.43142623 -0.09330976 -0.53114444 -2.15316 -0.52278537 -1.8345408
91 0.16932508 -0.09541523 1.6918924 -0.3629496 1.6745901 -0.30446988 -0.6886066 -1.6957678 -0.6906335 -0.48339328 -1.4836601 3.782561 -0.12310954 -0.8798901 1.1737537 -1.5520929
4306 1.534604 0.62290376 1.572683 0.45281297 2.0753257 -1.0917277 -3.0542235 -2.0261667 -1.3342792 -0.049537074 -1.8270758 -0.33051655 -3.5649774 -3.2617686 -1.1998956 -1.1438416
1376 2.406504 0.8822736 -1.1312338 1.084911 0.8420556 0.2884543 -1.1761832 -0.96369904 1.2168753 0.12497859 -2.6091619 1.6379894 -1.1927449 -1.368959 -0.40895054 -1.551797
952 -0.28402612 2.2142973 2.8647835 0.60827124 -0.061442185 0.047386 -0.4317651 -1.8281696 -0.17161463 0.7484069 -0.87263906 -0.12011779 -0.3579606 -1.5400294 -0.4143953 -1.5820807
3437 0.019607756 -0.55344534 0.8231957 0.9456923 -0.15791984 -1.6136038 2.0500908 -1.4983525 0.6977903 1.0265286 1.1923491 0.791807 -3.323835 -4.045656 -1.5886003 -1.4479514
23 0.8659683 -0.031950276 -0.7652739 1.320611 3.1417885 -0.10932731 0.20541325 -1.8000729 0.38514626 0.021248724 -1.1522542 1.6798786 0.94898325 -1.5762614 0.057887267 0.101814575
5259 -2.279404 -0.13138317 -1.253914 0.29412848 -0.18058749 -1.2467548 1.4940329 -3.0034063 -0.20339431 1.2875886 -0.76004547 1.479128 -0.82268846 -2.5422618 -0.7411486 -2.038304
4251 1.8168517 -0.23141223 1.4045697 -1.2559879 1.6279509 1.525064 1.3383416 -2.690879 0.30121374 0.27475542 -3.4761264 0.85698754 0.36493358 -0.45599192 -1.5018075 -0.19189362
6270 -1.7388679 -0.2622293 0.4863462 0.10321735 0.76677984 -3.1553752 -0.0034007125 -2.261664 5.6285086 2.4015496 -2.6662438 0.95676845 -2.8069682 1.9075941 -4.708488 -0.3144263
4204 -0.047220256 -1.3435223 -0.072262175 1.8924432 0.28278768 -2.8358457 1.4823786 -1.0324897 -0.13496238 0.69901574 -3.2369998 2.3019533 1.1426729 -0.32354233 -0.83925074 1.8632705
2868 -2.2111638 -0.25165758 -1.0362192 -0.5368067 0.15197866 -1.4809306 1.8842921 -3.798164 0.17361975 1.2953403 -1.1816716 1.53274 -0.8695367 -2.6475625 -1.069416 -1.9300364
227 0.46115118 -2.2616732 1.7727922 1.6943158 0.0018175846 -1.1206288 1.1305909 -1.367552 -0.6489122 -0.98828757 -1.1020123 -0.61384606 0.4463267 -1.2755497 -0.25743198 -0.077475265
4455 1.3518417 -0.29734394 1.0872557 -1.5189339 1.2407287 1.1905129 1.3218383 -2.5151415 0.39719492 0.2613942 -2.9965289 1.2928114 -0.26327506 -0.64852387 -2.2207298 -0.34150732
5317 -2.799521 -0.73121244 -0.10595098 0.8444613 -0.43472537 -0.00018046066 1.8411185 -1.7276684 0.22374605 1.5620244 0.3265418 1.7673707 0.21672244 -1.0121288 -0.98764056 -0.9679856
18 0.52082914 -0.28221455 1.1155957 0.24858 1.289687 -0.010584848 -0.13975316 -0.61795497 -0.3352191 0.41123265 -0.545258 0.17177102 -0.8377166 -1.90834 -1.0338912 0.7765624
7787 -0.030499399 -0.12207064 1.8096945 -0.3718861 1.5645461 -0.4741939 -0.8247487 -1.6604637 -0.70090866 -0.3236956 -1.4143342 3.6794622 -0.3027293 -0.8490856 1.3159579 -1.5326068
5939 1.390341 -0.7166245 -0.47674254 -0.7807701 0.41449246 -1.0139492 2.5074887 -2.6992881 -1.2237165 0.32976773 -0.9581744 2.3545806 -3.4947166 0.56382537 0.00011882473 1.0684506
4337 1.8293223 0.4422992 2.773878 1.9404204 0.21933696 0.13662899 0.34295258 -1.1322963 2.3355627 0.25698742 -0.5953072 1.2144843 -0.46830514 1.8162898 -1.6361368 1.4510927
5144 -0.023218779 -1.5237185 3.8156013 -0.093251795 0.9205344 -0.84232 2.682977 -1.8417532 3.582088 1.7633624 0.23527855 0.28648442 -0.56640685 -1.8983008 -0.76580614 -1.3489323
5548 -0.73856825 -0.3548782 -1.1234088 1.12584 0.049937584 -0.10775206 1.250309 -3.0020955 -0.58090115 0.64789325 -1.0410012 0.55376095 -4.3715906 -1.0086489 1.9091634 -0.52709764
5139 2.0791912 -0.26337 2.4705575 1.47482 0.036997925 0.23944625 0.39415312 -0.9762875 1.9031136 0.2598232 -0.5674665 1.2480482 -0.29314342 1.7608007 -1.636217 1.2394031
1471 1.303986 -1.2632009 1.6294239 0.84585226 -0.71767324 -1.3880107 2.3393602 -0.79794997 1.396662 1.3345181 0.4266328 1.1211215 -1.5490489 0.63513 -1.8155429 1.1683626
16 1.3101647 -1.2170401 1.6195729 0.97256887 -0.5960489 -1.3892889 2.2287655 -0.7548314 1.5143702 1.2974468 0.52449256 1.0937076 -1.651779 0.7252539 -1.6434205 1.1344577
4343 -0.8653147 0.80979747 -0.5957067 0.4352497 1.079564 1.2119437 1.0908487 -4.4012227 4.037149 1.3154353 0.9635125 -0.19798186 1.5764768 1.5616099 -1.914095 -1.205864
10 0.81736803 -1.3442825 3.28173 0.13970791 -0.3656878 -0.22365002 1.4779422 -1.2878731 0.34353128 1.5082493 -0.39927942 0.6150108 -2.8495634 2.9105089 1.0814321 -1.9592737
218 -0.3076259 -2.513237 1.8447638 0.5604369 -0.5837338 -0.92568594 0.9236019 -1.7515355 -0.27356648 -0.950268 -1.1181443 0.5643628 0.77830195 -1.8481144 -0.2322387 -0.23365416
3523 1.7434839 0.10415091 1.7493758 1.4070126 2.3986943 -0.21635194 -1.6367646 -1.6956474 -0.026497878 -0.32001588 -2.3501525 -3.1118731 -3.2488115 -2.2298114 -1.0356425 -0.062835164
822 1.3432958 -0.9210578 2.16661 2.82635 -0.74225354 1.7326783 0.11903311 -1.26176 -0.7742412 2.2895916 0.51820475 -0.3694117 -1.3587867 1.5043639 -0.34881875 0.9853399
5094 -1.4377646 -0.2672597 -1.2714341 2.8540251 1.0693008 -3.337366 1.1199994 -2.617318 -1.5444077 0.63174707 -0.15067936 1.856106 1.0452404 -1.7753711 -1.5805848 -2.383046
5071 0.6729146 -0.430456 -2.0906117 1.2721258 0.78903794 -0.88424 0.3445539 -0.9593919 1.8346708 2.4988334 -1.5365573 1.2532023 -1.8251389 0.91219014 -0.7402527 -3.9315
5276 -1.0117863 -2.2773619 3.822029 2.137312 -1.5296901 0.98168254 -0.6741481 -1.3236903 0.33642185 -0.31272992 -1.0045594 0.4441508 0.7270951 -1.2273991 -0.7331833 -0.75343007
4157 -0.968569 -2.4180984 3.9136324 1.8011954 -1.3325523 0.77754545 -1.0579822 -1.5329723 0.30127403 0.094495095 -1.0319313 0.69795096 1.1897947 -1.6240268 -0.18594083 -0.34297383
2605 1.1566015 -2.9792163 -0.19005072 1.6800258 1.4663324 -0.2038244 0.40508762 -1.3498579 1.8479007 -1.9032993 -0.103574544 1.0501823 -0.29724938 0.5698999 -0.8424948 -1.0692803
4160 0.28910655 0.3805918 0.5202885 0.24683264 0.5678835 1.0977317 0.7204857 -4.004148 3.2503366 2.1474729 0.5765762 -0.3746664 1.32815 2.369351 -1.416728 -1.0953747
1598 1.1058651 -0.8929847 1.400159 1.3156434 -1.245724 -0.17177154 -0.93058753 -1.0408993 -0.55779135 1.1674839 1.572864 2.8025913 -2.3920305 1.1566012 0.17978382 -1.5323013
4769 1.0771266 -1.0271245 1.3470799 0.4342573 0.09269045 0.021450717 0.7037606 -0.36162877 0.14646707 -0.24906571 -1.7058512 0.56823117 -0.48576397 0.7572492 0.55917275 -1.0271342
1010 -0.12756985 -1.9719732 0.78910387 1.1864109 -0.047894854 -1.5506352 1.2045044 -2.4074366 -1.3657429 -1.7799041 -1.1624895 0.2841021 0.08368048 -2.0495484 -0.941495 -0.3958811
498 0.7955158 -2.9516966 -1.9231619 1.5772294 -0.43009168 -2.3274212 1.1661507 -0.7611724 1.285896 0.38709608 -2.2817852 1.8360819 1.4862667 -1.6909094 -2.4642751 -1.7739187
5657 0.82958215 -1.0739608 -0.03242045 2.1881955 -0.40211633 -1.5344752 2.9264977 -1.0701097 -1.1843951 1.4641391 1.9333351 2.0268316 -0.91023237 -0.18477522 -1.4123313 -0.43376908
55 0.07625198 -0.6243276 0.74272156 1.1891885 0.89141124 0.67260873 1.5888398 -1.2364273 -1.1750294 -0.6717317 0.5280725 1.6722691 -1.9050269 -1.925315 1.2944022 -0.838471
3665 1.2242434 -0.30982202 1.1541833 -1.0858684 1.2702322 0.86445004 1.0171505 -1.8895507 0.69786334 0.0456808 -2.9289699 1.052043 -0.1336109 -0.27077356 -1.0230597 -0.080740035
80 0.61884665 -1.1980746 -0.034222912 2.2869105 -0.5030203 -1.6960015 2.8356 -1.2236242 -1.0619543 1.4278181 1.916786 1.9164901 -0.9107197 -0.040379435 -1.3950815 -0.40157008
3122 -1.4660237 0.031421386 -1.0998962 2.8555899 0.9587193 -3.579378 1.1613996 -2.519305 -1.0615392 0.96453303 0.10256461 1.7519646 0.9549739 -1.4946252 -1.4836502 -2.3757741
4146 1.6876644 -0.42466804 -0.38285112 0.034472663 -0.57889044 0.80799234 0.6544939 -0.65139914 0.94821686 0.68837655 -0.3852022 1.5138385 -1.3775555 -2.8765512 -0.5701587 0.251275
9291 -0.17552426 -2.5347128 2.2195127 0.8168319 -0.57686293 -1.3416975 1.9469026 -3.1668086 -1.0029662 -1.3041692 -1.0378857 0.5244838 1.2445664 -2.0532825 -0.38673988 0.046067774
107 1.3027788 -3.185732 0.94547063 1.7411457 2.6015198 0.22091249 -0.62131137 -1.324576 0.17753969 -1.7769749 0.1863421 2.9102817 -0.145416 -0.89741457 0.49695405 -0.81605214
6023 -0.26969767 -1.0766768 0.9846144 1.9532723 0.019645477 0.7895531 -1.742786 -0.66344416 0.64384896 3.054143 0.27501407 0.8453539 0.08522475 -0.6643285 1.1972133 0.015560517
7989 1.8263327 -0.8802952 0.25251135 1.8087592 1.6142572 0.62362075 1.3793422 0.020723352 0.07165657 3.0622463 -1.5590369 3.0415606 2.5282092 -0.6971869 -1.0889232 -1.6841378
8 0.59966516 -2.8910942 -1.8643241 2.073022 -0.6914198 -2.3520658 1.2320036 -0.73553467 1.3276598 0.2772015 -2.2942204 1.7338655 1.3138521 -1.4695269 -2.355808 -1.6440033
2953 1.2244537 0.41929716 1.789433 0.8987546 2.3434992 -0.40707445 -2.9006965 -1.7379204 -1.0331738 -0.28461778 -2.4580956 -1.3973448 -3.1994596 -2.7081192 -1.3092748 -0.83353645
4442 0.83452404 0.09097691 2.411062 3.5001743 -0.06897726 -0.2363706 0.8973717 -1.3988773 -0.75970286 1.1353513 -0.71625096 0.34290743 1.9162345 -0.0045605665 -0.3633291 0.810911
2518 3.0265973 -0.8299806 -0.82347023 -0.5423621 -0.69622064 -0.3787807 1.062157 -3.1058273 -0.963118 1.0007164 -2.450565 0.615839 -2.5567162 1.9053047 0.12938903 0.4658117
4801 0.42761505 0.15246513 0.27316734 -0.71300024 0.7652999 0.8257967 0.6298792 -1.2881607 0.72552395 0.36547643 -1.7777282 0.58305305 0.097278856 0.09059461 -0.007272709 -0.24252279
4900 3.3287065 -0.54019654 -0.9195795 0.9472572 0.96182704 -0.44967762 0.41325453 -0.5551814 -1.1348261 3.0588741 -2.3540275 1.3532552 -1.2186686 1.2403399 -1.3736978 -3.8640158
4985 -1.5986886 0.535543 -0.89672685 2.0312989 0.5434661 1.6945201 0.7281221 -2.546269 1.1452587 2.5335915 -1.8132595 2.42872 1.0354519 -0.798906 3.2812543 -2.7141452
38 1.6483862 -0.061339714 0.6910088 0.77570766 1.1465816 -0.9698695 -0.2147785 -1.3117613 -1.1177397 0.6847704 0.8338241 2.3070624 -1.1439271 0.14425085 0.508 -2.1517906
6483 0.5304737 -0.42065203 -0.8991116 0.95897996 3.454482 -0.09709477 0.92197996 -1.3550103 0.96320724 -0.33315414 -1.3712509 1.8017683 0.4067348 -1.6491739 -0.2963414 -0.74547774
4934 0.73102987 2.4861023 -0.44513428 0.19290896 -0.76952493 0.75799036 0.7242821 -2.5103056 0.26406288 0.8817524 -0.48488152 1.1163403 -0.027398597 -0.5885437 -1.0856519 -3.217113
2905 2.1989133 1.5894728 -1.2464126 0.6481993 2.2033138 -0.24195585 0.35886928 -2.6033142 3.556266 1.747043 -1.2711213 2.0224867 -0.59764606 1.8432256 -1.6335232 -1.5633012
5733 0.80765086 -0.55116814 2.784764 0.11471806 1.1325338 -1.0419756 0.8427888 -2.0240371 1.6234841 1.5242279 1.3506635 -0.17884417 0.25765768 -1.4453648 -1.2207587 -0.6945128
5662 0.15967964 0.15828478 0.8959146 2.340624 0.47629476 0.4460343 -0.81654596 -2.7451613 -0.8799317 3.8854623 1.5508747 1.6918834 0.90363747 1.4809092 -1.582014 0.11117259
