22470 16
34 2.2431118 -0.66876256 -0.1592734 -0.65007234 0.55129147 -1.9406399 0.17658499 -2.1213493 0.84004563 0.06319752 0.3559552 -2.1502821 -1.4794735 -1.1347288 1.606052 -1.4846313
18383 0.5042324 -0.11308492 0.37715036 -1.7239798 0.53660303 -0.3207884 -0.35514393 -1.2603666 0.53352857 1.1135248 -0.6842342 0.4237543 -0.9815278 1.0034626 -1.1197424 0.9255736
5072 0.72209823 -0.5027557 0.93995255 1.3587519 -1.1554635 -2.039009 2.5402555 -0.2610176 0.98901725 0.01590132 -0.9411461 1.0371954 -3.254906 4.4763293 -0.3194375 1.1043906
9124 0.7467913 -0.6182519 0.8360465 1.4565086 -1.2557107 -2.2208104 2.5168924 -0.317563 0.9306313 0.11533505 -0.9190765 1.1057676 -3.487168 4.7222676 -0.24326053 1.2396275
12683 4.5478244 -1.943315 1.2371529 -0.3487703 0.4391085 -3.1461775 0.68214417 -3.2454062 1.1010089 -0.31301072 1.1370966 -4.2013106 -3.6377895 -3.4213412 1.628167 -3.0374353
11865 1.9230863 -0.95618784 0.1734508 0.3178213 0.098608226 -1.6183949 -0.59640867 0.35416746 -0.71284777 -0.050496876 -0.9283186 -1.0621766 1.7542228 1.4849756 -0.82414514 -0.1770661
16 -0.0016028499 0.24517308 -0.10995866 -2.0188317 0.015051988 -1.2853059 -0.9709329 -0.9485522 0.45408294 0.7397734 -1.0186726 0.48067662 -1.1310482 0.76889515 -0.88375854 0.6054697
18405 -0.52450436 -0.19633912 1.5254493 0.77113247 2.34386 -1.2034775 -1.0207117 0.8870771 -0.19928302 -0.08208423 0.13481705 -1.6689509 -1.5282661 2.5957906 -0.7179803 0.64861166
9 2.2009296 -0.6984348 0.3741997 -0.97944707 0.63762075 -2.9258182 0.00567655 -1.3660059 1.0658945 0.024033975 0.4825459 -1.9921132 -1.2086891 -1.018862 2.1118262 -0.9554238
20254 2.273468 -0.7484784 0.45378447 -0.9184289 0.7891791 -3.0623462 -0.04938822 -1.509375 1.0108601 0.11918481 0.4696712 -1.9907572 -1.2273479 -1.202216 2.051611 -0.990108
17529 1.4202993 -5.802725 0.9421822 0.5304202 1.5198734 -1.0784246 0.5206139 0.7924605 2.4458768 -1.0709194 1.260919 -0.98583144 -2.595283 -1.0621413 1.4880809 -0.2569841
52 -0.76812845 0.07779326 -1.2751175 -3.6820812 1.0416918 -2.5859015 -1.9145927 -0.75003964 0.63320136 0.16423145 -1.171318 0.23371309 -1.0520802 0.8207647 -1.4395839 1.3210658
18392 3.1991696 -0.8894623 -0.0060147694 -1.3943002 0.86278653 0.2981515 -0.23033546 1.3124883 1.4868354 -0.8696361 -0.911814 0.103909105 -1.5614681 -0.3129666 -1.041977 -0.6594692
351 1.904718 -1.125315 2.0604541 -0.5064866 1.5726743 -1.3017935 1.4047064 -2.498941 0.8768241 -1.4636512 0.13883305 -2.8644834 3.8501368 1.9129021 -5.142536 1.4156845
4987 1.377827 -6.061438 0.8710147 0.27052602 1.5711147 -1.4466152 0.5898743 0.8633713 2.6921837 -1.2847785 1.5000643 -0.6750684 -2.5102322 -0.957858 1.5788155 -0.37907997
3454 0.39024773 0.05113347 0.47308442 -1.5787717 0.52233064 -0.71400964 -0.20267203 -0.67953753 0.8133691 0.44554144 -0.33356404 0.4524339 -0.15940502 0.8629467 -1.1793982 0.9023908
21626 2.298535 -1.2553539 2.3234158 -0.4961304 1.9104874 -1.4159044 1.3836128 -2.7673628 0.8281889 -1.4715048 0.04876508 -3.06588 4.1130075 1.9383321 -5.571298 1.5990582
62 0.9502597 -0.10810748 0.9803226 -1.1456771 0.5590422 -1.332583 0.5358646 -0.4252258 1.868135 0.43612674 0.2538849 -1.5042832 -0.28639427 0.54613864 0.76343715 -0.80875427
4859 3.438625 -2.3621523 -0.6933429 0.95725834 2.0164163 -0.82041407 1.3608371 2.3316896 0.79045284 2.9675403 -0.09842127 -2.7086475 -1.2882881 0.547833 -1.4033263 1.3717378
3396 3.4027956 -2.5217056 -0.63898337 0.859903 1.9826623 -0.6750697 1.4923317 2.343553 0.6646436 2.958434 -0.027698085 -2.9919202 -1.3751899 0.47516948 -1.4969566 1.5352672
22149 0.8903866 -0.35835832 0.9397818 -2.6908348 0.68849695 -0.16570027 -1.0019479 -2.2480068 0.34068447 1.8750134 -0.9166312 0.45340323 -1.7699865 1.5460994 -1.1204283 0.7691789
7004 -0.44175154 -0.110664465 1.4086974 0.6921152 2.2272925 -1.3616533 -1.070481 0.91658527 -0.15070164 -0.12998776 0.21814623 -1.6313304 -1.2797444 2.4454358 -0.5143385 0.7257949
5466 1.7632641 -1.1339859 0.019417357 0.26051995 0.13571307 -1.394008 -0.5411944 0.591644 -0.71266896 0.17831652 -1.0445731 -1.3293421 1.7009588 1.6031177 -0.66653 -0.36550215
20109 0.6828853 -0.13803394 0.46408972 -0.81784517 0.37365112 -1.103828 0.4707795 -0.30915576 1.2891661 0.32404414 0.17721638 -0.92752564 -0.29970568 0.22262017 0.7911578 -0.5084361
7107 5.2888136 0.08081158 0.6715925 -3.2385714 -0.06556974 0.056623 2.5576715 0.46279755 4.8832974 -2.558364 -3.6332462 -0.6382914 -2.633661 -1.1497583 -2.9430602 -0.0026979153
16018 5.19581 0.23852709 -0.35595956 -4.403302 -0.9551247 0.76126933 2.255998 1.1754683 4.174644 -2.615274 -3.1445081 -1.2732319 -2.8329997 -0.11904851 -3.249948 0.3140203
3437 0.4540579 0.028603986 0.1467715 -1.6135315 0.36096933 -0.50736105 -0.39740264 -1.3287771 0.7585778 1.1089932 -0.6866082 0.1732399 -0.9539087 0.7733403 -1.065574 1.0369169
15008 -0.36802527 -0.22508104 -4.476191 -7.476066 2.450462 -4.4580026 -2.7326903 -2.2765675 1.8820899 1.1222408 -2.0560288 1.1411128 -2.383328 3.431426 0.25682342 0.83847356
18396 1.2884285 -0.47529894 0.28165978 -0.003689773 0.38818243 -1.32272 -0.427519 -0.4586556 -0.14496951 0.16085413 -0.5965095 -1.1931056 1.8645391 1.5225958 -1.1693375 -0.20076333
19869 1.7480592 -1.1292778 0.35018975 0.2142224 0.17591977 -1.5690843 -0.5645563 0.3608303 -0.64337885 -0.24856757 -0.9730914 -1.1530141 1.9341773 1.5855721 -0.8449207 -0.42098963
925 1.7125285 -1.5256133 0.47476968 -1.3349383 0.7401184 -0.31235 1.5192252 0.11647927 0.97103167 -2.2842531 -1.9653444 -0.73971266 0.2237523 1.454592 1.835662 1.1602409
1661 -0.822769 0.116135046 -0.05988625 -1.2280432 3.2741394 -1.1688828 -1.6985233 -0.8424599 0.49033928 -0.9461603 0.4508475 -4.626572 -0.29987416 1.4998697 -2.4690485 1.2547425
18415 0.47019306 0.19771242 0.49091163 -1.824651 0.5404656 -0.9271707 -0.39257902 -0.5953963 1.1118865 0.34782118 -0.28413492 0.36794212 -0.22678511 0.9131822 -1.5282319 0.9078799
20059 1.0468295 -0.16506948 1.1698526 -1.2695526 0.57338053 -1.2893591 0.60067755 -0.37163243 2.0643187 0.47063863 0.29406175 -1.714746 -0.3723377 0.5781782 0.6992088 -0.8867718
18365 2.3037271 -1.3909311 2.6892908 -3.2426353 2.2444007 0.4016927 -2.4792175 -3.3957095 -0.51907945 2.131816 -0.07122462 1.1998055 -2.6513827 2.1995769 -1.8795224 0.8637702
19199 1.5313734 -0.38487074 -0.2002433 0.22717978 0.689468 -0.64461684 0.7073107 1.2109005 0.08192773 0.84672767 0.91323054 -1.1279051 -0.91076905 0.008423452 -0.7984093 0.5486083
1389 1.8063284 -0.8307155 0.101529814 -0.82968736 0.67100006 -0.008635459 -0.8585052 0.6972334 0.7976982 -1.0644784 -0.4508608 0.20259474 -0.82115775 -0.26408404 -1.0876061 -0.77003324
1997 1.7954433 -0.90461767 0.06088297 0.22849342 0.20006528 -1.8475752 -0.63855344 0.2255566 -0.3473279 -0.050022528 -1.2058543 -1.0462459 1.9997958 1.6933439 -0.77572113 -0.26458856
7285 2.6740286 -1.0677664 3.0629265 -3.5048497 3.8820481 0.9471729 -2.293731 -4.53714 -1.4239513 3.082311 0.76475734 1.0761733 -4.529583 2.9441803 -2.409772 0.5796386
5266 -0.45651624 -0.22286649 1.5966338 0.3798606 1.7232615 -1.2022343 -0.61443216 0.8991825 -0.3694724 -0.06338962 0.48216698 -1.0892504 -1.3145331 1.380872 -0.86302084 0.5419793
18436 -0.3001194 -0.06093642 0.11451669 0.46669278 2.7759848 -1.1680617 -2.0971816 -0.097333536 0.10894148 -0.19074552 -0.21299882 -2.9628153 -0.60387295 1.5396029 -1.6723752 0.99453425
14660 0.14050238 -2.7386234 1.2409387 -3.2969718 0.82174045 -1.1080244 -1.719207 1.424909 0.42576376 0.5515779 -0.40259427 -3.47641 -1.0652858 -1.4244088 -1.5254432 2.0704725
9626 1.2082353 0.15025267 1.5182514 -3.1359746 -0.48729676 -1.5101281 -0.22688633 -2.650671 -0.90135 0.21076205 3.0861802 -2.156697 -2.7812393 0.83413714 0.031088408 0.46715727
187 -1.9599978 -3.0043714 -0.2438075 -3.7552137 -1.065981 -1.2765881 0.85145706 -0.96002334 1.9305872 -2.0230157 1.8417614 -1.9209398 -3.814431 0.6990245 -1.2048823 -2.5245082
36 3.1400204 -0.30845016 0.22710688 -2.36429 0.46908557 0.52227044 0.67478144 1.4940267 1.8178128 -1.5394135 -1.3739225 -0.4466852 -1.875676 -0.5843486 -1.2554066 -0.19731237
12730 0.024346549 -3.978983 -1.9589362 -1.6778251 -2.062593 -1.0709882 1.1473656 -2.3401418 1.6148306 -1.8483882 0.4538036 -1.4462736 1.3244681 2.0885732 -1.0417516 1.0471087
11288 -1.0833702 -3.781531 0.5575304 0.34001848 1.0747049 -3.3794246 -0.059548717 -0.31961128 -0.48621285 3.1582565 -1.5588169 -0.32304585 -1.6339692 -0.18444772 -1.2579708 -0.8069209
19472 4.0755982 -0.5363398 0.36477926 -2.532757 1.4859841 0.8224026 0.04105989 2.076062 2.2435677 -0.7912188 -0.32085416 -0.08050645 -1.6660459 0.5025257 -0.24520999 0.44851682
1033 1.1202328 -0.9013127 -1.6415489 -1.3250401 1.4207423 -1.244733 0.012926312 -0.6547473 -0.7697361 1.0985323 0.19756739 -1.83817 -0.5794205 1.3577063 -0.4257468 -3.7870462
10380 2.2770126 -1.1922113 -0.13226974 0.50042737 1.1200244 -0.4291788 0.5753942 1.5275532 0.19625038 1.6022216 0.70810205 -1.5298333 -1.2792631 0.12573424 -1.0929208 1.071547
12760 2.1484485 1.2161566 -0.5208124 0.05327192 0.48598734 -1.149855 0.49594304 -0.82697517 -1.2753372 -2.5374286 -1.7735506 -0.5748862 -2.1746082 1.409915 -0.44989666 -1.8027325
9419 0.71237856 -0.60027564 0.5196457 1.0800691 -0.6742579 -1.0513111 1.806971 -0.92805886 1.1239585 -0.45915332 -0.44124117 0.70190924 -1.6977931 2.8109968 -0.06404877 0.7101332
20774 0.06501527 0.022481523 -1.6678989 -2.049499 -0.52133185 -1.5133961 -1.3110586 -1.3025982 0.9335438 1.0026715 -0.58695966 0.36314872 -1.4279258 1.4262758 -0.4701292 0.50482297
17171 0.6479328 -1.0577785 -1.1422073 -0.8464164 1.611105 -1.441866 0.40398073 -0.2768039 0.4830378 0.68627036 0.2532446 -0.8797335 -0.686834 0.9270815 -0.5779164 -3.43354
11379 -0.15617709 -0.033134278 0.54319644 0.54359955 2.7832904 -0.7954306 -2.2434533 -0.2922979 0.19681709 -0.40903354 -0.48228222 -3.1532938 -1.0550095 1.787962 -1.886185 1.7636716
8466 -0.64608926 0.21289049 0.2538511 -1.3192621 3.5208116 -1.2774807 -1.9360107 -0.84258765 0.697531 -1.0492705 0.5270191 -4.801143 -0.38690072 1.6641589 -2.1935084 1.6360341
4823 1.8328682 -0.8428761 0.15619588 0.11063655 0.04551465 -1.3412026 -0.5226591 -0.01633773 -0.4784751 -0.08288613 -0.5719346 -1.060123 1.8668475 1.534636 -0.5795924 -0.20912398
16365 1.1892618 -0.26072916 -1.1222283 -0.2653327 1.943346 -1.0334345 -0.408954 -0.35661167 -0.92069393 0.6604839 -0.14358018 -1.8310302 -1.6993196 0.9954648 -1.1973758 -3.8428075
20206 1.9193934 -0.39478314 0.6713401 -1.0942227 0.66681504 -2.5175936 0.49568015 -0.7037482 1.5056375 0.40994883 0.21588206 -1.63276 -0.852586 -0.4562456 1.7884332 -0.8395249
1506 0.8238456 -3.7302437 -0.09935447 0.2536872 0.78267735 0.057184573 0.1116039 0.65814006 1.9514924 0.3787351 0.4719101 -0.74076813 -1.3900273 0.8687077 0.7008953 -0.1081137
6529 0.09777891 -2.653787 1.3461096 -3.2070322 0.85790086 -0.8916035 -2.0602403 1.7085904 0.62699455 0.50893086 -0.5793073 -3.582168 -1.715067 -1.4082001 -2.102629 1.9301542
16250 -0.0054750233 -3.414003 -1.1928141 -1.1370586 -1.9016716 -0.5871663 1.1276715 -1.8400375 1.3082874 -1.9755744 -0.018429024 -1.3032186 1.0545207 1.72762 -1.0310104 1.0522703
16874 2.7355113 -1.7434125 -1.6439044 -1.3997891 0.29397506 0.022267466 1.3748776 -2.6047046 -0.8753722 0.80278766 0.7911614 -1.1254891 -0.5168308 0.5947201 -0.8258077 3.371597
1992 -0.06284201 -1.1182433 -0.07158406 -0.7266754 1.2346865 -1.3300462 0.76109177 -0.24839616 0.023267336 0.08413971 0.19197519 -0.6155551 -0.87887275 0.23479003 -0.6009022 -2.940267
11422 2.4204168 -0.66782016 0.6848903 -1.2029107 -0.30286652 -0.57938427 1.43455 -0.79643816 1.4396895 -1.7299949 -1.4983768 -0.88309735 0.3099492 2.022575 1.7295604 0.6962748
7581 1.183963 -1.0566033 4.416372 0.45678228 2.8520274 -2.2550597 -1.0382804 -1.124158 0.8989181 -0.63157254 0.20197316 -2.6298106 -2.4534147 -0.59235305 0.12401587 2.1334124
9478 1.6786046 -1.105299 -1.3095784 -1.6049136 1.8186274 -2.1354117 0.8797136 -3.3459935 -2.3531528 -1.1797324 1.2405736 -0.97380674 0.71850073 0.6976374 -1.8674065 2.2305005
10758 1.6543608 -1.3930326 0.20738514 -2.5341184 1.466228 0.28651956 1.8801361 0.3030355 -2.318119 0.5250567 -0.7497797 -0.20920733 -0.9464393 1.2503572 0.77407545 -0.09245592
5441 1.753532 -0.41166243 -0.026951281 0.4765451 0.816203 -0.8326881 0.5823249 1.3205326 -0.07658689 0.52171564 1.2634603 -1.2426422 -1.2382629 -0.3239023 -1.1823614 0.5243709
20494 0.41488862 -0.3830461 0.6725009 -1.6722754 0.596901 -0.32123816 -0.29374814 -1.0031271 0.36677882 0.62514955 -0.6112306 0.5188835 -0.5143638 0.5342211 -1.1623685 0.7353434
17429 1.5408288 0.5666117 2.3003285 -3.317542 0.13761364 -0.99170977 0.05066429 -2.448122 -0.7884605 0.12329867 3.2391312 -3.0172968 -3.552315 0.43438843 0.13636927 0.949842
15224 2.188483 -1.0305091 -1.461796 -1.9255196 0.88466823 -1.2679627 1.3112187 -1.5313025 -1.6270876 0.269237 0.09382884 0.49280944 -0.25991672 1.560682 0.34245324 2.8205497
3916 -0.5345335 -0.24970083 0.34409595 -1.9781923 -0.8963708 -1.5523565 1.0010782 -0.119082525 1.682169 -0.9421822 2.127339 -0.94404644 -2.9898117 0.88901037 -0.54978377 -0.69987696
18386 0.68214 -0.24683124 0.46931973 -0.6281821 0.44685692 -1.016707 0.45016795 -0.48870283 1.2109653 0.49844524 -0.050324913 -0.73611885 -0.4664601 0.20893969 0.911185 -0.6031167
14285 3.5561998 -2.9165804 2.3842597 -0.63350403 2.6579864 -0.029313644 3.6243184 -4.0834446 1.339946 1.325742 -0.9871407 1.093289 0.899957 2.3215568 -2.5175304 -0.92546
2804 1.0918945 -1.3120309 4.537202 0.36753547 3.1291268 -2.6290538 -1.2341057 -1.0759292 0.92894226 -0.7981803 0.53105223 -2.8167295 -1.9689746 -0.5496614 0.59739363 2.477896
18413 -0.62314993 -1.2156459 0.60229003 -0.6988548 1.8098316 -1.4858942 1.0275453 -0.38348994 -0.61944336 -0.33340698 0.43822965 -0.7187142 -0.9960465 0.47809577 -0.36069986 -2.8673556
15619 2.4453907 -0.62714934 1.0786475 -0.99334216 -2.375209 -1.1812526 3.5413244 -0.34812436 -2.8253272 -0.085172065 -0.33606377 -6.208531 -0.8597427 0.34121957 -2.0116737 -0.06987526
12462 2.7902632 -5.034046 -0.030739995 0.5274957 -0.94671315 -2.3548446 -0.40349075 -0.6972552 -4.901169 1.8471375 4.3406034 -1.886138 -2.0362124 0.63701075 -2.3783886 0.8436537
5463 -0.75194865 -0.5079605 1.7561742 0.29002124 2.515617 -1.3591754 -0.3931708 1.1148146 -0.28188875 0.12126938 0.5120908 -1.5049465 -1.5148759 1.8477422 -0.7525552 0.56532586
13481 2.0530117 -1.063942 -0.03926997 -0.47223103 1.2130764 -0.30457205 -2.023002 0.75633186 1.0484327 -1.535553 -0.65031224 -0.108589776 -1.1462209 -0.056038514 -1.511285 -1.1793547
11394 -0.5018735 0.23492907 0.8161051 0.66980135 2.0887666 -1.2527252 -1.2278005 0.61772215 -0.4052048 -0.22280812 0.7060431 -2.0231302 -1.5919077 2.6032 -1.1168104 0.65045655
3430 2.4802854 -3.3128765 2.2356346 -0.68351376 -0.64855784 -0.113974355 -2.874696 -1.1111584 -0.27844596 -0.032263022 -2.33196 -1.9680469 -2.8931837 1.250733 2.8393197 0.97595316
5137 -1.220835 -0.95371133 0.6820252 -2.7058537 -0.5553577 -1.896314 1.0785764 -0.37555882 1.7563298 -1.2131021 2.7844281 -1.2306582 -2.9232793 0.93178725 0.0013401505 -1.0307931
9013 -0.75554496 -0.0038371999 0.3857544 -2.2417529 5.929743 -2.1937845 -2.839166 -1.9500195 1.239379 -1.3676047 0.7846195 -7.981804 -0.6952741 2.5563438 -3.82418 3.1563256
13022 2.5121276 -0.6061284 0.078517705 0.5144735 0.7260816 -0.8148798 0.68232495 1.5496248 0.25285968 1.4440061 1.0392488 -1.267332 -1.1173694 0.43672976 -0.951058 0.8771973
3167 0.082331374 -0.0037705998 4.094386 -1.9966526 1.076685 0.1393113 0.37458992 -0.8235578 1.8812758 0.5017576 -0.17715278 -1.2850972 -2.3646252 3.7485015 0.94899756 -1.0164948
17037 1.7755206 -0.74425274 -0.39746574 0.48409802 1.0815773 -0.825873 0.68708736 1.538277 -0.28795698 0.9576155 0.8512896 -1.2785139 -0.8810998 -0.07522442 -1.0598375 0.66173965
15565 0.3150044 0.113912106 -0.16849001 -1.4490328 -1.235458 -1.7393489 0.5368897 0.11349791 2.1648262 -0.39539152 1.441345 -0.80600536 -2.3056903 1.1218786 -0.46195412 -0.9553798
6645 0.40491647 -2.8792365 -0.13431416 -0.0078055584 0.5675781 -0.004087281 -0.07247556 0.5118095 1.1638738 0.020813446 0.40730497 -0.4138732 -0.5658722 0.6687181 0.28322476 -0.27878153
7202 -2.200961 -3.4203277 -0.2917922 -3.613329 -0.6749246 -1.2510078 1.1159332 -1.0311677 1.9941224 -1.8929404 2.1550083 -2.1830115 -4.095795 0.41722608 -1.5552102 -2.5797381
5030 2.9231508 -0.073556446 0.16295406 -2.7681005 0.28182098 1.4676644 0.5960768 1.0988271 2.29152 -1.0680698 -0.82866555 -0.5769907 -2.6937273 0.3473185 -0.9371084 0.22976002
18401 3.0082042 -2.3699481 -2.471195 -1.8162278 -0.12563595 -0.6268518 0.9568434 -3.2338064 -0.23328407 0.9024005 2.1549172 -0.93559796 -0.5797221 0.93207866 -0.9373716 2.7829783
19193 2.9560883 -0.6306421 1.8004292 -1.1334982 -2.588844 -1.105431 4.071718 -0.7652627 -3.5107853 0.0781213 -0.41406998 -6.6861334 -0.84811443 0.6265375 -2.3185298 0.15321556
8168 3.3239465 -3.2589717 2.6877828 -0.59452003 2.8711102 0.4062955 4.6106215 -3.9282994 0.39027327 0.87371236 -0.8982652 0.8722306 0.12445643 2.4732425 -3.6454937 -1.3122714
8756 4.9644837 -0.45772728 -0.046051282 -2.2000992 2.1582263 0.38627723 -0.3184709 2.3755903 2.403592 -1.134964 -0.17139147 0.2633751 -1.8382127 0.7364886 -0.07710533 0.26883647
17 2.6941063 -0.08680325 0.52318174 -0.9786672 1.0382599 -1.6490551 -0.2827538 0.13304281 2.0696204 -1.2950083 -3.961954 0.48808992 -1.9669427 0.738498 -2.595578 -3.2924328
7090 1.340117 -1.2659636 -0.24779133 0.6711035 -0.029564254 -1.7490716 -0.30956423 0.6549723 -0.47174796 0.5147043 -0.9338205 -1.5055909 1.6121947 1.6221542 -0.8858623 -0.32033682
12779 2.2046587 1.0406271 0.3424507 -0.025869315 -1.0035865 -0.31623876 0.93061537 -1.410255 -1.6154279 1.4046233 -3.8056026 -2.918858 -1.3029374 4.5148697 -0.56655014 -0.354463
17143 0.3092751 -0.26066217 1.3346763 1.0324373 -0.8667311 -1.8626131 2.0562086 -0.18036023 1.1189612 0.23737371 -1.352969 0.9213657 -3.0504649 4.1523285 -0.2844202 0.58505315
9252 2.971932 -0.3326119 0.4488373 -1.17542 1.6268036 -2.0926661 -0.06898451 0.85225177 1.7954193 -0.2579195 -5.3928003 0.5181421 -3.9916093 1.0512493 -2.4257104 -4.0244465
16223 1.2170389 -0.24914657 0.8094811 1.7216793 -1.2416627 -1.5367373 2.7836607 -0.3381626 0.99531543 0.14513561 -1.0886976 0.14903866 -3.264275 4.913398 -0.17180708 0.24320717
12870 0.21164122 -0.33757252 0.11684678 -0.8165588 -1.1146867 -1.1349407 0.087444104 0.13615242 1.5150107 -0.5155428 1.1283604 -0.59121346 -1.3883562 0.63139224 -0.7008064 -0.6109509
18385 0.9085355 -0.72856134 0.58235204 1.2998966 -0.800462 -1.260322 2.2721379 -0.8742478 1.3414611 -0.38347048 -0.88227046 0.8376805 -2.135146 3.492761 -0.17093852 0.9578209
73 -0.01681617 -0.13693802 4.65175 -2.429021 1.1080077 0.30237684 0.19126499 -0.68320477 2.109853 0.3326809 -0.047740877 -1.7384812 -2.6732183 3.9341314 0.6620785 -1.1447076
20951 0.4191673 -0.19582632 -0.5222868 -2.8327725 -0.47829708 -1.7477964 -0.940939 -1.3608605 0.07898121 1.7182013 -0.62898123 0.7525564 -1.3576862 1.350255 -1.5238773 0.5192475
13408 2.347923 -1.1929346 2.5131087 -1.855179 0.807403 -1.4332329 1.4842414 0.5702461 1.9075294 -3.4035447 -2.3762157 -0.61329305 0.16838138 2.578224 3.0441785 -0.12628807
13186 1.7020562 -2.2882168 2.0285974 -1.6876786 1.7748842 -1.1086413 1.4163479 0.34102526 0.8567389 -3.6847155 -2.7901855 -0.76929545 -0.28758633 1.9078565 3.5383914 2.353311
3939 0.910249 -0.3089555 0.4208708 -2.3443317 0.8699707 -0.50504595 -0.1276369 -1.4468914 0.9436314 0.5785673 -0.5264729 -0.03360014 -0.0016187838 0.88319945 -1.1855487 2.2450712
7566 0.03156961 -1.2133598 -0.3482375 -0.5597328 1.3857532 -1.4010069 0.27735087 0.018873662 0.2978811 0.18844497 0.39014906 -0.57904303 -0.549103 0.44097966 -0.5132734 -2.6952963
13430 0.33931863 0.41657108 -1.2119801 -0.39721686 0.87401193 -0.888907 0.53026915 -1.1619959 -1.475268 -2.4794044 -1.0953319 -1.2375 -1.4351013 1.8198154 -0.30051666 -1.0442656
12096 3.5901456 0.76744545 -0.7194624 0.2917478 0.6671757 -1.1245987 2.5118308 -1.3117391 -1.8799512 -2.4826546 -3.3640323 -0.78575826 -5.337915 2.6437993 -1.0214173 -4.0561566
659 3.294181 1.8905754 0.10233914 -0.20808315 -1.2066032 -0.34264347 1.122267 -0.7482482 -0.71315736 1.9090767 -3.14818 -2.9461098 -1.7104791 4.1082273 -1.0118376 -0.32323715
18166 1.7429875 -1.0755091 0.2248595 -0.50347155 1.1938825 0.3188056 -1.3149121 0.38572344 0.73703706 -1.392656 -0.6724289 -0.111035794 -1.022776 -0.09695773 -1.4594594 -0.9806528
18476 -0.030363077 -1.7112284 -1.6293874 -1.4522254 2.5483198 -1.9362385 1.0675172 0.46743476 1.6781322 1.251626 0.66868776 -2.606665 -0.6837075 1.128191 -0.98244977 -3.6129026
12974 2.9330914 -0.53428125 0.5871646 -0.6902266 0.2724724 -2.0650475 1.0319976 -2.4452457 0.6198586 -1.1909283 0.7487473 -2.9679596 -1.2314658 -2.0531952 1.3475972 -0.8615774
14182 -1.9460051 -3.4992673 0.08774456 -4.3667445 -1.1122527 -1.1017802 1.3643557 -1.2771353 1.8975708 -1.9403566 2.4961462 -2.3790815 -4.640226 0.5659905 -2.2062469 -2.7062788
16103 0.13664588 -0.821094 -0.49310836 -0.8008935 1.6920248 -1.4294049 0.74811417 -0.22643575 0.074759476 0.60982645 -0.09023241 -0.4730995 -0.6110282 0.3640211 -0.7998545 -2.7794027
6849 0.46130848 0.34198 -2.9732704 -4.6054745 0.69259864 -3.1285172 -1.7940046 -0.93391585 1.6023351 0.59890944 -1.5017089 1.5976475 -1.5264109 2.8289182 -0.08840095 0.257891
21401 -0.3344466 -1.2083817 -2.8172898 -3.8893778 1.009361 -1.5342749 -1.0558369 -2.2403536 0.62409633 1.5010735 -1.6424494 1.3809913 -2.005147 2.1616879 0.20777594 0.42026287
14226 -1.2617829 -4.080808 0.79914844 0.92860377 1.0360124 -4.006468 0.71013635 -0.33756718 -0.3169697 3.764071 -2.6187053 -1.0958235 -1.9025228 -0.28097332 -1.2354474 -1.3507652
10849 -0.0795472 -2.229979 -0.31276834 -3.6101513 3.6189117 -5.9715953 -1.6498659 5.3807483 -0.71525884 -4.0327377 -5.1600423 -3.6889002 -1.0902522 0.3205247 0.59879434 1.1167916
14766 0.8424168 0.4868026 -0.884645 -0.21460801 0.6110635 -0.65094495 0.14963484 -0.8382053 -0.62754375 -2.1879294 -1.3329635 -0.5706625 -1.3052881 1.4343257 -0.58684415 -1.3461293
4599 2.9073515 -1.1678301 -0.8147532 -1.1993935 3.5403666 -2.5479758 -0.22025567 -4.6946507 -1.4738976 -1.628262 0.3287204 -2.0742161 0.83454126 0.010180941 -1.1943343 2.6058016
10016 0.44661328 -1.0870531 1.696513 -0.07249731 1.060371 -1.3820804 0.096353866 -1.2249388 0.29041034 -0.1480226 -0.6946806 -2.1120183 2.4439533 1.3948938 -1.9184169 0.73464006
2852 2.892488 -0.81771815 -0.07065772 0.90249264 1.3534971 -0.6629875 1.8133124 1.437763 0.10472178 2.1917188 0.0246443 -2.6042373 -2.074756 0.114758976 -1.5916755 1.1148447
6853 3.6963959 -3.84907 3.438021 -0.7403411 -1.7400705 -0.119467616 -2.738931 -2.148455 -1.2243447 -0.21812828 -2.4996314 -2.8378713 -4.292175 0.68349713 3.185734 0.80153364
14551 0.015580516 -3.541554 -1.3937 -1.2720958 -1.6250409 -0.5735993 1.3001546 -1.8660018 1.1983275 -1.7413175 0.05472432 -1.0552361 1.1483784 1.8380129 -1.0344409 0.76074046
4283 1.6246133 -0.7219406 0.33479732 -0.37988472 0.015532301 -0.19100386 0.6101216 -0.544305 1.3190448 -0.38841617 -0.4796876 -0.7882665 0.33573645 1.4593596 0.79549694 0.57819873
5383 -0.3468909 -3.2746696 -0.27963424 -0.12000754 0.16364987 -2.755785 -0.19388117 -0.27468064 0.44196272 2.837631 -1.3865383 0.21975078 -0.8541485 0.21347348 -1.9197143 -0.31733456
1712 2.7405233 -5.717326 0.6929809 0.52235305 -1.2284588 -1.7566386 -0.59122485 -1.0489575 -5.081122 1.8867815 3.758418 -1.9632865 -1.5443134 1.2070606 -2.5427792 1.3940383
18216 0.41402662 -2.8565726 -1.6733674 -2.3066826 2.4832664 0.15593769 0.5198003 0.6886937 -2.3209286 -0.01841885 -1.6060067 -3.252295 -1.3227746 1.4456772 2.5585542 1.190812
10386 2.8000882 0.1323362 -0.043880273 -0.50497353 0.4752789 -1.867711 -1.1159315 -0.52162653 0.50202674 -0.8477207 0.21125384 -1.1446992 2.0216022 0.8364252 -1.8532306 0.5992517
1962 2.160031 -1.0842555 0.1571526 0.43176454 -0.0015854916 -1.4989594 -0.09592457 0.2119204 -0.65586454 -0.049407687 -2.36206 -2.1881497 1.9211671 1.5105025 -0.7801309 -0.2968122
17007 0.98547316 -0.13485809 -0.089931935 -2.438087 -1.5480427 -3.235428 0.4527532 -2.278512 -1.1792834 1.4031053 -0.06804199 -1.3514045 -1.5570644 0.93739885 0.78360987 -0.68788636
16205 -0.33699405 -4.2293873 -2.0646458 -2.218032 -2.0418522 -0.7034221 1.5346674 -3.4455202 1.237805 -0.6652114 0.2768366 -2.579758 1.0394406 2.2869751 -2.066771 1.7240506
4205 -0.11968871 -2.3006935 -0.60851175 -3.7442155 3.775599 -6.829753 -1.9892234 5.749142 -0.86904883 -4.20096 -5.5686026 -4.0109754 -1.0353906 0.4907268 0.3874247 1.2569606
13233 0.8882207 -3.40267 -2.5094926 -2.50019 2.8823595 0.49132752 -0.27484095 0.65399945 -2.4798462 -0.53373736 -1.6283628 -4.0838227 -1.6250551 1.9215199 2.9391246 1.9286638
11850 1.3830544 -1.5367285 0.17466053 0.21342248 0.111406855 -1.6523554 -1.7929187 -1.3247796 0.5654218 -0.78951395 0.01408806 -2.0899792 2.0505016 0.77339053 -3.0729845 0.71283436
1051 0.14938302 -2.0756865 1.4234794 -2.7368622 0.65619034 -0.52026683 -1.0665745 1.0152293 0.28123003 0.5529403 -0.18513969 -3.1733415 -1.1940608 -1.2361916 -1.3801069 1.7594712
3760 -1.160142 -1.1047155 3.5395958 -1.5886652 1.6511904 -2.743057 1.4183865 -4.226709 -1.160787 -2.1666389 -0.02841908 -1.5040563 -1.5063368 1.2967479 -0.039678954 0.695613
18361 0.5495202 0.32608458 0.89095855 -3.2514203 1.8591874 -5.352636 2.0359192 -1.364071 -0.4693712 -0.721459 3.4725654 -4.3408837 1.1829613 3.7982743 3.1055458 0.35638556
4049 0.3691349 0.26839408 0.64494705 -3.20183 1.9100778 -5.3639827 2.3370707 -1.4428408 -0.35817704 -0.62899816 3.4658704 -4.251486 1.1243684 3.9965954 3.2591894 0.40859398
18203 1.2350217 -1.5545672 -3.227822 -2.7603374 3.2408009 -1.2236643 -1.2114978 0.062182255 -2.440324 -0.92869365 -0.70526356 -3.995191 -0.30270994 2.1752186 2.8964443 1.374201
9348 1.6618361 -0.78198314 -0.97390586 -2.5511265 1.5407512 -0.11801251 3.4493272 -1.5186777 -1.9674659 -1.7995061 -0.0928387 -1.0435739 -1.5383116 1.613228 1.3437041 0.2430658
8288 1.6292827 -1.5639523 0.9547682 -1.5757662 0.051130738 -0.5394221 1.386525 -0.13577157 1.5887454 -2.530265 -2.0143137 -0.28834596 0.46714917 2.3337774 1.8765696 0.14047761
3163 1.7638338 -1.9613473 0.89319795 -2.2811239 2.3640742 -1.4750004 1.9192811 0.9042103 0.6341692 -3.3237839 -4.145246 -0.41749325 -0.1482981 2.2549832 3.1959562 2.9738724
13617 -0.99703574 -1.129263 3.1457336 -1.5699102 1.8433176 -3.161008 1.0436087 -4.3844657 -1.5099374 -2.0607145 0.71350443 -1.2352262 -1.613892 1.383796 0.61284906 1.3420662
18005 2.7270427 0.22973873 1.9849952 -0.20100008 1.1566409 -0.3756742 0.11099025 -1.7253579 -0.7667205 0.48839575 -2.218401 -1.75681 -1.8864428 -0.27764985 -1.7582393 0.20167789
17852 -0.5277176 -5.7554865 1.4278716 1.5711014 1.3518453 -3.7522106 1.0795592 -0.7169287 -1.2337406 4.0084677 -3.376346 -1.3217216 -2.6820204 -0.7575929 -1.7909756 -1.7081643
2002 1.7721864 -3.4880993 0.49425617 0.32213274 -0.3017293 -2.170547 -0.39500022 0.08303457 -4.2215357 1.1405905 3.0751758 -1.145258 -2.1240919 0.23859085 -2.9482012 0.40953445
19353 3.5168264 -0.9019945 -0.4822245 -1.6752467 1.8714255 0.2224661 -0.5949515 1.671516 2.056214 -1.1523297 -0.25267628 0.41213876 -1.6428292 0.6069129 -0.6372563 -0.97938126
6558 1.578394 -1.1242112 -0.46157846 -2.385071 0.944007 -0.23846053 1.3999752 0.57237715 -2.2911384 0.5085513 -0.4346332 -0.7801049 -0.5423067 2.0298061 1.338021 0.8432205
1114 -0.42952532 -0.41091904 2.082316 0.6538244 3.037748 -1.9548572 -0.76052845 1.6123915 -0.56558853 -0.04132811 0.3957048 -1.96051 -1.933466 2.420897 -1.3732101 1.4596013
2084 1.9908444 -0.9819088 -1.3734869 -0.88205767 1.6977793 -1.7784883 -0.41919926 -1.1145339 -1.8285666 1.8261621 -0.2020432 -2.5720901 -0.8221339 2.407152 -0.87274206 -5.6711
1492 0.30926973 -0.32378232 1.1480768 -3.176793 -1.0862485 -1.9114195 0.3477323 -2.1948411 -1.5757307 0.066014886 2.1931305 -1.8033938 -2.8594246 0.5863713 -0.35908848 0.97042334
12802 -0.8565513 -0.39077154 -0.4103668 -0.56637955 3.1696758 -1.2089345 -1.7322474 -1.010005 0.32262617 -1.4697891 0.04059434 -3.7002585 0.04166576 1.1590813 -1.9902192 1.7152567
14619 2.3423095 -1.3714257 -2.3673575 -2.158021 1.0152181 -1.1178824 1.2000254 -1.6337205 -0.8995164 -0.017714309 0.075565234 -0.17755263 -0.37108853 1.5478069 0.72128385 3.8013268
9707 1.5087008 -1.0254822 -0.57142764 -1.4247317 1.5242922 0.105912566 1.0464613 0.37018877 -1.545899 0.53131974 -1.2914622 0.11709391 -1.137781 1.5205028 0.53702784 0.23663723
902 2.9807673 -1.0780904 -0.5527978 -1.7979435 1.3648962 0.13569874 -0.7659914 0.97411615 1.3359594 -1.8022293 0.66684866 0.28930572 -2.1731098 -0.14616553 -1.4876276 -1.1883941
11202 2.571827 0.68332005 -0.48573944 -0.17876904 0.67037714 -1.240618 1.2797525 -0.66462016 -1.4466842 -3.0028753 -1.6549788 -0.2563856 -2.9054859 1.2620561 -0.10562679 -2.4174078
526 4.157331 -1.0552764 -3.678866 -1.6597408 -0.85411084 -1.5207655 -2.0570605 1.8345531 0.8848322 1.0472218 -2.3034005 -2.890563 -0.49331948 0.47181457 -2.3929374 1.1040046
11293 2.7065551 -2.1510634 -0.5531504 -1.9388298 1.9073664 0.6486596 1.1088914 0.11330278 -2.4004905 1.142972 -1.411325 -0.5727549 -1.3258709 2.0822413 1.2151968 1.0179288
13719 1.0681341 -4.6813755 -0.78677547 -0.21523225 0.5490972 -0.45520923 -0.43161014 0.73826915 2.5495 0.6614715 0.43198797 -0.44261938 -1.2584835 0.84276575 0.28864995 -0.123642564
8165 0.69412506 -2.9489045 1.4421962 3.1774576 0.20039454 -2.4134688 -2.3957868 -0.75207996 1.6667306 0.75990164 -3.8324504 -4.570659 -1.1124718 0.8341329 0.058688443 -1.7809778
2311 2.4989662 -2.9631126 2.2716312 -0.9804432 -2.030948 -1.6939323 0.36802962 1.7859132 2.0003195 1.5369658 1.7944242 0.75515246 -1.4977958 1.1987008 -0.99655455 1.7767012
487 2.4217124 -1.9504133 -3.810597 1.411292 -1.2790922 -3.795196 -1.2456651 0.55730885 1.0766097 1.2760522 0.4056261 -1.4447247 -3.8674905 0.033599455 -1.1034267 0.10392178
2812 1.7556816 -0.33065933 0.36868188 0.13477115 -0.57671076 -1.5807066 -0.89362836 0.8271214 -0.49658665 -0.13018893 -0.9342046 -0.08385707 0.8271007 1.3931934 -1.1089045 -0.28425345
18455 3.852359 1.0308913 -0.01743736 0.7706372 0.73550856 -1.230863 0.7920553 -1.2346455 -0.4023206 -3.8936355 -1.4842352 -0.6097957 -3.2625546 1.786235 0.4727876 -1.8846424
1958 2.4035797 -1.4259851 0.7082625 -1.4158667 -0.23904058 -1.5696965 1.7443186 -0.122331895 2.2481701 -2.2521937 -1.877501 -0.117598414 0.29668117 2.7607841 2.4441261 0.86514086
1809 0.8091826 -0.38279688 0.55658656 1.6287587 -1.4177673 -2.0066166 2.0531535 -0.49871528 2.0954902 -0.039370004 -1.5388964 0.46554753 -2.5870886 4.379383 -1.091037 0.1528815
12875 4.7065744 1.4250767 0.061583474 1.2928214 1.4103253 -1.417359 0.54405683 -1.6004562 -0.15609379 -4.6542916 -1.3758281 -1.060457 -3.8694077 2.1927443 0.27984262 -2.313127
14427 0.05639259 -1.1483551 0.47208437 1.686586 -1.0923223 -1.91118 2.9429302 0.6103549 1.9368182 0.1947825 -1.4070169 0.4744579 -2.7981439 4.932191 -1.7308285 0.16654614
18417 0.65816265 -1.7273861 1.3544247 -1.7728798 -2.5656612 -4.0251436 0.5731598 -2.0982418 -2.5926325 1.4429042 -5.266389 -3.9747336 1.5500041 0.03692938 -3.9950764 0.5436027
8640 2.2175868 -1.9795121 1.6917051 0.055225536 2.235189 -0.3021604 2.5414667 -3.1367035 1.2205422 0.5983536 -0.5404946 0.1673647 0.99425596 1.4638939 -1.4209771 -0.8119024
17981 0.035854407 -2.750207 -0.9546587 -0.57792413 -1.1655521 -0.24000898 0.7292707 -1.4164418 0.79192984 -1.6849388 -0.02740642 -0.8172017 0.79596394 1.2658523 -0.54896194 0.700048
11889 1.8270308 -1.5972207 0.14452285 -3.3457036 2.1294432 -0.51875013 2.0796518 0.80539376 -2.920014 -0.12541075 -0.15126961 0.32257187 -0.8560285 0.92231995 0.77062523 -0.2523793
5871 1.5575019 -0.496969 -1.1650469 -2.0812206 1.631302 -0.5501215 2.9068637 -1.8136077 -1.7691548 -0.9054178 1.1302136 -1.4853368 -1.0394531 2.1226804 1.8377014 0.43437555
10458 1.4452207 0.8727296 -0.024242178 -1.1717145 -0.91444945 -1.575614 2.0577989 1.5078577 -1.6423497 -0.16308522 -1.5818447 -3.4801176 -0.34662548 0.9286993 -0.48398384 -0.5154314
17175 0.7860892 -0.32765388 0.015119167 -1.3481538 -1.2572094 -2.4389284 -0.011454621 -1.5217134 -0.7464933 0.85278386 0.24307176 -0.9732399 -0.65196043 1.0127894 1.033333 -0.5483964
11143 0.99061805 -1.7698443 3.6399007 -2.7041874 0.07037222 -4.70819 2.3958278 1.8017565 -2.0107932 -1.7348852 -2.0283048 1.3715425 0.16521838 1.8431088 0.4140032 -0.8443487
785 3.9802384 -2.4591844 0.8962745 -1.6367327 -1.2477616 -4.0565014 0.75027573 -1.7651786 -4.258006 -0.13065042 1.4057705 0.065870814 -1.7807959 -1.3976477 -3.2876346 -0.39517644
19196 2.2537076 -0.24860047 -0.21884505 0.3221655 1.872437 -1.0850862 0.82356286 1.1867849 -0.10668259 0.36782303 1.4989785 -1.9626629 -0.9103739 -0.6476184 -1.346911 0.9281497
29 0.5708106 -1.0858988 0.4035584 -2.57009 1.2052975 -0.7955089 -1.2623774 1.580481 -0.9183094 0.1281851 -0.42202652 -2.4069118 -1.2098792 -0.91683245 -1.7468542 1.2469646
2701 0.85309035 -0.800674 -0.6875148 -2.6401606 -2.315385 -3.4221606 -0.08197862 -2.1142159 -1.7397169 0.9672991 1.2142129 -1.2035658 -2.286672 1.2020833 0.0014974605 0.026020255
5909 2.476643 -2.40744 -3.721065 2.1318696 -1.5723377 -3.6170466 -0.99720985 0.5874391 0.8324641 1.5219754 0.10621092 -1.2988975 -4.577179 0.3328802 -1.1269649 -0.30326244
15524 0.54603136 -0.82264644 0.1999088 -2.373047 -1.0393997 -1.7381778 2.3860645 2.988436 -2.8133755 -0.8065619 -1.1616799 -3.400871 -0.91902757 2.1473339 0.7321185 -1.2970924
3173 3.226674 -1.5222542 0.53830296 -1.5878217 1.9622746 -0.90599847 -3.5957997 0.57394093 1.0953948 -2.1712744 -1.9458671 0.030544724 -2.1247613 -0.14174832 -2.9823992 -1.4992014
11014 1.3821081 -1.4865235 -3.0590756 -2.9724412 3.4077747 -1.3729845 -1.6769149 -0.18523973 -2.137481 -1.565689 -0.593873 -3.3239434 -0.024240598 2.422464 3.1155775 1.219356
6044 0.77788377 -2.8715649 1.3929353 3.3037846 0.014440975 -2.4452515 -2.0597773 -0.46546495 1.6920149 0.99991834 -3.8362167 -4.390992 -0.93707466 1.3426988 -0.05957009 -1.7531283
18375 1.5658355 -0.9277541 0.07801455 -0.38460457 0.58289593 -0.49804732 -1.7216343 0.8349565 1.0814607 -1.5142782 -0.53051513 0.2322161 -1.0985465 -0.273202 -1.6934474 -0.18290837
3188 0.9974824 -1.5028323 -2.6176908 4.2451143 5.4049706 -4.142151 0.12952271 -2.4120054 3.666895 0.20712148 -0.57636446 -0.6622137 -2.461112 1.3742924 0.821362 1.4591774
2582 3.831556 -1.3642563 -3.7033262 -1.4377111 -0.9077017 -1.0529084 -1.9017919 1.402998 1.1991434 1.4965369 -2.5673826 -2.5232975 -1.083401 0.60945374 -2.2532675 1.0359346
4780 -0.26673818 -0.63166577 -0.11195046 -0.6988047 -1.2911752 -1.0051627 -0.19318424 -0.31797466 1.4751952 -0.5403326 0.5250095 -0.6492568 -1.1995075 0.72911316 -0.72920185 -0.30905354
15738 1.226147 -5.1756635 0.7207768 -0.017728169 2.5552638 -0.6741025 0.7612502 1.2113732 1.644681 -1.1198224 1.4561394 -0.7041447 -2.4710834 -1.5187279 0.6067598 -0.1270311
8584 -0.81995475 -2.798881 -0.2625233 0.2644459 0.33183372 -2.6425796 -0.3591868 -0.35328412 0.11084534 2.5183005 -1.4071529 0.12141865 -1.4708962 0.07747808 -1.7129954 -0.20560865
1135 1.3416381 -1.3897207 -0.540283 -1.3357662 -2.942076 -2.1824934 -0.33728433 0.4145068 -0.50705403 -1.4758683 -1.6586097 -0.18955606 -3.0625005 2.5772717 0.56666815 2.8808868
16345 -0.35685563 -3.4070292 -0.21149436 0.9654182 -2.057958 -2.438277 -1.4097357 -2.2351341 -0.013624069 0.21361984 -2.3901367 -1.7909011 -0.41946912 -0.36123532 -1.420773 0.51813287
1830 -0.43836537 -1.8220454 1.0837365 0.09860652 0.6301455 -1.6430858 -0.7191233 -0.34527445 -0.47893685 -0.7621124 -1.9395003 -0.5938762 -1.261116 0.806963 2.1037948 2.1364596
18259 -0.22640032 -2.076735 1.0809349 0.011699192 0.26728672 -1.6071229 -1.1321216 -0.5890648 -0.557478 -0.8733767 -1.771248 -0.98032206 -1.2845094 1.0729606 2.443818 2.110934
4717 2.8240783 -0.81291425 4.519641 -2.0576913 2.355906 -2.5115945 -1.5357243 -0.4217247 -1.1780974 1.0925286 -2.383757 0.03558891 -0.48952848 0.047981396 -0.24545196 -0.08163216
6176 1.0065856 -1.0574809 3.654205 -2.4307353 -0.37027976 -4.8038716 2.7724671 1.308842 -1.900336 -1.6512172 -2.3661413 1.3686936 -0.4422036 2.4033017 0.5076536 -0.7319746
15150 3.6246562 -4.2879386 -1.2255707 -3.1443973 5.238294 -3.0551229 -1.7371757 -2.6287196 -1.7518693 -4.5323997 0.13513231 0.38254547 1.3883574 0.76596475 1.7537 -0.03216004
2625 0.7119292 -1.8188976 -0.33180675 -0.34196258 1.5432209 -0.8279446 -0.27776864 -1.945085 2.1500132 1.0326254 0.2747074 0.041678626 -1.0756884 0.789735 1.3638595 -1.2811517
18395 0.3883163 0.027828703 0.020058794 -0.698151 0.52757186 -1.5781847 1.2194824 -0.29143333 1.6160275 0.7466825 -0.35764807 -0.63719404 -0.1417997 -0.012217993 0.23450202 -0.06954286
18369 0.8408454 -0.62868786 0.048221644 -0.75960016 1.7708943 -0.41153833 -1.007222 0.588447 -0.62567395 -0.046107497 -1.0638604 -1.0426967 -1.2293835 -0.26677194 -0.5739586 1.192523
7652 -0.046830446 -1.5192655 1.4700744 -3.1204102 -0.22090372 -1.1029677 0.9230278 -0.86720014 -0.05855328 -1.9166368 -1.0644075 -1.3983513 -1.3389481 0.80715925 0.34553924 4.211515
14987 3.6189382 -4.320663 -1.2676245 -3.5389328 5.7941747 -3.2605793 -1.7289968 -2.502297 -1.7375338 -4.1166196 0.007359022 0.54284364 1.7783641 0.9666208 1.9761825 -0.56971574
6673 1.9782506 -0.96713966 -1.6670659 -2.2151093 1.3463427 -1.7019763 1.4674393 -1.9498947 -2.2054732 0.4706398 0.29557642 0.91524184 -0.9767004 2.105519 0.08497124 3.0178473
14671 2.2284336 -2.0657868 -1.1627643 -0.954163 0.14154465 -0.40556833 0.5988053 -2.8446846 -0.8433509 1.1614504 0.43202746 -0.5483794 -0.5321614 0.45256162 -0.639573 2.9164784
3304 0.7216213 -0.31993195 1.0479332 -1.5686122 0.97808015 -0.58697903 -1.2248111 -1.5223593 0.7531056 1.1458039 0.058217086 0.48145112 -0.829433 1.2154979 -1.1157383 0.7406347
6299 3.6229093 -2.3227532 2.108335 -2.6743357 -1.9631257 -2.662053 0.4411916 1.2895586 2.7502465 1.877262 3.7110298 0.76014036 -1.0196612 1.1986217 -1.0808071 2.325792
31 2.9962337 -1.9418269 -0.40774238 -0.29870072 0.14956297 1.5775194 0.35329688 -2.7946908 1.8013672 -1.8983852 0.23229276 -1.2854763 -0.97931814 3.1777136 0.269389 0.99348915
16992 -1.0412906 -5.4327784 0.5176425 -2.0911562 0.88196963 -0.30761436 2.411824 -1.6674773 0.11558684 -3.6728063 0.9137164 -0.22180828 0.6192415 2.7026725 -0.6988081 -0.5274624
13651 0.23660323 -2.7508595 0.93098056 1.6615007 0.40697604 -1.1618446 1.9896454 -0.030291345 -0.57448167 1.2547901 -0.6396688 -0.23727438 -0.51664907 1.2694235 -2.2695835 -0.085627146
19022 -0.28090206 -1.8300176 0.43707636 -1.2600552 1.6564018 -1.7758403 1.5282475 -0.54234135 -1.077111 0.12584153 0.42365855 -0.53432006 -0.36651054 0.6417158 -0.742249 -3.515819
9153 -0.2786304 -1.7927917 0.8997258 0.64393 2.1562989 -4.3811584 4.617578 -2.044139 -0.25455424 -1.6062397 0.21361212 -2.1816163 -2.9668317 -0.26897284 -1.8002784 4.6483703
485 2.627876 -2.3427305 -0.7510641 -1.6814901 3.031914 -1.8615434 0.20814413 -4.9276705 -0.91486156 -2.2279723 0.2595299 -1.2434219 1.2021774 -0.15107386 -1.5017345 2.8634484
9569 0.4425214 -0.72063446 0.021025378 1.2669935 4.3450027 -4.375116 -0.5972968 -2.2683482 -3.2502835 -1.4336338 0.5993789 2.669382 -4.1167855 0.26754224 -2.703498 -0.64661676
17140 1.9036546 -0.10777552 2.919444 0.23343073 0.9475622 0.4100183 -0.21458872 -1.0175866 0.1044939 0.12055798 0.49632385 -0.6030708 -1.4662157 2.6669037 -0.23426749 -0.40094194
6081 3.6053498 -4.4353127 -1.8624207 3.5521421 -1.3188361 -3.087753 -1.1302425 -1.1280178 -1.8139122 4.4270687 1.6439673 -4.2772374 -7.0114174 0.39837626 -1.5236279 -0.95891476
13202 -0.38199943 -3.5065773 -0.956227 1.0224767 -2.618942 -2.6802232 -1.8371046 -2.5753329 0.65667224 -0.077016115 -1.8980272 -1.9544926 -0.518378 0.15949371 -1.4933678 0.6412944
2058 3.192467 -1.1611426 4.081443 -0.53117 -2.4291232 -2.4337006 -0.4892542 -2.1821353 -0.15777503 -1.6269652 0.018206337 -2.4392664 0.64160097 0.46501535 -1.0048958 0.21362254
17557 1.9213971 -0.09003921 2.6741636 0.38215813 0.91352624 0.5157726 -0.16371796 -1.1926144 0.10784627 0.18883984 0.26908106 -0.49932244 -1.4615936 2.45456 -0.25209936 -0.44272116
16587 -0.76913375 -1.6716003 1.159677 0.5903716 1.5973251 -0.19613904 0.12140435 0.8723805 0.1626366 -0.67405033 1.1508766 -0.8845089 -1.3251873 2.0975084 -1.0072646 0.2099654
10963 3.2790377 -1.769518 0.7960432 -1.357784 -0.6174372 -3.8783977 0.45376927 -1.5856035 -3.4291239 -0.104494706 1.3362265 -0.11173337 -1.0518631 -1.4517807 -2.3674772 -0.2680928
18359 1.9566159 -1.5361515 -1.3680975 -0.60594463 2.7582388 -0.39959803 -1.0173291 -1.9916921 -1.7646006 0.7386735 0.12412343 -2.4142048 -2.864995 2.3944364 -1.1735507 -5.9418125
5554 2.9799895 -0.7354014 3.194923 -0.5590355 3.0107913 -1.0608133 -0.69822836 -1.4537281 -0.95398355 0.7323437 -2.251864 -1.222629 -1.8549323 -0.3916114 -1.7227905 -0.5059372
17865 -0.75851256 -2.0875468 3.977153 -3.3118327 -0.41427788 -0.60931826 0.74893343 -1.4593465 -1.5438006 0.3264657 -3.1888254 -3.6091375 -1.7969509 0.68053836 -2.2504642 -0.9731423
14990 3.6619265 -1.3762115 4.5821466 -2.1783466 3.150562 -3.141503 -1.8421767 0.13326505 -1.3346398 1.1877508 -2.112818 0.7329338 0.021417499 -0.12690984 0.16384922 0.0012633668
10672 1.5617374 -0.6773356 0.7941246 -1.0049043 0.54955995 -0.648504 0.8711941 -0.11609394 1.0149193 -1.9322088 -2.0864954 -0.8148572 -0.0025717528 1.3748939 1.9752876 1.052196
5 0.47938904 -5.880589 0.37479317 -3.006657 -1.1955581 2.533589 -3.2027283 -1.76429 -0.79930025 -0.746448 -4.9203787 -1.8766125 -4.00447 2.5842242 -0.23841798 0.55357933
9606 0.76778793 -0.3819457 -0.09713839 -0.8804555 1.6211644 -0.37834847 -0.87091845 0.5064641 -0.7091257 -0.11459565 -0.9836603 -0.90365887 -1.2484177 -0.122214764 -0.38867623 1.180853
4099 0.21702573 -3.2145522 -0.2243417 -0.1783418 1.0002401 0.47268665 0.39621755 0.3466182 1.1478778 0.10914095 0.27243465 -1.383852 -0.9070896 0.25896332 0.23346293 -0.43722937
8845 0.75230074 -1.6924676 1.1594262 -1.6002517 -2.8345726 -3.9872777 0.7948902 -2.0900815 -2.52045 1.4559695 -5.854793 -4.007743 1.4968401 0.30471316 -3.995103 0.67073435
7229 2.2364943 1.2462769 -0.117890656 -0.51729876 1.5634829 -0.8318694 -0.030708376 -2.5812001 0.5860572 -5.355608 -1.4123237 -2.283825 -2.5957701 0.8159183 -1.6682245 -1.280348
14860 1.2711238 -0.66265655 -0.7027934 -1.2845435 0.8251681 -1.2419784 0.7065332 -1.370524 -1.7099497 0.22100806 0.5838081 0.54895574 -0.13311256 1.2627391 -0.016965747 1.4806092
14195 1.5261167 -0.714176 -1.213668 -2.310716 1.3816682 -0.44352138 2.8055842 -1.255696 -1.552576 -1.66961 0.32444528 -1.0529704 -1.1401756 1.3284637 1.5239673 0.5420213
4545 0.5713333 1.1647626 -1.2388026 -1.2885523 1.4542786 -1.4745001 1.6371775 -2.4381077 -2.9485152 -3.2120526 -2.4144964 -1.6508663 -2.2387676 2.7813962 -0.8464857 -0.7488755
918 3.819075 -4.365599 -1.619966 3.631927 -1.4677246 -2.989165 -0.8993234 -1.4327548 -1.6897749 4.4604516 1.5817888 -4.477547 -6.9980125 0.09584393 -1.5378009 -0.97574407
8245 5.1542087 -2.042756 -3.7414095 -2.1671474 4.775978 -1.6852207 -1.4958166 -2.3022428 -3.578513 2.9405773 0.32988828 -5.8270974 -4.0878987 3.9685838 -4.124798 -10.698549
14101 -0.84956264 -1.5830286 0.40959495 -0.9834543 3.3283052 -2.4425285 2.440022 -1.27253 -1.2550852 -0.3947325 0.5638312 -1.2571464 -1.775656 -0.1240426 -0.89229435 -3.311681
688 0.45352256 -0.8982142 1.2138494 0.7545968 0.3264184 -1.3675683 -1.3015751 -0.28388503 0.52994186 -0.29803506 -0.115916684 -1.4255433 -3.1495414 -0.027076546 -0.76860756 1.5012178
544 -2.792643 -3.5423694 -0.4934568 0.2843639 3.8765614 -2.3628654 0.571215 1.9365917 -0.8696743 -2.4521759 -0.03985249 0.5772715 -3.090022 2.6032977 -1.9986261 -3.0046983
9907 0.6004301 -1.3241835 -0.097975545 -3.0688329 1.5643433 -1.1647887 -1.7362549 2.0020869 -1.2646466 0.025657138 -0.09236636 -2.8000436 -0.9718122 -0.83627796 -2.033417 1.1602329
9882 0.23961084 -0.9292577 2.189963 0.66148585 0.5206775 -1.4966891 -1.0046039 -0.17000669 0.1214309 -0.48732027 0.17111328 -1.6884587 -3.1277263 -0.04204356 -0.56389606 1.5262272
18983 0.01463639 -1.4923897 1.2552694 0.5037249 2.0569606 -4.0391583 4.113519 -2.0682447 -0.4160925 -2.0452716 0.11158226 -2.0584164 -3.0459049 -0.24732524 -1.827735 4.850231
18289 -0.6180679 -2.263639 4.3388076 -3.318229 -0.20777366 -0.58659744 1.0151944 -1.4295559 -1.9801395 0.48126635 -3.3350737 -3.7709734 -1.794587 0.74781406 -2.389387 -1.1504295
12748 -0.22186711 -2.6532922 -0.14065248 0.10808494 0.12528136 -2.517564 -0.20730017 -0.22260109 0.18692705 2.3097923 -1.2826792 0.3147342 -0.6575867 0.04266705 -1.3403486 -0.42287543
985 0.7724709 -2.475202 -0.67880654 -1.6889819 -1.7044799 0.106065 -1.3921407 1.5858904 -1.4968542 0.34341687 1.1396476 -2.48784 -1.1883031 2.4802196 -1.2050357 0.08980029
6420 1.4604503 -0.70208013 -1.6447995 -0.2148805 -1.187928 -1.6500524 -1.0361297 0.2829005 0.4229418 0.4243995 0.12101932 -0.6712313 -1.3319898 -0.036600076 -1.4286014 0.59402037
3806 2.5753853 -3.487662 1.8556298 -0.59265614 -2.1224499 -1.8912076 0.55211353 1.9536839 2.0470705 1.7864342 1.3345951 0.80300415 -1.3507769 1.3256416 -0.93065333 1.7886952
6681 0.03342062 -1.566897 1.4780836 -4.4868436 0.0897914 -1.2088957 0.6563252 -0.5756676 -0.31129122 -2.6380935 -0.93191314 -2.3600078 -1.3011084 1.0361885 0.24982612 4.925091
11628 0.41657156 -1.275966 0.64347166 -2.8031716 -3.6818945 -2.217222 0.38909307 1.3177626 -1.0537875 -1.7883196 -1.1195827 -0.71222 -4.55998 2.5504322 -0.37895176 2.5014577
8008 0.5857568 -5.9391413 0.555268 -3.102328 -1.1847087 2.4402428 -3.3530562 -1.9314873 -1.1074494 -1.0829493 -5.1792192 -1.7313955 -4.04548 2.3138623 -0.48130438 0.5351074
2461 -0.19109681 -0.846695 -0.13840154 -0.84383833 -1.4530232 -1.040723 0.097587466 -0.17989786 1.9259932 -0.53361356 0.67036766 -0.8745504 -1.127524 0.937786 -0.57546926 -0.32885215
5332 -0.094910525 -1.8591638 -2.1527607 -2.1832418 2.3976676 -2.4771895 1.374802 0.5384695 1.0669421 1.3693879 0.707904 -2.8396027 -0.589287 1.6242926 -0.124517046 -3.7146297
5748 0.49110526 -2.4264765 -2.631242 -2.6460013 3.4476514 -2.5936365 0.8372544 0.7094135 1.6239936 1.7051209 0.17898582 -2.408599 -0.1410044 1.3330607 -1.5077797 -4.272393
9263 0.12108999 -2.7092059 -0.012742969 0.28380835 0.6245382 0.20377222 0.2532521 0.35443702 0.8935653 0.41567695 -0.44835782 -0.71528804 -0.41982514 0.8623658 -0.36372894 -0.72044426
10112 3.601824 -1.864497 0.098438665 -0.14200616 0.17665103 1.810132 0.40471607 -3.5075746 1.7549411 -2.1380162 0.26704204 -1.6845893 -1.2853976 3.473377 0.3807254 1.1304841
7802 1.8578078 -2.1518826 1.545653 -1.3363041 -1.4609706 -2.1223059 0.63154507 1.5540072 1.9203721 1.5216105 2.3588064 0.42288232 -0.7838291 0.5664209 -0.9634642 1.313693
16138 2.1509793 -0.8721095 0.10894789 -0.20053515 0.12487103 -0.51728356 0.7917648 -0.6857901 1.6415666 0.09668212 -0.9630908 -1.0399016 0.5992832 1.6883872 0.48271695 0.8358166
3832 0.93663514 -2.0588617 -4.08943 -0.75590515 3.9608974 -0.0057214173 2.937704 -2.6270947 1.2817816 -2.0152006 -1.6225888 -2.116557 -6.064449 -0.175869 -0.39170626 0.30064633
17300 3.5462468 -2.4944358 1.1435806 -2.3622155 -0.8620271 -3.2251394 1.0399793 0.795897 3.3215027 2.0393991 4.059542 0.42217705 -0.6104772 0.860234 -0.46562773 3.0859857
18472 -0.017565617 -1.2703712 -1.1474426 -1.3100508 1.1154443 -0.68653524 -0.97687465 -1.7511891 1.1403768 -0.042092938 0.10434632 2.3436594 -1.7328298 3.2833524 -2.3761864 1.0349963
10194 0.7776847 -6.0507402 1.6373235 -0.27661717 -2.4643931 -1.8926514 1.5923239 0.11341681 -0.7394974 1.2269598 -1.9127535 1.7358459 -5.490824 2.276969 -1.1937156 1.059231
65 1.7675955 -0.87236583 0.105503984 -0.22002453 -0.0010292327 -0.09828201 0.5838582 -0.78950584 1.3518884 -0.35571018 -0.27925 -0.8273817 0.39801946 1.3244787 0.35648632 0.7073296
17488 0.81799483 -1.6143956 2.3728473 -2.1570756 1.8379055 -2.3310232 1.6231529 4.2091694 -1.267677 1.6716673 -2.8937554 0.3316265 -3.9006052 2.881434 -0.69796616 2.153021
19629 0.13076079 -1.7521008 0.21798706 -1.168659 1.5702952 -1.2096696 -0.012724134 -2.3019495 1.931799 0.59193987 0.5977905 -0.34868616 -0.75993234 0.5410005 1.2721895 -1.453385
17031 2.2877998 -2.9571266 3.28597 -1.4089756 -1.8144405 0.77192634 -2.9887965 -1.0998104 -0.020735143 1.3837619 -2.468124 -1.4604158 -3.153039 1.8523358 0.7383271 -0.08650251
1177 -0.015054988 -3.598194 0.07398624 0.2450408 0.57487166 0.08648959 0.33244672 0.35893205 1.4997678 0.15881783 -0.09614747 -1.0045956 -0.333826 1.2340487 -0.5679483 -0.37346706
18524 0.93668944 -1.5339675 2.3836226 -2.0852993 2.0116153 -2.6434789 1.5437897 4.158401 -1.5134197 1.9305165 -2.994526 0.487525 -3.9926467 2.9673152 -0.81563824 2.3041782
8333 1.0705649 -0.84900314 -0.75674665 -0.58062315 1.6866628 -0.10253944 0.72190386 1.1890464 -1.098399 0.035638265 -1.7489079 -0.04071422 -1.44766 1.1600717 -0.20794071 0.5246456
4046 1.695923 0.15746777 2.6122923 -0.29029012 1.0429934 0.24746789 -0.36484575 -0.7090442 -0.20525296 0.25494176 0.23820876 -0.38076118 -1.6702697 2.3680122 0.06863297 -0.6741385
13089 2.5064952 0.1420333 2.235688 -0.069292836 1.1704135 -0.42765832 0.08794508 -1.7481695 -0.592006 0.32759526 -2.0271275 -1.9231094 -1.6346815 -0.5112471 -1.7999091 0.09888204
3532 0.8038153 -0.3693356 0.24892779 -0.79271275 1.3347433 -0.25940326 -0.9815674 0.32408744 -0.8471971 -0.30762503 -0.5168884 -0.9595043 -0.9487143 -0.11653456 -0.3843024 1.016376
9653 2.990212 -1.9301673 -3.8850405 0.47630543 2.5178795 -0.5283901 4.961534 1.8536621 0.7970311 -1.5046004 -1.4441726 -2.5638218 -0.22851855 2.5394402 -3.2824569 0.036982052
18138 -0.50800717 -3.3200507 -4.0969825 -4.076871 2.13544 -6.1726007 3.1687543 -0.0130805075 -2.51391 1.5094917 2.3895493 0.8218845 0.7939827 6.0858903 -5.9270844 -0.4294259
18403 0.9788869 0.17990682 1.4066117 -2.8175907 0.16977106 -3.0734663 -2.2211785 -0.2600559 1.0563993 0.18381613 0.045061912 1.226355 -0.12311341 1.29495 -2.194776 -0.13276039
14829 1.2062005 -0.56841075 -0.62410873 -0.88773775 1.3888432 -0.21354719 1.1735287 0.51307595 -1.3572652 -0.13725302 -0.8338752 0.44546762 -1.0930496 1.141219 0.31085628 0.10115505
6765 0.9757816 -0.3938288 0.1017113 0.75638753 -0.4880977 -1.0848202 -1.0799239 -0.050932594 0.7164387 -0.5945417 -0.0076421136 -0.99854946 -1.8842226 0.10023143 -0.061280496 0.06326409
10924 0.94920963 -1.2954462 -2.8274295 4.259193 4.864441 -4.438581 -0.6623241 -2.7179708 3.108278 -0.14951941 -0.4532756 -0.6294626 -3.1301668 1.6699239 1.4906211 0.9345488
19328 -2.9631135 -3.9387949 -0.16123281 0.16042776 4.1849346 -2.3209107 0.5960222 1.9511718 -1.2566411 -2.764487 0.03308256 0.3193518 -3.3462164 2.645062 -2.148638 -3.2174063
16929 3.429683 -1.8534675 -3.881906 0.4319076 2.420156 -0.40346366 4.964004 1.9710968 1.0357497 -1.2607661 -1.7952352 -2.6847305 -0.21020913 2.5705059 -3.3596673 0.0070420196
14656 1.9642676 -0.9016492 0.11193557 -0.43497407 0.07547921 0.0062304046 0.71230656 -0.79122865 1.3874378 0.057964154 -0.74371433 -0.9682966 0.4203631 1.313532 0.27568743 0.7129395
13759 1.2190531 -0.56806 0.2565919 1.1544586 -0.50489485 -1.4030262 -1.0245692 -0.2509789 1.1511517 -0.7999894 -0.4307656 -1.0468798 -2.2728124 0.375275 0.49084747 -0.013125753
15331 0.7395321 -5.8765454 1.3949404 -0.40446475 -2.2885714 -1.6752577 1.5898216 0.024790894 -0.77743053 1.1455419 -2.0502481 1.7542752 -5.3464446 2.3184633 -1.1986433 1.0366744
16276 0.4093799 -3.7583828 1.7870302 1.9746271 0.6356926 -1.3116436 2.2432287 -0.25962543 -0.7517916 1.6822726 -0.85494536 -0.49044013 -0.97816116 1.3198906 -3.0240297 -0.23667371
6190 3.0956702 -1.510782 -0.58190084 0.64152473 -0.15825322 -1.4069569 -2.0799859 1.2695262 0.97848105 -2.948105 -1.8027673 1.0076454 -2.1584969 0.47742236 -1.1917902 -0.22686838
16848 1.1816276 -1.2197925 -0.6151332 -0.9875886 -2.180062 -1.8066084 -0.31232795 0.2310895 -0.4055473 -1.4064187 -1.2152436 0.06256329 -1.5728017 1.83335 0.5716613 2.175311
2025 1.1784483 -2.2515783 -3.9917424 -1.109616 3.982829 0.16939259 3.003385 -2.7579126 1.3973513 -2.0903049 -1.5647423 -2.619466 -6.125394 -0.37163138 -0.64039314 0.6486893
7531 2.2956035 -1.2774045 0.50055087 -0.4756966 0.29075217 -0.16859178 0.58574754 -0.13259175 1.5573364 -0.24851012 -1.1632954 -2.1608984 0.4790926 1.697467 0.9547155 1.2321087
16895 0.84316355 -2.54082 -0.47708178 -2.315695 -4.2472153 -2.9072938 -0.6683261 0.2250305 -0.76063895 -1.5574509 -1.0793653 -0.7770508 -3.9613364 2.9189677 0.64539146 3.2787027
10857 -0.90416646 -1.4321135 0.87751424 -0.7518452 -0.35614303 -3.7809148 1.6247239 0.59830225 0.9364349 0.26502937 -5.2414794 -0.6197471 -4.0293226 1.521066 -0.19891979 3.0573156
9933 2.0258849 -2.210453 -0.11068717 -1.1089549 -0.022698468 -1.5890628 1.1583507 -0.3726657 2.9593048 -1.5938269 -0.47582388 -1.4481258 1.16365 2.265866 1.7705061 1.8169496
6600 2.3861403 -1.4976417 2.1800282 -1.5134329 1.4815383 -1.2136496 1.7437221 0.6567134 0.7322785 -3.6265314 -2.493753 -0.91616255 0.1331218 1.2668707 2.7338908 1.6067595
17634 -0.855551 -1.270933 0.8275705 -0.91767997 -0.31235126 -3.8352582 1.5238024 0.48660347 0.98310685 0.3298402 -5.212649 -0.66186225 -4.26294 1.4844626 -0.19532415 3.2391741
1226 0.79683906 -0.7317092 -0.8228158 -0.6866036 0.74894243 -0.10678621 0.84856045 0.59812164 -1.0366751 0.24979125 -0.94684774 -0.20356606 -0.9707222 1.0928952 0.4939046 0.17341459
18954 2.4474587 -1.2640007 -0.7829052 -2.053687 1.6614344 -2.101288 0.59602684 -1.8623166 -2.3007174 0.5736005 0.79833376 0.8976667 -0.3285953 2.6634858 0.19931008 3.4440248
17492 0.7564397 -0.20664759 -0.31120524 -2.5092025 -1.1122513 -2.3350058 2.6255236 2.6370463 -2.9602675 -0.69792145 -1.4441755 -3.320004 -1.4512639 2.3816752 0.817808 -1.3762914
70 -0.60741174 0.2523954 -0.5587514 -0.3934112 1.5756518 -1.034363 0.3649621 -1.4089905 0.36618236 0.2884234 -0.08772027 0.89241326 -1.224271 2.3059177 -2.1383486 1.8643104
18468 0.28598717 1.1518323 -0.720084 -0.9601078 0.8040019 -3.22358 2.4757013 -1.2794533 2.5651321 1.2802002 -0.696766 -1.3971764 -0.85916096 -0.24262245 -0.7228928 -0.12616883
17621 1.2743776 1.8636161 -1.0107646 -1.7861357 -1.393124 -2.5366604 1.8445923 1.3697453 -1.045545 -0.34253657 -2.3747876 -3.550975 -1.082915 2.3419576 -0.20255776 -0.908519
16498 1.9712446 0.67523813 0.4020376 -0.50832725 -1.3196071 -1.7980474 1.550991 1.7160645 -1.5135975 -0.005058983 -1.2335176 -4.1129684 0.059493493 1.4890708 -0.21359779 -0.53895897
16751 0.68152386 -1.2610496 0.8075173 -3.2136395 -3.7166865 -2.052101 0.32159013 1.5447118 -1.1603035 -2.2413528 -0.52443886 -0.78334236 -4.826436 2.4555862 -0.4646494 2.7730205
17125 0.26293498 0.22262749 -0.5578365 -1.5039558 -0.4170961 -2.1545951 0.7419057 0.5350626 2.4719248 -1.4899936 1.87011 -1.8876125 -2.8794837 0.37732348 -0.50024396 -0.9315497
12393 0.7266758 -1.3121916 0.7268103 0.20325814 1.4796389 -2.2956562 2.0302196 -2.9025009 1.8467652 -0.058683578 -1.2497314 -0.815182 1.5688922 0.20079266 0.1470614 -0.7272412
5138 1.6153148 -0.825865 -1.3496305 -0.4797333 -1.315696 -1.5267761 -1.2365364 0.24224979 0.7449386 0.74178153 -0.059478443 -1.0493373 -1.2853166 -0.19280352 -1.5507114 0.37774926
15604 1.1545702 0.45575598 1.2322505 -2.247886 -1.086098 -1.9358463 1.8168957 1.3272994 3.209853 -1.2261528 1.8420076 -1.3172296 -2.2676384 1.728231 -0.64910185 -0.7978782
3467 1.4630525 -0.7156942 -0.35811397 1.3622591 -0.39366937 -1.1843088 -1.4964548 -0.18128921 1.091335 -0.9297792 -0.4043226 -1.2056867 -2.589944 0.6688621 0.19929118 0.05925657
10011 0.26585412 -0.8173373 -0.89471173 -1.9185164 -0.19051892 -0.8010476 -0.27941704 1.5618193 -0.3899595 -0.71144193 -1.4441377 -1.2150863 -0.38818467 0.26853892 -0.4666636 0.07481492
17029 0.36556756 0.7348971 0.74681336 -2.9756258 -0.7353253 -2.5359366 1.7339077 1.2908921 2.8033814 -0.9679156 3.2414727 -1.7807794 -3.018795 2.068331 -0.31156498 -0.44610494
11813 -0.54785573 -3.756824 -3.8444026 -3.33493 2.0407016 -5.159107 3.580405 0.29543585 -2.2035756 1.2990131 1.5968679 1.4793445 0.4901521 5.633311 -5.3251133 -0.3430479
279 2.2135088 -1.2672993 1.013067 -1.4066216 -0.7821147 -3.1210043 0.81005025 -1.2070429 -2.26232 -0.43088564 1.0725642 -0.24378853 -1.0065506 -1.4437412 -2.2142615 -0.2327462
10379 1.1914542 1.0089506 0.36790913 -0.36628598 -0.8197346 -2.2329872 1.5203938 1.5741688 -1.1508524 0.39879054 -2.1703892 -4.3885655 0.18522148 2.6908984 -0.030252678 -1.0957593
16537 0.85184366 0.5150863 -0.47392526 -0.4250383 0.64356023 -0.8294704 -0.09877715 -1.5953392 -0.24784231 -3.210693 -1.8063737 -1.5646502 -1.2774287 0.6212945 -1.4542022 -1.4407644
3282 0.1921822 0.54148185 0.040440075 -2.6194804 0.24028459 -1.9278629 -0.8072167 -0.7593677 1.765511 -0.42411625 0.115138896 -0.353293 0.406206 0.87128806 -1.5837032 1.0211896
9143 2.0186377 -0.55619526 -0.6856567 1.5041126 -0.586782 -2.717862 -2.0432506 -0.04320847 1.6084839 -0.91244984 -0.43834826 -1.3859743 -2.839505 0.692819 0.7664947 -0.21641377
15300 0.75910157 -0.27518412 0.41227806 -0.725378 1.0996945 -0.17307533 -0.7370442 0.27687475 -0.66788185 -0.111133605 -0.55018383 -0.5846315 -0.8579193 -0.07827074 -0.29801467 0.91253483
16308 2.345792 -0.7333792 -0.65515167 0.4910086 1.1112456 -1.6253281 0.98283106 1.1194172 0.07287183 0.8340225 1.1898631 -1.5634375 -0.81498295 -1.1410074 -1.3194777 0.64160246
4124 0.027111806 0.87721413 -1.8348143 -0.77117234 0.42560902 -1.8038778 0.87185156 -2.7967427 -3.220825 -3.01281 -2.9128919 -2.5301516 -2.6409364 2.853593 -1.4229287 -0.5386837
5961 2.0678139 0.5316093 -0.29810363 0.1961483 0.70032 -0.65300995 0.5379755 -0.305048 -0.62455994 -2.4487739 -1.0172671 -0.39003584 -2.042682 0.9720753 0.07157801 -1.578071
13358 0.19687043 -2.9992619 -0.27554077 0.32464522 -2.9378557 -2.2085264 -1.4811307 -3.283852 -0.061520994 0.6128742 -3.0388112 -1.5683771 -0.7307709 -0.3685651 -2.1681437 -0.1299241
6999 2.2406182 -3.6662796 -1.4039922 1.5545591 1.3255391 -1.689372 0.5173487 -1.190123 -1.7781286 -2.1858013 -1.4672642 -2.446977 1.8895203 3.9433656 1.7842395 -0.72685593
12335 4.4532666 -1.6275684 -0.2477593 -0.6148259 -0.3510885 -1.8955619 2.21171 -0.26807 -1.5200506 -5.9073787 -1.3391216 0.03589323 -0.46511027 0.52216434 1.0965286 0.15551068
5778 1.6811544 -0.6978304 1.1983079 -1.3844801 -1.5474076 -0.875912 3.0331538 -0.80229634 -3.4551702 -0.4087353 0.2437839 -5.360553 -1.1156144 -0.20892873 -2.9180458 -0.27347925
12518 0.6909257 0.486548 -0.5116749 -0.40941432 0.61435634 -1.1272885 -0.43782276 -1.3062432 -0.4258861 -3.178952 -2.105409 -1.4758514 -1.4407309 0.8447563 -1.0901567 -1.6465367
14457 1.4700912 -3.3585854 -1.4144838 -1.8620353 -1.4640722 -4.6170363 -2.2664468 0.9910517 -2.432003 -1.6790963 -0.74490064 -3.1443005 -1.2386694 2.1353874 3.9877806 0.18673024
13255 0.5076005 -0.18790776 0.628262 -1.00307 -1.1923867 -1.8662367 0.2970184 -1.613515 -0.38236263 0.6108333 0.4205443 -0.69890785 -0.48956704 1.2306563 0.6489522 -0.44903174
7194 2.2370105 -2.5621927 -3.7718787 -1.6599152 -0.19791652 -4.325547 -0.005870821 2.5284495 -0.8908801 -0.067282364 -0.5139814 -3.0842454 0.95717746 3.446941 1.7952433 -0.46745047
15591 0.6442694 -0.41272414 -0.6313529 -0.17941903 -0.30516273 -2.578603 0.60736924 -0.76178586 0.38955635 -1.3043023 0.1656698 -0.78356224 0.3429578 0.48286384 0.8688456 1.9583485
18371 1.6598845 -0.782817 0.07651549 -1.075905 0.59377337 -0.36094242 -1.0130993 0.5128601 0.76113236 -1.1853365 -0.81337446 0.4391022 -0.17948063 0.09214542 -1.2302866 -0.8015724
20443 0.010465418 0.9651801 -0.30866072 -2.3265784 0.8876666 -1.9068798 -1.2784637 -0.9764163 1.246372 -0.60300493 -0.13696483 -0.7659417 0.15726179 0.5500864 -1.8327073 1.0071614
2063 0.33860087 -1.5865872 -0.29430857 0.71380603 -1.8143926 -1.4753451 -2.5771668 -1.0618429 1.2008632 0.4556407 -0.9917742 -2.5015519 -0.65107286 1.7040462 -0.5107863 -0.67759794
10809 1.066846 -1.4391601 -1.4804562 -3.14617 -0.24546576 -0.66351515 -0.3531062 2.7763057 -0.4575108 -0.8057504 -2.599034 -2.147934 -0.7856082 0.81639826 -0.49541008 -0.11458282
20492 0.9910439 0.040787075 1.5179753 -3.0590014 0.93377674 -3.0968156 -2.3385851 -0.2541488 1.098882 0.62425315 -0.20536081 1.6830053 -0.37048972 1.866069 -2.533115 0.42473018
10811 4.310255 -2.5583227 3.7481065 -0.13888381 -2.4978578 -1.7240347 -0.56274116 -2.2124093 -1.0997257 -1.0989257 0.52744895 -3.283533 0.8167626 0.48503256 -1.5747553 0.43789172
17782 2.127191 -0.17186198 1.8028549 0.67545646 0.22803903 -5.9262524 0.72707075 -0.9002172 1.3990808 0.72923005 -2.0032701 -1.7376319 0.0782114 -0.7858976 1.424695 2.0013788
18243 1.6288722 -3.3614843 -1.3435643 -1.8718063 -1.5726755 -4.49201 -2.231944 0.8783041 -2.1531756 -1.5147209 -0.7392531 -3.139999 -1.2499131 1.9650137 4.183944 0.029194972
16821 2.2693784 -3.4971726 -1.6945732 1.6385596 1.453162 -1.8848413 0.5172227 -1.3042719 -1.7217503 -2.280161 -1.5180426 -2.6420515 1.8901206 4.093753 1.8864125 -0.9609626
15692 2.0878558 -2.7366142 -3.510897 -2.2113998 -0.43456367 -4.5813518 -0.12140769 3.0299451 -1.042743 0.030287968 -0.3112176 -3.0861855 0.9237194 3.1236274 1.6369872 -0.45610183
11192 0.91697574 -2.6766016 -0.43161187 -2.4869812 -1.8383276 0.34743983 -1.4412452 1.559335 -1.598483 0.461199 1.3782176 -2.6319113 -1.7141626 2.69072 -2.1197042 0.03237777
2193 1.3505183 -4.4401913 -0.68984 -2.8422146 -0.10990071 -0.78190964 0.40284303 -1.4828918 1.323725 -3.441938 1.3000506 -0.14407787 1.1877968 4.5200033 1.6753784 1.8142219
7580 4.318086 -3.740744 -0.6412874 -0.21243463 1.2900304 -6.046822 -5.8412905 -1.064568 -1.7303168 1.2480248 -0.6766964 1.9310702 -0.11436211 0.6943135 -0.8625579 -1.4066497
6131 0.40858284 -0.70853573 -0.6001984 -0.2380519 -0.3151195 -2.3201718 0.6696714 -0.6817993 0.7726756 -1.3812859 0.09947233 -0.75567764 0.44033194 0.39831033 0.8560657 1.6904062
7253 0.49178758 -4.8780775 1.5924779 -1.1905227 2.3228505 -2.4677923 0.0003346089 -1.0995083 -3.2934527 0.8981428 -3.7269208 2.3539243 -1.4365095 1.3067652 1.0811578 2.064545
14521 1.8055044 -1.9042847 -0.23357168 -0.7729895 1.7746267 -0.14303032 0.64368755 -2.8821497 -0.7238395 -0.20721073 0.8442156 -0.16589676 0.11449843 0.11512494 -1.5955696 2.2904372
14037 2.627766 -1.2668283 -1.861519 -0.44876224 -1.5221453 -2.0167089 -1.7137074 0.46331224 0.22329815 0.7652339 -0.39629388 -1.0943961 -1.6983368 -0.28527313 -2.4332805 1.1276451
15881 2.1691086 -2.4475174 4.0473657 -0.40807927 0.8676798 -4.4494505 0.6083881 -1.4731029 -3.749884 -3.114187 0.9595088 -0.27993852 -0.88356364 0.17008476 1.0642122 0.7467888
15105 -1.3389556 -6.0742993 1.127607 -2.4197342 1.1107699 -0.5037259 3.2652462 -2.3084748 -0.022484614 -4.146141 1.0652585 -0.3331542 0.60617846 3.0793035 -1.0686717 -1.1091291
32 2.465353 -0.2430744 1.794434 0.7527541 0.005634378 -6.5916 0.53324944 -1.1234423 1.6761779 0.8609514 -2.1998413 -1.9141206 0.26616958 -0.85410583 1.392036 2.0072944
8534 1.9461997 -2.7166257 4.154658 -0.46289036 0.9786762 -4.425292 0.79209656 -1.3284394 -3.8369358 -2.9897501 0.98451144 -0.050908502 -0.84189934 0.06404557 1.0893438 0.83930355
13731 -0.24141432 -2.9596262 2.0323641 -0.18397842 0.22165556 -1.7272216 -2.0241244 -0.42271107 -1.198334 -1.336014 -1.3162872 -1.4481543 -1.8908255 0.9289945 2.575315 2.2428572
2566 0.45187584 -0.6063045 -0.3391321 -1.4986899 -1.0885394 -1.2220405 1.7456518 2.220087 -1.9325142 -0.55528665 -1.1167151 -2.7064831 -1.0400585 1.5656052 0.40646848 -1.1369885
15478 0.7381922 -4.998195 1.475822 -1.1635786 2.0073383 -2.6123955 -0.0027436346 -1.1621037 -3.549802 0.9672943 -3.951879 2.346973 -1.5951583 1.3550651 1.0472666 2.0307958
9501 2.2526076 -2.5332654 2.8231077 2.6017761 1.5725464 -4.2400727 0.12007944 -1.7056143 -1.7278794 0.7916757 0.27866828 -0.31366092 -1.2452673 5.944853 3.346481 -1.1156217
16283 3.560509 -1.4312565 -0.58133113 0.26133946 1.0045204 -0.35853025 1.6080122 1.7111883 0.37949702 1.9834319 0.46112737 -2.2140148 -1.0829481 0.2758687 -1.745812 0.9324999
18374 0.8626377 0.7863521 0.4089104 -0.9206166 0.6518276 -1.316724 -0.051288646 -0.14759918 1.3963549 -0.12602796 0.13893406 -1.406272 -0.3832427 0.53226775 0.37581572 -0.30943206
6092 0.020975832 -0.026222171 -0.5314354 -0.51374716 1.0561256 -0.9263742 1.3834705 -1.5313312 -1.3735466 -3.614203 -1.333465 -0.8905981 -1.8830267 3.5791378 -0.41940957 -1.434175
8327 2.3063097 -1.098218 3.8175898 -1.1887844 2.6692345 -2.1130974 -1.6199149 0.9363761 -1.0105985 1.6039113 -1.8483661 0.13491473 -0.7096936 1.2486596 1.327721 0.8675631
9328 0.8363963 -0.91249424 -0.16696845 -1.2438262 1.8432411 -0.66649455 -1.3600943 0.6361992 -0.49614367 0.17137326 -1.0564362 -1.2906824 -1.8593438 -0.6428268 -0.6722386 1.322685
16227 4.234202 0.8255484 0.06800878 -0.72316414 1.7119652 -5.30398 -0.25920665 0.27635846 -0.3917461 -2.5551422 0.20854706 -2.6578448 0.43252504 -0.88195324 -1.0214617 1.8328673
6029 0.7264799 -0.3351879 0.5584547 -1.1793702 -1.7774938 -2.3789248 0.2668832 -1.976115 -0.23752387 0.8437335 0.0021297212 -1.1919923 -0.49218938 1.5210544 0.7761201 -0.63507783
4446 0.46143612 0.62578773 -0.058935966 -0.40331522 1.1566808 -2.2051957 1.9681287 -1.8269938 0.72152996 -0.19784418 -1.0804598 -1.335311 -1.2074903 -2.0203714 -1.523594 0.78943473
5061 3.852607 -0.033781398 1.9614104 -3.5384793 1.2419081 -1.492439 2.9258342 -2.6564248 -3.9910247 1.687878 1.8180584 -1.1330451 0.12408712 1.5007081 -2.497589 0.8906529
12801 1.1953403 -1.3586494 -2.5447874 3.8539205 5.1827226 -4.464594 -0.07478825 -2.2886362 3.5213206 0.5230611 -0.82535887 -1.2611294 -1.7961359 0.47610602 0.905656 0.9173628
13197 1.1488647 -1.036661 1.0403125 -0.1413875 1.4489377 -1.8821224 2.2429996 -2.9750679 1.8392867 0.046607215 -1.1355815 -0.46619818 1.6087748 0.7028982 -0.3562883 -0.79379576
18380 2.464739 -1.9808042 0.022519847 -1.148307 2.9898942 -1.1479414 -0.609332 -1.1566988 1.9373443 0.11863782 -2.9037666 -2.15902 -1.5360345 -2.179358 -0.2757587 1.1131268
13030 1.8586106 -2.5905204 4.641013 -1.6670852 2.0510094 -0.0977258 -0.51296836 -0.5615481 0.2507922 -1.1538376 -0.47552657 -1.3686393 0.14360994 0.9171353 -0.6057604 2.829824
12358 1.1260313 -1.4814436 0.6997332 0.5281796 1.6915691 -2.4013925 2.7396588 -3.1302266 1.9870135 0.40672505 -1.4091365 -0.71091264 1.5000542 0.24246266 -0.2011197 -0.7329927
10018 2.2251039 -0.17451917 -0.8401963 0.31438404 -0.17079425 -1.0663805 0.14775395 -0.48822448 -0.8186173 -3.031923 -1.833648 -0.35886338 -2.7702157 1.0859301 -0.5016916 -2.4273753
8672 0.9091833 -4.5309753 -0.8415748 -2.0069344 -0.07238589 -1.3194504 0.17515159 -1.5505581 1.3844749 -3.7420173 2.0804238 -0.5364844 1.2298096 4.469257 1.2587851 2.1430535
12695 0.51786417 -2.721292 0.2950526 -3.321651 1.929093 0.27555022 -0.8770681 0.89983803 -0.6985689 0.2814865 -1.3302565 -2.6406536 -1.3838181 -1.4029552 -1.3128409 0.93242276
17951 4.6711755 -1.5680097 -0.67901015 -0.5385172 -0.39925146 -1.8478208 1.9547226 -0.20748809 -1.8391203 -5.5858603 -1.4363852 -0.18800946 -0.53899956 0.48042572 1.1813718 -0.22682121
12483 -0.5004157 -0.81990445 1.4058737 1.0806834 2.2281399 -2.6052861 2.367542 0.24025448 -1.2540277 -2.0159526 1.2391365 0.032726463 -3.949883 -0.15470563 -1.189152 1.0309104
6795 1.7404416 -1.7929009 2.5274682 -2.043519 1.572234 -3.4894137 0.68916273 1.252936 -0.98394823 0.72641706 3.0881588 1.694112 0.110685065 2.3940704 -1.0779142 -1.0683112
8644 4.0136223 -1.245022 0.93604755 0.15286861 1.7366405 -3.2282164 3.5524056 -0.9893874 1.2169889 -1.7622414 4.1241 -0.38904917 -2.1291995 -0.12431786 -1.2445185 -2.11284
3104 2.3413568 -1.1738265 -0.24557029 -1.2043107 1.6938454 0.8946464 1.8254248 -1.5649203 0.13084516 0.54068017 1.4833453 -0.5742354 -0.4924254 1.6759548 -1.1369098 0.49040163
7605 1.2547626 0.56681997 0.73298126 0.95329046 0.8263184 -0.3802026 0.39838696 -1.540395 -0.86558664 -2.6753528 -1.6583049 -1.451567 -2.270006 0.63644177 -1.0287322 -1.4461719
17124 1.1534877 -0.58002037 0.50109124 1.0661803 -0.37154743 -1.2099737 -0.56615037 -0.38074723 1.3988899 -0.6400802 -0.5556524 -0.78179467 -2.0573547 0.1794322 0.547186 0.14050797
48 2.1992621 -1.763832 1.1529342 -0.40525985 1.4624923 -0.67413074 -1.7916977 0.30124357 -0.3548249 -0.8590489 -0.19970946 0.9177624 -0.26215902 0.091559686 -0.95008886 -1.0993798
8105 0.15396868 -0.8626829 4.8590407 0.29558674 0.8342268 -1.2820219 1.408096 -1.4858669 2.2534087 -1.315798 -0.7172847 -4.300331 -1.0314395 0.9571079 0.8350481 -0.56553143
5644 1.192203 -0.73410743 2.0594172 0.20163146 0.5085178 -0.60641634 1.0588363 -1.9936063 0.28910363 0.09857453 1.176534 -4.2545958 -0.5204441 1.3854051 -0.86961704 -2.402371
10269 -0.09877429 -2.7502904 -0.34501082 -0.15563591 0.62454915 0.23018192 0.025701469 -0.322108 1.1881928 -0.42631546 -0.30448428 0.12604241 -0.59543765 0.8688344 -0.54472893 -0.3728929
3114 3.5183713 -1.6302657 -0.62019974 -0.6380927 0.52969146 -0.6508347 0.52481 -3.778134 -0.3042943 0.6252556 1.7351294 -1.3792665 -0.2135811 0.5038109 -0.7589268 2.9587402
20107 1.1890032 -1.0203652 0.1909821 -1.1227629 1.9612166 -1.6230887 0.21042247 -1.374653 2.118941 1.6378745 -0.1402206 -0.72558117 -1.4453475 0.32742575 1.6000506 -1.1702639
10231 -0.20358945 -0.79952776 1.3323393 1.0543704 2.6047065 -3.191948 2.3245826 0.282239 -1.60522 -2.6385512 1.685596 0.30734763 -3.9473433 -0.21839088 -1.0336406 1.1735393
18394 -1.9559053 0.5159948 0.6534947 0.8562683 1.5351776 -2.9317615 0.4433131 1.0428917 -0.47662196 -1.6414267 0.107506156 -1.3278555 -2.140257 1.4202762 -2.3331919 -0.06530782
4943 4.1801934 -1.1636946 0.6079363 0.020742176 2.1678967 -3.704722 3.3977714 -1.2156947 0.9833947 -1.778822 4.465823 -0.30365077 -1.7412993 -0.14758159 -0.9757596 -2.0453703
17281 2.7947865 -2.573517 -0.39395952 -0.023675596 1.4781266 -0.58679557 -0.099670134 -3.3664076 0.2646819 0.18332605 1.4511966 -0.54956 -0.124978244 -0.015621612 -1.2402424 3.140846
18031 2.965766 -2.209299 -0.570987 -0.11419252 2.4403753 -0.9767248 -0.12135123 -3.3787956 -0.13058797 0.20597999 1.2882727 -0.52519447 0.28684327 -0.11729885 -1.3041773 2.1442027
6059 1.7071748 0.9503759 0.6880324 -0.22421218 0.8185382 -0.5664559 0.3705964 -1.0808462 0.21281339 -3.5726821 -0.71998715 -1.0873853 -2.1300943 0.34019154 -0.7720627 -1.0601075
18440 2.0858912 1.3732097 0.23232964 -0.4131978 1.3198683 -0.47084254 0.7499618 -1.5265269 -0.00927628 -3.7700903 -1.0760453 -1.8509921 -2.5627277 -0.1549855 -1.0478919 -1.0488483
12376 2.9040148 -0.16696283 -1.435065 0.077885464 0.9617139 -1.5669034 1.0544846 1.2887084 -0.56430984 0.7790504 0.8071414 -2.0820372 -0.6227067 -0.83287907 -1.0934675 1.0090536
16956 2.1920424 -3.3360293 1.8522567 3.9875498 1.2220632 -1.9897498 -1.8864563 0.5768988 2.0245233 1.3104268 -3.1780744 -3.9133334 -1.4494307 0.20844178 -0.046623077 -1.3222364
8178 3.0059652 -1.3507693 0.69225776 -1.324508 -0.9318834 -3.4621112 0.9095035 -1.3471223 -2.553428 -0.6009057 1.4962997 0.18784894 -1.0926045 -1.1009278 -2.4074426 -0.51253015
17886 4.422361 -0.015542553 1.7916908 -4.144117 1.5368013 -2.2576022 3.243959 -3.2075298 -4.4698796 2.0722532 2.35661 -1.5965854 0.5089384 1.4516478 -2.4853096 0.9541365
2086 2.0476627 0.15775432 2.5363712 -0.21992141 1.1955036 -0.023961851 -0.23210989 -0.67968404 -0.35399818 0.77236295 0.13877916 -0.09397209 -1.8204849 2.5776482 0.36269638 -0.8334726
9567 0.7418231 -4.63566 2.8529818 -1.5474092 0.6464795 1.4085336 0.49950987 -1.6068021 0.94039106 -3.564525 -1.4604858 0.30105594 0.118875146 4.1795197 -2.010206 -2.3509943
18404 1.1794784 0.3122696 1.5203573 -2.5173335 0.09171961 -2.8832242 -2.0848238 -0.7314132 1.2182456 0.91096956 -0.42224523 0.9997391 -0.17181073 1.7501676 -2.246504 -0.2731736
9331 2.5094395 -2.0423584 -0.7057118 -4.3299346 2.2936902 -0.5401131 2.465071 0.41945198 -3.1055322 -0.18887082 -1.1118714 0.43790728 -1.024987 0.84611416 0.9046029 -0.09200804
10178 0.6064708 0.53685397 -1.7867787 0.37593827 3.4125292 -2.7083108 1.0231606 0.7918153 0.5480077 -1.8733233 1.4480659 -1.1294341 -1.0714446 3.0192537 -2.0198588 -1.9219497
920 1.8509883 -2.0483608 2.6068015 -2.534694 1.8433434 -4.1184483 0.6367848 1.2805274 -1.1063545 0.55416787 3.4413505 1.8891561 0.36678135 2.6584985 -1.0317967 -1.05006
13037 0.14606725 0.30672064 0.09986309 -0.81843776 0.16719362 -1.4653319 0.6461302 -0.59017867 -1.1835477 -1.309606 1.1684104 -2.6512854 -0.3617503 3.6450543 0.37529784 -1.0803043
8209 1.8233811 -1.0082303 -0.81133795 0.236663 0.5296476 -1.3006343 0.7188396 0.79334784 -0.9652359 1.5041243 2.8779197 -1.2166933 -0.517695 1.7336051 -1.0334955 0.17171285
9452 2.0635495 1.2632309 -0.3308126 -0.08474762 1.543809 -0.6815685 0.18218417 -1.9832654 0.31807312 -4.394981 -0.84297675 -2.4817903 -2.5640447 0.38807312 -1.7797012 -1.4026026
8573 1.7557018 -2.7586129 4.485464 -1.7856436 2.514096 -0.24264552 -0.7071557 -0.7190371 -0.015746396 -1.5436907 -0.111754276 -1.8168285 0.5163665 0.8081269 -0.70056653 2.8750646
5338 -0.2618368 -2.3839047 2.179014 -3.613318 -1.3102144 -1.0565369 -0.519621 0.3979431 -2.6749847 -1.8417394 -0.1377761 -1.6317075 -2.4508266 2.6376476 -1.1950346 3.3845599
17946 1.9349159 -1.7139852 1.7571949 -2.4713252 -0.8189889 -3.9391954 1.3068702 -1.3698192 -2.913519 -0.78390753 1.0776074 -1.1779143 -1.1113609 -2.0486684 -3.431137 0.51674354
9924 0.4534668 -2.208401 2.3685045 0.9574855 -0.07347907 1.0499973 0.34129444 -1.8252971 0.20490827 -0.45113698 -0.88922197 -3.3241484 -2.8175883 1.5598875 -0.9327611 0.9351627
9731 3.567485 0.9261769 -0.64703333 0.6544772 0.2679835 -1.5322196 0.8889968 -1.1738203 -1.5534916 -2.4963229 -1.2752376 0.13993144 -3.0546534 2.6730878 1.3073289 -2.0269382
19417 2.5248466 1.5152252 0.636072 0.7980941 2.7832391 -1.336729 0.5486203 -0.6014837 0.058470942 -4.5473633 -1.4945651 -0.04528467 -3.5158277 0.5988667 -1.0568894 -0.9648078
1277 0.3021732 -4.633005 -2.4141243 1.0052301 1.0774456 1.0059108 -0.15677881 -0.17676969 -0.22331086 -0.07935138 -1.9661069 -2.6259453 -2.5739357 1.2237923 -3.8029633 -1.6376842
13735 2.068218 0.56125224 -1.5493103 -1.2786764 1.5611575 -3.202513 0.7627366 -1.7613738 -1.601288 -1.1147883 4.1659484 -4.0517383 -3.42747 5.5277314 1.7750232 0.80436546
6945 3.386404 -0.4871969 0.099004075 -2.0052643 1.7917032 1.7112669 -0.023666043 -3.7828784 1.19484 -3.3768373 -1.6885977 -1.1924566 -1.3891335 4.4178166 1.6094943 2.5508924
7958 -0.28589052 -2.1658418 2.4787097 -4.04539 -1.3374279 -1.1173477 -0.66292965 0.038482036 -3.2025225 -1.8516902 0.09685961 -2.273771 -2.6806197 2.986236 -1.3966808 3.425451
6650 -1.1339234 -2.17527 1.5852358 0.56564873 0.7503403 -0.65192604 -0.2856303 1.234117 -0.28810024 -1.0127198 1.1598564 -0.84436345 -1.7179463 2.393471 -1.6084521 0.24949534
7678 0.81491935 -1.959178 -2.704649 -0.16131578 -0.40018094 -2.1346302 0.9969494 -0.57537466 -2.0908256 -2.9858592 -1.6560556 -2.8392942 -3.6668236 0.2524453 1.7795784 1.9493814
2939 0.9062749 -0.5535262 -0.82550627 -0.116608456 -0.9065434 -1.1065927 -0.8117438 0.033675168 -0.05116523 0.44018516 0.17594789 -0.6003575 -0.8404047 0.05552626 -1.442942 0.5473764
17509 0.31943795 -0.9983768 1.0380118 -1.6217911 -2.3724897 -0.05012905 0.36016026 -1.3810283 0.17423706 -0.7369403 -1.6414157 -2.4089332 -3.0505147 1.0299746 -1.6699806 -0.7646249
6129 1.0238098 -1.3232524 1.0992901 -2.2233706 -2.9819171 -4.9858556 0.9781845 -2.691453 -2.9787838 1.490141 -7.0422597 -4.9739714 1.0739592 0.072521105 -5.039588 0.39637965
2295 0.15679477 -2.596006 2.1414723 -4.0258126 -1.4718205 -1.0163877 -0.4404014 0.024989182 -3.3759754 -1.9504198 0.07029625 -1.9634082 -2.6819673 2.7723897 -0.7624015 3.5459285
12795 -0.5135201 -0.6350721 0.4018915 -1.0759577 0.9048841 -0.983062 1.0268482 -1.7236223 1.750406 -0.3893017 -1.2213175 -0.6705393 -3.0172777 -0.13559286 1.8696901 0.6059579
8499 -0.4512947 -2.538342 1.4588107 -3.5954442 1.8860989 -1.2102299 -2.0284436 1.4661489 -0.30278292 -0.20813131 0.5856706 -3.6006622 -1.8555068 -1.365553 -2.1592145 1.786588
4924 -1.659422 -4.7954183 -2.2625773 0.5978394 2.6638594 -0.7268647 3.9907923 0.1871392 1.012018 1.1636009 -0.4747471 -4.4854913 -4.0781846 0.24654496 0.12897909 0.91691816
7419 0.09078017 -2.1231275 -0.29928333 0.9165456 -1.2241803 -1.8039479 -2.8847413 -1.1025146 1.6543971 0.7692309 -1.7207669 -3.0865374 -0.5790282 1.8368603 -0.08826011 -1.0893016
5184 2.3443558 -2.9089966 -1.6607337 -2.8419528 2.2865248 -0.34876016 -1.2253578 0.38487592 -3.1740017 0.49123564 -0.19453052 -2.4718401 0.7535827 2.2222724 1.8822886 0.925272
2494 0.22391929 -4.6333156 -1.1103404 0.33400422 -3.625085 -2.315681 -1.5481766 -2.3607152 0.70439494 0.06858364 -1.366662 -0.82187027 -1.8668953 0.038464256 -2.0583003 0.48307467
2908 -0.21983305 -2.3471484 2.766032 -3.5470755 -1.4754949 -1.1435705 -0.7264724 0.30335167 -3.016456 -2.1493332 -0.2114531 -1.9820081 -2.7685747 2.9173248 -1.1828729 3.4407725
3362 0.67167884 -0.025708627 -0.83793336 -1.5754359 0.16482891 -1.7588792 -0.7849025 -0.66261226 0.45453876 -2.5839217 -1.2505662 0.35102698 -1.2307411 -1.0017939 -3.6527941 -0.63119304
9107 0.12552568 1.3486648 0.33383882 -1.2050117 0.64553314 -3.1623468 0.22289503 -0.5944132 1.7991731 -1.3991491 0.7613571 -1.9096463 -0.98678094 0.0015727784 -0.26676348 -0.8563237
14691 -1.7297975 -2.4560423 4.1626153 -2.7116003 -0.46455854 -2.6475127 0.289414 0.084425874 -0.099292904 -1.7713007 0.93825454 -2.5142498 -0.34481046 0.90808624 -2.3812127 2.7941673
3158 0.31272548 -1.1449168 -1.2840756 -2.4755774 -0.30252895 -1.1270002 -0.1820174 2.0737703 -0.698945 -0.9150453 -1.6743773 -1.4803978 -0.56604356 0.39752018 -0.7460087 -0.098882414
10513 1.2778714 -1.3903118 2.9646182 0.4379988 0.33287323 -0.72009254 0.66223747 -2.1577625 0.31094855 1.3155066 0.19965032 -4.815701 -0.5204901 2.1470456 -0.04749949 -2.7526264
5978 0.9675086 -0.11091008 1.2221909 -4.540289 0.47541845 -0.97134286 0.10670472 -2.1828442 -0.29370192 0.6313659 3.4007094 -3.0555851 -4.3600883 0.41232812 0.541236 2.621908
4726 0.38867906 -1.149381 5.141271 0.4480549 1.0486388 -1.0694183 1.6106064 -1.8410696 2.0283194 -1.3460656 -0.55417585 -4.5081887 -1.5826914 1.0710024 0.6423865 -0.68820584
4040 2.6167655 -1.316614 -0.4721927 -1.2327687 1.8144932 0.68226224 1.310461 -1.3874539 0.31452578 0.048458554 1.6783618 -0.65899634 -0.08057688 1.4940724 -0.7254768 0.9714158
7732 -1.805306 -4.579176 -1.7983764 0.4884887 2.0533028 -0.5004558 3.4686887 -0.03584091 0.41764238 0.70003396 -0.60709846 -4.21883 -3.7812858 0.14475937 -0.22917224 1.1200495
10109 0.93178403 -2.6275988 -0.3221381 -1.0590966 -2.325046 0.60501146 -0.9344362 -0.4274 0.21667723 1.4952446 -0.9962399 -3.7151322 -0.9439933 5.6296597 -2.042175 -1.7231743
13714 0.41830304 -4.6580505 -2.8169944 1.1783367 1.4050668 0.8775575 -0.11732346 -0.00390695 -0.18153147 -0.70082384 -1.7573307 -2.4641457 -2.7790244 1.247346 -3.8165987 -1.8682564
9235 0.7581973 -3.1090474 0.6318877 -1.3240187 0.06372382 -1.3296659 4.9614472 1.5887462 -0.5656865 0.08062142 -1.0106096 -2.725467 -1.6346467 0.9572325 1.6776836 -1.8678092
6570 3.5715816 -2.2096274 2.1193554 -2.6804705 -2.1488929 -3.2191405 0.25071794 1.2706965 2.8224843 1.8968091 3.7303793 0.7542864 -0.9994291 1.2230922 -0.6455913 2.3501592
7755 -0.23431112 -1.6109341 1.2881007 -1.4807507 -2.777014 -0.3302392 0.12456121 -1.7217232 0.26124102 -0.7469544 -2.1204655 -2.6927826 -3.0855284 0.9251979 -2.1441128 -0.932941
12320 -1.9027197 -4.9735203 -2.0196114 0.5421993 2.3607209 -0.43282855 3.723997 -0.13858178 0.4767752 0.7642497 -0.5085353 -4.4377713 -4.2459173 0.2198422 -0.40674263 1.1176125
18213 0.4686331 -2.8089359 2.8329632 1.2109259 -0.037761237 1.0739223 0.17842145 -2.098897 0.20765553 -0.8571659 -1.0747561 -3.7427037 -3.0966008 1.8065871 -0.98493385 1.0255319
212 0.47051775 -1.0102856 -0.12028407 -2.7675776 -2.1396499 -2.1366444 1.1903456 -4.317357 -0.7965063 -0.012892269 0.3507532 -3.4040718 -0.94201326 1.4811418 0.0052858666 -0.92374325
18715 2.9974484 -3.8965423 2.4909348 -0.069477074 -2.6829703 -2.0473607 -0.5326308 1.5343305 1.8311999 2.6511202 0.26153713 -0.01979877 -0.3729158 2.667583 -2.422686 1.9285953
12175 3.4039927 0.8734501 -0.8808212 3.1490197 -0.28692666 -5.7948527 2.276991 -2.5013165 3.2415109 -0.664064 0.53569144 -1.6908526 -2.725176 0.12399147 -1.9599923 4.597905
3159 -0.27210358 -1.3329576 -0.9635858 -1.2214851 1.2177768 -0.23076111 -0.88693017 -1.4792334 1.08837 0.18329363 0.038840365 2.0723634 -1.83498 3.522803 -2.0897813 0.9026078
2887 -0.119972624 -1.6063108 -0.98998415 -1.5722333 1.47675 -0.8975179 -0.57204294 -2.1740336 1.6289806 0.1317848 0.16643094 2.1394508 -0.780394 3.0869853 -2.5749402 1.3359426
11676 -1.3375663 -3.3735852 1.1633339 0.7798926 1.0486655 -3.8694544 0.6210926 -2.056042 -1.6279168 3.7250323 -1.911805 -0.84422755 -2.0192492 0.4259094 -0.439239 -2.0919056
16797 -0.97865754 -3.8397017 -3.7018757 0.4438683 2.6463776 -0.90402853 3.8172343 0.8899612 1.9142612 1.5930022 -2.328053 -3.4535415 -4.1266437 1.1643852 0.43786114 0.7635198
22 2.3898711 -0.6274965 3.7270083 -0.5564869 1.9465675 -3.3668017 -1.0255892 1.4728445 -0.73766893 1.5208844 -1.5601246 -0.24346237 -0.51871955 -0.035718538 0.848132 1.5120571
9182 4.546587 -1.8858559 2.9211273 1.6995245 -0.9270036 -1.7908845 1.6324594 -2.3273492 0.15420298 4.052557 -0.5702747 -5.7871537 -1.9899487 3.4474237 1.4503623 -2.7902076
7501 1.676395 -0.73852277 0.69734216 -0.83371246 0.97911924 -1.081488 -1.520787 0.68096364 1.6811386 -1.3520194 -1.908835 -0.028879702 -1.1220235 0.3453691 -1.1862538 -2.1971357
14927 1.1035197 -1.0034213 -0.6117565 -0.91037804 0.8709501 -0.5927197 0.047115315 -1.6607319 -1.8995565 -0.26212198 0.4101413 0.5095647 -0.21694526 1.0205809 -0.69894785 0.6348836
2118 1.4161352 -1.5172276 -1.5642807 -3.6411028 -0.6657264 -1.0347627 -0.60187006 2.6383066 -0.69972444 -0.8440569 -2.566641 -2.6128507 -0.81007576 0.7234205 0.02747503 -0.07401635
17810 0.70029825 -2.7078125 -0.2240433 -1.2256091 -2.076567 0.6903073 -0.83586556 0.08612397 0.05859389 1.1966069 -0.431495 -3.3844807 -0.8512163 5.0153503 -1.9887381 -1.779053
18387 -0.45694417 -1.559265 0.5885651 0.3218706 0.47298735 -1.2968199 -0.29691955 -0.4417097 -0.42890093 -0.69055897 -2.011078 -0.31802922 -0.9845011 0.7672964 1.5393255 1.5246217
6897 1.4936036 -0.22218676 2.7718763 0.2476757 0.81243616 0.07730425 -0.14653486 -1.0994321 0.06410749 -0.14855078 0.55674326 -0.61773634 -0.74204654 2.4986525 0.100673355 -0.1289723
3805 0.5165419 -0.52546304 1.1077342 0.95597196 3.5709624 -2.9334764 -0.17275809 -1.3733921 -2.1719146 -1.0105278 0.31492293 1.9259789 -2.9890327 0.5330727 -2.5708094 -0.37637314
8 0.57717574 -0.6423725 -0.013484016 -0.12358509 0.23052196 -1.1924833 -0.07204756 -0.046778597 -0.13907574 0.5556202 -0.78586394 -0.5105721 1.1148248 0.6427213 -0.41742274 -0.46217164
3035 1.4996762 -3.4097831 3.0970595 1.7456331 1.8458418 -4.281732 0.8273842 -0.31934598 -3.2820356 0.17345002 -0.21234596 0.29355466 -0.2886278 5.463308 2.7214973 0.59464425
7797 -0.5803022 -4.2195463 0.73639786 0.36509353 0.92526543 -3.380438 0.22818951 -0.5727413 -0.4548777 2.6613545 -2.9345915 -0.37399274 -0.9509532 -0.86463183 -1.5025808 -1.645462
7626 4.755039 -2.1265996 3.2044039 1.570831 -0.70089006 -1.7584869 1.2877243 -2.761424 0.09342834 3.8230555 -0.63813645 -5.4217453 -1.9445711 3.4252071 1.4460953 -2.9411056
17026 1.6136934 -1.1170282 2.707899 0.68481344 -1.9386884 0.27429104 1.1688305 -1.2692026 0.60302454 0.07833722 -1.820491 -1.7665553 -4.049469 2.3628924 0.36067775 1.157296
4465 2.9778814 -1.5282468 -0.58705956 0.84903705 0.0801628 -1.5978268 -1.9939389 1.2230384 0.76837075 -2.7091262 -1.9435188 1.1711806 -2.1102622 0.32340246 -1.4925716 0.06140968
10988 3.6875534 0.8757803 -0.6292698 1.8564954 0.5391049 -3.886489 2.7453668 -1.9564161 2.220414 -0.14043432 0.41650772 -0.8409605 -2.5889723 0.14480458 -0.6801934 4.391694
11802 0.13365653 -5.121399 -2.1308687 -2.4331336 -0.15147573 -2.4255006 -0.14706646 1.4404019 1.0231969 -6.4082747 -1.3600075 1.0279117 0.057942227 6.1978383 -2.6476266 2.998432
10293 3.4849546 -1.4757063 -0.7055323 0.6107224 0.3275639 -0.9985757 -2.1708512 1.3404316 1.1688105 -2.831229 -1.1250802 0.6994647 -2.3483362 0.17322579 -1.0800389 -0.44623828
107 1.1569775 1.2263052 -0.79694337 -1.3539486 -1.0311462 -2.4081526 -1.3270375 -1.451016 1.6603961 0.5480031 0.3478261 -0.18735838 -0.50956213 1.1256899 -1.7509158 0.55220556
17892 -0.42758328 -2.4667673 -0.46656418 0.8193285 -1.8234075 -2.0735755 -1.0093262 -1.5770354 0.1882529 -0.07062398 -1.6035987 -1.1404095 -0.23334321 0.1121015 -0.7829648 0.4777308
6457 0.54868174 -4.700609 -2.4447124 -2.940085 -0.16397092 -2.0009265 0.04276651 2.159023 0.43024313 -6.190725 -1.0549779 0.87676716 -0.44928843 6.2782736 -2.439291 2.9212513
1862 2.0983183 -2.7455137 -0.30922586 0.17836724 -3.66925 -0.46572545 -1.6969706 -0.057175804 1.133537 0.14251968 -3.520038 -2.106567 -2.0030832 3.349651 -2.2434874 -1.3521656
7067 1.9955542 1.1722757 0.80426407 -0.89884776 -1.9904413 -2.2492492 1.5116463 1.247104 -1.251805 -0.33765337 -1.319263 -3.7849865 -0.18604077 1.2505597 -0.09434334 -0.5321058
14714 1.9968313 -3.2202272 -0.27351865 0.016654717 -4.125408 -0.2793758 -2.1638563 -0.43283123 1.1316555 -0.06580338 -3.44304 -2.4907942 -2.135253 3.851592 -2.0937412 -1.3170397
11399 4.0614614 -1.4543611 0.5475174 -0.41579062 -1.7437211 -4.465173 2.210601 -1.103422 -2.3972826 -0.3515044 1.6705374 1.1508425 -1.376562 -0.228764 -2.6959507 -1.6074353
18421 0.31135297 -0.3877603 0.48537847 -0.90550464 0.18896972 -1.15126 0.2835298 -0.020224635 1.2258724 -0.17909841 0.18497016 -0.55279434 0.07696193 0.20741871 0.6545658 -0.24205771
11220 -0.6931636 -3.9194746 -3.7814076 0.6683225 2.6827893 -0.73395306 3.67733 0.76607007 1.8741189 1.6998546 -2.5477424 -3.2662866 -4.140912 1.3887848 0.22461149 0.6746898
18217 2.5843823 -1.1089844 2.0704143 0.12439629 2.6479635 -3.4990728 2.414479 -0.21339537 1.0965209 -1.540424 0.14909945 1.6604962 -1.3470576 -0.34060463 1.3678354 0.47143275
14692 -0.5496039 -2.213992 0.9296855 0.69730866 0.81266195 -1.7392995 -0.6562693 -0.5663102 -0.53864264 -0.76933324 -2.431393 -0.459632 -1.0233011 1.2160314 1.840545 1.9078354
2503 0.8303461 -1.0200875 0.4550396 0.5270269 1.0439174 -2.661122 2.2587206 -3.0821927 2.0000346 -0.17282976 -1.03807 -0.5448157 1.431487 0.22362313 -0.20186166 -0.34942895
14177 0.3574112 -1.8065519 -0.401256 -3.5841815 2.0157518 -3.272843 -1.2534664 3.4770834 -0.9842217 -2.7594087 -4.226627 -3.1089952 -0.67530274 -0.32347926 0.27738383 0.8372493
4826 3.2715054 0.85697305 -0.11815661 2.1174705 -0.36176193 -4.211587 3.8804536 -2.8019369 2.236632 -1.0190967 -1.0265491 -0.64873576 -3.776221 0.2323255 -1.8609716 4.6465716
14279 1.7014633 -0.68293387 0.4919047 1.2151009 -0.33773735 -1.427152 -0.9167043 -0.24862376 1.5030615 -0.5218784 -0.371628 -0.86710453 -2.1935608 0.3402952 0.5466102 0.16192187
2439 0.8921575 -2.9105008 -2.3453608 -0.30706644 -0.63565326 -1.96794 0.2603119 -1.085385 -2.0827138 -3.6024714 -2.0287576 -3.3517249 -3.9386504 0.3837952 2.4684126 2.5133085
18345 0.35408315 -1.5891432 0.20793591 -1.8258191 -0.1566019 -1.2441511 -0.41101804 2.6882286 -1.4332912 -2.1213439 -4.0445814 -1.9822599 -3.5738065 2.6965053 1.3496808 2.9993036
1710 2.785844 -1.7785435 0.99070907 -2.0300906 0.80106467 -0.38361263 1.1003773 -1.3282787 -0.31126532 -0.6059259 -1.183268 1.4979885 0.8603647 0.43285984 -0.86200297 -1.6542186
14657 1.9412992 -1.3315647 2.7752647 1.0578011 -2.4055436 0.043138105 0.98448724 -1.2584757 0.7821683 -0.03175108 -2.0037236 -1.6135565 -4.552104 2.657134 0.25054803 1.2471201
12698 0.9321796 0.41495156 -0.21572314 0.24966615 -0.4469087 0.13498597 0.3150534 -0.8938342 0.036738966 0.35750154 -1.1924413 -1.1254169 -0.8692859 1.5432311 -0.3483404 -0.3885128
10835 2.1638553 1.9648029 -0.16561063 -1.5953053 2.1648483 -3.5418608 1.3165077 -0.5857676 -1.2416978 -1.233413 -0.027689781 -0.5311564 -0.40644506 1.7545297 0.46394363 1.3119581
3403 1.1807121 -2.123335 0.59965277 0.3323031 0.2515151 -3.6484873 0.3475144 -0.33082682 1.0194166 -0.7184927 -2.4271805 1.7331707 1.624038 0.75771314 -0.94675714 0.2406334
17515 0.46606794 0.4963928 0.25411952 -0.5341078 1.4087269 -2.2520475 1.9626132 -1.763186 0.64424413 -0.23345639 -1.0513054 -1.3177481 -1.0603682 -2.035109 -1.1977209 0.8692515
18382 -2.628092 -0.16357984 0.5664168 0.58552533 1.8064299 -2.3893495 1.2130541 0.11607972 -0.35791785 -1.3734783 -0.7819395 -0.8141724 -1.2763971 1.6972557 -2.5356307 -0.09429982
17838 -1.0309801 -1.3861581 0.2828927 -0.85603493 2.08795 -3.623146 2.3033767 2.1141882 -2.256338 1.6201391 -1.0780149 0.085211575 -1.6377305 1.0105789 -1.5206757 -0.35425425
15547 -1.1391678 -1.0259821 -2.0916915 0.06759641 1.1832646 -1.7087551 4.111142 -1.6164593 -0.6576889 -0.16830936 0.34470272 -1.0591414 -3.585797 4.1093564 -2.434044 -1.7852314
4206 0.42209947 1.459359 -0.5086919 -0.9439605 0.5251087 -3.2885227 2.6778238 -1.445937 2.3342786 1.2928275 -0.6908947 -1.7628955 -0.93101287 -0.10005639 -0.3391506 -0.10716404
19258 -2.7062492 -0.25390846 0.72916836 0.6246265 2.035208 -2.3069065 1.2560563 0.18266061 -0.5006084 -1.614123 -0.74247456 -0.89550966 -1.4060282 1.9386787 -2.7393994 0.07897829
6916 -1.6459405 -1.9472728 -1.8538148 -1.9219602 -2.94803 -2.7500217 -0.28968513 -1.9547604 2.6601694 0.34623116 0.04771494 -0.67539793 -1.1624094 2.4783642 -1.2042357 -0.6220163
2110 1.7331563 -0.117167346 1.7566571 -2.1304908 0.32357815 -2.464111 -2.794322 -0.4649831 0.74377626 0.63848203 -0.22077416 1.1440415 -0.22612908 1.6326778 -2.6271029 -0.11584137
8149 -1.3725905 -1.4588614 -1.8896238 -0.2213405 0.98794436 -1.6939611 4.2672577 -0.9315385 -0.5071607 -0.3004695 0.4279406 -0.66616833 -3.280337 4.020985 -2.469977 -2.3006494
10433 0.6647861 0.92849654 -0.42228386 -1.5728768 -0.13870218 -1.6565282 0.9404031 -0.39218634 -1.694587 -1.5409019 1.5376354 -2.8903913 -1.0962725 4.2929587 0.43794286 -1.8568778
13125 1.2220984 -1.1865206 -0.41208288 -3.7625122 -0.113539405 -1.4379259 -0.37524647 3.5293174 -0.5490517 -1.7892553 -2.0839732 -2.248283 -0.09320628 0.8177482 -0.9192109 -0.6297988
13242 -0.38648555 -3.1867642 0.7469241 -1.6748583 -0.84719825 -3.3704023 3.5640652 1.4038687 0.24621008 1.9433037 0.15731701 -0.98137873 -0.99336326 -0.3974826 -0.299839 -1.1184329
570 3.1294127 2.8345523 0.7701835 -1.0047349 -2.2371278 -3.6032078 2.1946893 0.5529433 0.058712635 -1.3220834 -1.6324236 -1.2853558 -2.4661322 0.28065827 -2.467428 1.8978254
987 0.46949708 0.8380783 -0.44393897 -1.3127332 0.93313444 -2.5661168 2.3417652 -1.2180775 2.219193 1.4407306 -0.46534887 -1.5724939 -0.79268885 -0.012069567 0.029680138 -0.20683137
6014 0.56794286 -2.656466 0.580347 -1.2042979 -0.10901902 -1.3230422 4.5646563 1.6094134 -0.3070294 -0.3802975 -0.8150121 -2.420187 -1.7875245 0.5863668 1.1451526 -1.486345
11446 -0.779243 -0.8264613 2.4453776 -1.3694867 -0.05401525 -1.7071308 -0.05373332 -1.8921508 -0.882355 -0.020085556 -0.19504957 -2.0010703 0.32777163 1.1926587 -1.2588304 -0.19232228
10303 3.2013915 3.0762749 0.89079857 -1.3709652 -2.303572 -3.6231937 2.2819304 0.5271186 -0.013160163 -1.247993 -1.9632362 -1.5777465 -2.2975523 0.15367831 -2.4274669 1.9629003
12025 3.2038455 3.058322 0.7531403 -1.1177619 -2.4276345 -3.7799377 2.194014 0.58077943 0.1662608 -1.3173159 -1.8293998 -1.5152895 -2.4044716 0.14755382 -2.6600716 1.7682514
7207 1.6850793 -4.599058 1.1554418 -1.4646357 -0.8544851 -4.155451 1.2933538 -0.94634587 1.1548368 -3.5396998 0.03430116 2.7922726 -1.0071363 2.351189 0.00079553394 -5.840942
6697 3.1880226 0.88906014 -0.17056732 2.1534228 -0.44763464 -4.1762257 3.6921916 -2.8674762 2.5645642 -1.1877488 -1.0071379 -0.6868003 -3.8493984 0.1642049 -1.9283044 4.6157794
1694 0.1905304 -0.32445672 0.57125837 0.22054432 -0.123575374 -0.53838044 0.3211939 -0.6260784 0.14417243 -0.8213473 -0.88773006 0.94430494 -1.1416348 2.232917 0.12850627 0.47626847
11985 3.460606 -2.9766657 -0.64159966 -0.17456749 1.1015557 -4.792316 -4.885648 -0.9391783 -1.2414588 1.0108044 -0.6967212 1.5656036 -0.045035325 0.43834898 -0.7259021 -1.0088259
67 -1.1656816 -0.37989807 0.5334529 -0.09327124 0.675932 -1.8522854 -0.6800894 2.326183 -1.0196766 -1.9023651 0.18243076 -1.6353108 -2.139339 2.098396 0.14127202 0.6856394
13446 0.84734523 -1.1813074 0.15160823 0.9438739 4.3652773 -3.1356816 -0.92625135 -2.1424124 -3.2080379 -1.3392069 0.67533994 2.2519093 -4.3147054 0.18597713 -3.033293 -0.029544024
19502 2.2994907 -0.3233035 0.6201408 -0.7946923 0.8768402 -1.1584892 -0.6784996 0.62875354 0.7886987 -0.65347534 -3.1492069 -0.31636566 -2.141882 -0.13934085 -1.224663 -3.0215085
1375 2.4323232 -0.80474186 0.28744638 -1.3905373 0.049172945 -0.621736 -2.1331213 0.27366158 0.6538313 -1.1972989 -1.0151569 0.44844198 -0.49655032 0.033849142 -1.3006961 -0.84988236
4606 1.1320332 -0.23423962 -0.2255972 -1.0484794 1.915714 -1.2960656 0.4045028 0.5534858 1.9163842 -0.42398068 -0.4314974 -1.6418966 0.16531911 0.79321444 0.059273273 -2.0216155
16950 1.7183347 -3.8539789 1.5711424 -1.6007437 -1.3623046 -4.058044 1.4906521 -0.544888 1.2754318 -3.166049 -0.80587804 2.7353039 -0.70550597 1.7733378 -0.71412736 -4.8678036
18520 2.1676152 -2.36953 -0.30983052 -1.5263548 0.90226 -0.9466087 -4.895474 -0.3878773 -0.47005683 -2.6025198 3.564141 -3.8497918 -3.8311393 3.3390434 -1.6729637 0.61578184
10272 0.90834016 0.7804365 -0.070828736 -0.05468651 -0.6779163 -2.4982727 1.4037265 1.0412112 -0.8775369 0.72294825 -2.1253529 -4.3814263 0.29826057 2.5646672 -0.058012813 -1.3937837
8357 2.2148585 1.5315828 0.17893094 0.21083045 -0.50078255 -0.15885632 0.73507303 -0.9850959 -1.1181641 1.4870516 -2.879536 -2.8060725 -1.641963 3.957004 -1.1773776 -0.57354206
12621 0.65552384 0.72467595 -0.1362583 -1.6257988 0.17141402 -1.3229274 1.1421361 -0.4189855 -1.8342568 -1.2920291 1.4195638 -3.0801792 -1.0032774 4.457856 0.21732831 -1.9942935
14924 4.618651 0.97999394 0.77182066 -0.7380338 1.8079252 -5.519327 -0.3001972 0.062463555 -0.5699328 -2.738488 0.39268053 -2.8757074 0.52998877 -0.73992556 -1.1553091 1.7696489
16462 4.2324705 -0.79110694 -3.602681 -1.5821253 -0.8710579 -1.649032 -1.3608177 1.6917658 0.79282004 1.4539272 -3.6260386 -3.2475324 -0.52411515 0.43398353 -2.3726244 1.3773487
6243 2.479031 -1.930407 1.7997248 -2.4766624 1.1390762 -0.8434184 -1.3702453 -1.8924812 -6.4680405 -3.325635 1.7389467 -4.7039213 -0.49843144 3.0222452 0.4588222 -0.022978952
17927 2.5521905 -0.15983143 -1.6768965 -0.1968118 -0.26039395 -1.8087271 -0.457945 0.8789362 -0.17614968 -1.0919853 -2.9481027 0.041991502 -0.6676639 1.9791225 0.315055 0.4735746
18414 2.27307 -1.7386746 -1.3052185 -0.45071518 0.802702 -1.9228076 -2.7018032 0.23566125 -0.89812285 -2.9983847 -0.49852002 0.29727632 -0.28245512 0.05195403 -2.145176 -1.3615681
7786 -0.74596214 -0.6137399 2.3615048 -1.4112221 -0.24901374 -1.767405 0.293878 -1.7026336 -0.55200154 0.6441099 -0.55020773 -1.588328 0.26376092 1.2729375 -0.9376131 -0.2650389
18358 2.5083358 -0.3260356 -1.122837 1.8687843 -0.38570774 -2.9916956 -2.1350698 0.5405109 1.8100386 -0.8518192 -0.26727402 -1.5017812 -2.962271 1.1028559 0.74438965 0.26640376
11520 1.558661 -0.663484 1.9641908 -1.4753076 -2.0260005 -2.106274 -0.9237897 -2.9789975 -0.7260302 -3.9517524 -2.3108993 -2.697638 -2.5848064 0.8154084 -0.68635464 1.8580692
14210 3.0226533 0.6750936 -0.6280311 3.3657742 -0.38311222 -5.545129 2.737244 -2.6655068 3.263761 -0.754872 0.68505347 -1.9624501 -2.985455 -0.09872778 -2.4066606 4.7564464
16116 1.6137642 -0.4846345 -1.1258633 1.0658698 -0.53818405 -1.7447255 -1.9129068 -0.10118027 1.1875331 -1.0962758 -0.27154142 -1.3910611 -3.3476493 0.79302055 0.4213224 -0.084327795
16936 1.5725509 -0.3070665 -1.3229373 1.7775637 2.0585067 -0.6269265 0.5108 -2.5644424 -1.484846 -0.8472826 0.3732545 -0.66286045 -3.9956095 1.3452789 -1.5706253 -0.9045759
18416 0.9924129 0.74222857 -0.41083524 -0.875035 -0.5899339 -3.6727977 -0.3113212 -1.8125215 2.5331786 -1.497688 -1.3916553 -2.0775018 -1.1033194 -1.7768142 -0.27467942 0.90600884
1821 1.4970446 -1.2793694 0.7648302 0.14088519 1.6642038 -2.8248336 2.5777745 -2.7385237 2.0283656 0.705326 -1.5541021 -0.2638246 1.7844206 0.13625102 0.32678962 -0.20395169
16454 0.58617675 -0.95509964 0.52497417 0.31988224 0.31674978 -1.8127967 1.582869 -2.2832947 1.641593 -0.204286 -0.6767725 -0.32225347 1.0915053 0.38173538 -0.27471825 -0.14409187
10144 0.47906312 -5.2153563 4.1124754 -2.8990614 0.9727135 1.3196548 1.02353 -2.2662 1.8581918 -3.7976487 -3.5722706 0.23637293 0.5352306 5.968809 -2.5346222 -3.7840521
13 0.43563735 -1.0538001 0.27473867 -3.0363812 -2.1636965 -1.588254 2.163262 -4.5456357 -0.4509548 -0.6360816 0.85768366 -3.3849516 -1.1023006 1.0019443 -0.5290142 -0.5802204
5429 1.476835 -2.5256863 -1.42485 -0.29740205 2.1695325 -0.8994726 -1.1155856 -1.6664643 -0.57840675 -2.204801 -0.42278975 -0.27652806 -0.2543567 0.21582137 0.15714283 0.6687705
368 0.9713565 0.47381914 0.11468863 0.27028582 -0.38341618 0.2898205 0.53100705 -0.6419881 0.13641065 0.09483702 -0.8691242 -1.182174 -0.8487018 1.3982396 -0.31186488 -0.371751
2807 0.5069713 -1.9058722 -0.10330121 0.6015646 -2.0559936 -1.4187169 -2.7662537 -0.8543253 1.2038493 0.46089414 -1.2873653 -2.7754853 -0.4369362 1.9123583 -0.4826452 -0.4258435
10954 1.0218934 -2.6798844 2.3527362 0.07358156 0.10489637 -1.3899378 -1.4578518 -0.7679757 -1.6265135 -1.0337688 -1.3766623 -1.156214 -2.2291703 0.6405763 2.8337214 2.1459384
16248 0.68594176 -1.2193096 0.47001943 -2.642813 -1.1041765 -2.37642 1.880855 3.4659314 -2.900105 -1.2498246 0.15627852 -3.8258057 -0.728281 1.7784323 -0.07463361 -2.0865374
12241 -1.6506772 -3.7659225 2.612401 -3.2410038 -1.2462289 -2.1571662 0.033042293 -0.57336736 -1.6563883 -1.1085411 -4.476357 -4.487141 -0.3674845 1.7653543 1.4818236 -0.06090538
1892 -1.6842949 -3.5327322 2.6217349 -3.5077639 -1.2854954 -2.1165164 0.007527416 -0.44761038 -1.7294856 -1.1643316 -4.605943 -4.749995 -0.42795357 1.8804126 1.2941327 0.023001296
12060 2.3550632 -2.352132 1.3446097 0.6876533 0.08073788 -3.1536398 -4.744083 1.0237709 1.0982639 -3.9031537 2.1009858 -0.5834727 -2.1036594 3.3910785 -0.7427534 1.3791214
7098 4.8493204 0.22322616 -2.2578475 -1.3865018 -1.2094246 -4.1838794 -1.0370159 1.2590249 0.14630313 1.1496845 -1.173831 -1.8781662 -0.8193263 3.5732882 2.207117 0.07882196
5933 1.0438523 -1.3915861 0.3459408 -1.0611864 -0.06295537 -0.5732358 0.18600215 -0.28853488 0.77960116 0.043301247 0.79798853 -0.533861 -0.049653016 1.6247678 1.2995055 1.1620963
9147 0.9527943 -2.1959531 -0.3044361 -1.1406575 -1.7896898 0.30752108 -0.9468152 1.6743207 -1.24788 0.54736704 0.98575515 -2.153753 -1.3976678 2.9824164 -1.8324329 -0.008390266
5099 1.1137482 -2.3620667 0.7957278 0.12975001 0.11378432 -3.8100336 0.57633644 -0.73521763 0.8539577 -0.98622054 -2.9487333 2.0115652 1.6561655 0.6926113 -1.1686925 0.13757549
14523 0.203739 -0.75437516 0.6338803 0.37727475 0.30683666 -1.4351658 1.1173072 -2.058986 1.0153437 -0.4255845 -0.44528392 -0.24000165 0.89483976 0.5547844 -0.5764282 -0.30252963
7568 1.353766 -2.4169881 1.6885308 3.0743134 0.10071447 -2.7252889 -2.6154888 -0.5986245 1.9724082 0.4403186 -2.9267693 -4.08592 -0.8571681 0.62104505 -0.155885 -1.9116393
17062 1.7158505 -0.46794695 0.272566 1.5547698 -0.6670634 -2.0115952 -1.0279957 -0.19565651 1.5666817 -1.1963432 -0.9893231 -1.290315 -2.9730403 0.6595093 0.8034157 -0.46098366
13091 0.31444144 -1.5900352 -0.27537176 0.6284147 -1.8046429 -1.4299622 -2.5482728 -1.1508322 1.0757715 0.41202587 -1.2626266 -2.4978452 -0.53486454 1.5575917 -0.5429079 -0.61034244
1109 -0.8141203 -3.9813607 -0.66229665 0.621039 -2.4206405 -2.3784401 -1.2293845 -2.247991 -0.3446192 -0.23683558 -2.7527752 -1.9018414 -0.8732634 -0.2498151 -1.2110578 0.7592089
18456 0.46013972 -1.6854601 -0.09928339 -0.09071157 2.246588 -1.748503 -0.4464043 -1.7050849 3.3751326 2.1110413 0.15373904 -0.43354338 -1.1038744 0.7627502 0.38485172 -0.7149828
1804 -0.22968897 -2.9206295 0.7628576 -1.7990721 -0.98894334 -3.3808706 4.0128264 1.4276074 0.25554752 2.3388753 -0.04300935 -0.82270736 -1.4142588 -0.21278065 -0.51684195 -1.1022636
18441 0.49789158 -2.755312 -0.77910286 -0.52117586 2.3842037 -1.864069 -0.39630806 -2.8321903 2.211136 1.6894872 0.05971408 1.0643463 -1.4276841 1.0794361 2.3767698 -1.6107993
19603 1.6449194 0.8191131 0.7971119 -0.07485457 -1.1674249 -0.75910103 2.2707188 0.610238 -2.0368135 -0.15127945 -0.91701794 -4.1108193 -1.140013 1.6551293 -0.5374226 -0.090791896
19020 0.85680676 -0.58625394 -0.08647931 0.31476673 1.9439354 -2.1334143 2.5180025 -3.3737912 1.06229 0.07744028 -1.0605412 -0.19392546 0.6570389 0.6054911 0.4373497 -0.89837855
13544 1.2672561 -2.0141747 0.93211204 1.1598371 1.7733365 -2.9662647 -1.1488506 -1.5411932 -1.6237227 0.50279963 0.13446932 -0.66436625 -1.0723108 2.8586714 2.8681588 -0.6123088
20103 1.0546582 -2.6789858 0.0847674 -0.8045839 1.5908935 -2.0052073 -0.21630655 -2.1257784 2.5211442 1.1491977 -0.2449669 0.7624284 -1.5321715 0.49006358 2.363246 -1.5795085
