13478 16
9756 -1.8476298 -1.1935982 -0.21894212 -0.8934092 -1.6672586 -0.42130145 0.30905005 -0.9186427 -1.8766099 0.8416771 -0.04509401 0.748949 -1.0673935 -0.8449189 0.99438757 -0.28400955
10248 -1.4629352 -2.3240888 0.46615562 -2.0726461 -2.4139235 -1.1890513 0.2327648 -0.8569247 -3.3037763 1.0262854 -0.8252819 1.4960089 -1.4180965 -0.92707175 2.7723129 -1.0938655
11 -0.5610014 0.70947236 0.49928918 -1.8355119 -0.29417652 0.1273645 1.0515783 -0.40403718 0.25216293 -0.08368813 0.59994215 0.4903977 0.25850767 -0.47642842 -0.4080843 -0.8515283
255 -0.67237663 0.49616367 0.500294 -2.0556521 -0.22020064 0.14665402 1.1511121 -0.46099907 0.38560402 -0.041197915 0.67581064 0.607824 0.2726899 -0.4724451 -0.543659 -1.1227039
8 -1.1543843 -2.4885237 -1.3920666 -0.5311769 -2.1683006 -0.07784516 0.9476136 -2.2207088 -0.7659851 -0.17718211 -1.1048896 0.5768453 -0.3712292 0.15287632 -1.3667288 -1.0716366
2556 -1.3361936 -2.719451 -1.6211116 -0.33416268 -2.485627 0.037388895 1.0769156 -2.3783689 -0.93011254 -0.22997065 -1.1469681 0.7814585 -0.5865398 0.16855414 -1.5920459 -1.2645694
22 2.0389795 -0.115209654 -1.8026576 -0.29746822 -1.1965554 -2.3002498 1.617639 -2.3336124 1.969241 -1.0544194 0.14083664 -0.13300526 0.40643704 -1.706051 1.8530567 -2.336415
12120 1.6098889 -0.09242017 -1.2169019 -0.24197501 -0.98503596 -2.139897 1.4079132 -2.487549 1.9078404 -0.59747773 0.09391048 -0.5352009 0.5725513 -1.5069846 1.5153017 -1.565094
8497 -1.0256792 -1.3058021 1.0166293 -2.2391162 -1.5987092 -1.3566209 2.8262732 0.7457434 1.6799188 -1.5822262 3.4804556 1.9649853 1.0302662 -0.18873943 -1.6500524 -2.984347
2592 -1.1356363 -1.2648728 1.1400607 -2.3756144 -1.8343455 -1.609845 2.8521354 0.5878411 1.8161261 -1.7515721 3.6868236 2.0679507 1.21814 -0.26398885 -1.7906457 -3.164906
9 -1.5531592 -3.4319885 -2.0996099 -0.4376577 -3.1939766 0.10558481 1.4064695 -2.8666012 -1.2285534 -0.13168865 -1.2725399 1.2179893 -0.719956 0.36075032 -2.136 -1.58602
10 -1.0098482 -0.67492753 -0.13483113 -0.5693732 -1.6249201 -0.3573784 0.40187684 -0.97485304 -1.1703308 0.34718126 -0.44237152 0.10357098 -0.87474465 -0.6029482 0.8165658 0.16123058
7499 -0.5791399 -0.46798855 0.56455505 -1.1226888 -1.0474216 0.1752306 1.1117246 0.40074995 0.5680008 -0.8342434 1.4883116 1.1722023 1.1105349 -0.5141617 -0.6908834 -1.7130414
98 0.45631218 -1.0550563 -0.73118114 1.5073125 -0.38826016 -1.091732 2.464837 -0.17335461 -0.7658584 0.1649612 0.9221957 0.73092324 -0.09715179 -0.57051045 1.3063798 -1.4329469
7 0.89820856 -1.6987495 0.20991959 -1.2020968 -2.2088714 -1.0674438 -0.14055853 -0.17317984 -0.0418769 4.114451 -0.36220276 1.4040186 -3.4389484 -0.90662766 -0.6505726 -1.3685055
10976 1.2851858 0.820446 -0.22514181 -2.0022829 0.33929652 -0.8204603 0.9348624 -1.9060502 -1.1697221 1.5114936 1.710844 0.5439283 -0.21719934 0.7519008 -1.8112007 -1.8943383
1821 0.7361291 -2.484791 0.09126821 -1.3692508 -2.0032196 -1.2521576 0.13082707 -0.014140088 0.20355703 4.982649 0.2076041 1.9746091 -3.4106083 -1.8688201 0.47617725 -1.7928867
11534 -0.23912607 -0.09968197 0.24942869 -3.897998 1.364562 -1.9700143 2.7070234 -1.5181662 -1.7541207 2.960516 3.6938088 0.7313466 -1.4160908 -0.5325575 -2.4427917 -3.769005
3638 -0.7999662 -0.15695275 0.4340441 -2.2363217 -0.005512464 0.15885566 1.2999651 -0.430193 0.61834896 0.21011378 0.8283797 0.742658 0.34838867 -0.3758229 -0.7336809 -1.4713856
8437 1.1102184 -1.0853492 1.0471878 -0.60557383 0.2584905 -1.9813844 2.1216779 -0.9724645 -0.4714881 -0.7813756 0.17389736 2.6223645 -1.3016974 1.1129125 0.81245756 -0.2523602
3161 -0.563686 -0.42518142 0.42542052 -1.5310142 -1.0825343 0.22681037 1.2171737 0.6244494 0.530584 -0.71863055 1.4325832 1.1883107 1.1341999 -0.5963113 -0.73852456 -1.8448733
41 -0.6524578 0.47848964 0.5012919 0.79273695 -0.45478085 -1.796762 1.4214284 -0.46367332 0.023929128 -0.018574605 0.07006765 1.2552626 -0.7072314 0.71193796 0.7190792 -1.2184389
7275 -0.7600738 -1.3652697 0.56891614 -1.2360575 -1.8967694 -0.78506476 0.23919319 -0.58690023 -2.0378368 0.5244251 -0.9602745 0.6267633 -0.64547783 -0.52374166 1.8538971 -0.54409057
12228 -0.2114553 -2.6929264 -0.32965308 2.532414 -1.2252977 -1.688713 4.976165 0.19672607 -0.46528724 1.8825651 0.6766226 2.8641005 -1.5248586 -1.6057993 1.5345064 -0.7056584
4650 3.0406315 -0.755267 0.013275882 -0.82316536 -2.0704923 1.5715791 1.253412 -2.3419845 0.691399 0.2016943 2.534043 -1.7083417 -3.5506132 -0.64719707 -1.3302643 -2.3191073
13024 0.5214213 0.36948472 -0.8119679 0.8526803 -0.9385148 -1.1569725 0.9911373 -1.3964478 -0.39755398 0.62809 1.0301749 0.2392112 0.14604478 0.62876487 1.1246519 -1.3922964
45 1.9986556 -1.2350194 1.7772508 -0.18310659 -1.3132565 4.402633 0.8589312 -1.7672579 -2.0739222 -2.298049 1.3842554 -0.9394546 -3.9664087 -2.6335397 0.098826274 -4.7058873
4305 3.033249 -0.70119894 -0.07623188 -0.87119573 -2.1722968 1.5215218 1.1375542 -2.522345 0.66468096 0.080684334 2.6140919 -1.7774252 -3.8291142 -0.63156086 -1.3098307 -2.3814623
7082 -0.32928485 0.3694603 1.0379355 -1.694809 -0.98944753 0.3039455 1.0606172 0.46379587 0.23051679 -0.4546849 0.8585681 0.3932783 0.47874004 -1.036033 -0.36062616 -0.674499
10621 -0.2372572 -0.113699764 -0.9634624 0.34453076 -0.932347 -1.1586205 3.0514605 -1.1960274 0.62259537 -0.32516178 0.9573824 -1.3814241 0.83566403 -0.68913937 1.6063172 -1.6834474
1365 -1.1273165 -0.88857204 -0.1041934 -0.74870026 -1.7781308 -0.49613208 0.40946394 -1.3797188 -0.95323247 0.38146478 -0.49536535 -0.057373058 -0.8339646 -0.67540586 0.76822793 0.22872585
6701 -0.4329326 -1.7661014 0.62277186 -0.7791706 -0.8158277 0.36140072 0.71441334 -1.067887 -1.4742584 0.66011274 -0.1252343 0.4918994 -0.3210632 -0.6960345 0.97575456 -0.09948433
7071 3.0252557 -1.7772535 1.8685322 -2.117054 -0.7910383 -5.3204675 4.6390023 -1.6315104 -1.3694837 -3.5996444 -0.20724317 4.9546037 -2.1711214 0.9677056 1.3036033 -0.5293154
2639 2.7694013 -1.3406683 1.3425704 -0.9445726 -1.4591324 4.7351766 0.69837165 -1.55917 -2.646104 -2.016293 2.1619074 -1.112588 -3.531952 -2.657538 -0.45708486 -4.8577976
7641 1.9920359 -0.40385753 2.434268 -3.317291 -2.1675732 -1.5942147 0.8410477 -0.023657441 -0.0623968 -0.47624624 1.6155732 -1.9388934 -2.1917946 2.1609704 1.8687544 -2.8350863
162 2.1831234 -0.56190884 1.9957933 -3.3633425 -2.1515725 -1.2173692 0.7462518 0.17092502 -0.416202 -0.62938154 1.5929264 -1.8650682 -2.1907191 1.8353822 2.1603959 -2.7853014
81 -0.28242737 1.7828927 0.11854399 -0.2264255 -2.1593108 -0.9071637 3.4555056 -2.0174825 1.1027806 -0.11824326 3.083598 -1.7011479 1.6173872 0.24923232 2.4278464 -2.5843766
8037 0.5371263 -1.7035258 -0.38475704 1.0034786 -0.3576243 -0.30873945 4.00481 -0.1470472 -0.64955217 0.61483926 0.5774795 2.290977 -1.0086553 -0.05871108 1.305599 -0.6335419
1366 -0.85610056 -1.6124153 -0.3525445 -0.99544454 -0.7770365 -0.10982662 0.38204825 -1.6622318 -0.8637739 0.4835878 -0.05856787 -0.4026506 -0.40006062 -0.034113925 0.21374835 -0.28731698
1728 -0.45574272 -0.67002237 2.3808067 0.03509144 -1.9374856 0.49238607 0.53164953 -0.84519523 1.6732811 0.23015898 1.9291846 1.3924417 -0.4299712 -1.3595145 1.241045 -0.41962805
11362 -0.74114007 0.55402166 0.63174266 0.936925 -0.8054891 -2.593519 2.9649029 -0.6742011 -0.7240126 -1.2022693 0.20445068 1.8833033 -1.1358812 0.6161465 1.3544204 -1.8040684
5468 -0.5397746 -1.645536 0.30228686 0.47360477 -1.499878 -1.2717899 -0.90315497 -0.5086831 -0.58328044 0.108120106 -0.5159789 -0.047538225 0.026720641 -0.74261445 -0.74518335 -1.9508067
12669 0.24954621 0.05552602 -0.4833045 0.54848164 -0.31330743 -1.0145627 0.97796875 -0.9713026 -0.3479603 0.34598845 0.8150808 -0.17333756 -0.1541765 0.16814533 1.1476586 -1.1338052
8613 1.6360909 2.6555657 -0.047586605 -1.5846018 -2.7021258 -1.2531211 -0.15676491 0.88169456 -1.6354784 0.37763825 -1.0732955 2.209123 0.13625863 -1.2721121 -1.1001388 -2.4251184
4101 -0.3518299 0.95254177 0.58984804 -0.09953668 0.9670177 -0.5727526 0.29859126 -2.013877 -0.5049537 1.6710144 -0.21485823 0.90186733 -0.58396363 -0.9660506 -0.49627888 -2.7700036
1067 0.09631345 -2.7758403 0.7031031 -0.7317556 -1.7105515 -1.1372863 0.22132027 -0.6850538 -0.6184495 0.21890227 -0.47486296 0.04877192 1.5375069 1.8679752 -0.61352324 -0.91770685
1869 -0.78845745 -2.349881 0.85294217 -1.6456702 -1.1056862 -1.293927 0.32174402 -0.49044695 -1.374008 0.75719744 -1.3260509 0.99738795 -0.97602355 -1.002119 1.9041753 -1.0002971
7462 0.009501261 0.047601238 0.70962316 -1.1387272 -1.1587802 -0.31093326 2.0815613 0.11484208 1.2980775 -0.6681417 1.6117642 0.88272333 1.3331871 -0.28393903 -1.5483961 -2.0339391
1533 -1.3129622 -0.029132208 0.63781726 -1.6445018 -1.5066171 -0.59318256 1.2230208 0.77696335 1.1591487 -1.2403046 1.3438715 1.4053224 0.6593598 -0.9447943 -0.928457 -2.1768398
11751 0.6365192 -0.78853595 1.2571735 -0.47495547 -0.95802 -2.6333785 2.198303 -0.32343182 -0.9225939 -2.251976 -0.3570551 2.2240374 -0.73772866 0.7252253 1.0217195 -0.5729755
10924 -0.38633257 0.4491622 0.084378764 0.72253954 -0.7036713 -1.9666644 2.438655 -0.88907975 -0.6988156 -1.2637935 0.4336056 2.2086926 -1.3492455 0.80370283 1.1118729 -1.4163349
4938 1.267801 -0.64095247 -0.89219314 1.2264526 -0.60102636 -1.0917524 1.5046803 -0.16802284 -0.53831095 -0.28299385 0.6933382 0.40187705 0.18863107 -0.09223285 1.5919181 -1.9957421
5433 2.649525 0.9958199 0.3526396 -1.112132 -2.5511649 -0.5261479 2.635632 -2.8651035 -0.41965383 -1.4870445 0.55760235 -2.0974145 -2.9424427 -0.6981056 -1.2471865 -0.45344865
27 0.5049958 -0.63626635 3.313319 -0.20532174 -1.3687117 -0.7106263 -1.0125724 -3.2792213 1.7126046 -0.92192584 2.395046 1.0327675 1.2906276 -0.5110189 0.47895905 -1.9472058
16 1.5014843 -1.3413717 1.4822786 0.81390345 -2.0260413 0.42263356 -1.1592928 -1.3826846 -0.8000167 0.35163838 1.6150709 1.1199468 -2.3874743 -2.981306 -1.227878 -1.5750217
953 2.2156034 1.4058081 0.67269653 -1.8856399 -2.0626326 -0.53432035 2.93552 -2.0577695 0.58430636 -1.5789222 0.3953023 -2.040742 -3.1493132 -0.99193066 -1.4842151 -1.0783854
10708 1.1767948 -2.3329248 0.3146312 -1.7428234 -0.9140065 0.31563625 1.8506166 1.2123816 -2.669192 0.50477505 1.7191274 -0.6024958 0.54031086 -1.8891011 -1.1979345 -1.2913355
747 2.7908015 -0.21891351 2.2349439 -0.6990115 -2.5723188 -2.0804062 -0.8112886 -1.0287764 -2.94945 -1.1149737 0.43429804 1.1924917 1.6341227 -1.3031042 0.6507803 -1.7075073
12732 0.61600757 -1.76009 5.992343 -0.51375276 -3.3766994 0.16780195 0.0044822856 -3.2075737 3.6847396 -0.9943959 2.9445648 1.2158545 -0.89601636 -2.0933983 0.40127662 -1.4587189
12064 0.6750412 0.21430248 -0.878738 0.35957962 -1.746707 -0.12744685 2.073295 -0.8725159 -0.73575073 0.8468849 1.1454581 0.23989105 -0.030143352 0.36742502 1.3519644 -0.02523149
3529 -0.1191033 0.9286294 -1.2261251 0.2930599 -0.9524884 -1.3871573 0.37005067 -1.5976632 0.27273023 -0.86325556 0.88026667 1.5358126 -0.8535396 0.7882115 1.1763649 -2.260382
11070 -0.15248585 0.7417323 0.71598506 -0.25691792 0.9454412 -0.53798974 0.12938699 -2.2248657 -1.1773072 2.1783006 -0.10714828 0.94217616 -0.6456946 -0.6201202 -0.36021045 -2.5704205
386 -0.6058455 0.18248446 0.803924 -2.500469 -2.8437726 0.13876744 0.49677876 0.1576646 -0.04219877 0.08183907 -1.649743 0.7070368 0.05320119 0.7206985 1.2865415 -0.42199984
12859 1.7956927 0.31483617 -1.2873006 0.30922762 -0.38776374 -0.8815716 1.0630637 -1.5666809 0.4551479 -0.30315828 0.21192035 0.18765019 0.41527352 -0.3219932 1.2720838 -2.1415956
5257 0.95277566 2.205326 -0.028487938 0.003995958 -4.5224323 -0.47251973 1.5946854 1.3637992 -1.3023068 1.2680582 -1.1613748 3.4968312 0.63576007 -3.368393 -1.8297367 -3.0444908
4012 0.79820234 -0.7282798 -0.46576998 1.2221047 -0.45959693 -1.5543685 2.2204785 -1.490347 -0.56631577 -0.42845723 0.8672841 1.2941625 -1.540881 0.94553804 0.7383837 -1.2881992
5272 0.62376946 0.28074485 -0.23194474 0.6354499 -0.994973 -1.3329456 1.0855044 -1.9604168 -0.02038286 0.6283623 0.82206863 0.36055216 0.8558524 0.57284343 1.2228917 -0.80725574
5925 1.0580834 -0.013226773 -0.893974 0.2662572 -0.96449524 -0.71013623 1.1750134 -0.79712814 -0.26190695 0.55784994 0.35316774 -0.012888998 0.24543905 0.3592341 1.1605219 -0.6277997
57 1.2974211 0.7179606 -0.18090692 -0.21258344 -1.7029235 1.3480041 1.0397569 -0.9490344 -0.14332223 1.1831442 0.50956184 -0.7499921 -0.97135735 0.4105892 -1.000439 -1.8728414
1430 -0.36582762 -1.94255 0.89197767 -0.67972857 -0.2885851 0.4600157 0.85728085 -1.358969 -1.1311907 0.24848804 -0.07511802 0.5051573 -0.37179735 -0.4169546 0.8956938 -0.16385381
4077 -0.18069729 -2.187257 0.81793946 -1.3527398 -0.59144276 0.8065012 0.6366444 -1.1785107 -1.8138438 0.30070698 -0.31584746 0.9320508 -0.18277223 -1.5750465 1.1548456 -0.4370723
6471 1.7197385 -2.384414 1.116323 -2.7374895 -1.3367418 -1.3322853 3.3386133 1.4256631 -3.5140834 -0.65827405 1.3463006 -0.62862736 0.3710101 -1.288055 -1.1324929 -1.2845494
3668 -1.2712578 0.6852275 0.1086736 -2.132235 -2.0155325 0.23402305 1.4226174 0.10515312 -2.31204 -0.2298312 -1.108299 -0.21703586 -0.9538503 0.2787818 1.3047844 -0.6408532
5961 -0.47949985 1.6947609 1.4325889 -1.8622733 -2.1730175 -0.26210803 0.8376974 0.7151527 -0.7898253 -2.1236296 2.0707598 0.4531948 -0.30091846 0.13325685 -0.53948694 -0.5574674
11162 2.081561 -0.71935844 1.8448125 -1.1767802 -2.2332213 -3.760897 0.19215368 -1.3381705 -3.6847317 -1.1845324 1.0809058 0.15803482 0.64528435 -2.4542067 0.17025457 -1.0783368
6575 -0.31205693 1.4391483 1.219352 -2.008461 -2.4967554 -0.42240366 0.46199742 0.4845036 -0.5283941 -2.2071085 1.796476 0.269561 0.5229512 -0.0144228395 -0.8335621 -0.6427749
516 1.984961 -0.8256391 1.0100057 0.22986189 -2.0665019 0.49412966 -1.1496449 -0.9416123 -1.5963815 -0.057899486 2.1612914 0.35846275 -2.8403358 -2.553192 -1.5982386 -2.2127342
8925 -1.1978621 -1.2153306 2.6603835 0.7319518 -1.762832 0.33944234 1.3845335 -1.1104252 2.32193 0.0582597 1.7067245 0.8404328 -0.71709543 -1.1198727 1.3528613 -1.0008919
1833 -0.84986717 -0.75765413 3.0259902 0.3143284 -2.250261 0.09393554 0.5716197 -0.80339265 2.1831806 0.5123976 1.7506601 1.6761286 -0.34529695 -1.5739353 1.3589578 -1.0314133
2038 -1.3960615 -0.626858 -0.36778802 -0.70033264 -1.2738695 -0.23751138 1.0719016 -2.3006585 -0.19402531 -0.017789703 -1.3946153 0.19942671 -0.48745695 -0.0042207995 -0.45134184 -0.36854106
11617 -0.7313478 -1.0101303 -1.0132928 -0.6556661 -2.363468 0.61924034 0.5690339 -2.3670723 -0.4771153 -0.1099028 -1.4792281 0.38584402 0.060037695 0.37108168 -0.80586755 -0.6386169
11081 0.9102855 -0.46517628 0.45163792 -2.6906269 1.4430746 -0.84329486 2.2535324 -0.7362149 -0.2648133 2.6395178 1.9844809 0.48300114 -0.8411627 -0.8791015 -1.405773 -1.9444914
5083 0.40791535 0.8595155 0.28471336 -2.9064627 1.1962314 -0.99467504 1.7752268 -1.7482284 -0.26683286 1.0855994 1.4165365 1.0341846 -0.36108094 -0.64204395 -0.5829647 -2.4243429
9868 1.2975328 1.31094 0.24243847 -1.8312249 1.3815771 -0.31623527 1.9787925 -2.2456586 -0.98765707 0.9257692 0.84762615 0.85621685 0.38376418 -0.3400054 -1.4885149 -3.875654
772 2.799709 -0.6779811 3.427784 -0.13977426 -1.7862344 0.22821276 3.3496144 -1.8101436 0.109440476 -3.5994573 0.6359381 1.1391301 -3.4160948 -3.5205889 -0.045990966 -0.6512144
10623 0.5311747 0.8528256 0.6937099 -1.0518798 -0.4203373 -0.344813 0.6017636 -0.82257706 -0.35271022 0.7476152 -0.16747697 0.94106156 0.63673663 0.39939868 -0.8218802 -0.8479715
5249 -0.7377054 -1.9556088 0.5171428 -1.1116734 -1.4149452 0.17865852 0.19797553 -0.4997173 0.14280619 0.07349053 -0.69160515 0.30475798 -1.4428977 0.9243913 -1.0139225 -0.6115259
2921 2.717676 -0.9782996 3.1224556 -0.008586128 -1.3577712 -0.22267683 3.4714153 -2.1112564 0.38535628 -3.6881151 0.6256228 0.9349826 -3.5415072 -3.827277 0.32866806 -0.63066334
6642 0.949676 -1.4444684 0.5182639 -1.2180471 -0.19476157 1.3902853 0.23433022 -0.3917709 -0.7309251 2.4111154 -0.6171831 1.0976398 -0.86314756 -1.7316617 1.5558103 -1.4378053
1545 -0.16290927 0.0468581 0.5785313 -2.978621 -3.2401597 0.11507356 0.4232749 -0.062042553 0.033270728 0.47672027 -1.8576018 1.0440135 0.37099153 0.8968144 1.6141706 -0.37793407
8074 -1.2836673 -0.32577327 0.9398377 -2.1390016 -2.3063526 -0.07807955 0.041003376 -0.14096142 1.3126535 0.102571465 -1.2810929 0.5904991 -0.67309344 0.25629354 -1.0202821 -0.5882825
3113 -0.97331375 -0.9627836 0.1422735 -1.0065011 -1.1486219 -0.28264686 0.8970576 -2.2689362 -0.26090044 -0.4388148 -1.0819548 0.30810595 -0.5420378 0.5434994 -0.6921836 -0.03641657
13070 -0.85450834 1.2484176 -1.1164939 0.18259035 -1.8038013 -2.127301 0.7124141 -1.3119951 0.064865775 -1.1317923 1.4961529 1.0838315 -1.9417051 0.96534616 1.2579467 -1.6505364
9462 0.47861233 -0.6223234 2.593632 -0.9293116 -0.053408243 -2.3484485 2.9564102 -1.2508309 -1.6556311 -2.1058714 -0.15881047 1.1643862 -1.507938 0.3219416 1.5244055 -0.49745494
9651 1.491459 0.35164866 -1.1380948 0.64886487 -1.1595975 -0.6391034 0.21230492 -1.78577 0.8213802 -0.043840084 0.3301313 0.97985584 0.8612842 0.030468903 2.0652235 -2.8537662
5935 -1.0533799 -1.7937968 0.6060221 0.81613606 -1.1231878 -0.93719035 -0.51417625 -0.9835863 -0.5859788 -0.28149655 -0.54490864 -0.1758327 -0.25863278 -0.7716747 -0.48246703 -2.1351352
3953 1.5933267 -0.43477237 -1.8128487 -0.47627953 -1.3560877 -1.4625344 2.1519656 0.38113558 0.9811873 -1.0863705 -0.5019974 -0.42691848 -0.35008094 -1.0686616 1.7928716 -1.7444273
7998 -0.6944703 0.92782843 0.8087763 -0.35088375 0.98871404 -0.4743269 0.74043405 -2.4759026 -0.52644515 1.6133097 0.33458647 0.8920044 -0.28865567 -1.5463028 -0.7339875 -2.571724
11549 -0.6622589 1.0738845 1.136023 -1.1105547 1.5626551 -1.966311 1.3911211 -1.8582479 0.31815645 1.3081506 0.25834697 0.7876291 -0.9281256 -1.0611101 -1.2161385 -3.3186705
5 0.12274023 0.53605145 1.479494 -1.4330596 -0.67164916 0.79952365 1.2520144 -0.8131483 1.0883151 0.5554626 0.21509388 0.48807782 0.47763073 -2.7263694 0.8328484 -0.65400046
3200 2.2152689 -0.50693494 2.9257102 -1.0283527 -2.8131351 -0.01933186 3.4874475 -3.384147 -1.2961855 0.7030592 0.04502852 -1.0709666 -2.0276518 -0.29894328 -1.4493337 1.1799202
26 1.7786105 0.5262029 -0.38542163 0.5766409 -2.3639598 0.16074772 2.2666364 -0.7499106 -1.0746169 0.7122781 0.10956404 -2.0948544 0.20650831 -1.0278927 -1.6197793 -2.3507483
35 1.2089206 0.11056062 0.6185787 0.67703605 -1.7319279 -0.96299225 1.7951783 -0.8082756 0.40302986 1.5317403 0.7944926 0.5675746 0.5921346 1.0673289 1.2790569 -0.17781556
5518 -2.048772 0.2013696 0.8556505 -1.3028134 -1.1381816 0.34895736 1.2253954 -2.5541472 -1.0106833 -0.3932964 -0.8532653 -1.1617764 -0.34297636 -0.6554475 0.15141542 -0.40417477
4238 -0.3571607 -0.0954238 -0.860404 0.016102543 -2.175976 -0.40263638 2.613844 -0.31978202 -0.87574875 1.690079 -0.85127145 -1.8342133 1.9893392 -2.715635 -0.48522335 -2.4627302
1351 -0.27672538 -2.6156046 0.2871864 -1.3230854 -0.813177 1.3154719 0.362435 -2.0216877 -1.1069596 0.6730853 0.691262 0.7741241 -0.7807951 0.5759773 1.1047002 -0.29874024
8717 0.26813543 -0.066187896 -0.71596575 -0.118479036 -1.9095886 -0.7896543 2.6863499 -2.0224037 0.026578318 1.4085536 1.7746011 0.748212 -0.5500762 1.1388249 1.7414904 0.6467754
11765 0.9612376 0.09778651 -0.60697407 0.32827908 -1.8076177 -0.810896 2.4752624 -2.240652 -0.05825504 1.8759364 2.1562226 -0.24336942 -0.09205453 1.2877088 1.2701653 -0.039622594
12632 1.4617388 0.17536101 0.46829098 0.19083071 -2.0078003 -1.8086046 2.896515 -2.731987 0.20326142 1.902548 2.190788 1.2489653 -0.2773366 2.099902 1.4999008 0.26893446
11899 1.5501542 0.38713643 0.4578374 0.8104245 -2.4489837 -1.5745449 2.510166 -2.1148083 0.20326766 1.7659949 1.1619375 0.30786002 0.2520449 1.3584949 1.2838963 0.33496332
10893 -0.114374824 -2.7407458 -0.5961727 2.4548163 -1.6585718 -1.4110196 4.930648 0.48704773 -0.75683796 0.72168136 0.8262745 2.6509387 -1.8900928 -1.5244567 1.5536647 -0.73039156
8655 1.3133082 -0.6594122 -0.7670909 0.55398905 0.04890579 0.46112004 3.7652256 -0.7306126 -0.6004942 -0.22853997 0.30100393 2.607113 -0.58989495 0.43754536 1.0970259 -1.0784656
6264 2.4183462 -1.0252591 0.60688037 -1.1520311 -3.5163202 0.6488156 1.4276562 -1.19942 -0.8880003 1.7394692 -0.16717906 -2.2662187 -1.1423844 -1.0858749 -1.7539967 0.18955475
3777 3.8423276 0.40340197 1.886738 -0.81987464 -2.3512578 -0.2165222 4.444024 0.9472888 -2.129765 -2.201532 -0.13313669 -0.5831282 1.1519126 -1.853405 -2.4549203 -3.5261137
4404 0.7655731 -3.323616 1.2215122 -1.2996209 -1.4235673 0.40318617 0.8247201 -1.6082284 -1.2216842 0.5105477 -0.2993363 -0.42735946 0.7504919 2.4101622 -0.4982943 -0.6889058
4581 -0.39684203 -2.3567946 -0.063159384 1.6923152 -2.286504 -2.1191993 0.25729334 -1.1573936 -0.9454314 0.6256714 -0.9792041 -0.1905781 0.8004935 -0.81820154 -0.8734278 -2.4078043
8225 -0.082454234 -1.6253676 0.6828457 0.9790634 -1.6219257 -1.7308105 -1.3233434 -0.864934 -0.084152505 -0.30348045 -0.87527204 0.22968566 0.0158987 -1.1192862 -0.8057767 -2.6891692
397 -1.06384 -2.294837 -0.7101121 1.6931174 -2.5490217 -0.8064621 0.5217258 0.4853432 -0.9273625 1.2798927 -0.5001142 0.5403852 0.5160564 0.76399916 -1.6366043 -2.6844196
5449 -0.70414305 -2.0958054 -0.26153496 1.4218458 -1.4004189 -1.7099255 0.65423113 -0.52463007 -1.9556861 0.46878353 -1.1874202 0.38985214 0.92935264 -0.45515215 -1.3370764 -3.0904279
3067 -1.1633719 -2.053958 -0.18558644 1.5710226 -2.0958712 -1.6474959 0.461488 -0.13679567 -0.63449574 1.143653 -0.6299123 0.41916218 -0.30751237 0.5891135 -2.031845 -2.3459115
10217 -1.180335 0.66498107 0.26138645 -1.9053587 -2.231591 -0.15873948 1.1263554 -0.17076607 -2.323997 -0.017372571 -1.154327 0.5712166 -1.4837738 0.44481853 1.3066998 -0.26998433
9323 -0.6929761 -1.7066633 0.6660415 -1.1629794 -1.5107834 -0.04306877 0.29213583 -1.0036741 1.1715028 -0.6431305 -1.7727818 0.9357114 -1.5737097 0.9551083 -1.0425353 -1.0180607
930 1.8017648 2.2499192 0.9863713 -1.2417145 -3.3617125 0.12445626 2.103545 0.79582924 -1.1027648 0.47393724 -1.1080935 2.86034 0.72397983 -2.833572 -1.5245904 -1.7691158
6628 0.32161328 0.2716959 0.6956769 -2.002713 -0.8362585 0.7605478 1.5213449 0.36099795 1.2398353 -0.5344025 0.020963117 0.3019054 0.6492031 -2.4935193 0.14079694 -0.90775543
4774 1.5656565 0.3401438 -0.16063634 0.20556818 -2.516161 1.6146795 0.5797748 -1.0534178 0.5191377 1.2681009 1.6141196 -0.39477178 -2.0746722 -0.35282502 -0.8020366 -1.7602826
8931 -1.3918308 -1.2688257 1.2019769 -0.47716838 -1.5871291 0.8409935 0.670729 -0.8938629 0.2093238 -0.7384365 -0.88309044 0.6389922 -2.4959593 1.5843642 -0.37527633 -0.8659772
758 0.6031399 3.0797176 -0.4086894 -1.4806322 -3.9058352 0.4726013 1.373666 -1.24963 -1.0015385 -4.861341 1.2741916 -0.1293774 -3.4145281 0.17391112 -1.8145655 -2.754476
5875 0.796933 3.0002594 -0.3019669 -1.5963911 -3.7657144 0.33679157 1.383201 -1.3690445 -0.8432772 -4.956181 1.151428 -0.0132919345 -3.4995112 0.043987837 -1.9770683 -2.9176505
3891 0.28599763 1.9530333 0.016687812 -2.5748167 -0.98393697 -0.63815874 0.19958256 -1.4308095 -0.9466804 0.105902866 0.20846292 1.1325046 0.08339167 -0.45402032 -1.6398697 -1.6688012
5783 2.8994372 0.090473495 2.3185067 -0.24360897 -2.1491423 -0.6818444 3.9859445 0.8934587 -2.6613054 -2.2259922 0.3606115 -1.1977597 0.85012937 -1.8422972 -2.8409853 -3.5690527
10461 0.24940294 -3.677774 0.9732089 -0.74282473 -1.8544656 0.1036269 0.46424285 -1.2401243 -1.080315 -0.068438716 0.13730267 -0.9277626 1.2100177 2.5775058 -0.2869816 -1.2277671
943 2.199923 -1.3297935 4.2720895 -0.6777588 -2.205145 -0.71193075 3.8479433 -3.3673842 -1.775266 1.3060265 -0.24990472 -1.4832368 -1.1762378 -0.7397998 -1.601297 0.6074879
5580 0.74971956 -0.9499573 1.0603558 -1.837497 -2.5127027 -0.41452754 0.080736324 0.08757126 -1.5243634 -0.35230437 -1.0387236 -1.8112984 -0.21662566 0.82954764 3.7855253 -4.432351
152 0.48531732 -1.2581998 1.5261488 -2.0097063 -2.2359583 0.095665276 1.8294196 1.6489788 0.549794 0.5843386 -0.36051375 -1.4956162 -1.5550486 1.4235789 2.2225223 -3.9714346
4678 1.672467 1.7498479 1.227884 0.60762274 -1.1182334 -0.9445207 2.7537115 -1.2083671 0.85443544 0.97359025 0.56020474 -0.08009756 1.3973728 0.55487174 0.8694186 -1.3750309
2936 -0.22981201 -0.15555182 0.23580794 -2.0926354 -3.7882342 0.37133497 0.72372997 -0.051956866 1.7731879 0.34000325 -2.3444445 1.0242382 1.1792096 1.2478073 0.35581663 -1.1707772
4161 -0.7360447 0.08962874 1.1073174 -2.683761 -2.7453165 0.059320576 1.058847 -0.20265648 -1.2191877 0.7661396 -2.0911696 1.8302311 1.0184554 -0.012661277 1.4775643 -0.39087823
13058 0.47029272 0.80663997 1.4545522 -1.0225146 -1.3413038 0.60886115 1.2222006 -1.8640239 1.9790804 1.1077561 -0.3893565 2.1991012 -0.04286156 -2.3050046 1.7538166 -0.69808203
1809 -0.32403377 -0.35676914 2.1332476 -0.26822424 -2.0710435 0.2613294 0.27129975 -2.0061078 1.6904057 0.4838113 1.7350539 2.4400976 -0.48894882 -1.6487397 1.8474873 -0.38742206
34 0.13579273 -2.5811608 0.86208284 -0.7520756 -2.939581 0.9601909 1.7355596 1.1470338 2.4294927 1.0509983 1.6360561 -2.032256 -0.89667124 -0.43659732 0.6596173 -2.849056
6752 2.2344763 0.842767 0.8489697 0.55598503 -1.4898238 -1.5189116 2.8477333 -0.90543914 0.38278943 1.1651169 0.6362422 -0.53594065 1.1110008 0.31549343 1.6486874 -0.68323815
468 2.0197353 0.6119019 -0.5486661 -0.70036024 -1.8567009 1.9874347 0.7569693 -1.1872483 -0.2576557 1.1630927 0.27300763 -0.12719233 -0.8571313 -0.19615766 -1.404286 -2.26051
1936 -1.8960352 -1.0500977 1.9287649 -1.0108495 -1.5970495 -0.40625113 0.8910252 -1.0111383 1.0740567 -0.750933 -1.2804286 -0.2795286 -2.3791244 1.1043143 -1.8063917 -1.2690799
10531 -0.36188957 -0.6287123 0.7041179 -2.3413627 -2.823859 -0.71730816 2.026469 0.5428321 0.502162 0.29706845 -0.28639126 -3.3455608 -1.8475316 1.2294056 2.2486103 -4.0576863
13 0.7996729 -0.9590854 0.64694417 0.33614463 -3.2268016 0.14056802 2.574889 -0.67960876 0.66561294 0.8735995 -0.51036024 -2.4848819 1.2692654 -2.2545915 0.5607103 -0.27794978
6881 -0.10513732 -2.8964381 7.322396 1.8924806 -1.2308309 -0.4487769 3.8738713 -2.8569875 1.8157841 -1.257731 -2.155222 -1.2890818 -1.6073514 1.843186 -0.8478808 -5.231124
6875 0.7593057 -0.8706266 1.2900845 -1.6768875 -2.0459726 0.029900033 0.19857837 -1.1732196 -1.4296327 -0.13197301 -0.62293875 -2.3334632 -0.88450223 0.4982735 4.3191743 -4.865059
3 0.2310974 0.48576134 3.4212968 0.10418078 -4.947402 1.5466803 3.7603688 -0.2984838 -0.047741625 2.8032737 -1.8543278 -1.9731317 0.15729126 -2.0969381 0.516541 -0.89308554
517 0.2901372 -0.8520234 0.5012532 0.006689028 -0.7323733 2.6780953 0.5274032 -1.582481 -1.0245556 -1.3029691 0.45525208 -0.74816924 -1.9118153 -1.6314194 0.16696605 -2.8877046
11221 2.5639188 1.186493 0.23944622 -2.1679797 -1.5327435 -0.5452396 -0.049942512 -0.07949808 -0.5183585 1.4036335 -0.20937346 1.8497279 0.8501707 -0.07301473 -0.94200265 -1.4674681
2339 1.5256042 1.2107636 0.39902726 -2.674299 -0.347915 -0.43249997 1.2558054 -1.1229852 -0.17270663 0.7558588 0.3643319 1.5971942 0.21512479 0.14658453 -1.6189884 -1.437832
1963 2.0255988 1.1093894 0.29223976 -2.2309387 -0.97066855 -0.9995695 0.07219099 -0.43452471 -0.3763877 1.2678307 -0.46251157 1.6931294 0.15298392 0.04647994 -1.4633564 -1.5485617
5200 0.15520865 -0.45332208 -1.2742959 0.65867966 -2.517522 -0.014448806 3.9813392 -0.88948435 -1.7720562 2.896792 -0.5426394 -1.204284 2.3779304 -1.9335515 -1.0558218 -2.4066772
13154 1.2000902 -0.48132166 -1.706559 0.2930041 -4.2560306 1.1984453 3.9845378 -1.9910369 -1.7536361 2.0347557 1.0838243 -0.049126476 -0.996754 0.48368067 3.617607 -0.7437492
1914 1.216737 -1.3040183 0.60866696 -1.9554476 -0.27227297 1.0887983 -0.35825738 0.2191851 -0.45040587 1.2562741 -1.1501927 0.85327363 -2.2523355 -1.3349383 1.5614285 -2.3850708
2458 1.6195257 -1.4866209 1.2355976 -1.5835098 -0.25461516 0.33551896 -0.56239957 0.1970461 -0.87812257 2.7246401 -0.53267235 1.6395417 -2.0565925 -1.5858707 1.537244 -2.1942065
1526 1.7538725 -1.7168543 0.73630375 -1.578345 -0.22670677 0.4024136 -0.41519275 -0.011456129 -0.5375024 2.2898252 -1.1769751 0.31707415 -1.4991119 -1.5597177 1.1981436 -2.4334197
4053 2.113365 1.0485737 1.6021676 1.3233784 -4.1312943 -2.5574787 2.1751509 0.54548925 0.98133916 1.7345496 -1.3878622 -1.4777154 0.83874846 -3.4285743 -2.611326 -2.74176
3246 1.9656965 0.8388955 3.2183137 0.82243377 -4.443728 -1.7004256 1.0196226 -0.33547258 2.2638962 3.7795181 0.39029065 0.5078722 -2.0187528 0.8336361 -2.2232387 -1.9312509
17 0.6917611 -0.7045014 0.9573455 -1.5982342 -0.7242357 2.2288904 1.3202773 -0.14825933 1.0640227 -1.2669535 1.70145 2.3458595 0.012656099 -0.8829103 0.83259076 -0.8251249
8282 1.9548529 1.0650145 3.4089425 0.6715172 -4.9234285 -1.8603394 1.2644913 -0.12922311 2.2773054 4.0588517 -0.36024797 0.8508353 -2.0738266 0.581239 -1.5713212 -1.7729601
11553 0.9916477 -0.24740085 1.3661408 -1.0854818 1.067198 0.22908086 0.32530078 -2.7044609 -0.92114717 2.0952773 -0.3742709 1.3255968 0.4540542 0.8776717 -0.4327349 -2.4462743
29 1.7823954 0.2622157 0.7457489 0.377473 -5.036208 0.7272387 1.7579343 -1.7508664 -0.82970536 1.522314 -0.64686286 -2.799661 -0.6510475 0.22846895 -0.59599084 -1.02834
1 1.1646413 3.7223163 1.8409307 -0.92497903 -1.473411 -0.42362687 2.3369813 -1.6570295 -1.685945 0.007625912 1.0537539 0.15878454 -0.68158066 -0.35073796 -1.0083077 -0.9029533
997 0.25891748 1.3841842 3.5881443 1.1080018 -5.798174 1.4413222 2.5540485 -1.6998798 -0.17607068 3.4696527 -0.66616124 -1.3411509 0.70985526 -1.5073845 1.535754 -1.9425777
837 1.3163755 0.6427686 -0.5346053 0.2651342 -2.1955092 0.76359195 1.46784 -0.5366824 -0.8142685 1.7850974 0.5365273 -1.342135 -1.0449346 0.41995296 -1.0112499 -2.5442765
4146 0.9185347 0.08266426 -0.9296478 0.71157867 -3.9033356 0.35849965 4.232482 -1.6551532 -2.2517743 0.65556544 0.7766558 0.18646552 -0.53242713 0.7384847 3.083819 -0.17401853
2460 2.5269275 1.243887 0.9810857 2.198967 -4.5914536 -2.7892406 3.1672883 1.0608042 0.9484122 2.4718785 -1.1975284 -0.49440843 0.4905317 -4.530155 -3.2418227 -3.9953017
12106 2.073056 -2.5845728 0.7509511 -1.8793868 -0.58561856 -0.11519051 2.4027598 0.69255966 -3.2829487 0.15498163 1.1635513 -0.7164254 0.07376274 -0.8747309 -1.1510378 -1.086155
4084 0.98641014 -0.5085498 1.0663971 0.9043611 -1.5041164 0.42689133 0.7448134 0.35385013 -0.23330937 0.30032694 -0.060369607 -1.0100782 -0.651669 -1.5842885 0.3026909 -1.4989793
1716 -0.19112149 -2.3818521 6.3699074 1.5185357 -0.9238266 -0.11722325 3.0760262 -3.1329794 1.057836 -1.3898208 -1.876614 -0.23934038 -1.2692277 1.3623198 -0.7037987 -4.277467
1520 -0.27936175 -1.5384352 1.0017891 0.07839265 -2.2610803 -1.6020375 -1.4613532 -0.19386894 -0.26438946 -0.53741586 -1.1154749 -0.36382806 0.16640589 -0.16975495 -1.126961 -3.2455049
1343 -0.21197094 0.9113888 -0.49497324 -0.15375292 -1.8227173 -0.056540713 3.0043907 -1.4749569 0.37490004 -0.088609435 2.7775266 -1.3882736 1.5548626 0.6162653 1.5995837 -2.2866747
13267 -1.5853457 -0.030593144 1.2530649 -1.4105401 -1.1944185 0.40656906 1.5615087 -3.26107 -0.84345496 0.16776511 -0.93255913 -1.9626477 0.8778368 -0.47195247 0.098989815 -0.43691346
1542 1.063505 -1.1051997 2.3106148 0.94535136 -1.6171335 -0.05092138 -0.99297607 -2.3531146 -0.78920245 -0.17475131 1.9044667 0.33565104 -2.1179862 -2.3527853 -1.035363 -1.3515189
2382 0.058158945 -0.02124924 2.026096 0.3467881 -1.9841312 0.5548451 -1.1824493 -2.0243654 0.5158145 -1.3634881 1.3734419 1.6686919 1.5536476 0.1890542 -0.7361666 -2.2296984
3781 -0.06652923 0.3156883 2.476573 1.2692605 -2.172568 0.6949467 2.218276 0.5808482 0.84702325 0.02481136 0.564191 1.6184868 -2.6737618 -1.6885676 -0.11557328 -0.88338834
6246 -1.7690759 -3.2450805 0.8636608 -0.63837284 -3.2181532 0.9063003 1.9495004 -0.33810204 3.4363794 0.26551193 1.667488 -1.2132124 -0.9197242 0.6263208 0.16361333 -2.906775
1970 0.49141482 -0.5894487 0.5114453 -1.4124609 -0.95677555 2.4475927 1.0476754 0.44513333 0.78785974 -0.8658037 1.3817168 2.7431812 0.052519448 -1.2771573 1.1451458 -1.0742316
5001 -0.19887112 -2.5667076 0.933737 -1.3967197 -0.79779094 2.211962 0.41359165 -2.161626 -1.4741093 0.9502263 0.92687887 0.8881326 0.12470994 1.1047151 1.1171356 -0.6464026
3019 0.79552686 -0.6509475 0.8883816 -1.8424349 -0.9797242 2.4356153 1.6096674 0.37799993 1.202778 -0.70892584 1.755467 2.9059994 0.51265055 -0.8397119 0.5601616 -0.97532433
2081 2.0583515 -1.1368856 0.38058925 -0.81847596 -0.9198605 -0.30556783 0.7165996 0.30399215 0.8993713 2.1688156 0.73275435 1.3781651 -2.3945963 0.07429931 -1.0352771 -0.9255162
6768 0.50280446 -1.2260151 1.081578 -0.20175749 -2.2426417 -1.4020225 -1.2389494 -0.9549146 -0.34294325 -0.75028205 -1.1368908 -0.38851047 0.48899296 0.14370084 -1.0054761 -1.7423803
9238 1.4554516 1.1098987 0.31826153 0.44555423 -2.1420481 -1.0926006 2.0704699 -0.38206226 -0.73858273 1.5543389 0.2659985 -2.0854058 -0.88583094 -2.1579137 -1.7097067 -2.0122678
11954 -3.0011823 0.809878 1.8496125 -1.9529341 -1.9019628 0.5826667 1.5595361 -3.319895 -1.3501054 0.3227374 -0.7404873 -1.925266 0.18212248 -0.804017 -0.3172207 -0.8396083
9156 -2.1741617 0.17644103 0.5041356 -1.7483331 -1.9646378 0.68427795 1.4834465 -3.15925 -1.5227718 0.19949257 -0.6706974 -1.6667953 0.13291599 -0.735724 0.1158347 -0.28432977
941 -0.27158445 -0.7781465 0.7157321 0.1732992 -2.065287 -1.9802274 -1.1458383 -0.5485185 0.3456456 -0.77112883 -0.4564486 -0.44930622 -0.4049426 0.20303877 -1.7931582 -2.6966405
1469 -0.5857238 -2.7644224 6.7562304 1.9535912 -1.2163911 0.24456944 3.8589394 -2.7286284 2.085454 -0.8852647 -2.1967099 -0.9024919 -1.2030364 1.5417123 -0.438165 -5.221052
1225 1.032836 -0.34629005 0.51264143 -0.21383819 -1.394221 2.8855608 0.5854011 -0.4700574 -1.5157087 -0.2888674 0.9974573 -0.63726074 -1.0482118 -1.3851916 -0.7415314 -3.113692
7210 2.0347788 -0.91099787 1.0359459 0.034984026 -3.3127303 0.68302065 1.5829866 -1.3840585 -1.0554601 1.4106029 0.10054733 -2.0220146 -0.83217716 -0.7711401 -1.3166912 0.010493369
11913 -1.2326055 -1.8732781 2.7498438 0.57011116 -1.878872 0.39757818 2.299098 -1.804286 2.1328204 0.6508627 2.648909 1.7346232 -0.5977137 -1.6984286 1.9454544 -0.5524518
398 2.3319108 0.44694084 3.8557367 0.4731332 -3.7169583 -1.4534904 1.4093003 -0.17730008 2.5241501 2.922997 -0.5576018 0.20222402 -2.6754935 0.2921854 -1.3038568 -1.5381013
277 1.3509126 0.30671632 1.1316833 0.3248126 -6.8727274 0.7356342 2.1559367 -2.6777637 -1.2429225 2.2497013 -0.39591238 -3.6733825 -1.2507128 -0.44564575 -0.32603392 -1.0051512
2451 -1.8576679 1.202108 0.16068797 -0.41600865 -2.4981456 2.1264727 2.083868 -2.7253323 1.3085556 -0.07319599 -1.0490646 1.0649954 0.2408861 0.4525729 -0.2942054 -3.145449
4045 -1.698921 1.7903317 0.75832254 -0.5389133 -2.9731326 1.979893 2.2395618 -1.5984641 -0.26834857 -0.4909024 -0.4762843 2.0803416 -0.50145495 0.6159804 -1.0640664 -2.5224376
6238 -2.180438 -0.8823571 0.86827 -1.0146399 -1.0797805 1.9539102 1.004542 -1.2824355 1.0480946 -0.4889154 -1.3275392 1.0879472 -2.789008 0.7731678 -0.24169235 -2.229192
3733 -1.9508001 -0.041442767 0.32563913 -1.5005866 -1.5569011 0.47451416 1.4815475 0.91126084 -2.0363414 -0.6133251 -0.8677484 -0.52366024 -2.2977295 0.49027961 1.0609418 -1.6772448
4 -2.0335126 0.5678106 0.6537244 -1.5080673 -1.3332351 0.72517914 1.8322827 0.629655 -2.1641855 -1.1274726 -0.75073576 -0.5185896 -2.5136683 0.16884898 1.5858078 -1.8924811
2665 -0.5626221 2.3888059 0.7537307 -1.5830748 -2.8492918 2.6566234 3.80939 0.03997029 -2.6919763 1.0219356 -0.751485 -0.38571295 0.5721506 -0.08055637 -1.2263572 -3.9400275
2906 1.3615947 -1.0601368 0.372515 -2.105578 -1.221656 2.4044585 1.0246015 0.6379315 1.4401326 -0.43589893 1.5942234 2.9216244 -0.19646199 -1.1585015 0.8997745 -0.7773493
1355 0.3686195 -0.13957602 2.3148024 1.0194054 -1.6696283 0.55509543 2.1312745 0.3327077 0.73713636 -0.12585129 0.68779206 1.0251261 -2.2983942 -1.3983041 -0.3585557 -0.4686342
12511 2.0818994 1.022345 1.2415164 1.1195987 -0.6300132 -0.7213119 3.3784347 -0.29970902 0.3350769 1.1934098 -0.50014865 0.54604286 -0.6320367 -0.47727752 1.2388108 -0.82150114
5963 1.8781842 0.5281607 0.8222252 0.94951886 -1.1150333 -1.1412576 3.0122182 -0.68035084 0.181562 1.2798951 -0.524909 0.28336078 0.33324644 0.6017186 0.90921974 -0.51139736
4173 -1.9716343 -0.027266389 -0.25303367 0.55893505 -3.7205174 0.6739567 1.4271721 -2.7143402 -1.9076893 -0.2246837 -1.6175433 0.023297569 -0.9546663 -2.8264492 0.8561574 -0.37273058
8770 0.59642917 -0.5483359 1.1192667 0.70213526 -1.3142704 1.5422108 1.3365515 -0.4275556 -0.83415747 0.0059009655 1.2394869 -1.7030858 -0.9970801 -0.47977635 0.24448517 -1.6128082
71 0.80178213 0.545228 -0.6198722 0.099433 -1.4364735 1.0329242 1.7642537 -0.58824044 1.0829406 -0.91493565 -2.359649 1.7863715 0.8986019 -1.3047503 -0.9985357 -4.901543
8810 0.7095017 -1.082925 1.2271804 0.14370318 -1.6193979 3.669872 0.71003115 -1.4702647 -1.1228381 -2.4270883 0.934478 -0.05192548 -2.518607 -2.176944 0.4133302 -2.5695214
7398 -0.0975612 -0.24520236 1.7148381 -0.46460056 -2.0798059 0.4241636 -0.9954003 -1.3506361 0.2903683 -2.1727796 1.7282047 1.8077798 1.4727529 -0.48515648 -0.7267485 -1.9337655
4020 0.09529984 -0.03517083 2.1812413 0.0147963455 -1.7163129 0.59364426 -0.7144025 -1.9340843 0.28690895 -1.2073123 1.7071916 1.4806902 1.6442577 0.3640777 -1.2076229 -2.195564
1094 2.8282776 -2.3292162 1.2661699 1.5620488 -1.7167805 -1.597511 -0.59652346 -0.73485416 1.8112688 3.4279826 0.55464303 -0.0044060512 -0.6359452 0.65964854 0.61998725 -6.101994
992 2.0821183 -1.713028 0.30053094 0.52202207 -5.000606 0.67633474 1.2100435 -1.1543685 1.236024 -1.9532696 -2.9312692 4.252742 -2.1282814 0.7353307 0.027111422 -1.3389993
5802 2.5560691 0.6436926 -0.06139337 1.4614494 -4.219546 -1.2626379 4.396154 -2.1408772 -1.5380384 2.31613 -0.7542429 -2.8312957 2.2204192 -1.8137686 -1.1850928 -2.3179026
2 1.0028604 0.1453536 -0.009322804 -0.8453837 -3.1682167 0.96299404 2.1891654 1.7099041 -1.7589363 -0.9087685 0.36989987 0.76915205 0.30986783 0.8870067 -1.1065454 -1.7568201
2242 0.11421728 -1.8009063 2.0875127 -2.1059926 -2.0313213 0.20353943 -0.44960365 0.17915413 0.27084363 0.09304502 -1.1843332 0.90492934 -2.8692198 0.25493708 -2.1517882 -1.0328817
2041 -0.14337535 -0.19398928 -0.87945825 0.23931469 -2.5417833 -0.8778273 2.949319 -0.4200729 -1.592219 2.4611225 -0.50996876 -2.60482 1.9403801 -2.9343548 0.16669747 -3.3459473
7665 0.50356674 0.4758862 1.4956542 -1.4704483 -1.539992 -0.109476 1.6107947 0.5743446 0.39348212 -0.6189856 1.0532709 -0.8230886 1.2140807 -2.3599796 -0.58533174 -0.94036365
2008 0.26703742 0.69710994 -0.2654624 -2.080145 -3.0719879 -0.1658381 -0.11678243 1.5469927 -0.95796937 0.49616462 1.0938387 -0.7311065 -2.9223738 0.28078663 1.831072 -2.7117674
12283 -0.11163357 0.15001906 1.7339047 -0.19870436 1.1913038 -0.14521435 0.20380759 -1.9341697 -0.5011584 1.8557482 -0.23693797 0.7163266 -0.5708568 -0.21529916 -0.5669569 -3.0509157
8457 2.436938 0.78727144 1.8690151 0.8178997 -0.5494484 -0.22548006 3.0388587 -0.79760915 0.20076591 0.9189565 -0.61394596 0.89445335 -0.5250751 0.58651686 1.189613 -1.0098561
8236 2.4211147 -2.4214988 0.8785921 1.3132069 -1.6328374 -0.876742 -0.85373485 -1.5445591 1.5925065 3.9341056 0.48966143 0.01563141 -0.44726467 0.8424855 0.7877251 -6.7141094
5211 1.7365719 -0.31286865 -0.70770854 0.28415224 -2.9562857 -0.25690863 -0.2436898 -1.3024511 0.32495257 -0.7420447 2.255723 1.6589017 -2.9471633 -3.5776517 -1.8148637 -2.407241
1256 2.350693 -1.3435924 -0.03616401 0.29372716 -2.6900573 -0.20423569 -0.3715863 -1.5912842 -0.85176104 -0.70013463 2.9095867 1.732862 -3.0264924 -3.8404145 -2.0840504 -2.4877567
14 -0.13719475 -0.20339613 1.6491103 0.73143035 -0.7448174 2.4056618 1.5635254 -1.3094488 -0.97776854 -0.7319601 1.1284939 -1.3373166 -0.9604287 -0.8637227 0.061508972 -2.4845753
4528 0.5053259 0.5064679 1.3667243 -0.2673119 -1.0582806 -0.48869133 0.2533645 0.9630087 -1.0854546 0.4422001 1.0271915 -0.37627563 -1.6034061 0.30304617 0.81003875 -2.4178343
5815 -0.43546242 3.0312908 1.5086617 -0.4315975 -2.900585 2.5302694 4.2577395 -0.37185538 -2.1654248 1.4774531 -0.27073652 -0.2794106 -0.81142515 0.37847343 -0.05825218 -4.1437774
4100 0.34168452 0.46788722 -0.64385945 -0.113910854 -2.1998665 -0.44406512 1.7914352 -0.45086968 -0.6211669 -0.5383045 2.3143125 -1.0652441 0.7361186 0.6793626 1.9078896 -1.2230519
1438 0.9484785 -3.5754786 2.01549 -0.7782728 -1.9434235 0.28837955 0.5018336 -1.2229142 -0.4176828 0.31640628 0.11579788 -0.3098993 0.082295015 1.8499106 -1.0489519 -0.4821963
85 1.0687829 -1.187761 1.6633396 1.1148539 -3.8958108 -3.3816378 1.7555096 0.9695602 -1.2090542 2.1246943 1.727687 -1.9727274 -3.1900742 1.4244927 -1.5078454 -2.1096582
6737 1.436209 -0.8599892 0.92862284 0.83482414 -1.5800859 -1.2478212 -0.6102746 -2.328707 -1.2204117 0.44775435 2.9822128 0.110861935 -2.0811882 -1.1444849 -2.5495303 -1.1707736
5939 1.8745595 -2.7554135 0.1933613 -1.6770891 -0.5614592 1.0846685 1.9188372 0.5148464 -1.9376392 0.21509229 1.2000319 -0.73427093 -0.40903464 -0.57531667 -1.6770021 -1.323688
4374 0.60627186 -0.4520142 -0.27652505 -1.1581012 -3.273701 0.7290868 1.0827564 1.4037163 -1.4786494 1.6021914 2.9014041 -1.6473436 -3.0569112 -0.5221241 0.5893555 -1.9769987
11695 1.3977245 0.8748009 0.74322623 -0.02595549 -2.8480384 0.17913748 1.9312773 -2.156241 -0.5264841 -0.47477016 -0.56595474 -0.50146556 -2.1940653 0.5508197 -0.92904526 0.39924648
3905 -3.7314782 0.62206477 2.415069 2.032114 -3.750031 0.37659675 2.9533768 -2.6858926 -3.7228138 0.45071995 -2.5112865 1.0352536 -0.56303424 -4.204948 1.0868341 -1.8658907
2349 0.8094128 -0.80801463 1.5901381 1.1452122 -3.8388531 -3.5841355 2.1797419 0.77293736 -1.5130994 2.5513248 1.8669323 -1.9629205 -3.2177424 1.4090763 -1.7962413 -1.73423
12240 1.3373837 -0.037450388 -0.15523133 -0.84532464 -2.3077059 -0.05333483 1.7840208 -0.50278705 -0.70729387 -0.07219044 2.5359287 -1.1389382 1.3377556 1.6826001 1.9780648 -1.1752024
4459 0.060036074 -0.26853716 1.6516839 0.94684964 -0.6744393 2.1213408 1.5941961 -1.2335129 -0.87059486 -0.2177197 0.9427243 -1.6161045 -1.1115044 -0.5998532 0.15977095 -2.6806216
24 0.9569033 2.752302 1.7812413 -0.830421 -0.86538965 -0.504785 1.8659979 -2.0931332 -1.8805941 0.27040783 1.3342707 -0.4620034 -0.04316629 0.30608556 -1.2288 -0.76855165
12717 1.7475555 -0.47302064 1.4829539 -1.6699147 -1.8512814 -2.6727548 -0.45878842 -0.7937417 -3.4447253 -1.5444652 0.50448436 1.3685675 0.57948655 -2.1995924 -0.003335415 -1.7025976
4184 0.85239977 0.16620456 -0.40455163 -0.89720505 -2.52679 -0.38225424 1.8266122 -0.04394672 -0.50837743 0.20185566 2.6876893 -1.4013486 0.9426023 1.9191972 1.7689942 -1.590695
7187 1.347586 1.1278034 1.7303694 -1.561711 -0.8265566 0.77678394 2.6234806 -1.1181834 -0.23877935 0.18167384 -0.5183602 1.8504864 0.7214564 -1.2412105 -1.7627733 -0.428624
4661 2.3674097 -0.5851508 1.1097689 -1.517108 -2.3530133 -1.6895629 -0.92197126 -0.80745435 -2.4883957 -1.4267703 0.033898253 1.0034336 1.0075327 -0.41513366 0.46135134 -1.4683714
1405 -0.41511947 -0.15587358 0.59916365 0.49468082 -2.1329243 0.20837775 0.5087636 1.0201248 -0.5398476 0.90589863 1.1614256 0.09614685 -1.5355285 0.4391368 0.33048806 -1.10126
2102 0.8252237 0.54074436 2.1531034 -0.6043469 -0.99067396 -0.3721733 0.17425036 0.3033474 -1.2056267 0.5573388 1.274835 -0.5147971 -1.2354614 0.6622272 0.83583754 -2.358713
5937 0.7147074 -1.7090809 0.2591332 -0.36418355 -1.9620728 -0.31176448 -0.22302544 0.9650898 1.0787531 0.10900352 1.2935047 0.046516314 -1.5609866 1.9391886 0.4684024 -3.2035956
6773 2.0963297 0.5843436 1.5403807 -0.80762565 -4.2451043 0.021378336 3.795384 -2.953776 -1.042118 0.7022852 0.32670322 -1.6545218 -2.319025 0.79321635 -1.0726563 1.5477629
6736 0.74757475 -1.1135695 1.1341916 0.6692086 -1.2569333 3.233474 1.2870953 -1.5871412 -1.7083896 -1.0105275 0.78057307 -1.3806711 -1.9905349 -1.9037431 0.3100576 -3.4632263
4472 5.1247263 -2.0640357 1.5040436 -2.6294367 -1.0406481 -2.4032667 -0.42011723 -3.307982 0.023179958 -0.35356483 0.9967422 2.5039601 -2.6105738 -1.0304695 -0.6416197 -0.19875562
12 4.540962 -1.6138736 -0.064091414 -1.0289656 -2.092588 2.4214585 2.2218826 -0.8405313 -1.5077769 -1.5120324 0.549581 -0.033198394 -3.4906807 -0.15660739 -2.5391762 -2.2452497
3727 2.0665822 -1.0649695 0.5791066 -1.3386806 -1.3100151 0.039544955 0.75488544 0.3969728 1.1807126 1.4714633 0.42007795 1.3691081 -2.7599123 0.3628181 -1.0037174 -0.532977
19 2.8031685 -1.1034703 0.65781915 -1.6007837 -0.9606532 -0.407155 0.64920145 -0.04264337 1.4291198 1.9408469 0.3242134 1.3083045 -2.2470198 0.28235123 -1.2738464 -1.0145646
7921 0.24269174 2.4796157 2.0494287 -0.8001385 -1.4641197 1.0669786 1.2201967 -0.6952906 1.0505391 0.88177323 0.23507488 1.4477776 -1.105559 -3.1672716 1.0244831 -1.7794918
7083 -1.185558 0.2362858 0.7285343 -1.1602288 -2.335086 0.18768339 2.2041821 -1.8845055 0.98869216 -2.1393132 0.66242254 3.3459206 0.23434001 -1.575907 -3.548131 -1.5398186
229 4.8777704 -1.3016313 -0.4702224 -1.606307 -2.7807355 2.4004936 1.9851794 -0.4002225 -1.3539059 -1.78347 0.6405042 0.52747387 -3.8490279 -0.49091497 -2.2240465 -2.0675583
775 1.4187635 -0.61943454 0.28002927 -0.4759151 -2.6087298 0.8162116 1.3209386 -1.1908711 -0.82167333 1.5354922 0.22991277 -1.7707163 -0.7396503 -0.3258503 -1.3024334 0.050197966
122 0.36862442 0.5292124 2.419349 0.5476424 -3.7585764 -1.0470414 1.2841382 -0.64577234 1.647433 -0.64687294 -1.235078 -2.5687945 0.4687916 -2.820258 -1.3628635 -1.7083709
79 0.3461437 -1.1368293 0.026682328 0.38587865 -2.426698 1.4594218 2.9184027 -0.48220214 -0.48823583 0.46244594 0.17611752 -1.7102387 0.4566182 -1.5741655 0.5326596 -0.6201127
8790 3.1388028 -1.5573199 0.78747064 -1.4637673 -3.8706589 0.10846596 0.6506637 -1.4648415 -2.1810212 2.6407635 0.30676663 -2.4034066 -1.2065495 -0.9297868 -3.0790532 -0.4621222
7878 0.053099144 0.91279423 -0.99307775 -0.8462965 -2.6801605 2.2925093 1.2675121 -0.94091004 1.1648501 2.0973513 0.7795224 -0.7140135 -2.3957 -1.5107803 -0.9339483 -3.9610744
1634 1.594496 2.8259513 2.472366 -1.0377674 -1.5186424 -0.94333345 1.6802806 -1.3035643 -2.4718084 0.4283596 1.0470763 -0.56603914 0.32119247 0.0012869576 -0.82587165 -1.0857301
2776 1.7521883 2.5298738 1.8021961 -1.8111123 -2.8045223 -0.23183377 2.270851 0.20707399 -0.91038394 0.47145477 -0.8795345 2.7901485 0.64870787 -1.9779923 -2.1987596 -1.6587335
2551 2.017125 1.7616603 1.3707901 -1.7844584 -2.0727522 1.1702877 2.176565 -0.2707858 -1.3010405 0.32412606 -0.15895712 2.3028574 1.0544237 -2.1577892 -1.4787128 -1.283212
6564 1.0596831 2.9612377 1.6138847 -0.98014116 -1.305351 -0.29225224 2.0576236 -1.5370585 -2.2449934 0.23559232 1.4179283 -0.29336604 -0.1834925 -0.054223023 -1.7723367 -1.1250118
1736 2.1577902 -0.21156812 1.7386566 -1.519955 -1.1704394 1.0689051 0.20987561 -1.0267106 1.2237061 1.2159839 -0.5666113 2.4721045 0.7807388 -2.5636415 1.5086904 -1.1453098
2762 4.3625975 -1.7933524 1.1406993 -2.5954154 -1.1374642 -1.8868319 -0.28420997 -3.4996123 0.41246063 -1.2562457 0.51246333 2.2622619 -2.7677217 -0.928626 -0.3526142 -0.2985
8623 2.2124062 0.10906528 1.6704887 -1.594175 -1.7265196 0.97188467 0.1188266 -1.0206853 1.453937 0.7117834 -0.9801718 2.427501 0.04569555 -3.3011208 1.2807388 -1.157694
3166 -0.39405504 -1.8183709 -0.34409717 -1.0968562 -0.85865605 -0.24958366 -0.17785965 -1.615121 0.8152465 -0.45812982 -1.9582843 0.034749035 1.355646 -1.1050236 0.087893136 -2.4219258
8516 0.12751979 -1.9008824 0.11874017 -1.0131893 -1.0885704 -0.6790284 -0.30522206 -1.686017 1.165549 -0.19825888 -2.2131503 0.016726965 1.279191 -0.65122867 -0.16810715 -2.1281874
2495 -0.4950537 -2.1506574 5.778672 1.6001941 -1.3324001 0.10396575 2.6544495 -2.6330233 0.17216207 -1.9331424 -1.1805274 -0.16032712 -1.0582447 1.5267193 -0.44062904 -3.1397605
371 1.5598564 0.4076871 3.3452628 0.55648893 -3.3513064 -0.72505164 1.6906475 0.30083355 1.7706186 2.1635473 -1.1357124 0.6331768 -2.8960183 0.5533772 -0.5109708 -1.1837453
1920 0.3030947 1.2438451 -0.8608912 -2.6373594 -4.381737 -0.050933134 0.007553512 2.0268683 -1.0128938 0.6432082 0.8616815 -0.38559514 -3.0238214 -0.69869095 2.6128333 -2.561886
11793 1.2214372 -0.29286438 0.012663357 -0.42689106 -2.3529322 -0.12533684 1.5651889 -0.10103694 -0.99252886 -0.25118452 2.544339 -1.1042359 1.266186 2.022626 1.0087143 -1.5627923
3430 0.740424 -1.6212919 0.35338283 -0.99656415 -2.0320446 -0.50000495 -0.0035351352 0.98634315 0.99295914 -0.15658459 1.7271084 -0.5488899 -1.5485126 1.7677678 0.6091972 -2.7953055
1654 1.1456741 1.2887355 1.6956301 -1.0243634 -0.88165885 0.9764688 0.9459519 -1.0586475 2.081158 1.1944755 -0.3423978 2.5931692 -1.4598418 -3.5190108 1.3782275 -1.7842877
1253 -0.5120097 1.3766572 0.24130802 -0.46235862 -2.5174563 1.6415236 1.455853 -0.34434816 -0.7921209 -0.40262687 -0.16570769 1.2215805 -0.33212826 0.42352206 -0.84614456 -1.6401746
6656 -2.2759786 -1.0629954 0.8924034 -1.0132253 -1.11547 1.5732976 1.1241394 -1.2720199 1.1734387 -0.55793995 -1.4281069 1.1596109 -2.9811144 1.1253611 -0.4103503 -2.2460682
1872 -1.7254976 -1.6927644 0.13933411 -1.1311848 -1.0029811 1.9122381 0.72322434 -0.9895005 0.76178294 -0.48800114 -1.0287989 1.2616749 -2.3668082 0.72139394 -0.6098393 -1.8612208
2115 -1.6053171 -1.1874791 -0.48146296 -1.7171441 -1.2231851 2.1246295 0.5869592 -1.7018825 -0.2611711 -0.13570763 -0.696541 0.8925898 -1.3018341 0.25142625 -1.1678293 -1.2023168
395 2.6984115 -1.4364663 0.65087616 0.23453085 -3.6764305 0.4716905 1.4793377 -1.4396638 2.2687635 -0.25617918 -2.7189598 3.9688828 -0.8053918 1.7314711 -1.0410486 -2.1833358
11591 0.14441733 -0.30934146 2.2134528 0.38479877 -2.3027818 0.67116606 -0.89278585 -2.6806617 0.45747524 -0.92199945 1.5400815 1.1826975 1.8750932 1.1188718 -0.5889452 -1.6700745
6930 0.07920158 0.22329062 2.3725235 0.56002766 -2.1554208 0.30035546 -0.8859625 -1.9089152 0.60816157 -1.1036876 1.2648793 1.4443867 1.5859932 0.3728706 -0.75974804 -1.7307491
7698 0.13103573 0.05596165 -0.14336027 1.5209895 -2.1095073 -1.492836 2.6572053 0.46996018 -1.0707681 1.2942408 -0.71482164 -2.2821045 0.35753006 -3.7323945 0.16925973 -3.2628932
15 -0.64303684 -2.3371305 0.5279622 -1.4833671 -0.87257934 1.7953087 0.46057495 -2.1121585 -1.111772 0.97581315 0.707054 0.58398503 -0.58314687 1.1252304 0.5456671 -0.35396016
5998 2.1998873 0.5116221 0.17369685 -0.40016693 -2.7754781 1.6847367 1.1024183 -0.73696226 -0.18819694 2.08096 -0.24788539 -0.720954 -0.86687696 0.8307305 -1.4154001 -2.2743397
6538 0.68252164 0.06486705 0.12131251 -1.1446248 -2.448838 -0.02364104 0.041718807 1.0974818 -1.1724515 0.5827824 1.7788694 -0.597513 -1.959316 2.408941 0.6944779 -3.623351
1308 -0.51696104 0.5509434 2.2440753 0.05037484 -2.2714596 0.05529672 -1.4262073 -2.0947068 -0.009738047 -1.0754577 1.4316967 1.103916 1.0795363 0.49185655 -1.1592051 -1.9055399
6984 2.967776 -0.23939136 1.5263474 -0.3374095 -1.9862396 -0.9568081 -0.18230605 -0.71952915 -2.32621 -1.7584289 0.7887824 1.0304747 0.28597173 -0.035858337 1.3809953 -1.1636487
234 0.47731227 -0.7780474 -0.59583855 -2.1324544 -2.3489842 -0.5395426 -0.22431543 1.0863361 -0.4276338 0.1044478 1.66634 -1.2760928 -1.8418132 2.0068161 1.255106 -3.6611495
8609 0.43360686 0.3211651 -1.2925609 1.114759 -1.8072549 0.60577226 1.272517 -0.84439397 0.8514217 -0.5992537 -1.6931864 1.2722485 0.887794 -0.848814 -0.5967874 -5.4632974
3635 -0.26983133 -2.4006097 0.8683535 -1.3365396 -0.8461825 2.1324677 0.47680834 -1.928175 -1.3352531 0.96933126 0.8355112 0.7945941 0.081317 0.99670994 1.0091819 -0.5850745
4595 0.4181215 -1.4501972 -0.38400775 -1.2560539 -1.8323281 -0.0050417027 -0.1514898 0.7038992 1.0025568 0.614303 1.0730805 -0.2950576 -1.2994525 2.1347203 0.65996 -3.3194947
2383 0.24527623 0.1977836 -0.7013683 1.3392051 -2.747663 0.25503355 3.8988106 -1.6870366 -0.9170182 1.7786922 -0.7539223 -1.039576 1.8687344 -1.7835367 -0.7466555 -1.2246785
10152 -0.5899989 -0.49823245 0.31669027 0.30617398 -1.8887014 -1.9888905 -1.2926373 0.62246054 -0.7890506 -0.68849087 -1.1633976 -0.028431306 -1.536064 -0.6924331 -0.49436256 -3.385497
9833 1.2564135 1.3596157 1.0505029 1.7637684 -1.6851764 -0.84556526 2.0193791 0.42125523 -0.8907115 0.74297035 -0.050153997 -1.2868451 -2.3497741 -3.0606482 -0.72003746 -2.828294
480 -0.0737898 -1.4428883 -0.124457456 0.093682624 -1.7835369 -1.6131548 -1.0366998 0.7376371 -0.6958606 -0.9356612 -0.97205675 -0.51332945 -1.1196055 -0.51461095 -0.40262774 -3.3292954
1148 1.4088378 0.52363753 1.0158914 -0.080123894 -2.2167082 -0.14638361 2.1108909 -1.8621801 -0.5476916 -0.6281926 0.39381975 -1.1271782 -2.141241 0.84156525 -1.0424937 0.10764257
5597 2.4899938 0.36147335 1.5782017 0.0662798 -2.286472 -2.4830933 -1.3753309 -0.71315086 -1.2807091 -0.19033873 0.5633618 2.4841483 0.63471735 -1.200365 0.2831586 -2.1459124
114 -0.70092046 1.2244563 1.1715621 2.0481377 -3.6402614 -0.46933156 1.5451641 -0.60913104 0.14107895 2.1527143 0.55060554 2.169102 -2.3124797 2.4230752 -1.0778098 -2.2636354
5982 2.1509662 -2.5873806 1.9346566 -2.3029194 -1.1328201 -0.22485086 2.5186853 1.2675389 -3.153092 0.2556302 0.8312591 -0.898283 -0.4288393 -0.19663782 -1.7244525 -0.991215
8382 1.9721588 -0.92365056 2.884895 -0.9331486 -2.3054602 -0.19491987 3.2177272 -3.5444264 -1.4074806 1.1058588 0.2358331 -1.5484958 -1.1690171 0.17559998 -1.7251486 0.7266295
2687 -0.26717478 -0.16067722 1.7757547 -2.103201 -0.83382976 0.24569868 2.0967138 0.67718726 0.722318 -0.85910517 0.7637297 -1.2497035 -0.52929544 -1.6558504 -1.6752857 -1.1987271
495 -0.45922965 -2.2785296 1.1449368 -1.3030497 -2.8602488 1.2474627 1.7732111 1.090135 2.4186335 1.3616143 1.1232877 -1.2588258 -1.2641318 0.043604594 1.4063388 -2.3590705
8762 1.6235269 -0.7347142 1.5314262 -1.3145709 -1.872218 -2.530228 -0.5112463 -1.2564816 -3.6935275 -1.3745747 0.43478167 0.4528201 0.5932154 -2.269252 -0.41831648 -1.7372785
12822 1.5584404 0.20360704 2.340649 -0.76927537 -1.9111896 -2.8726118 -0.23805526 -1.1963779 -3.285069 -1.9938102 0.56020504 0.7996682 0.27235985 -1.8261954 0.37448257 -1.8872921
1955 1.4571179 -0.9064216 1.6737417 -1.5508623 -1.9461086 -2.6025922 -0.8365862 -1.383311 -4.0698404 -1.5651226 0.64168346 0.6111822 0.13375595 -1.8871629 -0.3837928 -2.1467102
11110 0.26724443 3.3255727 2.963487 0.2815627 -2.6639686 -0.8634555 1.3898418 -1.7947186 -1.8737992 2.134734 1.785198 1.9419452 -2.2016542 -2.32259 0.3235887 -0.9335824
4529 -0.07653774 0.44762123 2.395599 1.2787751 -1.7662945 0.83790874 2.1695507 0.20176402 0.58139443 -0.15291956 0.68397796 1.4968287 -2.545012 -1.3877436 -0.06787747 -0.82531965
3679 0.87988746 -0.37536985 1.2730559 -1.162776 -1.8139095 -0.30556366 0.18377307 0.07643327 0.3015611 0.062383786 1.0798695 -1.2428353 -1.9359694 1.5171262 1.1204264 -1.993853
4122 2.911388 0.008501055 3.8625796 -1.0801052 -1.8173238 -0.7024706 -0.034184728 -0.35853475 -1.3651934 -0.6070289 -0.90748686 3.4541283 0.17583244 -0.5920491 1.2366176 -2.3706543
307 -0.98478913 2.1046412 0.28616843 -0.3002452 -3.3289554 0.8210677 1.5260954 -0.9898687 -0.36232707 -0.8877101 0.17752974 1.7668223 -1.5645723 1.2908947 -0.9311929 -0.96061814
7280 0.79977953 -0.093818665 0.752021 -1.9197992 -1.3481168 1.776768 1.3714138 0.6260523 0.92501235 -0.7654614 1.3397174 2.116468 0.58619463 -1.4610599 0.44876367 -0.69002575
1201 1.8180566 -2.122901 0.3199443 -2.0439377 -0.75216776 -0.13450894 1.3313954 0.63634616 -1.2864245 1.1579629 1.0416267 -0.8164651 -1.0977899 -0.32003942 -1.5820781 -0.5273923
2211 2.4262834 -0.070264265 0.9380349 -0.01980391 -0.57389855 -0.5422573 1.6617172 -1.8805163 0.3726168 0.2748154 -0.606519 -0.5778205 -1.8437167 0.37834254 -1.0697731 -1.4501973
2175 2.1311848 -2.7627404 0.2993645 -1.8505971 -0.86736465 0.560373 1.3183643 0.30026892 -1.4833715 0.8222425 1.8161368 -0.70021284 -0.43767077 0.21010898 -1.1667887 -0.53866464
3185 0.2825512 -1.516377 -0.12972984 -1.2278295 -3.5346558 0.5065211 0.8080279 0.87999904 -1.995264 2.6699786 3.885543 -1.6591831 -3.41698 -0.76503325 -0.346157 -2.1317515
5635 2.1239498 -1.9084822 -0.58057094 -0.73676497 -4.0256524 -0.6384247 0.8770153 -2.205147 -1.3374898 2.8974686 1.2443243 -1.6894778 -2.1331594 -2.4020312 -1.974531 0.21910268
7981 1.5337875 -2.6875734 1.6956738 1.2095742 -2.7539763 2.244406 0.7311984 0.38345405 -0.22585516 -0.37016168 0.7938555 -0.98925257 -1.3893268 -1.270222 1.464407 -1.8308716
4396 1.4981183 0.9811984 2.4298623 0.6547293 -3.8135617 -1.0943503 0.9816439 -0.17202584 2.2664914 2.7086537 -0.1565981 0.98085326 -1.4596069 1.0458683 -2.327079 -1.7394625
799 0.7036025 0.349251 3.132079 1.1907668 -1.915487 -0.1704484 2.004935 -1.3172566 0.553047 -1.781182 0.3565725 1.6301967 -3.1072063 -2.1631205 0.19598791 -0.7229184
7576 -0.39312616 0.20684391 1.719241 -1.7623674 -1.0338132 -0.22946705 2.0553558 1.0104033 0.12281523 -0.5166556 0.9292322 -1.6163834 0.04702885 -1.5058279 -1.5624584 -1.1877755
3792 -0.3692112 0.31480992 2.1324224 1.0700773 -0.83422256 2.012893 1.819731 -1.2811478 -1.2365799 -0.11951099 0.7006615 -1.2860341 -1.0107453 -0.5120854 0.10754805 -2.1933765
7778 0.6211594 -0.73904186 0.93433166 0.40168297 -2.5862863 1.6610653 2.7337918 -0.009825929 0.35109156 0.98648435 0.3475937 -1.5238774 0.13606851 -1.7109953 0.13848487 -0.78957665
3283 2.644881 -1.229322 1.6245742 0.41511226 -2.8466074 0.25066826 0.67402315 -2.274256 -2.2162986 1.966401 2.3025033 -2.1075397 -0.85990214 -1.5402137 -1.7855531 -1.1496121
650 -0.124194905 -0.9834473 1.1181158 0.6724005 -1.3888718 1.4547307 -0.09119014 -2.3398566 -0.8280432 -1.2542338 1.9937528 0.6401399 -1.7632527 -2.388479 -0.66217643 -2.165806
3537 2.2678356 0.24086764 0.46493834 -0.54924464 -0.58657265 -0.46732163 1.6230246 -1.9139724 0.05196819 -0.36176583 -0.25067243 -0.90823406 -1.9754453 0.32515433 -1.1214732 -1.5208356
2303 0.5229292 -0.7282392 0.79668057 -0.49417603 -1.1989756 -1.3144593 2.1666136 1.3694988 0.52846855 0.4495673 -0.122286044 -3.0248997 -2.3740685 0.52603495 -1.0359992 -3.1757503
1140 0.94248706 0.18613833 2.4539044 0.45446232 -3.888385 -1.451349 1.3258798 -0.42217037 1.8174303 -0.7906654 -1.0123575 -2.6500978 0.086472325 -3.363426 -1.5287918 -1.5981582
6883 1.0807886 -0.6657382 2.1849613 1.4576991 -4.320117 1.019596 1.8004184 -0.12799948 1.7529453 1.1982536 -0.65430886 -1.4210685 -0.42132545 -1.3872584 0.59134084 -1.0016603
6466 1.1335279 0.28576583 3.2236626 1.1964842 -4.1737037 1.8267778 1.5382279 -1.5042464 -0.26382872 2.0606215 -0.070734054 -0.8582123 -0.026136734 -1.2325095 1.5725406 -1.360688
1198 0.94679296 -1.1201857 2.804825 1.6591241 -4.8461413 -0.6691184 2.206649 0.75210524 1.540422 -0.46276727 -0.14758302 -2.6281762 0.091295995 -2.872425 -0.7771061 -1.5174625
1921 -0.4573392 -0.02942215 1.5050544 1.1329026 -2.7210453 -0.06568646 1.3793482 1.787079 -0.15700082 1.0601311 0.39107713 0.5535611 -2.25653 -0.047534462 0.1776103 -1.6250297
2430 -1.0115938 1.3099355 1.3780733 2.2057445 -3.8506966 -0.5734442 1.6783429 -0.88876456 0.12007437 2.5722353 1.0579242 2.3174162 -2.6986918 2.778272 -1.285198 -2.3969657
286 0.3617885 0.40396968 2.6667624 1.3161328 -2.5424728 0.7154255 2.1280456 1.0908895 0.19076763 0.04950642 0.85001767 1.9585563 -2.5147674 -1.6235378 -0.054544747 -1.3556062
5404 1.3495196 0.73402625 0.8318436 0.12607296 -2.5183043 0.11676824 0.85012 -0.85412264 -0.98794544 1.8346239 -0.48748463 -1.6806474 -0.5895513 -0.06992015 -1.3658019 -1.6660917
3156 0.060990818 0.77474296 0.11016244 -0.3472844 -1.2401066 0.77418137 1.7068566 0.47614464 -0.3638546 -0.3210109 -0.9648322 0.085678495 0.8027416 -0.82082105 -0.60141575 -3.0267727
1636 2.776417 -1.5304961 1.6034228 -0.96694547 -3.6184192 0.73700416 2.179158 0.6073088 -0.024853673 -1.8130754 -3.086437 5.195456 -2.0703795 1.3352683 -1.0707772 -3.0586164
990 1.1553591 0.7451161 1.0313177 0.12729295 -2.8875248 0.21207279 2.0346146 -2.0922272 -0.73678505 -0.64923966 -0.41097948 -0.15237777 -2.465505 0.6655519 -1.5183216 0.469757
2680 1.7571701 1.7162749 0.82029283 -0.63357574 -2.3251932 0.3902297 1.3370187 -0.24081092 -0.5554018 2.1623073 -0.08090153 -1.3584439 0.29537985 -0.59774166 -0.70869595 -1.9707866
10298 -0.19991717 -1.059285 0.7080658 0.75820893 -0.021441748 1.977163 0.6928849 -1.9754225 -0.100646906 -1.466888 0.38351256 -0.1265445 -1.2732023 -1.0884457 1.0105782 -2.7995822
2257 1.0205345 0.3809128 -0.32066938 -0.45480022 -3.8065548 0.95964617 1.6345176 1.63372 -1.618985 -1.1830777 0.30775103 1.026162 0.030755794 0.8403236 -0.872504 -2.045633
4448 -0.11761341 -0.05386155 1.1630242 -0.8665899 -2.1934671 0.48003805 1.7640839 -1.5654092 -0.4712046 -2.1380632 0.8737171 3.4944863 0.5798125 -0.8618663 -3.1485183 -0.52989787
331 2.2710133 -0.4413988 0.8729042 0.3079787 -0.5855431 0.19002262 3.1119826 -1.5998074 0.51885295 0.45463076 -0.8224058 -0.22864889 -2.3911703 0.74264544 -1.0278597 -1.7173166
7589 0.1971042 0.6428302 3.126626 0.84486014 -1.9439133 0.72329944 2.63838 0.8974309 0.7137859 0.75206447 0.20083371 1.4376887 -2.6522448 -1.6850723 -0.12680605 -1.1290869
2635 1.1801877 1.1849372 -0.42984223 0.88428414 -2.6020079 0.4487582 1.1879765 -1.5011868 -1.3692521 2.2048888 0.6883241 -0.6202069 -0.41877386 0.17708206 -2.156828 -2.5346007
1321 1.79282 0.2745085 0.5963927 -0.68238956 -0.49018157 2.540908 -0.06177142 -1.0881264 -0.59039444 0.292948 0.14177339 -0.31612787 -0.7178245 -0.4350565 0.68675345 -3.627539
365 2.910855 -0.60246724 3.5135434 0.48087618 -1.5639238 -1.1406511 0.2877973 1.8469324 -0.9129668 -0.03282375 -0.5407706 2.0891106 -0.57774246 -1.3812593 0.6629441 -4.3917537
1328 1.449621 0.32982355 0.75879747 -0.6783187 -1.5014182 2.3299015 -0.704533 -1.3152102 -0.71454096 -0.8413677 -0.028404918 -0.29513127 -0.2326162 -0.53197426 0.6233401 -3.1763754
10847 0.27354762 1.1797651 -1.2452164 0.9222784 -3.2391405 1.6810353 0.5234499 -1.3629963 0.2382405 1.9142485 1.1290917 0.20951948 -1.7255881 -0.040650103 -0.93838125 -3.7461736
6602 2.091428 0.21925668 1.0517178 0.61855495 -3.720194 0.47002828 0.48530897 -1.9616237 -1.0114642 1.9636657 0.40782568 -2.0422928 -0.76009864 -0.33559695 -1.5212086 -1.6722109
8095 2.262598 -0.795703 0.92791295 -0.025467116 -0.050931253 -0.076942265 2.331551 -1.5701667 0.56498605 0.13496764 -0.3841919 -0.7528727 -2.1322312 0.24495825 -1.0159446 -1.4755718
802 1.3105441 0.69217473 0.8138086 0.4306955 -1.5153074 0.072619356 2.4542506 -0.26577184 1.5528457 -1.1932195 -3.0444365 1.4149268 1.3750601 -2.4729183 -1.3037386 -6.9031806
439 3.0339155 0.047495935 4.404793 -1.1853842 -1.9081726 -0.61369205 0.11806445 -0.3660281 -1.6865385 -0.7206083 -0.8235163 3.5509 -0.016288301 -0.612813 1.3138006 -2.4350202
8374 -0.22553049 -1.6880324 1.4334399 -0.31254438 -2.0513952 -0.4186863 -0.076167986 1.0956578 1.6772648 1.4498392 -0.3264952 -1.4337184 -0.54595137 -0.67743665 -0.2540731 -3.3530092
1064 1.8460481 -0.77904993 1.200163 -0.20698377 -3.1732142 0.4283964 1.1696206 -0.15070997 -1.2581819 0.9585534 0.04943805 -2.171293 -0.96895707 -1.0816765 -0.9291638 -0.50283897
3512 0.76159805 1.1764935 1.9443415 -0.25368357 -1.7091408 0.20841067 0.18574393 0.24795207 -1.6155049 0.07249105 1.3929944 0.17230128 -1.4416105 2.0826657 0.87153506 -3.3276074
1439 0.32305142 -0.9102372 0.6303216 -1.1768472 -1.7935207 -0.10220281 0.96739304 -0.018693887 -3.1665213 1.9967803 0.6921109 -0.6441608 0.52024907 2.4430227 0.8900925 -3.2051957
1769 0.142413 -1.0892427 0.6446986 -0.997242 -1.5261803 -0.5871239 0.98234594 -0.29319054 -2.9337928 1.9491655 0.752174 -1.0772971 0.71649283 2.3849747 0.3924491 -3.2666242
6043 -0.13835497 -0.24993451 0.8108745 -1.6230873 -1.6245577 -0.039893992 1.1010766 1.1389613 0.59539324 0.16751176 0.0972776 -1.5581646 -1.3987348 0.8586548 0.8887483 -2.2108366
6249 0.097253785 0.23116414 0.34867698 -0.235921 -2.0924394 0.5351543 0.63501143 1.3981138 -0.95147884 0.60742265 0.9797246 -0.02380466 -1.6734577 0.24004163 0.22228362 -0.9387431
1022 0.21640767 -0.74731666 1.6213666 0.5180255 -2.2137895 1.4298787 1.9941225 -0.06981783 -0.3731096 0.85267746 -0.16765034 -1.0435013 0.14536035 -1.9258925 0.26281148 -0.6625204
1305 1.891382 0.8911255 0.12504202 1.4837782 -2.6763656 -1.9234226 3.0469868 -0.036595758 0.45883188 1.7566063 -0.3976201 -1.4389724 -0.5685397 -3.0423374 -2.749051 -3.312821
1195 0.99212277 -0.39973155 0.2717175 -2.3964453 -1.8305678 -0.49385178 -0.2115424 1.1839219 -0.48074108 -0.06565584 0.97663337 -0.7775579 -1.1810967 1.2067605 1.1395819 -2.550024
869 0.5153963 0.47790825 -0.1581454 1.2122284 -1.3208075 -0.8426995 2.5576391 -1.5589073 -1.3667852 0.65255004 -0.8422391 -2.3138032 -1.3531915 -3.8754032 -1.2707956 -3.070279
2437 0.63313496 -0.7082925 0.37718704 2.0664124 -1.8205619 0.024715682 2.739801 -0.90480334 -1.49939 -0.46952623 -0.8170937 -1.0953159 0.012267946 -3.890882 -1.103424 -2.7499437
5206 1.153103 0.9841302 1.1883882 0.45520276 -2.9233396 0.5251048 2.7137268 -1.6933054 -1.0283589 0.17838491 1.0128009 0.31721738 -0.08081541 1.444214 2.1041825 0.18080981
5435 0.42404947 -1.0761793 1.3518404 0.6804082 -1.6794804 1.1329011 2.5765533 -0.23420013 -0.09416124 0.6410985 -0.33003733 -1.3073881 0.14101045 -1.7495649 -0.2863575 -0.66101724
4006 1.3699459 -1.4892659 0.9366852 0.69674313 -2.4855597 1.887388 1.2374866 -0.27486286 -0.08486688 -0.43340433 -0.008842862 -1.1779032 -0.3148587 -1.1837363 0.2961858 -1.2669934
4067 1.0934252 -0.15175912 0.10530795 0.60638404 -3.6189144 0.14448355 4.66828 -1.5317065 -2.4920433 0.4954934 -0.19898367 -0.05312705 -1.4074402 0.6671825 3.7231534 -0.21627422
13468 0.5294299 0.7192077 0.059846424 1.180652 -3.432235 0.33407986 3.4535778 -1.2948852 -1.6919475 0.16733764 0.57407033 -0.23315832 -1.12218 0.861936 2.40241 -0.1094927
13314 0.9856707 0.6526274 0.9920551 1.0920798 -3.275755 0.5852243 3.1775913 -0.9810568 -1.152961 0.34909347 0.9004285 -0.17517862 -0.7754249 0.6365764 2.89132 -0.35074654
13377 0.38274336 -0.56118304 -1.1112744 0.47167036 -4.0762525 0.79106015 3.9004657 -1.9009303 -2.326721 0.54401076 1.6743599 -0.10322464 0.5883552 0.5721595 3.929828 -0.29415867
9120 -0.061729375 1.4963655 -0.14273022 -0.5463681 -3.5759249 1.4380957 1.2745757 -0.56926006 -0.3315273 -1.0841503 -0.11530406 1.8979402 -0.6741255 0.7732017 -0.29829493 -0.76183003
2390 -0.6447105 2.9504457 -0.1503605 -1.0367881 -4.3151064 -0.17975992 0.94186145 -0.6251079 -2.1866002 -2.6142936 2.1467094 -1.3039455 -3.112492 1.8730823 -0.79336137 -1.5199839
7271 2.934828 1.1721015 2.5478358 1.3361162 -5.7256355 -0.29545876 2.3170652 -1.392773 0.49098656 0.9828338 -0.10087916 1.9456747 -0.01773941 1.7432814 -3.0218635 0.021664226
2347 2.6416247 0.46234733 1.1569315 -0.033125777 -2.1061082 -2.4735608 -1.2978704 -0.6044718 -1.03596 -0.18316914 0.2705902 2.5548675 0.60121286 -1.4050691 0.39975083 -2.3681192
372 1.5872684 -0.08020128 0.09921622 -1.526556 -2.6542933 -0.17978424 0.4507945 1.9924936 -0.6304388 0.46020263 0.24610785 -0.506578 -1.701603 0.26252714 1.8789339 -2.5895007
8984 2.1090596 -0.057202674 1.6414088 0.3267381 -2.0107658 -2.8561835 -1.4991084 -1.897598 -0.7442831 -0.59990066 0.11524294 2.6268942 0.11072475 -0.8699702 0.4152232 -2.0321372
11798 0.87929374 1.6839111 0.32955414 1.8449293 -2.7085466 -0.67529523 2.5060136 0.732611 -1.0511286 0.82545704 0.36032525 -0.67117447 -4.1110415 -3.8887527 -1.1395795 -3.1681745
1101 0.6371694 -0.7076793 0.65132415 -0.6067607 -3.7453408 -0.39637774 0.28484303 1.1921018 -1.5693842 2.4228494 3.7446287 -1.673397 -3.0699477 0.114699714 -0.98232615 -2.3856316
6302 -0.8363606 2.8048196 -0.14196734 -0.8390526 -4.526269 -0.082209334 1.1978595 -0.39412555 -2.540141 -2.4251294 2.0550613 -1.1999767 -2.450854 1.9134225 -0.76154363 -1.4936383
3592 0.9072351 -0.8914171 0.050827917 -0.31535888 -4.1941977 0.2034739 1.2894317 1.7138581 -1.5189117 2.609999 3.9417694 -0.9936849 -2.5300136 0.017090777 -0.9653892 -1.81575
582 1.2123789 -2.3806446 1.7162505 0.42216593 -2.1005437 -2.2994244 2.6920552 1.918926 1.5681456 0.9119087 -0.2104887 -3.7242217 -3.0342214 0.39182281 -1.3710557 -5.3450375
9379 1.6261307 0.8417359 1.2647402 0.99762565 -1.036279 -0.13528419 2.2021387 -0.9950957 0.45664552 0.7674882 -0.21615775 0.84304655 0.20534435 0.6870783 1.0559574 -0.9009087
6852 1.6085505 1.1400739 -0.8806725 -0.35660425 -1.8523214 -1.0028477 0.004460136 -1.2724718 1.0498351 -1.3623363 -0.47123554 1.8577789 1.0423663 -0.09891662 2.1357036 -2.5008616
445 -0.30188417 1.1943952 0.5144274 -0.76296675 -1.7303216 1.6822544 1.7217011 -0.76844555 -0.22357999 -0.8915274 -1.5297036 1.6327392 0.8114595 -0.5226348 -0.59977716 -3.622704
6072 1.9293197 0.15524307 1.0737003 -1.539093 -1.5575716 -0.50429964 1.1692779 0.9842302 -0.27719653 0.43613642 -0.81468445 -0.7644409 -0.40282896 1.065103 1.5490286 -1.8230864
117 3.2786622 -1.0961608 0.40491712 -0.524206 -1.458227 1.7220782 1.564996 -0.84690166 -1.632864 -0.3765855 0.543071 0.101752214 -1.8473152 1.122373 -2.3232913 -1.3245147
113 0.5927662 -0.49363956 0.18850344 -0.4440171 -2.496744 0.45650262 0.34492356 1.5248834 -0.61763537 0.53520095 0.9774221 -0.38318747 -1.1308725 0.952085 1.0740159 -1.892585
8043 1.7796656 -1.2821659 0.73610055 0.10998566 -2.091009 0.1560237 0.5871199 -0.9923119 0.7247602 -0.74320495 -1.0377506 1.9667325 -0.80462575 1.2114096 -0.39264226 -0.7554545
2099 1.027044 0.8532159 1.2885476 0.4474696 -3.1062157 -1.071862 1.2357374 -0.46190092 1.862806 0.17864266 -1.4436237 -1.9753364 0.18607669 -1.9161263 -0.96775717 -2.1263845
3104 1.3895829 -1.8672702 2.2031937 1.6024674 -4.616726 -0.95028484 0.93869245 0.7458586 0.85909045 0.14896539 0.13961008 -2.659838 -0.5897615 -2.2067065 0.052344564 -1.5468911
121 1.4768867 0.88137203 -0.93717426 -0.21684667 -1.8992263 -1.4165506 -0.38624895 -1.0481476 1.4436738 -1.2121495 -0.8203741 1.6147038 0.5135646 -0.3747909 1.2532642 -2.3122997
1340 0.5362393 0.36045042 1.7824545 0.66088843 -3.7998738 -1.0415362 1.5215557 -0.77477133 2.064 -0.03995135 -1.0706687 -2.524155 -0.23976938 -2.1486328 -0.77311665 -0.90850234
3600 0.95399505 -0.23206426 0.34107235 -0.21860373 -1.5289537 0.9465452 2.1785052 -0.3115739 0.18306105 0.34301695 -1.0333879 -1.4661559 0.662753 -1.1105425 -0.29339522 -0.86680675
11279 0.7313555 -3.1861274 1.2021775 -0.92047745 -1.0714139 0.34847438 0.87084556 -0.30570576 -0.8524938 0.049996216 0.19070204 -0.69486314 0.84343415 1.8422482 -0.7287427 -1.0050784
385 -0.5643726 0.12071625 0.70291626 -0.4834045 -1.4096876 -0.26066294 3.0005426 0.47051585 -0.25701976 1.9457049 -1.3448367 -1.9423327 0.5387427 -2.1660545 -0.9421324 -2.3386724
5532 0.19354545 0.41011003 -0.060041554 -1.4119213 -2.4296565 -0.22442901 -0.0901967 1.4418634 -0.6215298 -0.023694076 1.1124749 -0.6581592 -2.1966372 1.9584807 0.9009944 -3.872888
5718 0.8962185 -0.6187105 1.0437388 0.8976081 -1.1988777 -0.25265646 2.3458931 0.85031193 0.15857649 1.4299535 -0.19860429 -1.7752177 -1.3890518 -0.63438386 -1.2216665 -2.0911992
3474 0.69446224 0.72502446 0.76679146 -0.010334781 -1.5479351 0.57760906 1.440937 -1.3294357 -0.7539113 -0.67265344 -0.08383279 0.2517868 -1.5722802 0.5278606 -1.5334871 0.078272775
3393 1.1579509 0.24971837 2.4987614 0.12921673 -1.7255691 -0.10586981 2.2648363 0.52342933 1.923745 1.3161926 -0.60580087 0.23178425 -2.0123293 0.30211073 -1.8598601 -1.1399735
1622 0.9447655 -0.57925236 -0.16467282 0.4043994 -0.85803074 0.65464425 2.473338 -0.915385 -1.0419159 1.0431089 -0.14050123 -1.5708519 0.75709057 -2.290372 -0.19038875 -1.8300111
107 0.89962435 -0.17022087 0.017404824 -0.20847434 -1.975134 0.0016443913 1.5133193 -0.03293634 -0.9626006 -0.19369978 2.2493176 -0.8892197 1.0619905 1.4899137 1.2394506 -1.3948343
4293 0.5775802 1.0546231 1.4144812 0.14181305 -0.7751968 0.9351382 4.5221295 -2.9195068 0.6854206 0.19715565 -1.5800687 0.6212827 -1.6779879 0.14290981 -0.703585 -1.5740038
3960 -0.12761179 -0.80870485 0.021325266 1.6886623 -2.6509156 2.1366324 2.6604524 -0.6441222 0.43302882 1.0961481 2.2681262 -0.9380981 -2.1068628 -1.2883161 -0.01972461 -1.3868057
539 0.16120353 3.1611738 2.601314 -0.6666843 -3.6286118 0.036668897 1.4626572 -1.3390707 1.0453118 1.0605196 -1.1593273 0.7411176 -1.3866161 1.5170785 -3.3664846 -2.779198
4520 -1.2922072 -0.17653061 0.74988806 -1.802178 -3.0629156 1.2736884 2.4615602 -0.17195602 2.539176 -1.6662947 0.271968 3.7068334 0.81451756 -1.8462235 -3.0898821 -2.7993646
1661 2.2524617 0.51722497 3.5043223 0.86675835 -4.45743 -0.63413393 0.58205366 -0.6939043 1.0797355 1.5592506 -0.32948503 1.1802772 -2.223412 0.8833996 -0.85163546 -0.55737764
1501 1.0629802 -0.3775828 0.4866814 -0.2374904 -1.9202211 0.04536705 0.5939853 1.350691 -1.2416612 0.85873806 0.5461084 0.371463 -0.90599626 0.12906161 0.5297354 -0.5371418
382 -1.0722466 1.8263556 0.4959656 1.1524615 -0.9249174 1.3557218 2.2499206 -1.3559737 -1.7374867 0.5404608 -1.2949809 1.0136968 -3.3255513 0.20024341 0.3894742 -4.2446914
8256 1.523727 1.928771 1.3909173 -0.6575142 -2.0072222 -1.6557015 0.98093176 -1.8338473 -0.6493915 -0.63102895 0.34768614 -0.9758774 -3.0625308 1.5574218 -1.1787052 -1.4631499
124 0.6942739 -0.73882675 -0.38505477 0.79380023 -0.4643295 0.74129736 0.6630697 -1.3000305 1.4683405 -0.23937824 -1.6819674 1.582781 -1.3566645 0.6094785 -0.7360433 -3.7150502
8452 -1.0866559 1.8828552 0.32940817 1.1061884 -1.0251876 1.4173585 2.0758023 -1.5354687 -1.8437763 0.40206474 -1.4495139 0.97038126 -3.2126737 0.13142662 0.41620705 -4.3759212
166 -0.21094139 3.1549041 2.7036777 -0.8485273 -3.8221552 0.25617075 1.7468603 -1.6376314 1.0013916 1.1093483 -1.2666764 0.6970283 -1.369467 1.7575698 -3.4699507 -2.8282328
987 1.0176833 -0.84743696 1.182511 -0.23299368 -1.7539536 0.10029335 0.32103154 1.1696321 0.6901022 1.0687702 0.27458388 -0.84016204 -0.21146934 0.5154997 0.20454605 -2.502984
862 2.4215095 -0.6177316 1.072708 0.46182534 -2.575701 0.072952546 1.5716487 -0.7128316 -1.4000629 1.024612 0.15413272 -2.0451117 -0.7120935 -0.32626694 -0.40631294 -0.739087
863 2.4553902 1.5072377 1.9866358 1.1265683 -5.402262 -1.0054022 1.8805816 -1.4271082 0.041708887 0.73350346 0.17903051 1.6818461 -0.33956224 1.4481999 -2.884148 0.17749734
5699 1.6388164 0.400269 0.4633491 -0.75750214 -1.3808111 0.09833947 0.95520794 -1.0319682 -0.7231335 -0.77191174 0.24423043 -0.54011756 -1.7030884 0.5240586 -0.45851487 -0.19493626
6446 1.1355208 -1.0474014 1.0458957 -0.045393515 -0.31578004 0.40501153 1.6038644 -0.48261404 -0.040588208 0.33712482 -0.4513428 -0.26169312 -1.6730708 0.5523871 -0.41316408 -0.84944856
311 -0.6069701 0.89675254 0.23931712 -0.3358753 -2.2289383 1.8508768 2.0537648 -0.25889587 -0.92033184 -0.029384023 -1.0449431 0.79605436 0.8753213 0.0027578378 -0.849114 -3.2360013
3946 -1.1385466 1.9550154 0.36009 -0.58022237 -4.148097 1.1198063 1.2121068 -0.8252438 -0.7286459 -1.3282043 0.590775 2.0823734 -1.5782176 0.66841877 -0.56958216 -0.106596805
1202 2.2435122 -0.8528151 1.1850103 -1.0403007 -3.2095175 0.42743453 1.6171615 0.6911602 -0.08734552 -1.7747605 -2.6338243 4.1935263 -1.9997673 1.1031668 -0.64379233 -2.5762775
6839 0.098357685 1.2531841 0.3637823 0.3779772 -5.360238 0.86239445 1.7655598 -2.8435788 -1.5396496 2.009887 0.21667959 -2.3212383 -1.2747625 -0.38972825 0.1348995 -0.5269433
1138 1.8064102 1.0700424 1.5152106 0.5280793 -2.3694963 1.3796835 2.4414294 -0.03305103 -0.7795596 -0.14363216 0.10170641 1.8259921 -3.0651014 -1.8012462 -0.2091842 -0.043121926
1370 1.8817213 -0.58192044 2.0621078 -1.3261677 -0.6768574 -0.28099263 1.2010931 0.20503244 -0.7359215 0.22739457 -1.3641632 -1.0820315 0.71524453 -0.26501894 1.6453271 -1.5685645
4638 0.40757325 -0.27845618 0.7735093 -1.6461774 -1.3625357 -1.0405308 2.1483846 2.5371501 0.6202417 0.6948679 0.13842134 -1.8841654 -2.9391084 0.9801476 -0.41952237 -3.705561
5152 1.7753416 1.1645814 1.9780905 -0.9496845 -1.2870514 -0.5852836 -0.54161125 0.82704467 -1.6718398 0.86422986 -0.7802205 1.0800345 -2.265351 0.07983074 0.29281062 -2.9044943
4141 -0.5438948 1.2936918 0.8928975 2.4677606 -3.237727 -0.23963925 1.4825106 -0.34097287 -0.4377492 1.9926981 0.30998892 0.9782944 -1.8561136 1.8376076 -1.0305412 -2.7595792
4348 1.2942375 -0.25053853 2.854267 0.23485796 -1.15312 0.36534983 2.5894284 0.997463 1.1868824 1.865485 -0.6017751 1.2524008 -2.514763 -1.6427974 -0.5068551 -1.2298968
6679 1.7239088 -0.19591168 1.5142868 -1.9162676 -1.1988599 -0.45265833 0.8016825 0.35441917 -1.135577 -0.5244797 -1.7527096 -0.97648954 0.63920665 -0.48550966 2.7958722 -2.5032492
293 0.96222734 -0.7138552 0.88242567 -0.0058817714 -0.5622741 0.29868603 1.6059124 -0.6781206 -0.6005861 0.35965347 -0.6243781 0.0628884 -1.7661449 1.0791348 -1.0517743 -1.0625505
230 1.1532129 0.0030262254 2.4369245 0.12042868 -1.3334875 0.55170476 2.544725 0.8459528 1.3351914 1.5182264 -0.71414334 1.4430271 -2.9760344 -1.7631332 -0.4606097 -1.100609
3475 0.5867256 -0.06114453 0.30174124 -1.9275006 -1.9749225 0.97662437 0.13069347 -0.41501573 -0.195118 0.60092455 -0.048369497 -1.1372495 -0.6934151 0.9642612 3.5945306 -3.5017521
908 -0.14941876 -1.6647128 5.363959 1.3389311 -1.4461614 -0.26968387 2.1919398 -1.5073624 1.5969423 -1.0609146 -1.7949867 -0.25134882 -1.2128274 0.44992328 -0.72615695 -3.8635166
9367 0.78495115 -1.5184463 0.71810085 0.33716464 -2.2456293 0.24129987 -0.57486075 1.2048141 1.3705275 0.62917906 -0.19048144 -0.13263804 -0.28378803 -0.39278045 0.5341694 -4.1524954
447 3.2327454 -1.1518997 0.3436636 -0.5541941 -1.2035996 1.5756438 1.7037264 -1.1365664 -1.5472816 -0.4854607 0.17010392 -0.011076106 -1.2987123 1.3152407 -1.8921537 -1.3654406
10684 -0.8366404 -0.68942696 0.5296964 -0.099581406 -2.7384999 -0.26981336 -0.63493335 -1.5340525 -0.53480774 -0.5983489 -0.34358642 -0.8116972 0.38697147 -0.624066 -0.48756725 -0.6652636
834 3.0852346 -1.993762 1.1325926 -1.3558868 -0.64397377 -0.5501899 -0.3582648 -2.968597 0.1365216 -0.3701572 0.7995705 0.8221792 -1.9348757 -0.021276431 -0.4117069 -0.4846055
2605 1.2417725 1.2774874 0.70920587 -0.8458722 -2.5306017 -0.40675187 1.9029652 -0.76270753 0.24707028 -0.83527255 -0.014928521 -0.92647535 -2.2220547 -0.071181126 -0.39148888 0.5489795
9826 0.30338916 -1.283643 0.4263606 -0.036146153 -2.4885023 -0.6902808 -0.99441504 -1.6512488 -0.57363975 0.12014472 -0.10809103 -0.9068481 0.5028198 0.04635279 -0.8395479 -0.96527255
8454 1.1880904 0.7996404 1.1536274 -0.16417015 -1.1965884 -1.0832331 1.002548 -1.4602214 -0.31675628 -0.512441 -0.13246161 -0.6859022 -2.7771592 1.4039875 -1.2113609 -1.4826424
922 2.4602208 0.98685724 1.7391193 0.10438005 -2.3028142 -2.0802603 -1.2591838 -0.8544211 -0.9867838 -0.14714837 0.063941255 2.6743379 0.3842943 -1.0231003 0.29236513 -1.7506734
891 -0.59309024 -0.83497137 -0.19475451 0.1919177 -1.7654959 -0.42349017 -0.21141444 -1.4491097 -0.27789965 -0.0011950827 -0.45484954 -0.6305334 -0.0321898 -0.7172046 -0.04260444 -0.53495973
4989 2.3708928 1.1192632 1.3975632 0.610101 -2.2088838 0.77858436 3.0032156 -0.41459677 -0.57075214 -0.15563065 -0.31220812 2.3498404 -3.155545 -2.5265875 0.17206594 -0.04080256
2442 -0.17407924 0.43005666 0.54434246 -0.25574204 -2.9210274 -0.24046691 -0.04354958 1.0636569 -1.0783541 1.2696235 2.8249516 -0.69549716 -2.715528 0.26965865 0.68549865 -2.3127513
2225 -0.3592188 -0.059175447 1.2375412 0.3882174 -2.8185484 0.36176208 0.03253128 0.7755093 -1.6534235 1.4508996 3.0794222 -0.42771018 -2.100425 0.09261743 0.17204563 -1.8512509
4700 0.6811738 -0.03454068 2.609103 0.9144457 -1.8368484 0.87898695 2.2914433 0.82639426 1.0057197 0.7198366 0.08630948 1.0901067 -2.6291606 -1.414046 0.13189547 -1.1198952
909 2.215109 1.0586238 1.1992685 -0.12899768 -2.3759606 -2.8084495 -0.79905254 -0.927033 -1.0726439 -0.04370425 0.28206158 3.0011122 0.58291095 -1.5313619 0.4382689 -1.733333
4895 1.1605287 -0.4552081 0.23596573 -1.8884292 -2.3747485 -0.018999614 -0.60266733 1.2922382 -0.38924667 -0.2081645 0.9833535 -0.8931257 -0.05303488 0.7019688 1.1270211 -2.6370552
509 1.3413393 1.0179504 0.35434562 -0.6531517 -2.1230488 -0.45378023 1.4829148 -1.0416192 -0.14303812 -0.5081437 -0.17381461 -0.3301905 -1.4263686 0.74001986 -0.4137831 0.42065138
9317 0.14922158 1.2835248 -0.21656771 -1.3730277 -3.16287 0.032254983 -0.44371292 1.0595964 -1.2764924 1.0113744 1.6087669 -0.15595783 -3.0448377 -0.13631478 2.0826395 -2.1659453
2462 2.385133 -1.3833913 1.1526651 -0.048201825 -2.5255458 -0.33734393 1.0921636 -1.0465785 0.96489877 -0.85880184 -1.5940709 2.655001 -0.8921805 1.3497502 -0.28218094 -0.88637173
3340 1.9403163 0.41227993 0.47431943 -0.5990911 -1.5113413 0.010647477 0.98855734 -1.1262052 -0.641327 -0.78633255 -0.25802007 -0.3539248 -1.4321351 0.41883838 -0.6708723 -0.21034896
985 -0.023536935 1.8467155 -0.5271212 -0.8155809 -3.231975 -1.1837883 0.5742499 1.4226469 -1.4480987 1.5819501 1.8337348 -0.33173907 -3.3929362 -0.05068303 1.1143428 -2.3402274
5700 0.42200568 -1.2086029 -1.8473895 -2.7142189 -3.4057555 -0.080616474 0.06938609 0.29722017 -1.1084028 0.3024684 1.529012 -1.1699388 -2.369 2.701598 0.77286845 -2.2299933
4956 0.42067707 -1.2902001 -0.04350649 0.948907 -2.979496 1.7706958 3.1664307 -1.1663141 -0.058984887 0.35264766 1.0350072 -2.078585 -1.4482999 -1.9694816 0.6399565 -0.8295262
599 1.4442829 2.278368 1.3762081 -0.8332034 -1.8904052 -1.5128657 1.099253 -2.1661105 -0.5521056 -0.62969416 -0.048008453 -0.70118093 -3.0397053 1.4877743 -1.2225593 -1.7208081
704 -0.33580163 0.043221302 1.0534414 -2.0533435 -1.2264172 -0.54646045 3.0692072 0.85624117 -0.054130137 1.0137842 -0.5826284 -2.4745085 -2.8287811 1.9781157 0.22227687 -2.9404936
9422 1.2004087 -0.68683994 -1.6623192 -0.5784604 -0.5570189 -0.8103568 1.7193851 0.58480793 0.48578835 -0.50327957 -0.5111259 -0.433094 -0.2888283 -0.6029764 1.1458167 -1.8986561
4210 2.7319846 0.49672344 1.4527866 -0.4757228 -0.9847807 -0.71690154 1.2981129 -2.714904 0.02588439 -0.31439573 -0.2787387 -1.171054 -2.9025223 -0.07620942 -0.92821157 -1.6057639
4994 0.026560493 -0.6846765 1.5258849 -1.4958163 -1.102325 0.36815837 1.5087746 0.64591944 0.55703 0.09500959 0.90061015 -0.65386254 0.32007274 -1.0456246 -1.3709817 -0.61021006
5617 0.43985173 -0.43463644 -0.07761411 1.2377347 -0.6227068 0.56816614 0.69891727 -1.1586809 1.0028529 0.001635418 -1.5320376 1.6089926 -1.4325874 0.86384183 -0.6151392 -3.7401686
3602 1.6707025 0.6240095 0.28226426 -0.77253866 -2.8395634 0.09771893 1.427813 -1.4887455 -0.433313 -0.39241898 -0.25840703 -0.58597606 -1.9574347 0.46098858 -0.7411785 0.6180346
4929 -0.89483404 0.37189168 1.2521735 0.2043241 -1.7047462 0.60442346 2.285576 -0.038287967 0.10041723 1.594947 -0.39931577 -1.8707814 -0.18888208 -1.0294106 -0.5394295 -2.6050594
2048 0.91895187 0.7560307 2.6640925 0.48747736 -1.7237364 -0.34883904 1.3325163 0.029972801 1.9990608 1.7670931 -0.43678012 0.3488923 -2.0554814 0.3937827 -1.3973196 -1.8804688
5112 3.5226505 -0.4328709 1.0196213 0.10803752 -0.32436967 -0.21182892 2.3612278 -2.3631656 1.0561783 0.57247746 -0.63271284 -0.54309887 -2.7852986 -0.18318376 -0.78276205 -1.9055146
418 2.9049191 -0.22197506 2.6256924 -0.88231343 -1.7269574 -0.3942739 3.1034431 1.697454 -0.21928522 1.7914282 -0.81790787 1.5619978 -2.945671 -1.2262498 -0.3338258 -0.31162983
1619 1.1675613 1.2376682 2.4660897 0.06472417 -3.0854368 0.088185534 2.14125 0.059021495 1.4863296 1.5798912 -0.63449585 0.7487939 -1.7337255 1.0286046 -2.160337 -1.2061822
1848 -0.029599154 -0.21914007 1.678146 0.88721365 -1.2278678 1.0784253 1.1705182 -0.9412439 -0.057142008 -0.18269852 0.52884257 -1.7208027 -0.3299621 -0.35050493 -0.40931582 -2.4032474
5831 0.39535138 1.0225899 1.5716287 -0.5539072 -1.321816 0.9563465 3.2894402 -2.182664 -0.2776527 0.033168923 -0.27755785 0.40512076 -1.8092664 0.7107565 -1.7784712 -0.41219863
2165 2.3971417 -1.6284808 1.1313906 0.17240939 -2.442594 -0.15030366 0.86535174 -1.0198661 1.1799184 -0.31500772 -1.4195154 2.0408618 -1.2604012 1.3262781 -0.39828163 -1.156289
1185 -0.8682446 1.6198117 0.462419 -0.018404704 -2.1381032 1.8297352 2.156977 -2.2204065 0.7139224 -0.870091 0.39077193 2.4629216 -0.7230298 1.2963231 -1.3228959 -3.4020493
4480 -0.114253744 0.37411425 -0.56176436 0.7849083 -1.3843769 0.27506417 -0.10213013 -1.0168867 0.4794499 -0.16947928 -0.8564814 1.2269129 -1.3325982 1.0218147 -0.7037551 -2.9702678
3141 0.1718175 0.12148259 -0.79985625 0.8314689 -0.83076125 0.8051739 0.8420606 -0.972858 0.6392043 -0.24770613 -1.1998194 1.4260467 0.06511965 0.1533317 -0.9083584 -2.8662086
119 0.2790654 0.6791064 -0.029095309 0.6086905 -2.3509228 0.8697257 0.68531185 -0.60955447 -0.5383365 0.056422476 0.23664401 1.5287372 -1.0155305 1.2012901 -1.093363 -0.76663405
2326 2.062513 -0.5883363 0.51349086 -0.044125378 -1.9584816 0.93525785 1.6688542 -1.7283754 -1.5371437 -1.2943628 0.52264327 0.7464959 -0.58352506 3.0212295 -2.4806182 -1.1396481
6981 1.7844816 -1.9317579 0.30771923 0.1111197 -1.2845421 -0.99966896 -0.71943426 -1.1394885 1.2665873 2.1726437 1.3475492 -0.80503905 -0.9001349 1.1142333 0.79252774 -4.2267556
7234 0.6757217 -3.049993 1.0538799 -0.9601679 -0.9455843 0.34409726 0.919436 -0.27963445 -0.8441428 0.09717815 0.08797656 -0.7160819 0.5934843 1.7426667 -0.7149614 -0.89036256
1128 2.3442373 -0.08261898 1.0968282 -2.088415 -2.1202645 -0.5423118 0.9209834 1.1536448 -0.4840196 -0.62067586 -0.7262816 -0.26209354 -0.8286378 1.2588987 1.4579685 -0.7666467
110 3.245177 -0.38455686 0.1546548 -0.7366928 -2.8043785 -0.13098039 1.0565604 -0.41500804 -1.4615828 0.9722609 -0.13810149 -1.7617129 -0.23596747 0.14151955 -0.58416975 -0.70957845
545 1.1279749 -0.9188909 1.1179322 -0.15177971 -0.38519183 -0.005608036 2.0524726 -0.59895617 -0.25387278 0.8413446 -0.9504288 0.054339163 -1.5311562 0.9563349 -0.83181614 -1.0148667
1877 1.1130176 -2.4110637 0.26168394 -1.315073 0.005615421 0.59732276 0.42195648 0.3426375 -1.8276818 -0.13573413 0.7285539 -0.21385217 0.20429188 -0.08254044 0.08584966 -1.8429533
6655 2.2129202 -0.7848102 0.46251577 -0.14355665 -2.0042415 1.2683098 1.8723485 -1.859618 -1.5649706 -1.200189 0.5915136 0.81949604 -0.74028593 2.719254 -2.6419764 -0.9748025
11205 1.5675485 -0.0054813824 1.3387015 -1.4378935 -1.2497169 -0.63517326 1.0492367 0.48145542 -0.8439719 -0.69245416 -0.8307974 -0.9419695 -1.4191757 1.1293937 1.1522603 -1.4748044
10820 0.27680725 3.0955474 1.7118447 -0.0071207364 -2.3263443 0.22113723 1.0651772 -2.1528773 -1.7318888 1.5466015 0.8389806 1.5083616 -1.7072679 0.5850271 -1.0128304 -1.2606431
611 0.662387 -2.195392 2.2461238 -0.776337 -1.7051488 0.5374521 3.256683 -0.08261692 0.19153212 0.64065677 -1.5649346 0.11783611 -3.2180135 1.2783008 -1.8723269 -0.95509785
31 1.9008827 -2.9564698 0.6885157 -0.9716206 -0.38554743 1.0353843 1.5547378 0.52523655 -1.0843939 0.040792715 0.6022783 -0.5293553 0.30137545 -0.28304908 0.24020353 -1.4728374
1098 1.6746665 1.1441172 1.8679907 -0.72626764 -1.3685498 -0.7648378 -0.7172722 0.57454115 -1.2871758 1.056801 -0.6014804 1.179235 -2.1370652 0.45842174 -0.20141283 -3.020099
2415 -0.12623306 1.5728898 0.26237035 0.14598115 -2.7243128 0.6178794 0.7593578 -0.95704406 -0.7379144 -0.6197678 0.24068204 1.7452016 -1.5595379 1.1052568 -0.6221385 -0.32129148
2155 1.167756 0.73104054 2.2394218 -0.90630496 -1.1872047 -1.1720747 0.15034018 1.1960216 -0.67660725 0.77880234 0.055416793 0.19901752 -2.4082427 0.1748442 0.48735097 -2.7293625
3380 0.28117216 -0.24100786 0.72749436 0.055359002 -2.084715 -0.73546946 1.0879276 1.2797775 -0.402371 1.0554378 0.99169487 -0.496105 -1.8872688 0.29895163 0.07873027 -0.7661727
940 0.26450133 -0.20558989 2.5049968 0.47575885 -1.1170076 0.42263594 3.2231085 0.95180315 1.6670742 1.4114497 -0.086604044 1.1129042 -2.9286575 -1.6119606 -0.47486642 -0.839509
4220 0.49149218 -1.4045043 0.5308874 0.6652521 -0.35088867 1.7556192 0.46115458 -1.238492 -0.58190787 -0.13710348 1.0424117 -0.09909406 -1.4136248 -1.2475173 1.043593 -2.0396261
1297 1.9202926 1.2429338 2.464357 -0.963495 -1.6120901 -0.9478693 -0.8303971 0.82856077 -1.7124255 0.6495226 -0.4887674 1.4397411 -2.3679113 0.2789472 0.7285802 -3.2424297
6608 0.5863095 0.43723917 1.0363668 -0.22557965 -1.0989625 0.36073712 1.8639731 -1.6117593 0.034553256 -0.0320343 -0.35022765 -0.32796252 -1.9241874 1.0304219 -1.5645399 -1.1551071
414 -0.0035710377 0.88600075 2.5989377 1.1211118 -2.6282368 0.77842706 1.9256065 0.6602284 0.17518307 -0.6539784 0.84543747 1.9364046 -2.2749429 -1.1254417 -0.105533436 -1.3015958
2432 0.6143386 -1.4477472 0.46108586 0.51752234 -1.8315582 1.4451685 3.0833924 -0.8046403 0.10304431 -0.19493353 0.7662512 -2.2339103 -1.0664834 -1.5287914 0.6957695 -0.5670608
282 0.94778275 0.03954584 2.9006114 0.82905895 -2.4215503 -0.4016744 0.37951234 0.23918971 0.52361226 1.3465621 -0.61743325 0.82121855 -2.3618813 0.49205726 -0.5396707 -1.6051089
1455 0.88878846 -0.8634613 0.9274094 1.5826471 -2.4779646 0.058537133 3.1740806 0.45936584 1.2612967 1.8851775 0.43952817 -2.105873 -2.4826133 -0.5592492 -1.718473 -2.378373
2196 -1.2022502 1.5903605 0.40242666 -0.171169 -1.9262006 1.2611078 2.5209746 -0.48100424 -0.47483253 0.90138364 -1.3504832 0.9482616 0.3754008 -0.58206093 -0.5544206 -2.9477699
4334 -0.0014187264 1.1241668 0.35255066 0.0001030077 -2.1670847 1.3214493 0.9836284 -0.94153327 -0.6854226 -0.37391323 -0.28877068 1.443184 -0.19842176 1.0779485 -0.6997198 -1.6964691
3285 0.050045013 -0.15999168 0.4615118 -0.3181736 -2.1632082 -0.33654132 -0.24849059 0.964378 -1.5085758 1.5836501 0.51346755 0.9787885 -2.2625809 2.8205962 0.6744284 -4.3135223
1968 -0.57575655 -0.52546316 -0.06400741 1.450707 -3.054291 2.0160859 2.296098 -1.335976 -0.04501276 0.32850865 1.3256506 -1.272454 -1.1192356 -1.0820845 0.20568085 -1.021237
9523 2.963028 -0.162411 -0.05120352 -0.7835434 -3.0389605 -0.19307204 0.9201726 -0.2448669 -1.2645934 0.88443244 -0.46698642 -1.6344683 -0.5661155 0.18708856 -0.38604683 -0.42729482
1518 2.8611445 -0.69923365 2.5469346 1.835103 -2.0426867 0.30868056 2.2576897 -0.014542314 -1.1297721 0.6796375 0.07145155 1.9533013 -1.9839067 -1.3913994 0.58309525 -0.41211668
10926 -0.39017564 -0.46241388 1.6598146 1.0446036 0.15634298 2.0669527 1.0984945 -2.4137719 -0.83255166 -0.5141616 0.8069576 -0.4188724 -1.9898167 -0.86126477 0.9453454 -2.0779362
670 1.1242151 -0.59227383 0.85547894 0.113373674 -0.11311162 0.44282323 1.8272326 -0.82596576 0.2674783 0.35875645 -0.9485443 -0.04089103 -0.9681009 0.37612617 -0.6901258 -0.9944011
7553 3.203287 0.26619247 2.010972 -1.1418288 -1.7822094 -0.18192701 2.7296548 1.2160541 -0.6471701 1.1451824 -0.68185496 1.5471454 -3.0091662 -0.8375955 -0.11527755 -0.13688286
3531 1.3811064 -0.73095846 0.4262915 -0.6805526 -0.29100847 1.2101825 1.8840159 -0.30711994 -0.87860703 0.75096357 -0.2553798 0.052864976 -1.8659635 0.806441 -0.4581288 -1.3047868
10377 1.0641251 -0.081216276 -0.35115844 -0.22878511 -1.5031615 -0.81494373 0.09525393 0.6228974 -0.9335273 0.7394924 1.5829947 -0.04336312 -1.4562979 2.4573262 0.7444164 -4.8269963
2003 3.1422734 -0.5500091 2.540343 1.7533876 -1.7992346 0.1035853 2.2212791 -0.120986804 -1.4037671 0.8419345 0.09508894 1.813015 -1.9379702 -1.4474214 0.66072947 -0.4381456
677 -1.5140803 0.9712219 1.5217941 2.0808265 -2.044263 -0.3562106 1.8058461 -1.2929304 0.2852528 1.4178714 0.24515042 0.47345817 -2.4728441 2.538093 -1.2546196 -3.4014628
4312 0.84202725 -0.3819032 -0.88044953 0.4081564 -1.7088053 2.3113685 2.0574515 -1.5816587 -0.09787111 1.0451905 1.3614185 -0.84831345 -2.097448 -0.85954136 -0.79202276 -1.494398
5932 2.578739 -0.49843967 2.6546586 -0.5521005 -1.373234 -0.093492374 2.9765835 1.3871958 0.7381289 1.7385435 -0.76875484 1.2599453 -2.340101 -1.5771041 -0.4812297 -0.46571654
844 1.1861832 -0.15428318 2.3394368 0.5302687 -2.3596404 -0.06639473 0.38615888 0.03381407 0.5810475 1.5401982 -0.5749269 0.8186122 -1.9256165 1.063671 -0.3917118 -1.1765195
2064 0.21547969 2.1653955 1.28706 -0.7742826 -1.8187708 -0.72598857 1.1401387 -1.9448122 -0.44390145 -0.9813789 -0.26393384 -1.1090277 -2.4898014 1.258865 -1.1915973 -1.6261811
7961 1.4392986 1.7158802 0.43424216 1.7255995 -1.7858403 -1.4619474 2.4541423 0.75385183 -0.7085343 0.4149566 -0.2228126 -0.75056815 -2.3615696 -2.85834 -1.1772741 -2.748686
1004 1.0902556 1.2048185 1.5196333 0.20434877 -1.3598305 -0.78135806 0.7791109 -1.7135646 -0.57959515 -0.5490972 -0.06814327 -0.39654467 -2.4212077 0.8722324 -1.2488414 -1.4737158
3848 1.934076 -1.275571 0.48839864 -0.5195507 -1.1140985 1.2682215 1.8210708 -0.10137492 0.12365279 -0.20498306 -0.41862395 -0.555579 -1.6520758 -0.4319448 -0.3687431 -0.7630986
2472 0.82380545 -0.64187455 1.215031 -0.051153067 -2.855365 -1.8092741 0.80734396 1.7366055 -0.64520645 1.8508139 0.76040345 -0.11001401 -1.4434757 1.02397 0.0017519552 -1.49981
10786 -0.50232846 2.0256464 1.6685963 -1.2394053 -2.0883033 -0.6071189 0.25885302 -1.144713 0.72925067 1.4344769 1.7559162 0.8255763 -0.97312963 -2.4380846 0.04299191 -0.65921795
1892 -0.5089631 1.8820282 1.561682 -1.6387581 -1.7433268 -0.3192263 0.6958352 -1.254618 0.88745105 0.80834246 1.4441228 0.33312684 -1.3856266 -2.9062963 0.37990528 -1.1271417
11158 -0.16199958 1.1519263 1.2098825 -0.8978259 -2.1719403 -1.5894775 -0.1657569 -0.50183284 0.056801796 0.89136726 1.4214149 0.60713875 -0.742121 0.0016267935 -0.7628675 0.10793591
4957 0.10168086 0.36944905 1.7339561 -0.5653143 -1.2344774 1.1181161 3.749527 -1.7347265 0.4952823 0.51974046 -0.9113257 0.9642739 -2.2044883 0.8037865 -1.9343803 -0.6454275
8145 -0.45116827 -0.12974901 1.0427486 0.9164688 -2.0507467 1.017476 2.6446118 -0.96175086 0.5599969 0.8402709 0.558225 1.1433959 -1.4822098 1.5506871 -1.5558758 -0.4051536
1645 0.8323682 -0.07025712 2.505489 0.36006692 -1.1269444 0.47732636 2.7242863 1.3042434 0.9161807 1.4218692 -0.8118341 1.2454312 -2.6283774 -1.498728 -0.0033428073 -1.0193106
2417 0.6545698 0.0456056 -0.090858646 0.3835112 -1.499913 0.9612602 1.3377178 -1.6298058 0.45644605 -1.502757 -0.13928056 2.263676 -1.030453 0.00039464925 -1.6507092 -1.9332229
2263 0.30848333 0.23218898 -0.26988435 0.2385434 -1.8025751 0.9062333 1.0700688 -1.5582173 0.74254405 -1.4122276 -0.28988874 2.3811705 -0.7255853 -0.24083221 -1.3560507 -1.830645
12406 1.8584353 -1.0225526 1.0287585 0.003721791 -2.9575992 0.6217232 0.32538152 -0.8039323 -1.2045275 1.0579505 0.27784953 -1.721431 -0.6487196 -1.1033478 -1.1284126 -0.95559156
854 0.97493804 -0.37792328 -0.12562361 -1.3501906 -2.3590891 0.6774114 0.028966626 1.2348384 -0.6250646 0.083742745 0.6977574 -0.3090792 -0.68192345 1.6921496 0.6283904 -2.8446622
1255 0.9375324 1.4484351 1.8903204 0.10226793 -2.2469323 -0.08124725 1.3769766 -0.6733457 1.1920753 0.8950051 -0.98550004 0.47761193 -1.2062268 1.1076021 -2.6057744 -1.9012034
1988 -1.5101624 0.16855507 0.41344792 -0.53100866 -1.3885486 -0.24930644 1.3943284 -1.574038 -0.5877748 0.5219316 -1.2952744 -0.41414213 0.4651514 -1.2053349 0.49201062 -0.002687673
668 0.1734449 1.1491624 0.23665884 -0.14719327 -1.656228 0.7756592 2.141128 0.47137436 -0.3440757 -0.32395223 -0.63990897 -0.30284092 0.26736474 -0.27800283 -0.71347517 -3.6054828
2989 1.6558887 0.8959625 0.6835898 -0.30850768 -1.0464652 -0.83701634 0.67328227 -2.5065641 -0.06428578 -0.35273454 -0.051019475 -0.27282986 -2.7427986 0.32628658 -1.3092952 -1.2220999
5547 1.1719668 -2.091905 3.6966007 1.5398561 -1.4226295 -0.39914045 0.55893725 -0.74040574 0.52904147 -0.087172784 -0.6310902 -0.28405845 -1.7824875 0.035598107 -0.9345937 -2.721912
3568 0.9331273 -0.1277555 2.0351534 0.3637477 -0.77079993 0.34283268 2.3822014 0.6839815 1.0055684 1.6221442 -0.46474952 1.216432 -2.5021281 -0.95280194 -0.6494983 -1.0961705
4530 0.29516253 1.2708699 2.5265563 0.7673969 -1.3454708 2.206787 3.0612714 -1.1641232 0.5911173 0.95104665 -1.8883317 1.5248418 -1.5970602 0.51461774 0.013791858 -2.6988337
3162 0.47913435 0.69227934 2.4391267 1.3864939 -2.0497382 0.812244 1.6656107 0.020177694 0.4825116 -0.63187665 0.5749146 0.8387681 -1.7421632 -0.86195254 -0.30608448 -1.2059606
3334 0.2938914 1.0548329 2.8610258 0.500178 -1.3392389 2.588974 3.0151367 -1.6275024 1.2007325 0.30237532 -2.0317516 1.5147129 -1.362464 0.5549773 0.47461447 -2.748315
5317 -1.1340376 1.3093678 0.44591305 -0.10084999 -1.6574377 0.9995197 2.0248456 -0.46139878 0.29635763 0.7335314 -1.1327296 0.31192452 0.41364175 -0.34641486 -0.6528653 -2.5764477
6786 -0.49382424 -0.11549437 1.3390435 0.8267927 -1.9317868 0.8833365 2.9826825 -1.1563675 0.7338716 0.9537134 0.6105562 0.7794442 -1.7600704 1.9025431 -1.6512913 -0.450583
1329 1.3254449 -0.1198585 0.4624948 -0.86555004 -2.2365487 1.4044152 0.16698866 -0.1755201 -0.5836099 1.2435839 0.2975496 -0.793875 -1.0860056 -0.71842176 -1.062414 -0.85570896
2117 0.834304 -0.42586228 2.8100753 0.93257314 -2.6333256 -0.2591756 0.71082634 0.5179091 0.81332743 1.7355573 -0.2288067 0.77914345 -2.280429 0.8204682 -0.5933477 -1.3906871
2277 1.0798713 0.18448238 1.1393168 -1.763481 -0.7197052 -0.5479218 1.071026 0.8021261 -0.24237266 0.073844865 -0.13691218 -1.2068771 -1.1017752 0.7588292 1.1199986 -1.9222742
204 1.1926981 -0.86827606 0.63768923 -2.233232 -2.022376 -0.29238465 -0.7701047 0.82123554 -0.7482917 0.1032369 0.5386526 -0.9713573 0.2614231 1.1048454 0.21077874 -2.2824934
723 0.41755855 0.25422606 0.46035546 -0.64057994 -1.103867 -1.0298812 0.6830068 1.4046457 0.08768048 0.7520852 -0.15904053 -0.98701066 -1.7490302 0.37654614 0.5199866 -2.607815
8539 0.8868491 2.1446648 2.7098248 -0.1365853 -1.8848479 -0.22736175 0.3204602 -1.788584 -1.5462757 1.1920987 1.1259176 1.7256364 -1.3288063 -1.6490486 0.49903712 -0.5717539
370 -0.10276182 1.3982887 -0.224433 -0.814427 -2.8332188 0.69164824 1.0055304 0.2395016 -1.2424307 -1.7416073 1.1225915 -0.21172361 -0.92413557 1.3681122 -0.5777935 -1.5533454
1364 0.1074077 -0.709324 2.9392874 0.5224258 -1.2565833 -0.16260223 0.9802436 -0.8684737 0.7264971 -0.2727457 -1.3584522 0.44203663 -1.1961076 0.4139345 -0.5395525 -1.3763542
1012 0.8335603 1.3045986 1.8922681 1.3996899 -1.8844423 0.093422115 0.8861762 0.13624755 -0.25054532 -0.88891035 0.46199927 0.9479852 -1.9571992 -1.2428833 0.09801304 -1.4749887
749 1.3762101 0.48987737 0.14569715 0.3211626 -1.9394892 -0.3885734 1.1082642 -0.2921224 -0.82045835 0.8585006 -0.11576802 -1.7507465 -0.36386952 -0.8876411 -0.40216488 -1.4389278
3809 1.361917 1.395719 -0.2577693 2.3848474 -2.2247982 -1.8531613 1.5024142 -0.049431354 -0.7183722 -1.0066313 0.19715358 0.21274693 -0.6505735 -1.9565483 -1.8293662 -2.2764008
1774 2.8071017 -0.09729967 0.36077133 -0.2391884 -1.140274 0.9291449 1.8785441 -0.74418217 0.5303317 0.83740294 -0.9135625 0.5909762 -0.7094677 -0.3515731 0.05066238 -0.24549168
2588 1.2690766 -0.25899634 2.4282854 0.4488019 -1.8103684 1.0866182 0.5290273 -0.95187795 -0.87870705 1.1287258 -1.4212991 1.376883 -0.5618882 -0.67664665 -0.9502037 -1.0333481
5685 0.74709976 -1.7215149 0.80321777 -0.74190265 -1.1283953 -0.017833617 0.28407124 0.5826228 -1.7020881 1.1402531 -0.10565918 -0.15616049 -0.14456244 1.7374206 2.2129562 -3.3192863
13243 -1.2044727 1.1768669 2.3230608 -1.2224834 -1.280596 -1.2128694 0.5506279 -1.034578 -0.3695735 0.18185426 1.3897318 -0.20414838 -1.3515667 -0.2568571 -1.0253739 0.123429514
855 2.012242 -0.36570215 2.8122063 1.1784674 -0.8373632 -1.43019 0.4345709 0.41991407 -0.09199402 0.017113365 -0.9479879 1.0253092 -1.0552212 -1.0214047 -0.04083512 -3.2722294
625 0.1713863 -0.2728816 3.0276608 0.9366117 -1.7194288 -0.4022105 0.5349576 0.30776587 0.4223383 1.1961437 -1.4607387 1.4066982 -1.2716413 -0.3323115 -0.48761448 -2.224683
3697 1.170742 -0.28620198 2.0258977 0.6762841 -2.3753648 0.97612184 0.5137291 -1.040579 -0.46141332 1.2441202 -1.7574004 1.4656831 -0.64959073 -0.82012737 -1.3596609 -0.8484387
1729 0.75227207 -0.21729523 2.131721 0.3108063 -1.7056832 0.5556838 1.9950534 1.9336376 0.53153116 -0.24881484 -0.21422549 1.2896026 -1.6025865 -2.0450802 -0.0067953523 -1.7352582
6540 0.7743003 0.60072577 0.3751048 0.6688243 -2.2295237 1.0045745 0.6378512 0.1309519 -0.65740126 0.37525123 0.1575358 1.6063813 -0.42320973 1.2383586 -0.3701218 -1.1157165
1127 1.4930586 -0.28150436 2.9105732 0.21788399 -1.3664299 0.13679253 1.8613429 0.8474234 1.1900219 1.8229954 -0.83830494 1.4947205 -2.2742014 -1.3391119 -0.6578101 -1.2728401
143 1.5054264 0.19524907 2.128213 0.26745516 -2.0791578 0.8316631 2.1292648 0.9635485 -0.23869844 0.6036438 -0.32505247 1.8195026 -1.9700371 -0.090658754 0.1343842 -0.36341187
4491 3.2668145 -0.73914856 -1.0019109 -1.5927103 -2.3625724 1.5575638 1.1319097 -0.2912452 -0.62729704 -1.2918717 -0.2565152 0.12831199 -1.8715676 -1.3213596 -0.80958647 -1.0533556
1336 0.9224833 0.2532551 2.606496 1.1922349 -2.445173 -0.25931603 0.56451094 -0.33129424 -0.32923964 1.0773807 -0.40094906 0.9051475 -3.0260527 0.73034954 -0.02984008 -1.1304731
686 1.7976465 -0.3235682 0.5052294 -0.47605765 -1.5189799 0.37653366 1.1237798 -0.8856446 -0.26219377 -0.6644302 -0.2824793 -0.5309853 -2.783951 -0.13104956 -0.46003896 -0.49915746
