7624 16
5746 1.7576888 0.923341 -1.4640675 -1.4348882 -2.3518443 0.19286376 -0.9281292 0.73976576 1.7201109 -2.5186112 0.91027623 1.1684252 -2.5306268 -0.3178389 -1.4893599 0.22685403
5745 1.6762143 0.9729675 -1.464838 -1.4128163 -2.4762657 0.11212831 -0.83100325 0.78576714 1.7915202 -2.596327 0.94213825 1.1105973 -2.7136753 -0.38655075 -1.4750466 0.18612795
12 -1.388203 0.8156481 -2.3722508 -1.0702595 0.22188957 0.090211116 2.065576 1.9483328 0.88671285 2.6122167 0.3982116 -0.1910249 -1.416261 2.259935 -0.44863972 1.5429205
3078 -1.0545619 -0.66570944 0.9445476 -1.7215453 -2.033083 1.924634 -2.9019916 0.38099554 0.9309801 1.6146188 -1.7437986 -0.4563985 -0.48973122 3.2671938 -0.37142184 2.4677322
2827 -1.1638623 -0.81749135 0.97679436 -1.9121101 -2.1481943 2.026266 -3.4292176 0.32695448 1.1840954 1.8633635 -2.1162043 -0.567986 -0.7444987 3.623206 -0.4070622 2.8877058
6079 -1.9083569 0.9006978 -3.0117562 -1.3834251 0.15817505 0.13545574 2.535558 2.4589448 0.9701641 3.2401469 0.3619154 -0.2425918 -2.0612283 2.56264 -0.45246905 1.9040118
3495 -0.3760678 0.24064456 0.46909654 1.777742 -1.0553787 -2.251462 -1.37843 2.5461097 -1.10295 0.82575595 -0.4133968 -0.9410076 -0.17638391 1.831465 0.015355145 1.1903285
5722 0.7468537 0.92240465 -1.0866195 0.31827483 -0.13870479 -0.79382074 -1.4986331 1.0122932 -0.6090751 -0.9889269 -1.0632633 0.2295532 -1.3306344 0.2609725 -0.68537897 2.4967673
4681 -0.019614222 1.1597207 -0.5410515 -0.86528575 0.48183364 -0.9701381 -2.3584514 -0.67120695 -1.736699 2.6391153 0.578957 0.8279 -1.0073266 1.4115698 -0.16099025 2.4335444
897 0.010340428 0.9948257 0.68041986 2.6214867 -1.3765123 -3.055209 -1.8349574 3.1213198 -2.0463617 -0.098754704 -0.067299895 -1.0491431 -0.74367166 2.5915916 -0.51032764 1.545875
3153 -0.773239 0.48384985 -0.5791363 0.92594755 -1.5999613 0.8163434 -0.3441717 1.2836378 -0.091966674 -0.15864486 2.5481758 0.62501305 -0.95490444 -0.6881725 0.25487867 2.0166478
473 -1.1622328 0.7100442 -2.0002778 -0.8535599 0.2628497 -0.039217375 1.7259068 1.6409903 0.8508035 2.2358992 0.41885808 -0.105557635 -1.0640496 1.8260174 -0.4349504 1.3411745
1218 -0.0023698255 1.3590459 -1.0099251 -0.8086493 0.6559772 -1.4388059 -2.8168378 -0.66145056 -2.117189 3.1404517 0.61065185 1.0834886 -1.467237 1.6850054 -0.36849132 3.197571
5755 -0.12832084 2.0569856 -1.6232872 -0.05037982 -0.6701368 2.2495692 -0.83529884 -0.24910104 0.65336365 -1.0673025 0.70404613 0.84052056 -1.418916 1.9056679 -0.35875854 1.9243319
5 2.4108193 3.5573645 -0.4235163 -0.6999901 -0.8619991 1.027222 -0.41058138 0.27081957 0.71790636 0.7624576 -0.21312879 1.0478241 -0.63242495 -0.68670547 0.3889595 2.2958524
5729 2.6645381 0.4568299 0.32894158 -1.5111548 -0.06668878 -1.1015376 -1.0850856 1.660344 -1.8152514 -2.1072295 -0.21988866 -0.33870417 -2.490295 1.5691526 -0.1823329 1.4147296
5731 2.7923841 0.49194506 0.4503383 -1.5265886 0.26196092 -1.0321335 -1.3050251 1.7237496 -1.9657874 -2.10408 -0.2532988 -0.44650358 -2.779971 1.7007718 -0.10201642 1.3697026
3101 2.5942535 4.528532 -0.545924 -0.56698024 -1.2254964 1.269827 -0.97448975 0.483545 0.88913 0.63732255 0.21644095 1.3832059 -0.112864465 -0.32970035 0.46357855 2.8741198
2883 0.33259442 1.5856966 1.798695 -0.80554986 0.6392128 -0.53303367 1.0241134 1.2309158 2.5672727 3.008513 0.7652213 0.10118047 -0.8825235 -0.67992914 -0.10453855 2.9939654
2789 0.76590705 1.0463905 -0.9532582 0.43817496 -0.2605325 -0.7505527 -1.829428 1.1119276 -0.5175296 -1.2285664 -1.4244297 0.18216407 -1.7178398 0.2565988 -0.8834753 2.6746113
1145 -1.0108395 0.12878482 -0.29311875 0.5410779 -1.641943 0.613825 -0.3355603 1.0898957 0.21052392 -0.18214005 2.1069362 0.49112564 -0.72753644 -0.64775175 0.12762217 1.8940285
341 -0.22735351 1.2314239 0.5170746 0.10320277 1.4777898 0.4674138 -1.5802602 -0.36504352 0.56925327 0.9924823 4.2825203 -0.9360987 -1.5007933 2.916543 -1.7464134 1.848421
3465 3.1356118 0.5292341 1.0071347 -2.817564 0.90626436 1.5313555 -1.8729692 1.6058437 0.43598658 1.0154649 -0.7683458 3.7607787 -1.3409115 0.44786835 -0.47802395 -0.73016095
46 -0.1532085 0.37010005 1.6271614 0.3500037 -0.21540898 0.56799513 -0.18657357 4.2615294 1.0920424 -1.081091 0.16878894 3.3100903e-05 -0.30927134 1.3882984 1.8740457 3.271583
6546 -0.02620613 2.6971645 -2.5452218 0.30019233 -0.65393114 2.716012 -0.8944829 -0.25923324 0.45501068 -0.42485037 0.881214 1.0763859 -1.7984108 2.3419592 -0.026134484 1.9998716
4646 -0.50008976 0.44084007 -0.70846283 1.187948 -1.7917845 0.94469047 -0.5140519 1.6224357 -0.24643907 0.012944072 3.1810393 0.48121044 -1.3071274 -0.7142356 0.51752615 1.6467329
1519 -0.31541318 0.50386345 1.218914 -0.046434704 -0.25412837 0.7406312 0.00078615255 3.8611796 1.1334516 -0.68331754 0.12369247 -0.106466964 -0.267362 1.149939 1.9704059 3.3279433
19 0.8790613 1.7597219 -0.84932995 -0.76053417 0.185843 -1.536076 -2.140216 1.6837096 0.92030555 -0.105310485 0.54813856 0.3604625 0.8723588 1.0580455 0.8095916 0.72641647
1449 -0.8795878 1.7890171 0.5729444 0.012888943 1.8267462 0.5851074 -2.0292883 -0.37964213 0.5756746 1.5318272 4.7920747 -1.0376652 -1.6440185 3.2414386 -1.6015683 2.5211747
5554 3.3619394 0.52328634 1.3614419 -2.8647356 1.1240925 1.6087741 -2.2240047 2.331477 0.23521724 0.79343545 -0.8413827 4.375107 -1.1196369 0.67026675 -0.52661437 -0.70400065
2665 -0.14985955 0.08078841 0.16411996 0.84501123 0.39210328 0.08908578 1.115256 1.4584253 -0.277439 -0.6649103 0.24813011 1.9428136 -2.9428337 1.4925858 -0.4735831 1.571949
2940 0.74783015 0.41385144 0.5738786 -0.47698003 -0.47962782 -0.35127345 -0.26986313 0.9776732 0.032163568 0.79021376 -0.5352401 0.7852948 -5.987444 -0.69094795 0.30453688 0.20322481
6942 -0.08339474 2.4605718 -2.2297008 -0.091631606 -0.49628463 2.3269978 -1.261258 -0.4558648 0.22037911 -0.71893984 0.80515057 0.73776746 -1.664759 1.9178311 -0.21949646 2.2125278
1427 -0.39173675 2.4843144 0.39966428 -1.6997412 -0.5078328 -0.23803769 0.07185902 1.872137 0.46463338 1.2971106 -0.653941 2.7529674 0.17385367 0.16718711 -2.4214592 -0.7300085
1318 -0.031101853 0.6614732 -1.2093219 0.97071695 -0.14401944 -2.1685302 1.1555333 2.9289377 0.68784213 -1.2818276 0.49835327 3.231609 -3.3555474 2.6101406 -0.6741391 0.23667179
5724 -1.3066611 0.08892386 -0.44466788 0.9565126 -1.4770154 -0.78254294 -0.33331245 2.923584 0.12897922 -0.64268506 -0.15799965 -0.20600185 0.30639067 2.3305237 0.18857403 1.8263988
2219 -2.7747889 -0.7266549 -1.3483405 -0.6641473 -0.18955645 -0.8218246 -2.4241772 0.86479795 0.82921964 0.8614009 2.1211045 -0.9480756 -1.736698 0.015813608 -0.19474724 2.2730281
2585 1.0861585 0.45911813 0.55588424 -0.6019612 -0.7972986 -0.30506155 -0.13719054 0.99139506 0.0077623897 0.8446288 -0.5066575 0.8779427 -6.321411 -0.6990473 0.34304345 0.09716548
2085 -0.39653754 0.6572674 -0.9693515 -3.4262545 -2.3517327 -1.639142 -0.8033771 -0.29833922 0.29941 0.6275521 2.4554057 -1.7060235 -2.2241113 0.48426402 -2.0986834 0.80913407
5785 -0.38069347 0.10090191 0.19059557 -2.0289698 -0.93153393 -1.0957661 -2.4516578 3.918192 -2.0303848 1.4105741 1.3720435 0.09705453 1.649666 -1.3922458 -1.969912 1.7092078
5742 -0.4629213 0.5269152 -0.86242807 -3.4294724 -2.4089642 -1.7685646 -0.8122657 -0.23699598 0.34832656 0.6446702 2.4648826 -1.7360864 -2.402517 0.50302416 -2.2077346 0.881992
63 -0.3930522 1.3045068 0.2743526 -1.9595858 0.9343116 -1.7930127 -2.1852498 2.2229586 0.9917841 -0.13141137 0.39884132 0.49486864 0.48395196 1.5873129 0.47728074 0.5462437
6070 -0.38630712 2.927686 0.393109 -1.9743676 -0.4827942 -0.30862656 -0.44296825 2.3891156 1.1079109 1.2541443 -0.51426053 3.5807061 0.3019762 0.33163467 -2.586332 -1.137385
6814 -0.86959255 0.48158747 0.3894629 -2.028414 -0.91776556 -1.6515929 -3.1194243 4.6077795 -2.1337016 1.1851856 0.99456644 -0.11167836 1.3068717 -1.5814617 -2.6530514 1.5624896
6558 -0.31840113 0.37246335 -0.79503363 1.2645327 -2.705149 -0.18703367 -0.6372956 4.591526 -0.46036702 -1.009613 0.53038883 -1.2086378 0.67382544 3.6387546 -1.4384493 1.3071117
5726 1.4823737 2.3330767 1.6580122 -2.5147483 -1.5841122 -0.9719823 1.4052898 3.4404676 -1.5992956 0.4959965 0.65335566 2.3239315 -0.41973162 1.7022628 -0.12307516 -0.23268105
5753 -0.10394091 -1.3824346 1.3342633 -0.44133264 -0.16395128 2.4438505 -1.6342998 3.3102667 -0.07443855 0.67591584 0.17880976 1.8527077 -0.98340094 0.82761365 -0.40574226 -0.25896487
3964 -1.5184172 1.5555626 0.8714292 -0.8933586 0.04876817 -0.65325963 -1.3923026 2.2377055 0.22490805 -0.3540426 0.67308736 1.69027 -0.37865663 -0.19460358 -0.9783805 -0.99499655
1513 -0.6799255 3.2829475 0.7254162 -1.2292621 0.86699647 2.077192 -0.8320137 2.0000176 -1.9847898 0.73797315 -0.44546807 -0.5489315 -1.6226451 0.63087875 -0.9712169 1.0081798
4581 -0.17385106 -0.70497066 0.44103065 -0.89794785 -1.7606755 1.4475193 -1.7455213 0.40093473 -0.043739475 1.3332584 -1.0397675 0.4360016 -0.23163122 1.5429261 -0.3801245 1.1843052
5807 -2.8105054 -0.94629735 -1.32437 -0.6974697 -0.35895368 -0.9556512 -2.17401 0.8565681 1.0642967 0.6493634 2.0411003 -0.97676057 -1.979381 -0.018031664 -0.44177136 2.3670778
15 1.5026183 1.085928 -1.2662714 -2.264678 -3.168743 2.231404 0.742356 -0.799598 -0.8016585 2.0623083 1.4236356 3.734613 -1.7962995 0.34492165 1.5835078 1.2558526
2179 0.91196436 1.6474103 -1.0255711 1.1944321 -0.45249838 -0.36994585 -1.9439433 1.2005275 -0.12727407 -1.0471886 -1.3866016 0.29282862 -1.4458606 0.29485837 -1.0157357 3.587637
4447 -0.7366488 2.5292869 1.1033754 -1.199582 0.87055725 0.2462505 1.2164472 1.7572715 3.023165 2.4416084 0.76221913 -0.60962546 -1.3438406 -1.0341215 -0.6310232 3.2446616
5773 1.4156712 2.3177345 -1.1661551 0.8853991 -0.24350935 -0.2759548 0.5830016 2.4844768 0.20636176 3.3888671 0.2632521 0.5986082 0.21986143 0.46723348 -0.07401566 1.2597045
4914 -0.027822282 -0.045863584 0.17320208 0.9352494 0.16549227 0.044903614 1.3271866 1.726135 -0.011863893 -0.72180873 0.32988206 2.1340528 -3.216388 1.5616736 -0.59409106 1.5315965
5453 0.50626045 -0.7249911 -0.12399798 0.9638746 0.74296224 0.9868452 -2.128199 1.0426725 2.1093469 0.8970489 1.0117384 1.4960121 -1.2272495 -0.08005932 -1.5739455 2.0904536
5802 -0.45669872 -1.3281306 1.55195 -0.5580624 -0.3333884 2.5821326 -2.0773568 3.3207529 -0.23010482 0.564203 -0.002192479 1.8890153 -1.121951 0.9073 -0.31964746 -0.07862013
58 -0.4162232 -0.68844557 1.7917129 -1.438211 1.5044297 0.55997825 -1.0909015 1.2227526 1.0851015 1.1477158 -0.25408942 3.9757893 -1.2878668 1.3445687 -2.7102304 1.6930474
8 0.8897043 0.03199411 -0.5836106 -0.65116745 -0.63570815 0.22927213 -0.2871727 0.31781405 0.12655184 -0.65625215 0.21895245 0.2987337 -0.8117249 0.87027323 0.85699505 1.5166442
2187 -1.0781538 -0.60931206 2.5101173 -1.3765895 -0.14191087 3.3520405 -2.4899285 2.4693317 1.9248258 0.7193441 0.2926369 0.12331128 -1.2493527 0.7201562 -1.3662605 0.8983264
208 -0.77711546 2.1552985 1.1104178 -1.1858838 0.80800617 -2.1088235 -2.3211193 1.903484 1.6802098 -0.64631444 0.24739884 1.1368182 0.4198116 1.53752 0.04650341 1.0267612
5792 -0.30647203 2.264465 0.49038148 -0.8176705 2.5208797 1.3223109 -2.2826526 4.761723 1.2368706 -0.0037636845 3.3016443 1.0320104 -0.527586 0.25121278 -0.05529794 -0.93708616
740 -0.14706747 2.5918512 0.25547382 -0.68863386 2.6194515 0.95444894 -1.7172912 4.624095 0.89476943 -0.042890415 3.2162018 1.0543649 -0.51275986 0.5606642 -0.23893176 -1.0380486
2131 1.4035333 -0.27252382 -1.6620977 -2.7271564 -3.4982178 -2.2718015 -2.0000691 1.4784389 2.1199152 0.8449219 2.2030287 0.20385344 -1.4459751 2.72199 1.1505296 -1.4024597
1289 1.2904305 -0.08705435 -0.6287702 -1.0582818 -0.6987008 -0.53123486 -0.4004115 0.46988705 -0.2200964 -1.2176266 0.7058903 1.1828315 -1.0182822 0.088408954 0.09268211 0.8606593
2919 0.6283173 0.8108583 -2.6314132 0.817694 -0.41706732 -2.0376453 1.0536659 2.924012 0.28626367 -1.605099 0.8738932 4.166789 -3.9391649 3.1374876 -1.1539842 0.26211044
5616 1.1100788 1.4976572 -2.3481538 -2.772999 -3.2404184 2.5872078 1.0641993 -0.7622948 -1.1048546 2.617192 1.6152854 4.495587 -1.8628318 2.194415 2.581165 1.1432333
5611 1.1591537 2.322421 1.889035 -2.6129916 -1.693775 -1.3992816 0.7766104 3.4333644 -1.8778579 0.95216334 0.39579067 2.9281971 -0.8734167 2.1210203 0.782058 -0.8922523
907 2.9359016 -0.2562921 1.3768331 0.0748839 -1.1628788 -0.8589196 -2.1493554 3.271427 2.0704987 0.23665828 2.3544931 0.3233762 -0.39330828 0.7133611 0.41259727 -0.8269897
4477 1.5209267 -0.29009312 -1.8371625 -2.6451907 -3.680186 -2.4940584 -1.9058448 1.5314351 2.6371038 0.9112691 2.4288123 0.23640254 -1.49971 2.808164 0.88514024 -1.1484938
50 0.56193686 0.28466365 -0.3989115 -0.13996707 -0.6857629 0.134071 -1.2800015 -0.21083508 0.23306607 0.6904535 -0.58921504 0.17086126 -2.9656534 0.9263429 2.4454603 1.5929693
5759 1.3030051 0.16799581 -1.0329293 -1.1141429 -1.1329192 -0.50972813 -0.1770473 0.47596544 0.16534719 -1.3028066 0.94934815 1.1338563 -0.7700907 0.03784304 -0.21121252 0.9025381
349 2.1508088 2.7614293 -1.0723832 0.8862226 0.6539673 0.26101902 -0.6105102 3.219985 0.10703498 3.6905236 -0.14349605 0.96221197 0.74100965 0.118305646 -0.48671645 1.4383075
4337 1.2538002 3.0469656 0.11114903 -0.35299888 -0.13264015 -1.5466967 -2.9109797 2.0170155 2.1503541 -0.08267686 0.46329704 0.6553729 1.0831668 1.7114881 1.3809193 1.561821
3691 1.337213 2.2244906 -0.80284667 -0.6599223 0.21934882 -0.698983 -3.0086558 -0.71956885 1.7968037 0.2881274 1.7501663 -1.0239414 -0.7730121 3.9014828 -2.3021982 0.65769875
36 -0.0057795136 1.4336206 -1.3850077 -0.70307803 -0.5092665 0.9138038 -0.8949617 -0.022413373 -0.044476878 -1.4464108 0.064594254 -0.11983109 -1.5363431 0.43654913 -0.13302763 1.6745622
2609 1.0623888 1.862066 -0.07811471 1.1613752 -0.40612984 -0.069229685 -2.1908712 1.2615906 -0.16622467 -0.67115486 -2.1407259 0.37709355 -1.2360992 0.42267683 -1.1529537 3.827182
3566 -0.95633173 0.38079095 -0.1625035 1.2258822 0.3009653 -0.83740044 -0.381037 2.5810788 2.0622125 -0.8723928 -0.8458855 0.42448348 -2.526102 0.33590543 -1.286162 0.973966
1877 -1.3616602 0.5383646 0.0976356 0.2642444 -1.7874166 1.1718961 -0.14010131 1.5561025 -0.42328575 -0.2839427 2.6851652 0.55682427 -1.3821515 -1.015592 0.3352181 2.970344
5809 2.6491957 1.2281262 -1.9981108 2.3060052 -2.5820045 -0.08481199 -1.3049586 0.01025995 -0.07770438 3.5622416 0.10950621 0.12277419 -1.9980763 1.736245 -1.8724815 0.60159165
3243 2.3751442 1.405355 -1.9869823 2.4743383 -2.5115967 0.08200897 -1.123159 0.13775326 -0.28198737 3.3621614 -0.32603788 0.16998994 -1.8648916 1.9015427 -1.8117405 0.8146094
1124 -0.7287659 1.2061639 1.2717628 2.5801709 -0.23595038 -1.1214613 -1.7305397 1.9480752 1.1228192 1.9767029 -0.375791 -0.16589743 -4.015445 0.63389474 -3.7527902 -1.091135
5336 -0.70259637 0.10047719 -0.3558711 1.6891276 0.2095903 -0.6563525 -0.42425653 2.8019319 2.0679057 -0.63918614 -0.83890456 0.41263753 -2.7962263 0.3769882 -1.2141002 1.0382569
849 -0.33916858 1.3101664 1.2179091 2.72789 -0.43472213 -0.9798949 -1.8309045 1.9240625 1.2226872 2.0622733 -0.45368364 -0.15188679 -4.169022 0.8592568 -3.871211 -1.3546438
886 0.5174711 -0.73042995 0.052325744 0.9280274 0.7613436 1.523508 -2.3435032 1.0838753 1.890196 0.87704605 1.0733212 1.4369961 -1.1672951 -0.08423571 -1.4371943 2.1969538
25 0.07017785 -0.90085346 -1.4839853 -3.7789123 1.1693627 -0.17127274 -0.6139633 1.0343665 -1.3825722 -0.13015844 1.783385 1.3357697 -4.3984084 1.0460569 0.5525597 -0.37611282
2741 0.2850104 1.7055998 1.9852484 -1.2846525 0.63830847 -0.79991186 1.0553869 1.3718194 2.5468793 3.192493 0.6457726 -0.07931571 -1.0615832 -0.75430214 0.010744566 3.0618982
5297 0.32082364 2.2038784 0.8411628 -0.012482269 -1.9259166 -1.4758179 0.12743236 -0.14716789 1.1850191 -0.20031144 2.4411473 0.14326915 -3.42123 -1.1138015 -3.0841591 1.9511875
6586 1.7471445 1.2442846 -1.1389157 -1.0332956 -1.7026367 0.01563914 -0.45149776 0.84750825 0.80491686 -2.0911422 0.46303123 0.8988643 -2.0741532 0.15090425 -0.12408649 -0.5062272
3568 -1.5895503 2.8084795 0.6166695 -0.8332706 -0.51070404 -0.24436463 -0.3301384 1.869137 -0.18635477 0.7803452 0.35910225 2.380248 -0.1569807 0.21210127 -1.4927038 -1.1138669
2 0.5376178 2.1048326 1.0671875 -0.18693782 -1.8529999 -1.363147 0.21713622 -0.12234516 1.274989 0.020078316 2.3735063 -0.10204643 -3.4559274 -1.2064843 -3.1782968 2.0686622
1526 0.6252896 1.0517128 -0.7953978 -0.31502593 0.18023874 -1.0310719 -1.0485532 0.8612642 -0.7024562 -1.1653252 -0.9721608 -0.16684064 -1.7965379 0.2951877 -0.46202746 1.6487339
3997 0.8524036 -0.9868037 -1.6142325 -2.0102954 -2.5827563 -2.9527621 -3.4546497 0.3903979 2.0640266 0.51112217 0.14596607 1.5844892 -1.2444613 0.025089758 -2.769706 0.50485855
3283 -0.14471911 0.79619277 -0.55909073 -1.4635025 0.45521417 -1.4080744 -1.0849559 1.0353336 0.45893106 0.8781523 0.4651281 0.91458166 0.42923442 -0.08228309 -0.36467117 0.31223097
6207 0.21990381 0.51919484 0.7927582 1.3231989 -1.04122 -2.836514 -1.5136671 2.2627764 -0.6742349 0.17709453 -0.23987186 -1.4179212 -0.4913067 1.4005889 -0.14542276 1.0784038
6277 2.3182151 0.7508966 0.011880955 -1.7060648 0.08904476 -0.6942576 -0.7815683 1.0855888 -1.4715248 -1.8054137 0.05882945 0.050611947 -2.112795 0.71278596 -0.24932833 1.0409973
2537 -1.102592 1.6585478 0.42052677 -3.9708033 -1.9924569 -1.3556119 0.5281908 1.2556661 3.71338 -0.105612524 0.31968173 1.836234 -0.012899226 1.5745112 -2.2245724 0.30970338
4881 2.0456517 2.5363355 -1.1236757 -0.35663196 -0.40711948 -0.5904622 -3.7485158 -0.9052831 2.1165261 0.33777195 1.6663166 -0.61678964 -0.753759 4.145125 -2.969212 0.98703176
3485 -0.82449126 -0.8825912 1.4850563 -1.3907647 1.4546217 0.6253466 -1.0212841 1.6028004 0.7309952 0.848204 0.10166012 3.76203 -1.1305146 1.5171899 -2.3111594 1.4365516
3979 -0.26828212 -0.43528044 2.4067063 -1.6668622 1.9678326 0.76187927 -1.2447139 1.4718586 1.1570791 1.5582907 0.0050263223 3.9480932 -0.9301291 1.2193947 -2.9294465 2.2373152
6052 0.8844814 -1.0246903 -1.6912147 -2.1030455 -2.6104765 -2.9765966 -3.5533834 0.53059834 2.1109524 0.535294 0.1124393 1.5021429 -1.2809575 -0.21375598 -2.9934318 0.5956924
5703 -1.3963745 1.4519719 0.8212981 -1.0342292 -0.9627624 0.7686769 -3.2351992 2.052934 0.13073242 0.58726823 1.4408604 -0.025055934 -1.6302304 -1.9754257 2.5896213 1.4482087
1457 -0.08768487 -1.5395088 0.5095377 -1.7930099 -1.5067182 0.48519948 -1.706747 2.2960582 0.48969865 0.46073723 0.7616656 -0.7829108 0.30833238 0.7809992 0.3815213 1.1692474
2544 0.70428246 -0.292984 1.6422815 0.78173953 -2.0292742 0.16426398 -0.60944 2.6191168 -2.5658622 0.6400125 1.6659409 2.6187224 -1.7399796 -0.51948404 1.5259815 2.3372715
475 -0.34917 -1.1401861 -0.7063405 -0.13054429 -0.15305878 -0.4157072 -0.84532344 1.5608423 -0.28580588 0.9339144 4.474331 1.0541779 -1.5763249 -0.40100795 1.0312648 1.9812416
1827 -0.08483648 -0.900609 -1.6706948 -4.0774083 0.95565677 -0.2742025 -0.6214781 0.83469117 -1.2649539 0.055311445 1.6003743 1.527155 -4.6935034 0.6716521 0.3321738 -0.2053486
5105 -0.41280976 0.4239381 -1.0581338 -0.19509634 -0.26782042 -0.8841458 -1.9893082 1.1704123 -1.9237506 1.8966466 1.1309764 -0.50770354 0.24931143 1.147265 -1.3963127 0.896209
5797 -2.8670652 0.7870656 0.23814082 -0.15348357 -2.4830098 -0.41949198 -0.4194554 2.0320086 -2.6493917 1.2021942 -0.8786712 2.099792 -2.310012 -0.5501091 -0.59670424 1.0633346
2335 -2.6793513 3.8091135 -1.6080604 1.6344677 0.58938724 1.876516 -3.5043046 3.5733593 0.54583925 0.3959799 0.55357003 1.3846548 -0.101283796 -0.29264218 0.19599457 0.9028405
656 0.5485426 0.20093451 -1.3085345 1.4274683 0.97638744 -0.06879392 -2.5103395 1.3612354 -1.5126593 1.776417 0.034392036 -0.2012297 -0.2991114 1.9693973 -0.83679384 1.4344927
5772 -0.44910705 1.0443243 -0.26575607 -3.6627488 0.15076658 -0.8087624 -2.0524158 2.2906344 -0.64844567 -0.31710777 0.41117474 -1.1775198 -2.1426663 -1.0197564 0.8617225 0.34979114
17 -2.896906 0.4350082 -0.7834673 0.5945261 1.9297148 0.44292533 -0.9842074 5.080541 0.010802452 -0.85477835 -0.461007 1.5393244 -2.4617994 0.32027277 0.4208005 0.9247778
2878 2.1329741 2.1306818 -0.46625167 -1.5329214 -0.38768587 -1.4181402 -0.43021515 0.24141857 -2.4637008 2.8127282 2.6245787 1.7415806 -1.4388756 2.4084282 0.104310244 -0.24428518
290 -0.7256938 3.2680902 0.5455183 -1.0113716 0.75309235 2.36835 -1.3301039 2.027576 -2.0793521 0.66244507 -0.4885855 -0.22761515 -1.6109921 1.115865 -0.46091777 0.88571316
892 -0.7110885 0.62083495 -1.5199835 -0.5840146 0.61865824 -0.29455876 1.0389347 1.5799756 0.67020625 1.606394 0.3299654 0.47494546 -0.11481253 1.5175616 -0.6136224 0.85747516
39 -2.2340064 1.1956757 2.4023988 -1.9604449 -1.6443688 1.4041259 -1.3502371 1.1938275 0.1611396 1.020493 2.0510242 -2.537397 -1.6515421 1.6080658 -0.457545 0.5113062
254 -3.3095555 0.5835617 -0.8095518 0.56867737 1.8514168 0.478066 -1.0554215 5.1722093 -0.16815104 -0.9209705 -0.5415664 1.539951 -2.5147848 0.5140798 0.5229439 0.95083475
4270 -1.7054359 1.1297032 0.27438676 -0.9097655 -0.95387065 0.3898811 -2.646003 1.9724795 0.41226986 0.4220713 1.3620954 0.3398195 -1.4596896 -2.1005073 2.082495 1.1585398
4812 2.432214 2.7863047 0.28677523 -0.3921577 0.26297116 2.17031 -2.5492244 2.6162803 -0.24802917 0.7478891 0.2272844 -0.4327276 -0.8471457 0.5349227 2.186626 0.09533106
184 -2.8602965 4.11817 -1.2427971 0.91478986 0.4943366 2.2547438 -3.6134899 3.6444275 0.2318267 0.20773505 0.3375556 1.0778353 0.014078344 -0.17124154 -0.04151298 0.8554026
1432 -0.9016495 3.759631 0.8055184 -1.2966175 0.74432003 2.2870007 -1.1601583 2.1782591 -2.2520998 0.74727494 -0.51709074 -0.4294885 -1.6118379 0.6056414 -1.1903499 1.0795405
753 0.8120624 -0.061562896 2.2305667 2.6518967 -0.806285 0.087930985 -1.4262209 2.619911 0.5711535 4.3960605 0.99682164 -0.5729113 -1.4040582 1.1757134 2.652182 2.6832192
5646 -0.65058047 -0.38605073 2.9398768 -1.3529586 0.24631631 4.303119 -2.74171 3.1442006 1.4298589 1.1822448 1.4619267 -0.11130867 -1.08149 0.9237351 -1.6463143 0.74418986
5732 1.276959 0.31084305 -0.872258 -0.3209695 -0.0024738186 -0.27259645 -0.6271506 0.5633803 0.47164965 -1.2635732 0.13011032 0.5936594 -1.2069062 -0.13371672 0.09908923 1.6278507
44 -0.28308403 1.7512308 3.2605968 1.2719835 0.06606503 1.2615732 1.1239476 2.6417959 1.2125708 -0.7454436 2.0089269 0.89326876 -1.4789566 2.171247 -0.49311617 2.61491
4504 -0.015933726 -0.55733776 1.7781019 0.7728646 -2.1301234 0.8827844 -1.0895377 2.7343562 -2.7272706 0.7769726 2.1123848 3.252375 -1.8624178 -0.6913683 1.672738 2.8506615
85 0.9219311 0.66112846 0.08160493 1.8102134 -0.07692305 0.5801222 -1.7567624 0.40333685 1.5530587 -0.099869765 1.2853496 1.6708168 -1.1754608 1.5354584 -0.1808557 0.12631692
4218 1.9462954 1.9751606 0.492361 3.9003677 -2.1460495 1.3131299 -2.3359632 1.6861395 2.1150963 0.7881889 1.2145857 1.0620761 -1.2645202 1.5119507 0.010907935 -0.34871632
6545 0.8988087 0.008577227 -0.3544208 -0.26594874 -1.2319261 -0.4390055 -0.86587936 0.7181028 0.6653314 0.67121196 -0.16580689 -1.060593 -1.6446232 1.6586206 2.4864044 1.4779209
1270 2.3636727 2.757979 0.3774563 -0.30626804 -0.0269416 2.3763678 -2.4975393 2.755918 -0.36795756 0.7392554 0.25645265 -0.4614391 -0.6937564 0.551772 2.2140367 0.19435543
1428 0.96660626 2.942218 0.17523275 -0.2911316 0.1518929 -1.6733025 -2.7976677 1.6485746 2.251359 0.024852933 0.5408762 0.57513416 0.84415364 1.9374108 1.2270037 1.2423798
2023 -0.5093137 -1.4030834 -0.73749495 0.060205676 -0.32397833 -0.48594937 -1.1215625 1.7846223 -0.7607864 1.1863533 4.6671085 1.0401136 -1.8623165 -0.31865472 1.170251 2.1906374
5460 0.76328176 0.48769388 2.1461504 2.492662 -0.47766957 0.24048045 -1.3492314 2.6033263 0.32276124 4.6569967 1.3969572 -0.1241834 -1.0768558 1.3714143 2.9813015 3.1710405
1510 -1.3865242 3.82067 0.7558816 -1.4945666 1.6177961 2.375479 -2.314297 1.7614117 1.701862 1.0902694 2.475379 -1.1579373 -1.6285325 -0.8940083 0.70829976 1.4968987
5358 2.864554 -0.6868746 1.4477682 0.059513777 -1.4659917 -1.5546575 -2.0495021 3.843717 2.27103 0.46801433 2.872689 0.48754254 -0.1557065 1.1034696 0.35364255 -0.3751857
1379 -0.43772995 2.1286905 1.4302715 -1.153095 0.5750737 -0.09695543 1.0212536 1.787635 2.9685214 2.9677775 0.5860831 -0.11207781 -1.5359838 -1.4310983 -0.42831272 3.5329678
4301 -1.0635884 3.7327886 0.5594423 -1.5200353 1.7819566 2.4284859 -2.2379942 1.7188641 1.5818561 1.0350304 2.6073754 -1.1872066 -1.5720196 -0.7258626 0.96761733 1.7303401
126 0.27437374 0.084391154 -0.8082374 0.11980883 0.86463207 0.5290543 -1.7058467 0.4047145 -0.015194696 1.176561 0.43807334 -1.6097325 -1.4018439 0.7055297 -1.0271856 0.9065696
48 -0.037552305 -0.17214784 0.68689513 -2.180141 -0.83230835 1.4105172 -0.87553596 1.3241576 1.6592693 0.6327701 -1.5829148 -0.8554958 0.26307055 2.1914024 -0.5387555 1.9375056
5004 2.3168051 1.1307751 -0.017930664 -2.2704926 1.5789498 0.60224736 -0.09505619 0.21646826 2.8387623 1.3816085 1.5887786 1.7118624 -2.538933 4.2410274 0.45362392 -0.6717738
5480 0.55952275 -2.917698 -0.4490072 -0.46918875 0.5907769 -1.1000822 -1.0411415 3.5221202 1.1640131 1.5355747 -0.9173664 3.5685549 -0.83922046 1.4935113 -2.1295571 0.42538247
2538 0.51777214 0.625569 -1.6440933 1.2128924 -0.38041586 -1.2651743 1.1718197 3.1452317 -0.29329798 -1.3455837 0.60274714 4.0436707 -3.4945319 2.471021 -0.76500803 0.3392722
4225 1.5727258 2.7594807 -0.44774514 -1.9035993 -0.6568187 -0.99579257 0.06354601 0.33535537 -2.284609 3.0467358 3.5604932 1.9377809 -1.459996 3.4699235 0.4796536 -0.6998732
5164 1.9712477 -0.12202889 0.72808367 0.36544383 -0.92785317 -1.5962241 -0.2723467 1.3657736 0.3677014 0.6017643 1.4674877 0.49407768 -2.5774465 2.791401 -1.6476083 -2.122576
2527 2.42039 1.3170952 -0.029608043 -2.2833953 2.117556 0.8398011 -0.14714128 0.19970302 2.6006758 1.4357283 1.8284489 1.5263412 -2.4376597 4.3626084 0.47644138 -0.33427033
1996 3.2372487 -1.3301271 -0.07905217 0.10766179 -0.6899634 0.58466905 -1.4350134 2.2921422 1.3336627 0.8092165 1.2722563 0.46203995 -2.2814531 -0.34303346 2.4051075 1.7953172
5733 -0.0019254682 -0.2929897 0.05784539 -0.4762128 -1.2877874 1.2657388 -1.4304771 0.61310154 -0.1311946 0.9128108 -0.56398135 0.36602357 0.24681096 0.9513067 -0.46840993 0.36122572
259 2.2683342 -0.05890333 0.810695 0.102328405 -0.895623 -1.8440784 -0.35281157 1.4971563 0.3649064 0.7809286 1.5923253 0.8779785 -2.7254255 3.060883 -1.9015164 -2.4094462
5803 1.4106706 -1.1790284 0.6396823 0.9383325 -2.0882535 0.520032 -1.6966815 3.124808 3.4773395 1.110099 0.7749543 0.08242112 -1.4827256 -0.07677499 0.33812273 0.27127686
2327 -0.80689275 2.2586422 -0.15159443 1.044647 -3.7491179 -0.1044744 -0.5725583 1.9168048 -0.9708875 1.7362732 0.024151513 1.9151071 -3.1111841 1.6716154 -2.0715895 -3.3323221
4661 0.52639943 -0.72429925 0.016191792 0.7318858 0.93313956 1.2642293 -2.4340105 1.0194101 1.7478962 0.6545644 1.0389942 1.4300139 -1.0841302 0.061413392 -1.3104522 2.0619502
1861 0.86564434 0.6176942 0.20966989 1.692746 0.19476715 0.822863 -1.9786474 0.54171646 1.5440675 -0.14887303 1.7537172 1.8142041 -1.2359173 1.6293626 -0.052957658 0.20135424
1525 1.5331072 -1.2209018 0.83915573 0.8851936 -1.8773409 0.5690648 -1.3553257 3.2080226 3.321141 0.9834247 0.21728498 -0.32229513 -1.8013496 0.115220524 -0.1004527 0.32330382
363 -0.86983824 2.3434546 -0.16368069 1.4760022 -3.946274 -0.103384584 -0.83945096 1.7511119 -0.75625026 2.0659225 -0.11819244 2.4003868 -3.425849 1.6001414 -2.4253814 -3.2863746
2766 -2.1669037 -0.5568775 -0.13419175 0.44352442 -4.177416 -0.16298224 -1.2888486 0.15303102 0.5302774 3.074177 0.53232855 1.1254826 -0.4523312 1.048356 -1.4799198 0.89580697
4317 -0.5323754 -2.425204 -0.46044734 1.1454757 0.61513215 -0.14684416 -1.6989695 5.13512 -0.2546353 0.7783072 -0.7483437 3.2713678 0.41276547 1.0852896 -1.404441 1.2169633
6258 0.43382415 -0.42540684 0.035313718 -0.8120167 -1.4278767 1.2467196 -1.363079 0.58766115 -0.10539589 0.7928585 -0.64480954 0.30484718 0.062670715 0.8677524 -0.33605683 0.40572938
624 1.9052533 2.1241062 0.60422623 4.2275305 -2.3459554 1.9377962 -2.5495613 2.1654227 2.2018266 0.76167953 1.6998515 1.3521782 -1.3750542 1.7174482 0.18533738 -0.30191746
853 -0.11440021 0.60760444 0.35091883 -0.09104298 0.5824139 -0.06323144 -1.4380534 -0.5098948 0.6652863 0.87290645 2.788545 -0.512532 -1.0239468 1.8939136 -1.8164343 0.51721585
4642 -3.1400096 -1.135749 -1.3187833 -0.64525735 -0.32127953 -0.5760905 -1.7664227 1.362545 1.0312479 0.60314304 2.1343446 -1.2521746 -2.3497982 -0.14717218 -0.3041442 2.4694314
1046 0.74434435 2.4499567 -1.8173366 -0.544686 -0.64191246 0.69893956 -0.9881503 -0.18250783 -0.19834207 -1.4141196 0.14639913 -0.21520638 -1.3089865 0.6278108 -0.25650546 2.6879048
5730 -0.112383164 4.1605716 -1.928318 0.20226364 -0.65032566 -2.1086998 -3.1362228 1.6774187 1.6294497 0.5782271 -0.7442478 0.34427968 0.2550415 -0.6140397 -0.87960225 -0.06737842
5786 -1.2612989 0.41465172 -0.31115472 0.0044313697 -2.4778218 0.5373477 0.021698887 1.0763723 0.053235285 -0.29519987 1.7447655 0.4418561 -0.76458687 -0.32141274 0.86618847 1.7743102
52 -1.0133222 1.0694968 -1.1881473 -2.5857377 -1.2774674 -1.5436743 2.3461196 1.570782 0.5718177 1.3681506 1.6402491 0.06773861 -0.94870704 1.7693336 0.9535431 0.8602026
5747 -0.11113949 0.78875613 0.3105585 -0.7297545 0.6970204 -0.6116254 -1.1490339 2.3133497 0.19180962 0.43509912 1.7906762 0.32865864 -0.12177001 -1.5538099 -2.0996237 -0.23000665
4398 1.5651484 0.33637753 1.5605257 -0.8042278 -3.3548288 -1.3319142 1.2593516 1.670099 -0.9166779 1.1911112 -0.29541102 -0.31873143 -3.1296895 -0.1309163 -1.5798609 1.563317
5462 -0.50170135 0.24666435 -0.62150973 -0.18335943 -0.02654935 -0.7544379 -2.3229444 1.3597842 -2.0434966 1.8914493 1.8533205 -0.6730966 0.065000065 1.3424951 -1.903624 0.9318679
2839 1.9114406 -0.7622403 -3.747795 -0.480774 -0.23353402 -0.53101414 -3.484825 2.7575974 -3.739222 3.4771125 0.01592345 -0.55587655 -4.771485 -1.3374326 -0.41862777 0.7650222
1081 2.8194687 1.0013252 0.3055186 -1.9891427 0.3182965 -0.87998414 -0.9177794 0.72652125 -1.2574869 -1.4236859 -0.24405694 0.41042358 -2.5981941 0.7222595 0.03285315 1.021531
3437 0.8319934 1.0120523 0.47482857 -0.70014507 -3.7409673 -2.3233862 -3.0737514 -0.10305332 2.431411 -0.27785477 0.46495768 0.88016015 -2.5024197 -2.4810925 -1.4831989 2.9206746
2041 -0.25749323 1.9786913 0.86183983 -2.363347 -0.33106622 0.60088104 -2.5166965 1.4084673 -0.57557434 0.22776532 2.6790164 -0.3924871 -1.0110624 -1.0883613 -2.7416985 -1.0770128
2221 -1.2061735 1.1942391 0.053417556 -3.6124787 -0.010233454 -0.4014156 -2.2172294 2.2225356 -0.54138166 -0.18576595 0.30662587 -0.8650482 -1.6662974 -0.849227 0.22184488 -0.024018979
3200 0.4555606 0.19682299 0.9154985 -0.1350012 -0.08376137 -1.6746734 0.90888315 1.139406 1.7337219 2.2267451 0.08935459 -0.45342344 -1.2788793 0.03823605 -0.5235343 2.8358212
3482 -2.9782825 0.8626486 0.4447568 -0.105057225 -2.3312478 0.30949464 -0.599313 2.0571022 -2.9795077 1.0400721 -1.0346744 2.164127 -2.8454843 -0.48488316 -0.55162746 1.5248077
7107 2.0136843 3.0863829 -0.099909 -1.3956813 -0.40955812 0.7125286 -0.018299356 -0.0060695633 0.5657748 1.1236827 -0.26177996 0.6643159 -0.9692231 -1.0355685 0.34685212 1.9639772
3024 1.0180275 1.4913877 0.2676563 -0.77637804 -3.3134415 -2.3805144 -2.6068516 -0.25137135 2.336086 -0.42416844 0.5173395 0.43865475 -2.7823749 -2.4517124 -1.5357996 3.0573318
7623 1.0528885 -0.08175074 -0.19132988 -0.0011919072 -2.0391479 0.09755544 -0.74097 0.6181775 -0.026331445 0.55336404 -0.7548541 -0.31047812 -3.4514925 1.5192814 2.9271176 2.4587615
3870 -1.4860147 2.3679445 0.48846376 -4.358569 -2.0708086 -1.6707306 0.40079543 0.69156104 3.197019 0.37572908 0.2974771 1.7073314 0.051712316 1.5435748 -2.7455916 1.0655338
2039 0.53337395 -0.4049329 0.5277556 -2.5731847 -0.18632516 2.086587 -0.74422324 1.1992612 1.346902 0.7708206 -1.2253795 -1.3145936 -0.09491774 3.262283 -0.9100524 2.6264765
5794 -0.14903463 0.9062429 1.3303144 -1.5661616 1.3536252 -3.2155135 0.7033723 1.8858336 -1.1657997 2.5186393 0.37268767 -0.02402451 -2.2469416 1.9780313 0.13385186 2.1571534
862 -2.2392392 1.6638098 1.5202423 -1.5583086 -1.4315143 0.03684429 -2.6704993 -0.5771466 -0.71692413 0.5868704 2.0414119 1.530133 -1.1906632 1.6502204 -1.8668396 -0.04356407
1516 -0.25877616 1.863627 -1.3411319 -0.5625095 -0.7413016 1.58029 -0.83828557 -0.22339796 0.6642268 -1.7550442 0.9829444 0.45813486 -1.4634875 2.0675786 -0.2248272 1.3558398
5855 -1.923433 -0.88822544 0.085284166 1.3752788 -4.347995 0.43748778 -1.9097445 0.29820275 0.68738925 3.5148454 0.08901861 2.162919 -0.8714265 1.5289944 -2.7366068 0.82778674
4057 0.13745822 -1.1664534 0.89692825 -2.9360619 -1.9622849 0.18384878 -2.5892432 -0.04103484 -3.0309277 1.6652347 2.4730277 1.5491844 -2.078998 0.9127866 -0.74495304 2.6268609
26 0.17839688 -0.20865041 -0.6851294 -1.5745414 -0.87675554 -0.63305306 -0.5585503 1.5641688 -0.17693357 -0.7190329 -0.46496668 1.1363082 -0.6077471 0.9627122 1.3578337 1.6467222
2150 0.06390594 0.93071735 -0.87314475 -2.252058 0.16846426 -1.9322983 -1.6548685 1.3119181 1.1715174 1.0341525 0.5660775 0.9626721 0.33368376 -0.030374506 -0.4057107 0.11831968
5946 0.4968422 5.683748 2.7777417 -1.7206396 -2.836757 0.48072267 0.14536768 4.2884874 0.17756678 -0.21555345 2.9700868 -2.7016764 -2.2135227 0.3003325 -2.641467 -3.666345
2416 0.06602389 0.84886897 0.53308773 -2.3622117 0.8507915 -2.4398015 -2.0069783 2.0441318 1.3035692 0.68473625 0.6424602 0.26026228 0.09802941 2.010553 0.3538119 -0.3405529
5562 0.28215235 0.16391405 0.6927802 0.44769007 -0.51952606 0.9621711 -2.1085916 0.7404518 1.6277544 -0.30862597 1.6120485 1.7189527 -0.075837046 1.6344999 0.2689066 -0.048786134
3753 -2.0922534 3.0137334 1.176789 -1.0405498 -0.055388715 -0.44476742 -1.1132151 2.3983154 -0.47080833 -0.098265 1.0051923 2.5771031 -0.740688 0.06871201 -1.6357875 -0.9435073
590 0.960689 1.9490898 -0.21517605 0.034357958 0.12810336 0.34848952 -2.186474 2.7008026 -1.4393195 -1.528232 2.1134548 0.18027487 -0.5525707 2.1431735 -0.3027668 -1.2334856
68 -2.5072494 -0.73740995 0.4087854 -0.6615642 1.1837665 1.803475 -1.5745901 1.9521471 -0.747126 -0.21882458 0.601615 2.4060922 -1.9662946 2.142662 -1.8209743 0.7981041
5044 1.2855234 0.7854366 -2.5875528 -1.5560782 0.56052583 0.74623173 -4.3145995 2.3497558 -3.090319 0.1972353 0.29082245 2.6124616 -1.9811022 0.96506894 3.086052 1.2096997
2541 -1.5479538 0.6173188 -0.32542455 1.2204252 -1.5407257 0.6842145 -0.9246338 0.28736788 -1.4841521 -0.27302325 0.71867865 0.6514177 -2.7298913 2.2614357 -0.7937242 3.4136846
3219 -0.06762536 -1.0720154 0.90569097 -2.1768003 -1.9995872 -0.12857428 -2.463836 -0.31568918 -3.172403 1.4186277 2.074495 1.4840744 -2.1608787 1.1706796 -1.5555683 2.7439237
2073 -2.418032 1.7822006 1.6137116 -1.6844529 -1.7842712 -0.15561399 -2.8548987 -0.7536313 -0.7676269 0.7819805 1.7434533 1.5610095 -1.4230702 1.5057392 -2.2418907 0.06250848
5169 -2.3640342 2.730417 -1.6077224 -1.5214192 0.03180379 2.440749 -1.6884419 1.2159088 -2.043547 2.4585252 1.6930313 1.680664 -1.4898144 1.5017586 -0.709571 -0.48951507
4482 -0.2665925 1.9742334 0.9886482 -2.6493511 -0.46596348 0.3879734 -2.9521375 1.2639937 -0.3315852 0.47769126 2.5396576 -0.27730572 -1.1001847 -1.2458194 -3.3241527 -0.98405945
534 -2.67156 -0.37483552 0.27334073 -0.61336404 1.0719539 1.6219949 -1.5575758 1.6728142 -0.37060565 -0.27956656 0.6246071 2.4837055 -1.633041 1.9089143 -1.4216423 1.0072812
5090 0.57135266 0.5588457 -0.41543546 0.6765906 0.2512429 -0.31920168 1.3938646 1.4318856 -0.5140912 -1.1267636 0.18949334 2.302732 -2.886446 2.4528346 -0.9830233 1.697808
5635 -1.045556 1.5685229 -1.3551458 -2.0751054 -0.21572465 -0.022320794 -2.3438103 -0.13917495 0.048588566 -1.2303679 1.5812619 0.72180396 -0.7135 3.507049 -1.6183916 -0.41978532
2969 -1.4374053 1.2454593 -0.19670537 -0.34170967 -0.6090232 1.3242767 0.001574004 0.88205874 -1.3433579 0.15382613 0.13822192 -0.1683152 -5.1870213 1.0692172 1.2371483 0.032687433
6381 -0.10205198 2.6995053 -1.7530406 -0.9108694 -1.5055918 1.2823275 -1.3000671 -0.100018576 0.69208235 -2.598657 0.99538684 -0.24169178 -1.8218697 1.6286416 -0.6608153 1.9969128
2757 -1.3237611 -0.66459924 2.3259735 -1.5642817 0.8595911 3.2211 -2.6976464 3.0499208 1.5286127 1.224402 1.1199033 0.18856892 -1.0543914 0.251988 -1.3815565 1.0768725
4108 -3.1187012 2.139711 2.7390633 -1.9890442 -0.85300916 2.0541792 -2.243971 1.1335484 -0.24431844 1.3920466 2.3831124 -2.2217016 -1.9221976 1.7013223 0.40032992 1.2764738
1736 -1.5483716 1.5913528 -0.027705848 -0.23824358 -0.5479309 1.1322459 -0.20279875 0.9305853 -1.4040471 0.044710796 -0.011060749 0.01277107 -4.96811 0.90762925 1.2805547 -0.1007898
5487 -2.1904335 2.6858099 -1.4527761 -1.2334363 -0.01924915 2.3485293 -1.7118362 1.3909426 -2.1104112 2.14347 1.7011105 1.4892067 -1.2748238 1.4802384 -0.6385658 -0.48219213
2826 -1.2965262 1.5283237 4.0629597 -0.56445515 -4.439319 -0.04808774 -0.43064144 2.5773122 -0.4168608 2.5946121 1.0422632 1.2133176 -0.115026504 1.6744244 3.4493632 2.3944926
5267 -1.1586543 0.68319285 -0.70916915 1.6599013 -1.8978655 0.9232194 -1.2098855 0.41507587 -1.9034978 -0.3036278 1.1789682 0.76756775 -2.9557672 3.1456687 -1.18032 3.6833954
2402 1.5172336 -0.5429606 0.33158502 -0.1676289 -1.1923722 -0.3611842 -1.4777048 0.7099225 1.2890956 0.9377504 -0.73722273 0.08757103 -2.104464 0.51661634 2.5927682 2.0504103
4771 -1.3562917 1.5490458 3.8592725 -0.6608127 -4.2900243 0.24806602 -0.32563192 2.617505 -0.5308534 2.7760117 1.280972 1.2865785 -0.09149265 1.7700132 3.3165479 2.2166448
5819 0.91220826 0.63775796 -2.656681 -1.7014724 0.47065693 1.0551016 -4.193906 2.4417849 -3.1765099 0.3564497 0.49622345 2.6021252 -2.019777 1.1051457 3.4235125 1.1899983
1162 0.5443367 0.5393264 -1.1828154 0.55740994 -0.36489165 0.0312783 -0.99211746 0.16981703 0.34872797 0.14543249 -0.54937 0.2501712 -3.911415 0.8338905 2.0888126 2.1657832
6566 1.1887366 0.059966203 -0.7776219 0.319313 -0.6525656 -0.26317948 -1.2129335 0.53813374 0.055657327 -1.284276 0.8327784 0.4742429 -1.6482733 -0.036001094 0.5706114 3.2870865
3585 0.5355094 -0.42410463 0.49559015 -0.43901616 -1.405185 1.8405143 -1.2014662 1.6874928 0.8182199 0.74255866 -0.5527785 1.3927884 0.37074736 1.4501028 -0.43102765 -0.2699959
2441 -0.27936897 -2.4941576 -0.7291534 1.4106536 0.54167217 -0.3049526 -2.1025708 5.588348 -0.5128795 0.81424534 -1.2758877 3.4727638 0.39411873 1.3519309 -1.9517998 1.0007235
376 2.3179314 2.551006 2.2548048 -0.2813177 1.3006945 1.3851866 -0.805491 0.92747724 1.7247422 0.67701197 -0.20496571 0.4150699 -0.84882915 1.2007391 -0.86572564 1.2408583
887 0.6650221 -0.22447273 -2.869823 -0.60458446 1.814534 1.3901081 -1.4663551 2.3954315 -0.23358464 1.3951291 1.6832672 0.17270693 -0.895433 -0.6612721 -2.7848904 1.6477776
5057 0.4837881 1.8934494 1.389154 -1.2469615 -0.6731327 -0.1919946 0.976302 2.4196153 -1.5347741 0.31934103 0.82914466 1.4888371 -0.37347558 1.0615622 0.039755225 0.24628201
4929 0.15548238 2.3487716 3.056971 1.3507433 -0.02638109 1.9662957 -0.22093597 3.5452402 1.0409288 -0.70049125 2.3150446 0.57196474 -0.021276554 1.4877045 -0.37725887 3.0103827
5989 1.6208174 0.8788672 -1.4482516 -0.0048092934 -1.7944913 2.0659432 1.809737 3.9796712 -1.2154793 0.8425836 2.037685 0.05117971 -1.0812399 -1.2758878 -2.5783968 1.1800804
2653 0.16984324 -0.09708378 0.6665608 -0.52341944 -0.5977022 -0.63107187 -0.20284714 1.2238903 0.1459329 0.62055916 -0.83583176 0.72300667 -4.449091 -0.057290923 0.5500548 -0.3087803
4168 1.6323518 1.1946781 0.057663362 -0.46615717 1.1324804 -1.5887914 -3.4680567 0.44525424 -0.8374621 -0.8245832 0.89174396 1.9571742 -1.9436667 0.24897777 0.79309416 0.69166774
811 -0.65495765 1.814615 -1.960512 -0.1685154 -1.0515852 1.7120504 -1.0055615 -0.19303095 0.3251267 -1.3754932 0.05489126 0.82553756 -1.9487255 1.3451103 -0.50302994 1.660521
3004 2.2392867 1.8002516 2.094299 -0.657838 2.5352879 -0.47900248 -1.9166635 1.5464027 0.9154631 1.625154 3.2711668 -0.15165281 -1.4323275 1.0501438 1.6086549 0.5132116
2651 0.8913969 1.1367427 -0.5438676 -0.50919354 0.20573175 -0.58837384 -2.2170208 -0.84172326 -1.1791468 1.768304 1.2391255 0.7506842 -0.65646106 1.2543519 -0.37429705 1.0931063
4843 0.21606073 0.5670988 -1.5376701 1.5253335 0.75673383 0.3095393 -3.2873 1.4540461 -1.8126476 1.930337 -0.46310097 -0.13197127 -0.32384726 2.4805536 -0.79319185 1.717899
3892 0.8279186 -0.75299394 0.11983031 0.7779458 0.19034195 0.9890628 -2.0858169 0.70969194 1.7160597 0.66321886 0.70162493 1.1779265 -0.7665828 0.03866195 -1.2700624 1.5005788
5723 -0.10833935 1.3266293 -0.809781 -0.6123786 1.0939518 -0.48065835 -0.9531001 2.7260778 0.43293086 0.95861506 1.3339 0.62521833 -0.36442727 -1.2733741 -0.26230794 -0.46729323
544 -0.6346518 0.83353883 0.88096505 1.8500551 -1.6638007 -2.4203472 -1.659692 2.410333 -1.8641933 0.3918496 -0.9149145 -1.2311871 -1.0235609 2.0363133 -0.7776181 0.99278224
4324 3.780497 -1.9467095 0.11131274 0.27589232 -1.2950267 -0.19719894 -1.2245802 2.8870032 1.5646261 1.3631425 1.0346285 0.73923117 -2.729816 0.13430196 2.9231625 1.9531938
2671 -0.49264959 1.1602731 -0.3272404 -3.5459104 0.25345513 -0.29140356 -2.0430048 2.597369 -1.1218957 -0.103647426 0.5278312 -1.3948535 -1.7084411 -0.63929796 1.4487895 0.2570359
34 -1.7171242 1.7311529 1.3120029 -1.2873311 -0.80579156 0.5762372 -3.1658363 2.069156 -0.03198175 0.5359147 1.623683 0.35590786 -1.7409208 -1.4097492 3.1364806 1.1919155
2608 2.115504 1.8977199 2.1551778 -0.7338935 2.7994223 -0.47862175 -2.2551684 1.6102091 1.0119979 1.0762032 3.3761716 -0.38680336 -1.5214913 1.3245815 1.6295466 0.60789824
4555 2.128494 2.5486462 1.8559046 0.3839671 -1.412299 2.9095557 -2.6898556 3.9746025 2.304263 1.6615019 1.3655216 -0.36430722 -0.68627834 1.9209585 2.156918 -1.5528378
2437 0.11696336 -0.32034704 2.3352058 -2.6078482 -2.642552 0.9955376 -2.0333414 4.1004553 0.008460177 0.7952023 0.89606214 -1.610151 0.059057217 1.5810848 1.6650599 1.2688918
245 0.22873619 -1.1864442 0.66401845 -1.8205422 -1.1560708 0.49935395 -0.94085085 2.951321 0.95995986 0.25479448 -0.8114412 -1.4616096 0.26308042 2.2437246 -0.64548856 1.428509
4926 0.7589436 -0.28560773 -0.98465896 0.005309836 1.4975241 1.3323967 -2.412061 2.9765656 0.59295017 -0.57074517 -1.0259405 0.28088045 -0.8912688 1.292605 -2.5346825 0.2745932
2154 2.3143334 2.518097 1.8344082 0.29060403 -1.2711024 2.9351223 -2.6615345 4.050978 2.1723316 1.3761301 1.6280944 -0.343361 -0.64185846 2.0036547 2.0821998 -1.580274
2517 -0.33247614 0.4152011 1.0871832 0.70593077 -1.1205872 1.596758 -2.846787 1.2848827 1.8700325 -0.35075092 2.2681108 1.8721284 0.1895118 1.9585282 0.19697087 -0.1485162
70 0.44255242 -0.38323987 0.6660801 0.50523895 -0.16526175 0.5038488 -1.9128523 0.29927513 1.6607368 0.29503155 1.4232756 1.7495861 -0.44021162 0.68264014 -0.8952061 0.6839476
2954 -1.1929138 0.15934004 -0.5734067 0.66268635 -0.51162255 -0.67457217 0.68717784 1.8107259 0.5147263 0.35554782 -0.3308315 0.04858986 -0.6291936 1.5384883 0.21186356 1.7539457
1344 2.2091777 2.5187778 2.3362641 -0.30378935 1.6914924 1.8613558 -0.2389323 1.1048414 1.254673 0.600554 0.52257836 0.47711727 -1.002247 1.6152474 -1.8234578 1.6030481
30 1.6745529 -0.55892426 0.7103514 -2.1036665 0.86093724 0.36213782 -0.95255333 -0.783853 1.0845245 0.32758808 2.8071868 0.6544032 -1.5961019 3.2567594 -1.3606257 0.1346439
1171 -0.9866349 0.7709536 -1.1561434 -2.5609791 -1.0417725 -1.7149646 2.1266537 1.7225249 0.39973885 1.7039707 1.6615424 -0.15558651 -1.0674648 1.0087961 0.8512796 0.9240246
2471 2.2611177 1.1461309 1.4116155 -3.5904217 -4.452603 -0.5445912 -0.32655495 0.00866471 0.1356498 2.437331 5.1972747 1.1291366 -0.052678328 -1.2745278 -1.0361444 1.740336
1539 -0.54982764 1.0872564 -0.64453065 -1.6309634 0.4768108 -1.9033129 -1.820182 1.1963832 0.88663685 0.5877276 0.75951934 -0.13224104 0.5741899 0.7977868 -0.07013589 0.687748
366 1.8415356 0.3834806 -3.7211986 -1.0761924 -0.93947905 -1.143644 -3.1779616 1.9100039 -2.8121645 3.7680416 0.10564143 -0.789415 -3.6351743 -1.8011419 0.14383797 0.80813074
4162 0.19611934 5.313791 2.9680479 -1.8102031 -2.2386873 0.4461958 -0.17260842 3.9871473 -0.23868127 -0.036568478 3.1096802 -2.7525012 -2.1642387 0.30831844 -2.6265066 -3.375001
877 1.848334 1.2303082 -1.0255109 -0.46056452 -3.4353144 2.3159888 0.91098106 4.9300356 1.5817419 1.7406921 0.21402529 -2.9227977 -4.98163 -0.68889356 -1.1965309 -2.5156155
5752 1.7620745 0.64637774 -1.3800057 -1.141903 -0.8002111 0.6477962 0.335491 3.6776042 -1.014655 -0.43505052 0.34550756 -0.94773144 0.74354976 1.7594678 -0.83686006 0.4265234
4643 -0.115508564 -0.20285186 -1.1279689 0.32872677 0.58810246 1.2996801 0.76901054 2.978073 -0.00027213534 2.0615983 1.2941204 -3.9610271 -3.971805 1.9440562 -4.6189547 1.5176123
5436 4.185253 1.1276728 -2.164125 -1.8956983 -3.1328504 2.2673664 -0.12063581 2.752127 -2.9302397 1.0855335 2.3047476 0.19283405 -0.3880903 0.084246114 -4.5450554 0.62842166
4207 1.3571978 0.39720866 -1.064699 0.13623248 -1.6777111 1.7954757 1.6099548 3.8995447 -1.3382903 0.6766231 2.2847767 -0.055972505 -1.2399013 -1.5834752 -2.5003228 1.7433219
97 1.407133 -2.7794569 -0.34540334 -0.5823522 0.55493766 -1.3852214 -0.93896604 4.0717864 0.54916453 1.2244551 -0.98341113 3.8226573 -0.45848358 1.7533529 -1.8611445 0.2460493
1780 1.0657072 0.27231884 1.1528639 -0.52968985 -2.9919538 -1.4524513 1.1813873 1.5361104 -0.5678525 1.2121626 -0.20728818 -0.739158 -3.393306 -0.19995314 -1.8198588 1.4871581
870 1.8196619 1.2054384 -1.1713623 -0.8781668 -3.541063 2.424002 0.8840935 4.9448104 1.4563928 1.7923908 0.17808 -2.9259012 -4.7176704 -0.412869 -1.4403948 -2.5914345
3974 -0.3399298 0.2923193 1.8597059 -2.3614907 -2.3320203 0.24593984 -3.035169 0.13482013 -0.11424382 -0.887514 0.13955419 0.04226598 -3.5255678 2.2289164 -0.24746415 -1.0407137
5507 -0.09795518 3.1442668 0.53811014 -0.25831753 -2.8781679 -1.8689331 2.341686 1.2768734 1.0885125 -1.9186563 1.2051069 3.3980882 -2.9486482 -0.6744905 -0.33527857 2.8676045
3288 2.9302952 2.0642388 0.24659155 0.58940583 -2.2368953 0.6303264 -0.9267533 0.8966159 0.62550384 0.705147 1.176697 1.5283874 -1.8640609 2.3771348 -3.344031 -2.3611205
1969 3.1408477 2.2864428 0.27483037 0.64122784 -2.8115807 0.3578716 -1.1386231 0.5674608 0.81410193 0.5792069 1.4859473 1.4584295 -2.242546 2.211342 -3.5071628 -2.310486
223 0.34837016 -0.3595895 0.80227613 0.5885307 0.14115249 0.5867431 -1.7081432 0.3835284 1.3025438 0.1366486 1.7495601 1.634592 -0.40021628 0.80390525 -0.96725106 0.74079734
3311 -0.70235634 2.064515 -2.1552474 -0.6150698 -0.20971943 -0.13040619 0.6619554 1.4295754 2.1347451 3.9041352 0.9078228 -0.08902989 -0.16974166 1.5135665 0.9121663 0.2711392
3241 0.12079296 1.6120951 -0.4191175 -0.7230308 -2.4766586 2.1952362 -0.065944344 1.2714237 -1.6136833 2.8564446 0.7054868 1.5804515 -0.38601595 -0.8782587 -3.0551689 2.6329422
3354 0.6735292 -0.118594855 0.52395225 -0.72863215 -1.4663008 2.3156486 -1.8677375 2.1995132 1.3581747 1.1381778 -1.2922655 1.2412362 0.23235211 1.628459 0.07605505 -0.042118214
228 4.6541185 1.2299335 -1.8996767 -1.9163623 -3.2108145 2.176615 0.027768165 2.8657131 -3.0660543 1.2551775 2.3903983 -0.18994257 -0.64923614 0.061017804 -4.6204286 0.6755942
3801 -0.24769586 1.1326194 -3.0309355 0.006761285 0.82234156 -0.3789635 -1.380411 1.1552199 0.12647817 3.3664498 0.34920472 0.5394304 -1.8800049 -0.047592923 0.5418808 -0.4888705
4469 1.4293511 1.0251747 -0.6994095 0.6720421 -1.6164083 2.1651866 1.6758832 3.3919544 -0.84387577 1.0380877 2.1795456 0.26806694 -0.82260567 -0.59042275 -1.8887194 0.60255545
2021 4.6779556 2.3834245 0.67326105 2.9146743 -0.27184853 -1.4834864 -0.07147172 2.3219829 3.3163438 1.1286381 1.252781 -0.14687394 -4.062195 -0.8770378 -2.036583 0.69437176
6134 -0.7287542 0.46742192 -0.69106334 -0.5937881 0.95928144 -0.51932454 -1.1412064 2.4663582 0.32272497 0.30322686 1.252321 1.1424233 -0.187745 -0.75846976 -0.52675813 -0.48557281
2331 4.753796 2.5016463 0.4840547 2.7647579 -0.43257707 -1.5751454 -0.09599078 2.3918307 3.252432 1.3443718 0.9448897 -0.10463963 -3.959346 -0.93406034 -2.1405041 0.37016794
166 0.7736518 -0.22146854 -0.726947 -0.022631451 1.7442019 1.6014019 -2.426829 2.8422022 0.56443274 -0.59129775 -0.69157946 0.12425553 -0.8492889 1.1160556 -2.317857 0.47642407
4381 2.5150692 2.9668164 -1.5464312 2.6756418 -1.5699188 -0.58368653 -1.9466552 0.5352483 0.21304035 0.6142573 -0.32492715 1.5518678 -1.6620756 1.9275017 -2.8614395 -0.50096196
1196 2.6393974 2.9366176 -1.3906252 2.7074275 -1.4928457 -0.587045 -1.9794091 0.534912 0.115194604 0.5979731 -0.3796178 1.4845344 -1.746191 1.7754345 -2.9662464 -0.40441856
364 -1.1384343 0.107358 -0.1199487 -1.0467325 -2.8683786 0.6560164 -1.346142 -0.1759693 -0.16573462 1.1269727 -1.0841398 1.1718594 -0.65438396 2.5138521 -0.32112002 -0.11526573
996 -1.331038 0.6468622 -0.40993804 1.147494 -1.7430114 1.0525275 -0.9676073 0.64169395 -1.8599359 -0.023905486 1.1044604 0.45839334 -2.4001892 2.865265 -0.80857074 3.6001303
3002 2.3889463 -0.85826486 -2.090503 0.9549748 -1.154674 0.14924324 -1.2473735 2.5921624 0.15070164 3.0117044 -0.13755146 1.6497204 -1.5310943 0.5052942 1.8929279 -0.7253874
3508 2.7706118 -0.7330889 1.3386147 -0.103521325 -1.6258519 -1.4859778 -1.7758393 3.816105 2.077953 0.20222375 2.5182536 0.41891828 -0.034046873 0.9380574 0.12467272 -0.315922
2001 0.31019813 -0.3449153 -1.119543 1.6158013 1.4010894 0.10271514 -2.9693449 1.7055212 -1.6703959 1.8247982 0.74899316 -0.46205086 -0.9644174 2.4709427 -1.1325661 1.1602259
4413 -0.11418301 -1.1865286 0.16830519 0.13807255 -0.005283736 -1.8562106 -1.2304623 0.43625244 1.1972995 2.5135193 1.086376 1.7211033 -4.0439997 -1.703858 -2.3040442 2.5817757
4988 1.3511629 0.607231 1.3621553 1.5288835 -1.461541 -1.2618543 0.14796771 2.481242 -0.6216971 -0.0238947 1.8386477 0.73708 -1.5059215 2.9125605 -0.65111566 -1.2768004
3574 0.5482257 0.038607873 -0.41957068 0.24744074 0.8396094 0.96105415 -1.6997797 0.6624018 -0.2596339 0.9369141 0.62079823 -1.7470819 -1.3608131 0.89500946 -1.0455147 1.0615753
101 -0.52091575 -2.0961473 -0.8468814 -0.8200853 0.33624387 -0.75019413 -0.622964 3.0610018 1.7628803 1.7935545 -0.14792721 3.5862617 -0.67426926 1.9215674 -2.3719702 -0.09031459
2306 -1.4144324 1.227441 -0.9997658 -1.0696561 -0.18077649 0.34684506 -3.3043776 1.1460505 2.2417212 2.865794 -2.3281689 -1.3912666 -3.935161 -0.6146342 -2.5034697 -0.09704342
3328 -0.052563343 -0.97204816 0.09146274 0.037390202 0.18738435 -1.8837944 -1.2214822 0.40727332 1.2078848 2.840961 0.8942988 1.5938295 -4.1125336 -1.8301862 -2.3830905 2.4159822
5097 0.35708857 0.47761336 -0.221933 -2.5261521 0.07463726 -1.8929666 -1.8356819 1.7261393 0.8062742 0.44660315 0.6895604 0.22494726 0.62960917 1.2013516 -0.13563856 -0.07921202
3853 -1.3886302 1.2379711 -1.0858463 -1.1043888 -0.122119315 0.12031903 -3.3043191 1.0719674 2.2139583 2.8593547 -2.2670188 -1.3968065 -3.9897778 -0.7705088 -2.5211709 -0.07925022
3570 1.2490413 1.9199196 -1.3039267 -1.7119294 -0.92032194 -1.6539651 -2.5384586 -0.30520836 2.4795067 -1.3993893 0.5425683 0.623427 -3.2183044 -1.8025342 -1.6902263 3.1537604
6388 -0.16162269 -1.9572309 0.4261625 -1.2498856 -1.3769112 0.35150614 -1.2156116 2.9034934 0.38596296 0.17515689 0.9484954 -0.80844533 0.4478151 1.4023446 -0.109133966 1.606849
4269 -0.04866362 -0.5746638 1.3540037 -1.0756078 -0.30963707 1.328205 -1.2303823 1.4330649 1.9562141 0.6002774 -0.26111025 -0.4202954 -0.9640337 0.4652126 -0.70037687 0.41804907
4672 0.23815246 -0.21099718 -1.2374384 -0.10317252 0.47630045 1.4704293 0.7153118 3.4882486 0.5689624 2.2968116 1.2375048 -4.668359 -4.1109176 2.450532 -4.8253593 1.1023272
1951 -1.481565 1.2326458 -0.37468234 -3.1927106 -1.9008511 -0.12254039 -0.73267514 1.1749134 3.123163 -0.85192734 0.24744627 1.3241847 0.2649041 1.1704575 -1.7239828 0.12455656
3815 2.7550457 0.40141523 1.7050207 -3.3890579 -4.62038 -0.37921995 -0.27800125 0.1699092 0.28665853 2.2766154 4.8000383 1.0833591 -0.32834727 -1.2574118 -0.92871064 1.4778873
5666 1.7699707 0.4493734 1.3089715 1.4101819 1.5030636 -0.41582265 0.19787481 2.3124056 -0.066498704 3.55032 2.4666445 -0.57186973 -0.17228185 2.8364046 -5.700052 1.749448
5492 -2.8708563 0.7027498 0.26682615 -0.14777027 -2.715293 -0.8851666 -0.31304532 1.9239388 -2.9891868 0.94428754 0.9548206 2.363717 -2.0280032 0.02473652 0.018813249 0.63880277
271 -0.70649564 0.72585166 -0.21224137 -0.45859164 0.5478053 -1.8385257 -0.91867787 4.502285 0.9942245 0.321443 1.0548446 2.3103404 -1.458505 -1.3379916 -1.4346151 -1.2759856
1796 -0.019738272 -1.0551803 0.81865376 -0.31231245 -0.9680434 -0.17125052 -0.8602763 0.12680088 0.13439164 0.4206119 2.790368 -0.7712166 -1.7720333 2.447973 -2.1115923 -0.034466982
64 0.6111749 0.9947817 -0.26653272 -0.363703 0.7683627 -1.9198645 0.2321257 1.7910497 -0.65747654 1.5785149 -0.2864063 0.5694143 -0.3402007 -0.25838935 -0.81790674 1.1760868
6230 0.25432712 -0.43085784 -0.8280318 -0.33793822 1.4665523 0.72017425 -1.9188113 0.5268416 0.42514125 1.4291886 1.2701024 -1.8752549 -1.846051 1.2475607 -1.123621 1.5818882
6350 0.4673267 0.8291625 0.49764627 0.49969497 -1.7871407 -3.425986 -1.4720336 1.8802922 -0.492998 0.70604813 -0.6487669 -1.4713999 -0.28774297 1.596833 0.46051064 1.0976044
2370 0.8759463 -0.60778904 -2.0235956 -0.5567162 2.1460228 1.8558979 -2.1092412 2.7861764 -0.18985349 1.383731 1.2178279 0.67710835 -0.85856825 -0.39097628 -2.8110976 1.5784277
5758 0.34348637 2.3749754 -1.4288609 -2.0917566 -0.42753735 -1.056637 -2.4562955 -0.23976836 1.7855012 -0.72719896 -0.17392567 0.63499343 -3.4385376 -2.013992 -1.9118055 2.5589187
5749 -0.21496986 0.13624765 0.0067610173 -0.9681194 0.7300912 -1.0016499 -0.80349535 2.4581976 0.4085426 0.9563602 1.9498527 0.6892085 -0.01589413 -1.355168 -1.379433 0.22099383
3011 0.8083393 -0.4112387 -0.20032993 -0.48898327 -1.4226984 1.3629029 -2.8429182 0.077247106 1.8788055 0.7338417 2.3758686 -0.06864647 -1.3598335 -0.9929956 -0.9976981 0.29268128
709 -0.902782 1.4295614 0.73556304 -2.3767853 -2.032149 -0.5320025 -1.2403243 0.69071054 -1.8553811 3.247923 1.73098 -0.36100322 0.746755 0.47832265 -1.8650461 1.4001973
6137 -0.0017616376 1.2227159 -1.0094575 -1.8287959 0.07651845 -1.2385542 -1.2561713 1.4719164 0.54454386 0.7486879 0.08681908 0.9181807 0.73509043 0.16637427 -0.20655864 0.1825321
4052 -0.26440576 0.5511149 0.40089062 -0.15327394 0.31172618 -0.21960323 -1.7850524 -0.5949036 1.2114861 0.99289024 3.4004242 -0.3556386 -1.3823246 2.3629062 -2.207547 0.24518582
6831 2.1608834 2.9492555 0.08628069 -1.691751 -0.6677382 0.52605724 0.022963056 -0.17154954 0.5605007 1.1039339 -0.8134897 0.81047016 -1.2773514 -0.7334602 0.98408896 2.164362
5743 -0.7249823 2.1692274 0.58889735 -1.1572022 0.17263198 2.0184295 -0.9712264 1.5341872 -0.08270975 0.27046162 -1.9490703 -1.5094783 -2.7094693 0.38847435 -1.3077714 0.081190005
4244 1.1631416 3.4720888 2.6178424 -0.54260796 -1.7002124 -2.9850962 -2.183092 0.6135418 -0.7493314 2.6308134 -0.84647804 -1.627165 -3.8255196 -1.3723924 -1.3158072 0.87576663
7116 2.064862 2.8215082 -0.0908709 -0.6085505 -0.48342195 0.79588443 -0.94765157 0.49964407 0.93016106 0.22259013 -0.33729538 0.9248996 -0.23280185 -0.8444268 0.297165 2.2467248
168 0.9695632 0.18280722 0.9308127 -2.2352886 0.28817037 -0.08050032 -2.5147667 1.2216862 0.72652584 1.5005319 -0.77185076 1.2565248 0.19914365 -1.093463 -2.4276562 0.44301948
4257 2.1191938 3.1527958 0.08014924 -0.05363498 -0.76211166 -1.7659323 -2.9133775 2.6425602 1.8330259 -0.3790089 0.7050246 1.5688227 1.507802 2.421769 1.6541547 1.2424395
5178 2.3506002 1.513633 0.18404658 -0.8964592 1.3143291 -1.6659062 -3.948384 0.6531936 -1.6736825 -1.01846 1.5039716 2.2772162 -2.0772793 0.29529917 0.57603043 1.0797591
5151 -0.23973429 0.04113582 1.8909625 -2.264487 -2.6069176 0.2179477 -3.1278355 0.4826655 0.19921009 -1.0926707 0.4739458 -0.06317084 -3.3528366 2.3515055 -0.41066155 -1.2279058
1429 1.0432457 3.4350922 2.4096549 -0.88903797 -1.6000961 -3.010466 -2.087404 0.644797 -0.5210488 2.5708606 -0.75721914 -1.4833478 -3.8356683 -1.5424788 -1.4835151 0.78313416
3968 0.14167067 -0.2561675 0.6985158 0.36771122 -0.12532048 0.20333579 1.4721539 1.4890535 -0.7197674 -0.40491456 -0.55776846 2.3799589 -3.950799 2.2030923 -0.6086555 1.7732254
4 -0.13606834 0.477684 1.0591465 -2.1055074 -0.53674716 -0.07739773 0.57640946 0.87490547 1.0513085 -1.1185617 0.53342843 1.9896932 -1.4226161 0.61410296 0.9114815 1.3535855
1773 -1.2187983 0.57160443 -0.41639972 1.0577317 -1.5300406 1.1116434 -1.2357237 0.6421318 -1.9104701 -0.20814225 1.0676216 0.5460893 -2.3561354 2.8213022 -0.81121165 3.464204
1232 -1.3359618 1.6513951 -1.1644852 -2.3747523 0.3843015 -0.09858513 -2.4452267 0.2314646 -0.45532802 -1.1888928 1.7713866 0.8333565 -0.754585 4.107032 -1.6781985 -0.26663363
3573 -2.0329103 2.0278857 -0.3351565 -3.9042625 -1.8201522 -0.8404974 -0.42059585 1.5970993 3.947335 -0.32666034 1.0209166 1.2859793 0.65342027 1.7389581 -2.510235 0.6025021
1402 -0.26296613 0.6804005 -0.8675161 0.5823312 -0.1619095 -0.6512019 0.49810892 1.9670119 0.30094048 0.585706 0.022740677 -0.0701389 -0.08553852 1.7789259 -0.040969256 1.3403319
3257 -1.887254 2.0076313 0.53929514 -4.453534 -1.9901195 -1.2853503 -0.19578218 1.7211545 4.439492 -0.21579833 1.0750252 1.9851834 0.2759488 1.9730754 -2.631401 0.19588703
31 -1.4166685 -0.54812115 -0.6704814 -1.2906379 -3.3395994 -1.0605463 -1.0347104 0.29635572 -0.5087188 1.1781499 -0.60309494 0.42234945 -0.23362519 3.1211445 -1.4008061 0.15309714
859 0.50833017 -0.17405789 0.4144535 0.57188517 0.27933747 0.73806345 -1.6609881 0.63245577 1.4961677 0.07471371 1.268648 1.39355 -0.30002245 0.52281684 -0.5486472 0.79286516
4139 -0.78222287 2.0767524 1.4788133 -0.8203754 -2.3982594 -2.1230786 -3.436152 1.831233 -2.065507 3.1568282 0.5318028 0.88042694 1.8998581 0.2318386 -2.0449386 2.5337543
2484 -1.4893444 -0.6338903 -0.5027195 -1.008687 -3.2484944 -0.9011365 -1.1084145 0.38535133 -0.44193885 0.9187948 -0.5673621 0.27358985 -0.18386643 3.178007 -1.2433074 0.3372672
20 0.66225034 0.81477374 -0.40322554 -0.5016637 0.25331816 -0.2004182 -1.5617354 -0.62912107 -0.99690187 1.4456296 1.3906876 0.35503665 -0.6059726 0.79331213 -0.84757996 0.46772394
1021 0.28417066 -2.8990235 0.29003984 -0.7397705 1.3889145 -0.013483256 -0.5373725 2.783882 0.6819005 2.0202196 0.4317215 4.5137353 -1.6456176 2.7428436 -2.672859 0.88131976
232 1.4094323 0.7704926 1.1618143 1.7842531 -1.5192575 -1.4803185 0.072829634 2.4219766 -0.22099099 -0.017450646 1.6126832 0.6628274 -1.4829489 2.7864907 -0.7353257 -1.229189
263 -2.7564566 1.7018276 2.6512694 -2.1910517 -1.6836442 1.8577682 -1.5531174 1.4621558 -0.110281855 1.3052727 2.074334 -2.8078365 -1.8201312 1.3863779 -0.7293048 1.4976767
6064 -2.6141825 1.6452398 1.8438274 -1.5933274 -0.36381447 -0.69782865 -2.0678499 2.89174 -0.5776592 -0.074128866 1.2719883 1.5244923 -0.8669073 -0.3195952 -1.1623399 -1.0305262
6796 2.0467496 0.44259244 0.3462622 -0.5487566 0.76706946 -1.421438 -1.0833141 1.5755595 -0.25116682 -1.1409565 -1.085477 -1.0058287 -2.3564813 0.95871174 -0.44696647 2.0038874
270 -1.2905554 2.7863872 2.5890596 -0.9056208 -1.3838216 -0.81583893 0.07949515 2.7814891 -1.2927684 -2.407277 1.145917 1.2306834 -1.0582867 0.70271945 0.5791741 4.16666
4021 -0.76216227 1.8212545 1.3277327 -0.78732044 -2.2860696 -2.440599 -3.2725 1.5983573 -1.879161 3.0600722 0.30338588 1.1663897 1.4690645 0.049872078 -2.206723 2.4627202
1465 -2.9811397 2.7330244 -0.3628506 0.5164216 -1.348501 -1.0488266 -1.0876129 2.5036974 1.6681584 1.1932455 1.1925737 2.0011773 -1.5374833 1.1286623 2.8072011 -0.80684036
1532 1.1648831 -0.2985809 -0.42312756 -1.731152 -0.7144495 -1.0197047 -0.39201108 1.5415664 0.4490685 -0.68995935 -0.40621004 1.3715155 -0.8475292 0.86593 1.2710235 1.9003787
5765 -0.5036644 -0.58268887 -0.7536386 -0.015948387 -1.6458875 0.42613238 -0.36620668 1.6877481 0.3368535 0.7397729 2.711904 0.25181085 -1.1031611 -1.1707681 0.9405088 0.85832864
5761 -0.31690815 2.1031716 -1.189607 -1.1429842 -0.8924528 0.5294975 -0.44985926 0.1586233 0.45881218 -2.132027 0.51379037 -0.6506345 -1.7345389 1.4305364 -0.96434414 1.4039482
3363 -0.32184884 -0.09146581 -0.3873296 0.008334685 -1.4811118 0.807267 -0.45301652 0.7175694 0.32242745 0.49762255 2.5172193 0.07113116 -1.1389644 -0.81078243 0.5120342 0.31984207
2926 0.7072571 1.9409127 0.03636603 -0.12760419 -0.13486986 0.17881739 -2.5506005 2.5979445 -1.7625798 -1.6366847 1.7466146 0.45080698 -0.7865686 2.4212456 -0.108053096 -1.273
2130 -1.846174 2.4300275 0.35274306 -2.1672883 0.6816828 -2.525312 0.014574982 1.0144526 -1.1604382 0.6829631 0.97288394 1.3738915 -3.7994976 0.74045795 2.246387 1.0353463
159 -1.368858 -0.7856851 1.4105598 -1.0882765 0.9641365 -0.062092274 -1.5516864 1.1253004 1.0674392 0.4296632 -0.01368 4.0737014 -1.4473803 1.6735331 -2.4408126 1.731302
2852 -0.2653546 -0.002424485 1.4597788 -2.277768 -2.0644026 -0.21996734 -2.5378482 0.3620153 0.0472184 -1.1938856 -0.038165744 0.03626562 -3.5518484 2.4393232 0.012765566 -0.97329813
5371 -2.791805 2.3256836 1.7861644 -0.9081496 0.95874363 -0.37788585 -2.5960908 2.2995737 -2.3067062 2.1195 1.3173931 -0.28003463 -2.719367 1.3718896 0.3723112 -0.7325238
3138 -1.9125427 -1.2947042 -0.46128133 -0.49420434 0.16365837 1.0363344 -1.8080186 1.8000345 0.1637074 -0.5147994 0.4077125 1.473522 -1.910517 0.8690291 -1.8180588 -0.45845398
140 -0.30487403 0.3436264 1.1899567 -0.6847705 -0.114922866 -0.5929626 -0.4183143 0.80170834 -0.1780122 0.7100986 -0.46530187 1.2459441 -3.9594355 -0.058119 0.97475827 -0.23025844
1793 0.16490082 0.7928426 0.51277655 0.27153486 0.56542826 -0.36388204 -1.4671674 -0.7247122 1.0087253 1.3378447 3.1422138 -0.5725319 -1.6095328 2.2995949 -2.57665 0.7134076
2062 -0.6772781 0.6414368 -1.2328445 -0.123955585 -0.33338886 -0.530249 -1.7376732 1.2620955 -2.3166938 1.9570721 0.640936 0.0818711 0.2644334 1.9891287 -0.78963965 1.2916026
4026 -2.2941284 2.0765135 1.8074267 -0.83843046 0.9862493 -0.068722054 -2.1378875 2.6149154 -2.279794 1.9398335 1.4370257 -0.87622005 -2.1229377 1.3357573 -0.1587224 -0.87946117
500 1.6598581 -1.3304398 -2.6755154 -1.0291643 -0.035003804 -0.517882 -2.7063873 1.6371204 -2.7287767 3.1211126 -0.17877312 -0.256944 -3.5123303 -0.43581372 -0.59961015 0.70963883
1271 -1.0713519 1.3760405 1.0253261 -3.116138 1.3807206 -3.4570653 0.16533253 2.022797 -1.1229903 3.1221652 -0.46421885 -0.47622377 -1.8717107 1.5581553 -0.016432265 2.6944778
3980 -2.060302 2.4949522 0.054999627 -2.8464587 0.3540552 -2.9667523 0.36179513 1.1790864 -1.7442572 0.93697655 1.7661128 0.26964077 -3.895327 0.90944123 1.8515663 1.0724623
2156 0.82297057 2.0196342 1.4390835 -1.1574293 -0.7718498 -0.40393606 0.70326036 2.1298044 -1.6915362 0.026102385 0.7173265 1.7915084 -0.28888908 0.9283917 0.014785648 0.45276323
1108 0.18861225 -0.06735219 0.27070877 0.13581143 0.020989062 0.09775033 1.4087584 1.9038162 -0.7152818 -0.7125421 -1.0526084 2.726285 -3.777511 1.8198092 -0.3374749 2.029524
59 -0.9020478 1.7505009 0.33447182 -0.6239283 -0.527586 1.0153961 0.43607613 1.700988 1.2588086 0.23761407 3.9974027 -0.033295006 -2.3045058 -0.9786477 1.2294625 0.032941695
1316 -3.3695402 2.645886 -0.304594 0.73922646 -1.7999282 -1.1015235 -1.1884389 2.8473296 1.6508353 1.1636202 1.4221907 2.5520654 -1.6085876 0.67141575 3.051539 -0.518101
5451 1.6418955 1.969774 1.0671743 -3.144021 -3.6976874 -0.7505349 -0.21327856 -0.08367473 0.07366992 2.2278564 4.5579996 0.78247076 -0.26588205 -1.0584527 -0.40736496 1.1392977
4209 1.1062669 0.028409552 -1.1248475 -0.64597297 0.29155505 0.6554183 -2.146268 -0.42645976 -0.88598496 1.7598194 1.1760834 0.31857362 -0.6343195 1.272702 -0.73976064 0.8197084
1406 -0.6681904 2.8081152 0.2628183 0.33679676 -3.529302 -1.5484368 -1.2581047 -0.18514475 0.24603826 0.5463064 1.6537566 0.11420798 0.061115712 2.3026497 1.0512248 1.3450365
3118 -0.5147495 0.77086836 0.3220795 -1.2653555 -1.2601235 -0.08475507 -0.7747577 0.83001655 -2.330985 2.7774484 1.8338456 -0.122364484 -0.2585647 -0.26568455 -1.9625977 1.5080813
599 0.23634617 1.1851902 1.0249957 1.097435 -1.1677544 0.59084785 -0.5123127 0.5467938 0.034179248 3.496509 0.29935247 -0.39521357 -0.81688225 0.6286503 1.2094055 1.2464728
2759 0.8629002 0.29011682 -0.057189617 -0.63875455 -1.733829 1.711106 0.15688129 -0.6791506 -0.2777714 1.8173926 0.22389452 2.5724802 -1.4553827 -0.39048702 0.1440175 1.7136718
557 -2.1511955 -0.7241751 0.030441452 -0.5292159 -1.6680104 1.1467247 0.23508279 0.91551244 0.9008442 0.8697701 2.0983047 0.6436577 -2.5212822 0.059578437 0.76000804 0.05348817
1073 0.07452265 -0.46456376 -0.50477767 -1.7979108 -0.9319258 -1.4011455 -0.36926982 1.6762627 0.023059558 -0.66524935 -0.6774382 0.7909777 -0.582683 1.4945298 1.159025 1.8519849
5526 0.13356824 2.0734746 -1.2170718 -1.2615801 0.15242992 1.1644007 -2.6024275 -0.08499551 0.9044141 0.18708612 -0.23052435 1.3837903 -0.9843926 -1.7099856 -1.5725751 3.305324
5215 0.8698693 0.92104447 3.0585725 -0.52002215 -3.4161952 -0.38216272 0.6458986 2.428409 -0.929418 0.46145868 0.93462837 0.45198163 0.56098574 0.24735108 0.70852786 2.4687195
3907 0.9397052 -0.3808714 -0.24627487 -1.9872686 -0.7434116 -0.33965734 -2.8605483 2.3259206 -0.089168206 0.2219652 0.006733854 1.0987315 0.67124677 -1.6053402 -1.0038323 1.0389711
536 0.67526484 -0.3542303 -1.9118589 -0.8372812 0.54188925 1.2436526 1.3220148 3.757465 2.380532 -0.37000728 1.4708661 4.32988 -0.86665225 1.2402346 0.1398864 1.5772806
4675 0.949338 3.407351 0.8092629 1.4648137 2.073135 -0.2118338 -0.863767 1.2497755 0.76426893 3.2310908 1.2567959 1.2444421 -1.4832168 -1.2009312 -2.9117057 1.8129188
2126 1.3890784 1.2535051 1.3218927 -0.24696994 1.6855294 2.0909374 -1.2556477 2.5605443 -1.1663613 1.0251292 2.21399 0.8791658 -1.8026133 -1.7437463 -0.20266332 1.9592054
4048 -0.22371857 0.89885867 -1.1370419 -0.35276723 1.0887012 -0.7071803 -2.5790074 0.4633656 -1.4549716 2.008369 -0.021447452 0.10635086 -0.3743252 1.8235124 -0.44924065 2.1485734
1790 -0.28101045 1.0481563 1.1557229 1.7661378 0.34196344 2.0076451 -3.4839554 0.97593904 -0.60875696 2.343856 1.0477043 1.4357246 -0.9281703 0.08665235 -1.9267431 -0.01712321
21 -0.47177133 0.81865335 -1.0867246 -0.0778148 -0.25801814 -0.41660738 0.6366162 1.6290137 0.79360425 1.604184 -0.40991485 0.3459518 0.1775535 1.5597649 0.29280385 1.2372015
5563 -0.5372464 1.8583434 2.9202638 1.6213225 -0.034347285 0.7872542 1.0646791 2.6008015 1.2960359 -0.7917864 1.4638879 0.9934554 -2.0627832 1.9026712 -0.60043824 2.286058
3052 -0.2613751 2.1558871 0.8384625 -0.51906633 0.09053666 1.6064297 -0.7923672 1.3244905 -1.3139424 0.03016553 -0.4305874 -0.052679434 -0.8669609 0.68525857 -0.2855206 0.3765459
1017 -2.144506 3.3513467 2.017828 -0.44796997 -0.7079507 -0.3074277 -1.2782066 2.276734 -1.6123523 -2.0821161 1.3972801 1.7435548 -1.0930246 0.45688745 0.78046465 4.0742474
3374 -0.9309297 1.5035561 2.7705433 1.1000468 -0.5474141 -0.08855914 1.247653 1.3888434 0.9498609 -0.29729226 0.83956957 0.6933234 -1.8486025 1.7617536 -1.0906777 2.2624068
4412 1.3835137 1.2711872 1.2924893 -0.2556263 1.7688302 2.1858523 -1.390528 2.6302023 -1.290843 0.9253857 2.208017 0.99383014 -1.8183757 -1.6456139 -0.08395216 1.9303948
5045 0.11181517 1.1634178 1.2302617 0.9803561 -1.1722519 0.71139896 -0.47304 0.7409838 -0.053437684 3.5988202 0.24946894 -0.4481703 -0.9071515 0.82843214 1.5788215 0.98865056
5139 1.6197118 1.4447683 2.8693414 -0.5871167 -3.8263307 -1.4345005 0.23626186 2.8706386 -1.0859537 0.19428624 1.0490253 1.1296768 1.3764257 1.0764269 0.43563315 2.768536
3681 0.11424006 -0.22976632 -1.2459121 0.8384783 1.3091553 0.36145133 -2.1963437 1.4431978 -0.741961 1.2306955 0.32220173 -1.1270415 -1.305615 1.4914675 -1.4211593 0.5653622
6136 2.582526 -1.6886908 -0.43764666 0.46179542 -1.1625533 -0.16450885 -1.2788988 2.23906 0.3691116 1.1219032 0.4066554 0.18297008 -1.6655415 0.3367701 2.1583014 1.0824258
4231 0.34064734 2.3503685 2.0513256 0.3593748 1.0647169 0.6627822 -1.8076146 1.3105856 -0.1526468 0.97850007 0.58480954 -2.2231085 -1.6172843 1.3109772 1.4830401 3.6177626
5498 -0.2529365 0.28286594 2.861494 0.5191252 1.4615782 0.7925185 -1.9754848 1.2942338 1.1762458 0.6860427 2.849217 1.3726057 -2.6370206 1.9094743 2.1772573 1.4050516
2626 2.5084739 2.6671793 0.21431863 -0.1200118 0.1723838 1.8273586 -2.0901937 2.3576748 -0.12703437 0.8167679 0.045252997 -0.39898708 -0.9296397 0.34867942 1.8874614 -0.06902673
6383 -0.4412493 1.2332017 1.4041712 -1.3799248 1.1825734 -3.161849 -0.19206282 1.7674954 -0.55831856 2.3675096 -0.23600039 -0.36490563 -1.3156705 0.8672327 -0.41303387 2.4786754
5255 0.34433168 1.9704059 2.0413797 0.24701512 1.2236147 0.6414593 -1.877416 1.2963539 -0.11406323 0.90819615 0.7382576 -2.0049038 -1.74014 1.3201476 1.4327136 3.633417
6085 0.43712997 0.20851536 0.9878488 -0.009438112 0.026011184 0.40094906 -0.1445537 3.7597356 0.81069195 -0.13280557 0.124206126 0.19212388 0.071752824 0.88069093 2.135309 2.719134
3552 0.09313942 1.9695866 1.8528094 -1.0307974 -0.093620844 -1.1333911 0.5994281 1.1180891 3.408904 3.1954722 0.37218058 -0.28763375 -1.2629519 -0.8438506 -0.581725 2.7979717
4897 1.7525305 0.55837816 -1.6788197 -1.0343688 0.6759371 -0.677191 -3.5461335 1.0096713 -1.3001026 -0.087424316 0.23369516 1.5873513 -1.6080939 0.5436598 1.7808704 0.53950566
604 1.1979597 0.66969824 0.05899955 3.1363363 -0.782399 -1.6806339 -2.5216212 3.0348444 2.146349 3.4991958 -0.015409972 -0.5029506 -2.8050401 -0.14440121 1.8671051 -0.38091365
4111 -0.08998401 0.2616967 2.7760882 0.4398432 1.7787955 0.9155857 -1.8029771 1.5223577 1.0583241 0.72641873 2.7552907 1.3891782 -2.6308296 2.1208773 2.1651618 1.3572576
279 -0.8828083 0.58706564 -0.12028495 0.88478667 -0.022492027 -0.034830697 0.19540639 2.1520376 1.4424099 -0.687258 -0.5175716 0.15556568 -1.8586218 0.059220754 -0.98667234 0.5746401
496 2.736154 -1.3897301 1.4597489 -2.796935 0.9305436 -0.7296989 -0.5525668 0.90007436 1.1924133 0.32497284 2.7027397 0.5007821 -1.1398478 4.3311367 -1.6140654 0.3974934
5638 -1.0363857 2.1194081 0.58095264 -0.2998756 -0.77238894 1.1677742 0.65841067 1.7272185 0.73176473 -0.024077091 4.1067767 0.044870965 -2.2117555 -0.41299012 1.3783072 0.3245065
2628 0.71889985 2.1000774 0.06107561 0.095703386 0.08497088 0.47462487 -2.1710663 2.6212292 -1.282936 -1.6099172 2.1753078 0.4668633 -0.21568455 2.3176167 -0.19540228 -0.8442116
60 0.3339555 2.4318492 -2.4317386 -1.4521818 0.892169 0.27253276 0.43858182 1.0180293 1.85247 3.4371245 0.49003145 -0.10071251 -0.3653492 1.8711618 1.3410982 0.34691554
98 1.2694952 -1.2851138 0.028699813 0.5466284 -1.1861447 0.5450442 -1.4129227 2.638136 3.274951 0.9979236 1.0079798 0.84603065 -1.5441747 -0.033930793 0.4580689 -0.2213968
2289 -0.31599587 1.8644559 3.1884422 1.3350519 -0.29678643 1.6979034 0.54132754 2.4862356 1.0964702 -0.8083057 1.6803209 0.26439336 -0.9977843 2.2508745 -0.57445616 3.1265912
3232 -0.3741732 0.228126 0.3620892 -0.60085154 0.37670538 -0.9249405 -1.9313025 2.5004933 0.17890775 0.2522871 1.4675157 0.019856682 0.113282375 -1.8863037 -2.716195 1.2615193
151 0.93151194 1.2956203 -0.38151476 -0.3010101 0.09359972 -0.4164605 -2.331172 -0.12631567 1.6664785 0.3888567 1.7367399 -1.0657912 -0.3977916 3.4066515 -1.8345612 -0.3392709
2661 1.9260867 1.0468917 -1.3222069 -1.1102067 -1.2976441 0.4392037 0.34496146 3.6959105 -1.1573015 -0.38964897 0.0889515 -1.1255373 1.0234752 1.6997079 -1.0928183 0.2981647
2890 1.3268039 0.79921114 1.3185745 0.70799893 1.633793 -0.048634976 -0.08923932 1.9162184 0.013609604 3.8360965 2.1674902 -0.6849104 -0.20849425 2.9991436 -6.0062823 1.4357853
1084 0.14633323 1.3971772 1.5856041 -0.2480828 2.4533758 1.3817971 -1.252116 3.2674227 2.27654 1.7112731 2.425805 -2.449325 -2.5573647 0.6463715 0.2197326 0.48978123
295 0.47247985 1.6386307 1.5239229 -0.14612922 2.6646395 1.4333811 -1.4127048 3.3745968 2.3498294 1.668927 2.4758043 -2.4554458 -2.3960621 0.56069887 0.2748425 0.55815667
2800 0.95406127 3.732786 -0.0813212 -0.57656425 -3.128665 -1.8506293 2.253743 0.84365135 1.3019601 -1.9019374 1.3337349 3.2864926 -2.6085443 -0.61350816 -0.41083273 3.3157835
1784 0.5949547 -0.08955586 -1.7654732 -0.7802377 0.6712066 1.4467716 1.2899106 3.6581216 2.1277094 -0.29268467 1.6373847 4.1704617 -0.77803165 1.2079839 0.53640795 1.7057369
2433 -0.35971132 -0.8105705 -0.051651258 -0.4286656 -0.9347963 0.54547983 -0.80263954 1.8000091 -0.20617335 1.0043883 3.873631 0.33022976 -1.6988884 -1.3027902 0.8010162 0.8624835
5572 2.035824 0.6371768 -2.2148767 -0.49503508 0.105554566 -0.85751766 -3.0371187 0.9749481 -1.0006826 0.26476946 0.26935586 1.4749608 -1.5077307 0.4606076 1.6247733 0.17920384
2283 0.41439745 -1.2296213 -1.3786062 -3.4031346 0.8577592 -0.44047904 -0.72640115 0.99224025 -0.9254626 -0.540287 1.5644335 0.92177796 -4.348411 0.51357776 0.42848322 -0.043744467
1575 3.08029 -1.2407525 -2.7656362 1.0507894 -2.0216572 0.07624949 -1.0936708 3.0125158 -0.078673385 3.4091403 -0.44212434 2.1065896 -1.6361507 0.68339217 1.5417774 -0.7405517
2364 1.9915045 1.7023059 1.7039753 -0.34083605 1.8442888 -1.0347617 -1.957014 1.3076535 1.416382 1.0033405 2.7910683 -0.99624264 -1.0265836 1.242399 1.2868155 0.21516888
4683 -0.66681755 1.1793157 0.15293698 -3.5683978 -1.822493 -0.98672926 0.12862481 1.008871 3.4232156 -0.6274312 0.16091661 1.6091012 -0.123807296 1.1683972 -1.3645711 0.40128466
3208 2.8530812 -0.088914506 0.83854324 -0.4860254 -0.9491195 -1.3893815 -1.8111093 3.1805463 1.8719598 0.7296133 1.1869605 0.3693209 -0.5694575 0.28056002 0.48026806 -1.2089633
5300 0.24293154 -0.70432556 -2.35943 -1.3823967 -2.0390217 1.9419912 -0.47541395 2.128452 -0.37976718 1.7777184 3.4799724 -0.19531007 -2.0921237 -2.368351 -0.9578204 0.4636313
218 -0.702468 0.8308719 0.17558268 -0.3165486 0.6690224 -2.0433667 -1.1661224 4.17766 1.0398165 0.31782922 1.2135515 2.3020973 -1.3722767 -1.3408294 -1.8717129 -1.03692
2591 3.7219405 1.6357584 4.058043 -0.6897344 -3.1658492 -1.5275596 0.050377846 2.1441002 -1.3608749 2.1684299 0.72748405 4.0911527 -0.49077377 4.01521 -4.2564263 0.80996764
4159 2.6440327 -0.040714312 -1.2602491 0.36212417 -0.8437439 1.2939973 -1.1662558 3.4103656 -0.5542889 3.9129925 0.30860716 -0.26534647 -1.8381217 -0.62303144 1.1643739 -1.026688
1304 0.10380324 -0.6025408 -2.4969244 -1.4071451 -2.6038234 2.0894299 -0.8318822 2.0621188 -0.3624914 2.5062473 3.5324278 0.50271106 -2.642606 -2.8578784 -0.5429761 0.64655423
6369 0.575563 -1.3903385 1.0057411 -1.7479389 -1.0180932 0.9952504 -2.0191767 2.4464638 1.1617589 -0.5408851 -0.82945824 -1.5440462 -0.28830436 2.0949187 -0.30729833 2.5935102
6191 0.06780255 -0.4928709 0.73687243 -2.23765 -1.0290679 0.86741626 -1.3676105 3.6222796 1.006499 0.21107696 -0.999243 -1.6479136 1.0157732 2.063114 -0.7631372 2.0563357
77 0.1610443 -0.6950261 1.0360166 1.9364251 -0.14686282 -3.4103734 -2.1062326 2.429339 -0.051211543 0.2618055 -0.1518979 -0.39803907 -1.5773507 2.302691 0.0347049 0.9812259
2112 0.006667892 -1.0892272 0.6266514 -0.3242416 -0.3051189 2.0635989 -1.6304338 3.1050222 -0.18426332 0.8868491 0.14545138 1.6031545 -0.31888413 0.6512252 -0.3412835 -0.5604437
2074 0.59585756 -0.1602763 1.0924141 0.4062635 -1.891681 -0.18406574 -0.7726116 1.6650882 -2.220896 0.7070095 1.0226574 1.9834312 -1.3901778 -0.18736915 1.0886558 1.2467813
676 0.85802543 -1.7524627 0.74590206 -0.8695069 -0.36595404 -1.2366647 -0.53350216 0.94777244 0.10307566 0.13728991 3.22149 -0.38589275 -1.505069 2.3557692 -1.9679323 0.86056477
2399 0.8426084 -2.032076 -0.92880327 -1.5628588 -0.96359646 -1.1483352 -2.0602922 0.21632697 1.4303936 0.3466756 0.9911323 0.011790774 -2.2770243 1.1961149 -0.95606744 -0.34660783
37 1.9267099 0.38114035 -1.268211 -2.7323327 -2.1569157 1.1379635 -0.012723263 1.4781106 -1.4643681 -1.3391716 0.3830448 -0.17332944 -1.5924969 1.7263618 -1.3072997 -0.7737259
1739 2.3151615 -0.18217425 2.381248 0.079806454 -2.078359 1.7721289 0.09099484 2.249391 -1.5038375 -0.618349 1.8448954 1.4929011 -1.8424907 2.716679 -1.9888294 -0.12601072
3993 0.38731122 -1.4105821 -0.4010401 -1.3821015 -0.743756 2.6549306 -2.315518 3.2538166 -0.7180846 -1.9358985 1.5985171 -0.3413586 -3.606738 1.5294669 -2.2575357 -2.1293817
2928 1.2065516 0.12645622 1.0069185 -1.0127109 -3.2039578 -1.2614326 1.301396 1.5678504 -0.62950224 1.3362442 -0.6332265 -0.7268642 -4.1544614 -0.10893728 -1.6407076 1.647738
4978 0.12119654 -0.54021686 1.069805 -0.9199861 -0.9023405 0.7859439 -1.1520873 1.350637 2.5735078 0.9918011 -0.41822463 -0.33041695 -0.39522243 0.28680554 -0.5204202 0.6598372
2458 -0.65139586 1.6837862 0.9601002 0.8223574 -2.3286905 -0.36957696 1.7030752 3.4518535 1.6191396 -1.6943383 -0.7003968 1.5566591 -3.0119162 1.4683727 -0.7247437 -0.29364297
6142 2.915156 -0.26692775 1.1004727 0.03267664 -1.1866741 -1.4516909 -2.2877524 3.0794768 2.1694155 0.49878526 2.0712729 0.51279426 -0.5842796 0.77754265 0.4848564 -1.174434
1264 0.36829278 4.9696755 2.6107135 -1.4340699 -2.3348758 1.0580604 -0.3240549 3.9561188 0.04140147 -0.37995556 2.6966658 -1.9735265 -1.6838639 0.7566011 -2.3558874 -3.5797908
2617 1.9601765 2.1977081 2.268126 0.1687652 0.593105 1.2505697 -1.2769827 0.48489943 1.7804211 0.80972934 -0.69728905 0.9498757 -0.84528285 1.2183862 -0.96935314 1.2881931
3501 0.7050064 -0.5736701 0.012444192 -0.676524 -1.5143427 1.2160243 -2.9814813 -0.07842231 1.788831 0.57587457 2.352748 -0.04829062 -1.4909797 -1.0076295 -1.3376682 0.5411221
212 -0.45537367 1.032094 -0.87346154 0.3938303 -2.72475 -0.31264848 -1.9714957 1.5614848 3.7069511 1.6619942 -1.3861607 2.5035908 -1.6250577 0.6054387 0.23657808 -1.0856253
1679 -2.0316758 0.97954553 -0.21067648 -2.7509267 -1.1495188 0.9273857 -1.6905295 1.7071085 3.0917027 -1.508274 0.87005377 1.2585317 0.6744863 1.8170098 -1.6590649 -0.08451531
2208 -0.38471672 1.018902 -0.9128418 0.38755885 -2.697004 -0.19084765 -2.1948047 1.5663751 3.881915 1.8497499 -1.414219 2.479137 -1.5977565 0.63847697 0.3712023 -1.0019765
1599 -1.0304666 1.3248322 -0.13605791 -0.66109085 0.41305378 -1.0380796 -0.8047668 2.4206767 0.017783435 -0.35661405 0.8235956 1.2435707 -0.67304 -0.69165397 -0.9033499 -0.7297339
2439 0.040907256 -0.43275678 -1.3187566 -1.2325824 -2.0090642 2.1161768 -0.5617611 0.93680716 0.13214707 2.0018137 1.337843 1.4270024 -2.0462003 -2.0361824 -0.27370527 0.5763837
6077 1.1224449 0.3957314 -0.24658908 -0.3072763 0.35830775 -0.36860475 -1.7029502 -0.54256773 -1.1064466 1.4670764 1.3040257 0.4052142 -0.76393557 1.2752398 -0.75699466 0.8150357
812 1.3920327 1.5481155 -1.2314168 0.3190721 -3.3979304 -1.5696557 -1.2533343 0.9681511 2.6717436 0.7106944 -0.28402877 0.6042786 -0.542926 -1.1903538 0.20439003 1.6886555
3607 4.1561337 1.7501683 4.0354443 -0.49955782 -2.7370872 -2.0706427 -0.17163058 2.0643523 -0.9813511 2.5234911 0.61911607 3.1694798 -0.7332202 4.6537156 -3.656603 0.46926504
3084 -0.040253274 4.146091 -2.0033996 0.16892445 -0.44239154 -2.4920266 -3.997807 2.416113 1.0141641 0.8141077 -1.5228357 1.0788472 -0.52713436 -1.5837923 -0.78939795 0.08418269
2586 -0.59859085 3.6362376 -3.1549678 -0.21007866 -1.5864084 -2.0670872 -4.247774 1.557647 2.2983327 0.16144624 -1.0581459 1.3377453 -0.70632905 -0.87368715 -1.376786 -0.13547717
1644 0.7728357 1.5150235 -0.2534917 -1.080771 -1.5919379 1.9516095 -0.21669802 1.702345 -0.9418444 -0.571164 -0.36427367 -0.3019152 0.026998222 1.4464642 -0.64488757 -0.15825619
5790 -0.9442733 1.1058311 0.2470111 -0.5381784 0.7468715 -1.6037545 -1.0163927 4.076279 0.56730163 0.39815924 1.5213959 2.3057253 -1.3567376 -0.8485925 -1.3459221 -1.4819088
2558 1.3315152 1.757933 0.65249705 3.5720341 -2.3076801 1.8368831 -2.7797365 1.8734711 1.9715394 0.4528775 1.5191724 1.1282982 -0.9101358 1.8123121 0.27394158 -0.39473704
4833 -0.85192424 1.8123449 -1.162462 -1.7393104 0.15007082 0.64603734 -2.520546 -0.06485831 0.31560627 -0.72661215 1.4138969 0.15393905 -0.5998106 3.4533124 -1.3110852 -0.81533194
1747 2.2140074 0.6012067 -2.0061474 -0.7806723 0.13706023 -0.97438926 -2.9136674 0.99852663 -1.1081065 0.12687823 0.31782192 1.4683099 -1.53388 0.58677495 1.6169307 0.039707355
802 1.3998193 1.6866672 -1.2425023 0.17916994 -3.646699 -1.5470214 -1.2998823 0.98539126 2.8334928 0.89575016 -0.32862917 0.50812083 -0.5728282 -1.1867388 0.4057581 1.4905837
1874 -0.7625048 3.147939 0.25748655 0.5911646 -3.482629 -1.2360935 -1.1841059 0.06323709 0.3262523 0.58953536 1.9010389 0.20608184 0.06539942 2.7263763 1.409608 1.2156649
1195 0.40117007 0.0028830871 -1.0227003 -0.4250068 -1.8736494 -1.7832259 -2.65867 0.35625556 0.6665279 -0.39162967 2.9582107 -1.6021643 -1.2680155 1.3292624 -0.94825256 -0.2907908
903 -0.42764163 0.78442055 -0.2630141 0.7962734 -2.256826 -0.43374038 1.0304061 3.4495497 1.2214855 -1.1899871 -0.94918376 1.8229897 -3.4341638 1.3592662 -0.18841971 -1.2940738
2908 1.1149454 1.6625074 -0.510301 1.0694808 -0.380546 -0.07262039 0.9005709 2.1643355 -0.24599251 2.9271622 0.15950102 0.6425171 -0.34607774 0.8227218 0.8070343 1.1709728
1638 0.14467688 -1.1514653 -0.20403215 0.22881708 -1.2291391 0.25918588 -0.94165933 1.8417618 -0.6455016 2.651833 -1.0234666 1.7873194 -0.14798535 0.9736277 -0.14728461 0.22127537
6455 0.32075715 2.1354353 -0.7884012 0.8876714 0.02550025 -0.073905714 0.80688304 1.9572849 -0.13319044 2.6117933 0.19901541 0.33469316 -0.40234962 0.6495767 0.50771075 0.99869263
5201 -0.8711547 -0.41250917 0.24878606 0.14212911 -1.7038959 -0.2606459 -0.38152444 1.8090656 -1.9217947 0.80762696 0.6627008 2.0405512 -1.641051 -0.6207606 0.20939386 0.7691541
29 -0.33812273 0.65804946 0.5747107 -0.40822774 0.4723903 -0.7035237 -1.9104481 -0.6270822 0.8259391 1.3087075 2.5865343 -0.6295902 -1.4657649 1.7390608 -2.2141776 0.40417647
3595 1.8045361 -0.33046094 1.5700554 1.2441264 0.7768798 -0.44536293 -0.13822557 2.0064735 0.14649542 2.9361572 1.7662882 -0.69646 -0.48545069 1.9772552 -5.475972 1.8199698
3140 -0.48116386 0.142367 -1.2025949 0.20583777 0.061934214 -0.5818949 -3.024485 1.6798353 -2.6663492 2.1144788 1.5156198 -0.5530052 0.06995971 1.7242119 -1.5628846 1.4643275
28 1.3736687 -0.8725317 0.26724172 0.4266019 -0.90517217 0.5696711 -2.933715 1.3494637 -0.75165427 2.7299774 -0.9284472 1.0783957 -1.5947152 0.17343527 -0.066178314 -0.59755534
3852 1.6443086 0.48764026 -0.04623692 3.5711899 -0.16966097 -1.3437761 -2.7860117 3.6878855 2.4507284 3.325293 0.2445284 -1.3124003 -2.8955798 -0.3035655 1.6570151 0.39941224
6472 -2.0096781 2.1099956 0.7867781 -0.60123783 0.715076 -0.8772635 -1.897321 3.7910914 -0.03783095 0.08953883 1.0223814 2.847653 -0.6414896 -0.14149584 -1.3322024 -1.2029717
5317 -3.0855322 2.6699426 -0.5683434 0.27968347 -1.2029673 -1.4069877 -1.1665283 2.1511273 1.9090877 0.7862764 1.2302921 1.3345618 -1.8916527 0.4592623 2.6068146 -0.47807413
1393 1.0264492 -2.1331656 -0.9685378 -1.3180298 -1.1002077 -0.87069035 -1.8339626 0.15573685 1.0427408 0.42933792 1.302021 0.075252526 -2.3185933 1.1905626 -0.59461176 -0.31197158
3596 -1.6108239 1.1604208 0.38515824 -0.91141224 -0.6429756 -0.07495725 -2.8436105 2.0252538 0.33764896 0.58535725 1.1616215 0.74931157 -1.9276837 -2.3038423 2.225514 1.9668846
2363 -2.1472583 -1.2637239 -0.45326507 -0.26441607 0.46981367 1.1560467 -2.2226257 2.087447 -0.20518397 -0.7275991 0.5498512 1.3192791 -2.2011054 1.0674002 -1.8166772 -0.46060407
2031 -1.7687665 2.4971094 0.3386901 -2.7925959 0.457722 -2.58887 0.5520432 1.1521965 -1.4822675 1.0232693 1.8986821 -0.1516544 -3.461831 1.1312692 1.8230203 0.90784854
2050 -0.11719572 1.5168327 -3.4598317 0.20009157 -0.11027285 -0.040377744 -1.3859111 1.0856513 0.16185509 4.405891 -0.26693213 0.5299521 -2.325984 -0.25440568 -0.18881294 -0.6502945
7 -1.2879899 -0.5915639 -2.6260571 -2.924562 -0.9898077 1.061555 -4.763401 -0.9345384 0.4477516 -0.16071267 1.2620094 1.3592732 -2.1440296 2.1900377 -1.7023336 -0.92213446
5626 -3.0076444 1.4205819 0.4575906 -0.22090834 -2.9024642 -0.1495362 -0.5313337 2.2048194 -3.1445365 1.3210517 -0.09290712 2.2109487 -1.7945826 -0.11913108 -0.8336975 0.6346916
388 -1.4002813 1.1482527 2.0014524 -1.5675966 -1.659299 1.0447956 -0.5711189 0.79234505 0.08738976 0.9726931 1.7230241 -1.8769951 -1.21614 0.86691207 -0.46568644 0.54191023
3054 -0.57800305 2.3107362 0.84528834 -1.3066282 0.16003394 1.6828088 -1.0729873 1.3658707 0.20880887 0.35841906 -2.1163774 -1.7303568 -2.8445637 0.26292673 -1.4373283 0.04546803
1078 -0.7538059 1.4015919 -1.5599254 -1.4044609 -1.3741273 0.18323356 -0.9140076 0.76616704 -0.0117989965 -2.5324235 1.0714731 -0.7595723 -1.5262895 1.2787483 -0.798939 0.7674708
3432 0.9824875 2.171252 -0.01791288 -0.4987484 -2.2892156 1.7505633 0.97599393 1.6920902 -1.1926011 2.0289652 0.5667092 1.5285281 -0.0035050914 -0.3977047 -3.6683455 3.4103246
668 -1.2996857 1.4745847 -2.0757349 -1.3196388 -1.5863657 0.62299794 -1.3113163 1.2940426 0.23853916 -2.611395 0.92065245 -0.68096846 -1.0412079 1.4237049 -0.641662 0.82612514
0 -0.7547145 1.6005118 -1.6684381 -1.6166446 -1.3765417 0.07564506 -0.46640205 0.9032081 0.3182298 -2.3847246 1.2870228 -0.9374825 -1.4156463 1.0173725 -0.61111164 0.9580272
4579 1.2980827 3.337322 0.93664694 1.4676532 2.2984202 0.2743785 -0.75241905 1.165964 0.6452901 3.4706337 1.7375014 1.4259764 -1.5971442 -1.052958 -2.80384 2.16873
169 0.38476807 1.737555 -0.20940627 -0.18016323 -2.7964268 2.490136 -0.16574265 1.4015774 -1.8748367 3.1957572 1.4080664 1.7227933 -0.7267968 -1.1667197 -3.312674 2.506106
1128 0.9959955 1.5729854 -0.60780716 -0.16069742 0.9625195 -1.6347021 0.23604062 1.971818 -0.46113777 1.8065945 -0.1947778 0.8684483 -0.057332877 -0.4664724 -1.1072898 1.2706202
2763 0.026774395 3.3489714 -0.92216855 0.81961185 -0.05401878 0.514775 -2.7126093 0.0441567 0.71496713 0.70682526 -1.4068825 -1.2483565 -1.9534587 0.48947704 -4.9212623 3.023449
22 0.31248897 -0.14930342 -2.1408083 -2.7897341 -0.529312 0.45611954 -0.47670904 0.09341624 -0.8060922 -0.5695085 0.86312467 1.371453 -2.9748278 0.4929613 -0.10233045 -0.51904774
1295 0.39413047 0.6133531 -2.2341182 -0.9164734 2.940928 1.0236474 -0.9464364 3.682946 0.11391521 0.78501713 -0.36897668 0.77551025 -1.5334504 0.9244646 -2.2234802 0.031135581
5223 0.36808625 -0.9708693 -1.359419 -0.9645135 -1.1131195 1.8660439 -0.40139744 1.5021404 0.36096618 1.1181786 3.321494 -0.10353994 -1.5962015 -1.5420266 -0.94103134 0.031341124
2476 0.5911997 -1.7247405 0.57315695 -2.382544 -1.4222691 -1.9923201 -3.9733653 1.5389448 0.10342445 2.9355307 0.53437805 -0.37341672 -3.1040022 -2.2125278 -2.011323 -0.46829477
5643 0.6642259 -1.6935664 0.5196189 -2.6413338 -1.3158209 -2.1123383 -3.9399767 1.2843633 0.19407831 2.8679225 0.5142432 -0.15529498 -3.085037 -2.1182132 -1.9416027 -0.28753954
4193 0.5134504 1.5408323 -0.9552701 -1.1252306 0.4297523 0.85710365 -2.171182 -0.15713187 0.88310224 0.20560925 0.19429031 1.1965017 -1.1801965 -1.9077647 -1.0397453 3.2806058
3378 -0.250064 0.4307057 1.4500136 -0.9929269 -0.12882996 -0.40332186 -0.44020468 1.2246612 -0.5553486 0.9662479 -0.41244665 1.0660578 -4.3944654 0.08115981 1.3220719 -0.5871393
1675 0.55796176 0.08640959 -1.1281538 -0.18859601 -1.9224236 -1.585997 -2.672336 0.3797663 0.77197623 -0.4278727 2.7520702 -1.4667046 -1.1863841 1.4197328 -0.8723713 -0.29017398
757 2.1937747 0.80326223 1.1011584 -2.5339215 0.108429246 1.5617125 -1.2813292 0.19821352 0.3016652 1.0818925 -0.7332647 2.1660635 -1.7907572 -0.27995726 0.17252532 -0.21414573
33 1.2588178 2.0754058 1.2769419 -3.2551389 -3.892122 -0.10355988 -0.68224216 -0.065023586 -0.19735223 1.9022561 3.9466505 0.34954765 -0.5039399 -0.8526705 0.15380129 1.0757651
3914 -0.4099877 2.120785 1.6835473 -0.543933 -0.42385224 0.27284104 -0.24147572 -1.6596118 0.38807786 2.598072 -1.9690062 4.1326227 -3.359065 1.4675722 -0.034750737 1.9028966
785 -2.1953614 2.632812 0.47425574 -2.3118799 0.8398353 -2.615865 -0.3080396 1.4703009 -1.4851396 0.74510145 1.0116475 1.7800279 -4.232885 1.1523907 2.7787614 1.01028
3152 -0.3852674 2.9192452 0.62316763 0.3607611 -2.9248776 -1.8938154 1.9538081 1.2883288 1.088294 -1.679331 1.0716326 3.2032046 -3.0307913 -0.472179 -0.5182086 2.4597762
5303 -0.52040446 3.325086 -2.6554708 0.11647085 -1.2633247 -2.0145352 -4.0183463 1.9500936 2.215109 0.13622177 -1.4527488 1.0636873 -0.8759198 -1.2733953 -1.1318333 0.0049028057
1183 1.2132075 0.93574756 0.99476194 -1.1730566 -0.6198427 -1.1302154 1.5436568 0.6284182 2.2562673 2.4724407 -0.00017821981 -0.0052963975 -1.6161635 -0.08537118 -0.24544208 2.0642807
1141 -0.3429893 -1.2212685 3.5647504 -1.1558481 -1.0977466 1.1359414 -3.3921802 0.6805048 1.1500071 1.60197 1.3246228 1.4650275 -2.7954462 2.7917273 -2.4008818 -1.9912492
3864 0.25049067 2.0807798 -1.1357665 -1.0142953 0.3732212 1.1569881 -2.46222 -0.12921278 0.5875986 0.09797631 -0.018127918 1.7196673 -0.87807894 -1.7115065 -1.1915312 3.485948
5089 0.4236958 -0.36136642 1.0792288 -0.6166849 -0.8070732 0.44234183 -1.0146805 1.0136808 2.584285 0.9868025 0.22210427 -0.07572517 -0.45709482 0.046195276 -0.13692223 0.92769235
2785 -0.43533227 0.4526688 -0.0668938 0.27268416 0.51066667 -0.19394422 -1.759074 -0.21783489 0.8727011 1.2006081 3.2317302 -0.94115704 -1.4438708 1.9821934 -2.2905822 0.2051094
2276 0.84082204 0.78808725 0.8824728 -3.266493 0.14735283 -0.11537521 -2.9459817 1.2764039 1.7459248 2.354857 -1.3201948 1.4893992 -1.2305452 -0.323809 -3.6774757 -1.251218
4904 -1.7094842 1.799846 2.6369026 -1.465753 -0.74597216 0.99534696 -3.4169488 0.6934761 1.1488091 1.2870417 -0.53253114 -1.9286731 -2.4669864 2.2659562 -2.0475907 -1.1684912
5814 1.7098277 1.2308099 -0.65145874 -2.3128247 1.7594899 0.024244344 -0.5290544 -0.47562838 2.8770113 0.68218803 1.1202688 0.9729401 -2.4228747 3.7450833 0.22835135 -0.1901884
1352 -0.5024911 0.27741757 1.3024375 0.2890397 -1.0034592 -0.740341 0.61456466 2.088197 1.8457468 -0.2932579 -0.36019698 0.048207555 -0.33754098 1.1669871 0.4121526 1.4127429
6078 0.07131523 3.2654166 -1.1224515 0.7989367 0.007793918 0.32205966 -2.5781724 0.13675301 0.5531664 0.71437913 -1.2777697 -1.2631961 -2.0451438 0.48788756 -5.083071 2.8419924
5891 0.93254185 0.2448761 0.036958214 -0.27248815 -1.8305897 2.0170507 0.24364725 -0.33146572 -0.2656653 1.8762666 0.3277928 2.7383504 -1.4883174 -0.46703818 0.7724524 2.0562706
3717 1.7452476 -0.77429765 1.2360444 -1.1440619 -0.2732823 -0.22564766 0.26124123 1.6600506 0.29420087 0.30891442 -0.46800283 0.7972842 -0.048241895 1.1132904 -1.3271309 1.5627697
1294 -0.4275058 2.0426903 1.5405954 -0.4043514 -0.25555632 0.45221806 -0.3899784 -1.537944 0.1666245 2.6508505 -2.0919952 4.054238 -3.4951553 1.3096379 -0.14426722 1.7955012
4490 1.649542 1.341844 0.9574173 -1.8557445 1.0372177 0.3589138 -1.65905 1.8852832 0.82380503 0.38143754 -0.6455073 2.9220345 -0.3388863 0.08180465 -1.2128851 -0.6760862
3211 1.1154882 1.6264534 -0.8986868 -3.450726 0.83700615 -0.0010245822 -0.92417437 -0.1857073 1.1462884 -0.945506 1.512982 1.925021 -1.0731566 3.951691 -0.732856 -0.26997745
325 -1.2429018 -0.9432181 -2.928709 -3.5485632 -1.0459646 0.8689674 -5.439118 -0.9393202 0.30683598 -0.033652224 1.403729 1.7883046 -2.7269983 1.7359725 -1.769497 -0.8760972
5207 1.2675087 0.89630836 3.0386875 -0.07754772 -0.42442665 0.7222234 -1.6340488 1.7592732 -1.0300425 0.9123953 -0.4807357 0.2693523 -1.6132381 0.8154268 -1.8942872 -1.2062802
4443 0.9280463 1.3855646 2.751251 -0.0021824667 -3.6923447 -0.7652404 0.1720085 2.8174937 -0.7757069 0.046357125 1.3310093 1.1008215 1.4424155 0.5783099 0.12870929 2.9064949
5738 2.2604287 0.044773478 2.0016866 -0.22428536 -1.9211264 1.5605701 0.2514117 1.8560741 -1.3003403 -0.35462523 1.4495523 1.0566596 -2.2166235 2.7782233 -1.968981 -0.6051224
4083 0.23378076 -0.3404856 0.03229137 -0.73369443 -1.4414264 1.6609529 -1.3973348 1.5087739 0.96805483 1.1058027 -1.2720203 0.7894424 0.06955874 1.2884107 0.040987447 -0.062598445
3592 -1.7125351 0.05404048 2.4870737 0.52768856 -2.0865986 -0.84518796 -0.6101273 2.1248271 -1.126261 1.2159991 0.19584726 -0.3460239 -2.631809 1.4279922 -1.1791285 -1.1348093
4179 -0.10654766 3.1881995 1.1804405 -0.6502402 0.22749756 2.7389815 -1.398292 2.5976849 -1.7309443 -0.013699276 -0.3733845 0.031664886 -1.2865375 1.1310863 -0.10443993 0.43907884
3672 1.1459095 1.53342 0.34205458 -0.55333906 -0.4544273 -0.4915768 -2.3719592 -1.3595937 0.25755194 0.608195 3.9397442 -0.7116075 -2.3512957 2.4559145 -0.70703316 -0.17975725
4253 0.21538933 0.94876814 1.3229672 1.2281263 0.88755643 1.941111 -3.0621114 0.8641548 -0.90285176 2.3561008 1.2686343 1.4169282 -1.0236089 0.26215613 -1.6190456 0.047802947
5311 1.3686612 1.2783539 -0.7754194 -0.59809154 0.35239202 -0.41421854 -2.414519 -0.6568833 -0.6537862 2.3352737 0.6372144 0.6615274 -0.30038598 1.6181426 -0.087854795 1.3583258
5736 1.6187757 -0.034481153 -1.6171603 -2.1808214 -2.0144691 0.57179356 0.37937224 1.1059008 0.15429944 -0.6682037 -0.27065006 0.6415192 -0.786654 1.0946434 -1.9432678 -0.29945382
981 -0.5103756 -1.0556049 0.5102724 -1.648156 -1.7879294 -0.32798907 -0.9857351 2.4909632 -0.21942736 0.55879414 1.1900022 -0.9289521 0.6177675 0.39823282 0.021223042 1.2901058
4526 0.21263844 1.255532 -0.9508402 -0.85608953 1.1297837 -1.7730651 -2.0116453 3.34433 0.99703366 2.236945 2.1465898 1.7378368 0.22526953 -1.6780673 -0.94652724 0.5142623
5312 -0.33382106 -1.1536449 0.8944773 -0.37756076 -1.404816 -0.28673348 -1.0070007 0.1379422 0.1754886 0.5837218 2.9454098 -1.195873 -1.968536 2.298455 -2.7254152 0.20602465
5782 0.16004513 0.7866915 -0.7557712 -1.7214886 -0.04295819 -1.5931562 -0.73459834 1.1380676 0.96316445 1.0959271 0.62916267 0.46099016 0.4532983 -0.015360348 0.20380248 0.36628076
3610 0.22391608 -1.7389662 -0.8969463 2.3909187 0.78525347 0.015271858 -2.270146 5.0283003 1.0298038 1.5076348 -0.62679213 4.0710225 0.37709874 0.8521088 -1.2681127 0.82062346
4989 -0.6221222 0.6487134 -0.4766661 -1.5135548 -1.4430214 -0.870134 0.01669024 -0.035369106 -0.44955686 0.61535674 1.4052494 -1.1739383 -0.90884304 0.923116 -0.816906 0.025910914
3056 -1.7083627 1.1688983 -0.4427664 -2.8497987 -1.5603427 1.1263795 -1.8449515 1.9478694 3.4559839 -1.4937788 0.7065079 1.4918458 0.9463801 1.8541328 -1.9263767 -0.098828144
4676 -1.7546023 2.036449 2.326785 -1.7085193 -0.5576086 0.42414778 -3.583109 0.67534316 0.9966548 1.0670542 -0.8519072 -1.9779617 -2.4809494 2.4990563 -2.5781887 -0.85840744
3 -0.6169496 -0.50844973 3.2459865 -1.0467103 -1.2917404 0.6967403 -2.665529 -0.011356931 0.5944113 1.0155368 0.5422625 1.8117923 -2.5070608 3.0631955 -2.5061257 -1.2925397
1685 0.6149895 -1.774424 -0.44932213 -1.434776 -0.9412084 2.3195574 -2.2104745 3.3959422 -0.24825843 -1.9187979 1.6638762 -0.17344603 -3.815576 1.624638 -2.3474238 -2.357092
1952 -2.790017 1.819239 0.1906002 -0.30323035 0.26647735 2.107771 -1.2883915 1.8185877 1.7062161 0.48569897 -1.0178641 -0.7332812 -2.9395452 0.88256603 0.5096255 -0.13975815
1556 -0.20259899 0.434304 0.109250434 -0.4849722 0.090604015 -0.10189089 -1.5494341 -0.32444277 1.6011153 0.58089477 3.7231169 -0.4360402 -0.7957255 2.3356555 -1.6372808 0.3432981
2765 1.3329422 1.395692 -0.67897475 0.59273636 -1.9622306 1.4669822 2.3625042 3.4326177 -0.6608114 1.0175413 1.8308157 0.4786844 -0.9313956 -0.8158598 -1.7389207 1.1158059
4870 -0.7518868 2.5892224 -0.40473863 2.7332149 -2.720152 -0.79399675 -0.97752416 0.15980875 -0.069751605 0.2966431 2.479295 3.0491073 -0.61372226 2.9526687 0.06377535 0.41197342
27 -0.6471725 0.85076505 1.5393007 0.8845415 -0.57756007 -0.22841258 1.2822032 0.51191825 -0.38081196 0.8499171 0.9919585 0.8165198 -2.545909 1.4955705 -2.6465998 0.6659343
65 -1.2399081 2.9617496 -2.4391365 -0.78224254 -0.8056382 -0.12400686 0.46711272 1.1766448 0.1483118 1.2200091 0.89891493 -0.79624254 -1.0023255 1.6172639 0.64690757 -0.6404479
6368 0.19384034 0.5058833 -2.3803322 0.6024075 -0.0047956984 -0.30375937 -1.5196983 0.95559216 0.7880093 2.7500246 0.2535831 1.1787374 -1.8029329 0.510065 1.3679783 -0.9454828
2511 0.37314343 1.9265403 -2.349506 0.48486137 1.0701241 -0.9814674 -1.8373039 0.9924229 0.04431118 3.4033701 0.48545325 1.2462817 -2.1883614 0.5585473 1.1331967 -1.0598838
4750 -0.665746 2.5904577 3.4404716 2.1101635 -1.794278 -1.5848197 1.2228142 4.850531 0.007149313 1.8659343 0.7786499 0.75720805 -1.9194902 0.48614588 1.930511 0.073356085
4043 1.0359328 0.056260485 -1.1089375 -1.5989101 -1.5631193 1.3624399 0.015773827 2.068476 -0.102617845 2.3936758 -2.0393958 -0.82889074 -0.2634765 1.5961266 -1.2402298 0.76951164
4821 1.3200172 1.0020518 3.2938757 -0.45432654 -3.8580935 -0.3269404 0.38654932 2.7029507 -1.0562004 0.27574116 0.9308828 0.5229643 0.6246179 0.36918986 0.9323575 3.0011942
6241 -0.17283508 1.9257085 -0.0031180712 -1.3589016 -0.9756933 -0.1398471 0.8879021 1.937006 0.785709 0.9818229 -1.121513 1.89553 -0.7611332 0.002307959 -2.6851401 -1.0749078
5538 -3.0334017 1.6192027 -0.076096505 -0.5083353 0.34424546 2.7110488 -1.922208 2.2688 1.758262 0.71730244 -1.2103418 -1.0735854 -3.1952486 0.8185871 0.5970115 0.014779708
56 0.7839704 0.9543402 -0.7572282 0.06987041 0.39779744 1.7702891 -0.5759864 -0.34121084 0.40511224 2.0040915 0.5241094 -1.0187353 -2.1206844 1.042584 -1.3777115 0.44721323
32 0.9645848 1.242562 0.78783274 0.73582834 -2.586766 0.22599162 -0.35446337 0.087715626 -1.0023497 2.416417 0.68920004 -0.1091588 -0.60546756 0.42991087 0.49545386 2.8182514
1491 -0.05545217 1.7777666 -1.0451648 -0.8691203 1.2462238 -0.77743566 -1.4754183 3.512712 0.44229785 1.2190179 1.7391293 0.4477706 -0.4988145 -1.4705982 0.061173867 -0.56008905
1002 0.066479154 0.6961474 0.82243305 -1.967726 -0.34378493 -0.104393 0.60261625 0.65070766 1.7416962 -1.3059897 0.30762953 1.8742446 -1.5146067 0.7482808 0.5985173 1.3929558
2561 3.3811357 -1.2929636 -0.018425643 0.50960493 -0.6045238 0.44147837 -1.1987429 1.9861202 2.0483997 1.1201704 1.5154258 0.71821547 -2.4270418 -0.51234365 1.8831449 2.0279155
6049 3.2617893 -0.15354751 -1.9405708 0.42710376 -1.160845 1.254357 -1.344228 4.1602983 -0.63630927 4.3519135 0.42427748 -0.36282465 -2.1276271 -0.944177 1.0566444 -1.2459307
6515 0.7029443 0.60199994 1.0063039 -2.1492956 -0.59682745 -0.48978677 1.075006 1.0742688 1.5515682 -1.3649529 0.5266257 1.821895 -1.7092712 0.9516569 0.78606576 1.7801011
5881 -1.1320583 2.197331 2.9367356 -0.94966674 -2.0042207 -0.7755274 -0.10890904 2.1177418 0.28664708 -1.8432299 0.11413485 0.5345928 -0.24294548 0.4067063 -0.22688495 2.8312237
3920 2.9814165 -0.9492626 -3.4476585 1.4981719 -0.767354 0.36295566 -1.1835685 3.6427052 0.62835115 3.5184774 0.040773243 2.340956 -1.8720855 0.9984326 1.5873401 -0.50223476
5681 1.8535038 2.2346773 1.7295742 0.21541438 0.17689383 1.2664374 -1.1039627 0.4915269 1.912438 0.481366 -0.81933075 0.79461056 -0.87309957 1.2903743 -1.1332178 1.0451828
4728 1.2925315 -0.02938476 0.6395193 -0.31384307 -2.029466 0.04234793 -0.45517996 2.586749 -0.071616836 1.858516 -1.1992176 1.0597745 0.9949749 2.2295246 0.8010204 0.13833383
470 -1.4235651 2.2444818 1.6785488 -0.42461154 0.09265902 2.7204204 -2.4509943 2.070425 1.8351681 0.79587984 -1.5618755 -1.1826236 -2.421812 0.86763084 1.0043781 0.27394912
3194 2.473457 -0.12631896 2.1508062 0.27410713 -2.1353188 1.3352274 0.19009702 2.2204204 -1.4126757 -0.5976893 1.226064 1.6231955 -1.8439757 2.2388163 -1.9332325 -0.028561708
41 -1.6067553 0.5534612 0.18622094 0.5706764 0.546682 -0.31236506 0.029870205 4.2746763 0.87211794 -1.1981478 -0.104671195 0.47604245 -2.3472617 -0.34734216 -0.4005351 -0.120232336
700 1.7026492 0.32668287 0.0068419715 1.1054842 0.19579142 0.6554348 -2.6669152 0.23490132 0.88763064 -0.5053343 1.5344347 1.751172 -1.1966442 1.8400928 -0.1346197 0.27781346
2181 2.5260139 0.5755274 0.72091866 0.30950373 -0.54588604 1.641942 -1.2983314 0.8682252 -0.79412895 1.7178838 1.6466392 0.38081834 -1.8491809 1.7517339 -1.5112371 -1.3062625
2250 -1.2107478 1.9215473 -0.25328034 -0.5561461 0.6940118 -1.5476567 -0.72053456 3.643163 0.3360255 0.23590276 1.1142519 1.955691 -0.71489924 0.17041746 -1.1342704 -1.5775553
177 -0.39332336 1.5798335 -0.38365892 1.2318345 -0.15164655 0.77183694 0.61961985 2.387144 1.7421246 0.6838937 1.594004 -1.4018517 -2.3227453 -1.2164037 -0.5152825 0.9495248
4699 1.6426662 0.722581 3.7793105 -0.26098284 -0.7489536 0.6616808 -1.8629276 2.2168307 -1.6271902 1.5979495 -0.2717858 0.3199122 -1.4202079 1.4115014 -1.7983583 -1.1369386
3364 0.7247207 3.4280047 -0.6581876 -0.43341672 -0.28935504 -0.08263199 1.8248607 3.4755335 -1.000671 0.21866083 1.6338458 1.3059707 0.16597636 0.7250019 -1.1874583 0.7219586
4042 -0.92821664 2.714913 3.292575 2.0114028 -1.7900025 -1.367596 1.2144365 4.6867146 -0.04792577 2.164818 1.1920786 0.82494533 -1.6476687 0.51721543 1.8019729 -0.013669693
