10980 16
30 0.05743926 0.8468134 -1.2407901 -0.3096944 -2.278669 2.3000932 0.064424776 -0.857264 -2.6062639 0.4887426 1.7798008 -1.7114466 0.473997 -0.06821205 -2.6743722 -0.19385968
2054 0.100264944 0.77559185 -1.2089274 -0.28000218 -2.256777 2.1941051 -0.055678353 -0.7685912 -2.480266 0.44604653 1.7656053 -1.6615744 0.40322563 0.041305777 -2.6178617 -0.19520397
59 0.66315424 -1.1419252 0.8232486 1.0790814 -1.3501673 2.5956385 0.36900598 0.097078875 -1.559328 0.006666886 -0.30041125 -2.1822722 1.4737954 -1.2717798 1.6112611 -1.9530774
3645 0.7370877 -1.2004281 0.82753944 1.0871822 -1.3579227 2.6520777 0.42692748 0.07320597 -1.5759209 -0.019236859 -0.2960992 -2.2796745 1.5081261 -1.2871078 1.6005927 -2.0220008
42 0.7556455 1.4239055 -0.6692185 0.69163364 1.8151098 1.6291628 -1.2262437 -2.10626 -3.8215456 0.45184863 -0.16013138 0.51215565 2.9782827 -0.9409331 -0.4623071 -1.3945253
4 0.9734045 1.4673785 -0.36853355 0.85993755 -0.13657238 0.6828651 -0.54326993 -1.1492262 -2.5342178 -0.38127455 -1.8644058 -1.4515969 1.8232107 0.13293606 -0.86450016 -0.90154195
1312 0.8895855 2.2586668 -0.6290758 1.2768662 2.185093 1.6517682 -1.3698138 -2.8618503 -4.5135484 0.57832867 -0.0859206 -0.0020050092 3.9170156 -0.97147256 -0.69281846 -2.0860314
138 0.14376685 0.50251687 0.3108622 0.494892 -0.09741742 -0.6823367 -1.9388474 -0.27438182 -1.5848507 -0.817417 2.5886724 -1.7554055 -0.5648986 -0.7411132 0.045347784 -0.47811505
9 0.49983996 -0.7566019 -1.0719763 -0.7150648 1.7168635 -0.35857743 -0.036900498 -2.8120773 -2.424484 -0.618854 0.8411199 -2.1533158 -1.248073 -0.6375252 1.5781609 -2.489068
2634 0.5125815 1.6028572 0.089256756 0.7790539 0.05644358 0.36727712 -0.45855308 -0.24285221 -1.7029219 -0.16469279 -0.8762486 -1.6977493 1.4369398 0.41225696 -0.85158914 -1.394558
63 1.6066906 1.7321404 1.0402662 2.0917618 -2.0221524 -0.50177336 -0.9482704 0.30789474 -1.4380151 -1.8708421 1.3491229 1.2128328 -0.08401336 -1.4902455 -0.41688582 -0.19863196
3588 3.1908436 1.6043688 1.9896479 1.7039727 -2.0222042 -0.23172967 -0.6122031 0.1442504 -1.4872682 -1.9746037 1.1670682 1.4900535 -0.39175382 -1.6017005 -0.082122736 -0.27898324
68 -0.20353952 0.025799334 -0.25203016 1.2230628 -0.4330914 1.2188344 -2.175782 0.03886521 -1.7271842 2.1634955 1.7141016 -2.5407264 -2.6921299 0.35155174 -0.8098504 0.1643216
209 3.8857932 1.5240192 2.8622103 1.3733023 -2.070829 -0.16967711 -0.56418157 -0.32790488 -1.5838188 -2.1396976 1.3960323 1.5865326 -0.7244234 -1.493972 0.2264855 -0.026717482
1175 1.0960552 1.5197115 -0.5823731 1.1582422 -0.11601619 0.87047976 -0.5652731 -1.4929831 -2.638566 -0.3728036 -1.9741071 -1.7372236 2.051345 0.14513086 -0.7094582 -1.0707303
23 0.05765633 1.3969045 0.0023038157 0.78936344 0.85354364 0.27223095 -0.50505304 -0.5790189 -1.867209 0.011119487 -0.8158347 -0.91721404 1.552619 0.040420856 -0.80714184 -0.6853561
154 -0.19287279 -1.6637442 0.689161 2.072618 0.1346384 1.4812521 0.14370096 -3.058345 -1.5588593 -0.87470335 0.73437965 -0.93786323 1.5772744 -0.601063 -2.8291082 0.048524976
33 0.96611136 1.6245778 -0.078749776 0.6243344 0.18226482 0.2962485 -0.6568626 -0.15876763 -1.7920564 -0.39791474 -1.0503265 -1.789649 1.1845299 0.3910126 -0.89454484 -1.1997435
2725 0.23255183 0.46524483 0.18500967 0.42430556 -0.0006461532 -0.6407213 -1.9590205 -0.56145066 -1.6727327 -0.65003896 2.536698 -1.6935024 -0.45638746 -0.762431 0.1789864 -0.5262968
4907 0.41860873 -0.6030988 -1.1841685 -0.58532876 1.630091 -0.52546483 -0.10371194 -2.62073 -2.5373304 -0.5677634 0.86485845 -2.094158 -1.1912555 -0.46998864 1.557725 -2.449678
143 0.19254103 -0.23701562 0.28857532 0.8207868 -0.52726156 1.4146845 -0.9175885 -1.0974776 -2.588202 -2.9765015 0.49568734 1.3187319 -1.1984719 0.98388755 -0.33906877 0.71707827
4729 -0.46385196 -1.5691725 0.7210945 2.372302 0.12339537 1.6292576 0.2042805 -3.058816 -1.5997921 -0.9143154 0.664881 -0.8771213 1.5931293 -0.5822899 -3.040708 0.17787065
2329 0.10682968 1.0189385 -1.8997139 -0.3535088 -2.733517 2.1296437 0.5027884 -1.10955 -3.1497436 0.0543276 1.2818924 -2.0261827 0.34729168 -0.32615608 -2.681825 -0.24805647
2336 -0.37885907 0.2515635 -0.03341193 1.0297426 -1.031595 -0.42541158 1.6478412 -1.6400946 -0.58375865 -2.491839 -0.7494611 -1.1008706 -0.444701 -1.3843992 -1.8291897 -0.5306491
1587 -0.9003839 -0.35551864 -0.011034281 4.059723 0.97030056 -1.5061582 -0.6358158 -0.98539084 -2.7032387 0.8180645 1.5332419 -1.0938668 -0.19531173 0.16015814 -1.032724 -0.33224416
197 -0.27653876 0.35622334 -0.9181943 3.592773 -1.2315316 0.34714708 0.30436498 -0.7427218 -0.7105346 1.0619661 0.2745557 -2.2797928 -2.8372555 1.0872532 1.0583876 -1.9808016
2924 -0.17766948 0.02388059 -0.39075094 1.3522016 -0.36281204 1.3023365 -2.1767502 0.09132498 -1.7157882 2.2413762 1.7207645 -2.614751 -2.647311 0.2743572 -1.0381202 0.13021833
2803 -1.9930346 -1.295887 0.631271 3.6259394 -1.1445932 0.3118479 -0.31759122 -1.0564023 -1.4864118 -1.8569089 1.8312684 1.9010153 0.55406207 -3.2661629 -0.18541667 -1.6805822
50 0.16579574 1.1575494 -1.1167504 -0.9061283 -0.086678036 -0.47260383 -0.17463015 -1.4094632 -1.2248943 -1.4140111 -0.16148707 -2.1192944 -1.0343477 -3.683492 0.6070885 -0.97739184
322 -0.05509524 -0.6342062 -0.8871228 1.5442156 -0.870693 -1.5001444 -3.633506 0.113186985 -2.4365065 0.031152828 -1.9003787 -0.0248159 -2.1654432 -0.12305044 -2.303565 -1.6692896
20 1.3323416 -1.9718056 -0.4645327 1.2010999 -3.126875 -1.3050174 -0.80382276 -2.739723 -1.5634911 -2.201554 -0.90820324 -0.8116304 -1.5493369 0.13778469 0.16734618 -1.9351507
2942 -0.07472547 0.24041829 -0.8453258 3.9250035 -1.1696898 0.4102888 0.32772738 -0.80045885 -0.9262031 1.3996468 0.47050682 -2.3616395 -2.9003403 0.9211383 1.3987833 -1.9706943
104 0.10024141 1.8912932 -0.55797774 1.8961905 0.9982487 1.8157792 -0.5058829 -0.7864485 0.55970097 -1.095086 -1.5667006 -0.25471398 -1.8634411 -0.5579015 -0.22573362 -1.0149727
177 0.053826988 -0.38775542 -0.92951006 1.2321309 -1.5956464 0.8800596 -1.8550638 -1.2430247 -2.5103166 -2.325871 -0.012113272 0.90328 -1.3971761 0.91815126 -0.8929333 1.0262151
3033 -0.608568 -0.37221056 -0.94427544 1.2509638 -1.6108984 0.92673814 -1.8890023 -1.2986654 -2.7065609 -3.2552044 0.122297026 0.9601649 -1.756921 1.0679369 -0.5534622 0.5922679
71 -1.3137959 -0.51297104 2.7005296 0.2862284 0.56188285 3.1588016 1.0588661 0.21067815 -1.4511213 2.3197699 0.416077 0.15387079 -2.8792856 -0.45851767 -2.199453 -2.8300734
84 -1.4861219 -0.29569545 1.8081651 -2.2907355 -0.10472876 0.2755475 -1.4695139 -0.83697134 -1.7828366 -1.6509852 1.4855536 -0.35776588 -3.1088417 -1.8895093 0.4197207 -0.884522
4191 0.06817201 0.5733548 0.6472995 0.8539794 0.05245799 -0.77096665 -2.1747282 -0.071182065 -1.82806 -0.8277986 3.0486393 -2.2434704 -0.7065517 -0.882989 0.15480234 -0.50271374
54 -1.2619047 -0.32270932 0.7385875 0.89203745 -0.90351534 0.21672653 -0.48687255 -0.8245877 -0.39119565 -2.6040506 1.0511938 0.7732656 -0.40569115 -0.8987676 0.3845528 -2.0011988
2532 0.8677295 1.1980599 -0.43092313 1.0555618 0.16738887 0.82706475 -0.64343303 -1.0612876 -2.0423706 -0.5056978 -1.506752 -1.2968884 1.8044261 0.10998103 -0.75967914 -0.81311864
10 -0.28552935 1.4053923 0.5582763 0.9306447 -0.36986944 0.91512364 -0.68212456 0.3840431 -1.0983155 0.31317714 -0.791837 -1.406602 1.166609 0.28539297 -0.68610656 -1.7097101
2395 0.45712253 2.118402 -1.0978907 2.1834722 0.900954 2.0259933 -0.7327118 -1.0085076 0.45380825 -1.0808793 -1.8378619 -0.27204153 -2.2842603 -0.61891633 -0.11989709 -1.1762011
7546 -1.8310478 -0.12494997 2.6302087 0.047243256 0.008272321 3.0983858 1.069578 0.2693059 -1.3327646 2.3733194 0.47114378 0.41718647 -3.3907652 -0.8474569 -1.8748703 -3.2970219
533 -3.3903642 1.3482429 1.0998081 1.2111365 2.5189986 1.8101794 -3.2890406 -1.1237222 -2.586214 -2.478781 -0.9804596 1.9610018 0.2281089 -1.1675466 -3.3712697 -2.4487035
511 -0.23234007 0.06272166 -0.030208819 0.76382405 -0.97352695 -0.5707934 1.5793447 -1.7259202 -0.6965997 -2.131355 -0.81785566 -1.1925163 -0.21507864 -1.5528888 -1.6282622 -0.48040602
31 -2.704506 -1.438894 1.6777663 5.75052 -0.16432276 1.022117 -1.2040883 -2.1361215 -1.4464835 -2.3739083 3.406841 1.8592688 0.5511394 -4.064076 -0.22454457 -2.3364034
4913 -3.401464 1.4372846 1.4300814 1.1790752 2.5526645 1.9364669 -3.309125 -1.1254054 -2.6300232 -2.379308 -1.1344527 2.1753647 0.19683844 -1.2391622 -3.3537095 -2.4573166
406 -0.60813534 -0.14532968 -0.037505478 3.6693187 1.3990403 -1.1807002 -0.5446839 -1.1773894 -2.6134639 0.9910754 1.6750221 -0.95886165 0.038915657 0.26898703 -0.9146191 -0.28688464
1343 0.300937 -0.472998 0.3276927 1.0507962 -0.1880954 1.3365723 -0.6778645 -1.2877693 -2.258712 -3.49011 0.913273 1.3668102 -1.2497292 0.84010583 -0.24351195 0.52101296
2088 0.29122633 0.4357095 -0.41648006 0.52064484 -1.3966339 0.75965536 -0.560152 -0.14896667 -1.8114065 0.67463577 -0.6807738 -0.489575 1.0542654 0.26595595 -1.8823937 -0.21000016
125 0.6835473 1.2749596 -0.8360464 0.26795596 1.079721 -1.4294113 0.3015069 -1.6256055 -2.57176 -0.2038082 0.9949415 -1.3326495 -1.0373034 0.6453731 0.7594476 -1.8340491
6987 0.7513472 1.1029103 -0.8847691 -0.6162537 0.18541357 -0.52720296 -0.5176987 -0.97934073 -1.0381453 -1.0700252 0.017327901 -2.6218135 -1.371707 -3.6429234 0.90128374 -1.4407172
2180 4.149554 1.9946797 2.3164506 1.5856569 -1.9120082 0.07005954 -0.54828966 -0.04236363 -1.5530553 -1.8579547 1.6454359 1.759442 -0.49405363 -2.0889256 -0.31171185 -0.50924885
144 2.111296 1.419666 0.74204683 1.65293 0.5389611 1.2495648 -0.23057641 -1.4018972 0.27586827 1.3130853 0.6894184 0.8790039 -1.9574271 -1.5673581 -1.6469307 -0.34595746
685 -0.41551456 0.62135756 -0.06230115 0.27188084 -0.36682138 4.219342 0.79131275 -0.42215285 -0.43865186 -2.2521956 1.3486192 -0.4112717 -0.8734872 -1.5496682 -0.6964885 -0.11100499
291 -0.17468798 0.26836303 2.4934611 1.5207667 -2.0625474 1.7462786 -1.0946512 -1.4612186 0.26297694 -0.2519261 0.13734046 -1.3882738 -1.8967736 1.2149625 1.6956807 -2.2929661
129 1.8419476 -0.16485327 2.4241033 0.60710824 0.066355295 1.6324394 -2.1200771 -0.12408288 -1.9930922 -1.0245551 -0.9853497 -3.2249575 -1.1117443 0.09501639 -0.28339583 0.7752868
158 1.8830142 -1.47474 0.4783886 2.192951 2.1707394 1.5233518 -1.447933 1.6590637 -1.9469593 -2.813431 -0.6151424 -1.96514 -0.28050458 -0.7835441 0.15320574 -1.5231265
4008 1.3033869 -1.9231528 -0.7875856 1.606022 -2.7676158 -1.2721707 -0.75720406 -2.454918 -1.4739181 -2.277277 -1.0265619 -0.7323173 -2.1158674 0.53435534 0.060017727 -1.8564866
7 -1.1115379 -0.2645489 -0.9099352 0.5408853 -1.2776715 0.341335 0.5564568 -0.073558934 -2.1804225 -0.37417144 0.76225615 0.77709097 -1.0400953 -3.5805743 0.41280824 0.10945737
432 -1.237365 -0.1773765 1.5884191 2.207216 -0.3090552 0.8411595 1.0160011 -1.8696343 -3.0322003 1.235396 -0.32830322 2.1354108 -1.816753 0.8129839 1.2990154 -0.59088653
51 0.22066362 -0.9498024 0.11021835 1.4203668 -1.0011463 -0.046090834 1.2913572 -2.6444366 -1.6126784 2.2346683 3.5827453 -1.7267435 -1.4925973 -2.6785352 1.1614608 -2.5880647
55 -0.0075469296 0.23171312 -0.062255543 1.1480689 -0.79067737 0.01685657 -1.0921749 -0.68010896 -0.18435305 -0.7631567 1.083244 1.547301 -0.24208355 -2.714793 0.072780795 -2.075355
2470 -0.2470311 0.5003693 0.24409483 1.1466568 1.440492 -0.5107952 0.69018066 0.6887484 -2.7578876 0.31272897 -1.7554586 0.6723419 -0.7526728 -1.1745913 0.3818622 -1.8421674
47 0.3695812 1.8507826 -0.8802518 0.23892616 -0.35029322 -1.4054273 -0.6078733 0.13736776 -1.3853253 -1.5017443 -0.28911576 -2.4186945 -1.5527161 -3.4349277 0.8813952 -0.88000965
530 -2.1454935 -0.014509485 1.3175693 -1.5614597 1.3468612 1.8770379 -1.2410175 -2.5813715 -2.5457056 -0.8151267 -0.14367232 -0.44840655 -0.24438158 -1.563309 -0.43361267 -0.21496473
1815 -1.6679506 -0.47786993 1.844574 -2.2712667 -0.39783382 0.47981343 -1.4801228 -0.11511721 -2.0924604 -1.5103079 1.7215589 -0.09162619 -3.3367107 -1.9602269 0.364354 -1.3527364
734 0.23846343 -1.0838636 0.069146365 1.1387135 -1.1741066 0.043747444 1.1172099 -3.081494 -1.8459829 2.3920233 3.4848297 -1.4828625 -1.6472418 -2.7157192 1.4266944 -2.3805192
52 0.58013266 -0.32829636 0.5680942 1.1514814 -0.02395402 2.2150233 0.6072871 -0.32363686 -0.75450814 0.6190205 -2.0845637 -0.17578247 -0.01493833 -2.9673858 0.03904872 -0.979953
4791 0.9232552 -0.833898 -0.5711877 -0.7405699 2.034435 -0.61653125 0.076777816 -3.2091892 -2.5732446 -0.6142414 0.8368794 -2.8319178 -1.3631186 -1.1051538 1.9543753 -2.6376472
65 -0.25448838 -0.5117858 1.5166186 1.3080337 -2.1419005 0.10203885 1.5932844 0.1712961 -2.5468366 0.3818248 0.5004159 1.0444626 -2.0174625 -0.44978377 2.0657804 -0.9950766
85 0.85414976 -1.0536968 2.5396504 1.4591242 2.282271 0.504397 -1.6896231 1.6551529 -1.6723473 -1.1995491 0.26794222 -1.1994597 -1.4141101 -0.45741743 0.34989488 -2.0662138
6392 0.09485056 -0.7219394 -0.8166193 1.6521826 -1.2354586 -1.405424 -3.4033544 0.14512211 -2.304626 0.08725442 -1.9960213 -0.20680895 -2.0629134 -0.19264191 -2.543896 -1.6837819
53 -0.26152578 -0.773404 1.8301188 0.37389466 -1.2050747 0.7581339 -1.7450697 -1.7021235 0.02939225 -0.36836872 -0.88603157 -1.4848466 -1.4035208 0.10020627 0.42715916 -1.3089385
3274 1.349921 1.598148 0.78769934 1.845617 -1.8787214 -0.21453618 -0.90490544 0.39859828 -1.3950449 -1.6809758 1.0586649 1.1708499 0.079090096 -1.2327615 -0.2584103 -0.15268353
34 -1.1516836 -0.92183787 0.22013439 2.2918775 -0.93637973 0.2373464 -0.48191294 -0.73613155 -0.8403375 -1.3263655 1.3390579 1.4017712 0.09496419 -2.458011 0.13079745 -1.1937791
3977 0.13060224 0.18742211 2.4940782 1.2748678 -1.9127793 1.9326984 -1.0176773 -1.8557204 0.35111496 -0.32380807 0.2696157 -1.4102833 -1.8975707 1.1143346 1.6746932 -2.329232
538 -0.43219605 0.19100146 -0.20507143 1.0659342 -0.6522994 -0.38609597 1.3616779 -1.5920471 -0.3386152 -2.0942996 -0.5880122 -1.0604514 -0.4304604 -1.458971 -1.5141796 -0.30842564
690 -0.8528756 -0.6193578 0.16802263 3.4568574 0.9115435 -1.5053898 -0.8186104 -0.9674646 -2.3519173 0.83979213 1.3976432 -1.5648714 -0.5119773 0.16859722 -0.69288963 -0.41794103
32 1.5078732 -2.2834418 1.8583804 2.3224983 -1.4058893 -0.6169112 -0.2822003 -0.5097575 -1.1242942 -1.8828412 0.42140934 0.3665071 -1.9352229 -0.76243675 -1.4094027 0.54980946
3133 2.4674857 -1.6438456 0.56339675 2.198431 2.4182844 1.7141738 -1.2976304 1.5222391 -2.129083 -2.9869 -0.6066616 -2.5024202 -0.16760373 -1.1792552 0.3277768 -1.6091057
166 -0.5206177 -0.304253 1.8611082 0.8457716 -1.5270696 0.76527894 -1.5392013 -1.1806611 0.07630238 -0.03130517 -0.6338548 -0.7696545 -1.0275578 0.4589021 0.5920422 -1.3897734
1991 0.107875146 -0.6070527 -1.077224 1.829797 -0.96929544 -1.4486316 -3.808727 0.25462157 -2.4930487 -0.35278296 -1.5857325 -0.14824402 -1.9225615 -0.060988426 -2.9062407 -1.6646595
140 -0.015105374 0.47470206 0.26819167 1.5667961 2.8873036 -0.6421481 0.59143174 1.1689987 -4.7982507 -0.30957916 -3.1843712 0.5177652 -1.2261355 -1.7334017 0.60420036 -2.968021
3055 -0.27644876 0.613265 -0.41364393 1.5216746 -0.7608996 -0.21641283 -0.15113868 0.38713542 -0.8364069 -1.457244 0.97538555 0.7775686 -0.5561116 -1.941566 0.4856781 -0.5352959
5906 -0.22925529 -0.41200322 1.6028391 0.9390752 -2.16467 -0.024656303 1.6132569 -0.37982592 -2.6245518 0.42695108 0.58953893 1.0810423 -2.2637508 -0.7545568 2.5250468 -1.1934856
458 -0.9580907 1.3926319 1.4551549 -0.73955 -1.5131942 -0.039811082 -1.6780114 1.3587438 -2.0273383 -1.2619927 0.0054958467 -1.0491241 -3.4909728 -0.1424553 -3.4391391 -1.6219813
3069 -0.85528785 1.3238926 1.6255857 -0.80905735 -1.3734025 0.24775043 -1.3679185 1.3191441 -2.0052736 -1.2068744 -0.09573649 -0.82044774 -3.7026017 0.07291805 -3.4681313 -1.5733854
5953 -0.5336125 -0.8470586 0.2595569 1.6062434 -1.082329 0.6734179 -2.733349 1.0526129 -1.8630747 0.94359165 1.8349555 -2.0354643 -3.0982497 -0.97938204 -0.5692351 0.38161162
5144 1.7700065 -1.1162149 2.6510177 1.2348441 0.33948287 1.7469299 -2.1112678 -0.3572869 -2.3086128 -1.8777617 -0.49701688 -3.5251412 -1.2217162 -0.13901654 -0.09891503 0.8801231
3662 0.42384258 -1.1286937 0.90086067 1.1013687 -1.2400546 2.7579575 0.71878034 -0.7194139 -1.2684737 0.0758214 -0.16120683 -2.0633402 1.5163063 -0.93159896 1.7226554 -2.0434637
95 -0.08417776 0.8056855 -0.31963682 1.5326972 -0.73602355 -0.0007186241 0.064158164 0.54824966 -0.81213266 -1.6819673 0.47311795 0.86618906 -0.5102401 -1.836577 0.3319063 -0.30285558
3214 0.5928963 1.3369253 -1.098625 0.19502932 0.07533587 -1.1923165 -0.517853 -0.21507537 -1.288071 -1.4213332 -0.13448922 -2.3503015 -1.3870474 -3.6162708 0.9445494 -0.88775223
3464 1.0231563 -0.8061167 2.6501052 1.5642292 2.710408 0.42735758 -1.6481252 1.38051 -1.5891558 -1.3391993 0.10052522 -1.1865082 -1.4217879 -0.3758993 0.25862694 -2.265094
44 0.22681971 2.0257082 -0.08103473 0.16555421 0.7693996 1.3015767 -1.3172145 1.8675421 -2.0505264 -0.51122504 -0.43770155 -0.7491732 0.0107427705 -0.010589264 -2.2291584 -0.57593507
297 2.5636125 1.2333841 0.4583889 1.7261398 0.70815325 1.2233173 -0.35490608 -1.4124452 0.32844388 1.1499661 0.8577429 0.7266415 -1.9410383 -1.6082401 -1.3886636 -0.46335492
12 -0.64287776 2.4914072 2.1574 1.0844196 -0.5372759 1.3195369 0.6335459 -1.69491 -1.763227 0.9282445 -4.164772 2.7444172 -2.2314065 -2.326617 -1.8019918 -0.87765807
1037 1.9800892 3.080355 3.0657895 -0.8683835 -1.6364285 0.038262714 1.9692606 -0.6066515 -2.8899708 -1.8922391 -0.8014586 2.1518679 -0.55405176 -2.0068376 -2.8517284 -2.4900522
10549 0.5950674 1.7979159 0.15198356 -0.8017775 0.004527076 -0.2637617 -0.4872983 1.272006 -4.187537 -4.4358025 -3.0626357 2.0087616 -1.4599514 -2.4629035 -0.40784645 -1.8367041
242 0.12848784 0.35375497 0.1888053 0.713046 1.6733509 -0.40967056 0.79311717 0.44835666 -2.5407364 0.19525497 -1.4988986 0.33148688 -0.83310115 -0.93991125 0.5546993 -1.7800496
4050 0.9441999 -0.4266663 0.6453031 1.1129086 0.31315732 2.2988627 0.69462496 -0.7423894 -0.6902386 0.50161517 -1.7033255 -0.3356669 0.15288992 -3.0782657 0.18664667 -0.8395593
99 -0.7737393 2.777266 2.5265837 3.1126328 -2.994326 -0.43412235 -0.1938514 0.394747 -1.6299716 0.48385006 -0.4682674 0.22073635 -0.1701821 0.029413357 0.31853998 -1.1941257
5643 1.7082473 3.5770686 3.1717694 -0.80128187 -1.7164581 0.03214613 1.9609898 -0.6965613 -3.0026374 -1.6094847 -0.7419767 2.4241824 -0.70717853 -1.8105052 -2.9267201 -2.3525598
1059 -0.044043064 1.3674031 0.6186705 1.0057807 -0.23236668 0.84645194 -0.60261816 0.4778686 -1.1840318 0.26800066 -0.7088797 -1.1906667 1.0524728 0.62151134 -0.6378871 -1.6175222
3917 -0.51203144 2.7218685 1.8647251 1.2620679 -0.4735014 1.2472359 0.89846295 -1.354302 -1.913454 0.74432164 -4.0170293 3.0357285 -2.0064454 -2.14155 -2.0679688 -1.0922707
3937 0.3816926 1.45616 -1.1718364 0.8362117 0.7191979 0.7197407 -0.92370003 -1.471693 -3.070444 0.276709 -0.3810827 0.17415711 2.3645277 -0.53305537 -0.38996783 -1.0859843
16 -0.93499696 0.22031878 0.55006254 1.2087605 -0.5193217 -0.7961001 -0.8812524 -1.159354 0.064881556 -0.028945217 -0.42994246 0.3982913 -0.43007696 -1.6649001 0.34454113 -1.5731477
269 -0.7187537 0.7975778 0.7660258 1.157986 1.6800808 -0.16372691 -1.7071044 1.4914511 -2.182162 1.0531405 -0.64756304 -0.37734073 -1.3086553 -0.5594169 -3.8219144 -2.647102
1705 0.2590721 0.70078194 -0.5708517 1.679105 2.2945821 -0.8405857 0.3978616 1.7010661 -4.8477573 -0.52700263 -3.2581344 0.81146777 -1.3246758 -1.7617311 0.50013584 -3.4609885
178 -0.056517977 0.47975734 -0.026621241 0.74354386 1.5381571 -0.4616278 0.65606743 0.61438054 -2.4354913 0.21854153 -1.4380041 0.23847663 -0.9518568 -1.0551872 0.5683858 -1.5248806
5779 -0.24356414 1.8736812 -0.4278602 1.2329953 -0.038451225 0.89646757 -0.33683985 -2.1903403 -2.3591645 0.07138769 -1.745273 0.09956398 2.2130766 -0.44509694 -0.07141781 -1.2888968
3758 0.28397155 1.904706 -1.0191106 1.8852773 0.60767645 0.05799962 0.2082601 -1.8577439 -2.2686863 0.029237524 -1.8604494 -0.101982735 1.8645514 -0.26226625 -0.8885091 -0.8412058
92 0.39703915 -0.5730563 -0.086348355 0.8977552 -1.3701534 1.8718317 -0.784343 -1.3049762 -2.914658 -0.5161788 -0.14839822 0.8954055 -0.090136096 0.16383398 -0.539836 1.5792899
2925 0.5068443 2.399605 -0.25606894 2.6252542 -1.8326689 -0.32709837 -1.6473035 -0.08133892 -1.3121665 -2.1569054 1.7053252 1.4045959 -0.8854001 -0.88148516 -1.2217559 0.051083583
3638 -0.04329608 0.49311048 0.3109671 0.5344426 -0.23892039 4.0270324 0.6858215 -0.4982137 -0.12902357 -1.9725618 1.8531017 -0.40383175 -0.51642835 -1.2464169 -0.5802688 -0.7713894
907 1.1407382 0.32654408 0.89585465 0.862176 -0.08327454 -0.3700131 -1.9215684 -3.2149248 0.033165213 -0.2922994 0.7085539 0.8022502 0.63093776 -3.0058446 0.50888824 -3.002607
27 2.7876263 -1.9011042 1.2148441 1.0201123 0.7832298 2.2744985 2.034419 -3.2139642 -2.1703691 -1.2916106 1.3744355 -1.4448618 -0.61032367 0.75811553 0.7430123 -1.3847432
105 0.94040835 -0.49069643 2.2113516 1.2022618 1.7463263 0.08688841 -1.0362363 0.5672265 -1.0517681 -0.98052466 0.6562842 -0.59620357 0.032723058 -0.25664485 0.16227342 -1.4599077
137 -0.032662716 1.8365009 -1.2561034 2.4783995 1.2264524 1.1158406 -1.03773 -0.7994921 0.05464794 -0.594701 -0.8778276 0.43783224 -1.7023696 -0.3968709 -0.30962977 -0.3687989
6766 -1.3657882 -0.29458088 1.6871893 -1.9479262 -0.009387107 0.23653695 -1.8277975 -0.92096967 -1.2953775 -1.705046 1.1360432 0.10770108 -3.2014086 -1.1542083 0.16539685 -1.2540046
5496 -1.6466106 -0.07090903 -0.13716856 0.5425405 -1.5093616 0.060306087 1.0347291 -1.1999956 -1.4741069 -4.277543 1.4148479 0.7969855 -0.93710136 -1.0186929 0.13003778 -2.2812467
4097 2.8608696 -1.9746805 1.3401306 0.7849131 0.71344924 2.290646 1.7770755 -3.5802639 -2.1074765 -1.3263626 1.5122644 -1.2376627 -0.6008895 0.55137104 0.7953542 -1.439541
427 0.84770364 -1.3624166 1.5384198 1.9451342 0.89375323 2.3080266 1.2311596 -1.138804 -0.7244472 0.078510866 -0.9661987 -0.4498597 0.21786064 -2.9934099 -0.5521986 -0.49300447
4493 -0.59554 -0.88946044 1.8116344 0.5513639 -1.6668917 0.734436 -1.7110229 -1.7392095 0.31754 -0.85878676 -1.0965639 -1.3455576 -1.5951153 -0.07275399 0.32349554 -1.5764359
24 -0.37136212 -2.425009 1.6545458 -0.769652 -3.220627 1.6327254 -0.37927473 -2.4360917 -1.8987871 1.2154216 -0.06000891 -0.97011113 -2.6685343 -1.0793263 -0.6969636 -0.4132154
3424 0.22514254 0.8921691 -1.1916871 -0.99675274 0.16611938 -0.49226668 -0.21374743 -1.3404672 -1.5549349 -1.4175395 -0.23661326 -2.4364724 -1.4475334 -4.218281 0.7202656 -1.3393884
5375 0.9623832 1.4445659 -0.7846765 0.1383435 1.0518562 -1.53345 0.320254 -1.7255794 -2.805456 -0.3584894 0.8064312 -1.6431789 -0.9481729 0.72000045 0.93055904 -2.1889105
287 0.48450175 2.762706 -1.5827597 2.676599 1.2365187 1.7584288 -0.63932997 -1.6295993 -0.09958869 -0.3692868 -0.52544725 -0.1782031 -2.4394317 0.36477473 -0.3835793 -0.06329181
6043 2.4289901 1.8019285 0.699366 1.6365023 0.6931343 1.2667805 -0.21106684 -1.63208 0.17078923 1.2127709 0.6902073 0.9683274 -1.8159645 -1.4771807 -1.4447169 -0.47331044
39 1.9601238 -0.75178105 -1.2112496 2.3811612 -1.5952276 -0.75796545 1.0504904 -0.19862221 -2.9533672 -2.4439647 1.3250788 2.1653545 -0.010594479 -5.5776696 0.05373918 -1.890581
79 -0.31324822 2.4434462 -0.018556813 0.43063784 1.014433 1.9794377 0.07199682 -0.6995721 -0.052767713 -0.6950726 -1.0555905 -0.98924184 -1.9903172 -1.1996009 0.2628864 -0.89286584
3174 1.4924732 -1.1184793 2.1138403 1.9878869 1.5568829 0.5581236 -1.7680445 2.2395704 -1.5433558 -1.4957521 -0.1629371 -1.5229062 -1.2580189 -0.85211 0.3008771 -1.8285294
135 1.4678093 0.78487873 1.2300831 0.69514996 -0.20451184 -0.24559143 -1.7026811 -3.3418255 0.10506374 -0.38196176 1.1247624 0.34917447 0.8858323 -3.1618385 0.44216946 -2.7276006
3379 1.0846089 -1.1395334 1.9181297 1.7996022 1.1119821 2.3630762 1.3706489 -1.4134427 -0.54302186 -0.072228074 -0.8051711 -0.54396474 0.1519723 -3.3020902 -0.95343995 -0.47322384
2368 0.24612448 0.2778286 2.2624967 0.69580805 -2.1107183 1.330282 -2.0413284 -0.9724745 0.5870978 0.25317934 -1.7970375 -0.80410844 -2.032597 -0.61321485 0.58317214 -2.0349627
2900 1.5649768 -2.1050653 2.1648743 3.3577957 -2.0920463 -0.8960117 -0.39740846 -0.22724593 -1.3106331 -2.5166943 0.526228 0.024075428 -2.553578 -0.79528266 -1.1682004 0.62722933
4556 -0.44852895 1.0347695 1.642269 1.2208025 1.6198705 -0.38450113 -1.6603185 1.4202365 -2.5323153 1.3175294 -1.202114 -0.058862604 -1.0632899 -0.90529454 -4.0050387 -3.0388017
2604 -0.37064877 1.8653551 -0.6031911 1.4842417 0.75792974 1.9167483 -0.22827402 -0.63379586 0.42489663 -1.0119447 -0.77732354 -0.4953967 -1.8320504 -0.59246826 0.1532307 -0.7528756
4433 -1.201855 0.3580245 0.6552122 1.2006902 -0.26126662 -0.7690738 -1.398774 -1.7636737 -0.108890906 -0.0035347948 -0.3098413 0.7625764 0.1943686 -1.5043333 0.18840906 -2.548141
5740 -0.33547914 3.0404115 2.683876 3.105971 -2.8191936 -0.6462123 -0.13934319 0.64366513 -1.9302988 0.24739754 -0.723883 0.64321333 0.038328633 0.33586982 -0.25026646 -1.8673186
447 0.9400989 -0.806293 1.4886587 0.971641 1.8413676 0.41433033 -1.3601065 1.059142 -1.2739357 -1.463233 0.1127869 -1.1339802 -0.6049284 -0.56170833 0.4647824 -1.2329836
239 -0.07067714 -0.23075013 1.2039579 1.2203335 -1.3156039 -0.05115675 1.1637405 -0.8068225 -2.1116438 0.8680603 -0.75683266 0.40880275 -1.3010318 0.29471764 0.9885445 -0.21952738
122 0.4562599 1.0528593 3.564614 1.3980472 0.3936838 1.9252322 -2.443977 -1.3054706 -1.2928879 -1.4048659 -0.35965163 -1.9897656 -1.9446223 -1.7016842 -0.03527484 1.8657964
4880 0.534662 -1.7087903 -1.0429605 1.531229 -2.6222785 -1.0096751 -0.70327526 -2.1787014 -1.4414189 -2.4651053 -0.9430038 -0.83425313 -1.9357032 1.0286127 -0.1285031 -2.0090046
190 -0.43124092 -0.73775744 2.204506 0.9121417 -1.3664752 0.97668624 -1.5791029 -2.1094882 -0.072933406 -0.18612552 -0.25803065 -1.0002578 -0.7646073 0.1304279 1.239174 -1.5877008
10562 0.82443917 2.1228266 0.6377332 -0.8797144 0.061300095 -0.20889595 -0.22993527 1.1444215 -4.347612 -4.3819594 -3.139493 2.4347606 -1.4248052 -2.5327692 -0.3234629 -2.2215605
3087 -0.035264708 -0.5575991 0.19168521 0.54568243 -0.47206607 1.3835537 -0.57130283 -1.1714605 -2.0208373 -3.097662 0.5967011 1.0520031 -1.079094 0.9930998 -0.26693484 0.10356567
547 -2.0153787 -0.454829 0.17551395 1.1273016 1.9995179 1.3628992 -2.643418 -1.152195 -1.1665454 -1.1522722 -0.104723684 0.656893 -0.63504726 -0.03387848 -1.2914782 -1.6979415
298 -1.3274804 -0.53358656 0.8527839 1.4043067 -0.24952908 0.9966226 2.0656116 -1.0088847 -3.019894 0.85657346 -0.6653683 1.4039085 -2.760014 0.49481928 0.9611159 0.13869987
1090 1.3383328 -1.3890473 -1.137547 1.28517 0.031908177 1.8338354 -1.7585161 0.04563873 -1.5231491 2.2593825 0.7718775 1.2747773 -2.338016 -2.0136573 0.6548743 -2.0633686
236 -0.2790749 0.5855876 0.8443044 0.89394194 -1.0738167 4.25989 1.4586546 -0.74043363 -0.017544853 -2.406566 2.9439976 -0.4567342 -1.1596394 -1.7593588 -1.2602434 -0.9032308
1124 -1.2445866 -0.31125107 -0.7746868 0.49693707 -2.1683326 1.3720387 0.75320387 0.13472705 -3.4532328 0.08150018 1.3655481 0.13684185 -1.2576108 -3.8050046 1.209001 0.5626098
2823 -0.06444188 -2.65649 1.5647246 -0.8470998 -3.0474954 1.9189326 -0.07699826 -2.822401 -1.6728007 1.1138526 -0.02378475 -1.3230659 -2.8576634 -1.2082077 -0.8211892 -0.5667944
2921 -1.0195657 0.76128095 1.703994 2.0101316 -2.3887691 -2.2862368 0.21856676 1.972288 -2.1921723 -1.6373514 2.5831347 -0.6912131 -2.989868 -1.1636096 -1.4677819 -3.065985
535 1.2621385 2.3613653 0.8987438 1.5802805 -1.1497529 1.5402056 1.4898732 -0.18700169 -2.6384063 -0.9769963 0.12301396 -2.7940469 0.35902053 -0.3195551 1.6520175 0.5790451
216 -0.50933915 0.4537 0.688672 0.62484914 -0.9511377 -0.972585 2.0469418 -1.6571094 -0.91260076 -1.6430888 -0.9461343 -1.5240659 0.2448248 -1.8518461 -2.4089987 -1.3710024
666 0.5589115 2.2227051 2.2173426 0.122853525 -0.6242126 1.3800362 -0.39898533 -0.2817376 -2.896946 -2.606942 -1.4734399 -1.787238 -1.0289197 -1.7857617 -0.32436988 2.861813
6129 -1.0319337 0.68830425 1.7894244 1.9705282 -2.6243722 -2.2079983 0.16897874 2.0372212 -2.3460977 -1.6583819 2.3798685 -0.6556077 -3.100594 -1.0231026 -1.7439033 -3.0673518
10753 0.7305694 1.8043531 0.06757736 -0.7897574 0.2643768 0.11449769 -0.06468269 0.958598 -3.8396826 -4.3848367 -2.554405 2.2409456 -1.1605014 -2.323626 -0.23340304 -1.9421703
113 -0.26902646 -0.25675678 -0.80440253 0.43025845 -1.0948483 1.3345646 -0.8255786 -1.087244 -1.7703563 -2.1697164 -0.34640315 0.20824681 -1.2805609 1.102475 -0.3298832 0.42067316
5073 0.47091517 -0.56070197 -0.23697984 1.6826288 0.013952411 2.1279035 -0.97761905 -1.8766152 -2.0590518 -4.000137 1.1885964 1.7081333 -1.4576138 1.5199775 -0.29727244 -0.1514074
558 -0.20670657 1.6679779 0.7076701 0.4649153 0.6680955 1.7773194 -0.023545304 -0.3026374 -1.3551518 -1.4557649 -0.5839172 -1.6517662 -2.1143172 -1.7715027 0.051141176 1.7366408
3486 0.24370384 1.5267786 -0.14986743 0.23473214 0.8617529 1.4360533 -1.0667487 2.0949695 -2.3062272 -0.80582434 -0.52133286 -0.5729253 0.25937435 -0.09148363 -2.062263 -0.8546267
3491 0.6344941 2.157076 0.21349978 0.24651618 0.40280187 1.1322004 -2.1522477 1.5420436 -1.9541739 -0.76928645 -0.4767527 -0.8477869 0.38051212 0.13958253 -2.1225128 -0.6458898
6609 -0.33996135 0.3453761 0.81401074 0.45370343 -1.2598994 -1.0639379 1.7045782 -1.5269121 -0.86117446 -1.8231152 -0.7261796 -2.1847303 0.5028495 -1.7254789 -2.8077884 -1.8829879
2899 -0.33416834 2.198735 -0.3883658 0.5937331 1.2923675 2.3282356 0.16358905 -0.67289084 0.0629642 -0.8627517 -0.888015 -1.1961517 -2.1990736 -1.4144146 0.48580354 -1.1698492
754 1.6448522 4.026896 2.278526 2.1723485 -1.222438 0.7321334 2.126825 -0.6771164 -2.1924827 1.3212273 -0.7824229 -1.38539 -0.50850546 -1.4803286 0.09094572 0.766925
426 0.4896127 1.954491 2.4881625 0.5692143 0.29685742 1.4667302 -1.7012513 -1.1388851 -1.0550249 -0.7182068 -0.7315665 -1.6119128 -1.2716123 -1.9225595 0.15808992 1.7728727
1036 2.0483012 2.2316854 0.31054717 1.9548756 1.2464362 -1.4050252 1.4296279 -1.1112354 -1.392962 -1.7729132 -1.1550233 -0.9845818 -3.4985836 -0.25827548 0.36289605 0.14892161
108 -0.053592455 -0.5089069 1.9722329 1.0352021 -1.4873195 -0.43466583 2.3190367 -1.7389523 -1.4145515 0.9153995 -1.617317 1.5899538 -0.8676737 -1.7805983 -2.4438891 -1.222014
2038 1.528256 4.326564 1.9231662 2.3697913 -1.4557891 0.9920505 2.3566525 -0.74200225 -2.2159252 1.10525 -1.0911633 -1.2439369 -0.76819956 -1.5143054 0.14510219 0.8321985
229 -0.77212703 1.1460662 0.6276932 0.20092162 -1.697949 -0.06595088 1.9303175 -1.6353961 -0.19154909 -1.6814994 -1.3120434 -0.9484538 0.20235047 -2.1207597 -3.34915 -2.3429863
61 0.57516736 -0.6265323 1.6991062 1.8153995 1.2071383 0.84524804 1.0130639 -0.46021426 -0.38438344 0.16683573 -0.41655138 -0.38750798 -0.3530509 -2.143339 -0.7039003 -0.16695765
235 0.149891 1.0874748 0.08386175 2.2660387 0.78125715 -0.7780601 -0.1897818 -3.4605157 -0.83823097 -0.085426174 -1.1090417 0.12172458 0.18347554 -1.403676 0.40925056 -0.746188
2501 -0.07366347 2.1523278 -1.9432393 1.7663598 1.7998095 1.1898978 -0.92854154 -1.9352201 -0.415225 -1.8186071 -0.8195892 0.84812856 -2.4268298 -1.0830851 -0.030143697 -0.27277234
10858 0.23305555 0.7156537 -0.24777946 -0.18525171 -0.6454332 -0.03528622 0.9817394 -0.068764664 -1.1747191 -0.7140593 0.16864467 -0.16706887 0.33095896 -1.4371006 -3.1977375 -4.669662
4237 -0.559255 1.025964 0.86380374 0.64571446 -1.6241899 -0.66354966 1.9094338 -1.6467371 -0.672265 -1.2966903 -1.2579013 -1.7929484 0.8370336 -1.8042976 -3.318206 -2.521684
2851 -0.108027 -0.2994204 0.170418 0.9747665 -0.5545774 -0.34677264 -2.0011759 -1.914119 0.14828059 -0.7906639 0.39107302 0.88919204 -0.032591797 -2.6102238 0.2809285 -2.6199298
487 -1.9033585 0.08707697 1.3564442 -1.8177993 0.4804165 0.6578289 -0.5948458 -1.7764621 -2.1873467 -0.6873717 -1.2296456 -0.64372766 -0.35482547 -2.7501295 -1.6630838 -0.22514725
5105 -1.1152414 -0.24211282 1.6540239 2.157761 -0.4780515 0.982131 0.7918799 -2.496037 -3.7518213 1.5895725 0.066408776 2.632422 -1.8969927 0.7171597 1.8946004 -0.7409418
213 1.1397384 -1.217421 2.5816607 1.5293242 0.7661421 0.098882414 -0.78200233 0.42945954 -1.1621002 -0.28265387 0.7540525 0.27206486 0.023269512 -0.7989105 -0.63074887 -0.7247052
6726 3.0484223 1.7119249 0.62464195 1.9156379 0.7833463 1.3170147 -0.3895639 -1.6851962 0.17362621 1.2379894 1.0648718 0.8097029 -2.2032776 -1.7041384 -1.4008926 -0.54442555
164 0.22172622 -0.45808053 3.4014857 0.82685 0.94831306 -0.11585962 -0.80240923 1.1365305 -1.5368242 -0.33876124 -1.6855199 0.7528095 -1.9109899 -1.5942367 -3.2107947 -2.117681
2640 0.019585267 -0.60601956 1.8152517 1.0544086 -1.4944836 -0.33544666 2.3953614 -1.6994709 -1.3858042 0.7916963 -1.6681676 1.3647889 -0.8052414 -1.8670295 -2.1905434 -1.1189764
4551 -1.8897362 0.08704558 1.2921242 -1.4125974 1.126089 1.2234757 -0.8364661 -2.363779 -2.2583148 -0.22232316 -0.38301963 -0.52995306 -0.1568329 -1.9771262 -0.561565 -0.18316013
4076 -1.4510514 -0.3165745 0.2748964 1.3436157 -1.6692762 0.29361153 -0.06679223 -1.0034424 -0.7183135 -4.0302114 1.5696843 0.6403283 -0.5560934 -1.168748 -0.108246975 -2.4010406
2886 0.51469797 2.0595293 2.7886322 0.10830778 -0.8800967 0.96319836 -0.31371912 -0.08507479 -3.0016298 -2.80851 -1.463294 -2.364969 -1.1765716 -1.8094273 -0.42154494 2.7608376
4520 -0.9536231 -0.46136725 1.6112889 2.7003639 -0.046533886 0.72277546 0.90388864 -2.6586332 -3.2589004 1.2498785 -0.30073494 1.8178843 -1.8458513 0.9299358 1.8257067 -0.43835005
757 -2.334827 -0.49168086 0.30263215 1.0267268 1.9224753 1.3035953 -3.1152556 -0.7961253 -1.3856028 -1.5040015 -0.73567784 0.7436236 -0.9284502 -0.5221629 -1.4129096 -1.3372152
2937 0.40512174 0.921563 0.3173939 2.2559881 -1.8780353 -0.7681514 -0.6757119 0.9405553 -1.6273656 -1.9445285 0.6109978 0.8374149 -0.13115749 -1.8474748 0.17569743 0.06153544
3915 0.3344886 2.6135576 -2.1829836 2.8246465 1.3411407 1.5085579 -0.32350343 -1.9327554 -0.22780572 -0.74969816 -0.27192566 0.20041135 -3.4307585 -0.16640653 0.028175004 -0.3010675
3057 0.06486745 0.05711374 0.2521319 0.28975376 -1.0816506 1.7621197 -0.8988375 -1.6091629 -2.8067555 -0.5584711 0.028752299 1.0502291 -0.25367928 -0.11463266 -0.74506164 1.7090443
2784 -0.20987982 1.4471349 0.7308186 0.44791818 1.0067062 1.5422693 -0.6880109 0.10024163 -1.2047049 -1.6673855 -0.5006492 -1.4456121 -2.0044057 -1.7360278 -0.09141502 1.3820114
10083 -0.6173319 2.4312146 3.457628 -0.21519774 1.4733835 4.667671 0.1501062 -1.1468531 -1.8591456 -1.7433186 2.951356 0.33052525 -0.62248707 -0.2939176 -0.55464727 -2.2917125
382 1.586704 -1.6584564 2.2221327 -2.9487062 0.075596735 -0.32444012 -0.9917899 -4.142888 -4.038769 -0.6416709 1.6388745 -1.610104 0.56266737 -2.0850642 0.11203316 -2.4325652
3922 -1.75344 1.0149497 1.9459969 -1.6755711 2.0612519 1.8322308 -0.80953026 -2.9916387 -3.237231 -0.7165101 0.53840965 -0.15640387 0.60981375 -1.6442269 -0.14270355 -0.91402686
342 0.35506544 1.68918 -0.580054 1.0114146 0.64478177 2.1814964 -0.6600109 -0.36573917 0.573153 -0.8759054 -0.94000036 -0.6998159 -1.55803 -1.1197627 0.01576763 -0.7335071
10393 1.0498036 0.048272036 -2.0363848 0.3909142 -2.6194575 -1.8064811 1.4464891 -1.7576531 -1.5200621 -0.6527694 0.1307699 0.47246927 -0.75641733 -3.0716395 -1.9644444 -5.356576
88 0.11158256 1.9884185 0.68046653 -1.8343189 0.3879868 -1.2257196 -2.4321327 -1.9074339 -2.4573662 -0.8983692 1.196816 1.2091806 -2.0746422 -1.4745936 -1.7377656 0.18746758
403 1.6282398 -1.4390037 2.1816895 -2.9996037 -0.1874117 -0.27872223 -0.96172965 -4.2508283 -4.216426 -0.77660525 1.6871696 -1.4778379 0.68673396 -1.9473383 0.11882222 -2.4488325
251 0.60220265 0.8292072 0.84592366 0.39677256 -0.5788787 1.1336967 -1.7771628 -2.8497767 -2.4969664 0.13347763 0.9799938 0.93062174 -1.0950354 -0.09894608 -0.06673154 1.6732401
344 2.0173838 0.8122768 1.6701717 -1.0245476 -1.0747073 -0.17922312 0.6382235 -1.0167435 -0.99017704 -2.1989548 0.18214868 -0.0076151853 -0.78696686 -0.06894814 -1.016701 -1.8485802
889 1.1155002 2.169029 0.97135687 1.2944306 -0.9735241 0.926421 1.2750766 -0.3515959 -2.0866094 -0.28066614 0.078661524 -2.1293705 -0.023022087 -0.5227368 1.1838866 0.8344932
313 1.5492322 -1.5070409 0.92138 0.18658133 -0.062366035 1.0107996 1.4995036 -3.680459 -0.50662565 -2.3114433 0.42233112 -1.0362601 0.995756 -2.1123848 -0.26200098 -2.4561825
2232 1.6094882 -0.44166654 -0.4743671 0.5750601 0.5717612 -0.37085253 1.1733822 -1.0426173 -3.3555133 -2.0544803 2.0421083 0.93187684 0.4607715 -4.113628 1.0770196 -1.706391
141 -0.61030376 2.0526412 -0.62016654 1.1566336 1.2332048 2.1748943 0.6013633 0.018476747 0.26270252 -1.1870444 -1.3542857 -0.94754875 -1.6183376 -1.6528084 0.26018482 -1.7819448
10144 -1.7610179 2.8648899 3.3403125 0.0869778 0.77252704 4.4106317 0.18588142 -1.5409567 -2.1671677 -1.2399877 3.7980053 0.6506771 -0.9785674 -0.4871335 -1.4846187 -1.9902438
3652 -0.4439089 1.2477591 -0.37874186 1.7813096 -1.0478617 -0.47957432 -0.11372025 0.8366662 -1.7275724 -1.939139 1.024421 1.3576719 -0.77511567 -2.6304724 0.7705639 -0.7611737
2264 0.2937615 0.8503961 0.59837407 1.4788278 -1.106066 1.3471419 2.5950398 -3.396227 -1.3016274 -4.500721 2.3768811 -0.23575366 -2.261216 0.25708938 1.7952204 -1.4914466
201 0.6494696 1.4976252 1.3946875 1.398422 0.76460797 1.7138566 -0.029208416 -0.9439068 -0.7968518 -0.64805746 0.8058829 -1.174656 -1.3746836 -0.9025642 0.8163843 0.8670237
5260 0.19263041 -1.3434454 -0.91565657 -0.22939101 2.0923216 -0.44919527 0.21798286 -2.46708 -2.099403 -0.9181424 0.8335803 -2.0683026 -0.4298725 -1.5264103 1.2759125 -2.6841745
392 1.3694295 0.41466737 -0.9431625 0.3019035 0.43067127 1.5473132 0.60945 -0.1370803 -0.6906351 -0.24342626 1.0262403 -0.26824665 -1.6339604 -1.1838348 -0.29016164 -0.34400752
3851 0.9265913 -1.5263097 -0.027421795 0.6288532 -2.1085427 -1.2062356 -0.44981858 -1.9644494 -1.0999894 -1.5313798 -0.46083173 -0.45497075 -1.0543576 0.17264684 -0.07366661 -1.7057245
780 0.5527905 0.7045867 0.26678073 1.335151 -0.9252063 1.0302868 2.7825649 -3.4907308 -1.7652442 -4.483056 2.4238644 -0.34505668 -2.3579895 0.5289199 2.031374 -1.5361674
337 1.608235 -1.4597487 1.3367325 -0.58256537 0.367221 2.2138796 1.6976765 -3.5280416 -1.0233194 -2.2871885 1.063871 -1.0608816 0.9876846 -2.2197971 -0.6137301 -2.16461
132 1.7982229 -0.98395497 1.7628279 0.64767957 -0.024504943 -1.1250082 1.7203436 -0.9791786 -1.6872333 0.5956309 -2.462007 -1.3677831 -1.4715561 -1.5173295 -0.6798711 -2.2908273
10903 -0.2737408 -2.5859997 0.051555887 0.7415133 0.9665466 0.17597681 -0.26003683 -5.557255 -2.2743692 1.2179778 -2.2192945 -0.47327462 -0.69916177 -1.731909 -1.5160385 -0.9617973
2304 -0.7852081 0.27714005 -0.4003875 0.14364772 0.3363964 5.2257953 2.9332242 -1.8890957 -1.3585095 -2.0652401 2.2327535 -0.9483929 -1.5615315 -4.1777897 -0.75793475 -0.7463599
3944 1.8673216 -3.0190504 2.1538444 2.7654612 -1.8500055 -1.053819 -0.20540373 -0.7480638 -1.4591981 -1.9511496 0.39261246 0.36068168 -2.4571447 -1.2689382 -1.5913172 0.34057072
5262 0.72821945 -0.5917741 -0.8644392 -0.70359087 2.068499 -0.42761624 -0.1328786 -2.4490328 -2.2940826 -0.80059814 1.1429278 -1.6995711 -1.5070832 -1.1002811 1.6383305 -3.0762837
10551 4.5354447 -1.3343462 -0.43284327 -0.14283513 -0.78658384 2.986936 1.1354227 -0.6638046 -0.72762346 -0.34069344 0.37397212 -1.5193636 -2.586472 -0.30983943 -4.6674066 -2.124309
3078 -0.5935754 2.5631158 -0.35284635 0.9855824 0.34793466 1.7634355 -0.55695564 -0.79170007 0.39656153 -0.9460371 -0.7486116 -0.5782927 -1.8375535 -0.8790494 0.40646136 -1.2769728
2970 0.108916126 -0.4926959 -0.3354982 1.1665825 -1.5677985 2.071913 -0.8430755 -0.9114338 -3.1286824 -0.96141565 -0.43011725 0.9970454 0.04780916 0.1368352 -0.51062804 1.593453
6 0.78882986 -0.79666233 -2.0958343 2.9842978 -0.3636564 1.8242577 0.34222564 -2.6917028 -0.035887137 0.15792309 0.53821087 -0.16202657 -1.4710739 1.6476237 0.23971467 -2.0478785
1284 0.95207787 2.831063 0.97462064 1.330014 -1.4632719 1.3003111 1.4949052 -0.1650497 -2.8285153 -0.96229416 0.0652703 -2.9023871 -0.3467962 -0.1337737 1.6775094 0.62699413
4339 -0.43534702 -1.5178258 0.74024487 1.8444933 0.0007944628 1.7235235 0.3363638 -2.8904383 -1.4197747 -0.5517882 0.90556073 -0.87172794 1.4457332 -0.52863526 -3.4615762 0.011026872
675 0.75758904 0.17599103 -0.07710805 2.1795673 1.090204 -0.7268534 -0.21251118 -3.0110624 -0.88896453 -0.50235766 -0.014522226 -2.0019596 -0.026850784 -1.2508992 0.808313 -0.4937735
1152 1.9746035 1.6376637 -1.589314 0.78227735 0.08027462 2.7072852 -0.3110483 0.28693244 -1.5951833 0.7086076 0.007265649 0.7868744 -1.5078719 -1.5629349 0.90999943 -1.4913765
10069 -3.4260063 3.1243482 -1.2845557 -0.69527704 1.7085991 -0.015023027 0.036208574 -0.63129777 -4.471868 0.33922756 0.25642136 -1.5423111 -2.5463908 -0.25808212 -0.5924129 -0.79557747
10807 -0.17306526 -2.9721413 0.12904963 0.44128522 0.98034143 0.21492037 -0.32195044 -5.35101 -2.267472 0.9280348 -2.1046088 -0.7509229 -0.7885781 -1.5441904 -1.4981047 -0.939083
267 -0.2873403 -0.16688043 -0.9089395 1.8555268 0.25512812 3.4905539 0.36077544 -0.84142774 -1.3526533 0.5244984 0.18815587 -1.4645215 -4.2575617 -0.9384344 -1.3682382 1.3606088
4747 -2.387172 -0.5084914 1.2631084 -1.283784 1.5473902 1.9767587 -1.3449235 -2.545031 -3.276043 -0.8761148 0.020217838 -1.0713168 0.07520151 -1.9040389 0.024569774 -0.07342133
2999 0.23230243 0.36946765 1.7572908 0.9324837 -1.3799971 0.65463114 -1.4396157 -1.6768423 -0.21248765 0.09786728 -0.5878106 -0.8590628 -1.3766565 0.3678423 1.9190544 -2.2079268
1192 2.6334355 -0.38359502 -1.7826957 0.6285182 -0.81511366 0.20247908 -2.4032257 0.21670386 -3.7775872 1.5541303 2.1170323 -0.98780274 0.9677632 -3.8041716 -2.1250916 -0.92945457
1525 3.0011148 -0.06469364 1.1878227 1.8012244 -0.978794 1.681714 -1.431342 -1.9461908 -0.43078443 0.8312626 -0.1638534 -1.8042518 -0.76896894 -3.1569905 0.5034736 0.38930067
444 1.3115225 -1.1828609 -0.9090811 1.4590693 0.15484293 2.1230323 -2.0583718 0.5234534 -1.7430104 2.3815165 0.44813564 1.5325516 -2.35702 -2.041497 0.52944756 -2.0527601
3537 0.78981346 0.7786832 0.92747283 0.19349155 -0.6558727 1.1751647 -1.7799917 -2.8479357 -2.55623 -0.18587056 1.0654081 0.876358 -1.211163 0.031824764 -0.071389094 1.6425371
3206 0.11791112 1.1048187 0.4048236 2.2910106 0.8065511 -1.1650952 0.06232604 -3.5270467 -0.4823535 -0.31908795 -1.2399087 -0.31565723 0.21816605 -1.2646786 0.20210584 -1.005005
112 0.34990025 0.16500202 -0.6685257 0.92436457 -0.93382716 -0.6087472 -0.46915615 -0.91044146 -1.3697767 -0.5832304 1.29857 -0.42009294 -0.1643674 -0.8039389 0.27724177 0.17341465
522 1.5138234 -2.4307072 0.0008988702 4.4360614 -1.676387 1.3649125 -1.0151098 -0.61904013 -1.9089447 -1.181588 -1.0880365 0.1909269 -0.9229178 0.2260441 2.0605497 -0.7113901
1141 -1.2769065 -0.29529634 -0.81314844 0.46962526 -1.8718449 1.2446461 1.1553276 -0.1504647 -3.7416878 0.1980221 1.7232385 0.5367181 -1.4412693 -4.20223 1.0660151 0.4839734
109 -0.14642137 0.18710473 0.43830398 0.32980806 -1.254966 -0.40236062 -1.8182799 -1.3115778 -0.041967314 -0.27250004 0.09079418 0.63231677 0.21509051 -1.9197336 0.14573558 -2.4680362
1135 1.2782407 0.81210876 0.110510275 1.7107321 0.78504825 -1.067903 0.16227649 -3.4398146 -1.337273 -0.7745136 -0.8229419 -0.81632876 0.031883374 -1.004846 1.428365 -1.055698
194 0.42971984 0.643444 0.2208136 2.611642 1.2622635 1.3480085 0.47663957 -0.44969863 -0.6012154 -2.2117546 1.7178328 -1.1301917 -1.915725 -1.7394732 0.82595605 0.57576394
849 1.0714848 -0.21704353 0.8444787 1.5149401 1.4852295 -1.0490873 0.12958552 -0.4958034 -2.0500312 0.99421537 -1.2529212 -3.1317565 -3.5777066 -0.48019493 0.21345666 -0.79360044
2681 0.40546736 -0.1895549 1.206674 2.3543394 1.1119415 1.2621146 1.3266582 -0.73061347 -0.33798984 0.324617 -1.3608724 -0.14383692 -0.06316079 -3.1428447 -0.7349355 -0.9001955
3395 2.0968213 -0.4509895 3.335967 2.1484878 2.3715994 0.5575362 -1.2510194 0.34181708 -1.3250318 -0.9203421 0.7727129 -0.9849929 -0.11824445 -0.40816325 0.6741178 -1.9242537
354 -1.8047934 1.0062984 -0.091786474 1.5845474 2.959826 2.6281497 2.3949797 1.2736936 -2.9012697 -2.2061636 -2.1527073 -1.4672694 0.40703914 -1.4457948 1.5588588 -3.977888
3796 -2.1563075 -1.0537688 2.385961 1.2333965 -0.22578053 3.2223468 1.0530782 -0.16020176 -0.8381658 2.477473 0.2664974 0.3149369 -3.0452318 -0.22607374 -2.0274842 -3.277758
2509 0.16949975 -0.53171587 1.0770961 2.8993783 -0.19954899 -0.58022183 -2.1559298 -1.4467936 -0.7659913 -0.875037 2.3744743 1.2858413 0.6755156 -2.630604 0.16234218 -3.213948
10774 2.6675477 -0.43459246 2.4153688 2.115764 -0.040941227 -0.33061972 0.098430224 -1.2858528 -1.043592 1.5566577 -1.5398242 0.10505336 -5.9749503 -3.033509 0.90687096 -1.358678
539 0.19264896 0.7788571 1.2882808 1.8332974 -0.810638 1.1102835 -1.9583654 -1.9909853 -0.011346858 0.46852764 -0.972807 -0.5729427 -2.0763142 0.956619 2.0948226 -2.284498
4514 0.88336635 1.0558249 2.026323 1.8425859 -2.76814 1.4225857 -1.5470483 -1.6328781 0.08352832 -0.010999053 -0.044608627 -1.5587074 -2.0945137 0.6133484 2.6225235 -2.3096716
4409 -0.5291301 -0.56460434 1.1290734 1.0122192 -0.9778121 0.3755128 1.2785754 -0.96191776 -2.4446769 0.70531034 -0.2438613 1.2682676 -1.9926318 0.74986154 0.9532255 -0.21861129
4294 0.19616975 -0.24321379 3.5642424 0.9672343 1.1574056 0.06767646 -0.52372795 0.9818392 -1.5016712 -0.26091653 -1.7293775 0.9413483 -1.749928 -1.5583438 -3.3594944 -2.342037
10721 2.5192358 -0.42217517 2.1448834 1.9805851 0.25014997 0.04001902 0.07563753 -1.4390197 -1.0667545 1.7349372 -1.2067397 0.17261745 -5.803956 -3.0999413 1.3445729 -1.1557151
2786 1.1211928 -1.63838 2.7290232 1.8185005 0.49097148 0.27886575 -0.6955456 0.57993644 -1.2501761 -0.15966867 0.88117397 0.50741124 0.1511937 -1.0343903 -1.3282133 -1.1687999
2077 2.3011732 1.7048192 0.66722953 1.2514048 0.73897976 0.89399606 -0.34311938 -1.2259256 0.023480361 0.88810164 0.6233722 0.8169857 -1.951911 -1.1343024 -1.3271987 -0.21555416
2856 -0.2535716 0.048126094 -0.30039623 0.92416203 -0.41863185 1.581838 -1.9930303 0.22976281 -1.730713 1.9341644 2.3443875 -2.495355 -1.735296 -0.44021243 -1.1422807 0.1537927
74 1.1479299 -0.30652785 0.85467416 1.4276857 1.7226993 -0.9972653 0.20132348 -0.71639645 -2.068012 0.95485866 -0.96742576 -3.1017702 -3.4695306 -0.7971319 0.42331406 -0.5918382
2969 -0.02536304 0.6378502 -0.45822322 1.2526138 1.8239458 -0.025067015 0.63416624 0.77763766 -2.8784344 0.16744426 -1.9514884 0.8477617 -0.72002995 -1.4997447 0.80077434 -2.5663428
62 0.27369657 2.4260614 -0.68485296 2.4550896 -1.5697824 0.054296978 -1.9241464 0.15893465 -0.8303766 0.9542863 -0.60610545 -1.5386751 0.25218526 0.19008636 -2.2856383 -0.36430305
2863 1.6859472 1.9158223 0.33462286 1.9977717 1.0346068 -1.2882823 1.4125144 -0.7497836 -1.3014804 -1.4633801 -1.1392468 -0.8715323 -3.1265416 -0.22961909 0.25577986 0.25515962
4812 0.69224805 1.2280495 3.9494836 1.2126719 0.26820514 2.3115406 -2.9080565 -1.4343365 -1.5762563 -1.3374279 -0.79884934 -2.389666 -1.9604077 -1.8088064 0.06483569 1.9873753
2373 0.60012376 1.821332 -0.85404867 0.3140058 -0.2694159 -1.5249482 -1.0117855 0.2675284 -1.8789022 -1.3125234 0.07820607 -3.0677395 -1.5593668 -4.0755906 1.2418063 -1.3547059
343 -0.6669226 1.8651654 0.39544573 3.7409713 0.016753655 0.13316503 0.6536906 3.735713 -0.790474 -2.557892 0.25145796 -1.6014717 -1.7516419 -2.4432082 -1.0286314 -2.8533258
10481 1.2774873 0.019024909 -2.2788277 0.42006585 -2.8926513 -1.9278506 1.6686574 -2.2932007 -1.6260364 -0.799424 0.43614802 0.2754679 -0.62642837 -3.2875109 -1.4193875 -5.5843596
2953 0.020562908 0.41344383 0.79711795 0.22503507 1.6922315 -0.1768385 1.047996 0.3813529 -2.553704 -0.109082796 -1.1846882 0.93561864 -0.46863687 -1.4884151 0.038910706 -1.9252001
490 1.3642126 2.8330264 0.081573725 3.3458652 0.22377802 -4.0682044 2.3665228 -1.8133 -2.346579 -1.2695197 0.6978395 -2.2080386 -1.8086283 -2.0786061 -3.2309527 -2.2060084
2913 -0.1301431 -0.10669471 -1.2067994 3.2248595 -1.0290512 0.40028894 0.28420478 -1.1598012 -0.5898523 0.72066385 0.42628524 -1.8609157 -2.1752398 1.2529105 0.99117893 -2.0774665
3718 -2.0982604 -0.8464233 1.0169994 0.6735488 -0.81029874 0.14719713 -1.0703876 -0.51213944 -0.7612762 -1.7121613 0.62977594 1.0222353 -0.42533627 -1.0187943 0.5161556 -2.5128775
10334 1.7746103 1.7983403 0.25869682 3.0410979 -1.2398492 -1.0015368 -0.4846042 1.2337824 -5.7741857 -1.4867611 -0.9662495 -1.3743458 -2.8766565 4.0517173 0.93046516 -2.5573132
8694 2.0655606 -1.3111212 1.5488302 0.67790437 -0.026170583 -1.0315319 2.0630996 -1.6345785 -1.7023877 0.36980656 -2.5292492 -1.8350707 -1.4564458 -1.9385068 -0.6740719 -2.2030146
5237 1.1920546 0.87415564 -0.9338106 -0.11601003 1.6913671 0.102623515 0.17154463 -2.0850964 -3.3924193 0.056114726 2.0213456 -1.2558943 -0.4113956 0.57447195 0.558431 -1.4117676
38 -0.8139138 -0.6122202 -0.26303846 0.7062929 -0.040208172 -0.48177934 -0.35106042 -0.67594653 0.15612918 -1.0543387 -0.28945526 -0.13864239 -1.0306964 -1.2095705 0.04497739 -1.2491392
7155 1.252752 -0.3471644 -0.240213 1.4992245 -0.038516305 2.6579766 0.3165567 -0.02139303 -1.1370224 1.5070938 -2.4563644 -0.82805604 -0.46445566 -3.345147 0.6083574 -1.5989332
10571 1.9178046 1.6169609 0.31473222 3.2667294 -1.3602656 -1.1981882 -0.52827936 1.3303572 -5.676874 -1.6125113 -0.8879691 -1.3286142 -2.7862644 3.9925418 0.7055247 -2.4414282
126 2.1758714 3.6195035 -0.40020448 3.630194 -1.4913758 2.3722162 1.3569545 0.38163722 -4.5397434 -0.1897841 0.6478217 -2.8163474 -0.31929046 1.3144608 0.5115396 1.3001595
4699 2.293206 0.19456775 2.1424274 0.26930594 0.036755245 1.6536508 -1.6847951 -0.8062638 -2.0840435 -0.6672482 -1.1291991 -3.0618317 -0.67175454 0.1091658 0.03637484 0.78133315
3146 0.73159105 2.6037269 -0.61198974 0.99656916 0.91277766 2.8646648 -0.41162392 -1.0967469 1.1212771 -0.8779814 -1.4006402 -1.0825703 -2.3946376 -2.307478 -0.18372491 -1.1481647
10169 -0.42480144 -1.2427402 -0.523052 0.8337682 1.608985 3.264513 -2.9819908 -1.9116567 -0.22489688 -2.6972346 -0.3713789 -1.8484708 -2.2082064 0.34249648 -0.33762658 -3.4242551
2770 0.53727835 -0.23366044 0.57257456 0.4366618 -1.337931 2.1218057 -0.027329694 0.4689292 -1.5882733 0.2084956 -0.17307895 -1.4847136 1.371645 -1.1352625 0.87806505 -1.2821997
644 -0.42867228 -0.18469147 -0.57839346 0.08711966 -1.0285245 1.3413078 -0.46445993 -0.7886427 -1.6142777 -1.8238204 -0.43208906 0.15923671 -1.2663404 0.87683815 -0.20033263 0.37290195
4017 -1.7090254 -0.31377476 0.4459405 1.0135235 -0.8250517 -0.27804297 -1.0206264 0.011591058 -0.82494056 -1.607035 0.7449175 0.7458255 -0.2881837 -1.4252315 0.36898467 -2.5943654
2244 1.7994515 -2.5508218 0.03829887 4.582703 -1.608953 1.5343509 -0.8012175 -1.036228 -2.1343038 -0.8882884 -0.969309 0.047504045 -1.2300493 0.05219192 2.3747623 -0.50613564
176 1.9262798 0.65214115 -1.1602794 0.36615866 0.048108466 2.332798 0.14813095 -0.2634945 -1.4110001 0.9400056 0.1676118 0.2658287 -1.9517319 -1.2001796 0.76688594 -0.86425567
288 -0.6551775 1.94983 -0.8116086 1.1543605 -3.8632758 1.7872378 -1.0111281 1.2318052 -2.192396 -0.6418355 -1.5327529 -0.63133365 -2.8597655 0.16297974 -0.44418344 -0.5707894
1024 -0.69311327 2.0659163 0.8705329 0.47714567 -1.377564 2.5628595 -0.50423414 -2.6414065 -0.05299494 -1.5896372 -3.1380882 -1.0332971 -2.7358115 -1.6472086 -1.3336895 2.0004807
10818 -0.67839795 -0.52391547 1.3635688 3.8897774 -1.2084461 1.80293 -2.5000246 2.513362 -2.819252 1.5264016 -2.4243212 -0.47893274 -1.1366992 -0.77251685 -2.809942 -0.6852974
58 0.34375846 -0.017731873 0.5216579 0.57837117 -1.2307018 1.712773 -0.59060144 0.4254848 -1.1564193 0.16883971 -0.6004107 -1.2659991 0.7352313 -0.34899646 0.7971703 -1.0037565
10340 0.52036697 0.74673057 4.0044966 1.0022293 0.30217567 0.70900744 4.000977 0.9533007 -2.9437432 -0.91008896 0.21253784 -0.67230946 -1.1664132 -1.4765117 0.4273912 -1.3045328
2346 -0.54733187 -0.5730252 1.4642311 1.1378398 -1.6507512 1.2703339 -1.2041512 -2.0115907 0.5366513 -0.6474097 -0.6907101 -0.67462385 -2.0285566 0.71956426 0.9481098 -1.820983
10475 5.54329 -1.4778248 -0.6759854 -0.097897775 -1.1342298 3.3367085 0.9887419 -1.0552156 -0.63353986 -0.62539357 0.5383853 -1.9552871 -2.7567396 -0.78703105 -4.8770313 -1.9925468
10706 -0.09910418 0.5773471 0.64847696 2.091312 -2.4318297 -1.1276674 -0.5011923 2.2800288 -4.116022 0.723008 -0.16937046 -1.3462464 -1.5913024 -0.7133519 -0.85796493 -0.35113353
4703 -0.5954677 1.9565984 -0.9000024 1.3521872 -3.8824499 1.838154 -1.1175637 1.2023801 -2.1774201 -0.7353979 -1.797466 -0.6732276 -2.9928699 0.1320855 -0.4467828 -0.502027
4851 2.158189 0.8297337 1.5895675 -1.0590034 -1.0825033 -0.33124307 0.68753415 -1.1342992 -1.253214 -1.8977445 0.28197145 0.047394827 -0.48250434 -0.57654107 -0.7121341 -1.5332906
611 -0.07180387 0.51147354 -0.1424779 0.15727556 -0.54835176 -0.5781279 -2.9577239 0.3229857 -1.983465 -0.7626688 2.4745398 -1.9521838 -0.658426 -0.8297228 -0.052713443 -1.3702766
2426 2.4724655 1.7729893 -0.7931817 -0.121838756 -1.1059406 2.175817 -1.6640866 -1.17291 -1.3840152 0.23963706 3.029433 1.6434216 -1.3344885 -1.0317726 -2.0012157 -3.780719
10508 -0.21136458 0.37875947 0.4994455 1.9012456 -2.417233 -0.93262 -0.4646112 2.1500742 -4.0028825 0.9164427 0.046592627 -1.4853582 -1.405232 -0.77007806 -0.76916414 -0.22936682
1917 2.5792775 -0.31848606 -1.4098109 0.69045156 -0.49499008 0.4666538 -2.4443002 0.034085482 -3.6165009 1.8319527 2.2167737 -1.0252453 0.9204523 -4.1531353 -1.8441788 -0.82346314
91 2.6608121 -1.3123741 3.6880646 1.2931105 0.86821145 -0.4101974 -1.1362512 0.02946441 -2.6478612 -0.753795 1.5582782 0.3799349 -0.11443709 -0.26390064 -1.3646722 -1.0485048
254 -0.096400574 0.87420595 2.896217 0.87718135 2.4775155 0.11250084 1.5083269 -0.3254201 -0.6402789 0.5044589 1.1629348 -1.9356524 -3.4502943 -0.7024297 -3.5690327 -2.1211417
3273 -0.69293267 0.30608824 -0.12551822 0.031727146 -0.7826757 -0.5876737 -3.2444212 0.19895594 -2.0143368 -1.0742058 2.335584 -1.9130939 -0.71362203 -1.1650027 -0.055495556 -1.396411
10420 -0.75570095 0.47595045 -0.8762775 -0.3725495 -0.95605594 -0.52706015 0.12621552 -1.1546544 -1.4022539 -0.006015049 0.02416063 -0.16163838 0.38863695 -2.2105813 -2.68917 -5.1108985
189 0.66284853 -1.5739199 1.366062 2.0107915 -0.11559921 0.08909277 0.12818345 0.09853987 -0.647082 -0.48422083 0.8057942 0.17272723 -1.3048921 -0.74272364 -1.4253985 0.43542588
371 0.4856301 -0.16590667 0.99147457 -0.7953357 0.31361502 0.31988415 1.7915826 0.18698707 -2.2441962 0.24508847 -0.8845624 -0.32835484 -1.6250161 -0.5754167 -0.014758851 -2.1820977
589 -1.7630216 -0.1652661 0.8884879 -1.679804 0.20434946 1.2275491 -0.5619963 -1.8146877 -2.2362115 -0.36428115 -0.9821342 -0.663583 0.018005935 -3.1227188 -1.5764915 -0.11575553
232 0.77550256 -1.8285534 2.4875097 2.4699178 0.5373527 0.4146082 -0.56872946 0.63156706 -1.1847532 -0.44956803 0.49014962 0.50389755 -0.10489709 -1.4243394 -1.6703572 -0.84972215
4712 -0.4714639 1.6672677 0.5174263 3.9620478 0.057427317 -0.12756813 0.48876503 3.7485504 -0.71451735 -2.3323562 0.05457642 -1.8180654 -2.0781293 -2.6091108 -1.3201474 -3.2931495
3207 1.2653933 -0.7244444 0.23190656 1.7741952 2.2557647 1.163911 -0.4400635 0.8010369 -1.0831367 -2.3158717 -0.45857313 -1.2975299 -0.05319617 -0.4580232 0.2133599 -1.9459255
6351 -0.1019216 1.9361688 3.3090315 1.0284084 0.5759244 0.69664645 -2.0131319 0.8173704 -1.2682585 0.26220262 -1.3340069 -2.1426873 -0.55866444 -2.9886966 -2.571504 -0.86039996
29 -1.8141527 -0.5914581 -0.43304637 0.086463206 0.28502285 0.21396169 0.5502391 -0.75637424 -0.9370344 -0.61102027 -0.26997587 -1.9187833 -2.1039531 -0.6499062 -1.6910812 0.0006969414
10128 -3.2761588 3.2841647 -1.5680223 -0.62836254 1.9704443 0.2025471 -0.04477728 -0.8787921 -4.7456846 0.33969495 0.6434379 -1.4853404 -2.5707946 -0.31865454 -0.031501263 -0.568263
4347 -0.48681912 0.8697035 0.8284567 0.7994349 1.7119296 0.10007648 -1.2422987 1.2794017 -2.0032296 1.0604672 -0.3289415 -0.16490695 -0.95563436 -0.6130798 -3.6110659 -2.1242695
10203 0.623063 0.39401934 4.168429 0.82638735 0.0288528 0.8482464 4.0067134 1.2534009 -3.1336834 -1.0460316 0.22206886 -0.81052107 -1.4620274 -1.5432104 0.37637156 -1.285887
6809 -1.7797333 1.1832488 -0.34417912 1.653282 3.3868814 2.9260824 2.4509473 1.0971674 -3.169713 -2.3198824 -2.0488718 -1.5802115 0.40053937 -1.5542434 2.2584178 -4.2782784
72 1.6642312 1.8212667 -1.9791014 1.1072344 0.3479448 2.4252305 -0.3466016 0.042679593 -1.4333593 0.6231667 0.6256194 0.46267214 -1.4188015 -1.9772624 1.0135363 -1.7346127
783 1.4743018 2.515775 -0.06987897 3.451742 0.25000775 -4.264195 2.118974 -1.6269424 -2.1915011 -1.5694305 0.78509456 -2.3797336 -2.073427 -2.5044687 -3.2587354 -2.2512724
4681 -0.0670915 -0.6506578 1.1996108 1.4295418 -1.8607093 -0.63854146 2.2540863 -0.8334893 -2.9752827 0.9329216 -0.48902154 1.4048396 -2.91157 -0.87538236 0.9951976 -0.18335596
3824 1.4767463 -1.4644232 3.3946698 1.5541465 1.3505524 0.2036464 -1.065201 0.35581368 -1.6133459 -0.25037307 0.83729094 0.2729039 0.22567293 -0.7415825 -0.83533674 -1.3340192
2138 -0.035630852 2.7983353 3.0966144 0.0795502 0.13687047 1.1705053 -2.2460327 -1.1665442 -1.5087186 -0.085866734 -0.9360916 -1.7769923 -1.472757 -2.232812 -0.6574768 2.3371603
220 -0.051438507 1.7132325 3.5869222 0.832834 0.22862835 0.49005085 -2.0450852 0.7041316 -1.0324291 -0.24102578 -1.2088509 -2.302976 -0.57821417 -2.5269117 -2.017371 -1.1918415
2990 0.5247918 -0.6647141 -0.80706203 2.355578 -1.063601 0.124506995 0.09742295 0.6745474 -1.6588278 -2.3787696 1.3274748 1.0630444 -0.6871247 -3.5376132 0.5085818 -0.9544312
5106 -0.6026214 -0.21225347 1.0655522 2.6884212 -0.021037417 0.79509026 0.84622884 -1.8343891 -3.0822108 1.1626024 -0.84384805 1.4900962 -1.8644823 0.836548 1.8632693 -0.41342226
332 1.0247164 0.7322988 2.328443 0.8109851 0.88649946 -2.208035 -0.7535352 -1.4420561 -3.4753966 -0.82446754 -1.3401269 -0.31648874 -1.4079872 0.7794894 0.07369085 -0.45199886
10443 -1.4188312 -0.95015424 1.551074 0.5219131 -1.4563811 1.9137566 0.9069644 0.11761346 -3.5612824 -1.1462804 -2.0362036 1.6268001 -0.8677763 0.37801215 0.35312232 -1.2843194
2060 -0.95418763 -0.1983822 1.1741749 0.8260388 -1.1292405 0.5739004 -1.7054182 -2.178901 -0.1389745 -0.103133224 -0.81651694 -0.69462895 -0.861994 0.41159096 0.5349427 -1.3114517
3591 -2.060219 0.020211108 1.739723 -1.765713 0.47568196 0.3138181 -0.5120229 -1.7787597 -2.3660965 -0.83519834 -1.4005638 -0.58226067 -0.1286071 -2.9809039 -1.7417254 -0.48697948
812 -0.97864676 2.6197295 0.43889534 -0.3430768 -0.8442365 0.35231134 -0.52735484 -1.3869985 -2.367675 1.32361 -1.5708582 1.1956707 -2.320469 0.6452842 -0.019184744 -2.2743404
130 -0.007975286 1.3551198 -0.17956422 -0.74313366 0.90686995 -0.8242364 0.15156548 -0.7395295 -1.8539094 -0.18445358 1.2761642 -0.05058133 -0.9411196 0.1907914 -0.7908837 -0.8548824
10855 -0.078640774 1.0666062 0.15532225 0.09844123 -0.4218826 -0.37515414 1.3489542 -0.3662571 -1.1356673 -0.8140247 0.45564702 -0.29767892 0.60132855 -1.4588732 -3.643484 -4.971252
2994 -0.23426151 0.72208005 3.1049356 1.2453952 2.4959068 0.2142122 1.5129595 -0.38434228 -0.5035862 0.54003584 1.2076223 -2.5042694 -3.8883471 -0.8635561 -3.8137243 -2.2955253
2829 1.4979559 -0.642159 1.8414505 0.93891436 2.1824617 0.0061091133 -1.1347417 0.63838255 -1.5052353 -1.956651 0.72790354 -1.4254946 -0.642017 0.49420834 -0.31088585 -1.5269167
5513 0.2711702 1.4728533 -0.25810447 -2.184409 1.6842562 -1.7414473 -2.0543168 -2.6781294 -3.3704934 -0.6423987 1.1044298 0.65426886 -2.5399494 -1.6766666 -2.5269704 -0.032445136
10319 0.670716 0.22984953 1.8609797 1.4215214 0.13583396 1.0792307 2.7126918 -1.0604377 -2.2553613 -1.5920241 0.94010925 0.1177815 0.46966118 -0.5398284 0.37637252 0.0534111
10190 -2.7588146 2.318606 -0.8107999 2.9951043 -1.7215637 1.5241195 0.7462143 -0.24802937 -3.2293158 -0.85984015 -1.1164076 -0.13677707 -1.1132094 1.8851517 -0.93538904 -0.8060183
10495 -2.811512 1.9263211 -1.206961 3.3006601 -0.57995003 1.5823866 -0.056087855 0.032028053 -3.3641667 -1.0023147 -0.5492568 0.37043613 -1.2850044 2.083356 -1.0987386 -0.7688265
4390 -1.1072901 3.2241292 2.9234874 4.010109 -2.2510934 -0.53928584 -0.036280885 0.2791719 -1.7104883 0.30247754 -0.510733 0.6650549 0.016982872 0.023714853 0.042046443 -1.3027935
10193 -1.3910737 2.7286468 2.7241488 0.32261392 0.51436985 3.2363176 -0.1590197 -1.9276614 -2.1514578 -0.93236214 3.8770502 0.69139147 -0.6745198 0.023609208 -0.9445764 -1.944417
10644 -2.8745148 0.7630048 1.1481737 0.1928177 0.085796826 -0.013150944 -0.37841982 0.86065125 -2.3828099 0.1592831 -0.31818384 -1.0769745 -1.5694169 -0.14773072 -3.005656 -0.8529497
103 0.07086409 0.99589485 0.8685795 1.2051601 -1.3648022 0.7771441 -0.57395357 -3.003082 -2.5982819 0.9123167 0.35268754 1.8239076 -0.9430635 -0.50054204 -2.5788302 1.9478987
10643 -1.8901669 2.2520244 -0.24426444 3.7625675 0.42344958 2.146827 0.19667132 -0.53748643 -2.1765027 -0.3775071 3.5257819 2.907357 -1.7269051 0.61323327 -3.4281356 -1.1489064
3100 1.2259144 2.5002146 0.7284655 1.6165144 -1.3851496 1.5387301 1.380702 0.041044373 -2.5840561 -0.92135274 0.17373312 -2.7307246 -0.36216664 -0.07207736 1.8023922 0.4339119
10800 0.4258658 1.1797352 1.582047 2.5974932 1.016715 -0.636917 4.1607914 -1.5415653 -4.3022623 0.5481965 0.14355917 -2.1942806 -1.1360644 0.83956045 -1.2979472 1.2792372
10185 -2.8863335 3.0098696 -1.0906954 -0.5579702 1.7722349 -0.07972583 0.4833552 -0.99915165 -4.1222672 0.60586023 0.10230325 -1.0834727 -2.6069586 0.007250052 -0.3337168 -0.59795076
3215 1.622251 4.069897 -0.4968846 3.6331077 -1.6641054 2.6788595 1.3526214 0.28920236 -4.1969113 -0.307551 0.23826171 -3.2773497 -0.5144285 1.4346353 0.6501036 0.92272955
3435 -0.98694605 -0.8106107 1.6611046 1.4937783 -0.9196702 0.9932238 0.6996405 -1.3816856 -3.2554688 1.4864042 -0.12616672 1.6546117 -1.7362769 0.7762278 1.6730914 -0.80428916
10842 -3.5278442 2.067717 0.7110356 4.4595733 -0.6367441 4.0550113 0.5895488 -1.1797588 -0.23372093 3.2595255 -0.20329398 -0.53723377 -2.565377 0.2679532 -0.26814473 -2.7509034
10211 -1.9528589 2.315079 -0.11498449 3.8687804 0.36472094 2.2062547 0.14654201 -0.5591734 -2.203996 -0.47811857 3.4392917 2.7990327 -1.5754796 0.7087445 -3.3536127 -1.0580221
1387 -1.1149882 -0.8238124 -1.3481307 0.32006633 -1.1137061 0.5220944 0.4413748 -0.45437676 -1.8405175 -0.52491075 0.8727052 1.2116243 -1.2157607 -3.479295 0.061022006 -0.42202422
10113 1.091049 -0.023635298 -2.6663496 0.621077 -0.1249927 1.3524284 1.833138 -5.181818 -2.511035 -0.26805952 1.617714 0.75931036 -4.5649533 2.2979565 -4.1877737 -3.0230107
3061 -1.1047878 -0.564271 0.5791159 1.7471644 -0.37737662 1.1286768 1.7433239 -0.63809985 -2.887729 0.27818573 -1.1462966 1.3343441 -2.8751442 0.71735954 1.026939 0.08107155
10515 -0.28224608 -0.7131795 0.9149982 -0.2926892 2.6317222 -2.8056514 -1.6060404 -1.348829 -5.6181016 -0.19633903 -0.69513595 0.59823227 -2.0803692 0.44188827 -1.6508517 -1.1790465
10041 -1.7254139 -1.0619286 0.37961286 -0.05382397 -0.23376079 1.7737247 -0.8075259 -3.3699274 -1.534427 -0.9161724 0.5903309 -0.635505 -0.72678673 1.7656025 -2.346194 -1.5832069
3390 1.5007217 -0.61782163 1.1591419 0.6635084 1.9548688 0.7199021 -0.14448273 0.8415652 -1.2756872 -2.1076808 -0.35076094 -1.0107558 -0.8474001 0.36128962 -0.32171077 -1.5997856
10158 -1.013682 -1.3685347 -0.39416295 1.1416284 1.8507003 3.487196 -3.6518416 -1.6205069 -0.34149832 -3.1552126 -0.50239336 -1.6291679 -2.4048982 0.45420977 -0.41612887 -3.4478016
3551 -0.56636846 -0.84776217 1.7315689 0.5053764 -1.6397259 0.82391965 -2.3607345 -1.6197503 -0.13634999 -0.34801733 -1.2579603 -2.127415 -2.431477 0.47944358 0.22568151 -1.7361717
8867 2.0869164 1.7496709 -0.8214057 -0.05798113 -1.5051385 2.4801366 -2.2331905 -0.9174229 -1.4219782 -0.16832612 2.8405704 1.8206902 -1.4361603 -0.8168341 -1.8912092 -3.5371108
5028 1.6996075 -0.045232397 -0.14445932 0.27623492 0.7256662 -1.8658723 -1.0162977 -2.2114143 -3.9229894 0.4145576 0.7957673 -1.4862012 -1.5888106 2.0378628 0.97988254 -2.7047372
10181 0.40114018 0.19214767 2.2741435 1.6548533 0.18158959 1.0085768 2.907858 -0.6266131 -2.348275 -1.5360096 0.9583001 -0.030168368 0.31341606 -0.7595864 0.18963109 -0.027626913
10641 2.1690967 0.36451462 1.4672339 0.7516197 -0.39991948 -1.118498 0.49268946 0.95158875 -3.5702958 -0.6035604 -0.97555476 0.48096457 -2.7932353 1.0336462 -0.71069586 -0.7769355
93 2.6781132 0.7330223 1.490238 -1.3859363 -0.7789484 0.52736115 0.8038284 -1.4237528 -1.4111577 -1.8244237 -0.4687364 0.09941698 -1.0674775 0.2982105 -1.2205536 -2.2219672
1149 0.42786783 -0.15795001 1.4398108 -0.6204484 0.5509914 0.21775767 2.3125842 0.35286123 -2.9586883 0.39902398 -1.512517 -0.46118644 -2.1404705 -0.90613514 -0.08060489 -2.950534
10006 -0.24977475 2.5103645 3.8467479 -0.37203762 0.7326728 4.9996676 -0.12962867 -0.7093299 -2.599505 -1.5766487 2.8361812 1.4781297 -0.28053296 -0.7797749 -0.5008053 -2.6763918
2279 3.0873475 -1.5668168 4.394544 1.3073257 0.63644826 -0.8361064 -1.3185967 0.16793126 -3.2364225 -1.092777 1.5800797 0.006463358 -0.5276166 -0.09434747 -2.019764 -1.0189784
1522 -1.0558217 1.519521 0.74173385 1.6323079 -0.46808118 -2.1171856 1.1994233 -0.20905113 -1.1449413 -1.2378004 2.4461298 -0.2834924 -1.172267 -0.18148166 -0.7731223 -1.9948709
1914 1.4621028 0.80735004 0.7718489 1.6820155 1.0199988 -1.4120079 0.26486504 -4.401895 -2.0038614 -0.76011795 -1.0925479 -0.6901995 -0.0022504653 -1.2890822 1.871844 -1.6320292
7460 0.77243096 1.9324253 1.7488745 0.9335354 1.2183411 1.8761876 -1.273821 -1.0646857 -0.7514141 -1.1759744 0.80956525 -0.8123362 -1.9133192 -1.2875144 0.65940136 0.6816595
6831 1.079833 1.563901 -0.61278534 0.05280952 0.0852604 -1.9749644 0.43967777 -2.5133464 -3.463054 0.24299812 0.8495242 -1.7915189 -1.2855347 0.8870085 1.1027557 -2.285134
2771 0.86925995 -0.8725604 -2.306424 2.9753394 -0.22863346 1.6992093 0.53622556 -2.7898076 -0.024207395 0.056630637 0.44389963 -0.4728939 -1.6298678 1.5167974 0.056834914 -2.0387452
2995 3.1228616 3.538091 0.9181774 1.763264 1.1485453 -1.6627182 0.7328002 -2.008072 -1.6208106 -2.432709 -1.6217691 -0.45897275 -2.8888843 -0.66675085 0.30229828 0.19281814
10924 0.78052914 -0.10996166 1.5851977 -1.2737753 -0.37956384 -0.8590588 3.0062168 -3.43688 -4.254367 -0.70271033 -1.0812877 -3.9285033 -1.3716426 -0.24461345 0.20070931 -1.0363125
10715 -0.49522159 -0.048354853 1.209543 1.0491407 -0.29258958 -1.5643227 0.894829 -2.5616257 0.05102373 -2.5406334 -2.0907269 -2.386281 -3.1026657 -3.122315 0.12514499 -1.1488708
1833 1.446376 -1.1318731 -1.2641152 -0.8693637 -0.65967923 1.6172067 1.7211014 -3.5993533 -1.6230822 0.8865626 -0.119705535 -2.0827029 -0.48429793 -2.673043 -2.648844 -2.0618017
4202 3.1045194 -0.105745815 1.1571205 2.4930358 -1.4581704 1.8709098 -1.3077785 -2.2927134 -0.46867448 0.91410774 0.07711486 -2.0854344 -0.712942 -3.5409865 0.8951122 0.25321248
3969 -2.0321054 0.035384137 0.46600026 -1.4708213 0.9575234 0.796438 -1.313421 -1.5904136 -2.4949782 -0.45000708 -0.879911 -1.435887 0.05900352 -3.0875552 -1.214617 -0.24364978
8409 -0.78546697 1.9135301 0.745319 0.4739151 -1.7022587 2.571434 -0.7266103 -2.3490763 -0.26255867 -1.7129068 -3.6271765 -1.0976875 -3.1362734 -1.4896321 -1.4340471 1.9373262
10617 -0.6357242 -0.6784696 0.228432 4.346398 0.59771174 3.0343444 0.10063499 -3.5029109 -0.32128313 -0.30612582 -1.5795515 0.7756482 -0.66422284 -0.94263935 -0.78741604 -0.97256404
2147 0.9068687 -1.4987093 -2.4124804 1.4785537 -0.24772778 0.9866533 2.4557736 -0.03037686 -2.4677267 0.37564388 -0.7825118 0.49068955 -1.2467875 -1.0709231 -2.2397132 -2.475183
3406 -0.40113086 -0.1252022 -1.0791912 0.7918422 -1.7210054 1.8356361 -1.1355077 -0.68065894 -2.2816973 -1.753682 -0.29940596 0.2797831 -0.7201443 0.48491693 -0.3331342 1.082656
4499 -1.997766 -0.053517073 1.4224445 -1.6849165 0.4499424 1.0166625 -1.3033646 -1.6416903 -2.1844 -0.1596194 -1.3962979 -1.0154239 -0.4376997 -3.0457714 -1.670253 -0.13505839
10790 -0.2539807 1.1691707 1.497317 2.7197063 1.0061973 -0.43190804 3.887327 -1.4917954 -4.2630677 0.53902763 0.24352965 -1.9274662 -0.8668839 0.87420464 -2.0103395 1.2213354
815 0.5764201 -1.4581506 -0.6474611 -0.081759505 -1.1825712 5.563945 4.1289616 -3.209977 -2.235922 -0.9804322 3.0139282 -0.2167824 -2.9147327 -6.4883633 -0.48003727 -1.1190865
3134 1.2624577 -1.2490672 -1.4668597 -1.0444839 -0.588013 1.5511627 1.1068681 -3.9798265 -1.502193 0.7651011 -0.35975528 -2.1858494 -0.5848115 -2.4518728 -2.3965285 -2.1643732
586 2.6176322 -0.5490785 -1.1124607 1.3866277 -0.6590884 1.7510747 0.56533647 -3.8467765 -2.2552052 -1.1801966 0.6109327 -3.31095 0.7835849 -1.3183644 -0.28688303 0.4750672
10885 -1.1924715 -2.4191732 -0.6733395 1.4374596 0.4572123 -1.9879012 -1.9073889 -4.1925797 -2.5457723 -0.4323018 1.8176293 -1.9127141 0.93856233 -4.626746 -3.1458986 -1.4732466
3926 0.5219084 0.45023784 0.021176254 2.2482858 1.0260025 -0.9096919 -0.2989742 -3.386068 -1.0598973 -0.40516093 -0.33098975 -2.0633109 0.25965688 -1.3626611 1.0123274 -0.7654544
8329 2.4837148 -0.63290983 -1.1802338 1.2846632 -0.5632955 1.8347844 0.6951857 -3.8197036 -2.3217833 -1.2838738 0.69707453 -3.3244717 0.6047019 -1.3291001 -0.31041574 0.42471108
10277 0.39504164 -0.37657526 1.7338632 -1.2174354 -0.39542487 -0.8955003 2.8256705 -3.3245473 -4.0427475 -0.98349494 -0.78824395 -3.8080523 -1.4564753 -0.50406325 0.19730178 -1.1692535
10505 -0.24678914 -0.75088704 0.82170874 -0.2845989 2.7389934 -2.4967446 -1.5483798 -1.1894786 -5.3804765 -0.54907334 -0.47238386 0.3318532 -1.7942197 0.82664603 -1.5151942 -1.3707443
4069 1.5396216 2.9420588 0.7078487 1.859768 -0.9445574 1.3253086 1.1457872 0.004664501 -1.947602 -0.48953202 0.19000071 -2.1624036 -0.5286823 -0.2825472 1.0053583 0.9798483
1158 0.5191082 -0.38541293 0.3754992 2.0813324 1.5624743 -0.821783 0.7697057 -0.65813774 -0.6563027 0.31592843 -0.04638901 -2.6202857 -2.6500494 -0.8335923 -1.0509007 -0.050479643
10682 0.3148379 2.1661024 -0.68458325 2.3521538 0.9080387 0.20442314 -2.5469604 0.8538495 -2.5386481 -1.1822575 0.9070789 0.95613617 -1.8211809 -0.38545734 2.312519 -1.7964467
281 -0.3467652 0.60648423 0.053616986 0.52678317 1.1547654 0.2304904 -0.37087542 -0.13725539 -0.5455671 -0.080586046 0.07116761 -0.26221672 -1.5124048 0.7755447 -0.38257283 -0.31301758
8447 -1.3051405 2.6088085 0.124539346 -0.44069487 -0.27274913 0.15906964 -0.49420944 -2.5994554 -2.9421318 1.9916649 -0.18343809 0.66194236 -1.6005878 -0.21368696 1.1170353 -0.61083406
10082 1.0734149 -1.2987688 -1.0085797 0.7799437 1.566247 3.2280838 -0.6846567 -2.09334 -1.9685855 2.2901788 0.2311345 -0.40807176 -2.3678005 0.47353563 -0.012313821 -0.8109158
10212 0.41224986 -0.67650473 -0.84508663 0.33043322 1.3286877 3.3001797 -0.53916097 -2.6873317 -2.4572854 2.6517456 0.9331724 -1.4342237 -1.8978821 -0.46781516 0.50407785 -0.357541
2173 -1.3714399 2.814 0.28987554 -0.39184788 -0.20356932 0.066625915 -0.47450644 -2.9561021 -3.058042 2.2862587 -0.26602608 0.8353301 -1.9731466 -0.28073698 1.0851458 -0.817477
3311 -0.32264972 1.235002 -0.838796 -0.36600545 -0.56452924 -0.4390491 -0.097330056 -0.7074489 -1.4371722 -0.7685028 -0.56428194 -1.6596355 -0.7198548 -2.767329 0.6539675 -0.20064434
752 1.1299266 -0.84727687 -0.9461063 1.1174885 -0.26080024 1.6181914 -1.3983561 0.47552037 -1.3006325 2.1702619 0.780616 1.0746769 -2.3002224 -1.698975 0.66920817 -2.406133
3870 1.1543713 0.2858237 -1.4273698 0.67158824 2.1386096 2.4478772 -0.38253236 1.9755795 -5.877851 1.5175108 1.0837824 0.9535026 -2.2871172 1.3015214 0.4938583 -3.2934186
10358 2.527021 -1.3529923 -0.5655045 3.6972084 -0.7692275 0.53675896 0.24176648 0.7689899 -4.1915655 4.344406 1.5177313 -2.0085037 -1.5865244 -5.2244053 0.37571266 0.88192934
4542 -0.36608866 0.07036507 1.8389537 2.2490969 -1.9114983 -0.067135565 1.308234 -0.90953594 -2.7359827 1.1010045 -1.1165717 0.64087737 -1.8030084 0.5735842 1.4879508 -0.8809964
6737 0.057119463 1.0457381 0.24073039 2.4138076 0.34398076 -0.6829488 0.2096177 -3.510931 -0.9211478 -0.42407304 -1.7517244 0.9253966 -0.02766294 -1.5196385 0.52319384 -1.0082756
10575 1.0818899 -0.55369335 -2.3866417 0.3993708 -0.55133605 5.6682816 -1.1574768 -3.018237 -3.22153 2.2153256 0.86921394 1.2119629 -1.9382555 -1.8927716 0.069645695 -1.2716501
385 -0.71002954 -0.0791619 1.148947 0.7842973 -1.3343134 0.62145114 -1.519327 -1.7714009 0.03975511 -0.099425845 -0.8402585 -0.39673463 -0.5125418 0.31847388 0.41931212 -1.4440292
10882 0.711686 -0.16218218 -2.5217097 0.6003712 -0.3525588 4.9201665 -2.024863 -2.6427727 -2.3084133 2.2897832 0.46135187 0.75210553 -2.122774 -1.918138 0.6622777 -1.4594073
3898 1.3071624 1.371987 0.6775693 2.2888389 1.4884692 0.9585829 0.47988844 -0.53379023 -0.50761026 -1.4810075 1.572158 -1.1876389 -1.6276785 -1.2871945 0.80200684 0.21775588
3373 1.2310631 -1.839697 -1.3428339 1.2803916 -0.45767155 1.8027799 -2.449191 0.022873264 -1.5252298 1.6278188 -0.28516653 1.0276314 -3.1407282 -2.6050818 0.73795974 -1.4139009
4528 1.161443 2.5888336 6.352202 1.8117274 0.4656441 3.0481637 -3.6585028 -2.7005777 -1.7081327 -1.9650258 -1.1128983 -3.3527656 -2.233694 -2.5079775 0.7676302 1.7785027
3199 0.5063993 0.2957251 -0.11432824 2.5911927 1.1007586 -0.8127234 -0.250123 -3.4164298 -0.9997115 -0.5263224 0.025722707 -2.0925245 -0.06348745 -1.4995397 0.9613596 -0.763008
10399 0.9199632 -0.9199867 0.88753533 2.5712786 2.7413576 0.6950561 -1.885568 -3.035363 -2.5723574 1.7694899 -1.5118635 2.069091 -1.3795342 -0.91251916 -0.7009712 -0.19837764
2563 1.8142544 1.1344386 1.0725366 2.6214056 1.5060598 2.2635052 0.09688071 -1.513982 -0.72049963 -1.6769242 1.5931925 -1.1236641 -1.363549 -1.5952839 1.2767117 0.41552523
1592 0.036071967 -3.1483967 -0.18705611 -0.48523864 -2.5509722 1.6406991 0.11901553 -1.6605968 -2.4222705 -0.5546754 0.17790464 -0.43330958 -2.2695248 -2.5735044 -0.4095782 0.020359205
10440 -1.1835843 -2.3965094 -0.36442268 1.0349985 0.18443996 -1.8343313 -1.5628641 -4.3814344 -2.4160347 -0.7394676 1.1831859 -1.9052914 1.0594726 -4.487603 -2.9491034 -0.8865098
10596 2.016333 -1.6018667 -0.49447545 3.9888825 -0.5774845 0.55005884 0.08976795 0.49619347 -3.9712813 4.672517 1.4519747 -2.3482385 -1.5025201 -5.374195 -0.042685416 0.86750007
2258 1.7912487 2.6302176 1.6601509 1.0369546 -1.1127247 0.8384214 1.4135611 -0.6749378 -2.1675303 -0.27059713 -0.33144855 -2.2032743 -0.09872989 -0.63881207 1.3406814 0.51782024
724 2.830794 -0.87956125 0.54049474 -1.1036592 -0.7355341 0.6894126 -2.8541088 -1.9012357 -2.2202263 1.6002538 -1.3711214 -1.9447964 -0.4632536 -4.602053 -0.88810843 -0.2063874
2187 -0.55659556 0.06736353 1.4302636 0.7934558 -0.96438044 0.77851576 -1.6689944 -1.1309315 -0.09169739 0.22180283 -0.8504243 -1.0256338 -1.3604512 0.35469222 1.1693308 -1.594482
4047 2.1775234 -1.6515267 5.5122714 2.7660053 2.4875152 0.9600087 -1.0763568 -0.25238377 -1.8279591 -0.54102284 1.3573194 -0.49803033 0.41647282 -1.2985198 -0.78775686 -1.7590593
5463 -0.26871714 3.4038808 1.4253031 1.3563725 1.783133 0.08616825 -1.1647904 -1.4340566 -1.0701659 1.6581084 0.21070896 0.3726767 -1.9096541 -1.0480151 0.5489689 -2.9862564
10462 -1.1009699 0.6383543 -0.5494598 -1.3734802 2.443765 2.8273735 -1.6752002 -1.7690306 -3.889134 -0.20796058 -3.9009821 -0.7153301 -4.013441 -0.9520047 1.0501256 -1.3731563
5315 -0.83758307 2.3274317 1.4878749 1.0760683 0.98099124 0.6639412 -1.4920782 -2.2879643 -0.44066665 1.0256251 -0.6042158 -1.0743673 -1.6275272 -1.860356 2.1938913 -2.6871564
3907 -0.35897943 -0.32895347 0.16779591 1.6953968 -0.52475744 -0.92450446 -0.363167 -1.323505 -0.15764621 -0.7291041 -0.36965758 0.8779471 -0.13494836 -2.3259537 -0.52856594 -1.2427884
2559 -1.3834431 -0.5221119 -1.2320187 0.3819704 -1.1299201 0.12932798 0.33788177 -0.75213593 -2.3615086 -0.3213168 0.4274514 1.1404903 -0.71382535 -3.4723322 0.19705884 0.25097746
3657 -2.131361 -0.5303268 1.1072015 0.77362424 -0.9908463 -0.050911274 -1.1180098 -0.4055608 -0.2480955 -0.79293674 -0.08135561 0.5340335 -0.95152175 -1.0876594 0.40027207 -2.6205497
10653 -3.2041588 0.026355835 3.7349632 2.9731202 -0.62145287 1.9727796 -2.8216777 -1.7258943 0.56487924 -0.68824214 0.3447766 -1.7023621 -2.4736903 -4.83703 1.1511067 -0.66271585
1346 0.87043744 -0.6794222 -0.9995094 1.1081961 0.257916 1.3818538 -1.5041754 0.58706075 -1.4787456 1.7473369 1.1576158 1.4461209 -1.7980634 -1.5278528 0.37269038 -1.8539813
4972 -0.8498392 1.2388371 0.70504004 2.0360339 -1.255075 -1.5536902 -1.3968072 -2.469128 0.024101764 -0.60206866 -0.84843194 1.2656918 -0.76323897 -3.0119138 -0.2792989 -2.7136302
3862 -2.4683874 -0.6196177 1.7888228 0.43774647 -0.10611315 -0.6840676 -0.31191024 -0.77773654 -0.6232649 -1.2927598 -0.94526017 1.0595074 -1.3003366 -1.8320372 0.04631125 -2.956229
1155 1.4092572 1.2249475 -1.8426375 0.50077885 0.08254615 2.111418 -0.13728662 -0.0759983 -0.85599434 0.1714989 0.26201305 0.20721273 -1.3976237 -1.7808381 0.19096893 -1.1976565
2474 0.8309726 0.5152443 -1.5167778 0.4919058 0.46513388 3.5963979 0.3917688 -1.1030445 0.32758096 -0.6276181 0.81906384 -1.4429264 -3.1404977 -2.2642744 -0.17664474 -0.70944035
170 -0.78597623 2.5330145 1.4523709 1.1518002 1.2487918 0.7377425 -1.6459432 -2.3789883 -0.6040396 1.0210453 -0.56943744 -0.8560977 -1.6884419 -1.8062096 2.3853378 -2.8528094
2489 -2.2034824 -0.3815453 -0.40623373 3.126523 -0.9485437 -0.5036318 -0.8146353 0.5845451 -1.156165 -1.4981911 -0.6422469 1.0843351 -5.5893006 -1.0111781 -3.1429932 -0.683642
10348 -0.77478075 -0.28133017 1.3702985 3.7507622 -1.0399188 1.867333 -2.0806015 2.4157436 -2.776225 1.5910989 -2.6095576 -0.31028792 -1.1634086 -0.94378936 -2.4610054 -0.6634074
10252 1.935563 0.3899836 1.5789919 1.6811988 0.71486664 -2.064316 -0.775001 0.3428833 -3.1067967 2.1831243 -1.4386503 -0.13058363 -4.5404677 -1.5432153 1.3088489 -1.5973552
10652 2.1843362 -0.17073473 1.3507993 0.5977561 0.048999596 -1.1945237 0.79158044 0.50027823 -3.3692605 -1.1480732 -0.5758669 0.84279025 -3.0238628 0.6771476 -0.50316733 -0.10701346
3967 -2.08332 -0.3886806 -0.2512547 3.141848 -0.96917015 -0.54032487 -0.88547957 0.5764958 -1.1396384 -1.4204911 -0.7702688 1.0379577 -5.67531 -0.89231473 -2.9192595 -0.71286976
3431 0.20930098 2.6248424 -0.50419587 2.4549656 -1.4413285 0.27299282 -2.0950227 0.17274737 -0.7239296 0.91876256 -0.57513493 -1.761452 0.087288156 0.17716928 -2.2883108 -0.19635843
2195 -0.6377567 0.28969398 -0.5033984 1.1454865 -0.07842047 0.15574944 1.4764903 -0.76487696 -0.12727813 -1.523148 -0.49181408 -0.8718101 -0.53168684 -0.8655723 -1.4640713 -0.6392517
10012 -0.18403524 -0.5548668 0.5251397 -0.40719825 2.7742171 -2.2470467 -1.0923206 -1.062522 -5.3393154 -0.13532034 -0.16069525 0.615743 -1.6038765 0.84830743 -1.7019256 -1.5242115
123 -0.75170827 0.5986039 2.2921276 0.487651 1.6982051 -0.33477435 0.7928224 -1.5087827 -0.27981672 0.18026389 -0.6204199 -2.7296474 -2.8535922 -0.6497788 -4.0731792 -1.5766128
4297 -0.4381699 -1.0241978 -0.33536336 2.3042943 0.39919814 4.11334 0.71749675 -1.7488011 -2.0384204 0.66567856 -0.23600979 -2.9518878 -5.669163 -2.218925 -1.4152952 1.942989
3605 0.4882709 2.2835975 -0.5576971 2.1593065 -1.2181814 -0.14453824 -1.7310526 0.23176701 -1.1747627 0.68188375 -0.768802 -1.3397161 0.6760941 0.18362045 -2.097778 -0.8161359
5795 0.7831083 0.66613287 2.2877338 1.2251201 0.7710404 -1.9933211 -0.72585803 -1.2647325 -3.0235944 -0.29599166 -1.393017 -0.03320681 -0.8919826 0.7859398 -0.23683581 -0.6787052
10288 -3.4153795 -0.049063597 3.4499645 2.9098787 -0.42499357 1.9445828 -2.4446647 -2.1207094 0.38876608 -0.6632454 0.5258953 -1.795327 -2.385907 -5.235749 1.4361302 -0.45085353
10716 -0.3367934 -0.06812778 1.3902711 1.031638 -0.24788417 -1.274272 0.8999261 -3.0027084 -0.070203245 -3.0034063 -2.0018134 -2.7163177 -2.8480008 -3.309224 0.32857147 -1.0924215
157 0.35707682 1.7576517 3.812799 0.59464693 0.5456372 0.55961597 -1.8063983 0.45623907 -1.5086904 -0.020415425 -1.1528316 -2.3231432 -0.36437482 -2.8248324 -2.116861 -0.95345753
10188 0.20881005 1.0776618 2.4924982 3.376853 0.24964462 0.41538417 0.409329 1.1670439 -1.389883 -3.8404164 -0.96929383 -0.37268385 -4.782543 1.1710031 -0.80547154 -2.1092954
45 0.18955144 0.9178955 0.010122398 1.6875468 -1.526552 0.32595316 -0.71852475 0.7468824 -2.0452158 1.0160402 -0.12160779 -1.0166546 2.0312822 0.09762693 -1.8332589 -3.6345434
3874 3.041661 0.7492968 -0.89536446 3.0584211 1.4861442 -0.07579592 -0.26416007 -0.56047654 -1.896004 -1.77912 -0.58379245 -0.53006417 -1.598173 0.5362648 1.4676105 -1.2951268
1227 0.92017186 -1.4330438 -2.3481946 1.254735 -0.16299027 1.2676556 2.35877 -0.24338724 -2.1325831 0.38206515 -0.80850405 0.35935798 -1.3967133 -0.9281192 -1.9536483 -2.179581
271 0.47579056 -2.3483925 2.9982402 2.8271549 0.9908373 0.69499487 -0.30022696 1.0934198 -1.8378116 -0.8982117 0.4137804 0.5101365 -0.49727386 -1.7425666 -2.0815685 -0.8979366
10856 2.924351 3.5233612 -0.17581339 2.1617377 -2.5222256 0.5756308 -1.2183187 -1.4421734 -0.5141169 1.7724296 -1.0181267 0.6667571 -1.7785511 0.092158765 -0.21617337 -6.203221
1293 0.6287294 0.05418611 0.4932334 1.5404823 0.7690103 -0.8982178 0.65337396 -0.37313697 -0.907525 0.14265507 -0.06677243 -2.7250748 -2.8792937 -0.7328161 -0.41344905 0.14113739
10576 -3.6707375 2.006698 0.5958445 4.4895296 -0.39080283 4.2117906 0.8574953 -1.35069 -0.4702086 3.314422 -0.034340333 -0.35005808 -2.4698625 0.17475964 -0.53322655 -2.4762437
3300 0.35126287 0.43035963 0.15229948 2.3593035 0.9464167 1.1756108 0.3399729 -0.38720205 -0.89464223 -2.1106985 1.6874132 -1.2774334 -1.8817344 -2.2807307 1.3504323 0.63139856
10228 0.7557507 0.25416538 -2.7065775 0.76051766 0.006316451 1.3952844 1.9870023 -5.4276466 -2.8627222 -0.06619502 1.7112398 0.7988521 -4.343821 2.2720485 -4.4548683 -3.0232155
10275 0.19568244 1.0252872 2.4614847 3.4113846 0.046721827 0.28368625 0.26918054 1.2386286 -1.3476435 -3.8982978 -1.1013305 -0.39912084 -4.771355 1.0551816 -0.90761405 -1.9340024
2413 0.7972505 -2.267422 3.047014 2.8547132 0.9969709 0.58968157 -0.37034228 1.2331887 -2.0355604 -0.707025 0.387037 0.53352964 -0.4018915 -1.6634333 -2.2638445 -1.1337922
10793 -1.7816437 1.3549163 4.3503547 2.9622934 -3.886799 -1.1515803 1.1798822 -3.24551 -0.15039267 3.2966726 1.7762047 -1.2100662 -1.9362799 -0.92213136 -1.9754037 -1.9735253
4804 0.13188325 1.3772086 2.6592476 2.005587 -2.1507175 -1.0438063 0.3036199 -0.25812227 -1.311481 0.57712305 0.20511265 1.0027051 -0.66361433 -0.93176025 0.94470316 -0.60446
10259 -1.8205996 -0.86468995 0.6248273 1.2606107 -3.5018487 -1.7199454 0.17581147 -0.46299443 -5.005555 0.2765652 -2.3789542 -2.5660603 -1.308081 0.5843611 -0.06596817 -2.4045079
1262 0.48987737 -0.41713643 0.13143672 1.5533757 1.6874781 -0.6139478 0.36037233 -0.5870684 -0.81927073 0.51653993 0.14517185 -2.5202067 -2.3884065 -0.70847917 -0.6766636 -0.24962194
10732 -0.7164844 2.4563189 -0.107433066 2.3231435 1.4984372 -0.45109448 -3.746733 -0.25161722 -3.4544656 0.71712756 0.61050355 1.965546 -2.05674 -1.4058552 2.9827418 -1.7634567
3209 -1.7107906 -0.40081084 0.68129325 1.0197169 -2.0408032 -0.8602163 -1.8569248 -0.90502554 -1.2906181 -1.1505731 0.19194998 0.7235149 0.4128788 -2.6569872 0.40820688 -2.9122186
2789 -0.6390283 -0.5984171 1.0212609 0.4461978 -0.7953508 0.2636632 -1.9420648 -1.6316693 -0.520982 -0.84252065 -0.9583335 -0.5472649 -0.44512793 0.70976317 0.15814614 -1.4716549
150 -1.632672 -0.3444042 0.88440305 0.6793758 -1.8916228 -0.87164944 -2.4746869 -1.4987297 -1.042269 -1.0157648 0.6978398 1.2400407 0.105497755 -2.6731336 0.2946787 -3.4892886
284 1.6579999 -0.21128058 0.5530493 -0.46011654 -0.9844845 0.19231848 -2.5534477 -1.3314818 -1.880972 1.5095367 -1.3019402 -1.7495515 -0.55517143 -3.5745153 -0.16813646 -0.018026296
67 1.8957679 -1.2739376 -0.1215968 3.4852664 -2.7886868 -0.268647 -0.56428343 -2.3023298 -4.413748 0.36197978 0.71771085 0.48919785 -0.01964223 -1.4562753 -0.25494722 1.4417913
10162 0.03327066 -2.5430875 3.8318334 1.3727187 -3.8565054 -0.3695809 -0.65874654 0.39649868 -5.429518 0.7338115 -3.6788337 -1.1212022 -0.7781381 -0.6571457 0.09976844 -0.89416254
10827 -0.6593841 -0.50838256 1.1787975 3.6625404 -1.2121395 1.6624701 -2.2846644 2.5111325 -2.9587383 1.3175318 -2.7785006 -0.39563656 -1.2980114 -0.808789 -2.7499042 -0.55014074
2814 -0.7056417 3.6684227 1.4042315 0.25126314 1.5787635 2.7423263 -0.08522919 -1.6747475 -0.10013975 -0.5492389 -0.24343827 -0.8530983 -2.145345 -1.7413384 0.73498195 -1.5934303
3065 0.32255796 -0.09990789 -0.2825231 0.8297367 -0.9979837 1.4790075 -0.8368246 -1.0628273 -2.678778 -0.2501498 -0.08947104 0.90187716 -0.13730514 0.17953748 -0.18975042 1.4266583
10396 -2.1722107 -1.2446803 0.18196537 -0.3837416 -0.8752095 1.711776 -1.2466277 -4.719887 -2.1380477 -2.729008 -0.36592326 -0.57811606 -1.7930154 1.728458 -3.3603647 -1.6929108
10850 -0.8828746 0.48024797 -0.6499495 -1.3921332 2.5167143 2.8673704 -1.6318305 -1.7863098 -3.821705 -0.055742778 -3.3370798 -0.30817014 -4.205909 -1.0110545 1.4007993 -1.3304223
10274 3.4171894 -0.35510957 0.7272169 -0.08201584 0.004027743 3.3055506 0.18192074 -0.5453821 -1.1447629 -0.51514816 -0.07207596 -0.061408985 -3.0262 1.7490627 -1.6837842 -1.3187354
3827 2.051295 -0.455048 1.6007746 0.8510399 -0.2065152 1.6538423 -1.0376518 -0.49344286 -2.5219023 -0.5173215 -1.049315 -3.0879686 -0.5523459 0.6028283 0.10720622 0.90299857
35 -0.1075693 2.0346603 -1.125606 -0.9078969 -2.1541238 0.09973901 -0.44348565 -2.85219 -3.7869117 1.219479 -0.5761346 -0.10765641 -3.1671772 1.8161619 -0.67903906 -0.5274286
3791 0.032998018 -0.12024998 -1.0286341 1.5455898 0.31831095 3.663925 0.20615718 -0.87861603 -1.5914158 0.8341455 0.5325335 -1.1862873 -4.23813 -0.81234026 -1.0296103 1.5039899
10796 1.0672302 2.8483667 -0.47497457 2.3757992 0.8878762 0.48137465 -1.3380772 1.0673007 -2.8861508 -1.1840715 1.426776 0.25111577 -1.9228315 -1.1334045 2.6408517 -0.7779678
10171 -2.5192573 2.0725322 -0.69658977 3.045809 -1.1385125 1.4310625 0.8059011 -0.10089309 -3.644816 -0.48361635 -0.6459863 0.19498152 -0.9267858 1.9340922 -1.2653109 -0.7172211
3677 0.7871833 0.44039023 0.06376772 -0.4345018 -1.6075488 1.2989739 -2.2405717 -1.2998654 -2.210783 -0.9591599 -0.2195397 1.7601179 -0.544097 -0.263781 -0.671308 0.64694864
396 0.75321144 1.8675603 1.0650831 1.9019669 -3.011642 -0.057642475 -0.6995161 1.5471445 -1.7497803 -0.17573495 0.045614902 0.40720305 -0.016062265 -0.082940795 -0.20291975 -1.1570017
165 0.056017615 1.2957281 -0.078329936 -0.061722536 -0.124549486 0.61130595 -0.04108119 -0.59121794 -0.8910426 0.45948985 -2.1617215 0.8465809 -1.6331456 -2.1135895 0.37629804 -0.39026403
411 -0.0062453914 -0.40511718 -1.0050632 1.4350907 -0.37760714 -0.41271582 -1.9405953 -1.4154592 -1.0855844 0.9670359 -1.4359229 0.56428224 -1.1759998 -0.74494743 -1.428769 0.019275237
1279 -0.85453635 2.874748 0.36380842 -0.2532224 -0.8840634 0.23312321 -0.4971277 -1.3255137 -2.5362105 1.1831502 -1.6246272 1.4818747 -2.3097894 0.82619643 -0.40002367 -2.3955846
3276 0.037465967 -0.4443843 -2.7390707 1.3670692 0.14341538 1.3856992 1.6077465 0.31925446 -1.9306834 0.4054864 -0.66589594 0.5255784 -2.3332982 -1.0671875 -1.384141 -1.3350013
10360 3.0032537 0.23066291 -0.4792014 -0.51830184 -1.167295 1.8502183 0.94704515 -1.1214213 0.30326292 -2.8146377 -1.1703533 -0.2665868 -2.948607 -0.40903372 -3.8276434 -2.6037292
10664 -3.07541 0.7205122 2.048643 -0.4883881 -0.053593718 0.067120194 0.46769732 0.3268977 -2.8626492 0.35873225 0.01723312 -0.77477294 -1.6208067 -0.15265745 -3.3585315 -2.4129899
5194 1.2019538 -1.9362354 1.5342104 2.4027634 -0.24771869 -0.015366122 -0.055812284 0.20954701 -1.1050739 -1.095882 0.89048773 0.33004567 -2.0630376 -0.7536303 -1.1647915 0.5358551
82 -0.5434214 0.680931 -0.41670266 0.9180911 -1.6548641 1.141693 1.1373963 1.2725403 -2.3391325 0.79569083 -0.15706149 0.8413004 -0.0793047 -2.9100976 -1.2603463 -0.13689199
10607 -1.058706 3.799454 2.3036718 3.3775883 -0.650175 1.4097471 0.81918865 0.8198247 -3.1732297 -0.21129233 1.9607869 -1.2806826 -1.0137709 -0.93839127 2.0195472 0.6685198
4582 -0.8316399 -1.2106375 0.32991353 1.4937078 -1.6189287 1.0289173 0.63783944 -0.9519554 -0.7910263 -2.588906 0.26157123 -1.2508007 -1.8139708 -0.5994451 0.084212124 0.2709449
10905 -3.6886177 0.19524525 1.2052509 0.44040984 -0.9075955 -1.3901533 1.3632922 -1.1218344 -4.2870173 0.34581193 0.48927036 2.0139627 -3.3225336 -0.726275 -1.4595255 -0.7435799
10579 0.19889608 -2.4571848 3.7967603 1.4440775 -4.0365314 -0.38222188 -0.8088784 0.35816833 -5.584065 0.81217974 -4.10333 -1.0462222 -0.8849622 -0.72240067 0.06684516 -0.9249245
136 -0.9490147 -0.020098677 -0.41278914 0.6974022 -0.8926066 -0.2853961 1.2353947 -1.0913664 -0.60550845 1.2205002 3.0664773 -1.0324553 -1.6510584 -1.011317 -0.9606922 -2.7858677
5824 0.70013684 1.948364 1.0638072 2.1135504 -2.739154 0.05544194 -0.5712046 1.6949304 -1.5961725 -0.26312077 -0.3601354 0.53639686 -0.05376132 -0.15211558 -0.16559133 -1.2807704
41 -0.372599 -0.35372433 -0.7643295 0.7028332 0.23012458 1.9819844 0.08367694 -0.2700248 -0.45560402 0.12803242 0.55518275 -1.1468685 -1.9117116 -0.7571024 -1.4295251 0.23773476
69 0.34563085 0.82289904 0.86091787 -0.15933561 -1.69369 1.9942595 -2.060151 1.24374 -2.317329 0.27815995 -0.9230396 -0.48326838 0.6871644 -0.68304443 -0.1541709 -0.4913285
10137 2.9769504 0.16524602 1.2283851 -0.108994134 -0.7251313 -0.5493062 0.23171517 1.3129596 -1.9134791 0.57673043 0.6581258 0.10655809 -2.7808583 -3.8071525 -0.46544465 -0.91478395
10064 -2.7155538 0.8556506 0.80459285 0.21484049 0.10039477 0.08992674 -0.39872104 0.61635673 -2.6561754 0.19392905 -0.15242362 -0.8418598 -1.188571 -0.036231883 -3.3066 -0.5121694
353 -0.3793144 1.7181813 -0.16758385 -1.7037526 -0.09590709 -1.3823494 -2.0982711 -2.073779 -2.6602547 -1.3519633 1.2166615 1.0392017 -2.2547748 -1.6532125 -1.8934151 0.84913355
2027 0.04668709 1.1282322 0.8946844 -1.5252402 0.23272361 -0.9877145 -1.7233152 -0.9477444 -1.8091649 -0.7737825 0.82450634 0.7705392 -1.4340267 -1.1910285 -0.9368186 0.083718345
10518 3.1114678 -0.5282277 0.48748076 0.07364627 0.19918635 2.9063501 0.4092996 -0.3575535 -1.1463653 -0.27629328 -0.30568042 -0.045833826 -2.4596987 1.6473343 -2.1474247 -1.1333574
2570 -0.43405193 -0.51077855 1.57287 0.48812228 -1.5173483 0.26070595 -2.2232358 -1.6146498 -0.34596694 -0.56608397 -0.9238839 -1.6916049 -1.5745304 0.26568472 0.41299197 -1.5621747
10202 -0.027075278 -2.5247154 3.5804236 1.1484785 1.2438147 -0.71253455 -0.35605666 -0.07275342 -6.2365594 -0.093461834 -1.2189195 -0.9102648 -1.6407499 0.32072598 -0.3581496 1.1103095
2802 -0.16070305 -0.45162424 -1.0863839 0.44741285 -1.1277577 0.50973576 -0.5309106 0.08217256 -1.387782 1.4365597 0.17566359 0.73776615 -2.7405174 -0.33860403 0.33597273 -2.258516
10196 -1.8072689 -1.1011715 0.634186 1.3930898 -3.4760373 -1.7740735 0.25456867 -0.66729003 -5.0282164 0.5158173 -2.6387606 -2.6299675 -1.3377635 0.48428223 -0.1396621 -2.5664794
4818 0.26598874 1.5324119 -0.4472473 -0.030199401 1.4116583 -0.66919684 0.6295673 -1.3118608 -1.9490378 0.080179356 0.9814852 0.13626024 -0.42508346 0.42288628 -0.5090219 -1.3980559
352 0.15289629 0.33777973 -0.4953084 1.0758151 -0.8092347 -0.60902095 -0.4165183 -1.2530158 -1.3087018 -0.57891905 1.7842358 -0.5337633 -0.011447547 -1.2839872 0.06725839 0.25753453
2541 2.0020242 -0.44230074 0.146648 -0.8037086 -0.80153114 0.2560772 -2.2567046 -1.093935 -1.8846855 1.5102267 -1.5662305 -1.805405 -0.7877467 -3.7030687 -0.4835663 0.097605094
2326 0.1154869 1.0002475 -0.4058449 1.7641671 -1.708798 -0.078779355 -1.046609 1.4590867 -1.6642141 0.44713372 0.6159594 -0.6754 1.6119331 -0.40629297 -1.5672406 -3.2507758
70 -0.5771755 2.825288 -1.1223423 -0.7497093 -0.77152145 0.21201994 -0.8379806 -1.0187614 -2.006774 -0.7996914 -1.3895345 -1.095874 -0.51698244 -3.051139 1.155953 -0.05827608
66 -0.023505246 0.7913223 -0.48836648 1.8720604 -1.7932138 0.014969417 -1.0692569 1.4560037 -1.657808 0.4717854 0.9571897 -0.6546605 1.5995038 -0.4311709 -1.5520346 -3.2884617
10103 -0.9880441 0.7196481 -1.135043 -0.5838456 -1.1249049 4.364563 1.1962045 -0.11873353 -2.9293408 -0.17957264 -2.1503792 0.14050692 -1.278423 -1.9504061 1.1762773 -2.0026712
199 -0.75857544 0.40642327 1.0204334 1.129201 -0.33997416 -1.9346939 0.6614539 0.4548526 -1.1920706 -0.9361726 1.7496011 -0.42763063 -1.3770982 -0.76899725 -0.34763864 -1.3363535
4465 -2.5611863 -0.54721344 -0.3437242 0.3482724 0.317406 0.21257868 0.9332421 -0.84742904 -1.3358452 -0.8182288 -0.14210217 -2.6995509 -2.6680365 -0.9699707 -1.9713174 -0.12157937
10733 2.015752 0.4823062 1.3739239 0.7306751 -0.11994052 -0.79610306 0.61718 0.80035424 -3.5189884 -0.3330086 -0.81287074 0.55536693 -2.3038104 1.2018749 -0.53635836 -0.6375497
8251 1.2702413 0.3512205 -1.5976219 0.6220135 2.307935 2.2819536 -0.26812446 1.4893837 -5.6922927 1.5325922 1.2326878 1.0501155 -2.2687032 1.196616 0.71937793 -2.9953501
10707 -2.3870635 2.5678694 0.110764846 -0.21700852 0.21814556 0.9742698 0.91911894 -1.918821 -3.7849903 -4.578297 0.03898249 -1.6608799 -1.5401765 1.0031524 1.3172779 -1.2604219
6201 2.4835055 0.42992678 1.6234857 -1.0042374 -0.7601574 0.5505538 1.134116 -1.8741145 -1.2624458 -1.9790465 -0.019113775 -0.18294807 -0.5317749 0.22308657 -1.1031382 -1.8752092
481 -0.99055296 1.1434131 1.2170904 0.7000568 0.44908813 2.7947993 1.4232076 -0.5343953 0.75480056 -3.1398776 1.4475216 -1.9257832 -0.3111037 0.41519266 -2.4272575 -4.5547414
3357 0.73061585 -0.21872447 -0.17433138 0.30979612 0.7780844 2.1450534 1.7090569 -1.4910102 -0.66004694 -1.6099701 1.3099402 0.64790404 -2.2286403 -1.2941567 -0.38627592 0.05690606
10213 4.2215595 0.2289964 1.2885071 -0.6292116 -0.18835627 -1.4138031 0.09851918 0.011108949 -2.1224775 -1.986269 -0.040633347 -1.8382107 -3.0012553 0.11559685 -1.4006262 -2.4468703
4452 0.18969189 0.00022937541 3.5327337 0.5541409 0.98744184 0.011809086 -0.6300116 1.0454475 -1.6530765 -0.6510807 -1.4875144 1.0482816 -1.7499609 -1.2559984 -3.4121063 -2.1247973
10291 3.6347108 -0.9807734 -0.22643869 0.09464704 -0.17628734 2.4548001 0.9462647 -0.6943172 -0.49601704 -0.34371543 0.20317698 -1.1566964 -2.0887995 0.3622257 -3.3498063 -1.3349895
308 0.19774565 0.46515238 0.87641376 0.62691844 -0.9132867 2.2060409 -0.33253792 -2.5341768 -2.4670532 0.65692157 0.019451426 0.66558367 -0.074155755 0.12352877 -2.011782 1.8446687
10091 -0.79981166 0.64332616 -1.5222666 -0.7992382 -1.1980293 4.103055 0.91213095 0.12091306 -2.8912854 0.15196913 -2.1662354 -0.046762682 -1.7291398 -1.7073737 1.2234293 -1.8649429
10008 0.10807239 1.881171 3.0023665 -0.77685016 0.10731927 3.7474358 -0.35215873 -0.4606398 -2.7249336 -1.1444603 2.5463037 1.6913335 0.13424373 -0.5831564 0.16921228 -2.4842937
3008 0.66515166 -0.23492329 1.7455479 2.4000556 1.0478643 0.9106414 0.70753515 -0.7685165 0.1518598 -0.15013227 -0.1415823 -0.40825182 -0.059930664 -2.660649 -1.0109757 -0.22402093
493 2.522002 0.5215933 2.8443692 -0.07045156 -0.72818214 0.36359036 1.7556492 -1.7553784 -2.4749892 -3.7440422 -0.36217842 0.38876972 -0.35882926 0.26917925 -0.9981639 -1.6219126
10389 -1.5710654 -0.57208174 2.2705617 0.69690067 -1.5219803 1.0511962 0.66558653 0.06564311 -3.8101728 -0.08156578 -0.9349615 1.1165562 -1.4425212 1.2322642 -0.18045975 -1.584987
548 -0.94202846 2.2776904 1.3879678 0.54076606 -1.4385376 2.3493996 -1.3599306 -2.256549 -0.05355155 -1.7019247 -2.8094804 -0.8531501 -2.4131339 -1.3730578 -2.171457 2.2652655
3181 -0.5121633 -1.274182 1.2518306 3.0052338 -1.6165804 0.22179566 1.2626888 -1.4290447 -3.2725525 1.1778877 -1.4805071 0.7363361 -1.8364863 0.26035747 1.8350317 -0.6820533
10224 -1.2943177 2.5841389 2.9026456 -0.51323026 -1.1833848 -0.9458027 1.7853287 -2.7526438 -3.414445 0.010474123 -2.3751676 -3.1339972 -0.28626546 -4.313659 -0.9570127 0.38501415
10769 -2.3703246 1.1823142 4.5734076 3.1117988 -4.452696 -1.4088044 1.6752386 -2.3318539 -0.51924986 3.1956208 1.4753028 -0.86806405 -1.9945457 -0.5369503 -2.440403 -2.819744
361 -1.1600214 3.1324854 -0.1997215 0.46070793 -1.2703291 -0.6520368 -1.3747348 -1.1412761 -0.8482363 0.81712824 -0.16019076 -2.33716 -0.22563669 -2.498897 0.35824212 -2.3847878
2404 -0.24896625 -0.981246 0.33830163 -0.12096907 -0.5259 2.2352836 0.17627835 -0.035245858 -1.7132789 -0.21776314 0.35201395 -0.83966553 1.3202384 -0.5354464 0.72754294 -1.8629493
6594 2.1824546 1.7174587 0.5289511 1.2440952 0.393827 1.1337212 0.19024178 -1.8986926 -0.07243846 1.8176311 0.80960786 0.5015484 -2.4891803 -1.1806301 -1.5573014 -0.20945002
10509 2.0463457 2.7337503 0.2660106 0.9631819 0.05605218 1.4552506 0.15881431 -2.5050983 0.07250951 -0.7754749 -0.15255643 0.22392303 0.937481 -1.6209391 -2.7849886 -2.16277
1497 -0.20796637 -0.0394749 2.29705 2.1395917 -1.9112892 0.9326462 -3.3793712 -1.8341451 -0.7505048 0.90731585 -1.6322734 -1.5239196 -2.491626 0.14162283 2.5092547 -2.9764287
10500 -3.68819 1.9508598 0.6724892 4.6004634 -0.51474684 4.34482 1.0220133 -1.3733995 -0.36216855 3.2069335 -0.01895297 -0.5324477 -2.7697015 0.40804538 -0.6107511 -2.4664488
10712 3.1912289 -0.6792166 -0.122188054 -0.081319295 -0.21677719 2.5353425 0.46984103 -0.022717673 -0.800767 -0.14134285 -0.10954244 -0.71826607 -2.5283163 0.83802485 -2.1580853 -1.3654404
2783 -1.3332454 2.863556 0.55419815 -0.45407227 -0.3192923 0.16328934 -0.33573183 -1.9569519 -2.6185534 1.6858969 -1.0568013 1.1704699 -1.8781 -0.0719417 0.27428946 -1.6519669
10919 -0.7773802 0.44089976 -0.72224635 -1.3192474 2.4193377 2.7132504 -1.3142458 -1.6610603 -3.7049944 -0.31262544 -3.3829083 -0.7660468 -3.6168754 -0.690075 1.14451 -1.33158
10533 -3.1769655 0.42492282 1.7534505 -0.6006876 -0.35292754 0.36802182 0.65196013 0.40060028 -2.3969142 0.2676112 0.17232534 -0.7250021 -1.6502078 -0.14810859 -2.610444 -2.6165752
5781 0.5491864 2.7714708 -0.06203865 0.52858317 2.4270537 2.4799774 0.1863792 -0.25308958 -0.7394132 -0.67627746 -1.0988756 -1.1297203 -2.8303406 -1.8455358 0.42969054 -0.7623469
10599 2.883493 3.1512918 -0.22647054 2.14618 -2.5115356 0.55688447 -0.99937725 -1.2061406 -0.4759064 1.6811041 -1.2224772 0.30837682 -2.028749 -0.021478126 -0.41995287 -6.132184
156 -0.64505154 1.417254 0.5433332 -0.19297108 0.20562932 -0.03559868 -0.5792458 0.32218853 -1.1086122 -0.37150487 -0.061227754 0.48248887 -2.8530931 0.403941 -2.4997692 -0.66484934
4591 -0.9822984 0.14624552 2.3072248 0.4712035 1.491292 -0.34817058 0.7613 -1.8625528 -0.3166447 -0.40977877 -1.1943847 -3.0558035 -2.925158 -0.7351282 -3.4568164 -1.1667066
2109 -0.0012994563 -0.40208516 -1.0047779 0.92279035 -0.79866993 -0.5656297 -1.8308861 -0.74333686 -1.087731 1.065855 -1.3547195 0.31798828 -1.3039224 -0.83500135 -1.2120292 -0.48464987
2435 -0.28862312 3.0324368 1.0603629 1.0639242 1.3412179 0.32304573 -1.3085155 -1.2589114 -0.9621042 1.4143988 0.039017092 0.17011084 -1.7454334 -1.1720989 1.2233967 -2.516839
10195 2.2287555 2.8357768 0.23833817 1.0226959 -0.096791685 1.3476654 0.21861494 -2.5132246 0.0395848 -0.65833133 -0.0978256 0.21949863 0.9972942 -1.7163305 -2.7628005 -2.1662025
10507 0.5533142 -0.688292 0.6987503 1.396156 0.05336616 2.7019334 -0.83652174 -1.3157926 -2.1311333 -3.6399374 -1.7123396 1.4813429 -0.05316288 2.177343 -1.4675868 -2.3057084
139 0.5794806 0.4464314 -0.20856377 1.6505535 0.12786013 0.5216052 -0.008216422 -0.5205602 0.48304942 0.6069873 0.3670701 -0.9486197 -1.1937671 -0.07264149 -1.1977671 -0.49366692
1185 3.3808653 0.6227316 1.1592124 -1.561011 -0.7627423 0.9244354 0.93043387 -1.5728145 -1.3534442 -1.701842 -0.32155156 -0.050771013 -1.3826418 0.13295731 -1.127581 -2.612399
87 0.62002647 0.52050036 -0.018924238 2.678608 2.2557623 0.21706852 1.366678 -1.5599134 1.2665803 -0.8120842 0.17559125 -1.0643823 -2.5790567 -3.275775 -2.3874764 -0.94873935
397 -1.744348 -0.5344231 -0.044355728 0.7899617 1.4299471 1.2998354 -2.3858602 -1.0440863 -0.78590506 -0.9223469 0.1340595 0.24866596 -0.6128596 0.00019776326 -0.6097811 -1.7752947
10301 -0.38052082 -1.2247874 0.034164853 3.8550081 0.4740045 3.3294914 0.48270825 -3.6879063 -0.4938939 -0.14732608 -1.2194854 0.7981559 -0.8292491 -0.75325316 -1.101776 -0.90513974
10609 1.8848935 2.4762285 2.9184859 -1.0788628 1.79435 1.1531395 -3.3848588 -2.074992 -2.316283 -1.6944411 2.0706167 3.1593182 -1.4812093 -0.20033993 -4.02144 -2.365892
10488 0.32018936 -0.7942652 0.42472586 -0.4617113 1.9893122 -3.3788104 -1.4900223 -1.2469579 -5.5559278 -0.48054737 -0.8471024 0.2866632 -1.6986176 -0.20930733 -1.5311328 -1.0193131
