10000 16
7624 -0.5017346 1.4790487 -2.4650803 -0.5719879 0.5008413 -1.3072433 0.5953209 0.25822094 0.023679119 -0.34038073 0.8923189 0.18456303 -1.2556022 1.3692882 -0.24686618 -0.42403132
7549 -0.4644807 1.4163804 -2.351763 -0.547503 0.5813663 -1.2616773 0.5177338 0.14529432 -0.030868536 -0.39422423 0.91375154 0.23025483 -1.1481556 1.1699686 -0.20786564 -0.3652458
8432 -0.508838 1.5338117 -2.6189024 -0.60172683 0.5050708 -1.4120191 0.4688433 0.12391332 0.019026602 -0.39195988 0.9777454 0.09948234 -1.2832114 1.4216408 -0.20607768 -0.46886253
5795 -0.20110647 0.8017181 -0.56683666 1.942892 -1.1882057 0.09092138 -0.28611383 -1.3242395 -0.11620133 -0.6654533 -0.3285037 1.2456713 1.0340121 1.9588104 -0.3278868 0.38676414
6020 0.017355481 0.7014932 -0.40086377 1.8898654 -0.9762377 0.008249525 -0.22722541 -1.4327435 0.2989241 -0.50643224 -0.16951536 1.1089659 0.8921193 1.7582917 -0.36367157 0.3679509
7128 -0.13345404 0.60766894 -0.5174093 1.8235241 -0.9467304 0.08021327 -0.18549609 -1.25121 -0.06755217 -0.49534976 -0.35387853 1.0357119 1.0099944 1.787264 -0.3812831 0.30386484
8379 -0.30598667 1.3264604 -2.3941321 -0.7176472 0.4308955 -1.0625376 0.5161087 0.10480511 0.09094509 -0.40836683 0.8636146 0.250184 -1.1183157 1.2871737 -0.34015477 -0.7388998
4873 1.1795183 -0.13949823 0.26544285 0.12863672 1.2542427 -0.26685205 0.3379956 0.49179715 2.047913 -1.1945674 -0.7641439 0.84921926 -1.0768692 2.4201007 1.5903562 0.68117595
4707 1.1964066 0.27684996 0.41461167 0.022156361 0.9115249 -0.14817639 0.5030688 0.06871606 1.4684952 -1.0483298 -0.7787746 0.7882453 -0.6391653 1.5843184 0.9015652 0.6091604
4222 0.07480131 0.91042197 -0.23626852 0.6444472 -1.54079 -0.627411 0.0358805 -0.77231133 -0.29970184 -2.2416253 0.15275152 -0.38992444 -2.7051928 0.10635476 0.11576966 -0.9484536
4781 1.2098184 -0.0910798 0.28238004 0.20062704 1.0578103 -0.07248266 0.7501833 0.31179816 1.8343172 -1.2111291 -0.51927394 0.9191835 -0.9997441 2.2145452 1.5494727 0.7941421
4138 -0.029913068 0.9265988 -0.22231516 0.80967474 -1.5303828 -0.82095003 0.06440241 -1.0615587 -0.088437736 -2.3010774 0.15502684 -0.42572498 -3.0040493 -0.00096035213 0.33819735 -0.9283249
4782 0.9400038 0.09165171 0.4336415 0.50215244 0.61031294 0.25437626 1.097175 -0.08340831 1.7854546 -1.2073966 0.27979916 0.53540874 -0.7581755 1.8383051 1.690008 0.64281744
4864 1.0241196 1.4883443 0.5209292 -0.62000006 1.3970016 -0.49281266 1.5583962 0.1649598 2.2253907 -1.2615784 -2.5404258 1.7113637 -0.89366525 1.365186 0.3834077 0.6070371
7401 -0.40928116 1.1914805 -2.1179433 -0.69712454 0.5642644 -1.0161171 0.23558547 0.21877876 -0.16665621 -0.5630719 0.5193831 0.33682963 -1.0639933 1.2353945 -0.1206227 -0.15874273
2910 -0.15354833 0.13054372 -2.7451994 2.3681192 1.7715907 -1.6516707 0.7292986 -0.8844265 -0.51789814 -1.5487874 0.54088545 0.034331042 0.38680443 -0.104957364 2.007848 1.1395587
5774 0.978582 1.3090614 0.0061327578 2.6029785 -0.77493453 0.15838984 -0.16689475 -1.4836209 1.5250441 -0.45342383 -0.06822364 1.4077512 0.28730273 1.736313 -1.0052587 0.25087565
6061 0.71207786 1.6324177 -0.33777356 2.556334 -0.77274007 0.098641045 0.3785484 -1.7132399 1.8732015 -0.3241065 0.20841935 1.1904207 0.40930095 1.4670562 -1.1362627 0.115877286
4892 0.9139866 -0.27139196 0.294887 0.10023777 0.9497214 -0.18194595 0.54482937 0.34201404 2.1191244 -1.3351332 -0.29437262 0.5294482 -1.0728546 2.3940067 1.6940033 0.6445692
3513 0.42031336 0.43841127 -0.16188683 1.0099885 -0.4859235 -1.7449284 -0.44083285 -1.0347575 0.918954 0.67108756 0.009018423 1.035214 -0.55853707 0.58203554 2.6806927 -2.148449
5061 1.1576496 1.4769049 0.3558433 -1.022021 1.2381977 -0.6682077 1.661742 0.034541063 2.566487 -1.6501411 -2.9629261 1.8224471 -1.2396915 1.3332311 0.4313875 0.60197276
2451 0.0050415257 0.07808331 -0.29908907 -0.2591469 0.82753885 -1.5926731 2.3926404 -1.0028543 -1.5671892 -1.3325053 -2.0175414 0.2538735 -1.8856527 0.32377568 0.7833281 0.048659917
3261 0.010724196 0.15934676 -2.655374 2.4664464 2.1591854 -1.6702719 0.51557463 -1.2414234 -0.5959394 -1.6894424 0.41321117 -0.22223005 0.89043826 0.07097507 1.7948122 0.7538904
7296 0.88896227 1.0917903 -0.32358125 2.4804 -0.83151186 0.23720035 -0.06796363 -1.5360377 0.9825204 -0.44507322 0.2803861 1.0486057 0.5400969 1.6780803 -0.27285168 0.47416872
9300 -0.9714651 1.3580209 -2.8166025 0.064404376 0.35808885 -1.7044353 0.66183424 0.8422592 -0.6913974 -0.20422797 1.0232543 -0.108970776 -1.2071066 1.208348 -0.16412781 -0.56473523
9821 -0.39298898 1.3977633 -2.5855272 -0.51631397 0.1267197 -1.3197876 0.48132807 -0.0845365 0.7200589 -0.09651977 0.45849764 0.5657643 -0.91641694 0.7612125 -0.49668208 -0.6647248
3644 0.4148076 0.41615826 -0.10728713 1.0138918 -0.539962 -2.2646232 -0.6424655 -1.0399518 1.1703612 0.5648087 0.14886257 1.0254766 -0.3543091 0.79446936 3.0488346 -2.69541
5858 0.88122785 1.2120656 -0.44352764 2.5652559 -0.81785965 0.013515621 -0.17438948 -2.0065978 1.7044556 -0.69593364 -0.20325169 0.91183805 0.6814996 1.4996058 -0.92649764 0.2862861
6262 0.9175529 1.2234032 -0.20972843 2.3368607 -0.746033 -0.3648223 0.15094008 -1.9169128 1.3315806 -0.1905604 -0.0077193268 1.4466622 0.83466053 1.5626744 -0.92767984 0.2392454
7784 -0.107035376 1.0870252 -2.705407 -0.6923183 0.40439788 -1.3123866 0.6015715 -0.30999812 0.450113 -0.73328865 0.7325657 0.2430004 -0.9544474 0.82821405 -1.0419388 -0.67032707
2766 0.09123993 0.20329073 -0.4395496 -0.44250488 1.1920623 -2.078537 2.667541 -1.1204782 -1.8290633 -1.470676 -2.3608372 0.33415806 -2.1749003 0.25762174 0.6678461 -0.36759302
4151 0.41784662 0.6841655 0.16851148 0.7711908 -0.4868242 -0.52469814 0.029492045 -1.1542958 -0.1942494 -1.7941788 0.3950073 -0.5520068 -2.5372252 0.13611361 -0.35668495 -1.2348914
4106 0.06006043 0.79551035 -0.19226089 0.63841 -0.67961156 -0.43579078 -0.0662344 -0.40248936 0.16373633 -2.298059 0.05831452 -0.40956017 -2.878649 -0.011915613 -0.53851956 -1.1812291
3468 -0.6514275 1.0267199 0.0515116 1.4735546 -0.02317215 -2.5481148 -1.4450387 -1.0273447 1.0771871 0.19326618 -1.1535093 1.4815993 0.016092539 0.3592311 2.6441002 -3.7707694
4046 -0.6404392 0.5507865 -0.6462815 1.0839107 -1.5014129 -0.2897156 -0.014888349 -1.1597989 0.6821079 -1.9082966 0.5437553 -0.6779079 -2.9426515 0.82345736 -0.13757782 -0.16313422
3170 -0.11352355 0.0802378 -1.2725445 1.7437288 0.58476824 -1.1122077 0.8192001 -0.74507606 -0.3588991 -1.1632046 0.80095613 -0.57310134 0.16376787 0.008523348 1.5052296 0.77228177
2616 0.04556436 0.71514267 0.12980017 -0.4687162 0.38284957 -2.2508938 1.7830678 -0.6583264 -1.3454994 -0.91547155 -2.1947508 0.30027196 -1.7334983 0.63630867 0.6128124 0.17292298
3301 -0.7241392 1.0634476 -0.20621318 1.6771457 -0.10596908 -2.7192492 -1.623147 -1.1555254 1.0177383 -0.0026535825 -1.4449434 1.5965704 0.033631913 0.3039974 3.21052 -4.149277
1993 -0.05299965 -0.7018081 -0.088539876 0.14278524 -0.44865847 -0.24055837 0.5889889 1.0352085 1.369301 -3.3138266 -0.9968899 0.6931217 -0.13261981 0.9394209 1.3418154 -1.4378028
4673 1.4221725 0.566773 -0.09329596 -0.48554507 1.5983652 -0.40850273 -0.021398079 -0.050902184 1.5319531 -1.1129218 -1.857585 0.71217823 -0.6023028 1.5695201 0.7036487 0.539544
5789 -0.6166468 -0.097763956 0.2628418 2.0299895 -0.023344375 0.11646516 0.17938201 -1.3916951 1.2949721 -0.37783402 0.016763784 1.3144126 0.305387 1.5960106 -0.6164034 0.35484713
2642 0.058117144 -0.016562 -0.22031197 -0.17628466 0.7284342 -1.0225707 1.9271665 -1.09134 -1.4872051 -0.7196811 -2.074808 0.32327914 -1.5658841 0.6042836 0.787395 -0.23828138
3983 -0.007916502 1.0180014 -0.4593708 1.1616124 -1.3712318 0.21590394 -0.17787758 -0.4855033 0.006239398 -1.9162842 -0.123227164 -0.8099405 -1.9816204 0.38599956 -0.8945016 -1.3963255
4758 1.6326833 0.6718472 -0.115439065 -0.8459113 1.5757942 -0.5474915 0.015370694 -0.07794183 2.1184757 -1.8250176 -2.0997648 0.74017334 -0.57940614 1.7033696 1.014964 0.45644978
2612 0.25617245 0.3269279 0.3070411 -0.9052964 0.29159617 -2.5661032 2.0755086 -0.9545113 -1.2831011 -0.91108626 -2.2103326 0.121964276 -1.6209881 0.5956751 0.9203351 -0.61339414
4016 -0.14101283 0.7125197 0.1229276 0.9640006 -0.81427956 -0.8418732 0.58558947 -1.120627 0.1921931 -1.6648833 0.23416947 -0.7082277 -2.27258 -0.08907622 -0.06659707 -0.29306236
1845 -1.9555721 1.2566227 -0.16047648 2.6818717 1.1738318 -1.2994355 -0.27183962 1.2241548 1.3821334 -0.62259156 -0.66373724 -0.39804623 -1.0698606 1.5043353 0.57969266 0.8079431
3054 -0.3122858 -0.09824167 -1.6438076 1.5463302 0.62176585 -1.4062899 0.70988405 -0.8871768 -0.12882493 -1.0890695 0.40639076 -0.797516 0.08085746 0.0009775537 1.9158815 0.7555474
4077 0.16555394 0.6464395 -0.33092397 0.74639004 -0.7625619 -0.8041008 0.4393165 -1.1189063 0.12368741 -1.4553972 0.45771465 -0.8617505 -2.4725132 -0.021158483 -0.2592409 -0.8507687
3831 -0.094245315 0.5859395 0.10988724 0.47033757 -0.9460538 -0.8243663 -0.23111841 -1.043525 0.32377285 -1.7983049 0.56858563 -0.87948436 -2.4780335 0.81446946 -0.3013841 -1.0965809
4239 -0.44482866 0.5923007 -0.33918557 0.46142063 -0.7404505 -0.7388443 0.1815263 -1.7644048 -0.064593986 -1.7962419 0.44004333 -0.9307252 -2.5575597 0.4872473 -0.6709141 -1.3765107
4379 0.14547075 0.70664936 -0.115995176 0.936462 -0.7466859 -0.82766944 -0.067150906 -1.0337087 -0.05371782 -1.971082 -0.14701441 -1.0001187 -2.6731431 0.099873655 -0.025439836 -0.5248996
4958 1.1223748 0.27128384 0.6037203 0.032395195 0.9025912 0.15998472 0.1977082 -0.08113362 1.0323515 -1.5759152 -0.25095358 1.5824385 -0.5452047 2.11988 1.1759385 0.8465636
6658 0.66458446 2.0855167 -0.2117641 2.4113038 -0.27675974 0.4332453 -0.23946688 -0.97809744 1.899986 -0.9364191 -0.042134855 0.7523554 0.8295276 1.5970933 -0.9474357 -0.15547311
5967 0.43707937 1.0139934 -0.28840765 2.4754074 -0.7296104 -0.20827231 -0.09018395 -1.3278612 1.5811764 0.12471751 -0.7820972 1.4232616 0.6378055 1.4983555 -0.65966815 0.059950743
1997 -0.102081455 -0.36732218 -0.07939372 1.173511 0.21808113 0.39999807 0.223777 0.26087752 0.8851286 -4.085855 -0.16662796 0.8633209 1.4795008 1.4666995 1.6285727 -2.5885015
6298 2.6143615 1.4686943 -0.8672091 5.0220737 -1.1375881 0.04760342 0.43983808 -0.049717177 2.764351 -0.7724683 -0.031745527 1.2495097 0.92027074 1.624333 -1.5073644 0.058032747
6076 0.31955123 0.8240263 -1.2522397 2.8394017 -1.2070128 0.45680377 -0.5631727 -1.513015 0.8479054 -0.7854844 -0.5440138 1.1730584 1.2301067 2.8412375 -0.8021996 0.4638801
1720 -1.7055612 1.4907393 -0.23545247 2.7744026 1.6490232 -1.2846025 -0.5310061 1.2382649 1.0114198 -0.64087576 -0.8329106 -0.3231827 -1.0125517 1.4178233 0.30733174 0.73874253
3409 1.0330595 0.65537286 -0.6794228 0.7417872 -1.2368209 -1.4861853 0.07239669 -1.4636745 0.439797 0.5299203 -0.8378029 0.8083079 -0.42926186 0.26479638 2.8227947 -1.48116
5047 -0.3857217 1.1926211 0.14158213 -0.82949877 0.38611934 0.21839732 1.7337245 -0.31750447 2.6045604 -1.121272 -1.859291 0.6642413 -1.3213156 1.8104163 0.91507846 0.17347771
1928 0.20297702 -0.4479888 0.0075997193 -0.26329303 -0.64425886 -0.71222717 0.073203415 1.1408085 1.9031174 -2.9418254 -1.8681573 0.58511204 0.059001245 1.2411422 1.3220237 -1.668918
4472 -0.7799856 0.6859916 -0.56765574 0.23044716 -1.2758913 -1.4522243 -0.5744091 -1.5719109 0.6112693 -1.777849 -0.47315234 -0.038912244 -3.5514612 0.22470352 0.14273122 -0.46238628
4992 0.20340985 1.4706312 -0.093415454 -1.0540252 0.6585504 0.024434555 1.5050269 -0.29091185 2.6711738 -1.4388515 -2.159193 0.80767906 -1.4122119 1.7643538 1.0706474 0.32236385
2623 0.58378744 0.40683207 -0.123865105 -0.55678064 0.8603249 -2.4516401 2.0764787 -0.9646625 -1.6991777 -0.78103805 -2.3957956 0.44059306 -1.7000228 0.6666354 0.7518628 -0.22543517
7555 -0.5024137 1.0965083 -2.3525887 -0.52119195 0.637616 -0.38943177 -0.26290905 -0.21441965 0.24328923 -1.1454885 0.24784692 -0.18348481 -0.4297467 1.0212632 -0.7950857 -0.86386657
3543 0.085593745 -0.7397632 -1.3492701 1.7640437 -0.92537457 -1.2496804 0.44258556 -0.9666109 -0.045496218 0.5270882 -1.0165387 1.5535835 -0.50338537 0.23974223 3.7393913 -1.3629221
2299 2.2409077 -0.41663563 -0.35704917 1.4889464 -0.042277917 -2.7548676 1.0945426 -1.20398 1.1755157 -0.7656992 -0.6285107 0.18176165 1.0407565 0.4342591 -1.6431476 -0.0014160497
3619 0.2871352 -0.13996312 -0.665235 1.3802323 -1.093704 -1.8197579 1.2061362 -1.3426409 0.59527886 0.8315834 -0.36747137 1.6374552 -0.648032 0.19061571 3.3131514 -0.9228683
2133 1.4829105 -2.471726 -0.7657778 1.7719885 0.18018542 -2.357341 1.678286 -1.2902355 1.9064116 -0.79961556 1.6933113 -0.07920205 -0.59862584 1.1937313 -1.0700204 -0.80903876
3423 0.12584889 0.43946347 -0.8394181 0.8775854 -0.47444785 -1.2602677 0.28154883 -0.84636176 0.8082652 0.758392 -0.3405863 1.6814747 -0.8217109 -0.1731425 2.2217064 -1.8077539
1967 -0.33279985 -0.044755645 0.34087253 1.6275886 0.05052254 0.51951456 0.24464296 0.4419457 1.2278178 -4.105572 0.55542785 1.1793002 0.87147737 1.4736243 1.8952171 -2.9760551
3779 -0.1675965 -0.45814165 -0.91779417 1.0127734 -0.9559 -1.5663924 -0.1455409 -0.6442293 0.6653262 -0.02367017 -0.8606591 1.6779199 -0.6454014 0.2918005 3.5635607 -1.5255591
3710 0.39404166 0.86609817 -0.33621427 0.81455785 -0.3412955 -1.2579716 -0.03113749 -1.2075708 0.3034642 0.7966366 -0.116783194 1.3165919 -1.078762 0.10949027 2.3123884 -1.8160557
2296 2.0901022 -0.82169986 -0.43392366 1.3371972 0.030514996 -3.269895 2.1569943 -1.3333454 0.43693548 -1.1798623 -0.82806957 0.22850129 0.7711483 0.848008 -1.6941797 0.9524332
1067 -1.1143196 -0.5719179 0.8111602 1.3911009 2.4581366 -3.1685123 -0.7921831 -3.1750586 0.8362606 -1.125022 -1.4174672 -0.76826197 -1.1861095 0.62498224 0.010951993 -1.3920188
2196 1.793034 -0.9799689 -0.1463377 1.0200237 -0.043232396 -2.3909812 1.3670887 -0.9459028 1.3046933 -0.6340721 0.41767383 -0.10922073 0.22910221 0.9484646 -1.6729342 -0.5404881
3504 -0.28318676 0.8594845 -0.7100566 0.99230415 -0.74906784 -1.1464653 -0.02584181 -0.60389584 0.63008153 0.12922011 -0.78261185 1.599621 -0.34431505 -0.063062474 2.888968 -2.0563996
1595 0.9237709 0.301266 -0.80214983 -0.30138698 0.2395244 -0.42552984 1.6151975 -1.1055089 -0.9555645 -2.7940867 0.39513308 3.1170583 0.3095634 -0.20149958 0.75621694 -1.5363036
1875 -0.51297784 1.088101 0.20938054 2.9778323 1.5018407 -1.430115 2.0235424 1.9406966 0.7267238 -0.6294528 -0.4772128 0.6250127 -2.1162233 0.4539305 -1.3911477 -0.43861
2153 2.6261594 -0.3255247 -0.6682039 1.1889445 -0.5753638 -3.4022508 1.8609452 -2.2282124 1.6598418 -1.3331898 -1.2788415 0.14338396 1.0369377 0.83057404 -1.5046141 1.0505682
1172 1.309789 2.3126588 0.66465104 2.8026578 1.2922745 0.5921321 1.3268827 -1.8999324 -1.8764795 -3.2581153 -0.71298283 0.5464101 -1.4981165 0.78006274 1.2561258 0.006482607
2914 -0.4958673 -0.5673289 -2.5500922 3.5516171 1.5227474 -2.4436877 0.57101005 -1.0413338 -0.9258231 -1.8232386 1.2100044 -0.02888107 0.54529464 -0.21844995 1.7658595 0.6733873
4425 -0.5738867 0.53770393 -0.3280361 1.1426162 -1.0588889 -1.3093659 0.372422 -1.1175227 -0.1506628 -1.4440958 0.18112111 -0.41731802 -2.5529604 -0.4170723 0.22019993 -0.035969738
2373 1.9997007 -0.45875672 -0.5072172 1.3298817 -0.6291202 -3.3519678 2.3130856 -2.0587456 1.272366 -1.3776493 -1.2387052 0.3773822 1.466522 0.7044401 -1.3691108 0.9383975
1069 -0.725061 -0.8133648 0.5576782 1.4140841 2.7259436 -3.6626513 -1.6517993 -2.8286612 0.5476941 -1.87609 -1.7378234 -1.5950155 -1.751436 0.7375625 0.70209676 -1.9355996
2201 1.518879 -0.8412756 0.25235447 1.8582319 1.3439234 -3.1023145 1.5494709 -1.4598686 0.99172455 0.16881041 1.0818336 0.52799624 -1.0886049 1.0812551 -2.1162539 0.087722935
1704 -0.8645273 0.9737852 -0.2679254 1.6735678 0.4815906 -0.91852134 0.7693199 1.8148719 0.3976863 -0.44088113 -0.5411747 -0.31829575 -0.87329197 0.9958777 -0.4121112 -0.05798069
3127 -0.43233678 -0.7818359 -1.8764082 1.941334 1.5263696 -0.7027488 0.98936194 -1.4279258 0.27416483 -1.3913823 0.91711235 -0.6326261 -0.20591494 -0.2683774 0.9844102 0.22526231
2607 -0.13475344 0.4974706 -0.23771305 -0.24719836 0.28630787 -1.1597689 1.810389 -0.8627466 -1.776205 -1.2549139 -2.287108 0.7793029 -1.4494445 0.6877903 0.9277021 0.17297076
2801 0.022064503 -0.48497677 -2.4605465 2.368129 1.641586 -0.8474561 0.12254752 -1.0942177 -0.0039842688 -1.4183687 0.45206165 -0.5645431 -0.34364527 -0.21919106 1.068821 0.45970556
1141 1.3082644 2.2088993 0.3071175 3.0467994 1.7589244 0.72986734 1.0955026 -1.7100859 -2.5054157 -3.0969658 -1.3807952 0.67400795 -1.312717 0.908878 1.2401043 -0.2358307
2407 2.07662 -0.6599932 0.4019054 1.0316532 0.18745998 -2.7084544 0.59671193 -1.1174352 0.6648676 -0.70237315 -0.09016496 -0.42863652 0.7482909 1.1265161 -1.4094455 -0.46344715
1563 -0.2748047 -0.75590855 -1.6161617 1.3839557 1.0662358 -0.20999998 1.79277 -0.8120045 1.1354421 -0.9671929 -0.19176488 4.3957787 -2.1210113 -1.3715 -0.18043856 -2.3011713
2237 2.9352627 -3.3824377 -0.71242255 3.2522445 -0.8144317 -3.5712953 0.91632104 -1.7095376 2.0524802 -1.2721494 2.185989 0.29268122 -0.18700162 1.7640889 -1.3145475 -2.1536229
2355 3.2908926 -3.1469555 -0.96282756 3.1390216 -0.9184314 -3.8776162 1.0880964 -1.2913477 2.0636854 -0.7708969 2.371167 0.47991407 -0.40905228 1.5898181 -1.0624577 -2.154933
1749 -0.49089 1.433223 0.09309524 3.3722157 2.0342193 -1.748901 1.909345 2.5568361 0.5782723 -1.1958234 -1.528653 1.1018938 -2.3906763 0.18957022 -1.7908589 -0.6051306
4167 0.029548263 1.0099509 0.11807222 0.39837185 -0.0633212 -0.6420554 0.4684401 -1.4339856 0.22982085 -2.192488 1.0222613 -1.5148729 -3.39952 0.8387089 -0.035661034 -2.4451687
3002 -0.5073804 0.28910708 -1.7517576 2.6185584 1.5586787 -1.9163231 1.249899 -0.017533695 -1.8375434 -0.8903251 0.39659882 -1.3243409 -0.14703089 0.46389475 2.0280306 0.33220956
2238 1.9201221 -0.7740514 0.32680038 2.341147 1.269278 -3.500085 1.1487367 -1.8554758 0.68171495 0.019771622 0.18561459 0.49313906 -0.9884259 0.9813115 -2.4572725 0.5172281
3765 -0.22677994 0.97155374 -0.64247686 1.2904804 -0.30596292 -1.6369675 -0.65384096 -0.83917046 0.12804161 0.38351154 -1.291426 1.2405912 -0.015191398 -0.22236201 2.3165433 -1.9284474
1556 -0.13443746 -0.5586705 -1.6520423 1.1149489 1.0873984 -0.5293314 1.9727881 -0.92809886 1.2827922 -1.2435658 0.091405205 4.6315117 -1.556561 -1.2796395 -0.22802982 -1.7209247
1322 1.2174302 0.013098141 0.7092548 2.0807064 -2.5425975 -3.448932 -0.6682892 1.173212 1.6590955 -1.3999771 -0.49962386 1.4269694 -1.579734 0.6697714 -0.41561338 0.6901164
1498 0.4716816 2.0299838 -0.7054235 1.6750731 0.465855 -1.3153031 2.0674188 1.9341471 1.5764465 -0.7997025 0.8005309 1.5527617 1.2154611 0.76838535 1.162832 -1.2433089
4266 0.09874216 0.15941647 -0.64080995 0.72214824 -0.55508363 -1.3836311 0.5875891 -3.242324 0.4029473 -4.1507454 1.7087376 -2.018235 -3.637544 0.7345293 -0.6695779 -2.5149193
4689 0.043187425 0.5229018 0.21789718 -0.35653305 -0.2016787 0.25107816 2.224785 -0.22948773 2.410421 -0.90726227 -1.3074243 0.20790064 -0.83200836 2.0465207 1.1338837 0.47002947
4401 -0.52485204 -0.015006624 -0.69717294 0.6967578 -1.3525312 -1.6707046 -0.23604104 -2.077219 0.58545345 -1.8648254 -1.1143322 -0.47791883 -2.9210603 -0.32609177 -0.33729398 -0.10468492
2823 -0.04564285 -0.4691605 -1.8828429 2.2984147 0.21111286 -1.5762513 1.1300123 -0.26193044 -0.9101296 -1.7863021 0.47690415 -1.2056696 -0.18645582 0.3096617 2.0836194 0.92461365
3033 -0.8279688 -0.3155018 -0.7680328 2.5504813 0.8114438 -1.4312009 0.5962956 -0.82541674 -0.3828491 -1.7824925 1.1435759 -1.01717 0.14996256 -0.024061931 1.6450752 0.037275176
3747 0.42056593 -0.021432279 -0.7395607 1.3415571 -0.973079 -1.6772413 0.80606437 -1.3656723 -0.38711563 0.39370155 -0.54587543 2.4981735 -0.30029848 -0.029010348 3.1928782 -0.80991584
1260 -0.83767986 0.5620182 1.4816592 -0.09886745 -2.6857119 -2.4662828 4.3694234 0.64371204 1.0461694 -3.748464 1.3966916 -0.8495194 -0.3055123 1.8314843 1.2457801 -1.0625241
5234 -0.09463192 1.3113935 0.22379342 -0.6481803 0.6511602 -0.0396179 1.6479621 -0.3969857 2.4371111 -1.004619 0.19247389 0.06556194 -0.5562144 2.683476 1.4194267 0.38674688
812 -2.4473379 -2.7754936 -0.6088417 3.0566823 0.4391292 -0.24977228 1.256356 1.2401237 0.9247743 -1.9548621 -3.3361735 -0.1266826 -0.5390578 2.4647624 -0.43686724 -1.7822547
1223 -0.6019994 0.8000153 1.4057039 -0.010076456 -2.536877 -2.293969 4.5160713 0.73205215 0.77620363 -3.9599342 1.2448874 -0.68348485 -0.21124493 1.4967755 1.1578676 -1.0986624
1343 1.076535 0.08482992 0.98650956 2.317633 -2.1307042 -3.6161962 -0.91910464 1.405354 1.7319964 -1.7650912 -0.1823664 1.4068017 -1.6510655 0.602999 -0.2112633 0.7811353
1475 3.5335035 -0.026626399 -2.3462212 1.4330785 -2.10357 -1.9782189 1.4786956 2.6493392 0.040928025 -1.7047204 1.6117626 1.2067499 1.4668003 2.983144 1.0443962 -2.570715
2060 -0.06702697 -0.47553486 0.23273163 0.8439301 -0.43529096 0.04009855 0.71875185 0.5786523 1.3977203 -3.1639566 -0.6832275 0.4076215 0.6836765 1.1094645 1.3805608 -2.0254297
4661 1.9325542 0.6946244 0.13853733 -0.31963712 1.2536479 -0.32526988 0.19406946 -0.33409482 1.4754303 -1.3720881 -1.2809672 0.016655853 -0.79280853 1.4388399 0.94869477 0.41251904
2602 0.2473323 0.11117527 0.04629679 -0.5489786 0.7692602 -1.6489232 1.6373881 -1.293426 -1.5927538 -0.78689533 -1.4852777 0.43616858 -1.8392516 0.75150865 0.9712509 -0.0024694314
1215 -1.2400273 0.8399891 1.5047789 -0.008775175 -2.5162835 -2.2880576 4.4625664 0.40364486 1.2768489 -3.6033318 1.3052359 -0.9435478 -0.19204885 1.8787915 1.5806509 -0.8605499
1592 1.0780231 0.16778904 -1.1846573 -0.41951045 0.9577696 -0.5127027 1.8301656 -1.3789952 -0.774856 -2.6473627 0.2057092 3.190859 0.67692184 -0.28420535 0.3300727 -2.688601
1500 4.0937867 -0.04412304 -2.624615 1.1815734 -3.1154745 -1.4363086 2.5432901 2.6308212 0.18673135 -2.602898 1.4139171 1.558516 0.9894433 2.9144492 1.1681904 -2.923617
249 0.6771147 3.3006134 0.42619362 0.5338418 1.474803 -2.6785183 1.4193696 0.65785956 -1.0724397 1.5535244 -1.693116 -0.36071536 0.42856848 4.5920844 0.91593426 -3.5450666
3059 -0.18380994 0.9447665 -2.081774 2.8308392 0.63901883 -2.0168993 1.8153636 1.2429528 -1.1565657 -1.6237476 1.0662982 -0.535916 -0.5445581 -0.10219372 2.6004245 0.89193153
5243 2.032965 -0.049741454 0.18458761 0.124165684 0.7733304 -0.13420528 -0.27258778 0.019941023 0.9675524 -1.2066725 -1.0947115 0.7066117 -0.7530879 1.4422733 0.9239282 0.59620845
5276 1.9116352 0.017945372 -0.0070381826 -0.4031982 0.9386968 -0.009254878 -0.0006134227 0.08311459 1.2498757 -1.4143249 -1.0246633 0.31779703 -0.63854784 1.5411264 0.5472355 0.10613053
3254 -0.85747045 0.4443428 -1.7111042 2.2054558 0.078983314 -1.5168583 1.3370126 0.22002245 -1.1063659 -1.8270952 1.295937 -0.18643458 0.33640698 -0.20915158 1.6129591 0.32242396
632 0.4836799 1.4010481 -1.0362014 2.6132922 3.011634 -1.7683456 -0.9317124 -1.8648939 0.30245224 -0.45286328 -0.14965132 -1.967627 0.48799628 2.585195 2.7486074 -2.0653174
1631 1.0651888 0.682234 -0.6534947 -1.006231 -0.006605812 -0.96527004 1.7388686 -1.3611611 -0.8494315 -3.2669964 -0.2248011 3.2824216 0.62513673 -0.27778947 0.5319639 -1.8791729
258 0.6806083 3.072859 0.6029938 0.8106271 1.4604344 -2.92287 1.4555079 0.27350974 -1.2280353 1.6722615 -1.41775 -0.6160174 0.47723082 4.7220907 0.8422945 -3.2427924
649 0.6805634 1.2714057 -1.249733 2.8771594 3.2920911 -1.8298392 -0.9883505 -1.971304 0.4911213 -0.47897696 -0.16969529 -2.1489723 0.48398474 2.8013356 2.8863308 -2.3073506
1408 0.36983374 1.7500504 -0.14927757 1.9661393 0.04988296 -1.1543063 2.2710474 2.1482139 1.8116918 -1.0527647 1.1985823 1.5806079 0.7729586 0.57342464 0.8889193 -1.413243
2918 0.061455224 -0.2574913 -1.8251691 1.1915119 1.5572487 -0.59515643 0.13016945 -0.95343184 0.25334337 -2.3003592 0.0957019 -0.44046035 0.57788146 -0.4614811 1.314176 -0.3736225
1895 -2.1963646 0.53141886 -0.029735794 3.5856256 2.1083128 -0.6124862 0.98739916 1.0511433 0.9324107 -0.8427394 -0.59438694 -0.94246316 -1.0855826 1.808954 -0.06017163 0.33265218
715 -3.110439 -2.4649 -3.5559773 1.8801395 -1.21144 -3.3737142 1.3651597 -0.31697828 -0.27520043 -2.2538924 -1.2557532 0.9132425 -1.2449135 0.28658137 -0.26262304 -2.8824153
408 1.8701274 1.9631339 -0.674305 1.8124708 1.411947 -3.1962082 0.34247455 -0.933894 -0.7497442 -0.96358514 -1.39983 -0.009274086 1.0076485 -1.0324748 -0.7186594 -2.5153613
3168 -0.2553736 -0.45137793 -2.8030264 2.1932957 2.1459675 -0.88979226 0.34432948 -0.5854983 -0.08060655 -2.629793 0.038501292 -0.8249575 1.3292831 0.5564168 1.330311 0.0066743055
1483 1.2239444 1.9310793 -0.94516915 0.68646723 0.6683112 -1.5135938 1.6641272 1.7679191 1.7190744 -1.6708254 0.09108991 0.36588246 0.6423546 0.057502013 1.1722611 -0.50576997
1493 1.753766 0.4865527 -1.1506829 0.49234927 1.1407938 -1.1034192 1.0382909 1.5813155 0.044389248 -1.5763766 1.0930842 1.2991371 0.39763114 0.5782886 0.5854003 -0.8271275
341 0.6008088 -2.4175913 -0.3863041 0.9668035 3.0199294 -1.5035752 1.2234155 0.7867402 -1.023421 -1.4612228 0.1916744 -0.47066715 -0.041321687 3.3700817 0.6431757 -1.0472229
7968 -0.9839762 1.6977503 -1.7824839 -0.17928024 0.1610732 -1.0034409 -0.3227542 -0.55771685 0.061339233 -0.91917264 0.2643413 0.5763897 -0.012594814 0.48729488 -1.255209 -0.77201766
327 1.8647207 -2.6589825 -2.080113 0.384692 1.8033885 -1.8485703 1.7144964 0.9437285 -0.5118875 -1.1980374 -0.05696225 -0.88132924 0.102924965 3.2171178 1.1072211 -0.5508177
941 -0.88434833 1.643378 0.48338604 -0.44303912 0.36383906 -0.22286282 1.9060525 -1.6080725 0.7361148 -3.08803 -1.9192187 0.62075067 1.0860512 0.44995433 0.22421068 -0.17182302
414 2.2027152 2.2152286 -0.3337537 1.5887631 1.5808687 -4.0024257 0.69593734 -1.215142 -0.80905396 -1.0143886 -1.1411244 0.022432828 1.3043998 -0.9160943 -0.5416475 -2.9242265
1617 1.0175395 0.46655098 -1.100196 -0.9558368 0.2413477 -0.55425745 1.7063662 -1.3035979 -0.69769305 -2.7857006 0.22772764 3.4084451 0.7396373 0.1649822 1.0468512 -2.2172313
2931 1.2095866 0.6348805 -1.692495 3.307858 0.3938645 -1.310219 -1.2641327 0.2712914 -0.2806007 -2.4754045 -2.780035 -0.6262491 1.2046741 -0.5491521 0.67739284 -0.5527013
53 0.40169746 0.59846175 1.7479706 2.031538 0.88275987 -1.3346553 -1.543663 -0.34093073 -1.0582299 -1.3091211 -1.0058242 3.1747963 -1.0204015 1.5632087 -0.76533073 -1.2109908
1433 1.2343135 1.2256888 -0.3966946 0.9900433 0.889219 -1.4278759 1.071224 1.6349441 1.1622616 -1.1415932 0.6258016 0.67703056 0.7166962 0.32388738 0.861842 -0.75516284
2845 -0.010554668 0.3161322 -1.9131758 2.6704352 0.54908335 -1.7020844 1.8203977 0.87928575 -1.229327 -1.2029556 1.5849307 -1.2376757 -0.14378887 0.5763047 2.5506086 -0.005063474
2817 1.2725887 0.54091763 -1.7099875 3.37338 0.35708717 -1.1128534 -1.2588869 0.6075778 -0.21514565 -2.3213394 -2.7396863 -0.36836237 1.0620688 -0.5831526 0.60933113 -0.72216743
3495 -0.2760319 0.008128924 -0.7150164 1.2014536 -0.64475465 -1.1307528 0.36622837 -1.5737574 0.4439724 0.78447163 -1.5377465 1.5340316 -0.6892347 0.05576249 2.4789305 -1.384716
220 -1.3737998 0.42135632 -1.3006041 1.1739708 0.9006612 0.45708573 1.7944939 0.60368925 -0.24999808 -0.17150198 -1.3865708 3.872321 -0.40502846 4.234784 -1.7541541 0.4605154
725 -2.458816 -2.2529693 -3.2299852 1.424777 -1.2884226 -3.472396 1.3149676 -0.54724073 0.001773705 -2.2701335 -0.73011243 0.39682022 -0.8434728 0.33436742 0.0749502 -3.0128775
49 0.5153113 0.69429857 2.0258358 1.880038 0.75172246 -1.4339993 -1.3867067 -0.31330648 -1.2945858 -1.6788751 -1.4146081 2.855034 -1.1654221 1.599254 -0.8664707 -1.2329949
1633 -0.2899027 -0.65154296 -1.6686159 1.3841637 0.99486715 -0.014944255 2.525574 -1.08855 1.5348933 -1.2663853 0.29668224 4.195749 -2.2431407 -1.4883983 0.06235404 -2.295157
1533 0.52634525 -0.25063205 -0.5671259 0.38291097 0.6768279 -0.2604533 1.5589422 -0.6459527 0.08223814 -1.396594 0.5517768 3.3308508 -1.1488947 -0.57301056 0.27003103 -2.0371888
7524 -0.28408852 1.3037757 -1.6587306 -0.58207345 0.53582364 -0.9688736 -0.5623644 -0.21869841 -0.26335984 -1.0774175 0.011796326 1.0004295 0.64933735 0.96053994 -0.71322924 -0.5177657
7972 -0.29780826 1.3364493 -2.2508774 -0.9220559 0.319167 -0.39999938 -0.3981546 -0.24377798 -0.4749762 -1.2073873 0.28111494 0.6000866 -1.1396588 1.4306787 -0.042419266 -0.11872667
333 0.36635357 -2.6062946 -0.7126371 1.2826679 3.3980405 -1.9427172 1.0470642 0.8457805 -0.74967605 -1.7118859 -0.32024634 -0.9237809 0.4159398 3.5163162 1.0369925 -1.476061
7042 -1.6462448 0.72583395 -0.05201935 1.6433154 -0.7068915 -0.19162315 0.6027542 -1.2500032 -0.03354429 -0.57877254 -0.32779282 1.1345173 0.86707467 1.6311347 -1.2249172 0.0050478857
221 -1.414032 0.46341014 -1.8842841 0.8814618 1.0255702 0.1517532 1.4482721 0.68983644 0.062638305 -0.3449993 -2.0824635 4.1711583 0.10555467 3.7373009 -1.8143771 0.16350283
9455 0.58776665 1.0210468 -1.9024915 -1.3176222 1.1928079 -0.33275956 -0.28984052 0.6177081 -1.9052932 -0.8022987 -0.2630868 0.9629468 -1.3884156 2.9031796 0.7912361 0.087987185
1610 1.3496901 0.02600004 -0.39406025 -0.8158664 0.54772586 -0.64729947 1.5866276 -1.2669327 -1.3630341 -2.737374 0.3194322 2.4677825 0.0807854 0.0038585986 0.414874 -2.7466757
1588 1.0578365 -0.8935007 -1.0039097 -0.09741133 0.4988923 -0.29583403 1.3643891 -1.1012169 -0.51526487 -1.5226667 -0.030662175 2.4908051 -0.64593726 -0.43275613 0.16034761 -2.099038
602 1.8301015 0.73362976 -0.7081286 3.4476159 -1.4492391 2.2084203 4.3669233 -1.0387062 0.31441444 1.3970838 -2.913395 -0.4215821 -3.1996696 0.7223099 0.87126356 -2.677942
686 -0.14928122 -2.679817 1.1862911 2.0383704 -0.3043862 -2.2460103 2.4675062 -1.396703 -0.40961412 -0.15524259 0.9434345 3.0626001 0.010493108 2.552925 0.78691995 -0.814037
1358 1.1269206 -0.6727497 0.016258726 1.7455755 -1.5401295 -2.8289201 -0.6862383 1.3968778 0.036510702 -1.4369782 -0.7315244 0.694112 -0.35020286 0.44467586 0.052883588 -0.16297899
1462 2.279623 0.7449892 -1.3899795 0.54709095 1.5341634 -1.4360545 0.57584214 1.9977192 -0.4403507 -1.762166 0.8627061 1.480917 0.17622408 0.6900014 0.9633651 -1.162884
4628 1.5421617 -0.66333073 -0.24936959 0.29127634 1.2657844 0.28368822 -0.13203335 0.14828745 1.3655179 -1.1182963 -0.95808655 0.46515208 -0.588874 1.3863837 0.92781615 0.11078422
626 1.9649025 0.16946666 -0.60827273 3.276831 -1.2475784 2.140806 4.307346 -1.0490896 0.28096434 1.3989568 -2.699615 -0.615423 -3.1340709 1.0630507 0.9438839 -2.4942236
2035 -0.015264294 -0.5413184 -0.06451478 0.44994247 -0.5190225 -0.12021405 -0.19767407 0.97025776 1.4420748 -3.7767522 -0.23876892 0.60175437 0.13363793 1.7121512 1.9701008 -2.4315379
3657 -0.018975558 0.17946646 -0.57728857 0.96132404 -0.25792632 -0.73537767 0.1511775 -0.84241754 0.07983787 0.18869938 -0.93062973 1.264309 -0.25203884 -0.17889515 2.3076684 -1.6472433
768 -2.5971718 -2.5922189 -0.43647292 2.4525442 -0.08547443 -0.3101107 1.7584908 1.3453844 1.3444325 -1.810717 -2.8897774 -0.24280247 -0.75673467 2.9614234 -0.42790532 -1.7058767
50 0.7882916 0.840789 1.7943274 2.4798577 1.0855554 -1.7964417 -1.8619717 -0.7499506 -1.4829468 -1.6440039 -1.3782022 3.2524652 -1.0200675 1.5227345 -1.1957558 -1.3730226
6560 -0.80524904 0.0453956 -0.098702595 1.8610933 -0.46447912 0.40052262 0.27642125 -1.7189938 -0.17005911 -1.3108492 -0.7036309 0.78952706 0.7433593 1.8056328 -1.8120176 -0.06262997
1081 -0.59886026 -0.996324 0.59060794 0.43544152 1.7765832 -2.26929 0.071098566 -2.3645418 0.5103788 -0.81821865 -0.59417754 -0.53363514 -0.6876717 1.0482316 0.12660405 -1.7872173
866 -1.4430269 -0.94000006 0.89240336 -0.83184594 -1.0049345 -2.9803843 -0.6137026 -2.843932 -1.50608 -2.3738976 0.6459611 2.6371753 -0.8382903 3.215225 -0.7276253 -2.665154
608 1.9376681 0.5622945 -0.7499422 3.6700492 -1.1252846 2.1737254 4.2695265 -1.5122513 0.37606618 1.6145848 -2.8668277 -0.6540548 -3.2440064 0.7138824 0.944567 -2.6231093
1425 1.3993974 1.8282499 -0.8941811 0.778659 1.1415023 -2.2880967 1.6631558 1.6485692 2.2422426 -1.4259712 0.4721677 0.49644017 0.9059876 0.1776493 1.3854783 -0.7341911
1205 -0.818538 1.353896 1.5110638 0.29254156 -1.504947 -1.8968695 3.799467 0.4407358 0.30754405 -3.4458168 1.0130968 -0.60666794 0.26048025 1.2390106 1.0083019 -1.2805163
321 1.9232169 -2.8320456 -2.3745663 0.3395892 1.6027312 -2.465549 1.5259604 1.1094157 -0.379323 -1.4309081 -0.4208726 -0.9363786 0.48391083 3.2159748 1.0183456 -1.1136274
995 -0.63176316 2.2810495 0.3105831 -0.2587522 0.7649303 -0.20979813 1.9994946 -1.8239577 0.22851792 -2.900726 -2.5272248 0.82959807 1.222209 0.43658775 -0.02174264 -0.07579065
1995 -0.57654375 0.020716889 -0.2973972 0.79862314 -0.4450282 0.2656392 0.3812441 0.4630793 0.8305073 -3.5740745 -0.85626656 1.0707474 1.0613893 0.9741639 1.4509342 -1.5076162
745 -2.408031 -2.8087647 -3.8535836 1.8458256 -0.8275377 -3.6050332 1.1076514 -0.28024966 -0.61764324 -2.4899812 -1.4062735 0.89913744 -0.7772286 0.2344207 -0.09959009 -3.3815646
1375 1.6700803 -0.44618917 0.9248977 2.411168 -1.9436061 -3.104683 -0.94302535 1.105459 0.724636 -1.2636135 -0.5584008 1.2763786 -1.0363057 0.57168925 -0.64014953 -0.48651773
216 -1.2157493 0.2578929 -2.0578518 1.3661586 1.6242375 0.49436808 1.3163497 0.41042608 0.060714975 -0.57745546 -2.0925863 4.4965076 -0.109776646 3.901043 -2.0941164 0.04718141
835 -1.680031 -0.8734947 1.2490951 -0.79340076 -0.67997146 -2.9696977 -0.68032473 -3.0647259 -1.4087933 -2.2795446 0.89757377 2.9226696 -0.9641205 3.2760966 -0.755145 -2.828209
1926 0.5026524 -1.0954112 -0.25536725 -0.35342565 0.63063985 -0.9076943 0.0313189 1.2277951 1.4280735 -3.4583762 -1.7179283 0.57513225 -0.5053292 0.5018192 1.0189285 -1.0349782
1273 2.665037 -1.0572956 0.28544363 2.7357864 -1.3143249 -3.0902793 -1.1249425 1.453563 0.09487388 -1.7624233 -0.68572 1.1472663 -1.1297781 0.52726394 -0.18024649 -0.48664778
1447 1.8125899 0.7837109 -0.9153334 1.4935024 -0.3380267 -1.743549 1.112797 2.400299 -0.17279774 -1.7957602 0.7133516 1.4220983 1.2930084 1.0528249 0.18100946 -1.5993408
114 1.1318873 3.1261284 1.8658661 0.8880523 -2.9579797 -2.1014743 2.835692 0.64764196 -0.57235557 -1.8001817 -1.1550931 -0.2525861 -0.8018183 2.6976593 0.21751097 -1.7176301
938 1.4204 0.35647288 -0.6477952 0.9814048 -1.1768521 -2.7589557 1.591455 0.37240687 -1.2269948 -0.68201846 0.5513364 0.21603689 -0.16358775 2.3396924 1.7693847 1.4992583
7839 1.1529588 0.70681345 -2.1813548 -1.5988666 1.7979772 -0.6704731 1.0422384 0.1297217 -1.1300281 0.28139108 -0.01401158 1.5798167 -0.94573665 3.0619423 1.0017614 -0.53819287
969 -0.12741561 2.142341 0.7401259 -1.4414766 0.92296845 -0.1374856 2.7991042 -2.503234 0.6861941 -3.2439947 -2.1689527 0.7725979 1.5191307 1.751962 0.2201104 -1.0342634
1636 1.5182648 0.2106727 -0.30596617 -0.41297153 0.79914474 -0.28088292 1.5467111 -1.0402961 -1.6751786 -3.3937483 0.32056174 2.6751702 -0.092576556 -0.14885591 0.93718374 -2.8609626
210 -1.1962303 -1.4064401 -1.7704957 -0.041222375 0.31181234 -0.5809293 1.0621814 -1.3093969 2.1938488 0.56044376 -1.3217449 1.4657601 0.7680983 4.388159 0.6562418 -1.6162789
827 0.85696614 0.11622125 0.6559865 -0.16640712 0.06357354 -1.9545383 -1.4272655 -3.9354367 -1.7039 -1.8792936 -0.7207036 0.79889303 0.39332294 3.2674866 -1.6063879 -2.3183763
6 0.23738873 2.3704014 0.9551228 0.34885484 0.23371127 -2.5377557 0.64641994 -0.036469206 -0.960931 -1.3710926 -1.6856592 -3.0461736 0.5030448 3.2204645 2.2483788 -4.9526143
120 0.8111199 2.8721995 2.1257849 0.80334747 -3.0900538 -2.0997705 3.1556067 0.3783889 0.082788974 -2.0369916 -0.81892794 -0.13443197 -1.0505861 2.5945778 0.25216088 -0.9462012
829 0.33773375 0.20034279 0.46474722 -0.3231736 0.033414796 -2.138642 -1.4506544 -3.729952 -2.0110173 -2.142904 -0.49951744 0.8412462 0.4854942 3.0974767 -1.3149658 -2.1424115
2344 2.0794685 -1.5211638 -2.2907388 1.9482014 0.59002686 -1.9097669 1.5297012 -0.4958 1.2650889 0.5879966 -1.0867862 -1.7679809 0.32330814 1.2488033 -0.08852754 -2.1603699
63 0.22546338 0.99708647 1.5831847 1.9016033 0.9192853 -1.5398854 -1.4875817 -0.3764857 -1.0772939 -1.5737716 -1.3960146 3.0338452 -1.3143028 1.2203882 -0.89711905 -0.9382891
666 -0.11966976 -2.619905 1.5921144 1.762961 0.052584194 -2.2655787 2.4677572 -1.551203 -0.20337114 -0.25836462 1.3924328 2.9454768 -0.55214095 2.9291031 0.76665574 -0.4170916
6402 -0.029337404 1.4362166 -1.3665634 2.482193 -2.3786514 -0.044711567 -1.4882358 -0.03732614 -1.2475288 -0.5125771 -1.5820591 -0.5244969 1.0396116 2.3081439 -0.122852646 -1.5282598
2310 1.7799997 -0.8663026 -0.15868734 1.1712304 0.8867508 -2.51321 1.3729517 -1.2770795 1.0403004 0.12009483 0.49606445 0.41265002 -0.054750774 0.9526768 -1.3768437 -0.29987192
881 1.305514 0.34251663 -0.43174484 0.60691565 -1.2994957 -2.5716252 1.496832 -0.023352258 -1.057864 -1.0134424 0.22466366 0.36728567 -0.5129465 2.50513 1.8052367 1.9956713
322 1.0681409 -1.0333747 -0.4528412 0.51082706 1.5381871 -1.0000638 0.5419988 0.26137966 -0.60760903 -0.60612524 -0.6114879 -0.5999759 0.26266915 1.5852082 0.18796153 -0.585704
2115 -0.80005467 0.35789874 -0.41109163 1.1058353 -0.49203998 0.09982574 0.5721252 0.64335126 1.3233885 -5.026648 -0.38415307 0.53624386 1.2787377 1.2063204 1.096347 -1.6557336
1428 1.5374258 0.38784197 -1.027813 0.81438285 -0.25341263 -1.3671792 1.016344 2.127999 -0.19469954 -1.3424644 0.8799323 1.1933495 0.53156406 0.78650546 0.114416376 -1.4986676
2826 0.09985297 0.2483887 -1.3954971 1.8942267 1.3339014 -0.9597214 -0.4435215 -1.0755448 0.80970347 -2.2653942 -1.1804634 -0.7574738 0.91178274 -0.6012167 0.5677965 0.24021162
331 1.6133102 -1.5199265 -0.73912746 0.51345724 1.8312092 -1.6844741 0.88686144 0.8294222 -0.7860008 -0.59194434 -0.4871798 -0.519023 -0.0017028451 2.7545996 0.630508 -0.3871769
2181 2.0171509 -1.6280094 -2.5383453 1.8327308 0.069401726 -2.0211706 1.3331499 -0.574362 1.2462534 0.6221134 -1.2966063 -1.7213109 0.3851013 1.3349184 0.06416344 -2.1375823
2329 1.6555924 -0.89455104 -0.13812916 1.0213742 0.28360158 -2.798209 2.0328944 -0.838435 0.5366193 -0.22807008 0.4353923 0.6713075 0.7511218 1.2704198 -1.3547876 0.068111174
7753 0.5381435 1.7158101 -1.6690483 -0.7211352 0.4608907 -1.2011435 -0.43627176 -0.22176006 -0.31249762 -0.4352675 -0.47662127 0.4298705 0.95246625 1.9841862 -0.7953138 -0.59924287
878 2.1544945 0.9816416 -1.4039153 0.74633986 -0.7131597 -2.262332 0.7548542 -0.055891182 -2.1138737 -2.3401313 -1.2474219 -0.61139923 0.11371722 2.0622885 1.3742712 2.1059613
7493 0.63026 0.59970945 -2.1157448 -1.4665222 1.3324453 -0.68386227 1.0790714 0.36411044 -0.97958785 0.1688461 0.20072328 1.5099746 -1.2072413 2.720743 0.85862803 -0.24698605
984 -0.40378767 1.8724431 0.6849306 -1.0624233 -0.15037096 -0.07393037 3.3125794 -2.6170468 0.4696463 -3.2456005 -2.032394 1.0995275 1.2318954 1.3348327 0.355537 -0.4812765
3323 0.02348485 0.8460191 0.021570705 1.5785502 0.7069257 -1.2167627 -0.5445654 -0.4731259 0.9101293 0.61128896 0.030529594 1.1434692 -0.5856976 -0.049566016 2.066847 -2.865575
204 -1.5909624 -1.5388403 -1.899503 0.06595577 -0.26161438 -0.78048193 1.2900856 -0.9375012 2.494534 0.50812113 -1.1012745 1.6983384 0.63610387 4.7091823 1.1403949 -0.95202297
2079 0.59433347 -0.039537206 -0.23396017 1.5392185 -0.73744655 0.41002414 0.7110406 0.3742118 1.3944541 -3.854816 -1.1034169 0.49965435 0.77567667 0.41739574 0.77425593 -2.4295917
1062 -1.1883717 -0.8427523 0.9680935 0.47565198 1.510603 -2.0910747 -0.29093012 -1.9670753 0.50247085 -1.1662654 -0.5148707 -0.09672338 -0.5358298 1.1290197 0.3126724 -1.5720414
1583 1.0758613 -0.8215705 -0.39769715 -0.05022407 0.43998572 0.37871465 1.9170918 -0.73472804 -1.034063 -2.7320185 0.0012540037 2.3980415 -0.9421887 -0.06135553 0.4569431 -2.966616
1287 1.9611945 -1.2470747 0.26373163 2.0620704 -1.2452277 -2.6619296 -0.6730632 1.3726097 -0.60821545 -2.0568554 -0.5900345 1.3727132 -0.9253533 0.7547692 -0.33633175 -0.39849564
241 2.511782 2.3770785 2.7862313 0.17064767 2.8243706 -3.466988 1.095791 0.07064085 -2.3960915 -0.19771078 -2.252927 1.5678457 -2.4128687 2.7320423 0.66575295 -2.9263432
1 0.011462485 2.3602304 0.73085916 0.69342023 -0.08269647 -2.3594441 0.56912297 -0.11164671 -1.0773085 -1.2400221 -1.8805056 -2.9467986 0.6222286 3.1944208 2.4001324 -5.099453
1339 0.74406725 -0.7049706 0.5795708 2.4969802 -2.1267545 -3.433196 -0.62320375 1.2096806 1.2648239 -2.154329 -0.29559323 1.118041 -1.3243161 0.51772064 -0.2697098 0.82135504
1868 -1.8243028 1.4137245 -0.6400426 2.3827188 0.69447494 -1.1189965 0.20459476 1.8581775 1.0258462 -0.5471255 -1.2287346 -0.43265322 -1.3871856 1.9655694 -0.1982565 0.53559375
2332 1.5566161 -1.0619972 -0.7064066 1.1511858 0.41368577 -2.2822173 2.060137 -1.720904 0.38007924 -0.33608323 -0.35870722 0.29482108 1.0448034 1.1008223 -0.9339894 0.40255088
1267 1.4471248 -0.9672289 0.04928813 2.0864453 -1.0895377 -2.4413593 -0.26653108 1.2375814 -0.47493243 -1.4951695 -0.23744759 0.87013906 -0.85943294 0.27437565 -0.22822025 -0.08269887
574 0.94554484 2.1899207 1.2916074 0.9222871 -0.6036735 -4.009189 -0.19610684 -1.9155974 1.5197054 -1.7410307 -2.8861163 -1.879715 0.34890863 1.394697 -1.5726314 -0.57712114
770 -1.9376445 -2.2762687 -1.119443 2.049593 0.42369345 -0.45762157 1.2504313 1.7451555 0.20175377 -1.7432904 -2.553961 0.3115115 -0.024268098 3.112071 -1.1811159 -2.5043533
492 0.9075792 1.581507 -1.2522572 2.6969366 0.6021255 1.2382824 1.6352011 0.978407 -0.7285755 -0.70404786 0.24106082 0.6010382 -1.5241759 2.4583678 -2.0404522 -0.4471084
68 0.75334525 0.9446127 1.5821334 2.4554164 0.4045049 -1.4268743 -1.4740671 0.027797682 -2.0308554 -1.1880174 -1.5872306 3.5459013 -1.4831382 1.825226 -0.30875543 -1.5707983
1218 -1.3792505 2.602912 0.3510255 2.8482277 1.9570827 -0.373466 3.950408 1.0609487 -0.7876971 -2.3472795 -0.2997987 -0.8947536 0.5013556 1.3297404 -1.2157582 -2.037111
982 -0.8484977 2.1375654 0.25514203 -0.34662056 -0.024720391 -0.12721583 2.6884258 -1.7138991 0.27764657 -2.5846062 -2.296404 0.5381011 1.0114468 0.5469628 0.15188791 -0.2528403
1831 -1.231481 0.6548996 0.022007447 2.5749564 1.4837371 -1.1638719 1.0346702 1.4891645 0.31749207 0.04471041 -1.1676193 0.039118465 -0.97093546 1.0168817 -0.5386469 -0.09229028
2058 -0.34947616 -1.3104731 -0.4184485 -0.6943357 -0.7594625 -0.9654032 -0.5082575 0.85142905 1.3535599 -3.1870773 -1.2568287 0.19665 -0.6415194 2.1367364 2.1123855 -0.9494485
1216 -1.3369172 2.5555987 0.46653995 2.7838612 2.0496044 -0.48254484 3.7053638 1.1064574 -0.7465593 -2.3379045 -0.32594824 -0.8221063 0.39602628 1.1249441 -1.2268978 -2.064703
7983 -0.33055037 1.631189 -1.9201262 -0.44596964 0.50766164 -1.0326 -0.72731376 -0.3681495 0.06674737 -0.9655006 -0.38619867 0.7175972 0.34136555 0.7382406 -0.95419157 -0.82736176
1518 1.5575422 0.9748881 -0.45307344 1.1098125 0.6970492 -1.597205 1.4048916 1.7560327 0.929828 -2.3200116 0.9578123 1.0591142 1.2779094 0.3820736 0.3114886 -1.2091763
1308 0.54503953 0.032775793 0.5896914 3.2661006 -0.5158454 -3.115398 -0.71699435 1.1592387 -0.22049165 -2.1709023 -0.6425107 2.183266 -1.0813909 0.26657575 -0.02882025 1.3310577
514 1.4558702 1.9232521 -2.64213 0.71515286 0.3584928 0.6854556 0.007921372 1.8834796 1.6553739 -1.8087301 -1.0256753 0.11268838 -0.9005433 1.3262597 -0.527601 -3.17213
1981 0.8447325 0.82468975 0.7693295 1.5007957 -0.9431611 0.449795 0.12625466 0.1030306 1.7048137 -3.3202245 -0.26283935 -0.7907015 0.9675219 1.9367094 1.9259335 -2.3697932
1286 2.6526847 -1.538469 -0.34804302 2.048125 -1.1525258 -2.847504 -0.58659273 1.5205368 0.18835863 -1.3485873 -0.47423124 0.8106754 -0.96437275 0.5373491 0.09978612 -0.4267773
1152 0.6433739 2.154387 0.36592722 2.2457101 0.7260934 0.45233372 1.4035674 -1.2167603 -1.8727582 -2.201836 -0.6606827 0.46696606 -0.34554803 0.7296402 1.3614994 -0.23941132
131 -1.1576409 1.4994208 -0.0022865604 1.9974349 0.11329638 -4.1212063 1.9841255 -1.4888654 -0.6540136 -2.7629485 0.06307517 0.66712034 -0.85336965 0.83901495 -1.1553414 2.4880123
1279 0.61621034 0.1525322 0.46038476 3.1819186 -0.29570192 -2.941339 -0.56965774 1.2438972 -0.061526604 -1.9908241 -0.34504476 2.1138387 -0.95761716 0.071173765 -0.18461202 1.1643739
913 2.2403436 1.1018854 -1.118348 0.6219204 -0.24717978 -2.203425 0.60132134 -0.33660677 -2.381856 -2.4192047 -0.9206412 -0.5987708 0.16321316 2.652721 1.8062803 2.0458815
257 1.9325247 1.8437389 3.0387928 0.082002364 2.8267598 -3.4250684 1.1605344 -0.5435334 -1.9492718 -0.34153038 -1.9043908 1.0353187 -1.9886862 2.6747491 0.43313864 -3.3120358
7282 -1.6941259 0.52302504 -0.13090587 2.7165468 -0.46144265 0.82381386 1.1560856 -1.47031 -0.9009733 -1.0245771 0.15816146 0.8691727 0.7909827 2.3490396 -1.377594 -0.31715477
8166 -1.0688605 2.1719778 -1.7938462 -0.512026 0.8583724 -1.8289591 -0.23912624 -0.4114912 -0.07051647 -1.1308515 0.18434604 0.7084756 0.3840679 0.97485864 -1.1625366 -0.47667834
560 -1.8358191 -0.605502 2.4371784 1.5349123 1.8404317 -4.202096 1.8401213 -2.8519638 -0.19766375 -1.708933 -0.6940191 0.16763698 -1.2247287 2.7812755 -3.6603377 -1.0821512
570 1.1688999 1.711751 0.9372238 0.53468376 -0.41053602 -4.1802573 -0.42687118 -1.8694518 1.5839248 -2.3559973 -3.0048583 -2.0007257 0.58640593 1.4219204 -1.2161583 -0.89058805
1798 -0.6861041 1.3789954 -0.17106757 1.9913313 0.29978183 -1.255715 1.6547382 2.1923811 0.63966244 -0.33155233 0.37912828 0.598891 -1.649559 0.8441695 -0.8844569 -0.5710343
1291 0.9700142 -0.075428665 0.96067536 2.1263614 -2.1836817 -3.095845 -0.85324407 1.1232603 1.4068623 -1.329857 -0.16745123 1.4958806 -1.4927423 0.8548932 -0.3477455 0.59848076
496 1.6805936 2.1774497 -1.119979 2.5645669 -0.078017935 1.280417 0.91938776 1.6267607 -1.5948898 0.027071254 -0.74672794 -0.45732036 -1.405437 4.246867 -1.4719955 -0.9677937
179 -0.36044347 -1.419445 2.0121536 3.689901 1.6081846 -0.6769821 3.6570764 -2.5796669 1.0219584 0.32892072 -0.70594907 -0.28391474 -2.8586006 1.6513493 -1.2791394 -2.954753
805 -2.6592965 -2.0584424 -0.9568276 2.208461 0.6164074 -0.4838394 1.1587846 1.0037851 0.6173638 -1.9453816 -4.039388 0.3228178 0.41753533 2.6495283 -0.63724357 -1.2467992
6023 -1.7677765 0.49370092 -0.35636276 2.768383 -0.19413939 0.70015776 0.65871257 -1.5469127 -1.6104233 -0.8684556 -0.7901992 1.2952099 0.877525 2.29739 -1.5194637 -0.6753893
1751 -1.2648678 0.2268559 -1.0102054 3.3160322 2.7687669 0.49064314 -0.06458615 0.9304895 2.2241464 -1.7689767 -0.21374881 -2.7306015 -0.8094461 3.542445 0.16348428 -0.34208122
1962 1.1731046 -2.1286016 -0.19963922 0.10567118 0.37105742 -0.37665346 -0.035896875 1.0811064 0.42040086 -5.4016232 -1.7638923 2.1532958 -1.178164 0.96566737 1.8831413 -1.6061475
673 -0.5830114 -1.1088457 1.116395 1.8164489 -0.41012645 -1.9549253 4.762545 -1.1328766 2.177095 -0.22036472 0.8656099 3.7795284 -0.82360727 0.38627502 -0.888443 -2.744331
547 -1.6439688 -0.3541738 2.5295954 1.4390578 2.25579 -4.7774935 1.7951778 -3.1633794 -0.56423247 -1.5957091 -1.2909251 0.3394872 -1.1462654 2.9652927 -3.7930448 -1.143763
171 -0.5916694 -1.4805158 2.2035055 4.056916 1.6214211 -0.6403051 3.6673305 -2.9745057 0.82632095 0.09152767 -0.34055725 -0.31615904 -3.029058 1.819558 -1.2889596 -2.783765
134 -1.092678 1.8624197 -0.19834372 2.3503232 -0.005229765 -4.3631034 1.7775283 -1.7991205 -1.365273 -2.985485 -0.29234794 0.5302441 -0.5119869 0.45241424 -1.4271924 2.1111279
325 1.646823 -1.2896218 -0.74313843 0.84632593 1.3723947 -1.7241099 0.7128327 0.9121409 -0.93490535 -0.62556356 -0.61463577 -0.8503238 0.28904557 2.4789114 0.78232735 -0.58645064
1349 0.6859073 0.100275785 0.4182293 3.7351832 -0.4687637 -3.7845144 -1.0850079 1.2886226 -0.29348767 -2.3205962 -0.6482379 2.437963 -0.785023 0.17495954 -0.18884231 0.97836465
499 0.76583177 2.108818 -1.2201222 2.9774115 0.8077402 0.9071501 1.6092595 1.2791848 -1.1158415 -0.94487405 -0.39056772 1.023767 -1.2418128 2.287418 -2.369036 -0.64361453
1783 -1.9009116 0.88665175 -0.6425622 1.4663568 -0.3382275 -0.9836155 -0.555792 2.302388 0.32594597 -0.570558 -0.48071635 -0.19663899 -1.8712168 2.9084291 0.05268963 0.067415714
1002 -1.4514738 0.8424669 1.0672576 0.7558226 0.81592995 -0.09917771 1.3752781 -1.091309 0.8086047 -2.7281885 -2.3526993 -0.98142076 0.5073747 0.9072722 0.3614167 -1.8346517
870 -0.98733497 -0.17384349 0.57015795 -0.9041781 -0.60588616 -2.6165013 -0.9174035 -3.0111961 -1.5280082 -1.9199123 -0.26680908 1.7944487 -0.68522376 2.6795542 -0.96401876 -1.162584
677 -0.44887725 -1.0236719 1.0534965 1.8132627 -0.022667468 -2.111024 4.7739034 -1.1451536 2.198133 -0.22691776 0.88328743 3.8576627 -0.5000251 0.20745268 -1.2594445 -2.7106168
1800 -0.7811009 0.42976478 -1.1766287 1.4608071 0.033240743 -1.6435081 0.20573458 2.451314 0.7167488 -0.2879974 -1.0125159 -0.54809165 -1.3161117 2.0296211 -0.8259914 -0.18170732
59 0.44841883 0.048921533 1.4518329 1.5063558 1.0562027 -1.3598678 -1.4944868 -0.6039744 -1.0700915 -1.7126487 -1.3599074 2.447888 -0.7118276 1.1453494 -0.4777477 -0.73508954
548 -2.096877 0.3284748 2.6230628 0.9797826 1.2486453 -3.4716074 0.86098266 -2.376773 -0.621809 -0.8630311 0.1018908 -0.31035015 -0.014003852 4.1262336 -1.1680006 -1.4492182
1168 -0.52080476 1.9662507 0.78069603 2.3524394 -0.72687566 0.5473487 2.8924034 -1.7974763 -1.1230042 -1.4961634 -0.47481126 -0.26006588 -0.29963326 0.9222776 1.6822827 -0.4501198
237 0.40501446 1.5979809 2.634901 1.2930667 2.4873273 -2.5214128 2.5899599 -0.8916735 -0.31727058 1.8174549 -0.83132046 2.2199328 -2.2071903 2.7624073 1.116216 -1.2601907
1298 0.27195102 0.19829229 0.17153357 3.3704329 0.20039365 -3.4375327 -0.6128523 0.6302135 0.1295541 -2.5061507 -1.3179319 1.9480284 -0.7419362 -0.37675792 -0.041623477 1.751319
6068 -0.26493037 0.42347446 -0.20389481 2.493061 -0.75313175 0.54254 0.8402621 -1.1031213 -0.55731463 0.0579587 -0.96362746 0.6154976 0.62665594 1.6328009 -0.3527515 0.16022459
966 -1.7652655 0.7687212 0.5160098 1.128917 -0.03453503 0.44963333 1.826215 -1.3254027 0.50123 -1.6099124 -1.9561998 -0.16744412 0.6312756 0.8313887 0.5656049 -1.4520214
233 1.3912286 1.8362666 1.6546522 0.23022147 1.7670432 -2.069064 1.5721824 0.25156894 -0.91169584 0.71493894 -1.0891027 0.7549668 -1.4650217 1.6373123 0.8608115 -1.1081471
1865 -0.7920317 0.6250368 -0.25502416 1.6713532 0.0030865343 -1.1615472 0.8799582 2.5920563 -0.27570036 -0.39893487 0.047570225 0.2691088 -1.9842159 2.028224 -0.54172236 -0.21438178
234 -0.46149394 0.8025873 3.0419009 2.6254354 3.0212498 -3.3507998 3.491675 -0.6083509 1.1755437 2.1202304 -1.3405704 3.0000556 -2.3333108 2.6944811 0.6978886 -1.3322387
1499 0.37170404 2.3923416 -0.4940631 1.6578038 0.32789072 -1.7667475 2.4766917 2.407892 1.8386917 -1.405307 0.8127078 0.40708038 0.61380833 0.46763432 1.6718119 -0.809808
518 1.599786 2.0725522 -2.9654055 0.7052191 0.40004995 0.64385384 -0.15666585 1.9276221 1.4025062 -2.3088973 -1.8634878 0.20848055 -0.43481138 1.5407423 -0.8215369 -3.3823726
699 0.24737842 -0.8714075 0.36542878 1.4730536 -0.69317895 -1.013989 2.5095441 -0.6317654 0.18121989 0.22162941 0.34185266 2.5091436 -0.48158345 0.89639705 0.57624155 0.033631463
1465 1.3972567 1.5379483 -0.72986686 0.40567023 0.7712804 -0.9940059 1.0967499 1.3020234 1.2325109 -1.2803762 0.56163716 0.46322322 0.6731004 0.40955642 1.0084926 -0.62398213
1651 -0.017691113 -0.7600836 -1.2384531 0.6274615 0.49749488 -0.9231187 1.7743695 -0.7172962 1.0334555 -1.2111568 -0.1892219 4.1062694 -1.3636471 -1.3149995 -0.04614383 -1.8387492
1827 -0.09231013 0.8021735 -0.41617745 1.8434551 0.42229128 -1.0938878 1.0878338 3.210956 -0.15616344 -0.15424728 -0.13274182 0.45729724 -2.3621542 2.3506021 -0.9276473 -0.9996111
240 -0.4758614 0.9191819 3.291718 2.4106138 2.8690565 -3.1590676 3.3050692 -0.60043895 1.2458959 1.9504755 -1.7819686 2.9248564 -3.003418 2.8572664 0.89696825 -1.140802
731 -2.6031501 -2.3006828 -3.1324568 1.913828 -1.1272348 -3.3384106 0.7121466 -0.3395505 -1.1161927 -1.7868268 -1.3053057 0.32547757 -0.991206 0.7259129 -0.067071825 -3.342389
206 -0.927855 -1.2826799 -1.535124 0.12718736 -0.026161734 -0.22029783 1.4723976 -0.8899637 1.9313227 0.8611891 -1.205758 1.0305367 0.1239454 3.578269 0.36956117 -1.6233726
12 0.9221942 2.6402223 0.35014814 -0.8433255 0.054968793 -1.6880007 2.6592796 -0.9508944 0.052864257 -0.30177012 -0.24773882 -2.0496862 0.35630003 3.209945 2.1352339 -2.206505
896 1.4810201 0.08291277 -1.0006016 0.49272686 -0.6620209 -2.2543955 0.8752924 0.46068048 -0.8219719 -1.7536137 -0.029295124 -0.19648917 -0.3190517 1.2380538 1.6704432 1.5109181
1851 -0.66038895 0.48684835 -0.8284177 1.9087356 -0.033572163 -1.5974926 -0.43909326 2.155066 0.84063774 -0.4302061 -0.21497984 -0.20926508 -1.5006453 2.1036673 -1.3815457 -0.6460281
512 1.8106283 2.146276 -2.528044 0.89565885 0.79528475 0.5016433 -0.6605541 1.8523073 1.2981708 -2.0755966 -1.6568648 0.4911068 -0.66460574 1.5795652 -0.52004045 -3.210017
1101 -0.7188496 2.5171807 0.7024333 2.629125 -0.5778305 0.42178208 3.1501596 -2.1270301 -0.8275558 -1.6574287 -0.264914 -0.14959446 -0.25273547 0.7323107 1.6418978 -0.1996649
187 -0.35695523 -1.9577998 0.19014655 1.9441928 0.94604194 -0.775659 3.7567835 -1.7719173 0.80827785 0.29988864 -3.0519874 -2.1760855 0.17516619 1.7394179 1.4611557 -3.8503408
1011 -1.827249 0.86759335 0.9303593 1.4149954 0.5470097 0.17136966 1.7236843 -1.57313 0.6997196 -1.7873577 -2.0239556 -0.357105 0.7293183 0.8548959 0.6165365 -1.7241441
1753 -1.3496413 1.301228 -0.2670336 2.2895617 0.21676148 -1.176383 1.3320212 2.5970342 -0.08425046 -0.47127247 0.4630102 -0.7269857 -2.3768086 2.6983588 -0.66574717 -0.69495314
5065 1.4098616 -0.7145013 0.291253 0.29198232 0.925049 0.30971822 -0.24189585 0.23792988 0.8051912 -0.9508599 -0.89473635 0.7717337 -0.80356926 1.7407291 0.5531985 0.14863719
3416 2.136527 -0.2904123 0.043195978 1.3317956 -1.0599359 -1.699006 1.0624547 -0.16266681 -1.0490129 1.3189075 -0.6921995 1.4906335 -1.2472222 0.36606976 1.8023493 -1.0025983
1994 0.4966047 -0.3333635 -0.6552267 -0.35019773 -0.6760237 -0.012989645 -0.37981102 1.0693182 2.0775316 -3.1784194 -0.5039437 0.7456994 -0.71908945 1.4716526 1.7813911 -2.2907953
253 0.29279882 1.9951483 0.37890455 0.34433293 1.2260007 -1.9512153 2.7179756 1.2475907 -0.48129356 1.0773733 -1.4029562 0.48921096 -0.8052358 2.6377392 -0.4696828 -2.2230322
679 0.108336315 -0.99645156 0.6766206 1.6415348 -0.41768402 -1.1596098 2.4526803 -0.8520475 0.18574691 0.28047583 0.8454032 2.8703828 -0.5614341 1.1748374 0.5727246 -0.40544954
2122 1.357438 -2.3953507 0.055704653 0.15490943 0.6450101 -0.23437378 0.18586013 0.906827 0.30228367 -4.915335 -1.2095175 1.8432395 -1.6397566 0.7883873 1.2477336 -1.306904
871 -1.0159576 -0.41526166 0.8277534 -0.53473413 -0.4485859 -2.3033702 -0.9502687 -2.639719 -1.2692896 -1.5214882 0.08087733 2.0472176 -0.81964093 2.4214773 -1.3396618 -2.6041315
1673 0.98314124 -0.6600924 -0.3340618 0.10011919 0.6230067 0.039812054 1.792381 -0.7926 -0.6251434 -3.2716603 0.15643027 2.4454126 -0.9162032 -0.64468753 0.43400878 -3.0913172
1836 -1.2484758 2.0519962 -0.46814275 2.0246286 -0.39244172 -1.5237808 0.8786196 3.227174 0.44505522 -1.2480752 -0.5254329 0.21769454 -3.434518 2.858771 -0.9637825 0.41515103
7664 0.69054955 1.9486294 -1.9564633 -0.7689034 0.9297684 -1.4067967 -0.40876627 -0.64479905 -0.81152844 -0.553834 -0.5473011 0.71467555 1.4199831 2.1484058 -0.76989275 -0.67441374
577 0.8493474 1.9964105 0.96156335 0.37125105 -1.307661 -3.1032197 1.024802 -1.7161729 2.7457852 -1.280021 -1.1768199 -1.7943286 -0.40920842 1.8006586 -1.016182 -1.3812108
7686 0.9811357 2.128789 -1.5431473 -1.5604692 0.4499016 -1.6388195 -0.36937097 -0.6755886 -0.6166942 -0.8854729 -0.6171751 0.87963784 0.90741354 2.7385943 -0.5069015 -0.31361192
3714 2.019296 -0.03511145 -0.16628042 1.011159 -1.4011391 -1.67127 1.2808416 -0.39805305 -0.57993215 1.3367416 -1.0313253 1.3290308 -1.4125875 0.09275647 1.9664661 -0.7762528
1332 1.0819792 -1.167579 -0.1628652 1.7638876 -1.2345405 -2.5089514 -0.64016604 1.3425926 0.02979153 -1.6476061 -0.17763548 1.4345696 -0.88571656 0.42924252 -0.20882314 -0.26918864
885 2.4373124 0.18328398 -1.5453829 0.6390216 -1.8370991 -2.2571816 1.2939954 -1.2165738 -1.2377027 -1.1381243 -1.3758494 -0.7806852 0.5436463 2.712033 1.7475965 1.9591928
541 -2.4871511 0.22956242 3.084016 1.1240705 1.219754 -3.429641 0.7174894 -2.06626 -0.15340528 -1.220964 0.24523288 -0.21765803 -0.34702972 4.2113914 -1.1369343 -1.4955391
488 1.2020671 1.8676426 -1.5936682 3.1498237 0.7352647 1.3889852 1.0822254 1.3581516 -1.4883498 0.42842594 -0.8714135 -0.33226565 -1.6913668 3.6497986 -1.6511141 -1.5003409
6763 0.16411577 1.3105735 -1.2278676 2.7024457 -2.413338 -0.14473721 -1.4412686 0.3201244 -1.4734304 -0.2963683 -1.5432652 -0.50029397 0.9997874 2.7127876 -0.19737953 -1.4670503
6477 0.20869721 1.08313 -1.3032835 2.6655316 -2.5652647 -0.008442372 -0.88707423 -0.14175166 -1.2560828 0.008481971 -1.1530609 -0.23084162 0.56346166 2.159316 -0.1388918 -1.3672714
927 2.9310532 0.4440415 -1.9365569 0.55511 -2.37488 -2.5656347 1.0812004 -1.1942463 -1.1818514 -1.430552 -2.1881962 -1.3690388 0.7584844 3.353129 1.7416872 1.9244621
596 1.2931143 0.5111396 -0.5430194 3.1712801 -1.1402463 1.6267802 3.9792912 -1.0404222 0.5915571 1.6304793 -2.3469543 -0.714558 -2.5715623 0.7590401 0.9260752 -2.1252778
1439 1.8928146 0.042869195 -1.0311024 0.95276004 -0.9345519 -1.4706489 1.2304194 2.4872906 -0.45334107 -2.6450002 0.9891644 1.5388281 1.1069474 1.471726 0.39673156 -1.4129828
188 -0.95305055 -2.4301805 0.131654 1.8807676 0.4314199 -0.75229985 4.0698776 -1.6574984 1.1113907 -0.041363437 -3.0343082 -2.111596 0.27020574 2.0806942 1.4700233 -3.466408
1130 0.26844406 1.8993977 0.27150288 2.4945266 0.44656664 0.71319 1.4807918 -1.3631006 -1.9379386 -1.7609259 -0.9873483 0.76319915 -0.5315662 0.9159164 1.1653765 -0.0777579
251 0.3020668 1.5589195 0.83146137 0.06107416 1.112272 -1.5069505 1.9612768 0.5750241 -0.5003909 0.82213277 -0.47196427 0.49209872 -0.8796412 2.32088 -0.13504489 -1.3908073
363 2.6051843 0.111610554 -0.09785801 0.81671286 1.754038 -1.9567256 0.06728732 -1.4320272 -0.48926342 -2.1150267 -0.5250325 -1.1936674 0.5260603 1.1133789 1.2501867 -3.0975542
1164 1.3502678 2.5255988 0.2819426 2.8412974 1.6225953 0.1635861 1.4686586 -1.2323871 -2.8539126 -2.4607856 -1.4671767 1.1248465 -1.060347 0.60852134 1.1856546 -0.34735283
533 1.2722437 2.2789984 -3.068919 0.93386716 0.6411897 0.70320725 0.8685532 2.4991438 1.8171587 -2.2046108 -1.2671027 0.41423076 -0.5172523 1.648887 -0.83766174 -3.2568276
1079 -0.4632815 -1.1647153 0.5733239 -0.20504366 1.0513325 -1.6039658 1.156219 -1.8210329 0.82671356 -0.6437367 0.53376245 -0.20387965 -0.55653894 1.7285687 0.31313753 -1.6358367
10 0.8327128 3.0030518 0.49793652 -0.6803962 -0.12910323 -1.8217611 3.2677634 -0.9122999 0.18036504 -0.09039513 -0.17210466 -2.1326287 -0.026741698 3.3519316 2.197615 -2.1378193
588 1.2519987 1.7846686 0.7337154 0.521266 -1.0410137 -3.0348516 0.841948 -1.354679 2.6763487 -0.7376827 -1.0237734 -1.512143 -0.5804937 1.3953584 -1.3436316 -1.3154243
284 0.080425695 0.23174903 1.0108602 0.89545316 1.8526863 -0.47537678 -0.11867285 -0.17924671 -0.49226847 0.10173576 -1.2083732 -0.38116005 -0.79113364 4.0615473 -0.27605912 -1.1247194
7706 0.9658526 1.8480173 -1.7706742 -0.65037644 0.70588034 -1.3207426 -0.79690605 -0.4411951 -0.2552662 -0.51051646 -0.1425593 0.7941713 1.1873759 1.799794 -0.8694197 -1.1121216
929 1.4918905 0.14572653 -0.8928461 0.49553895 -0.96602005 -1.8294774 1.2881267 -0.50973034 -0.9543128 -0.26738426 -0.42913547 0.15899631 0.15153167 1.8533783 1.5075532 1.7995645
1235 -0.866936 1.3133596 1.8561232 0.5202938 -1.2170835 -2.4574091 3.3349838 0.89085335 0.072387494 -3.057912 0.12352386 -0.949246 0.5051305 1.0780225 0.8717221 -1.767196
2303 1.669301 -1.7773806 -2.8943763 1.2514855 -0.19940569 -1.1318365 1.3559731 -0.93875694 1.0224997 -0.004117896 -2.1735883 -1.6045858 0.51179385 1.2190816 0.112157226 -1.4958183
893 1.2146108 -0.044891186 -1.2714775 0.76676697 -0.7740927 -2.7126763 1.2007974 1.0472413 -0.48377833 -1.6869801 0.3598143 0.011565896 -0.77813613 1.2665715 1.945559 1.7208377
349 2.8244417 0.3100535 -0.2662422 1.0243872 1.943769 -1.7800852 0.29505467 -1.5527942 -0.35609946 -2.3709455 -0.47318265 -1.3125672 0.6878496 1.2068362 1.5074868 -3.416561
1222 -1.0361725 1.535524 1.7624438 1.4207852 -0.38772994 -2.6129248 2.4799674 1.2014776 -0.7417274 -3.1839397 0.4975699 -0.49641043 0.69586617 0.81283873 0.585933 -1.8246709
863 -0.6835693 -0.43157268 1.0433254 -0.7111269 -0.5672328 -1.8813127 -0.6927588 -2.8019104 -1.1005661 -1.7825363 0.1807019 1.7623743 -0.66878843 2.5301692 -0.7440583 -1.4970553
999 -0.81070304 1.7274644 1.1846752 -0.41978115 0.9513805 -0.9730895 2.808919 -2.5507529 1.1202133 -2.9230912 -1.5853106 0.5430615 1.1292405 0.50912935 -0.6766512 -0.3789356
920 1.2751771 0.3765389 -1.0974933 0.73885936 -0.6090633 -2.385599 1.2691519 0.7992366 -0.99361867 -1.6880044 0.6467772 -0.24613859 -0.54279876 1.2661748 1.466286 1.4613162
1410 2.4638088 0.6570502 -0.90344036 0.24508184 1.458017 -1.8497744 1.5894647 2.0045059 1.0114634 -2.3766494 0.4387471 0.31234884 0.9864725 1.0871419 1.6208454 -1.1454304
1951 0.23077281 -1.1781715 0.3619123 0.13928236 0.39988947 -0.33579373 0.23392352 0.9543142 0.9531996 -4.420665 -1.0432993 1.3024868 -0.89070237 0.85265565 1.4513683 -0.68401384
61 0.37748063 0.056164574 1.459117 1.4104341 1.063286 -0.951015 -1.4318558 -0.69322526 -0.59366584 -1.4834113 -0.57581264 2.0448875 -0.6436881 0.94264364 -0.39112735 -0.56835437
1492 1.661168 1.6318561 -0.49902758 1.0020909 -0.36119348 -1.5390155 1.7089816 1.7725272 0.1783312 -1.4221649 0.088290274 1.5159334 1.098845 0.51179147 0.5339542 -1.224169
1088 -0.4278075 -1.1595887 0.38900724 -0.022035072 1.3390445 -1.5331968 0.435392 -2.3268728 0.57591075 -1.185077 -0.02986721 0.055763766 0.23742092 1.1264051 -0.16346788 -1.6114576
967 -2.2637298 1.1091357 0.6371592 1.4998671 -0.13753416 0.5688335 2.7039723 -1.4341562 1.1160413 -1.8196578 -2.026332 -0.12841803 0.684051 1.0060332 0.48074383 -1.7900289
255 0.4155839 1.8433229 0.45677713 0.27755693 1.0025891 -2.0845318 2.7115424 1.108996 -0.13926186 1.4831758 -1.259368 0.9342245 -1.1353118 2.6293035 -0.0980879 -1.5366068
248 0.7379286 1.3560438 1.0218445 0.07487233 1.2229186 -1.0965456 1.9505678 0.64801455 -1.4291869 0.4492325 -0.83384764 0.059422895 -0.9250216 2.4357193 0.07029994 -1.439102
4591 1.7603894 0.61114633 -0.17795676 -0.5359076 1.3155265 -0.34310865 -0.51370937 -0.08005868 0.6336534 -0.75892186 -1.1397777 1.2822387 0.052507076 1.7536418 1.3104539 0.41660577
769 -1.7081925 -1.4025514 -1.2268395 1.330403 1.098531 0.29879338 0.86081094 0.42456105 -0.14933743 -2.0311155 -2.3516784 0.34341574 0.39566392 2.158258 -1.2232324 -0.76358634
1200 -0.8374401 1.6668681 1.8429252 1.2018586 -0.18176116 -2.2915256 1.9954334 1.2178743 -0.61854815 -3.076938 0.55560607 -0.64104545 0.65266544 1.1723828 0.97853166 -2.012706
760 -1.6346538 -1.6807524 -1.4659951 1.5776068 1.0247854 -0.08820233 1.1711463 1.3779604 0.33152655 -1.5759662 -2.7786717 0.9658843 0.17318565 2.3583386 -1.7886198 -1.3335439
329 0.94763494 -2.3793771 -0.7892886 0.8975059 2.2497933 -1.830172 0.7677866 0.66017467 -0.9681681 -1.0145099 -0.12313689 -0.8294995 0.27773687 3.680299 0.60622704 -1.2132252
5643 2.2169306 -0.32531837 0.3693749 0.31662202 0.38612807 0.26753345 0.10738438 0.19918759 0.31589487 -0.48976403 -0.33469212 1.4022629 -0.91191673 1.8760939 0.93248236 0.0016430244
914 1.450253 -0.2724927 -0.86497706 0.24842264 -0.64023226 -2.1148956 1.2067835 0.292581 -0.7707924 -1.5347329 0.25663438 -0.48258322 -0.6008861 1.7960185 1.8151119 1.4383167
3068 0.56844956 0.11057492 -1.9303833 2.6964018 1.7711169 -1.9457384 -0.23460728 -1.116175 0.13784221 -2.0801458 -1.5900801 -1.445311 2.2162204 -0.10332416 0.6015782 -0.9271081
767 -2.3591483 -2.1532001 -1.3811378 2.498741 0.62613046 0.29125956 1.9141645 1.0227634 0.8627532 -2.0067759 -3.23101 -0.53011024 -0.3265755 2.8893335 -0.767057 -1.0962424
775 -2.695494 -2.9355795 -0.49299547 2.4613676 0.32197714 -0.4081522 1.5059329 0.4970498 1.4454846 -1.9996519 -3.209801 -0.4818416 -0.46450824 2.3611662 -0.32972956 -1.1315322
874 -1.258972 -0.6811864 1.028411 -0.9296194 -0.6960118 -2.538446 -0.6815343 -2.6492736 -0.6492812 -1.6938684 0.45341393 1.967752 -0.64339674 2.7036207 -0.50710726 -2.202242
1366 0.67246157 -0.6773177 -0.007714804 1.5732172 -0.5669453 -1.8416237 -0.5138046 0.78313357 -0.08305281 -1.0762596 -0.1959464 0.95190626 -0.4486549 0.27520448 -0.024494544 0.38971204
778 -1.6870834 -0.983734 -1.4907868 1.8668634 0.8782339 0.25731578 1.7543076 2.0293305 -0.45147684 -1.8865924 -2.235469 0.7421041 0.34296143 2.9956276 -1.8236799 -1.998393
2659 -0.2158184 0.65429944 -0.36142012 0.4052977 0.9208155 -0.40913203 1.2338175 -0.9698914 -2.0752685 -0.89145374 -1.8395172 0.77078754 -1.0926931 0.5945869 0.9119196 0.066877775
229 0.699453 1.3842938 2.0873454 1.1628587 1.6438924 -1.9044094 2.7685475 0.22742079 -0.35500047 1.4337084 -0.47465813 1.167377 -1.7744708 2.0670362 1.2704874 -1.5011449
141 -1.1713121 0.9842775 -0.14452203 0.7124074 -0.2449128 -3.5318604 1.6322508 -0.30698603 -0.34915027 -1.4893315 -0.25271758 0.7780632 -0.439018 0.18726239 -0.31258333 1.4567405
7922 0.6762183 1.6405174 -1.3432497 -1.3138874 0.42045444 -1.5104324 -0.965056 -0.16332759 -0.9808339 -0.36762536 -0.72757614 1.2831844 0.5825355 2.6516247 0.05460828 -0.7290013
7124 -1.0624768 0.9948011 0.34171858 1.8188493 -0.11588597 0.30754516 0.47636867 -1.2144879 -0.5243532 -0.85207695 0.22401768 1.1037703 0.68568695 2.2539308 -1.7788168 -0.45297113
511 0.85774505 1.1170993 -1.0117917 0.5641818 1.0647109 -0.7642717 -0.90022576 1.3616496 2.042162 -1.2159812 -2.0481627 0.90538836 -0.6734105 0.5341276 -1.0246376 -2.7956634
314 1.6187098 -0.29342723 -0.11849063 0.64360493 1.6278478 -0.67939454 0.34929058 0.5611362 -0.67643565 -0.31754628 -0.5332343 -0.51028466 -0.1352237 2.4689505 -0.057812255 -0.5182122
3682 2.0774605 0.5442807 -0.03709975 1.4677393 -0.93852454 -1.9210672 0.5239547 -0.13850874 -0.3856296 0.8614487 -0.2631712 1.6164018 -0.8029641 0.15804945 3.010366 -1.3545092
157 -2.6241431 1.6408131 -0.9213645 -0.1694452 0.13811368 -5.3460536 1.6983548 0.7238394 0.5548624 -0.84631175 0.07323908 1.1379883 -2.8397424 0.06154 -0.49139875 -0.44053015
3352 -0.35633013 0.5458195 -0.9506727 2.1312366 0.008519118 -0.87004197 0.322483 -1.212288 -0.096473694 1.0427674 -1.2163961 1.8520547 -0.6919142 -0.535478 2.2062297 -2.8096154
7647 -0.6871285 1.6708921 -1.7509782 -0.09721059 0.66620356 -0.9853579 -0.6550752 -0.21582022 0.5514408 -1.2223692 0.9240152 0.29156578 0.24084546 0.49966422 -0.87428874 -1.3290613
301 0.63389635 -0.11867428 0.65130925 0.9589433 1.4922143 -0.34523228 -0.069541745 -0.29669353 -0.08606302 0.114426754 -1.0283644 -0.9292716 -0.32250535 3.464137 0.040423587 -1.1470746
290 0.08295101 -0.16011672 0.85937285 1.0106752 1.8872153 -0.7270901 -0.48144984 -0.16347963 -0.18477215 -0.2592465 -2.0583153 -0.64760476 -0.44567552 4.452271 0.015262629 -1.0164621
869 0.8780707 0.4005827 0.7023256 -0.4519484 -0.25100702 -1.9374362 -1.3146845 -2.6294372 -1.2062687 -1.4360261 -0.7530125 1.1405286 0.14564702 2.1846855 -0.905295 -1.5926608
931 2.112043 0.77996576 -1.0297645 0.17932338 -1.5818418 -1.8070194 0.73955435 -0.52775514 -0.54528296 -1.4138098 -0.68123245 -0.94985807 0.6420486 2.0632105 1.1566437 1.0611936
396 1.9023219 0.071047515 -0.6682774 2.234443 1.6970998 -0.7802608 -0.35077122 -1.5495768 -2.338137 0.36121735 -0.4612014 0.91541195 -1.7595358 0.5489854 0.82017076 -0.8180578
2343 1.4257025 -0.8390005 -1.3442701 0.2619737 0.37108785 -1.8689225 0.99559796 -0.6821652 0.5905542 -0.10938752 -0.6314769 0.7367893 1.3321118 1.3819155 -0.5296409 0.14322664
1055 -0.7654557 -0.5481777 0.49633765 0.5000677 1.5695733 -2.0087109 0.15497784 -1.7144654 0.75687313 -0.47477615 -0.0671308 -0.2963292 -0.76301444 0.8199837 0.29379424 -1.6210084
790 -2.4347649 -1.9662182 -0.66432536 2.2204227 0.17223285 -0.16233273 1.33808 1.3887484 0.6507954 -1.5498409 -2.3690042 -0.018180946 -0.2006959 2.919614 -0.7339069 -1.8145798
695 -0.1882514 -0.88556314 0.44679293 1.8432156 0.5120757 -1.7360425 3.2157965 0.38549888 -0.99165624 0.11684317 -0.55388045 2.225147 -0.56061786 1.2662396 1.2066581 1.1860193
1007 -1.626636 1.1992801 0.9141926 1.0474572 0.51750463 0.13015929 1.6640422 -2.1878366 -0.0663253 -1.6861008 -1.9305105 -0.13891333 0.75961655 0.9542513 0.64506906 -0.6545256
1113 0.6618123 1.8585471 0.18203661 2.1854618 0.22354327 0.8548876 1.8691038 -2.04012 -1.2975715 -1.7875545 -0.8939118 0.34204185 -0.66691005 0.615485 1.7406288 0.006078113
988 -1.4252867 1.5230036 1.1623857 -0.5688037 1.0091722 -1.0146986 1.5005329 -2.0312564 1.3365343 -3.2254503 -2.4063416 0.9158504 1.7648346 0.70238537 0.5008741 -1.2214836
1236 -1.2617524 2.7411199 0.30659813 1.7550772 1.3203512 -0.27106407 3.955214 1.2866043 -0.6893837 -2.7674582 -0.25635004 -0.3836481 1.1392101 1.7410041 -0.90983033 -2.0691679
66 0.054690357 0.24646685 1.568267 1.6037765 0.82568514 -1.8161025 -1.7376363 -0.5363807 -0.5050039 -1.1826195 -0.97870535 2.0892882 -0.3659097 1.032063 -0.4924947 -1.0227628
393 2.094173 0.43140578 -1.3574905 2.6047926 1.5247167 -0.90389144 -0.67962265 -1.6196203 -2.3007977 0.5298045 -1.4168534 0.33715254 -1.6349585 0.7175318 0.64719224 -0.9928629
37 -0.3600762 -0.35090142 -1.1122899 2.9080708 -0.9415214 2.2367523 4.2379346 0.6518001 -0.17349766 -1.9837999 -2.780105 1.3211278 -2.0394714 0.02574741 -0.07050186 -3.0192797
575 0.8703501 1.4983835 1.1915808 0.15690523 -0.976583 -2.5846255 -0.17923813 -1.3906378 1.2990826 -1.925093 -1.7439376 -1.5813953 0.6039802 1.7706467 -0.68545914 -1.1206574
1052 -0.6385153 -0.84431046 0.45539588 -0.2770243 1.1440855 -1.2305707 1.2231721 -2.0295994 0.80250484 -0.8529628 0.38961366 -0.17820375 0.124073274 1.4928088 0.12223403 -1.7082653
23 1.1860642 2.1372776 0.33485746 0.3850855 0.09929726 0.029762054 3.7507465 -1.2701555 1.0957851 0.52606565 1.0261968 -1.0000634 -2.491032 2.2234547 0.6057544 -2.8939893
883 1.1383312 0.22069661 -1.1776586 0.68308026 -1.1691483 -2.7121446 1.358352 0.94654393 -0.5846694 -1.748454 0.49471852 0.05347234 -0.4315656 1.4368043 1.7685612 1.6026915
510 1.0111015 1.2884146 -1.4698387 0.5424639 1.3279315 -0.94343746 -1.2502328 1.5042349 2.1623883 -1.4121395 -2.7053123 0.6633437 -0.77921134 0.6738736 -0.9557564 -3.0851946
3062 0.034307793 0.11296321 -1.9782565 3.0396538 0.5444163 -0.58181125 -0.36262238 0.041280743 -0.23912205 -2.357223 -2.3934114 -0.81205696 1.0967026 -0.2852181 0.67528015 -0.87774545
573 1.4453046 1.6533406 0.2101027 0.20495272 -1.2107973 -3.1193664 0.831007 -1.2730479 1.9380811 -1.0234532 -1.2430357 -1.802123 0.32218054 1.8350998 -0.87285495 -0.9227901
5811 -0.93279135 1.0961207 -0.6833993 1.3408551 -1.9588765 0.22803515 -0.3870689 -0.85039616 -1.0481579 -1.2522194 -1.2929033 0.83266324 1.0845165 2.3679867 0.16593868 0.33323488
293 0.43982992 0.24461275 0.7375406 1.0283331 2.0965521 -0.776498 -0.30718574 -0.36694145 -0.4121998 0.07886553 -1.402133 -0.9932422 -0.44801944 3.9493425 -0.27831882 -0.96913975
1099 -0.102632344 1.691339 0.8474818 2.0075471 0.00482944 0.16016455 1.6238006 -0.9626195 -1.4195286 -1.2112916 -0.4761143 0.0317205 -0.24784207 0.77244806 1.2101321 -0.5101852
960 -1.4580809 0.9957906 1.6864763 1.7483234 0.058950756 1.0564635 0.9758859 -1.3215959 -0.6260418 -1.5670663 -1.5684543 -1.0126765 0.2523428 2.6803544 0.5081164 -2.234798
1254 -0.7977404 1.3613914 1.294094 1.0232482 -0.2192837 -2.1174638 2.0285978 1.1399068 -0.90305406 -2.6133323 0.23443443 -0.3676038 0.696744 0.75051713 0.25354886 -1.5186573
972 -1.4988229 0.61969364 0.5537167 1.1841384 0.12436255 0.62873423 1.301669 -1.4092824 -0.10277084 -1.1308728 -1.0246502 -0.558174 0.32173732 1.2337738 0.5370529 -0.97730774
620 1.417249 0.35232884 -0.55831766 2.9402936 -0.93557113 1.5387481 3.4738421 -1.0420579 0.49538139 1.5439904 -2.292856 -0.94041693 -2.4359586 0.77089584 0.72532934 -2.3296566
3385 0.010939362 1.8125787 -0.5122485 1.6415493 0.03399942 -1.3461429 -0.4314118 -0.4006538 0.52819234 0.3415964 0.40684977 1.0581512 0.39900178 -0.21644272 2.0008774 -2.9627235
779 -1.9088886 -0.87262094 -0.44951263 0.9413195 0.1324948 -0.23690024 0.6531356 0.96021634 -0.25555933 -1.4128339 -2.0657134 0.19939178 0.42640322 2.4333777 -0.8026128 -1.45017
8412 -1.1782459 1.7466453 -1.6883045 0.071654536 0.92496055 -2.1672757 -1.1163894 -0.26884857 -0.03794781 -1.3347294 0.7885052 0.23541673 0.29739818 0.5674274 -1.142861 -1.1205484
1167 1.2769638 1.9517207 0.09353589 2.0573664 0.20986341 0.26755518 1.54846 -1.845217 -1.3679143 -1.9671464 -0.87303615 0.5517342 -0.11787278 0.11456977 1.0701109 0.29153293
155 -1.8130803 1.5517932 -0.6506627 -0.018884787 0.2600433 -5.100975 1.2963903 0.531573 0.1290148 -0.69873726 -0.30000937 1.0567627 -2.1732576 -0.005188349 -0.6276011 -0.12096544
21 1.2086232 2.2540736 0.27761963 0.5604027 0.23777518 0.085073985 3.9393904 -1.1667236 0.9409651 0.5122016 1.140819 -1.0021508 -2.5162394 2.0586853 0.30727702 -2.746383
1882 -1.3449119 1.4051572 0.29732043 2.648374 1.5646929 -1.2453655 0.3457958 1.1308846 0.48522097 0.42240694 -0.4185054 0.29082096 -1.1336484 0.6160409 0.74204093 -0.11122731
7481 -1.3699768 2.1036942 -2.0101135 -0.69756913 0.7517258 -1.8091015 -1.0908551 -0.5996181 -0.35386756 -1.4050124 -0.1521966 0.63063633 0.19179684 1.1206665 -0.6605099 -0.62098145
1814 -1.2070585 1.2856331 0.36096802 2.7477212 1.4164625 -1.5112315 0.11677084 1.2225199 0.71746427 0.08555562 -0.0032729036 0.49487016 -1.271158 0.40333736 0.29888156 -0.2315168
36 -0.35342318 -0.36389917 -1.1849681 3.225409 -0.5596711 2.386923 4.1685348 0.5815723 0.0068632714 -2.2554536 -2.8924685 1.654647 -2.3649557 -0.16852178 -0.25636962 -2.7203765
2378 1.3082813 -1.9061627 -2.0332265 1.1653923 -0.14784016 -1.5624138 1.2236445 -1.2217797 1.1575626 -0.57598287 -1.3754693 -1.1029255 0.6913192 0.940617 -0.73790115 -0.94243675
582 0.9601666 1.7747102 1.059581 0.3388187 -1.1480893 -2.892847 0.27699515 -1.5050668 1.7475839 -1.4464804 -1.3295176 -1.9334096 0.18623918 1.9510987 -0.73382455 -1.5650454
138 -1.3411304 1.2855943 -0.16212225 0.7076838 -0.16576439 -3.8058634 1.2132018 -0.00015987517 0.0011671464 -0.9012263 -0.41239357 0.8663431 -0.5973948 0.080444254 -0.30722144 1.1089219
197 -0.66828376 -1.0564077 -1.5540216 0.6491301 0.27947527 -0.62838125 1.5131634 -0.68667364 1.9025062 1.4904082 -0.598536 1.303759 0.4141213 3.623053 0.39014348 -1.8518506
1097 -0.52325934 -1.0959713 0.42684367 -0.2920331 1.8474541 -1.9862202 2.529424 -1.4207462 0.29149663 -0.36433288 0.55525744 0.15925342 -0.71894854 1.4731477 0.4238349 -2.566238
722 -1.2893567 -1.6869862 -2.8079023 1.2992921 -0.6953822 -2.623198 1.099701 -0.2918311 -0.40841872 -1.0999998 -0.11940618 0.18051265 -0.9323052 -0.11347367 -0.33371764 -2.725079
752 -1.7867191 -1.110889 -0.5939784 1.542351 0.6413953 -0.18855931 1.1063324 1.903582 -0.5618348 -1.2041471 -1.9863969 1.1742439 0.2056602 2.7163777 -1.3757687 -2.8458686
1102 0.112213045 1.0360987 0.26817554 2.3852034 1.536285 0.7467647 1.2323995 -0.8782467 -1.4915748 -1.6147485 -0.59607404 0.44812724 -0.82134306 0.5863847 1.1683558 -0.2875029
789 -2.0402317 -1.2915983 -1.0632187 1.6282381 0.6161226 -0.39541125 1.4580762 1.75709 -0.091322005 -1.0498651 -2.5216973 0.5777822 -0.02622349 2.492746 -1.7877107 -2.6827497
3438 2.2757566 0.024610376 -0.261941 1.2083806 -1.5834439 -1.4530716 0.8614602 -0.42364427 -0.9030704 1.1816276 -1.2616372 1.1024572 -1.2247348 0.25591362 1.5243032 -1.1637146
704 0.37406126 -1.4317104 0.24559355 2.0136113 0.5716996 -1.382622 2.3915424 0.23200014 -0.4843766 0.7069391 -0.6789016 2.1931412 -1.3483901 1.1367124 1.9172316 1.0996245
926 2.3450449 -0.055574134 -1.5953183 0.78813183 -1.2513124 -2.431226 1.6026531 -0.372999 -1.2036235 -2.3420057 -0.48636478 -0.6772968 0.18086594 2.014833 1.4123558 2.3388784
864 -0.18034074 -0.5369261 1.2177213 -0.82001585 -0.18958125 -2.198035 -1.0294013 -3.0557134 -0.90546656 -1.7551781 -0.4665158 1.7015849 -0.5818912 2.779639 -0.7943968 -1.6408184
127 -1.4714013 1.7573142 -0.22205229 0.71596336 0.20051104 -4.2892456 1.5957112 -0.82756346 -0.24048123 -1.9960458 -0.74754226 0.86272234 -0.72027415 0.11770662 -0.25384745 2.1624892
4118 0.26196888 -0.18428487 0.49183467 0.083820805 -0.39491314 -0.44725847 0.3190698 -0.9152844 -0.5970143 -1.1805961 0.2507211 -0.50037104 -1.7566444 1.015323 -0.9156206 -0.7807803
590 1.4713305 2.0390139 0.685331 0.7376187 -1.4050683 -3.5001695 1.2824883 -1.468853 2.3838449 -1.0725645 -1.0245823 -1.8861139 0.16393709 1.8639178 -1.4104048 -1.3700266
312 2.074939 -1.0279628 -0.29958627 1.0811133 2.374976 -1.1865382 0.67966586 0.88831306 -0.81077856 -0.60963064 -0.8594708 -0.5557344 -0.45408225 2.9499433 -0.023906665 -0.32917777
1042 -0.34790477 -0.8186277 0.51885575 -0.15433705 1.8532451 -1.8756232 1.510771 -2.1940894 0.64500237 -0.7148322 0.6655058 -0.46633315 0.22756208 2.079269 0.14575273 -2.44815
3887 0.24088292 -0.4408316 0.29208684 0.07620534 -0.36286345 -0.58518904 0.25237498 -1.3011879 -0.27653888 -1.4057453 0.36283943 -0.74506986 -1.7000821 1.0762831 -1.1009237 -0.8499503
4730 2.0179539 1.0917674 -0.12504973 -0.2706682 1.6709061 -0.3549951 -0.34658456 0.36580202 0.19949697 -0.8262902 -1.383543 1.5203975 0.14100464 1.4539126 1.3295398 0.47770572
1039 -0.48363525 -1.3879658 0.2880469 -0.48194954 1.255773 -1.8788382 1.0566832 -2.3710382 1.4290018 -1.266184 0.14936075 0.08257173 0.5051573 1.8006136 0.23674242 -1.7196969
124 -0.47284186 1.4780561 0.15922746 0.9400172 -0.19380796 -3.4604995 0.9154488 -0.26377377 -0.78548354 -2.4621627 -0.6173341 -0.012813512 -1.0569617 0.4104372 -0.95234996 1.5611191
1953 0.06925722 -0.41341114 -0.35821453 -0.5207189 -0.25678965 -0.1389155 -0.48198977 0.84357935 1.2362998 -3.7074525 -1.263677 0.6357097 -0.6091102 1.0732911 1.5531467 -1.7477442
841 -0.32899716 -0.30269894 1.1026202 -0.82618654 -0.34377995 -1.8942348 -0.77348197 -2.8900268 -1.118958 -1.7400137 -0.19027986 1.5423145 -0.28265566 2.88145 -1.2200699 -1.9355547
2484 0.5159881 0.061646853 -0.20289421 0.072701864 1.2462842 -0.22385041 2.15747 -1.6505606 -2.369893 -0.963868 -2.082687 1.1675038 -1.4394315 0.8388679 1.4643668 -0.33435223
3179 -0.9126565 -0.34422007 -1.4127641 1.54622 1.2707367 -0.5054628 0.83441716 0.21876487 0.43293417 -1.1575508 -1.0678619 -0.8647289 -0.59449464 -0.117500074 1.2790582 0.38254598
953 -1.4602976 1.1261394 1.559005 1.8123972 -0.020768892 1.4549032 1.2942795 -1.5356529 -0.33642554 -1.3723739 -0.94427353 -0.90477693 -0.17139907 2.6867676 0.8990669 -1.813474
887 1.8244188 0.90709156 -1.7325448 0.7082409 -0.83268505 -2.3812933 1.2021043 0.3797099 -1.3827167 -1.8517054 -0.8292267 -0.33667856 -0.21649744 1.5179332 1.9435669 2.0951836
435 0.84879106 0.7494678 -0.3586539 1.1506914 0.25110257 -1.4772518 -0.040018365 -0.21571884 -0.58634144 -0.28945738 -0.5591632 -0.54452854 0.32130533 0.19798677 -0.9722479 -1.782945
384 2.3113654 0.64372545 -0.7926397 3.1704717 2.1007397 -0.7964918 -0.19356798 -1.7903427 -2.8124082 0.49482408 -1.0744437 0.9733678 -2.727451 0.5816007 0.9960519 -0.5076182
213 -1.3240879 -1.3667951 -1.81399 0.47920895 0.08326057 -0.4417485 1.6881436 -0.80760777 2.2039368 1.0984 -0.98457175 1.4464724 0.27210015 4.0497403 0.7196007 -1.6473755
337 1.4748415 -2.2646472 -0.83935535 1.5441074 2.7229323 -2.3420672 1.4474095 1.6725377 -1.7161018 -1.9598123 0.103188545 -0.62654495 0.22131155 3.4546359 0.6849962 -0.10726315
761 -1.8090718 -0.8882771 -0.19602947 0.77037555 0.54327303 -0.098827146 0.5044616 1.2332988 0.1012702 -1.600171 -1.9160862 0.29599687 -0.10885578 2.2580988 -0.8105135 -2.0277376
62 0.25210464 -0.13336247 0.9559943 1.1993544 0.9256261 -0.9701825 -1.5272491 -0.48299897 -0.7046746 -1.6496009 -1.4151573 1.9868203 -0.6935104 0.99478185 -0.10813626 -1.0440551
935 1.2626964 -0.5353471 -1.4985204 0.5594601 -1.2518902 -1.8872762 1.3683504 0.011564767 -0.5378192 -2.0077295 -0.090494744 -0.21149312 -0.55950934 1.4888232 1.5546502 2.1986861
684 0.45864528 -1.0749786 -0.06693506 1.9324069 -0.29047826 -1.2219296 2.7611783 0.05890948 -0.03199529 1.3661575 -1.3862519 2.6900342 -1.9531027 1.3954362 2.088083 1.3166133
1010 -1.5006394 0.025667142 1.4899385 1.0405098 0.57628006 -0.22179042 1.1539861 -1.648312 0.19210729 -2.1662753 -1.7734964 -1.12718 0.30453965 1.3266459 0.5659442 -1.5891361
1177 -1.076864 1.5458862 1.0676246 1.1040026 0.14083228 -1.6136184 2.1324599 0.95151603 -0.828537 -3.2357671 0.13549468 -0.6802673 0.720587 0.5270871 0.35804898 -1.0833628
1157 -0.116028614 1.2953117 0.30527434 2.656196 0.6365609 1.2486223 1.9918243 -0.8554011 -2.1614442 -2.537437 -0.40630147 1.0397682 -0.74131525 1.147206 1.278652 -0.47314405
7607 0.38391423 2.1282182 -1.8228977 -0.17902364 0.9660232 -0.7159829 -0.45229375 -1.1343496 -0.22387117 -1.1794475 -0.12224816 0.35277358 0.6641361 0.83119166 -1.2566191 -0.9220909
7 -0.26132876 2.4694378 0.94178873 0.45233414 0.13919468 -1.4925841 1.5435238 -0.3243455 -0.081980675 -0.7785273 -0.8692888 -2.295449 0.45839623 2.043644 1.2265223 -3.4071383
2512 0.7616874 -0.37643787 -0.25908145 0.32983342 0.6661882 -0.10199301 1.5847211 -1.3741856 -2.3802485 -0.98537886 -2.4375713 0.5092086 -1.4374206 0.93408 1.4020603 -0.5260983
56 0.06212173 0.09324858 1.6331935 2.1156723 1.173135 -1.3787458 -1.7193977 -0.64470077 -0.6762442 -1.7260339 -0.59956634 1.9932717 -0.7006332 0.9748681 -0.622231 -0.78329265
5 0.18067287 2.5101647 0.78976095 0.49499217 0.40718332 -1.2473625 1.6909423 -0.31557044 0.20303223 -0.71504253 -0.2638446 -2.4081733 0.4929311 2.0081909 0.9812845 -3.3035483
336 1.8262767 -2.037285 -0.9197714 0.84601676 2.399613 -1.7533934 1.2922506 0.7612258 -1.5296429 -1.1071038 -0.24314857 -0.4325955 -0.19678034 3.2493422 1.0734168 -0.42276597
757 -0.89278775 -1.349627 -1.088761 1.3510133 1.0850918 0.43558064 0.07502341 0.62362236 -0.22516406 -1.2153584 -1.4654591 -0.07472232 -0.27738655 1.832007 -0.7791348 -0.95042074
2252 1.3339489 -0.71882504 -1.416387 0.49184486 0.20759672 -1.9107844 0.7205885 -0.5523791 0.65344894 -0.10061129 -0.5699366 0.51946604 0.7424634 0.6442355 -0.6668417 0.09815309
7498 -1.3260503 1.5358974 -1.2414548 0.2156307 0.94116986 -1.046867 -1.5200633 0.079504445 0.14463544 -1.330903 0.47939953 0.05164359 -0.1429887 1.2157984 -1.0176944 -1.3869133
838 -1.4980024 -0.80790526 0.25311267 -0.50711405 -0.7587652 -2.1007247 -0.93578506 -2.5734031 -1.3221368 -1.8863505 0.6563262 2.2034276 -0.62725925 2.9287055 -0.9617411 -2.5866694
1093 -1.5246422 -1.0037873 0.5202194 -0.32377103 1.6851747 -3.0708034 3.2978406 -0.9537926 -0.119874604 -0.66941994 -0.280129 0.2154564 -0.51749694 1.1976284 0.5435321 -3.1904578
142 -1.7308941 1.18268 -0.18837185 0.69072974 -0.25611582 -3.9719014 1.4295218 0.02425511 0.04956212 -0.887054 -0.24455823 0.85895014 -1.0219085 -0.025866678 -0.332981 0.9415822
587 0.58373374 1.2836387 0.7582935 0.03789197 -0.8491282 -2.3583496 0.24671695 -1.6434634 1.4971474 -1.8053411 -1.4834044 -1.8211159 0.35516897 1.719916 -0.6851003 -1.0530853
406 1.7659494 1.6188716 -0.24490397 1.0194907 1.342136 -2.320339 0.9727489 -1.0019178 -0.89144206 -0.86701983 -0.55142456 -0.18033361 1.0341967 -0.6290081 -0.1354818 -1.8048745
9421 0.519828 1.1347784 -1.5172907 -1.308442 0.7150066 -0.9934801 -0.12115512 0.37457865 -1.6275024 -0.21447726 -1.0945122 1.3219875 -0.32529813 3.2021015 0.41496488 0.21253452
5141 2.0772452 0.8660997 -0.14246021 -0.4495036 1.3832488 0.016211463 -0.025595017 -0.102342114 0.2528278 -0.79956204 -1.45916 1.9317816 0.26615155 1.7839988 1.2323558 0.3082993
8343 1.6180944 0.850559 -1.9288646 -1.7608448 1.1305987 -0.4488854 0.91699153 -0.094223864 -1.1246632 -0.2555102 0.07259374 1.7359543 -1.5283101 3.0961142 1.5993979 0.31722727
803 -2.139099 -0.54206276 -0.5815254 1.8641046 -0.2639324 0.37273943 1.4591001 1.4781897 -0.5288368 -1.2723457 -1.3638729 0.09415743 -0.100776315 2.630292 -1.079368 -2.523444
242 0.62602234 1.6068553 -0.09109503 -0.7422225 0.56620854 -1.5531647 3.8826737 0.2986307 -1.3632827 1.1310147 -1.7605345 0.63598007 -0.23817317 3.924216 0.12358804 -1.5611786
2785 0.82296544 -0.28123626 -1.6378564 1.8275965 0.76369876 -0.9264622 0.2340621 -0.21223634 -0.9943071 -1.6092746 -1.811121 -0.18229033 0.7750478 -0.546802 0.36603612 -0.9751235
1734 -1.5690174 1.5706456 0.025308987 2.5328095 1.2828523 -1.240151 0.9771147 1.7940667 0.28608742 -0.21886216 -0.7018813 -0.12079259 -1.6368372 1.0153501 0.3378921 0.08649931
542 -2.0115058 0.14624365 2.5677652 1.2751245 0.7903795 -2.4512568 1.0909545 -1.4378862 -0.64494556 -1.032877 -0.124399714 -0.31488615 0.015758958 3.3769271 -1.1420475 -1.3598008
7636 0.86887366 1.5087867 -2.107816 -0.9728759 0.45600998 -1.1593603 0.54764175 -1.0132502 0.20310399 0.011380334 -0.2823105 0.48458096 0.13253596 1.8987603 -1.161918 -0.25035766
1014 -1.506896 0.25716767 1.6085672 0.8222659 1.0375537 -0.11200634 1.3922302 -1.9681653 0.71902853 -2.657112 -1.9306045 -0.6802167 0.48642054 1.045929 0.37196466 -1.8340658
32 -0.4419565 -0.06838288 -0.7325234 2.8849869 -0.8537482 2.1106164 3.6643634 0.51464176 0.069916695 -1.5463951 -2.2664948 1.2898844 -2.117106 -0.07877523 -0.1386072 -3.1153302
531 1.4595885 1.3218453 -1.491882 0.9118895 1.5266012 -0.85485387 -1.2090095 1.5795397 2.4071393 -1.4131253 -2.659026 0.9504018 -0.9644423 0.3288811 -1.1112719 -2.9275558
6256 -1.4784479 0.86326814 -0.12387675 1.6722093 0.3525498 0.42308912 0.3357998 -2.0489445 -0.27745613 -0.6827851 -0.5334597 0.38938338 0.80225635 2.365901 -2.065752 -1.0061799
576 1.0026484 1.7934723 1.0952673 0.24832886 -0.79385746 -2.597161 0.3557408 -1.4250472 1.313717 -1.693847 -1.3800081 -1.8138462 0.28420028 1.4417748 -0.80965006 -1.0031447
112 1.3735374 2.290052 0.8821233 0.3366678 -1.9584457 -1.891395 2.683124 0.075164266 -0.6034162 -1.3442705 -1.9865324 0.13498317 -1.0124642 0.89525205 -0.058500484 -0.49291447
529 1.7191588 0.8349221 -1.7234886 0.882069 1.761833 0.50888985 -0.23178312 0.40300876 2.2111514 -1.7138124 -2.069484 0.927278 -1.9453179 0.44256634 -2.0858579 -3.1167166
504 1.3951124 1.2408172 -1.6629232 0.6585386 1.3367282 -0.53257936 -1.0488558 1.1542441 2.3815253 -1.5294328 -2.20001 0.17010006 -0.99618256 0.49233818 -1.3336314 -3.0853457
354 1.5817083 -0.67958486 -0.06120776 0.2232179 1.2974062 -0.6353097 0.026038738 -0.5641557 -0.8489581 -0.78042513 -0.50163436 0.30405125 0.23453753 1.0227365 0.13583173 -1.293238
616 2.0255473 -0.42838925 -0.36054826 3.9192631 -1.3276917 2.6615658 4.461952 -1.082525 0.19369447 0.81354076 -1.8935982 -0.49113283 -3.439932 1.4370415 1.6395307 -2.6128402
2131 3.0081413 -0.096662216 -0.12039192 2.7473016 0.042345896 -2.7078006 1.6388179 -0.96765405 -0.21093078 0.17756867 -2.0683613 0.50731736 -0.9524163 -1.3786223 -1.1783174 -0.9526623
1376 1.388175 -0.7166302 0.5645176 2.4937418 -2.1243145 -2.803436 -0.749537 1.9333869 0.6331697 -1.7710342 0.08719433 0.8186136 -1.0534949 0.9030749 0.052829552 -0.27059796
244 0.9241036 1.1488096 1.490667 0.1319404 1.8256716 -1.592797 1.7609088 0.017419398 -0.96363103 0.50848746 -0.5794884 0.25495672 -1.1238917 2.3383179 0.029409612 -1.7802795
692 -0.5864981 -0.613094 0.15059258 1.3043833 1.111384 -1.2656431 3.856849 0.37698835 -0.5424301 0.06425953 -0.015984299 2.5314143 -1.0440433 1.4682392 1.2915365 1.2344148
1674 1.2572324 -1.8027639 -0.48973164 -0.5836919 0.49689916 0.054491382 1.8795189 -2.0835607 -0.72922945 -2.7307184 0.5808755 2.3124402 -1.4202058 0.66010195 0.4380382 -3.440511
9545 1.181856 1.6293434 -2.6176965 -0.74022704 0.081748 -1.1617808 0.16233288 -0.71482265 0.63078254 -0.013591485 0.20349225 0.52201045 0.21828793 1.9850419 -0.46496773 -0.37936062
561 -1.4988588 -0.023630593 2.1224566 0.8734585 1.0498583 -3.773088 1.1606747 -1.9328004 -0.92721283 -1.0692456 -1.294755 -0.04136587 -0.4017061 2.5437543 -2.5357537 -1.4373088
1555 0.8829044 0.08306685 -0.9298996 -1.1561303 0.47109392 -0.26140806 0.94764054 -0.7823102 -1.3025645 -3.9162655 0.90475875 2.2983963 -0.23995884 0.6589309 1.176548 -1.7060952
557 -1.831329 -0.1280892 2.0902824 1.1093105 0.9290132 -3.6767418 1.2431778 -1.6573684 -0.33202884 -1.0769403 -1.1510768 -0.16428997 -0.0844597 2.5264266 -2.6528656 -1.4878038
2546 -0.8696532 0.803311 0.06465035 -0.3258633 0.1793617 -1.5033662 0.61396575 -0.7385162 -0.91209483 -0.5253509 -1.6135722 0.00873829 -0.32824767 1.1585534 0.4141597 0.37282157
2066 1.2717777 -2.4538467 -0.29469517 -0.13184987 0.30662787 -0.061236467 -0.20974256 0.6345284 0.4224586 -4.949221 -1.0917132 1.7489221 -1.2963902 1.3328992 1.688785 -2.2136402
861 0.15923436 -0.033936422 0.9685755 -0.41343257 0.2016912 -1.7821449 -1.3985678 -3.3911808 -1.3341106 -1.749397 -0.37938824 1.2237595 -0.047761407 2.9387007 -1.142583 -1.4317225
643 -1.1610167 0.80035925 0.063082054 1.4093716 1.0202168 -1.2237507 -0.7576786 -0.703938 -0.6111761 -0.8771131 -0.36642545 -1.3994606 0.42724603 1.5914438 1.6181794 -0.9950456
113 0.9769362 2.6105366 1.2673583 0.5550272 -1.594611 -1.3667461 2.43271 0.16073756 -0.54974943 -0.90122855 -1.3242509 0.33753976 -1.2693528 0.9027907 0.077541396 -1.2204373
1035 -0.90539694 -1.2452272 0.5499393 0.11085984 2.157867 -2.3543952 -0.33107203 -2.4489014 0.5022666 -2.0800793 -0.83417064 0.19455183 0.3335717 1.0376023 0.5422454 -1.3512591
1026 -0.70081145 -1.3568649 0.31422284 -0.16037773 1.8781648 -2.2078328 0.3031144 -2.839069 0.6344343 -1.5977185 -0.530441 0.43417245 0.5552932 1.312181 -0.103954226 -1.9073178
3396 -0.5345908 -0.21743411 -0.25204864 0.789699 -0.79694587 -1.0308193 0.14230008 -1.4423964 0.22704084 -0.4947352 -1.4304745 1.2318858 -0.3935988 -0.019283898 2.808258 -1.3997426
516 0.9821073 1.1946189 -1.3678184 0.3857284 0.6023287 -0.20527053 -0.78564346 1.2790745 1.7519271 -0.86718947 -1.9495399 0.8714106 -0.7738734 1.1371108 -1.3145429 -2.7508123
600 1.7926072 0.6325217 -0.2888602 2.8348691 -0.96254045 1.2390769 3.7269406 -1.0338693 0.08517869 1.7532141 -2.0766144 -0.7369529 -2.214699 0.8920458 0.9729156 -2.4790597
2495 0.30611587 0.25322407 0.26299867 -0.10418074 0.84259975 -0.539761 1.070537 -0.8814928 -2.103642 -0.3408593 -2.7344263 0.46668956 -1.075338 1.4870412 0.9393894 -0.9154827
263 0.43776977 1.5630323 0.06931304 0.29121658 0.9829589 -1.1821824 2.2083027 1.2300413 -0.6897204 0.94966227 -1.0698103 0.9431344 -0.70952255 2.1413145 -0.18004344 -1.9452146
192 0.112390794 -0.8375558 0.91701317 1.9278024 0.89988166 -0.23844974 2.54564 -1.0595771 0.28995782 0.57215065 -1.2844633 -0.81479585 -1.1739842 1.050041 -0.51614475 -3.011544
780 -2.311259 -1.7862467 -2.0201218 2.5792572 1.0828824 0.11883146 -1.3668939 0.8504017 0.65171176 -2.2846875 -2.2445662 0.1338057 -1.6106807 2.010885 0.11062553 -0.2806762
2142 3.0565522 0.0056812903 -0.3024725 2.8658197 0.015836015 -2.9297657 2.0078642 -0.7832303 -0.470696 -0.07248668 -1.9242548 0.50379926 -1.0472647 -1.530236 -1.472747 -1.1988566
441 0.6495624 0.46675798 -0.5127187 1.1741527 0.05245293 -1.2933779 0.37535426 -0.13861959 -0.6597589 -0.31001148 -0.5116575 -0.7268668 0.15063176 0.4871121 -1.0472897 -1.8695105
558 -1.6958517 -0.1894546 2.23229 0.98045146 1.5586683 -4.1527185 2.0874338 -2.4003406 -0.81410533 -1.2032604 -1.2008289 0.019375388 -0.31496036 2.7303813 -2.6931994 -1.3531618
784 -1.0949037 -1.815281 -1.4207822 1.2852966 0.8512486 0.5818138 0.3256472 0.824961 0.2600354 -2.02982 -1.8772603 0.2687303 0.11944141 2.5910563 -0.41879863 -0.93281233
2291 1.2631267 -1.8383812 -2.0013573 0.8877509 -0.49058324 -1.1876055 1.4027355 -0.94160223 1.15503 -0.42759928 -0.95921236 -0.97107875 0.67384654 1.0140586 -0.31541246 -0.8881151
801 -2.0312037 -1.7281585 -1.6984227 3.0853698 1.5659316 -0.4620259 -1.0539801 1.6012996 0.23312338 -1.7591841 -1.9391878 0.047267314 -1.5262957 1.8048801 -0.4075219 -0.7469225
853 0.10505304 -0.24625552 1.0168668 -0.44075668 -0.68879634 -1.8801974 -1.1507367 -3.5085824 -0.6992202 -2.1664443 -0.3608244 1.3126823 0.04055737 2.9732537 -1.0837462 -2.0605683
46 0.20684163 -0.10033399 2.5618792 1.8209594 1.6079661 -1.9835317 -1.5015312 -1.2510934 -1.020478 -1.7491075 -0.15592164 2.794894 -0.9688907 1.4594287 -1.2196391 -1.1707057
1334 -0.77233857 -0.3228115 -0.16822247 2.4287868 -0.15978639 -2.9826345 -0.46961012 0.9408389 0.23618802 -1.4639845 -1.4553578 1.2938924 -0.547377 0.20443502 -0.23748985 1.1724042
639 -0.39077193 0.9141937 -0.2829017 1.6767368 1.514625 -0.9297316 -0.6719768 -0.98413867 0.64346117 -0.4642061 0.26025987 -1.5713782 0.27552637 1.6151321 2.0068264 -1.9095403
2330 1.6323997 -1.7855113 -2.8666565 1.4442072 -0.15895721 -1.599609 0.9932101 -0.6852596 1.2348944 0.24649687 -2.0695498 -1.680172 0.44883206 1.16695 0.2320412 -2.1871676
696 1.1117204 -0.6668951 0.04335266 1.4304613 0.12741432 -0.7697418 3.210429 0.00264656 -0.12682687 0.8728866 -1.0546067 2.5336168 -1.1705391 1.5934107 2.4257352 0.8107364
794 -2.0732255 -1.6347097 -1.4918922 2.9864173 1.6070817 -0.47947374 -1.0367199 1.403766 0.06855771 -1.6213951 -1.8924445 0.09004338 -1.4065194 1.867105 -0.5335518 -0.87579507
545 -2.2609875 0.3307417 2.9098103 0.9174453 0.6753749 -3.526451 0.8079762 -1.6046362 -0.35913414 -0.76108927 -0.13548596 -0.1518832 -0.24011832 3.8253171 -1.2904595 -2.1289067
1140 -0.95698965 0.68877447 0.3780149 2.63603 -0.26473218 1.232621 2.529688 -0.5676912 -1.0341032 -0.70086944 -1.110511 -0.01905006 -0.86628324 1.5424021 1.4543537 0.21302569
1253 -1.4570256 2.5160096 0.31028193 2.032513 1.2339895 -0.16466267 3.6658323 1.1632532 -0.4993749 -2.737125 0.18063512 -0.43747413 0.8946737 1.724056 -0.6843437 -1.8203987
915 1.7239697 0.5427265 -1.211833 1.0926025 -1.0339274 -2.0131106 1.2200406 0.15317091 -0.75402766 -0.7161834 -0.0650794 0.1034923 0.054476503 1.9022536 1.6764394 1.8752067
739 -0.30861506 -1.934456 -2.9902706 0.22511514 -0.103166394 -1.2433047 2.3325522 -1.2994057 1.5175232 -1.2064856 -1.2780629 -0.25805444 -0.16848485 -0.06179575 -0.11044134 -2.3513768
270 1.3447412 1.3049479 1.7443423 0.24631226 2.0043986 -1.6657568 1.9460694 0.63978535 -1.5871546 -0.14885342 -1.0179312 -0.16068617 -1.2927629 2.9715858 -0.18849827 -2.3329487
173 -0.06468555 -1.1127788 0.10829712 1.4811387 1.6346118 -0.4337592 0.99776626 -0.032209482 -1.0317245 -0.2432436 1.4953213 0.3929561 -2.029196 1.995801 -0.6018509 -1.7500077
2534 0.38823262 0.6237511 0.32338697 0.49629614 0.9578119 -1.9203511 1.5726795 -0.8289692 -0.938174 0.49357146 -1.2202979 1.1979111 -1.4044398 -0.058441512 1.2502769 0.15056315
2467 0.5113544 1.111205 0.289446 -0.33182767 1.4494659 -1.142963 1.1826617 -1.4648094 -1.417156 0.038992263 -1.4557191 1.006367 -1.1460348 0.4580252 1.076699 -0.7803231
6039 -0.38501716 0.94671106 -0.80520946 1.8798659 -1.6064907 0.4832873 -0.9133178 -0.74956715 -1.006677 -0.7252242 -1.983676 0.11302357 0.62550545 2.1318388 0.3157504 0.3211021
490 0.8757618 1.6600449 -0.8937937 2.309984 -0.027039764 0.6521773 1.0684099 1.3211858 -1.0730426 -0.4118738 -0.084022105 0.4921383 -1.1059825 2.065652 -1.7165313 -0.9135425
1676 0.91645736 -0.38313407 -0.9760639 0.19829218 -0.28412074 0.32511717 1.8284185 -0.04498579 -0.70375115 -2.932959 0.18076807 2.4022295 -1.2329443 -0.53126144 0.9601519 -2.9007351
246 0.54497564 1.467404 1.8408456 0.22564235 2.130034 -1.7495177 1.7347407 0.19700243 -1.1060749 0.48953092 -0.9098121 0.6755507 -1.1403044 2.7442756 0.24132712 -1.9056776
525 2.1815476 1.1580305 -1.733282 0.8984155 1.9613801 0.5134822 -0.5614533 0.44273752 2.177988 -2.2112777 -2.5931299 0.72443295 -1.7789129 0.71292263 -2.2885785 -3.5432017
160 0.11760681 -0.9662836 1.1510365 1.0432748 0.029676916 -0.8097961 0.3339698 0.2881653 -1.188207 -1.2228322 1.4174749 0.30054677 -0.78081685 1.9844993 -0.5345873 -2.0258582
145 1.0322517 1.6209451 2.2942078 2.2823849 -0.23972955 -2.67191 1.1721458 2.1870644 -0.8733639 -2.9012458 2.085188 2.853831 -1.4879806 2.2977607 0.783942 0.4526387
7991 0.81329364 2.6069424 -1.6620864 -0.7018158 1.1982275 -0.58725554 -0.5965062 -1.0716761 -0.29968864 -0.7116821 -0.21231619 0.41833055 0.45326817 1.625482 -0.40730163 -0.76452225
1670 1.387501 -0.68045616 -0.067800835 0.236315 0.098450236 0.3622167 1.3892425 -0.9510498 -1.0278244 -3.1598403 -0.4097605 1.9962198 -0.66591036 -0.39641118 -0.06628142 -2.8993447
45 -0.3498297 0.17718212 2.3129447 1.3598046 1.1590996 -2.2212286 -1.8984681 -1.8601153 -0.6853061 -1.5071468 -0.9370171 2.5981243 -1.1853321 1.7246132 -1.0640637 -1.026405
217 -1.6808926 0.975346 -1.6564463 1.1229419 1.321088 0.8207945 1.1098937 0.59082973 0.33902726 -0.36664566 -1.9488176 2.8194885 -0.30648074 3.1172967 -1.1605415 0.42927775
3881 1.4171572 -0.060041163 0.656209 0.6887101 -1.3455108 -0.91253924 0.07037734 -2.384113 -2.2145784 -1.5584205 1.396155 0.4424602 -1.9962633 2.0629675 -0.81917447 -0.7377693
33 -0.23846732 0.29302943 -1.2617669 2.9618893 -0.6691295 2.1139555 3.2512307 0.7170121 -0.4145372 -1.8003497 -2.3830156 1.2677758 -1.3893473 -0.05359237 -0.57032424 -3.2524855
989 -1.6982164 -0.09863393 0.95248747 1.8795544 0.67127025 0.93371874 1.1797428 -2.2441936 -1.0202634 -1.929085 -1.5165778 -0.93816316 0.065607466 2.2165813 0.8374162 -1.2100179
13 0.4097634 2.4026287 0.19092385 0.33549136 0.52119315 -0.87438285 1.6360583 -0.5998613 0.2804197 -0.6140754 -0.6076012 -2.447361 0.63903767 1.9922234 1.1240145 -3.2068367
278 0.80333555 1.3038508 0.62566984 0.9932753 1.8265204 -0.6837412 0.20628431 -0.36534497 -0.8664919 0.7115269 -0.94036484 -0.07838764 0.21141282 4.341294 -0.15885395 -1.7835277
151 1.0797501 1.4718229 2.0740979 2.8231032 -0.2665139 -2.1764286 1.2636175 2.0010543 -0.9210866 -2.9114347 2.4341094 2.8269846 -1.4952848 2.3345897 0.85312253 0.7519719
3713 0.78639966 0.028849144 0.43276384 1.4758614 -0.45265087 -1.7165116 0.9630334 0.17916454 0.12275434 1.0641918 -0.075970694 1.3140563 -1.080649 0.009718067 1.6300993 -0.77759695
201 -1.4417157 0.21741821 -1.8967181 0.38148138 1.537769 -0.37730297 1.355136 -0.71068215 1.3016758 0.3691408 -1.3233541 3.2139194 0.18385158 3.2262173 -0.70536655 0.2928869
425 1.5176297 1.0371741 -0.60480225 1.2186396 0.50129384 -1.6490695 -0.06785941 -0.39355907 -0.67172307 -0.4320918 -0.6502644 -0.4700636 0.45656714 -0.10135544 -0.8722671 -2.33804
1226 -1.3588358 2.014683 0.18848637 1.0775609 1.0035176 -0.20847732 4.0295815 1.2599276 -0.6899567 -2.5808842 0.49318537 -0.002775635 0.6908479 2.396634 -0.60679144 -1.7677827
1940 -0.58090216 -0.6177125 0.42110324 0.24568456 -0.21602821 -0.14901896 0.4465241 0.053987015 0.66110796 -2.1207016 -0.60616404 0.009993307 0.049995452 0.47313505 0.37208164 -1.3569559
207 -1.6060597 0.15166335 -1.6232259 0.5584342 1.7273222 -0.028644592 1.4513886 0.10743339 0.8957957 0.23740058 -1.00128 2.761692 0.26475912 3.5289073 -1.0284476 -0.09480951
3342 0.7966856 -0.17775376 0.5734096 1.8148865 -0.58199114 -1.7005752 0.97017336 0.54012567 -0.011246271 1.06635 -0.16824365 1.4618965 -1.0111539 0.17962593 1.5642831 -0.8749233
818 -1.6844964 -1.6900748 -1.6374232 2.6182296 0.67539406 -0.09841135 -0.7975662 1.4978088 -0.24644135 -1.8753332 -2.4264302 -0.38503665 -1.3685291 2.5069146 -0.395436 -0.22826575
1196 -1.0484853 1.8909906 0.76775795 1.3952367 -0.29326865 -0.56899256 3.535264 1.0643868 -0.29385594 -2.385636 0.8864198 -0.65189874 0.39683294 1.9186774 -0.02428154 -1.0151285
2515 1.0529748 0.5776331 0.42430785 0.114984505 1.4277343 -2.2150092 1.7259028 -1.2358588 -1.336995 0.23148511 -1.2528129 1.4655372 -1.9075533 -0.018710073 1.1526222 -0.16890992
388 1.4691423 0.23625173 -0.67524207 1.2899392 1.6970305 -0.95953554 0.2493775 -0.5833192 -1.0389476 0.22807072 -0.52779764 0.2189267 -0.46706933 -0.20898728 -0.10805562 -1.075987
2765 0.9924742 0.22508402 -0.4262439 1.0122635 0.49824294 0.22299728 0.77928984 -2.0457933 -2.3559153 -1.3075446 -3.0411074 0.2910292 -1.3792299 0.6902442 1.8383586 -0.4455842
148 -2.3329039 1.9417679 -0.9644529 -0.11744644 0.4474005 -5.560148 1.241441 1.0196303 0.267862 -0.6649464 -0.69137084 1.2535008 -2.790703 -0.03749529 -0.8099003 -0.5993373
749 -1.0589858 -1.994049 -2.9641132 0.88426 -0.65051836 -1.7349341 2.5973248 -1.3460406 1.5117515 -1.0490546 -1.4435316 -0.19022733 0.3540862 0.21912117 0.12951277 -1.41197
268 0.1456942 1.8706956 0.49832758 0.33071157 1.0274028 -2.1081355 2.8450816 1.6645043 -0.6805757 0.93515724 -1.2642626 1.636292 -0.552384 2.846983 -0.31610042 -2.1183429
316 1.4851121 -1.5586013 -1.561967 0.95499796 2.550598 -1.1361341 0.34831244 0.4388373 0.19793443 -1.2308512 -0.43970418 -1.4513721 0.68619233 2.7404401 1.0296593 -0.99478304
1123 -0.9531092 0.5145819 0.3666302 2.9068747 0.005957065 1.1934187 2.6415505 -0.41984448 -1.0969225 -0.46308464 -0.9151034 0.17041494 -1.2385621 1.56178 1.0070772 0.23900275
733 -2.0311215 -2.5161505 -2.9626098 1.512809 -0.55042773 -3.005042 1.8241429 -0.45257923 -0.7291669 -1.8009427 -0.01858961 0.6630047 -0.97707474 0.11093102 -0.17765194 -2.0038247
