10000 16
4665 1.081845 -1.4612125 0.75452626 0.45932594 -1.2929851 0.09814881 0.6394379 -0.6133715 -0.3801627 1.4927617 -0.79475015 -0.55458933 -0.48385996 1.111309 1.3592049 -2.4416702
8310 0.25199032 -0.91002333 0.28251648 -0.8480467 -1.0945312 -0.1754654 -0.61140615 -0.0030149985 1.8092682 -1.0812217 1.4154946 1.272406 0.60485446 0.56130576 0.6977385 -1.5275506
5974 0.09147083 1.6292781 -0.476103 0.18296364 -1.189893 0.18342686 1.4289745 0.21394964 0.38325647 1.1252189 1.5973788 -0.28589302 -0.50791925 1.4273944 1.1717378 -0.22402947
7825 0.16618456 -0.99691564 0.20610836 -0.6926057 -1.0756668 -0.09202252 -0.7007123 -0.27923185 1.8483309 -1.0795629 1.396657 1.2215713 0.6683993 0.6690012 0.59369844 -1.6964109
4978 1.2470534 -1.4681956 0.7947329 0.3447811 -1.3472446 0.056682378 0.82519525 -0.68917805 -0.41784254 1.52485 -0.6798816 -0.6570596 -0.4908469 1.0749453 1.3983121 -2.6011155
6244 -0.0061404766 1.5928154 -0.40502277 -0.07266658 -1.278656 0.075678706 1.6652209 0.16687009 0.45811892 1.2018123 1.8694375 -0.39238715 -0.64472073 1.3822681 1.1548082 -0.29031545
4142 1.2347046 0.31815454 0.36559477 0.09090353 0.1589978 0.7582198 -1.4174045 0.88846445 0.38574368 1.4884796 0.31291816 -2.0120523 2.16421 0.918553 1.2606713 -1.58388
8777 0.0825817 -0.69026196 0.19955103 -0.91340894 -0.8414652 0.09351097 -0.6945356 0.025688075 1.4449307 -0.84372735 0.9611636 0.979577 0.51813346 0.5331733 0.7579211 -1.6026242
7794 0.12058206 -0.7334686 0.19821379 -0.8911715 -0.85990864 0.010269677 -0.6498039 0.08251577 1.3170445 -0.6781648 0.91425586 0.9203115 0.47475755 0.39466688 0.6982209 -1.5008482
8690 -0.06973202 -0.88381016 0.27220625 -0.74597543 -1.1899791 -0.2433476 -0.52610904 -0.029390601 1.6356276 -0.49348262 1.41448 1.1561207 0.5860314 0.29812506 0.3508306 -1.76092
3943 1.3094773 0.4648499 0.46638408 -0.13455679 -0.085625604 0.92119604 -1.2449526 0.89633816 0.43186665 1.6832722 0.26281735 -2.1652799 2.472189 1.0373564 1.2717817 -1.5207562
5903 0.044961046 1.659055 -0.5218688 0.017956711 -1.3481495 0.0961265 1.6020719 0.1049677 0.45376495 1.4667193 2.1330998 -0.43428206 -0.6420979 1.6269188 0.9364277 -0.25360575
6850 0.27219924 1.5119139 -0.44535756 0.22960314 -0.9824313 0.1840639 1.5950836 0.1758239 0.28472048 1.1349673 1.4504839 -0.15468298 -0.5593019 1.3705168 1.0071236 -0.28283504
7881 0.062271483 -0.69924784 0.24849042 -0.8995401 -0.77227557 0.06837867 -0.5753088 0.20046379 1.0911299 -0.65475553 0.9602338 1.0016849 0.40487534 0.2533514 0.6949006 -1.4248785
6446 0.22072862 1.5447468 -0.46372768 -0.03528832 -1.2511251 -0.025238365 1.501862 0.122383356 0.30990607 1.2427944 1.8727094 -0.47816363 -0.47002566 1.3309621 1.1781731 -0.20175442
7962 0.15568338 -1.10888 0.3056884 -0.6431617 -1.1983894 -0.2385074 -0.53089815 -0.10906619 1.9976697 -0.91260654 1.6120391 1.4295156 0.81522375 0.5098719 0.357065 -1.7252015
6183 0.06271428 1.7691479 -0.4585011 0.024192112 -1.2464314 0.18443419 1.3805001 0.3088096 0.37792417 1.3872434 1.8716426 -0.3564496 -0.58352065 1.5863085 1.3597443 -0.087564364
4774 0.9571253 -1.6472788 0.5303401 0.539724 -1.035978 0.19150825 0.4437371 -0.4992417 -0.3551142 1.4582151 -0.9425046 -0.67995155 -0.5846777 1.3888621 1.3800179 -2.438522
3080 -1.1399883 -0.6805469 -0.66275513 2.6296928 0.40931767 0.08178477 1.5801768 -0.9094663 0.78375417 0.60796994 1.280401 -0.8179264 2.4338036 0.73010516 1.9764223 -0.73621213
7983 0.06554521 -0.5450935 0.1676276 -0.6551263 -0.8818605 -0.05976815 -0.56104547 0.087103374 0.96765476 -0.5574387 1.0024279 0.9828976 0.38820478 0.17278028 0.6684349 -1.2212543
3954 1.096563 0.32896388 0.37938827 0.21161272 0.084489584 0.81085324 -1.4264833 1.0666757 0.48009866 1.4467875 0.24717294 -1.7919308 1.9675609 0.9260257 1.0902032 -1.3995105
7047 -0.05340109 1.4807312 -0.50810087 0.15726201 -1.2043246 0.0864359 1.5245129 0.44525716 0.37111557 1.0053542 1.5212758 -0.41875494 -0.5452274 1.3675799 1.1798463 -0.23319401
3320 1.5858171 0.2723441 2.4676745 -0.12193999 1.5373226 -0.8018693 1.4282237 -2.3630776 0.38700578 0.36849833 1.3253604 0.18492025 1.5251255 0.8381743 1.2176739 -0.20181371
2911 -0.83998036 -0.65261817 -0.70757043 2.9152343 0.49546158 0.053632967 1.676046 -0.53053606 0.6350176 0.56529754 1.4444875 -0.75169694 2.5918224 0.6762795 1.9032521 -0.72658736
3346 1.6773269 0.14497274 2.688637 -0.12900229 1.5104983 -0.92269135 1.7084589 -2.536851 0.5535696 0.44761005 1.5655885 0.18366344 1.4868662 0.74193496 1.0213697 -0.34009427
8702 -0.028999392 -0.47636878 0.1648547 -0.8235472 -0.49863368 -0.20740317 -0.83582944 0.0028463244 0.9251133 -0.529499 0.8930649 0.71177036 0.35044697 0.54593134 0.56021816 -1.4807732
2553 -1.1415709 -1.6063988 1.933118 -0.75237715 -0.051576752 -0.07655512 2.0939112 0.19647394 1.8696004 2.6394598 0.09284576 0.5065917 0.41921344 0.28386182 1.6276124 0.1511169
2616 -1.1110777 -1.8284087 2.2075539 -0.70405066 -0.12350506 -0.3720459 1.7520317 0.29993534 1.9681132 2.5394702 -0.19497634 0.055278704 0.7439032 0.18250395 1.766459 0.02001998
8462 0.28615415 -0.65013635 0.28165987 -0.7629794 -1.0404029 -0.01188677 -0.11216102 0.04385026 1.621248 -0.60897595 1.2495689 1.2077616 0.5413829 0.37048328 0.18819392 -1.265156
8294 0.39700198 -0.6014823 0.57337147 -0.69521797 -1.1230925 -0.46061537 -0.2621537 0.3638573 2.4187157 -0.5588591 2.0687923 0.8407563 0.4669954 0.08847786 -0.22198822 -1.2316447
3449 1.73394 -0.7964558 1.7315613 0.3984655 1.2469549 -0.8764321 1.1900469 -1.9103092 0.7566646 0.09572672 1.3805159 0.38720998 1.5339264 1.6974975 0.5869434 0.47370568
7804 -0.4045615 -1.0637835 0.530661 -0.81285095 -1.0685253 -0.041016154 -0.4534217 -0.3588001 2.1197987 -0.43164712 1.1770333 0.9973404 0.6526299 0.07725415 0.30426255 -2.0116751
8742 0.13212211 -0.617853 0.5908136 -0.6714711 -1.2314298 -0.04182872 -0.83246905 -0.034899775 1.7290664 -0.5866393 1.3693776 1.2653357 0.6615723 0.5129864 0.16580375 -1.7668196
3047 -0.8460255 -0.5261658 -0.471634 2.417985 0.2710391 -0.115706176 1.1746943 -0.9902974 1.216801 0.63831365 0.9930617 -0.7667304 1.7995509 0.9077833 1.2701961 -0.45401955
4798 1.7795684 -0.81243527 1.2105206 0.52020776 -1.6576678 0.37860087 1.5453994 -0.50058836 -0.7371058 1.704253 -0.3549424 -0.1901494 -0.1438916 0.91931576 1.1074953 -2.70209
3392 1.9710255 -0.5606836 1.5568928 0.07935129 1.2111771 -0.79210085 1.1009607 -1.7949013 0.73435825 -0.18565904 1.5535326 0.29003438 1.2809111 1.3189235 0.821086 0.4415479
2649 -0.7898403 -1.6027809 1.8804014 -1.2101196 0.12990473 0.10461305 2.2441158 0.55190927 1.5095999 2.101917 0.26003549 0.12718835 0.27856106 0.123306476 1.6001676 -0.0017226544
1730 -0.26730123 1.1433741 3.2603526 1.3914605 0.18125547 0.80477405 -0.49619687 -0.46256977 0.72150207 0.27853945 1.0703584 0.21829405 -1.3630973 1.1668751 2.2372034 -0.09592388
8318 0.05939846 -0.42627168 -0.0838943 0.22089793 -1.1374701 -0.5800296 -0.68306196 -0.66083455 1.4369267 -0.3022769 1.6911601 1.2647877 0.89195204 0.16439682 0.16610199 -1.9206308
1624 -0.47537553 -2.0636506 1.9702172 1.2843268 -0.12175827 1.7693604 -0.34322262 -1.006488 -1.0739985 2.7707822 2.3072248 -1.5043508 -1.4983253 1.2804693 0.62462026 -0.69761264
1781 -0.8201347 0.7082621 3.3316596 1.5546587 0.39212433 0.7923668 -0.747352 -0.8597133 0.89665645 1.2661592 1.014849 1.2320852 -1.6513541 2.2214525 1.9135456 -0.3441581
1747 -0.92390686 1.0545294 3.3592734 1.3228469 0.5505615 0.9000739 -0.6046537 -0.85551375 0.99291605 1.291218 0.9263848 0.70642394 -1.5796599 2.2788746 1.7566082 -0.5489454
7433 0.25368154 -0.6003908 0.48087174 -0.028695682 -0.7522691 -0.34571707 -1.1270015 -0.46296826 1.6403302 -0.7310018 1.8961173 1.6366276 0.6808829 0.49609596 0.46321103 -0.8244649
9353 0.25765422 -0.2299888 0.33413383 -1.1097357 -0.60654527 -0.40282744 -0.539287 0.25285527 1.4740075 -0.37874243 1.4525045 1.1254667 0.6267067 0.0635055 0.51534796 -1.6881198
3891 0.99356055 0.37408832 0.62187696 -0.3895781 0.27266428 0.59902453 -1.1844983 0.6872922 0.3097212 1.6243287 0.36863253 -1.848064 1.8914206 0.7848008 0.63456345 -1.572466
1668 -0.7814141 -1.8683887 2.276725 1.179383 -0.07661898 1.7872438 -0.1854807 -1.3190308 -1.0929714 3.127547 1.8788968 -1.4853144 -1.3217384 1.6298199 0.5733263 -0.8195589
2358 0.45234698 -0.5985262 2.393401 1.5951062 -0.9611809 -0.27283278 0.15785213 1.6068845 -1.706321 -1.1366845 2.8884208 -0.4701095 0.30712327 -0.44040063 1.2098821 -0.96603096
4150 1.0563821 0.30009118 0.69508076 0.01355078 0.3749682 0.88798 -0.7123303 0.49179018 0.11580098 1.8560889 0.80649275 -2.5419579 2.8225367 0.78184474 0.60656404 -1.488674
2349 0.4566043 -0.7025274 3.1518376 2.0747547 -1.1558692 -0.17555134 0.29151174 2.0661936 -1.8454984 -1.2142109 3.2736204 -0.3500178 0.4821571 -0.6943591 1.4416007 -1.3237178
6047 0.5165754 2.0079093 -0.4958694 0.41536623 -0.9349697 -0.3817798 0.73586464 0.002813831 0.97800136 2.0012074 2.6663897 -0.18602756 -0.5123018 1.3246914 1.3836198 0.27492863
1939 0.4186348 -1.5686488 -0.7766126 2.1254911 0.527825 2.5649202 1.1663346 0.965995 -0.21763213 1.498642 4.0816245 1.1388637 1.4384139 0.3387785 1.4893234 1.1112419
3350 2.2339323 -0.7837161 1.3152688 0.48518488 1.2769886 -1.0356138 1.2028903 -1.2325144 0.59922135 0.02782482 1.0564811 0.24763522 1.2698795 1.561674 0.32373765 -0.014685099
4669 1.8622524 -0.8958169 0.6682788 1.09694 -1.2624621 0.5050688 0.93816537 -0.52967304 -0.52431303 1.3398589 -0.23039007 0.7862394 -1.1159563 0.8084262 1.7238784 -1.8762196
5916 0.4127916 1.846614 -0.27627152 0.086940385 -0.41981307 0.2908209 1.1886433 0.6077179 0.34512174 0.85766333 1.8083811 -0.03369657 -1.0394595 1.8452194 0.9478254 -0.12787673
3141 -0.68496805 -0.4639989 -0.5255577 2.0788584 0.47634324 0.044147376 0.9367421 -0.56900376 0.69581985 0.42958862 0.8849301 -0.4460022 1.847969 0.7763742 1.3252808 -0.26361907
1943 1.4639522 -1.9372663 -0.3488625 -0.47721624 1.298659 3.8429773 1.7754166 0.5399584 0.2314091 0.52460945 3.0745754 -0.033632383 0.35607982 2.1913576 0.12693746 0.046423014
4751 1.405371 -0.41931483 1.4870553 1.3300794 -1.0633427 0.77726793 0.7063541 -0.20457906 -1.3487427 0.80292094 -0.3839962 0.4280788 -0.90596974 0.9048059 1.8141934 -2.3567014
2049 1.9001162 -2.4761484 -0.46190187 0.059423875 1.361782 4.4141665 1.8646619 0.5993729 0.20003979 0.8262535 2.3512158 -0.27271238 1.0332457 1.6002976 0.73494434 -0.5719772
6392 0.040580284 1.9000357 -0.5626284 0.6845885 -1.125895 -0.07290299 1.7002251 0.803917 0.18338402 1.11909 1.5344319 0.0005511459 -0.05388465 1.7621491 1.3256495 -0.12152751
4649 2.0729017 -0.5335077 1.540795 1.5112695 -1.7074867 0.09560738 1.326203 0.42064005 -0.52956575 0.016910601 -0.99546283 0.113451354 -0.5175438 1.5982658 1.8600551 -1.9241072
3361 0.78332835 -0.09495054 0.9172892 0.2219623 1.7148039 -1.6246727 0.46718282 -1.6512036 0.105585024 1.311027 1.6514043 1.385713 1.8779536 1.9037476 0.78471696 -0.16920467
3495 0.6496139 0.322011 0.7500743 0.52428967 1.8402411 -1.5569421 0.31813508 -1.5233366 0.04733209 1.3847762 1.4666752 1.7076429 1.8852453 1.8951986 1.0373486 -0.19792645
2639 -0.5208378 -1.4689487 1.7121348 -0.70370567 0.09407563 0.16653095 1.7336363 0.6910136 1.4998999 1.9239959 0.1915427 0.38257283 0.008632528 0.121682286 0.8685225 -0.051150274
1410 -1.1065581 0.62870073 0.88202983 0.22232328 -1.3219234 1.8484303 -1.0127712 -0.8142083 -0.7208403 2.2410662 1.533963 1.0576497 3.2204206 0.5883246 0.7533376 -1.2791811
1297 -1.8428322 0.265917 2.0754623 -1.1070566 -1.0395668 1.8719612 0.36978737 -0.4918205 0.3242726 -0.363685 1.0198501 -0.29251865 1.3362498 2.190756 2.4076316 1.204381
2759 -1.4747708 -1.8800707 1.7682351 -0.82573754 -0.75836533 -0.056064613 1.7586006 0.5032075 1.7033609 1.5993835 0.3610539 -0.7376391 0.66949224 -0.43823597 1.877002 -0.12633131
1700 -0.6452381 0.8431664 3.3264802 1.2447482 -0.3456656 0.6737805 -0.75286186 -0.6196063 0.8320093 0.60000074 1.4338759 0.5899576 -1.654142 1.2402446 2.2468421 0.08650885
3319 1.8500787 -0.41166893 2.161687 0.050306182 1.4020586 -0.5472294 1.3823286 -1.58175 0.57538253 0.27423942 1.3294785 0.40241668 1.5034096 1.1326449 0.38722524 0.17528562
2572 -0.45152572 -0.98551565 1.6369838 -0.89181095 0.5387114 0.46907884 2.017553 0.5487847 1.4341187 2.2182271 0.49671254 0.053944904 0.2080047 -0.4025193 1.2712178 -0.22235782
2043 -0.122925475 -0.98722667 -0.23629025 1.145041 0.71733195 2.8919046 0.29594034 0.7058527 0.32066008 1.2773097 2.7552845 0.71985763 0.48099294 1.2491734 0.20755914 0.32344714
2309 0.46224713 0.26031423 3.0455742 1.6021127 -0.5309726 -0.022205077 1.7918655 1.2353626 0.29064688 -0.41983026 1.513502 -0.41114888 1.2208763 1.7662439 -0.86093974 -0.023294717
3130 -1.0935196 -1.0067408 -0.49319208 2.7537227 0.38522348 -0.36918414 0.8713045 -1.2622799 1.3570997 0.65489906 1.2513622 -0.8743681 2.45621 0.43881688 2.3679473 -0.62001806
760 -0.11155901 -1.1499441 1.7385945 4.810753 -1.83361 2.2760003 1.4068581 2.6038878 3.4777942 -0.20825024 -0.31499344 1.2631689 -0.36159697 1.9113694 0.6625634 -2.5433903
3133 -0.6588631 -0.5990752 -0.3306207 2.1480732 0.3470358 0.20386592 1.0750136 -0.4299533 1.6234947 0.5562151 0.5419799 -0.4645033 2.3133526 0.6801177 1.7129326 -0.16824044
1424 -1.3439417 -0.39662245 0.76220536 -0.3512355 -1.5597547 2.0154748 -0.3501801 -2.0578425 -0.5307912 1.4185466 1.5502944 0.29942772 1.9408636 0.9806512 0.22733498 -1.8509668
8080 1.1409808 0.29605207 -0.24005312 -0.53591883 0.15945154 0.5534742 -0.42640647 1.6549503 2.3485348 -0.7181342 0.036248017 1.530342 0.2507444 0.5659344 1.3403485 -1.9548846
3517 0.54877174 0.36061147 1.1867458 0.39823693 2.314815 -1.9638654 0.31184503 -2.084863 -0.35668647 1.4852866 2.386041 1.6307443 1.9720132 2.3100824 1.4434187 -0.23045793
1521 -1.3363862 0.45739353 1.1680659 -0.34750697 -1.7271835 1.490358 -1.2763141 -0.9735957 -1.0599334 1.9487956 1.7864544 1.3773122 3.596893 0.33254704 1.1762271 -1.5803194
1169 -3.3765001 -2.2262468 0.11156077 0.5565677 -0.8522193 0.91924083 0.8933745 1.5424663 2.5698721 1.0346664 3.1958096 0.6921188 -0.5907884 2.2906797 1.4493861 0.3132842
1295 -2.3223546 -0.079727136 2.2853692 -1.0416845 -0.73305035 1.7475982 0.18767983 -1.2444528 0.40290287 -0.43900317 1.2505035 -0.8578373 2.0481296 1.5924728 2.8452892 0.8411067
1917 0.538021 -0.9547992 -0.53537804 1.796453 0.7422861 1.9319164 0.96973574 1.4214026 -0.45489112 1.9113688 3.2186723 1.3091477 0.74949867 0.14521663 1.2784089 0.7638071
1159 -3.300706 -1.7275498 0.36056292 0.40834087 -0.98351234 0.6065905 0.5718757 1.1070068 2.3993583 1.2515671 2.8658137 0.7853403 -0.39117092 2.217573 1.311337 0.46100512
801 -0.47032905 -0.6703804 1.6392429 4.8615103 -1.6116939 2.3375795 1.7378986 2.4786005 3.8564057 0.4320894 -0.4776979 1.4455743 -0.7955948 1.893284 0.5772335 -2.9113948
3073 -0.078189954 -1.1424496 0.030642997 0.9813916 -0.23724273 0.113481164 0.57439053 -2.0010064 1.8569986 -2.1150591 2.259189 -2.9717233 0.9727168 1.3327394 1.0979419 -0.5174846
2112 -0.080363415 -0.61194855 0.03127511 1.1468853 0.7669762 3.331312 0.47949535 0.39152125 0.49109644 1.2974774 2.8304017 1.1267668 0.07834025 1.6581295 -0.023826791 0.23860091
1687 0.1891582 -0.97101855 1.597349 0.9331885 0.6577685 1.5026141 -0.2987296 -1.2723016 -1.4207267 1.6582543 2.1406574 -1.2830707 -1.1522657 0.9436145 0.9936234 -0.91775304
2247 0.13600296 0.55196196 3.4100711 1.6498072 -0.46749702 0.1725449 1.8275515 1.133442 0.81187415 -0.13548024 1.2485101 -0.22169769 1.0346028 1.620189 -0.9856702 -0.0987314
3962 1.1728535 0.4351538 0.8968242 -0.041625027 -0.40451127 1.0122768 -1.1124026 0.47995892 1.0459108 2.03135 1.1401675 -3.585939 2.042336 0.49985602 1.1107893 -1.129751
1260 0.034550633 -2.489167 0.56608546 -0.16282596 0.6691672 1.4692806 -0.20266987 0.0816493 -0.36362407 -2.6537273 1.2504817 -1.1488568 1.8778257 4.2189746 1.8931353 -1.7272364
836 -2.0830133 0.23743233 1.9236301 -0.39948905 -0.1808171 -1.2665153 2.2397277 3.121348 -0.08126001 0.09735348 2.1286566 -1.9449522 4.084697 1.333669 1.9666632 -1.1250895
2350 -0.07631511 0.58448195 2.459675 1.1413984 -0.29443383 0.24834256 0.7439183 0.6429577 -0.56689274 -0.7980766 2.0353224 -0.24531928 0.25632393 0.3992276 -0.005553209 -0.7340055
2315 0.6513531 0.8523487 3.7251098 2.4999685 -1.4652637 0.067953326 2.286572 0.72935206 0.45920357 -1.1505388 2.375098 -0.59767425 0.75714034 0.7927998 0.31957155 -0.27097777
2642 -1.135088 -2.0018556 1.6493742 -0.9642215 -0.19166194 0.6013745 2.4219105 -0.17847499 1.2942059 2.4011593 0.6894205 0.9552815 0.13053124 0.17574902 1.4421948 0.23138821
1333 -2.002881 -0.69189596 1.747345 -1.641404 -1.4990736 0.27332944 1.8158107 -0.7742917 -0.6552962 -1.5636644 1.1510111 -0.29208282 1.302105 1.9800386 2.920045 0.43751428
2055 0.47163707 -1.7998248 -0.89842594 1.5924431 0.71623844 2.428384 1.6209207 0.59405726 -0.27112523 1.3306577 3.9698617 0.76730245 1.6659664 0.77764994 1.0850283 1.156158
375 2.8727965 -2.6961753 1.253641 -1.7957532 0.37627426 2.5945425 1.8948916 1.5936679 0.87929916 0.82450247 0.96955466 -0.6339615 1.087853 1.7899547 0.70620394 -0.7281077
3343 2.3104877 -0.6987887 1.4868128 0.5542771 0.7798492 -1.3471836 1.5404539 -1.1974143 0.38906437 0.20082095 1.0710499 0.089930624 1.3363503 1.021351 0.5089546 0.05053088
369 2.8324988 -2.8732498 1.2623821 -1.6586454 0.3963601 2.7242048 2.0432577 1.6105386 0.72083884 0.7976738 0.87061703 -0.54035795 1.5946684 1.5536041 0.97072756 -0.6590242
1632 0.6475037 -0.54019934 2.080118 1.7245699 1.0403229 2.5073676 -0.2636714 -2.3225567 -1.9022613 0.9758511 3.1252296 -1.6385689 -1.0460051 1.3019842 1.6980959 -1.4201077
3229 -0.08147894 -1.5074533 -0.016790947 1.102743 -0.46759668 0.03926697 0.45999795 -1.6846129 1.9379005 -2.1755214 2.543946 -2.9782562 0.99051523 1.151187 1.1614931 -0.41611025
1578 0.89167786 -0.64606094 1.8679056 1.6905588 1.212464 2.1142645 -0.080498874 -2.1645014 -2.5526493 0.6850652 2.9312482 -0.98146224 -1.2857457 1.5421096 1.9637176 -1.4255928
1227 -0.13010551 -2.8606083 0.6245262 -0.11443936 0.7166035 1.3142527 -0.110095955 0.45738837 -0.4323951 -2.4380183 1.3173424 -1.1370268 2.1819277 4.15853 1.5919516 -1.8277678
8582 0.1736111 -0.1342799 -0.0925376 -0.32789007 -0.34193417 -0.5817539 -0.6940322 1.19141 0.41938257 -0.38947392 1.2623038 1.9648305 0.4497507 0.44781718 1.1405872 -0.8031846
3453 1.341655 -0.58061117 0.6661418 0.97408354 1.2843672 -1.4128513 0.2875095 -1.1289507 0.65569186 0.52339756 1.3957465 1.2917476 1.765486 1.199121 0.44516873 0.00865153
1039 0.3827877 -0.07864037 2.2241304 -2.9765706 -0.059004758 2.0435088 1.5035068 0.6562872 -0.7065418 2.0692842 2.498691 1.6744826 2.9863591 -0.8754808 0.8501114 -2.6949935
2250 0.3425769 0.35641143 2.5658193 1.1137501 -0.55627614 0.14360884 0.65461516 1.2043121 -0.62589467 -0.27314284 1.5314255 0.04617104 0.60439205 -0.5814977 0.40210423 -0.99402493
1784 -0.2498294 0.80937743 2.353781 0.9747123 0.71471584 1.1091195 -0.4550692 0.1349949 0.41050646 0.36743757 0.5618023 0.28533036 -0.7825834 1.0343668 1.7922983 0.1137272
1419 -1.4513464 0.14215292 0.8962082 0.22990565 -2.1046793 2.1780043 -0.6396081 -1.6117152 -0.24543938 1.8912262 1.5473895 0.21643348 2.2635586 1.1571871 0.3008992 -1.681012
1618 0.99860483 -1.0791318 1.134565 1.4854238 1.2586238 2.6537304 -0.24516462 -1.7611282 -2.5003476 0.36547068 2.8546176 -0.8786258 -1.3803214 1.9055734 1.9966415 -1.5606108
1964 1.1336685 -1.7523309 -0.8288435 2.7138302 0.8274459 1.8766878 1.0571344 1.6207744 -0.18899795 1.3622905 3.919186 1.2225419 0.74290794 0.47785437 1.7138734 1.131765
1025 0.31027058 0.013570665 2.3150294 -2.8433874 -0.26839095 1.8851439 1.5777276 0.3727819 -0.60801107 2.7361658 2.8745005 1.4052318 2.9805975 -1.0031376 0.61847 -2.7494576
853 -1.9947184 -0.34910104 1.9018261 -0.05682406 -0.4229196 -1.3162374 1.9851096 3.1499872 -0.28678158 -0.09963234 2.163946 -2.0619693 4.0813823 1.8235596 1.4824284 -1.1548449
2243 0.47740462 1.1622579 3.8179104 1.4410532 -0.80585676 0.6271583 1.8798013 1.5821735 -0.18371715 -0.551613 2.5766237 -0.26296547 0.22653286 -0.61601526 0.8137198 -0.9903042
751 -1.4884022 -1.3139147 0.8915437 2.5879173 -3.242834 -2.0785923 0.024023341 0.5931795 -0.9194856 2.0011451 1.0998067 0.008640629 2.1592178 2.4202569 3.0248272 1.3479819
8203 0.24704573 -0.08569282 0.46369725 -0.06802936 -0.7831539 -0.5418104 -0.57283545 0.96329266 0.64167863 -0.09517107 1.3030359 1.5740753 0.5955606 0.29289842 0.087779984 -0.7296893
1371 -2.1474266 -1.3230851 2.4971712 -1.8953252 -1.8930851 0.21444038 1.966115 -0.67336506 -0.50736225 -1.9354999 1.2757115 -0.74936855 1.8042064 2.34319 3.091687 0.60916555
2155 0.65129393 0.4779211 2.9230542 1.6275893 -1.6848558 -0.28359613 1.4536157 0.6997426 -0.710717 -1.0263445 2.0585763 -0.1155874 1.1846918 0.87929714 0.3516086 -0.17538002
954 -0.35020718 0.22601801 3.3723001 2.4705334 0.68510795 -2.2161796 -1.46403 0.6334447 -0.25526848 1.3029089 2.5278006 -0.112261966 -0.6871548 2.4058719 1.2913148 -0.03185798
3015 -1.055458 -0.72526324 -0.049219657 2.027068 0.34736657 0.09250322 0.9145714 -2.1944568 2.3385417 -0.115112685 0.9980006 -1.5546973 1.5059317 0.70670664 1.4072548 -1.2291625
78 -0.63619375 -2.6347344 1.8033253 0.30664372 2.7202177 0.539368 1.8303106 1.7987442 0.7693602 -0.39561152 -0.67094445 0.52931726 1.4991543 1.2796606 2.9452095 -1.0338567
1276 -2.3096154 -0.49001706 1.5447212 -0.9555835 -0.99361247 1.0240583 0.20385294 -1.1301316 0.2090839 -0.5445866 1.0503566 -0.85256976 1.4631314 1.4313475 2.2290711 0.5874682
331 -1.1772162 -2.520911 4.073045 -0.19626153 0.68371326 -0.21927318 2.36865 0.17725804 1.9965872 -1.2405353 1.2140322 0.023382729 1.9743232 1.8597498 -0.03451218 -1.5792553
2296 0.5249219 0.27128205 3.0240376 0.99227697 -0.33788204 -0.04418738 0.114571206 1.0559189 -1.2636116 -0.48217314 2.2165346 0.026713716 0.91307026 1.0569873 -0.35756925 -0.6930011
515 0.13478486 -0.9143064 2.1801922 -0.72583836 -1.9050262 1.0849835 0.07122907 1.8026644 -2.4303973 0.5472519 1.1765292 3.2309132 1.9088345 2.2924972 1.7460914 0.21127209
1472 -0.68670505 0.11707648 0.689467 -0.38741118 -1.0499256 1.6371136 0.10989952 -1.3684328 -0.5453557 1.2240766 0.9835969 0.36326268 1.8997904 1.4830925 -0.21198183 -1.4678725
972 -0.1726776 0.52854496 3.8788083 2.365348 0.4807054 -2.5355158 -1.3122482 0.38977763 -0.46798444 1.2519424 2.5807347 0.09740646 -0.86534166 2.1033525 1.6783035 -0.20056404
1408 -1.7114513 0.54625183 0.49641287 -0.29735434 -1.6797013 2.677857 -1.0105095 -1.3392668 -0.48358393 1.6227827 2.5560987 0.84900343 2.379247 0.7565209 0.51266056 -2.0312004
2912 -1.5003945 -0.35152477 -0.020350229 1.7368654 -0.10624587 -0.2963936 0.7985617 -1.4782883 1.4149177 -0.041982148 0.79390293 -0.86793447 1.5611165 0.6433187 1.346019 -0.8598029
1008 -1.1479431 -1.1896489 2.0314925 1.4066195 0.030582398 -1.0399135 -1.3073713 2.6601813 0.88798535 1.6536996 2.3688767 -0.15379347 0.7371224 2.531033 0.88507605 1.514527
733 -1.6316985 -0.6963646 0.8221774 2.5273383 -3.135123 -2.1726615 0.28443006 0.66613656 -1.2715116 2.2616556 1.4248662 0.61934996 1.7498367 2.12337 3.2651837 1.3339697
1002 -0.55062914 -0.8472555 1.3332071 0.851019 0.041576922 -1.0163156 -1.0881404 1.5328815 0.32472482 0.9720327 2.0472813 -0.33256403 0.36229154 2.2288876 0.7260596 1.4305383
2163 -0.18032323 0.059431143 2.0538857 1.0512621 -0.48526162 -0.1607114 0.5451727 0.62808615 -0.9081078 -0.9021937 1.8568648 -0.6365494 0.46196714 0.2920675 0.414657 -0.54411894
683 0.82103336 -2.1617317 0.4283937 1.7647928 -1.5366672 -0.15025888 0.058890093 0.86421096 1.5989653 1.1949105 3.7127912 -2.456235 -0.579911 -1.1352427 2.6736162 0.16851956
2346 0.60337645 0.46183234 2.439104 1.086943 -0.83586514 0.30352497 0.98711467 0.6968077 -0.25960097 -1.120648 1.7008426 0.10480763 0.7673249 0.46488407 -0.098366305 -0.5951775
704 1.0192354 -2.2775445 -0.10519396 1.8347588 -1.507475 0.30187854 0.67822796 0.5576884 1.2839928 0.61574066 4.094369 -2.1928031 -0.39480487 -1.1907591 2.8324804 0.3328292
279 0.4148319 -1.4658777 2.1076949 -2.4713607 -1.3410859 -0.5123753 -0.96650773 1.2065201 -1.1908062 -0.99035347 3.2147257 -1.5353702 0.70515937 -0.47713757 6.1100564 0.5490169
2676 -1.6516014 -1.4360235 1.845595 -1.3868378 -0.94664377 -0.24904087 2.3215644 0.52597547 1.3853166 0.96405023 0.85470897 -0.874204 0.27638704 -0.78387964 2.609428 -0.25668606
1303 -2.4753802 -0.2292791 2.2546206 -0.9358673 -0.87321603 1.0311545 0.35704067 -1.0617521 0.35005528 -0.4899765 0.8079804 -0.30876857 1.7836047 1.4335079 2.2238812 0.46185544
3256 -1.332883 -2.1847503 1.2312843 2.578495 -0.5077431 -0.4746336 0.48801625 -1.6623323 1.7868237 -2.1306818 1.0850738 -2.6033783 1.9754437 2.5768263 1.211083 -2.330673
1454 -1.5682212 0.71483684 1.0394309 0.3411733 -1.5098763 0.88074374 -0.7473285 -1.6689314 -0.7677285 2.467625 1.5256402 0.9817558 2.2836406 1.0611802 0.5873637 -1.567144
604 -0.28109187 -1.338285 1.5480237 3.169621 -0.9798043 -1.8808752 -0.86160016 2.3742895 0.38090774 0.9947717 2.7200892 -3.775619 0.26220262 1.9833145 0.33728758 -4.0418606
615 -0.40836018 -1.4853728 2.105994 3.0894673 -1.2033782 -1.8803178 -0.54503953 2.2494419 0.63559824 0.7918523 2.76511 -3.853856 0.09004173 1.6588575 0.21062231 -4.363275
2086 0.28067532 -0.35791937 -0.3147249 1.1200305 0.8762959 3.4181855 0.048524715 0.29020038 0.27196488 1.1849301 2.8343089 1.3053061 0.18276191 1.3675289 0.851106 0.4356931
3502 1.2736516 -0.3029792 0.959839 0.18585801 1.0053672 -1.5270568 0.8273047 -1.8476155 0.20949577 0.85572076 1.5074502 1.6255597 1.7147146 1.2180904 0.6811834 -0.40198034
2197 0.47953263 0.4301384 3.5766897 0.84596366 -0.16491412 -0.069779515 -0.036059897 1.0796056 -1.0111971 0.06879198 2.1259475 0.122414105 0.7400576 0.9689828 -0.5516665 -0.76584715
83 -0.91292715 -2.4063792 2.183073 0.5454425 2.7190485 0.55738413 1.6712563 1.5174358 1.0660127 -0.27283582 -0.8705966 0.64112103 1.4839815 1.5698117 2.9131527 -0.83054686
1236 0.32017514 -1.4864501 0.45990297 -0.097904615 1.517673 0.57197064 -0.15126261 1.3066372 -0.56106776 -2.169045 2.3523898 -2.0460296 1.622108 3.978835 1.5809562 -1.5253109
7494 0.29218018 1.210188 1.3639177 0.13572374 -0.64060605 -0.8600867 -0.49141982 1.1591583 0.44212857 -0.80588347 1.525818 2.6156607 0.4621443 1.4508942 -0.0038444814 -1.6972241
217 -1.991236 -1.5764811 -0.7193642 -0.16827624 1.0529554 -0.032522973 0.6369489 -0.797063 -1.0346098 -0.07243652 1.9140255 1.8021988 -1.1018629 4.1765 1.3205153 -3.2173936
1033 0.61605746 -2.1824524 1.7240092 1.1227771 -1.7116427 -0.91096616 1.1140229 0.41677362 -0.13228136 2.9346063 0.8735373 0.24878983 2.8323216 0.9585488 -1.067285 -1.4306376
339 -1.6485775 -1.8318943 3.526616 -0.051137943 0.61089814 -0.21780325 2.3728607 0.1527173 2.0209484 -0.60348237 1.367995 0.43157417 1.8232901 1.8689331 -0.785813 -1.57453
2567 1.3174013 -1.8741457 1.7896043 -1.5176325 0.3682734 -0.56804794 0.62887657 1.3005531 1.1778724 1.6010109 0.83613175 -1.1322098 0.91546017 -0.8060908 1.3069679 -0.47201627
3171 -1.9809031 -2.4294436 0.9624396 2.1623569 -0.4823856 -0.54485774 0.66774136 -1.8374577 1.9996513 -2.0005698 1.1257877 -2.8003318 1.7161411 2.3133376 1.8950406 -2.2438695
570 1.8608477 -2.659286 1.7684999 2.7175496 -1.8525146 -1.7230059 1.9335138 -1.2654206 -0.9971966 1.4216621 2.633853 1.3245856 -1.2198111 0.34664425 2.770101 0.42044684
1496 -0.38898203 0.4410264 1.2317557 -0.6925194 -1.1980287 1.4056712 -0.102407135 -1.0499662 -0.1628934 1.1160411 1.0936455 0.9095746 1.9151709 1.8638666 -0.7626824 -1.2776302
3118 0.06325928 -0.85605174 -0.8782 2.3646762 0.7641273 0.6435277 1.9508091 0.11306206 0.6318774 0.6794987 1.1328713 0.34975418 2.7469132 -0.5935833 1.4991944 -1.6168547
1038 0.48393992 -2.0984476 1.7841538 1.1274415 -1.6312261 -1.1621587 0.9536506 0.5228328 -0.16607381 2.8058016 0.90626585 0.21066824 2.817205 0.7595039 -0.94427675 -1.5425849
4733 1.9390485 -1.3179265 0.38899344 1.1978344 -1.4154557 0.3609329 -0.051497407 0.22475189 -0.7928137 1.4603561 -0.34200862 0.47755253 -0.6783264 1.9004397 0.81422377 -1.3363395
516 0.009670023 -0.8636646 2.4908538 -0.5289615 -1.9345952 1.257454 -0.1491249 1.3126067 -1.9179136 0.78689736 0.7670936 3.290814 1.7451468 2.3210099 1.5862162 0.1664153
2610 -1.2718259 -1.0459195 1.9986578 -0.9710626 -0.43382353 0.24124542 2.1852667 0.21518275 0.99839354 1.8153248 1.0429125 -0.04187847 -0.16106267 -0.23353624 1.9393834 0.5428934
425 1.3185375 -0.7455039 2.3714547 -1.3263521 2.5115705 1.8645073 0.9976318 0.19211973 1.2631174 0.3654725 -0.02487524 -1.4415706 0.0666845 4.360295 1.3465807 -0.6613106
1197 -0.094591625 -1.1223435 0.21432632 0.011403416 1.5757129 0.109249435 1.2480483 1.7662189 -0.6434085 -2.5526745 2.7878647 -2.1626155 1.8696388 4.205304 1.4077837 -1.8957757
223 -2.5536785 -2.0511358 -0.8171545 -0.107548624 0.86120844 -0.17437108 0.6823921 -0.2727594 -1.4023883 -0.036399152 2.0467296 2.1839573 -0.79330665 4.203165 1.5047615 -3.6924624
2370 -0.26887727 0.3095365 2.775378 1.5588503 -0.86671925 -0.08101647 0.97792584 0.9604954 -0.56090397 -0.77285737 2.2774258 -0.05079723 0.82313097 0.9012896 -0.48374817 -0.67231154
55 1.107597 -2.1759555 0.8518917 0.078395694 1.2054079 0.39365074 2.6774974 0.36872572 0.26367006 -1.7989361 2.7127984 -2.0744822 -1.7340052 0.51503277 0.9203572 -3.675968
56 1.032487 -2.4095392 1.0066816 -0.5498259 1.1505164 0.27696222 2.71858 0.21657418 0.026526574 -1.6176891 2.8749254 -1.9847523 -1.9154328 1.2290735 0.7224237 -3.5702226
933 -0.23800881 -0.21585813 1.71563 -1.4367245 0.44633228 -0.39808035 0.39921767 0.1308959 0.48683336 2.20944 2.9309282 -0.8017688 -0.65344584 0.9170748 -0.07268407 -0.5244061
54 1.3865534 -2.3350968 0.8350007 0.06178642 1.3626832 0.31011507 2.8388307 0.3408628 0.2082989 -1.7978233 3.0160296 -2.1644769 -1.825412 0.5717347 0.9065717 -3.7477622
167 0.0664219 -1.8389078 1.5079349 -0.81401384 2.621981 1.2401943 1.408074 -0.38174254 2.3981302 0.6364055 4.7134776 0.8712446 -1.5748729 0.41139624 1.61154 -0.80259645
7839 0.5360991 -0.55373853 0.18896668 -0.37760112 -1.0066271 0.48152757 -0.9397747 0.15009229 1.4154543 -0.7468078 1.3138319 0.46775454 0.83996224 0.3690141 0.25886637 -0.8799075
1612 0.6034934 -1.3209817 2.0014274 1.2515774 0.088624336 1.7370287 -0.71292615 -1.2024994 -1.8191149 1.3842767 2.423198 -1.9092156 -0.9814857 1.3484808 1.1526268 -0.8751431
8389 0.29391596 0.5884166 1.0110859 -0.43728888 -0.68274146 -1.3912839 -1.0582573 1.4243577 0.4363875 -1.0718856 2.1266737 1.7447374 0.82608294 1.5466256 -0.24067765 -1.6632779
8118 0.98225087 -0.3274878 -1.0025609 0.091785274 0.048619602 0.019258173 -0.53514004 2.2879004 1.8284322 -0.3319555 0.62212497 2.6878297 -0.83362037 1.5445943 1.8564191 -1.3792015
220 -2.0359592 -2.721789 -1.1172291 0.27563468 1.1368421 -0.452838 0.7237971 -0.27617976 -0.6939258 0.2329901 1.9656549 2.1199512 -1.0983311 4.9045286 1.1556827 -4.3082337
1 -2.7736702 -1.0228659 1.4101945 0.6712412 4.1879153 0.5019659 -0.67528445 3.310042 0.08812579 1.6154231 1.7769686 -0.6580945 1.1900454 1.5715673 2.9052558 -3.4749298
1764 0.111868545 1.3275169 3.1821287 1.1267614 0.70308673 1.5735359 0.041113354 0.35804626 0.14484528 0.020888673 0.92473465 0.08676373 -0.6407077 1.1759357 1.7201759 0.27866808
289 -3.78612 0.017263163 1.3162811 0.5969829 -1.357976 2.7670956 3.4265118 -0.45989907 -0.967775 0.48926753 2.886199 -0.8044693 0.824773 0.5703035 0.44696578 -1.5598387
638 -1.2030921 -2.5346067 3.0395603 1.1782874 0.8858726 -1.1976538 -2.263146 -1.6784953 1.7417147 1.0239283 1.2579786 1.5439078 -0.20369445 1.453053 3.7588804 0.41658303
3 -2.7372017 -0.9644957 1.2509359 0.6522297 4.217563 0.61860114 -0.5344674 3.254544 0.1277866 1.6684983 1.8438058 -0.56883055 1.2045329 1.4840776 2.9874122 -3.3797944
890 -1.4451001 1.3032769 2.6215236 -3.383533 -0.48063165 -0.043422785 0.7842519 -0.64954114 0.36817878 2.5930092 3.9447813 -1.726623 -0.5576955 0.29535693 1.9104191 -2.2376323
172 0.21138217 -1.8152001 1.5645585 -0.75302595 2.448159 1.4040709 1.8749543 -0.20790079 2.195472 0.38243338 4.7926593 0.48418832 -1.8166872 0.6473686 0.95325196 -1.0708572
936 -1.4714028 1.1597056 2.514859 -3.6210554 -1.1554601 0.0813829 0.8883897 -1.0570521 -0.04245701 2.7925677 4.1815987 -1.9511917 -0.45073298 0.036248438 2.4199452 -2.2974675
291 -3.0450318 0.87666434 1.5278627 0.5358399 -0.35379252 2.154214 2.7521243 -0.31699905 -0.007148527 0.46259987 1.5817367 0.21359107 0.5673777 0.72737455 0.010370385 -2.1935952
1158 -3.5911233 -0.5741457 0.3784161 -0.8993102 1.1875609 0.053185713 2.452895 0.8723579 2.0772583 -0.28985217 2.0654979 1.5257673 -0.38091737 0.25892246 4.107675 -1.0377578
1968 0.3942897 -0.800632 -0.2352552 0.8547066 0.77396065 2.6918893 0.0022950298 0.86249655 0.11320828 1.20539 2.1521897 0.9236959 0.27352723 1.1540791 0.47928777 0.29095
3427 0.88275516 0.120790504 1.3459743 0.31714103 1.5001011 -1.3885335 0.6217294 -1.4505572 -0.067873076 1.57076 0.8727497 1.0953969 1.4652911 0.90474695 0.641363 -0.50890374
2211 0.21414919 0.16915415 2.931655 1.5550289 -0.29178634 -0.008401913 0.07766524 1.0106441 -0.8042201 -0.694999 1.7925627 -0.033544213 0.2944878 1.2831744 -0.5308633 -0.86415094
336 -0.8228298 -2.3682356 4.7553086 -0.33139014 0.79682785 0.63519007 0.9638429 -1.0856307 2.690815 -0.7072729 0.7362472 -0.62458795 1.4101994 1.1018176 1.1896558 -0.7319104
3362 1.8715612 -0.8579985 1.6081493 0.63997895 1.1544497 -0.8642581 1.6817032 -2.1090155 0.42223608 -0.15453075 0.6450297 -0.13759606 1.5049258 0.99841666 0.75602144 -0.683895
7989 0.52626765 -0.47123712 -1.0451369 -0.1837718 -0.031206537 0.25225264 -0.27830413 1.7548299 1.3903432 -0.35112488 0.565713 2.247786 -0.50925535 0.8049307 1.8460916 -1.767022
838 -1.8419379 -0.15830566 1.278441 -0.059789397 -0.15960726 -0.91533196 1.6634821 2.494102 0.021598106 0.13049784 1.5221428 -1.7636805 2.9267848 1.6050665 1.1300313 -0.55201447
286 0.35851082 -1.8932174 1.6560695 -2.2191648 -1.5950912 -0.43579048 -0.76148945 1.2896211 -1.181818 -1.0273741 3.2781706 -1.8181878 0.8625177 -0.3304587 5.6049933 0.63403153
489 1.5046715 -0.97430784 1.609111 0.50402737 0.65549225 -2.137264 1.3187193 1.9115323 0.38114616 -1.8199227 1.9379085 1.8296233 1.3821523 1.7671711 2.3649921 0.28340742
2348 0.083789684 1.1625531 3.0274966 1.4108397 -0.4832347 0.74504346 1.5851262 1.5105095 -0.113586634 -0.62268656 2.0213337 -0.1285339 0.7366226 -0.30312946 0.7299262 -0.476141
589 1.9451647 -3.0007746 1.7963167 2.4859264 -1.9307669 -1.5832038 1.6736454 -0.87615126 -0.91739666 1.1034102 2.0759466 1.3425715 -0.5669699 0.6180438 2.1855204 0.37215054
2236 0.5765174 0.47114164 4.082505 1.483386 -0.5135278 1.0257142 1.0312481 2.5211844 -0.7698826 -0.83349687 2.8689065 -0.45594007 0.2773991 -1.2174035 1.3891493 -2.1745293
7636 0.7279273 -0.67592305 -0.03306514 -0.9047331 -0.7894163 -0.4666506 -0.7876869 1.2625443 1.4170988 -1.0022739 2.3509583 1.9056466 0.42275655 0.8016534 1.1926017 -0.35418773
8668 0.119689755 0.74247754 0.79055977 -0.050545093 -0.50847113 -0.7213139 -0.5310872 1.5912558 0.22581962 -0.9657355 2.061864 2.3649514 0.78992367 1.5340549 -0.23047528 -1.7321409
1156 -4.1423945 -0.5107702 0.5995715 -1.395338 1.372482 0.3815055 2.8576095 0.86936504 2.1545773 -0.29920328 2.4750733 1.5164526 -0.2721981 0.047435533 4.5488267 -1.2561687
8331 0.8010172 0.596767 0.2523891 -0.571203 -1.0210526 -0.90960115 -1.5921385 1.2963091 0.38340357 -0.5414599 2.481109 1.5119455 1.2212679 1.2252548 -0.11844457 -1.6564593
3524 0.511226 -0.6890533 0.95713615 0.3885655 2.0874362 -1.3968639 0.47462288 -1.4633447 -0.53120625 2.3811543 2.3509705 2.066884 2.7080183 1.6763318 0.31518298 -1.1263064
2224 0.05616804 0.16708168 2.0576859 0.7553041 -0.42131567 -0.06770957 1.0000142 0.87634706 -0.58439213 -1.4941661 2.5391986 -0.73607117 -0.17240804 0.7170286 0.3805832 -0.5349937
485 1.7593867 -0.9051392 1.5075383 0.36492327 0.72424793 -2.1588345 1.5206262 2.1117291 0.46811485 -1.7062043 1.8679214 1.8618741 1.3767598 1.5570148 2.2887082 0.19340917
642 -1.4574513 -2.7211072 2.9747257 0.77785724 1.4871455 -0.7341181 -2.259968 -1.6870474 1.9318941 1.1174179 1.4410226 1.4601059 -0.2428286 1.3730456 4.341046 0.49925622
2940 -0.7837386 -0.51331484 0.31559387 1.3793403 -0.21466456 -0.27179345 0.40427548 -1.2833406 1.4007857 0.075020395 0.035579257 -1.279566 1.4833621 0.5058686 1.5595837 -0.80966926
2146 0.06941937 -0.027732491 1.8682628 1.2387952 -0.22235987 -0.59361565 0.36293107 0.31079343 -0.8074676 -1.3174193 2.34649 -0.64905524 -0.012546157 0.55524844 0.34322482 -0.67102134
325 -0.5533022 -2.1983964 5.0721474 -0.49221838 0.80677605 0.90386695 1.0976977 -1.2929947 2.7153559 -1.2115508 0.88633895 -0.6259196 1.257847 0.8038373 1.7776886 -0.7616806
417 1.816009 -0.95908344 2.2383978 -1.3750197 2.4481356 1.6330366 1.2755048 0.2684392 1.1556537 0.17491004 0.34642315 -1.5735092 0.06001862 4.225931 1.188968 -0.68022084
639 -1.7753023 -2.489937 3.1716893 0.8868322 1.2024282 -1.3817762 -2.3621402 -1.7134159 1.5952022 1.2503289 1.7557877 1.5209885 -0.17963019 0.97294587 4.3671117 0.24749689
1758 -0.010018362 1.242391 2.656559 2.2171178 0.84944046 1.8122675 -0.25919586 0.097469896 -0.13830803 0.35843202 1.2569834 0.6359937 -0.8383183 0.91851664 2.1474926 -0.15618142
944 -1.3025538 -0.7216703 2.0181053 1.1636952 0.10525732 -0.75813675 -1.4496655 2.430337 1.0638487 1.8766323 1.9231498 -0.0010571409 0.69469464 2.0846357 1.3718437 1.3929621
623 -2.5226371 0.3369283 4.088794 1.3455188 0.82166785 -2.5017033 -0.84567696 1.2421777 -0.19769514 2.8799474 1.0943769 -0.52197295 -0.77990663 2.8876538 -0.42508137 -2.331828
3301 -0.20784222 0.11627247 0.55450165 1.2891818 1.0915074 -2.9404027 0.023108859 -1.5319637 -1.2698222 2.2561653 2.6371682 1.1898581 2.1664891 2.051528 0.9115428 -0.38411143
304 -3.2738056 0.91709834 1.323284 0.3766448 -0.28686965 2.0523312 3.129108 -0.47680223 -0.24550295 0.8989862 1.9334764 0.22402003 0.8473889 0.5159847 0.31858382 -2.495924
921 0.20753786 -0.32417214 1.3467658 -1.8724685 0.27879754 0.046812423 0.40005448 -0.15941791 0.44454363 2.3216977 3.3046963 -1.0825746 -0.9061245 1.3408685 0.31541708 -0.6850701
3409 0.97200274 0.3884667 1.0742332 -0.102952406 1.4151155 -1.1479875 1.0718856 -1.4449402 -0.3168035 1.0217048 1.0824186 1.1578496 1.9679023 0.97421664 0.79136825 -0.5627704
1024 0.7596122 -2.7706275 1.7837334 2.1598463 -2.053105 -1.6879076 1.7097732 -0.12335872 0.13356365 3.5784273 0.63435125 -0.29021847 2.9317205 1.5839196 -1.5635022 -2.8567605
618 -2.5690093 0.23669729 4.1866803 1.2441252 0.7100544 -2.4719326 -0.80560434 1.139788 -0.09673163 2.8532174 1.2089444 -0.3505945 -0.7586448 2.838691 -0.40893736 -2.1248717
301 -2.883372 0.79882497 1.7677642 -0.0914443 0.29980254 2.1833026 3.2294846 -0.3699865 -0.017954078 0.85282993 1.8408338 0.4401567 1.1865077 0.6500985 0.20198171 -2.4216125
1507 -1.2956218 -0.5224238 0.97571236 -0.6044433 -0.914633 2.210899 -0.0100161005 -1.9346775 -0.124328576 1.0679114 1.2712828 0.4724897 2.0293033 1.6352763 -0.24744713 -1.6781929
1072 1.0574007 -2.9586549 2.3495178 1.3977389 -0.9763972 -0.6477637 1.3207785 0.79843915 0.58512706 3.2680585 0.8219578 0.32374918 1.8119203 1.1881591 -1.5167782 -1.3856469
227 -2.1752112 -2.3996718 -1.1151072 -0.049736746 1.7066225 -0.5853729 0.642281 -0.2595589 -1.027641 -0.16485341 2.61528 2.0496457 -0.8322064 4.0280514 1.4090801 -3.863463
4077 1.9564375 0.7751932 -0.091439225 1.782841 0.54225224 0.9773656 -1.996256 1.3038985 0.65893286 1.6872518 0.7800528 -0.83854085 0.6827264 1.2264495 1.4330407 -0.86350405
1329 -1.0528244 1.4706696 2.8324804 -1.5916389 -0.15728126 2.0353718 -0.036768757 -0.70506865 1.0725365 -0.041890465 1.3936815 0.10849708 1.3438654 2.3050113 3.047026 1.3955581
2058 -0.2918848 -0.77494496 0.009977439 1.4599106 0.99535805 2.6904516 0.31098586 1.2436211 0.3762788 1.3191948 2.241745 1.0343412 0.70795244 0.72271967 0.66326857 0.33190376
1379 -0.932953 -0.010620945 0.65712476 0.12123991 -1.2705904 1.5553237 -1.1293252 -1.4133387 -0.4111072 1.4207106 1.3388803 0.35979924 2.0836108 0.91598946 0.3767138 -1.4885361
1425 -1.1446435 0.031244019 0.77235687 -0.084847845 -1.3239478 1.7888355 -0.27387044 -1.6515721 -0.28729737 0.8781788 1.5040767 0.9489568 1.6847075 1.329005 -0.050824653 -1.741359
855 -2.120672 0.20360747 0.6300851 0.046414394 0.4800614 -1.3150566 1.5449616 2.7088528 0.02941454 0.4293073 1.427621 -1.454251 1.7547818 1.5726827 1.7633915 -0.67084354
6091 0.5790179 1.7977085 -0.48920304 0.48538253 -0.4462931 0.57371753 1.9620495 1.4414912 -0.12868132 0.7657056 2.0662189 0.28614196 -1.0022465 2.2033894 0.6153949 -0.36523584
1001 0.10007994 -1.0074489 1.484797 0.51401424 0.26872858 -1.2048486 -0.9953975 1.1862835 -0.07749572 0.66791123 2.409522 -0.8153904 0.36164886 1.946936 1.0243549 1.5644704
911 0.010332848 -0.28896657 1.5084903 -1.4279244 0.4296882 0.4888993 0.40666053 0.34078714 0.239782 2.1654372 2.9009511 -0.66768956 -0.9394074 0.6970723 0.18881102 -0.81267554
6965 0.32239878 1.6571127 -0.6385589 0.3796072 -0.28996348 0.9510247 2.0368876 1.098775 0.39477426 0.6073375 1.1091089 0.5185247 -0.8883127 2.1655965 1.123417 -0.2429528
3249 0.3908519 0.27279165 -0.42035487 2.040655 0.037425008 0.6671208 0.86735576 0.018117316 1.0292293 0.20203434 0.33068764 0.23356523 1.7272927 1.0728917 1.0371672 0.16208848
2213 0.94644535 0.32764006 2.953804 1.9351822 -1.5447727 0.14428411 2.0017705 0.35794497 0.17549649 -1.2083223 2.223013 -0.7486041 0.583902 1.0669624 -0.25582573 -0.38891512
3856 1.4494139 0.62320757 0.30780968 1.0964473 0.5237985 1.0292597 -2.5795562 0.3874181 0.6682809 1.6644238 0.17575994 -1.2866081 0.803077 1.905487 1.5631588 -1.3158631
2539 1.6037244 -2.2248025 1.8306022 -1.8066391 0.68259174 -0.7455999 0.9617698 1.7112697 1.0170614 1.6808758 0.85866475 -1.2051115 1.3287635 -0.72011817 1.5238876 -0.6089893
2320 -0.03151526 1.1171422 3.5859869 2.1439161 -1.8098848 1.0915549 2.590312 1.9771602 -0.010111522 -0.91561204 2.693785 0.066662185 0.89296633 -0.07591879 0.19547349 -1.3003715
567 2.1586106 -3.450987 1.5459555 2.3675563 -2.8886206 -1.5553675 0.89670193 -0.35299033 -0.1313549 0.87443197 1.5439172 1.0481387 -0.0069743637 1.7633393 1.5700568 0.8306682
673 -0.16676572 -2.7698956 -0.36003086 1.3323073 -0.65519637 1.0567356 1.8372821 -0.11539348 2.2051961 0.18221724 3.1706202 -2.629879 -0.24465461 -0.98697317 1.6495672 -0.5975682
682 -0.076621465 -2.3516028 -0.5039429 1.2678038 -0.75220436 1.0054475 1.984403 -0.111863755 2.175558 0.18400003 3.2856789 -2.5064564 -0.4033661 -1.2454683 2.1637106 -0.66719145
548 -0.30915046 -1.5617537 0.83900267 -0.87840354 -3.1665573 -0.6436936 1.0509082 0.90686965 -0.029736813 -0.12072156 0.5379469 -0.5772927 0.18876642 4.4082737 0.40231004 -0.10867218
737 -0.95663744 -1.6942735 0.5329845 2.5916607 -2.954104 -1.6446226 0.2229846 0.56424856 -1.125455 1.3218805 0.796765 0.11515218 1.9263757 2.0249755 2.930016 0.87456805
974 -0.047517195 -0.9138517 1.4475675 1.0102128 0.42289916 -1.4770237 -1.1509302 0.85013556 -0.20469227 0.55828637 2.6007626 -0.443341 0.12939773 2.1739163 1.4672867 1.584158
1209 -0.17006311 -1.2982905 0.46109536 -0.44161516 0.71199924 1.8817109 -0.33219403 0.12865111 -0.54962 -2.249162 1.5699369 -0.29984522 0.96308714 2.5026898 2.5341744 -0.60003126
1707 -0.32372504 1.3819442 3.2777495 1.0176152 1.1431863 1.1032857 -0.15805656 -0.9678372 0.33543313 0.5295092 1.138241 1.1495712 -1.4015472 1.7111778 2.4984033 -0.4200494
547 -0.1232941 -1.5430534 1.0164298 -0.6520864 -2.919371 -0.29345334 1.0786456 1.0993096 0.13256802 0.15890269 0.47603625 -0.4346772 0.049731687 4.3328347 -0.0788581 -0.004354508
677 0.7921266 -1.312177 0.3813775 1.3087611 -1.0282302 0.5024917 0.23925151 0.04620147 1.1221752 0.7776563 2.7970505 -1.3805132 -0.6093792 -1.2198726 1.4772466 -0.28575668
298 -2.3012085 -0.31927317 0.58069676 0.45758128 -0.79680693 1.7411728 2.615107 -0.17195491 -1.4699527 0.2466754 2.7751434 -0.20759429 0.44967312 -0.38236785 0.98988503 -1.3017094
296 -2.6020825 -0.3420469 0.8897098 0.5416064 -0.7659922 1.9591529 2.6412923 -0.39366832 -1.3709826 0.09134011 2.7792265 -0.23127325 0.45065573 -0.3293802 1.2392801 -1.2448344
246 -1.3834186 -4.060137 0.9532279 -0.32879052 0.1319338 -0.5040595 0.33991048 2.2938366 -3.8418992 2.4741747 2.0646098 -0.6121918 -0.012713013 2.556743 1.8291503 -2.9350138
245 -0.6992582 -2.07122 0.9178692 0.8770384 1.0356628 -1.2818149 -0.85124516 0.6846897 -3.4787202 1.7747661 1.5481998 0.7132697 -0.49689543 2.2719865 2.7172008 -1.7483128
1608 0.34033284 -1.0587922 1.7544059 1.5220982 0.3994254 1.4122642 -0.85254246 -1.1050262 -1.441292 1.2555337 1.6115541 -2.0205958 -0.66337293 1.6175658 1.4763067 -0.39379358
1056 0.89623916 -2.510437 1.7407072 1.1419362 -1.7110008 -0.92820626 0.3699954 -0.9843037 0.94328797 3.895405 0.7731329 -0.30827916 2.8035874 0.50996745 -1.3305298 -2.0297878
1204 -0.3475356 -0.8320653 0.41958967 -0.22579671 0.28641933 1.4337722 0.032340687 0.26928073 -0.5408127 -1.9993023 1.4468236 -0.85872585 0.926963 2.2166114 1.9284401 -0.5873908
1413 -0.9391547 0.63744426 1.180217 -0.17309608 -1.3475535 1.5300442 -0.59589636 -0.903505 -0.5944515 1.3694948 1.204227 1.1511538 2.436493 0.5580707 0.48181394 -1.0837783
239 -0.8888023 -1.8877345 1.3073446 0.9704844 1.1820133 -1.5453995 -0.5483858 1.1631117 -3.7173018 1.7498162 1.4870307 0.51821357 0.1539641 2.1868975 2.6694071 -1.5460514
251 -1.214062 -3.9857197 0.78411704 -0.4293684 -0.1913731 -0.21060339 0.24892387 2.4351358 -3.6406422 2.6048574 2.1265066 -0.50121516 -0.14933085 2.3513534 1.9109231 -2.7721052
1027 0.5849179 -0.1550117 1.4770473 -2.2076054 -0.53162897 1.980423 1.2044199 0.6111613 -0.24775487 2.1336312 2.4630582 0.49988708 2.2942646 -0.32525742 -0.15767182 -2.0760772
497 1.859407 -0.8034115 2.1004994 0.63883084 1.0625883 -2.2857575 1.5775123 2.1822667 0.70906055 -1.9321512 1.8796226 2.5778391 1.1947353 1.6296778 2.8544188 0.04786807
294 -2.5632958 -0.3379523 0.6137878 0.69294876 -0.836303 1.9222858 2.3752131 -0.10260705 -1.2712176 -0.032461427 2.9032304 -0.23994805 0.24145903 -0.60643333 1.3517587 -1.4012684
6355 0.482762 1.1265208 -0.90575045 0.369134 -0.29079252 0.35466534 1.3175452 -0.3448876 -0.47823125 0.8284945 1.5113705 0.4348127 -0.8879408 0.93873876 1.3163007 -0.6338558
585 2.0732012 -3.3595617 1.0858591 2.0674558 -2.9141607 -1.6232961 0.7303904 -0.055766933 -0.3406643 0.58596206 1.9363394 0.61124164 -0.024272373 1.8795843 1.3359993 0.92597467
1332 -1.5692604 -0.579521 1.5545213 -1.4693435 -1.1749961 0.93832785 1.6117363 -0.49649122 -0.6370755 -1.1648306 0.89652973 -0.51320976 1.391303 2.0876467 2.2428186 0.6473164
1057 0.5903687 -2.6727993 1.8558508 1.5789366 -1.1907499 -1.6591723 1.517443 0.49711317 0.42330343 3.4258714 0.18838842 0.23761865 2.5912335 1.2291425 -0.94599175 -2.0065737
193 -0.4460884 -1.5619063 0.96860576 -0.60058415 0.44150257 -0.6770222 -0.08595713 -0.50558764 -0.8472447 0.25986767 1.3048072 1.4506983 -0.7064454 2.3795574 1.1913381 -1.0009998
540 -0.4977991 -1.617354 0.910657 -0.4591024 -3.3155956 -0.3935989 1.028969 0.80149174 0.33470732 0.065059766 0.43979725 -0.82341564 0.3833118 4.043896 0.06593066 0.0011796412
724 -0.9347279 -1.471419 0.41823566 2.5689774 -3.0026379 -1.5506687 -0.2043999 0.46746376 -0.8409002 1.6217343 1.1160817 -0.046528865 1.396727 1.6588655 2.5816357 0.900833
543 -0.42070416 -1.8660322 1.2741768 -0.8563737 -3.4561486 -0.7333205 0.96578974 1.080383 0.13598222 0.25428596 0.85316265 -0.7333419 0.07764139 4.735374 0.089714885 -0.05493365
135 0.3787006 -2.2675967 0.3165216 3.1241884 2.1435354 -1.4901068 3.9165144 0.86449605 2.3801951 1.2268993 1.1942564 2.7695336 0.9258761 0.7250497 1.6359099 -2.0935156
754 -0.021166215 -0.868098 2.9300973 4.082237 -1.250195 1.1680331 0.24014212 1.6809129 1.1018188 -1.2177984 -0.6333478 1.4437768 0.5682292 1.4468957 1.7437823 -2.4273632
2449 0.6527749 -2.4244945 1.5924225 -0.4666212 0.59855217 -0.439675 0.71281993 1.5075177 1.2358657 2.0258236 0.8187998 -0.23662888 0.7972901 -0.70808464 1.2385346 -0.0050007217
6556 0.03511142 1.1780825 -0.64390856 0.43116167 -0.58124745 0.10176743 1.5719805 -0.13798617 -0.6630706 0.85349894 1.6365547 0.36452824 -0.3595407 0.83150464 1.233594 -0.42086607
1589 0.06632117 -1.0536723 2.4292622 1.91312 -0.1323568 2.2107449 -0.0011372698 -1.1976771 -2.1290317 1.490555 1.9938014 -2.2805238 -0.385684 1.1876802 1.5075107 -0.723755
1180 -0.5109516 -1.5615 0.066748686 -0.22235589 0.5529748 1.4035661 -0.19280592 0.13887773 -0.27424133 -1.8279246 1.4481183 -0.72227544 1.0474919 2.023105 1.9694642 -0.4606734
117 0.627731 0.56646633 2.582806 2.1672833 3.0447066 1.1521666 0.8438937 -0.77869153 -2.0377712 -2.1688623 1.5053726 -0.066857666 -0.6353107 2.9365044 2.2027972 -2.9262576
1777 -0.24792948 1.4060031 2.712712 0.9842888 0.7284616 0.7597371 -0.18476576 -0.06903349 0.234299 0.75592285 0.5128438 0.40650502 -0.6846887 0.72801197 1.775547 -0.35046184
1423 -0.6553224 -0.1685292 1.6670216 -0.18184721 -1.974558 1.2748556 0.29664746 -1.9134927 -0.04631879 2.0716333 1.3208461 0.96789104 2.5407598 2.3138835 -0.9377397 -1.5835459
1238 -0.5624929 -1.0196953 0.69591707 -0.19401082 0.6667956 1.2758867 -0.21124251 0.34269044 -0.9441586 -1.8147699 1.5130305 -0.6321426 0.8674188 1.8787796 2.1437776 -0.60611266
229 -0.682561 -2.2618692 0.83560085 1.2607045 1.3756275 -1.4504491 -0.50597245 1.3683982 -3.2542562 1.2017668 1.2566583 0.483036 0.049635805 2.40583 2.5884218 -1.739013
4052 1.5514274 0.5466422 0.08091363 2.0911741 0.1262555 0.9202635 -2.8148277 1.2242573 1.4529613 1.498077 -0.14384082 -0.7719208 0.94396245 2.196785 1.3597327 -1.096531
2151 0.30478093 -0.38996392 1.764585 0.97522527 -0.32632425 -0.5876937 -0.015780983 0.8237828 -1.3269795 -1.0287194 1.8961228 -0.25192043 0.26887044 -0.17516956 1.0688672 -0.50924575
116 0.84719276 0.11461826 2.344491 2.0238655 3.0771196 1.1287203 1.0093988 -0.5145111 -1.9495764 -2.0969508 1.5968796 -0.38681167 -0.83286875 3.0354087 1.8861787 -3.156758
522 -0.20981278 -0.30912268 2.2846239 -0.726351 -1.5907385 1.093413 0.0559996 0.97344357 -1.9735835 0.51227474 0.57876045 2.943063 1.8612784 1.8407629 1.9990153 0.06266701
2272 0.8506598 0.37032035 5.2799788 1.7952948 -1.2920226 0.45701316 0.75970083 1.730731 -1.8225728 -0.855469 2.7141504 0.20869765 0.7612258 1.1835194 0.1113785 -1.7642757
935 -0.4040724 -0.16174889 1.9033877 -2.4619288 0.8702516 -0.4983972 0.91490334 0.25958365 -0.14217553 2.7159653 4.3112235 -0.31629625 -0.7647926 1.2461864 0.74797904 -1.3480567
1661 -0.21860534 -0.9697864 1.9469098 1.7839621 0.74111456 1.9609149 -1.0679322 -0.6146434 -1.0877411 1.2563107 2.2319436 -1.7074157 -0.99756646 0.69092685 0.9587188 -1.3437916
92 -0.6696873 -2.340863 1.7723421 0.60877633 2.1594694 -0.47167385 0.8884188 1.9474951 0.7250158 0.12408388 -0.70888174 0.87266093 1.5405055 0.9003149 3.2902558 -0.7136768
237 -0.50991434 -2.198622 1.0874412 1.2471286 1.1205484 -1.8391781 -0.71306753 1.4234806 -3.583857 1.547695 1.4355783 0.35146394 0.2377061 2.4867358 2.50561 -1.9408073
930 0.04697305 -0.48412365 1.7322254 -2.0676038 0.88353306 -1.0699115 0.9708119 0.07235718 -0.33348334 2.965871 4.344114 -0.24559985 -0.80001354 0.9794361 0.6698712 -1.1704463
1909 0.38401803 -0.8665802 -0.00304594 1.5493486 0.8731855 2.2249484 0.5373835 1.0637136 0.11178038 1.7604724 3.3295844 0.72427255 0.9081496 0.029388275 0.54472214 0.6293277
1241 0.054653328 -0.7958486 0.62407976 -0.5127492 0.35577598 1.5598947 -0.0026487156 0.58702826 -0.7048344 -1.9927478 1.5704945 -0.971862 1.228683 2.0309353 2.020268 -0.5057149
898 -0.20562159 -0.39847773 1.4227268 -1.9608848 0.54383343 -0.1562979 0.43154365 0.43264276 0.8413895 1.8211 2.5015802 -0.9222697 -0.91867244 1.067733 0.22308904 -1.2154876
5924 0.50441355 1.5327727 -0.09525556 0.4203293 0.52298033 0.07039922 0.9060445 0.4925508 -0.61410856 0.24999529 1.0263823 0.5821366 0.89733493 0.023486678 1.7133939 -0.22816667
125 0.76599455 -2.8683496 -0.13349049 2.9487314 2.1509264 -1.6779567 4.056027 0.8615214 2.1980062 0.9362378 0.9554482 2.6872747 0.9522743 1.2011827 1.8258691 -1.7307887
679 0.73779434 -1.6449772 0.49180537 1.1123856 -1.2779115 0.24104597 0.22042114 0.23560475 1.2439108 0.4931497 2.677757 -1.7906239 -0.6224228 -0.92953146 1.5680124 0.031252544
4374 -2.1026025 3.2289853 1.4057337 0.6223174 3.8761103 1.7239037 1.134074 4.187024 -0.021469422 1.5523294 2.775666 -1.4080036 0.6224867 0.5110595 2.486204 -2.3511956
4427 -2.1063437 3.0908554 1.301726 0.6502032 3.736492 1.5300201 1.0014721 3.9108078 -0.13958982 1.4839485 2.7067811 -1.44702 0.591737 0.50686324 2.3921783 -2.1016037
920 -0.18416256 -0.19155258 1.8927826 -1.4888041 0.18200758 0.044016942 0.3246828 0.49271983 0.6341859 2.2997086 2.916573 -1.4261442 -0.65802485 1.7922717 -0.461406 -0.7216454
2634 0.17161895 -2.0774424 1.4512569 -1.1808785 0.20552272 -1.0394056 0.58056563 1.264067 1.2504556 1.3325975 0.1383438 -1.2973075 1.3344762 -0.7079295 1.5830626 -0.93393034
506 -0.122080564 -0.56124026 2.1006043 -0.8637992 -1.7129246 1.1088123 0.2300084 1.1029526 -2.30919 0.784248 0.9332859 3.8190398 1.5989654 2.2972004 2.1896622 0.02854773
277 0.36062312 -1.6041822 1.3652911 -1.9253675 -1.3069705 -0.40319455 -0.7756339 1.1862177 -1.2146245 -1.0948967 3.0118072 -1.4588063 0.64261055 -0.39344123 4.940507 0.3756826
2485 -0.34981853 -2.081032 1.7234764 -1.3563006 0.03624887 -1.1909996 0.43912074 0.2458175 1.1774416 1.2170389 0.6184516 -1.0502882 1.1214627 -0.676144 1.5229794 -0.5652136
80 -0.6208064 -2.761481 1.9061097 0.27882996 2.583119 0.34526095 1.5728979 1.7564 0.92950666 -0.23654595 -0.67086595 1.1589744 1.1011634 1.1675816 3.3055623 -0.7330881
136 0.8026715 -2.2047093 0.046661757 2.4939156 1.8765658 -1.1148112 4.122475 0.7984115 1.7607107 0.86802363 0.893081 2.6297257 1.1730303 0.9448171 1.7345672 -1.8852371
6337 0.6943153 2.4641294 0.2511446 1.3442118 0.9078851 0.45605955 0.9548247 1.0592607 1.3171711 1.0886536 1.4335563 1.2117951 1.4900111 -0.9985091 1.5869073 -0.49860227
141 0.59814173 -2.4387112 0.104286194 2.7127748 1.8599377 -1.0552311 3.901168 0.7725032 1.9268644 0.93887955 1.0619656 2.4832335 0.86955273 0.8998799 1.6247928 -1.8720143
235 -0.7840157 -1.909093 0.8734404 0.9166879 1.397879 -0.9102595 -0.35147262 1.2798656 -3.5366495 1.1833273 1.2645869 0.40000427 0.6240276 2.607006 2.4814854 -1.4872593
903 -0.44710058 -0.37080857 1.2293404 -1.6568574 1.4165326 -0.29708892 0.5594208 0.8501074 0.35872266 2.0959928 3.2444868 -1.1197073 -0.2585172 0.78816056 -0.12060869 -1.6523237
709 0.18109818 -1.9560944 0.1329945 1.1684145 -0.6938768 0.09217533 0.17636588 0.7615794 1.530635 1.001243 3.0511646 -1.844276 -0.732271 -1.1618143 2.3399959 0.001888358
1894 0.028044615 1.3138518 2.2682533 1.1512563 0.886559 1.2701851 0.027560255 -0.04242338 0.12978753 -0.16862078 0.53074855 0.3180957 -0.62101716 0.682395 1.7422342 -0.546492
831 -2.3212247 0.38405955 0.675902 0.16945508 0.5365935 -1.3903544 1.3910079 2.528125 0.23701718 0.5952851 1.3845109 -1.5424174 1.7375933 2.0409095 1.1967767 -0.6348984
5866 -0.037675623 1.6574861 -1.0862948 0.8349436 0.030590354 0.56488854 1.9732357 0.97549564 0.838872 0.6711081 0.7180482 -0.21066725 -1.091992 2.0379055 1.3890502 -1.0949134
471 -0.069823585 -1.0296872 1.7799206 -0.11242563 -0.03997396 0.4596897 -1.2537547 1.4498024 3.1856468 1.6897427 -0.52142954 -0.37582418 -1.1082232 1.4957418 3.8898559 0.04541702
1164 -3.2474375 -0.8314621 -0.25223887 0.08293091 0.37464014 -0.12101608 1.5947012 1.1422955 0.90121907 -0.06107171 1.4957055 -0.1570067 0.19255002 0.8755898 2.3291197 -0.47276285
205 -0.7586281 -1.7531353 0.42445266 -0.2076271 0.3549004 -0.012943357 0.060522366 0.0025424825 -0.8023203 -0.32757622 1.1479554 1.4041677 -0.36825126 2.718004 1.0161114 -1.1654847
755 0.9552946 -0.9702592 2.9575155 3.9587243 -0.030153485 1.9928409 0.42318904 2.0037658 0.41058713 -1.9257296 -0.2359129 1.1751546 0.28516066 0.7447151 2.3884118 -1.98597
3013 -1.6363403 -1.1492074 0.7672027 1.6405002 0.20097496 -0.30972916 0.94659895 -0.7527528 1.7989528 -0.23210816 0.062472403 -1.8361986 1.6616704 0.9119881 1.987757 -0.79446304
6427 -1.120501 2.947166 -0.10265086 -0.5592714 0.46970385 0.075873 2.4527204 1.9369769 0.990519 1.0062968 0.5460677 -0.45118678 -0.51896906 1.7829747 1.2836996 -2.3595102
211 -0.9560143 -2.1849027 0.5873915 -0.6210189 1.431905 -0.9224027 0.33147418 -0.68119025 -1.4693546 1.472855 0.36091352 1.7380435 -0.17935589 5.11833 1.7605883 -2.1632085
662 -0.60006976 -3.113628 3.1822248 1.7022846 0.83048266 -0.57837504 -1.9759293 -0.9089325 1.8933761 1.3452884 1.4400381 1.6003073 0.8472821 3.0918694 1.5476565 0.6012113
350 1.7223643 -1.3432997 2.4617875 0.5959578 -0.8235696 1.2612084 1.1660991 1.9576868 1.9187695 1.4985979 -1.0491819 -0.5807545 2.003636 2.1889563 0.31338334 -0.611712
11 -2.8417995 -1.5602039 0.89305806 0.3558376 3.006472 1.2930993 -0.39062765 2.388244 -0.5433446 1.0087495 1.4202714 -0.0754272 1.209116 1.3552858 2.9440222 -2.6955175
1166 -2.7899454 -2.1503289 0.06313737 -0.5515843 0.77046186 1.5709852 0.7503028 0.75005245 2.045399 0.12923397 1.252297 1.1987832 -0.8884559 1.7510934 3.512686 -0.19575028
208 -0.49002698 -1.9123814 0.4819156 -0.041374367 0.2857511 -0.7672476 -0.0458971 -0.44098127 -1.2471561 -0.12843093 1.4498672 1.2933706 -0.61114573 2.5477061 1.2842007 -1.2008253
472 -0.045000695 -0.9399547 1.5203055 -0.19879022 -0.01626685 0.25521153 -1.2866961 1.5723151 2.9530995 1.5451272 -0.42282197 -0.7743039 -1.0297011 1.2470742 4.3807287 -0.11252615
3403 1.0494282 0.37584275 1.2443075 0.6098444 1.4391986 -1.7270633 0.8654187 -1.5589286 -0.21910195 0.51411647 1.5572218 0.40145296 1.6501949 1.6509973 0.6718265 -0.10105253
769 0.3823034 -0.48458394 3.220633 3.9758236 -1.0887234 2.4659026 1.187782 2.054738 1.3422436 -2.001415 -0.36008874 1.6584619 -0.04356148 0.6588353 2.3046856 -2.6861506
816 0.31925327 -1.2410477 2.2135434 3.8142385 -1.4092647 0.9407915 0.15105408 1.5715356 0.5870157 -1.4848498 -0.82075197 1.313059 0.90334356 1.952987 1.6963261 -2.1432734
1074 0.28932962 -1.3550111 1.6778642 -2.3597581 -0.14272574 1.9134095 1.527338 0.9689293 -1.6258315 1.5518755 2.447207 0.81019074 2.7007236 -0.947026 1.0362986 -2.5122519
636 -1.0076638 -3.0902681 3.5065272 1.5755346 0.8580714 -0.84859425 -1.9423246 -0.8513413 1.3490851 1.5366045 1.5327504 1.647474 1.0066049 2.8757665 1.6276877 0.5827665
345 1.796717 -1.4746062 2.3091261 1.1902674 -0.5519924 2.0191708 1.6284512 2.7422495 2.842549 1.5410203 -1.1902277 -0.33995974 2.3861513 2.0577202 0.8168802 -0.6460978
2823 -0.2963827 -0.43716133 -0.38046244 1.9213614 0.30604842 0.28898996 0.96388733 -0.9848771 1.4626137 -0.25928497 1.3240465 -0.6394694 1.5015757 0.37137175 1.2855093 0.09042546
133 0.24271598 -1.5828377 0.09927116 1.957117 1.3757066 -0.46988082 2.612712 0.89720887 1.1875113 1.3777869 -0.05617083 1.1778059 1.4492908 1.9276787 -0.2619952 -2.1130908
711 -0.6669167 -1.2213861 0.4396642 1.9309368 -2.0028467 -1.5805719 -0.18311803 0.5719675 -0.9619496 1.037844 0.956194 0.37437862 0.76528966 2.388995 2.0396247 1.0392256
468 -0.28240544 -1.034244 1.9211982 -0.09931892 0.04951105 0.08396993 -1.3575956 1.5698096 2.8840098 1.5893097 -0.23916812 -0.720252 -1.242288 1.2816647 4.2753263 -0.061074372
556 0.0058759633 -2.2579854 0.8830778 -0.75691825 -3.176046 -0.15933904 1.0717406 1.6841651 -0.16472617 -0.24361528 0.94957894 -0.7550042 0.20033732 4.9822283 0.192772 -0.08400741
33 -0.80399865 -2.4772246 -0.23345694 0.9380003 1.5834053 -0.74884874 0.82377994 1.3132725 2.0518494 2.0276735 1.0438921 -1.4508077 -0.45251337 2.3515217 0.20229355 -1.339709
212 -0.5752394 -2.3659692 1.0015166 -0.31296864 1.5227875 -1.3929307 0.32518026 -1.2611669 -1.7390234 1.0019523 0.687332 2.5742495 0.67727447 5.76928 2.2172115 -1.7856079
2121 0.65860176 -1.8314695 -0.22070336 0.59069926 0.61653256 2.10581 0.60293233 0.8028694 -0.012736781 0.019945528 2.3151174 0.5466352 0.4146787 0.9031476 0.41751957 0.30569538
1375 -0.7748086 0.30948183 2.4174833 -1.7419953 -0.19752692 1.59777 -0.09062774 -1.4858427 0.9224133 0.534095 0.12888733 0.9641113 2.0085795 1.5014338 3.0801833 0.7079271
26 -0.75104886 -2.4641533 -0.28920573 0.9368056 1.6290098 -0.68273103 0.563385 0.8476109 2.1765409 1.4039674 1.0868949 -1.4948357 -0.23974954 2.4015217 0.17419735 -0.8748768
6107 -0.25201586 2.633603 -0.060605492 0.2053702 0.86246103 -0.4103557 2.3009613 1.2240183 1.1917611 0.9127161 -0.2245003 -0.53937465 -0.30978793 1.4574206 1.0605588 -2.782552
1165 -2.6450603 -0.9899749 0.17019936 0.52475274 0.30631682 0.3261702 0.9700138 0.6973787 1.1491762 0.02194558 0.8575548 0.97949255 0.16535674 0.3596057 2.5736763 -0.088582315
2054 -0.31587756 -0.69493085 0.10270259 1.6581999 -0.40735778 2.6479142 -0.07333666 1.043969 0.58425236 1.7286941 2.2699137 1.2669814 0.6209389 2.4618313 -0.867975 0.112006344
796 0.5175675 -0.34970567 3.1895175 4.130852 -0.28312334 1.4339391 0.7693013 1.1615266 0.66029704 -1.6508617 -0.18671021 0.9323107 0.1176649 0.38310772 1.8798136 -2.2380226
170 -0.44219446 -1.8783442 1.120529 -0.90883774 2.3718762 0.8204162 1.7336012 -0.32363772 1.6800753 0.22305828 4.0648556 0.53119177 -1.1107376 0.38240674 1.1534185 -0.8094808
926 0.14303619 -0.36918515 1.2568 -1.475778 0.59989154 -0.76614267 1.1587456 -0.0155826975 -0.057688184 2.0384326 2.892315 -0.67788947 -0.7744458 0.7610425 0.12092567 -0.9961848
23 -0.83309925 -2.3853457 -0.42334852 0.82379925 1.026875 -0.14454806 0.952725 0.71103394 2.4178486 1.3863573 0.22791293 -1.3955121 -0.16322477 2.700728 0.3164915 -1.0090047
2042 -0.3735173 -0.7959029 -0.3173664 1.1572809 0.6238692 2.699041 0.47244313 0.56585324 0.7235374 0.4807516 2.4939675 0.60784817 0.5985542 2.1391187 0.29106265 0.79737574
29 -0.75931156 -2.13725 -0.10925725 0.7329671 1.135415 -0.59444153 0.85402554 1.0951232 2.2767735 1.6104325 0.32048988 -1.6234344 -0.17074327 3.2037368 0.15870592 -0.87640166
2711 0.1715368 -1.2831163 1.6228433 -1.1362673 0.7996688 0.40621358 0.9795679 0.75552595 1.1755382 1.6325042 0.46937066 -0.3174851 0.31477088 -0.676381 0.83966357 -0.789095
401 1.3493587 -1.4227371 1.0462325 -1.0932142 0.63384205 1.0039278 1.2802745 1.46903 0.047459725 0.57669914 0.9806201 -1.1614012 0.3771346 0.7613618 0.9927472 -0.14570147
25 -1.0900452 -2.0194714 -0.29589912 0.5678819 1.5824481 -0.026302677 0.07443585 1.1661832 1.5649021 1.2710835 0.650253 -1.7534878 -0.2786312 1.631603 0.88978034 -2.231188
3244 -0.71893793 -1.0774106 -0.10336366 2.3945858 0.9143879 -0.21245357 1.5544845 -1.1061867 1.7555801 -0.12493125 0.54124683 -0.46368852 2.116992 0.1562621 2.169882 -1.4455515
5127 1.9311038 -1.3886613 0.31112662 1.3124154 -1.1108605 -0.030645674 0.40893608 0.7713704 -0.95214343 2.6588855 -0.5119707 0.4463042 -1.0852913 2.7755358 0.5501906 -1.0923018
928 0.3615602 0.080458485 1.5587605 -1.871144 0.886214 0.82212156 0.36496562 0.08226298 0.7600244 2.0156178 2.5404735 -0.5460319 -1.1010965 1.564459 0.35865253 -0.774608
565 2.007528 -2.4130156 0.9954455 2.4272263 -2.7561312 -2.0845292 2.601033 -1.2159631 -0.9719451 1.4746403 2.7261584 0.3365466 0.04176291 0.11931338 3.1163392 0.6967278
2561 -1.6769793 -0.6524618 1.3946155 -0.862234 -0.70699465 0.8088182 1.7294862 0.24920586 0.68878865 1.5357778 -0.27219155 0.5229675 -0.034561705 -0.23989415 2.1890771 -0.5923882
3955 1.3807335 0.8730994 0.8711447 0.5531896 0.22416034 1.2160693 -1.4761205 0.102338254 1.2742243 1.3974845 -0.34391952 -2.0018585 1.6664054 0.9530306 0.9434743 -1.5473659
749 -0.8706707 -1.6082892 0.10632928 2.6478865 -2.896066 -1.8405741 0.43388495 1.1159333 -1.3069109 1.4213662 1.28954 0.008007252 1.7312281 1.9394516 3.382629 1.0809102
539 -0.5559055 -2.0475085 0.7146303 -0.6042008 -2.8684194 -0.4944085 1.015483 0.9639539 0.23011096 0.26616064 0.7591454 -0.3314667 0.08261932 4.16415 -0.030482298 0.093561985
888 -0.57699907 0.5041451 2.5024128 -2.7656376 0.017369088 -0.024600184 0.7627918 0.605174 0.4496336 2.369631 3.6605234 -1.5770686 0.09976381 0.8316869 0.3708702 -1.5130888
130 0.05704311 -1.5264788 0.38185966 2.0667343 1.1963397 -0.6111432 2.8244536 0.8349765 1.4690913 1.9319555 -0.6975825 1.3904752 1.6987889 2.1726816 -0.23776391 -2.521991
365 1.693155 -0.64723194 2.4514241 0.8680994 0.4650051 2.0155828 0.9654339 1.8497853 1.3251121 0.8551392 -0.84838754 0.25737163 1.6601268 1.2597747 0.47937328 -0.4881775
2035 0.16487342 -0.99105847 0.3869669 1.4432116 -0.5614387 2.7826731 -0.25758412 0.3168787 1.1620343 1.0864049 2.654441 0.8988513 0.666348 2.3721302 -0.42804503 1.0166819
5836 -0.06553931 2.0623848 -0.0029643357 0.4337862 -0.2672049 0.49890646 0.95013016 0.11781897 1.2448388 0.88629365 1.4370775 0.04587324 0.43366787 -0.25763702 1.808935 0.089887805
299 -2.1791277 0.46349627 1.3104548 -0.31378186 -0.22545531 1.437543 2.4301696 -0.8364976 0.11801445 0.16857074 1.0168089 -0.04535473 0.5744408 0.37691954 0.22139709 -1.9699667
390 1.4333303 -1.4558312 1.015012 -0.9920799 0.285297 1.03726 1.3762369 1.4745969 0.17751196 0.4546542 1.0136058 -1.2275252 0.24981955 0.77839744 0.8590996 -0.21772438
1023 0.04817866 -0.5084725 1.3868124 -1.5469912 -0.8475616 1.0766476 1.1002685 0.8798277 0.03255817 2.1153898 2.19136 0.1375326 2.0774984 -0.11125063 -0.50562847 -1.5062742
31 -1.1116358 -2.5749724 -0.21018751 1.1194836 1.3553666 -1.0028642 0.53003496 1.0368 2.844651 1.8657416 0.88044953 -1.5713035 -0.56242526 2.7489254 0.5203114 -1.2250082
360 2.6566782 -2.288823 3.771194 1.98936 -0.20102389 2.551621 1.3995552 3.928343 2.8513312 2.066965 -1.5633962 -0.5629158 2.9698303 3.8728387 1.5140096 -0.32649994
1835 0.21701689 1.3936112 2.545775 0.89177763 1.0408239 1.3955138 0.1626889 0.24137525 -0.06919078 0.386169 0.5546987 0.47660226 -0.45091754 0.6026896 2.1948037 -0.059433527
758 0.76731175 -1.0495192 2.8039868 3.9098058 -0.914232 1.5191054 0.13280274 1.6791974 0.043822147 -2.2963183 -0.5040319 1.1104541 0.69663703 1.7298737 2.4436057 -2.067992
2 -2.3790276 -0.70164263 1.272261 0.2573876 4.0336065 0.45089263 -0.500888 2.9203522 0.6747895 2.0933173 1.70242 -0.83165103 0.47178075 1.2176642 2.1232178 -3.192531
1240 -0.4883591 -1.6648691 0.6986148 -0.4345256 0.7263213 1.3650264 -0.2746759 0.21176176 -0.51491505 -1.5596517 0.7692427 -0.6974442 1.1042143 2.811547 1.6695814 -0.93064123
17 -0.67155904 -2.3843725 -0.34219682 1.0298127 1.3386307 -0.019540895 0.5835627 0.7608119 2.8074963 2.1823218 0.87296903 -1.5001237 -0.35680324 2.7182486 0.10832215 -0.6504779
500 1.4774221 -0.54002184 1.70641 0.47632876 0.80484337 -2.1224713 1.4186758 2.172609 0.51842386 -1.76808 1.5333518 2.3540668 1.612587 1.4091632 2.7226155 0.021718439
917 0.29962832 -0.49132282 1.4959344 -1.7427411 0.2644717 -0.57820916 0.5585289 0.51050764 0.48036978 2.1889877 3.5111206 -0.9153586 -1.4431251 0.6879593 0.59306526 -0.9512705
166 -0.3083264 -1.5251869 0.8271016 -0.8924635 2.22561 0.9298436 1.4581616 -0.09740217 1.829576 0.57014847 4.619272 0.41431925 -1.7060497 0.24258007 1.427281 -0.7664233
1150 -3.5654414 -0.68148226 -0.089433484 -0.13947417 0.21278943 -0.24555185 1.7590362 0.898549 1.0403537 0.071229726 1.8696365 -0.15265286 -0.014258759 0.8668423 2.8934236 -0.4721698
84 -1.043962 -2.122924 2.2427163 0.5471056 2.4470582 0.56666416 0.9070524 1.5157726 0.38983107 0.20466469 -0.63153887 0.8580254 1.1554475 0.45988148 3.7901857 -1.1771582
996 -0.06313525 -0.47056782 1.7248439 0.81415176 0.80961 -1.5915374 -1.1379981 1.4238658 0.034917016 1.1764408 2.8594227 -0.9081229 -0.33091307 1.8076363 1.354977 1.0439322
1581 0.27895936 -0.9614643 1.1269352 2.3807845 0.8553547 1.9573491 -0.11089335 -1.6880414 -2.0617998 0.41537678 1.8699275 -0.28493524 -0.4077361 1.3956879 0.9345971 -1.7338771
2371 1.3352911 -0.42941204 2.0964751 0.37184379 0.9686356 0.16168183 1.0618744 0.32653078 -1.6547799 0.032367196 1.7172216 0.52887607 0.62478775 -1.5206077 2.1072097 -0.9443364
1196 -0.27508998 -1.9590181 1.1280591 -0.41297066 1.3104519 2.3349893 -0.92597556 0.52877563 -0.60377985 -2.0436308 1.8844545 -0.9125858 1.3207505 2.6325681 2.7346172 -0.82487386
1155 -3.0026197 -1.0015489 0.55893284 0.061357126 0.85800797 0.2530259 0.93012935 1.0762081 1.0318244 0.34759882 1.2379599 0.70996773 -0.29284292 0.5762768 2.9785078 -0.013825035
1053 -0.3303476 -2.3867412 2.317561 -1.4895931 -0.9057232 1.3992119 1.628569 0.71638274 -1.1871262 2.8738575 2.007258 0.43854243 3.57741 0.010248598 0.23008367 -2.368023
2546 0.37757033 -1.7987663 1.5608084 -0.9648929 1.3715814 0.2468349 1.0503346 0.92447925 2.1558983 2.3425965 0.9860826 -0.515977 0.22052169 -0.53428215 0.31402206 -0.75713545
6483 0.38374764 1.1993067 -0.47362253 -0.69230866 -0.94635695 0.59421396 1.2707338 0.1014502 -0.116519056 0.7857563 1.3786445 0.30343446 -0.4364355 1.6533239 1.11083 0.0011370147
1094 0.3381783 0.16908428 1.9357809 -2.632571 -0.038212072 2.1875777 1.771611 0.96378464 -0.44306412 1.2867435 2.3895512 1.2009575 2.1102846 -0.46337405 0.23279975 -3.0442407
1396 -1.6114717 0.6036512 1.1466984 -0.12833802 -1.5259796 0.6752486 -0.3343235 -1.3520676 -0.781154 1.425649 1.5196956 0.5517786 1.8668588 1.836485 -0.1250354 -1.5003616
346 2.0809026 -0.9902581 2.2520669 0.63025844 -0.15065576 2.2013233 1.616343 2.3360646 3.0519083 2.1284945 -0.8330924 -0.6357293 1.7209859 1.8851888 0.66365945 -0.20332752
364 2.2984955 -1.5741905 3.079894 1.5639307 -0.35777095 1.9338415 1.5137054 3.1422102 3.0187182 2.2438922 -1.6108773 -0.25753877 1.9218789 2.1075587 1.2041768 -1.0359496
4711 0.74044997 -1.2992231 0.7169407 0.74743634 -1.2820674 0.14577499 -0.43394503 -0.1928306 -0.03829335 2.190841 -0.7732942 -1.2615864 -1.8499475 2.1073487 1.375048 -2.0665255
3263 -0.04948253 0.76288503 0.044392213 2.6890316 0.34322438 1.429647 0.90261173 -1.022423 3.10717 -0.59416175 0.74346983 -1.3413097 1.3370088 2.2913864 2.491559 0.8274913
424 1.3913702 -1.3625252 1.7965662 -1.3223666 2.45529 1.7704016 0.6051045 0.8880845 1.4844952 0.37356484 0.037700787 -1.1535012 -0.11725026 3.409234 1.6986674 -0.62610334
1077 0.016456475 -0.46286443 1.9209912 -2.5771022 -0.51260155 2.6355526 1.9990687 0.92041886 -0.33483347 1.7599907 2.8138227 1.2755007 2.7385879 -0.6216579 0.19614987 -2.9792202
6727 -0.16122721 2.1574361 -0.380117 0.45096293 0.7555118 -0.38177466 1.6567773 0.9085225 0.57317907 1.0379964 -0.35698164 -0.13104366 -0.49258006 1.8587276 2.3284461 -1.4173231
21 -1.0566618 -2.5545542 -0.35745227 0.7180876 1.502617 -0.10131684 0.123251796 1.3866764 1.782752 1.2672188 0.7145678 -2.2855787 -0.034973733 2.013339 0.98677546 -2.1207795
883 0.036215615 -0.9094728 2.119733 -2.5558124 1.4538616 0.12689875 0.7116618 0.2563133 0.16865101 3.6022573 4.6460443 -0.42523736 -1.2565099 1.7704724 0.94000834 -1.19245
209 -0.5982021 -2.318325 1.0021532 -0.56491625 -0.1820691 -1.0394883 -0.078463055 -0.8432357 -0.5257295 -0.17598157 1.0302991 1.0281931 -0.14471062 3.226894 1.1121163 -0.9806682
899 -1.2000477 0.53275234 2.6543925 -2.7375398 -0.48184678 1.2336867 0.34012282 0.5994025 -0.21043247 2.8768902 4.3998475 -3.0735807 0.06362961 0.794899 1.3405124 -1.6391287
187 -0.49744332 -2.5988002 1.00263 -0.4014248 -0.10818763 -0.86255103 -0.16744256 -0.372467 -0.6317106 0.2658377 1.7736906 1.3524839 -0.7778787 2.7328799 1.1332784 -0.82633114
6333 0.111821584 0.80969405 -0.9424703 -0.42576605 -0.4460709 -0.54022694 2.101988 -0.036007375 0.10178049 1.06141 1.653618 -0.23964268 -0.26348168 2.2441475 0.90301543 -0.18221556
774 0.6671117 -0.40937656 2.8797421 3.9331748 -0.5524261 1.4971106 0.36002958 1.577894 0.9658311 -1.9046993 -0.27860796 0.89603555 0.2812976 0.8837695 2.6822844 -1.1775892
1606 -0.57577324 -1.4838805 1.0452278 1.7410518 1.0863633 1.7529517 -1.0060039 -0.47773883 -0.90930945 1.1292243 2.1601617 -1.303517 -1.560119 1.7119516 1.3485795 -0.6996136
6704 0.7485362 0.92281127 -0.8576859 1.0054283 0.34228244 0.15119973 1.3932735 -0.3541264 -0.4898781 0.9113441 1.7465119 0.78732353 -0.6238686 0.579236 1.3739315 -0.3856006
2133 1.704186 -0.6797898 2.1220143 0.24369043 0.7769544 0.010548614 1.5359192 0.6524169 -1.7798716 -0.3492159 1.8280506 0.20931122 0.6220852 -1.2570969 2.2583406 -0.7249938
948 -1.6608691 -0.0008666577 2.8472352 1.4133003 0.32646307 -1.8384689 -1.7311337 2.1846771 0.23759863 1.7426237 2.7298071 -0.3044582 0.7355218 2.7833312 1.0411526 0.90302217
1330 -0.44625127 0.24534278 0.929834 -1.406368 0.4474726 0.7887751 0.9412119 -0.68083173 -0.11466286 -1.4362346 1.1916624 0.06369528 -0.17720121 1.2376356 2.7913375 0.081657104
1145 -2.5140696 -1.0969148 0.48023793 0.115265 0.58193815 0.12614535 1.6428208 0.91299695 1.6810167 -0.051509835 0.95045114 1.1440339 -0.086742796 0.41109717 2.7790267 -0.012883057
1124 -2.373576 -1.6928765 0.41627115 -0.11413182 -1.1830462 1.3105569 0.81142616 0.3915066 1.8145943 0.3563043 1.9970545 1.2720511 -0.65868884 1.4826397 1.6063133 0.26180214
4103 1.2018911 0.6175946 -0.9417485 1.825906 0.5926503 2.0182502 -1.9794434 0.9483373 0.2979796 2.488387 0.46022213 -0.16599232 0.48370227 0.15001477 2.569248 -1.7137126
2691 -1.3426849 -0.95874023 1.9665114 -0.60583806 -1.5233073 -0.2784783 1.4535398 1.0180043 1.0371789 2.1405656 -0.25703618 -1.3871146 0.48647997 -0.16570745 2.352696 -0.26688966
1802 -0.08394516 1.1174359 2.1896486 1.0453765 1.0981371 1.2243693 -0.0559642 0.6438306 -0.35469434 0.10441413 0.45839578 0.48276332 -0.22208713 0.5194359 1.791997 -0.3313622
398 1.6263391 -1.987483 1.3923458 -1.5161175 0.5732576 1.0917171 1.4644287 1.6919742 -0.22878505 1.0489119 1.6257639 -1.8593048 0.58721054 1.051205 1.2341678 0.1740878
6592 -0.38719016 1.7289841 -0.19862795 0.4478948 0.44865397 -0.39970317 1.1462784 0.6248106 0.24511941 0.81398106 1.162959 0.22413203 1.211015 -0.44514737 1.6096702 -0.63249016
2201 1.3013048 -0.37712914 1.9848124 0.69124436 0.83532465 -0.07880417 0.5418637 0.48016346 -1.3925587 -0.18651378 1.7177495 0.23014054 0.34450686 -1.0089269 1.526736 -0.67343485
3132 0.489577 -1.3058561 -0.52514315 1.9378213 0.2386869 0.95012206 0.3057013 -1.6439167 2.5616212 -0.83576465 1.686081 -1.6481799 0.7763746 1.4515656 1.4234457 0.57409745
1189 -0.11263869 -1.511667 0.7362109 -0.6395208 0.70142514 2.1210198 -0.28172356 0.64506143 -0.8040204 -1.9084777 1.435488 -0.54805434 0.87692344 2.4559135 2.7612743 -0.7075774
4594 -0.79180664 -0.6090842 1.4553496 0.18036175 -1.1296195 0.79284376 -0.6678888 -1.6148835 -0.38494122 0.15244041 -0.85495406 -2.2651217 -0.5465826 0.047799245 3.5574858 -2.9039116
1723 0.45446134 1.4320773 2.2582505 1.040914 1.2671951 0.9682474 0.11776052 0.41992733 0.06925796 0.36397132 0.9154648 0.61156386 -0.9149317 0.42600146 1.9591174 -0.4292651
6895 0.64394444 2.615337 0.116490826 1.5520153 0.9789133 0.85682344 1.1805258 0.98931533 1.332926 0.8156204 1.6436664 1.1518806 1.7088757 -0.7765831 1.5679828 -0.49902105
793 0.6185906 -1.1520237 3.0423512 3.819919 -0.47848678 1.346685 0.38869056 1.7662365 0.38851246 -2.0931056 -0.15899315 1.0279568 -0.21576484 0.9856924 2.3169768 -2.2903335
1205 -0.7934696 -1.5936807 0.30659702 -0.4249356 1.0640874 1.1321394 0.3077393 0.5107134 -0.97272384 -1.3886681 1.5954767 -0.78950065 1.3222431 2.3993948 1.1579945 -1.478384
951 0.3176148 -0.53337896 1.6516787 0.32361928 0.5634568 -1.5011902 -0.08638311 1.3504586 -0.5557818 1.0550985 2.1150131 -0.2674124 -0.5471756 0.30485132 1.4951739 0.43376526
1182 -0.31851694 -1.6627611 0.8485987 -0.253728 0.3777292 1.7307993 -0.42895448 0.32873914 -0.7048983 -1.3684088 0.93277335 -0.55454016 1.246106 2.8652627 1.5950736 -0.30873576
85 -0.40337345 -2.0260663 2.0967927 0.8932982 2.0005386 0.17115682 0.27762848 1.5345827 0.46035254 0.5969946 -0.4939399 0.6644796 0.91917485 -0.030368468 3.335007 -0.9649702
481 0.52300495 -0.84955543 1.578527 -0.460547 0.02592757 0.45416334 -0.77699107 1.4116373 2.2409246 1.494417 -0.91519636 -0.64439076 -0.596801 1.3462641 2.9283605 -0.3450288
959 -0.42344192 -0.76291746 1.4622526 0.8269413 -0.77381164 -1.7275434 -0.97632617 0.8508637 0.111542 0.8005759 1.544688 -0.11806989 -0.3910208 1.211623 0.8739463 0.73861986
1167 -3.080125 -0.4829865 0.41215318 0.086374275 1.4695728 0.86380076 1.8138508 0.5002392 1.8826721 -0.5746202 1.6171408 1.9212071 -0.22870326 0.94020456 4.291722 -0.38266966
947 0.47252423 -0.3097013 1.7127472 0.49896732 0.8428815 -1.5853655 -0.2364527 1.1283913 -0.56060106 1.2020652 2.1296332 -0.09451309 -1.1209745 0.17054759 1.5654767 -0.124025255
564 2.5291874 -2.742161 1.345424 0.7305364 -2.0302029 -1.0967531 2.0788274 -0.8259997 -0.56665057 0.119623125 2.0521286 -0.47662336 -1.0290078 1.2246896 1.9323553 0.9055507
597 -0.94619536 -0.43205857 2.179157 1.2714704 0.22169295 -1.9582014 -0.5084771 1.9880526 0.85058653 0.6171957 0.74967426 -2.3706236 -0.26702306 1.6000397 -0.068473876 -3.2954583
5058 1.98112 0.31201997 0.07198731 2.4227378 -0.5020091 0.32669234 0.36826834 1.3810823 -1.2973952 1.0148075 -0.39738092 0.63691765 0.36159036 1.0397981 1.5844355 -2.2185867
2187 0.5884412 0.91050375 3.5003185 3.0608807 -1.3557531 0.91339 2.173664 0.9140315 0.63408375 -1.0047613 2.5389333 -0.30771616 0.5699512 -0.12971286 0.17020206 -0.8666159
4829 -0.92712104 -0.42605206 1.6812876 0.068213284 -0.9834168 1.067002 -0.8534026 -1.6013424 -0.34578717 0.22253026 -0.8654034 -2.1675885 -0.19194408 -0.20959014 3.5170486 -2.9746678
720 -0.8646775 -1.16426 0.6747731 2.3407447 -1.7204707 -1.5891725 -0.28399354 0.588131 -0.90631235 1.1414013 0.7160131 0.55533814 1.0029223 1.9579189 1.8119769 0.71398824
1336 -0.12496956 0.28367206 0.8598964 -1.7843641 0.18672875 1.361423 1.11296 -1.0669638 -0.11243705 -1.1230994 1.197788 0.5268393 -0.21734613 1.7120211 3.4892662 0.32204714
1191 -0.3939496 -1.6148454 0.31933448 0.11900172 1.4217144 1.3702649 -0.7815282 0.95729905 -0.013100362 -1.4326004 1.5295048 -0.85287696 1.2000064 2.5807867 1.6184589 -0.42571303
333 -0.5734511 -0.5984192 1.9870008 0.06798126 1.571698 0.17987704 1.7619042 0.102678396 1.145602 -1.006655 1.019079 0.6129108 1.2152054 1.002553 -0.29594627 -1.1900946
843 -1.6626416 0.6189418 0.73663294 0.095205545 0.9055693 -1.1494726 1.3346704 2.5241685 0.7159319 0.10700045 1.0756854 -1.6221458 1.6880076 1.443678 1.2021856 -1.2837034
824 -1.7389213 0.76240635 0.94340837 0.67820096 1.713773 -1.9275776 1.7556221 3.0111058 0.7335235 0.33098832 1.1282681 -1.7461845 1.8759983 2.2385454 1.0918989 -1.8302636
740 -1.0687753 -0.99134827 0.78785175 2.4246645 -2.5807543 -1.2911884 -0.086373344 0.52234757 -0.78488123 1.400796 0.9292277 0.6582864 0.8639717 2.4562423 2.292609 1.2841209
36 -0.44811985 -1.8292431 -0.3216471 0.7840124 1.3944981 -0.6629348 0.2870906 1.1853478 1.7215041 1.778275 0.6282754 -1.2374802 -0.73986953 2.2791555 0.57327557 -1.061816
134 0.57436585 -1.8008945 -0.4240599 2.1770403 1.5069844 -1.2469858 3.1258771 0.853627 1.7507874 1.4141392 0.43340436 1.7545781 1.2099494 1.3348038 0.44988745 -2.0635254
1099 -2.767416 -1.1832398 0.47986013 -0.15707071 0.075283736 0.35213083 1.5279708 0.8804434 1.2705653 0.0024652216 1.428345 1.4632299 0.4616834 0.29857525 2.4231756 0.14564657
355 0.9995583 -0.66466117 1.8665582 -0.22298533 0.10653392 1.4658087 0.62667793 0.533763 0.5453074 -0.168316 -0.04359372 0.22048031 1.076089 0.9492262 -0.011858896 -0.13395987
163 1.2700464 -3.0719352 1.9328536 -0.29977578 2.1749094 1.1128956 1.6171958 -0.038904145 2.559435 0.74350953 3.7680986 1.2726156 -1.3544056 0.8835313 1.4249293 -0.39379594
1721 -0.48867846 -0.18675093 1.8483196 1.0729692 0.21027555 1.4853513 0.01594333 -0.29886854 -0.044711657 0.32599467 0.06585463 1.0567108 -0.614737 0.18776791 2.005247 -0.42836395
1247 -0.33224797 -1.0083687 0.5475062 -0.2045712 0.71753526 1.1363845 -0.098426946 0.1913698 -0.48858705 -1.5778307 0.75156504 -0.7389816 1.3860813 1.981813 1.5285511 -0.8749934
9892 -0.00066597655 -1.1640996 0.76127505 -0.9039162 -1.0689406 0.63086057 -0.105829865 -0.2567506 2.1016057 -0.57645154 0.46068868 1.5573043 0.04307917 0.23592593 0.9183248 -1.0446409
1170 -2.9778948 -1.2680521 0.3803699 -0.54231256 0.8509505 0.48538318 2.0913358 0.62888384 1.2036954 -0.285318 1.2030017 1.426432 -0.119436935 0.03250821 4.3478236 -0.40798864
7606 0.09777082 -1.1177124 0.77180094 -0.92471963 -1.2017992 1.1400864 0.11247727 -0.8360645 2.4326293 -0.85066533 0.2554803 1.2876399 -0.13058372 0.5524169 1.0054241 -0.93753314
632 -1.3806303 -2.7352552 2.6362164 0.9697351 0.9022705 -1.1969714 -1.9013054 -1.8370161 1.4032714 1.5409343 2.0270774 1.3642936 -0.17684603 1.2244667 3.0368516 0.46051168
858 -1.9546573 -0.10795338 0.6856192 -0.08332895 0.06853713 -0.98067695 1.8684325 2.0214734 -0.16690445 0.27721587 1.3703724 -1.8524901 2.277115 1.5062035 1.436068 -0.6682495
1208 -0.8114043 -1.358292 0.36901098 -0.09245253 0.5368689 1.7078844 0.35073873 0.103696845 -0.35489106 -2.629679 1.5818578 -1.1237338 1.4310608 3.1491292 2.4977517 -0.70822704
462 0.09428379 -0.87463874 1.1092412 -0.24590172 0.19724318 0.47093484 -0.7917923 1.5845454 2.244045 1.3707467 -0.6206418 -0.70132244 -0.7304856 0.82138056 3.2341018 -0.2781247
992 -1.7339889 -0.3381141 2.8369997 2.3176696 2.6067293 -1.3126252 -2.2440383 2.9250143 0.8846091 2.9696016 3.878362 0.07523004 1.5825379 1.9879376 3.8454425 1.5422366
987 0.522153 -0.365456 2.2709596 1.7949139 0.26437807 -1.8331957 -0.8096137 0.66866887 -0.3023456 0.5719336 1.5964025 0.150921 -0.7870433 1.5121201 1.0557469 0.10452322
943 -1.7427549 -0.6628109 2.4139488 1.199112 2.4472477 -1.0082035 -2.3639853 3.598333 0.9442751 2.648632 3.1734717 0.055107247 0.75646883 1.9167783 2.8378422 0.4392204
233 -0.5746743 -1.9474692 0.84029585 1.0152138 1.0365175 -0.7742521 -0.5359198 1.1288167 -3.513958 1.0305963 1.2972745 0.41153976 0.41616875 2.188173 2.5790687 -1.2729774
726 -1.0636334 -0.8139034 0.3232911 2.3357565 -2.1999512 -1.6950114 0.29683936 0.58526367 -1.1441327 0.9914524 0.9950196 0.5395968 0.8528586 2.2803159 2.576256 0.9421148
6677 -1.1717848 3.2069201 0.5199637 -0.004094743 1.7655941 -0.5933228 1.8786263 0.99107665 1.4721147 1.6458237 0.061360646 -0.6857558 -0.5030164 1.885726 1.6287719 -2.2618635
808 0.09992672 -0.8142199 2.9621422 3.6328368 -0.9465378 1.6712517 0.96562856 1.4764124 1.2631935 -1.5881232 -0.044353623 1.6056925 0.21159564 0.6042476 1.5561366 -2.035469
356 1.9436079 -2.2045271 2.7612474 1.8972185 -0.4881936 1.6228456 0.6273263 1.6418343 2.69528 1.1207848 -0.92892283 0.25212073 2.3586905 2.865087 0.59690404 0.30348912
3018 1.318858 0.44072554 -0.5118358 2.517345 -0.18994108 1.9290534 -0.1472977 -0.8490894 2.555622 -0.51601803 0.5042126 -0.65970594 1.1300423 2.8541076 1.6062506 0.7151193
5770 -1.1327267 2.5104752 0.24547811 0.24476184 1.1727824 -0.6245633 2.0108304 1.1103905 1.0901377 1.1648163 -0.3353396 0.08979441 0.14417267 1.8264846 0.9133673 -2.2005408
2365 0.62769425 1.0883745 3.5168223 2.322838 -1.0190011 0.8545479 2.6327791 1.3184917 1.2445173 -1.836816 2.5614874 -1.6437979 0.69488865 1.4254558 0.47335654 -0.2424244
2712 -1.8220745 -0.7769131 1.4505528 -0.479527 -0.6006853 -0.23772225 0.9431204 0.9481106 0.9175737 2.137842 0.8268253 -1.0497859 -0.00039896055 -0.5931243 1.9046041 -0.4918861
549 -0.14079753 -1.9598982 1.0740216 -0.5482104 -3.381708 -0.23133084 1.3829038 1.988695 -0.3391111 -0.3117136 0.77822894 -0.90499794 0.1867738 4.743758 0.44027576 -0.16054219
222 -0.9120157 -2.6662538 0.030086236 0.04129866 1.5682886 -0.965817 0.7770543 -0.17810883 -1.2809899 0.58063036 0.88064396 1.5403283 -0.61989677 3.8781419 1.0903926 -2.965124
2830 0.33080053 -2.025053 0.16205768 2.3028574 1.1780113 1.8056531 0.09347639 -2.0208213 2.2360466 -0.9174418 1.9927495 -0.8227311 1.6279101 -0.14856377 2.0523121 0.036809575
2934 1.8537594 0.8936029 -0.26324767 3.3106961 -0.2645454 2.425385 -0.051125724 -0.6220255 3.0699437 -0.4978068 0.3091747 -0.7226094 1.0237331 3.4528582 1.6966025 0.47956762
476 0.565876 -1.0331653 1.6748655 -0.13423453 0.19703138 0.14087522 -1.0521868 1.9191722 2.572142 2.0626667 -0.58709204 -0.5847744 -0.78007597 0.97944605 3.3199308 -0.28086507
881 -0.084905155 -0.41540095 2.0015326 -2.4916236 0.6272877 0.19699289 0.4192637 -0.0008441263 1.0060006 1.9914827 3.0498912 -1.4717922 -1.1405394 1.2151515 0.6552574 -1.2368594
473 0.16804858 -1.3751849 1.4798337 0.069413766 -0.19927432 0.34136373 -1.1286522 1.5029813 3.3560805 2.0096037 0.0619907 -0.9688567 -1.5176141 0.98979276 3.1778502 -0.029969072
1032 0.91392976 -1.0784339 1.0835162 -1.0997523 -0.54967546 0.5374731 0.42764404 0.4881158 -0.45515862 1.9872516 2.297865 -0.405451 2.3636837 -0.04114057 -0.52889514 -1.2657284
660 -0.5664221 -2.3670666 1.8997017 0.58976144 0.4183331 -0.7643843 -1.6396909 -1.0342201 1.4542446 0.529526 0.99993205 1.370776 0.25873402 0.77341574 2.3653889 0.41373238
146 1.9998045 -1.3860139 1.0783722 0.06777547 -0.26579162 -0.9618501 -0.6428614 0.6974841 1.6861315 0.24985763 4.026878 0.4117532 -0.01601271 -0.20928848 1.7084625 0.8854905
153 2.1945882 -0.9790381 0.7130131 0.2918604 -0.14320996 -0.9498443 -0.77645737 0.9596361 1.7108096 0.2716729 4.046601 0.29977894 -0.07098573 -0.21872912 1.8107954 0.67240715
847 -1.794998 0.44893116 0.5519272 0.37573165 0.6152265 -1.4958179 0.83166605 2.5314777 0.6444362 0.33617082 1.2996625 -1.5071591 2.156514 1.4032179 1.5710341 -0.6859069
598 -0.48324376 -0.42779365 2.5545454 1.3149803 -0.21926622 -1.7016524 -0.8823363 1.1670384 1.0176697 0.7871012 1.7641159 -2.5184133 -0.77187324 0.4582017 -0.11082487 -3.9386094
637 -0.44901255 -2.2163582 1.8340547 0.5785572 0.3954095 -0.7825036 -1.5234812 -0.9106267 1.2654473 0.645136 1.2125384 1.441973 0.13356242 0.9474415 2.050741 0.62279314
1218 -0.2978355 -0.6720987 0.29209518 -0.35167003 0.7835812 0.93642277 0.26642072 0.564118 -0.47369018 -1.7675298 1.2498214 -1.0479573 0.4231848 2.275398 1.9138932 -0.5354797
1095 0.41771775 -1.44142 1.0982028 -0.14466622 -0.81959295 -0.12794083 0.6632016 -0.06536616 -0.0066966084 2.5940104 0.8947294 -0.9662783 2.3401463 0.6184672 -0.7647664 -1.2382965
378 1.573546 -1.527517 0.9662527 -1.1482406 0.30328378 1.468403 1.8229219 1.5163301 -0.10715212 0.39182207 0.69919175 -1.2734947 0.74172217 1.0665814 0.8411842 -0.86910236
2979 0.02770519 -1.3513591 -0.19854042 1.8113339 0.6979278 1.5517927 -0.31752312 -2.6961212 2.4761302 -0.49365288 1.8323998 -1.0207028 1.9452333 1.0438449 1.6895704 0.2337788
37 -0.7025888 -1.6585337 -0.068552285 0.92139083 1.5233018 -0.5546146 0.30839425 0.8212376 1.7018783 1.7122287 0.4715553 -1.0364624 -0.5757237 2.3121142 0.2250424 -1.3152484
195 -0.42367685 -2.287762 1.8532312 -0.7061747 0.05967355 -0.7288679 -0.16495918 -0.5576684 -1.2059001 -0.010757089 1.4778019 1.5049994 -0.49412015 2.764713 1.5037118 -1.1857252
1067 1.1958266 -1.6311812 1.2445097 0.23959453 -0.8213077 -0.5677183 0.39664525 -0.13306399 0.75163585 2.9180036 1.0520489 -0.64638805 2.6115825 0.4364506 -1.1129051 -1.2840813
862 -2.0020382 -0.18212847 1.614916 0.52672005 0.11713458 -2.0130618 1.4860231 3.5283659 -0.82644415 1.0891474 1.2226584 -0.45915386 3.021238 2.253969 1.4849995 -0.392692
546 -0.052530535 -1.5965655 0.94562423 -0.6838126 -2.7186365 -0.2650805 0.84677196 1.152971 0.20945509 -0.37243634 0.839146 -0.50453454 -0.58482003 4.2989464 -0.011985277 -0.1959571
34 -1.0769659 -2.0396738 -0.38420552 0.6387627 1.4130181 0.11679534 0.03085714 1.1513873 1.7742186 1.0351907 0.5849014 -2.215265 -0.37450898 2.001425 0.9025542 -2.1008077
791 1.235828 -0.95182854 2.6006205 3.7617753 -0.1429486 1.1756656 -0.027167195 1.7572267 0.010840911 -2.4013565 -0.22087583 1.4367036 0.62928945 0.9926683 2.7634418 -1.9963578
2022 0.153476 -1.5688144 0.06589358 0.21317777 0.44040447 1.3437493 0.11159492 0.41852143 0.38724276 0.5476831 1.0126384 0.24427411 0.035811737 0.40254146 0.52057713 0.292524
249 0.030743076 -1.827321 0.17749298 0.4816122 0.22804025 -0.20207214 -0.28984463 0.5068064 -1.584317 0.5366157 1.7394936 1.0051577 -0.35694975 0.562214 1.0991582 -1.2079943
1132 -2.8823898 -1.4038574 -0.248902 0.15510911 -0.29026055 -0.75153947 0.85613304 0.56586397 1.0140126 -0.04941296 1.8989729 0.46171403 0.083596155 0.9555689 2.013497 -0.44200832
397 1.596353 -1.4886626 1.0887742 -0.8811046 0.6227873 1.0408483 1.6825523 1.432752 -0.16555254 0.5319518 1.2523823 -1.1607145 0.53793514 0.60199416 0.9338761 -0.18150707
770 -0.122789636 -0.685936 1.1315082 3.48121 -0.86464 1.2062479 0.42881447 1.9361231 2.9053788 1.0280287 -0.31111845 0.862801 -1.1326253 0.80592906 0.49720594 -1.9247252
820 -2.2615633 -0.44306028 2.2030563 -0.21290347 -0.21261162 -2.0124123 0.87766576 3.0555918 -0.017380096 1.2757368 1.9878184 -2.1315346 1.9659795 1.7233864 1.1373255 0.10249354
979 -0.7241186 -0.8741887 1.2829082 1.2493589 -0.21813023 -1.8082833 -0.99502605 0.9332241 0.31697705 0.82134056 2.7059023 -1.1294078 -0.019127343 1.8253689 0.90777373 1.109157
4942 2.2795029 1.3194224 0.52833223 2.8869293 -1.4566824 0.28033504 0.35552853 0.7082331 -1.4518532 0.37461418 -0.34707707 1.2278874 0.2938102 1.534675 2.2771897 -2.1668184
1531 0.29999882 -1.1160412 0.86246806 2.1345565 0.5083011 2.3123062 0.19257325 -1.8263563 -2.226916 0.78187287 1.6472526 -0.07488376 -0.5284485 1.5936872 1.1068544 -1.5694292
7432 1.0648073 -0.24206619 -0.7652672 0.1908949 0.7748187 0.4229791 -0.3982599 2.1831849 1.5458035 -0.33298925 0.7521824 2.7698126 -1.0157228 1.1198556 1.9971644 -1.8267765
874 -1.8955413 1.4478482 0.7931662 0.7470306 1.8630917 -2.0649047 1.920979 2.8207192 0.56849265 0.53433245 1.0419631 -1.5002964 1.4758466 2.3521273 1.2300276 -2.0738895
1321 -1.9461896 -0.12216566 1.3748723 -0.9175871 0.47057113 0.5451342 0.56926906 -0.54595864 -0.6058965 -0.29251653 0.7186368 -0.33047688 0.29301593 1.231416 1.6917726 -0.35724038
1389 -1.0351241 -0.6493895 0.63674146 0.29217136 -1.7230959 1.5249561 -0.18899564 -1.7494756 0.13034788 1.7818799 1.6015261 0.6926746 2.3043723 1.2759097 -0.3782738 -1.2319866
665 -0.6522129 -3.2617855 2.8440259 1.616029 0.062468898 -0.24843568 -2.0115788 -0.87687373 1.9601208 0.91256285 1.1183175 1.580472 0.48248237 2.3133607 2.2463017 0.9709148
1188 -0.6647436 -0.765048 1.5659517 -0.36252648 2.3290799 1.2658396 0.053071205 1.538501 -1.2155771 -1.672528 2.5124874 -2.3319244 1.3565615 3.0112836 2.1586597 -2.4049644
4717 0.48852566 -0.98455614 0.59205043 1.0517753 -0.6049264 0.47249728 -0.15507674 -0.085827835 0.08123376 1.9251812 -0.82930696 -1.4838423 -1.487341 1.4974117 1.3507922 -2.159401
511 0.18156353 0.33246484 1.8098171 -1.1503311 -1.6905782 0.3811201 -0.038698908 0.6918446 -1.9690146 0.19963914 0.49735907 2.6257923 1.1690041 1.9238874 1.7889158 -0.020418402
68 -0.43391454 -1.9279603 1.379853 -0.59524083 1.978961 0.7554439 1.7649652 0.74681157 -0.09132852 -1.1056495 -0.37870115 0.43871322 1.086734 0.7846315 3.3013344 -0.8809682
3554 1.0382192 -0.013719695 0.54326814 0.81238896 1.6192592 -1.8768723 0.27445954 -1.1309476 -0.7314206 1.8282356 1.4218773 1.5511546 1.8463506 0.6285436 1.097711 -0.95708025
180 0.72676075 -1.742303 1.5066714 -0.7429494 0.33145896 0.46767712 0.2372379 -0.49286583 0.5486335 0.44784334 1.9572084 0.63619655 -0.7184649 0.5056934 0.9169158 0.0815987
1510 -0.5367603 0.3186441 1.2695458 0.09745612 -0.6776756 1.1324623 -0.07558285 -0.73551774 -0.6100997 1.1415675 0.6175754 0.44026852 2.3889477 0.98065394 0.06418084 -0.57190573
77 -0.7416536 -2.145615 1.6590118 -0.19657557 2.143372 1.115834 1.0782789 0.97089577 0.39132297 -1.1356604 -0.45988277 0.5221864 1.1923299 0.77514523 3.573661 -0.97408235
75 -0.13667184 -1.8234792 1.451976 -0.7466039 2.281778 0.21928328 2.0575612 1.1337935 0.10526172 -1.3625748 0.18813261 0.20611532 1.049871 0.5157519 3.2116845 -1.0002664
645 -0.44716313 -2.2295656 2.0663786 0.5687552 0.45154843 -0.7574623 -1.4803662 -0.89798474 1.4712424 0.7935175 1.2048589 1.3397039 -0.122642525 0.7263932 1.693001 0.37880266
400 1.7383902 -1.5246997 1.40061 -1.314498 0.53954256 1.3077514 1.3241451 1.6992103 -0.12410891 0.93439907 1.4450711 -1.4554908 0.41199726 0.42898706 1.2562705 -0.11612592
264 -0.21573348 -1.8081087 0.43594006 0.6978758 0.5569254 -0.31727606 -0.62326807 0.72123766 -1.8157818 0.76396245 1.7078965 0.8852539 -0.46789518 0.8704162 1.1857896 -1.2151332
1771 -0.61609674 0.6481453 2.6600301 1.0550213 0.66752833 1.1677305 -0.063993454 0.06843763 0.12326254 0.48135906 0.17964116 0.50911546 -0.6879322 0.39294925 1.7716969 -0.7659794
812 0.84141856 -0.47764817 2.057656 3.7286868 -0.50218284 1.3447868 0.21600552 2.3298297 -0.1932638 -2.0333257 -0.4185238 0.59253466 0.68092084 1.2931165 2.7116342 -2.1267397
290 -2.8832235 0.61549467 1.1612953 0.4472402 -0.023089947 1.9879541 2.6472027 -0.15027897 -0.17057906 0.49782684 1.9977403 0.060353532 0.7114832 0.64737207 -0.15272261 -2.0103788
2344 0.7922738 -0.9577387 2.7572212 0.6719269 0.8004555 0.3679105 0.71279436 0.6507668 -2.1114001 0.5569897 1.9886444 0.6956072 1.4288062 -1.3038353 1.7952666 -0.51815504
573 1.6817225 -1.9452791 1.2093048 0.47277316 -1.3905833 -0.60287887 1.0724972 -0.6118002 -0.19532065 -0.40894473 1.1549364 -0.66172105 -0.6521116 0.7927843 2.0267348 0.8100928
625 -0.5700795 -0.7801854 2.272899 1.2981324 -0.15532559 -2.3522723 -0.6628116 1.776787 1.1019688 0.18613872 1.2229074 -2.4862728 -0.7263503 1.3539075 0.45108494 -3.298297
38 -1.0359933 -2.1210377 -0.21546727 1.0470685 1.3918052 -0.2038402 0.3020383 0.85503036 2.0769691 1.255598 0.65304863 -1.4993367 -0.4972554 1.9815719 0.5466785 -1.4025939
1003 0.084423296 0.061536904 1.8537294 1.0637497 0.006827364 -1.9200741 -0.69835174 0.55593145 -0.10879258 1.2439439 2.5040402 -0.24943668 -0.7373209 0.9284987 1.0161507 0.39863804
202 -0.7532286 -1.874683 0.71238613 -0.27294105 0.56219393 -0.91993606 0.22857542 -0.11066437 -1.4599242 0.14756921 0.43802583 1.4180906 0.17433566 3.3366852 1.5128442 -1.2010862
2071 0.64433503 -1.4979148 -0.67718834 0.28102836 0.4927683 2.2911735 0.40669522 0.54484904 0.35725883 0.42123848 1.0306453 0.07253624 0.30476424 0.76417106 0.889142 -0.37655964
559 -0.13248861 -1.8358092 1.00104 -0.20583344 -3.2272642 -1.0763329 0.8988265 0.7385274 0.576821 -0.0577888 0.58084434 -1.0023513 -0.16887742 3.87466 0.39245906 0.17829774
7440 -0.3589257 -0.09248087 0.55309814 -1.0436982 -0.54547685 0.5935492 -1.4236346 -0.6859595 1.5816947 -0.016091218 0.6128868 -0.46671572 -0.157316 0.25328237 0.63686943 -2.267551
312 -0.86405784 0.20511127 1.2882204 -0.13467155 0.74565923 0.4467375 2.2923255 -0.16720317 0.38411304 -0.8375678 0.8462653 0.2486874 1.1161511 0.47599074 0.030204132 -1.8236734
308 -0.8720131 0.3892043 1.2365369 -0.05112282 0.38070115 1.179695 2.3272789 -0.21437308 0.3379807 -0.36464456 1.0399557 0.20137966 0.8428633 0.29718605 -0.18462594 -1.8251103
1370 -1.5400127 0.25689957 0.6193575 -1.0326821 0.19480845 0.6628407 1.0404185 -0.533618 -0.8124035 -1.1445866 1.2120281 0.2584105 0.7209957 0.9960929 2.54359 -0.23902477
374 2.2347991 -2.099005 0.9873153 -0.83395404 0.32486624 1.494294 1.5586166 1.6695735 0.37014467 -0.052842952 1.3251164 -1.2794 0.9448787 0.93398297 0.842168 -0.22583224
1785 -0.51242507 0.34553865 1.9062164 1.0480698 0.18579456 1.6554595 0.43309295 0.00065851124 -0.08828953 0.36634314 0.13949811 0.91331553 -0.8143371 0.85903573 1.5007867 -0.36051092
250 -0.8495811 -2.010123 0.26057628 0.36540273 0.17279574 -0.54474056 -0.38188916 0.34897834 -2.6576097 1.2130753 1.516618 0.10288475 -0.08145334 1.6019853 1.4889984 -1.149007
428 1.2692742 -1.2980905 0.9628338 -0.82199234 0.8476073 0.8515618 1.0786346 1.1901835 0.056601163 0.43867517 0.74397635 -1.1794633 0.004890026 0.775443 0.9812032 -0.285059
4514 0.96038723 0.57425994 -0.835347 1.6412655 0.81124926 2.1240199 -2.0536602 0.6723287 0.7709654 2.671067 0.60506415 -0.67696226 0.60578895 -0.25587377 2.5537422 -2.1296206
1010 0.7214294 -0.8367901 2.0785112 0.8625554 0.7065626 -2.4294465 -0.435064 1.5995752 -1.0899836 1.0789272 2.0090919 -0.25243306 -0.8229254 0.8252019 2.1670294 -0.2211169
403 1.5840088 -1.3979714 0.9871337 -0.87170404 0.38773665 1.214937 1.3077219 1.0989608 -0.11778603 0.07412556 0.94066566 -1.2119471 0.6314746 0.5476055 0.9934786 -0.09714689
488 1.1327846 -1.2351965 1.5530697 0.58462393 1.3359351 -0.8544166 1.2648793 1.7177607 0.5391096 -1.5401803 1.1977857 1.8577286 1.4895562 2.2649121 2.1544054 0.6877995
332 -0.24238683 -0.08589948 2.659957 -0.354787 0.7289725 0.19854747 2.9217916 0.27088022 0.9934875 -1.4985504 1.0236537 -0.1717173 1.7064812 1.7992135 -0.43692043 -1.4328763
450 0.84171855 -0.66931117 0.7852707 -0.77561 0.6589872 0.48509654 0.19496411 2.2830179 1.2463068 0.9438923 -0.80292106 -0.95600253 -0.17126718 1.5738803 2.1229188 -1.2512497
1356 -2.0499568 -0.3652532 1.3083123 -0.7684708 0.591059 0.37102255 0.91542566 -0.13390139 -0.42076486 -0.51123476 0.6511987 -0.2917394 0.4431982 1.5464698 1.4080737 -0.11488923
62 0.15007426 -1.9625628 0.067252636 -0.2091719 0.45470327 0.024096852 1.2541516 -0.17120822 0.34015518 -0.87246543 1.6390971 -0.93897873 -1.9125645 -0.05397987 2.3158834 -2.189526
236 -1.1909778 -1.5181847 0.7221764 0.45645946 1.1156805 -0.8566993 -0.48465812 1.2532054 -2.7581656 1.0782237 1.1938068 0.34368664 -0.5978965 2.5370111 1.6922568 -1.4595679
5291 -0.16270626 -0.938179 1.5549903 -0.35500938 -1.7630615 0.7034388 -0.6361158 -1.5077482 -0.5312784 0.02672599 -1.0855327 -2.4407814 0.32779527 0.40714744 2.958194 -2.8867617
396 1.8071743 -1.8873116 1.196515 -1.0001827 0.6014318 1.432967 1.4358275 1.2103517 0.12771413 0.2064263 0.91220176 -0.89087814 0.4193097 0.5576984 1.1072946 -0.4200209
334 -0.48473528 -1.0846009 3.2703958 0.0323015 -0.10627422 0.52296716 -0.12618582 -0.875853 1.8582813 -1.0847529 0.45723847 -1.3060944 1.2360647 1.3028456 0.53663737 -0.40077996
498 1.0941743 -1.4135988 1.7554619 0.66557807 1.6666445 -1.2179284 1.4031348 1.8365196 0.5144326 -1.59099 1.4826431 2.1201603 1.4142478 2.366001 2.076548 0.36931652
302 -0.37404054 -0.021870537 1.1862942 0.7390042 0.97260094 0.55620885 2.692392 0.023607193 1.1639028 -0.873487 1.2177483 0.7057896 0.29807055 0.6009093 -0.52444386 -2.5145464
362 1.2759677 -1.5693355 2.0554636 0.3869497 0.15918982 1.7110391 1.0205939 2.021236 1.4231383 1.4350219 -0.63876134 0.26239505 1.4724436 2.1310267 -0.42100957 -0.8941214
2463 -1.23096 -1.408474 2.0014508 -0.8657096 -0.24999845 0.66964453 2.6483 1.5838279 1.5824479 1.9837558 0.47659084 -0.28995982 0.028911617 -0.01975096 1.404441 -0.29742914
3926 1.2265698 -0.0072313542 0.71867985 0.82512397 -0.17548104 1.2042358 -1.4316261 0.8293713 0.4810023 1.9181874 0.28552708 -1.7878929 1.5287606 0.50034124 0.3831049 -1.3185722
2941 0.055681206 0.5788963 -1.2064103 2.6178493 -0.5664013 2.0483203 -0.17006385 0.23327675 1.0401324 -0.6575062 1.0300105 0.37566626 1.6791346 1.5249524 3.1089835 -0.38120157
1109 -2.548367 -0.774883 -0.7806584 0.076084405 0.6392919 0.2020953 1.4581453 0.668824 1.4715501 -0.33549553 1.7040124 0.37067628 -0.12736318 1.0348729 2.2303727 -0.48763072
35 -0.6942177 -2.304606 -0.2189557 1.1510767 1.9354169 -0.44494346 0.39063606 1.1372628 2.2293482 2.2690046 1.0605458 -1.2744685 -0.9568758 2.3997445 0.59922093 -1.1762851
2785 -0.5602639 0.57984066 0.21171066 2.0360065 1.1298409 0.37590915 0.7896444 -0.91988987 2.2404418 -0.62619674 0.24844019 -1.4327403 0.59278476 2.2013328 1.5709661 -0.33047524
5028 2.1350625 1.4359338 0.3257874 3.034359 -0.81591153 -0.2552192 0.17362529 1.181002 -1.1731175 0.211894 -0.25086924 1.0046301 0.98719025 1.6335514 1.3022698 -2.441054
692 1.1189253 -1.9026847 -0.08715956 1.7353449 -0.47027305 1.6181602 0.81447476 -0.5596865 1.0111492 0.75236666 4.1324353 -1.5930482 -0.06718873 -1.7280188 2.539725 -0.2844849
457 0.36440012 -0.67243737 1.0568027 -0.69508773 -0.048661936 0.82088256 -0.39318803 1.9674413 1.6292312 1.0447705 -0.09631554 -1.0154042 -0.8247316 0.4784779 3.1296976 -0.91148835
2965 1.134148 -0.28163958 -0.4039083 2.6906688 -0.43508244 1.2086282 -0.1427412 0.78678805 1.8930595 1.0565377 -0.10075553 0.13355659 1.9029557 0.7211528 1.4412849 0.24824321
5337 1.1710227 0.4296082 0.1381406 1.4894327 -1.2991526 0.87587017 0.4491478 -0.1402701 -1.129568 -0.0953578 -0.6343207 0.25879076 -0.1002866 1.258845 2.6561162 -2.2473407
4688 1.0813513 0.2943342 0.1695255 1.1310407 -0.77838594 0.6612525 0.7774937 1.228055 -1.0697079 0.7446562 -0.79350567 0.98817515 -0.53184015 0.8794053 2.7135293 -2.1574488
64 0.049834248 -2.0801027 0.036790214 -0.17422453 0.90494025 0.17138945 1.253306 -0.13375725 0.060562834 -0.5787839 1.7632334 -0.6868222 -1.8291005 -0.25913388 2.2977948 -2.2931795
327 -1.1574254 -1.1470174 3.894139 -0.21750061 0.25884753 0.2933905 1.8123401 -0.5195749 1.3691553 -0.8132018 0.3924385 -0.24124739 1.188104 1.471608 0.44874156 -1.0060457
1225 -0.5617832 -1.7177281 0.15821092 -0.14815028 0.66573614 1.3136653 -0.34584394 0.4252696 -0.33847666 -1.4944865 0.8766362 -0.46987075 1.0262556 2.5051944 1.6419414 -0.7233153
1346 -2.1884427 -0.6033149 1.1436684 -1.0987048 0.5744451 0.13105494 0.8105824 -0.42408672 -0.72867084 -0.45846167 1.1683989 -0.11548255 0.5920999 1.5349969 1.4378822 -0.382801
200 -0.7532553 -2.6019642 1.0027126 -1.3864892 0.17094165 -0.84228903 0.116454594 -0.7941742 -1.5131066 -0.07178559 0.31622335 1.1350907 0.59749824 3.3935647 1.4103769 -2.2304423
