10000 16
5932 1.4217832 1.7069805 1.1001362 -1.64144 0.98915684 0.16564028 0.03359445 -0.3313636 -2.1466005 -0.62490714 1.5256237 -0.16151954 0.2008648 0.09522831 -1.3382498 1.3136752
6613 1.4811742 1.8421633 1.4887247 -1.9087204 1.1059769 0.11487526 0.03297984 -0.2972829 -2.475487 -0.5811287 1.6598549 -0.15049282 0.17060319 0.20858085 -1.4671203 1.5779324
7414 1.0917312 -0.98694605 1.2871724 -1.8471609 -0.71446705 -0.642462 0.8398053 -0.73064715 -0.95593303 0.8967932 1.514639 0.59751874 -0.38992894 -0.7072654 0.8201921 -0.00904926
8542 1.1185241 -0.96692556 1.4222026 -1.8947512 -0.7812946 -0.7323275 1.0023369 -0.8124766 -0.98282874 0.9879605 1.5398415 0.69263065 -0.3197602 -0.70666385 0.9107777 -0.08424972
8502 1.7056282 -0.36213234 0.85686696 -1.4434342 -0.8014846 -0.39822358 1.4838078 -0.14045803 -0.14682366 1.2255236 1.7324976 0.9225628 0.17383343 -1.0947478 0.7233101 -1.0019026
5916 1.1579709 1.6342859 0.97861105 -1.4846766 0.8994421 0.124511 -0.11004505 -0.21954422 -1.8653771 -0.6378897 1.3864238 -0.07396727 0.1263897 0.08069831 -1.2399433 1.0117686
4669 0.550928 1.3605427 1.679467 0.4365589 -0.28450048 1.6776555 -1.8468196 -1.2559319 -0.014898076 1.8387014 0.9126621 -2.2722323 0.10413279 -1.1949853 0.01321657 -1.8570162
7794 1.2956969 -0.37293407 0.40046638 -1.1761183 -0.44416755 -0.13729604 1.1623828 -0.12303969 -0.058744855 0.8706745 1.465293 0.64339715 -0.15380496 -1.1320217 0.58351696 -0.6095492
8308 1.6747304 -0.54633635 1.2805839 -1.7971061 -0.68241173 -0.30289876 1.7457886 -0.3922943 -0.14234638 1.1870853 1.8965104 0.7402344 -0.0819387 -1.0561475 1.0664194 -0.9194254
4028 0.9325393 0.7937563 0.42438835 -0.6408382 -1.6449097 -1.6799383 1.0621202 0.04348373 0.71515495 1.5248888 1.0823069 -0.60444176 -1.9738923 0.27400976 -1.8670291 0.5433681
5091 0.42723644 1.6841073 1.7743617 0.6293824 -0.390305 1.6027113 -1.9287571 -1.2478536 0.025610149 1.7873441 1.2574348 -2.5219839 0.31283668 -1.4610969 0.0683605 -2.1334405
7694 1.015578 -0.32653835 0.32667407 -1.1203152 -0.22001697 -0.17759618 0.957842 -0.23793884 -0.05964274 0.8329125 1.3857833 0.47334737 -0.086336866 -0.9596429 0.6251485 -0.5505783
8139 0.8390825 -0.09911691 -0.066376776 -1.077825 0.052831296 -0.15906055 0.47113198 -0.28076643 0.07918557 1.0115421 1.5234518 0.2982984 -0.17299819 -0.7977111 0.70871586 -0.50692284
6036 1.2858534 1.5848548 1.2612829 -1.6380521 0.94676065 0.190228 0.08599418 -0.5771505 -2.1769629 -0.41897827 1.3329964 -0.24318187 0.08381448 0.33142877 -1.2503868 1.4341222
4035 0.96765554 1.0388741 0.25834888 -0.6440001 -1.8179431 -1.9055094 1.2793688 -0.060034398 0.83422595 1.7014073 1.1913105 -0.32913554 -1.9071707 -0.032548957 -1.9763733 0.5770021
4996 0.50637823 0.48785454 1.1008424 0.8299831 -0.68807864 2.3497443 -1.0257002 -1.4392233 -0.7763131 1.9071541 1.5281892 -1.9535538 -0.85115963 -1.285141 0.31688172 -0.4760487
4979 0.5854246 0.4036271 0.763369 0.7819608 -0.54769886 2.5084689 -0.8076013 -1.3120141 -0.76938146 2.205313 1.4113888 -1.8388628 -0.97119457 -1.205086 0.5012429 -0.2253863
6130 1.3715504 1.5706547 1.2761011 -1.5377815 1.2341833 0.2522219 0.02619054 -0.45526686 -2.1363573 -0.6011208 1.6041046 -0.45159492 0.33045584 0.08017503 -1.5665698 1.4410229
8064 1.2495434 -0.48281306 0.65300137 -1.5624315 -0.38664407 -0.5929535 1.0868595 -0.634759 0.007865931 1.4349537 1.6941726 1.0114918 0.090501174 -1.3041767 0.6086293 -0.68733495
8325 1.748274 -0.50227696 0.29458138 -1.3883096 -0.43880805 -0.17945883 1.3652428 -0.11422174 -0.12843375 1.0765532 1.7082223 0.6190877 0.14341451 -1.384974 0.5793982 -0.8734771
3339 3.273665 0.9718895 1.4173849 1.3099508 0.5184313 -0.4414176 1.8342428 2.6214945 -0.41669038 1.1962687 -0.21429099 -0.4571098 -1.3052548 -0.97165686 -0.503913 -0.90067166
7934 0.77473325 -0.17013222 -0.05758053 -1.2064632 0.027724277 -0.41427 0.6508124 -0.18213269 0.27719525 1.1572943 1.4890493 0.6812042 0.0015532123 -0.83534336 0.13307658 -0.75711423
7412 0.36314175 0.056238398 -0.6077288 -1.099764 0.7450194 -0.14245096 0.27431694 -0.12614419 0.1829084 1.6508949 1.8911656 -0.18820588 0.28934753 -0.45780548 0.31418985 -0.47664896
8433 1.898659 -0.6246677 0.5021469 -1.7448518 -0.98094904 -0.25431782 1.595667 -0.015637865 -0.089315355 1.4569421 2.0455232 0.91750896 0.12827604 -1.3222412 0.4368132 -1.1858065
2271 -0.5598071 0.13854182 0.6259 0.3320893 1.2273139 -0.99039626 3.3403187 -0.641242 -1.2541159 -0.09122981 0.31915376 -0.32732448 -1.8952954 -2.0418282 -2.107121 -0.98441327
3515 3.410353 1.0431546 1.4872462 1.6681063 0.58452964 -0.09965916 2.2115598 2.849291 -0.5007127 1.7825155 -0.223815 0.12040675 -1.7956994 -1.3610599 -0.5888385 -1.0738518
4845 0.03758801 0.85261434 1.119032 0.52639633 -0.37517533 1.7874075 -0.85575 -0.9664619 -0.26280013 1.2596784 0.9850045 -1.6958034 -0.14435786 -1.0228758 -0.012656581 -1.4370338
2723 1.4668912 0.21029297 0.19325718 -1.3892905 1.1546376 -1.2534654 -0.7013154 -0.89098966 -2.5320785 0.6038231 -0.57440555 -1.6749183 -3.2014165 -0.5267352 0.61276513 -1.9147922
2935 -0.6081706 -0.2357999 0.5407166 -0.037145637 -0.7596114 -0.71532327 -0.5166273 -0.35600942 -1.0876902 2.7756827 0.36880484 -2.0685017 -0.15379156 -0.33633107 -2.0471816 0.5228794
7716 0.6724582 0.21274017 -0.3129805 -1.6023443 0.29455864 -0.10655044 0.21494573 -0.27131295 0.57358664 1.0160593 1.5616678 0.34094256 -0.10760525 -0.6510219 0.36287984 -0.8534584
7960 0.37010077 0.27932137 -0.62889904 -1.0843695 0.7521755 -0.08342906 0.3438416 -0.28626895 0.30847448 1.4807168 1.7069707 -0.036184795 0.26190388 -0.30624455 0.22715953 -0.65137076
5148 0.53284824 0.8775976 0.9545497 0.5189921 -0.20127937 1.6716046 -1.2381197 -1.1392074 -0.29704532 1.7488556 0.8039094 -1.5937799 -0.05738672 -0.9380495 0.29984307 -1.0904765
5125 0.034666196 1.2327518 1.5726457 0.7509376 -0.41167 1.908511 -1.7191244 -0.7048001 -0.032895226 1.3977143 1.4716915 -1.9436468 -0.03586935 -1.9949621 -0.6904345 -1.6334144
8161 1.2773098 -0.28435695 0.12221389 -1.2541636 -0.0065929433 0.17656599 1.2276238 0.16040623 0.08598144 0.86020124 1.076021 0.46612224 0.29165336 -1.361455 0.43952706 -0.6560641
3230 -0.6618226 -0.13061531 0.9338723 -0.09567864 -0.80249506 -0.89658815 -0.99888796 -0.09272004 -1.0352279 2.981417 0.02346586 -2.3789794 0.0706864 -0.7596094 -2.1435764 0.58973086
2671 1.55139 0.093359716 0.48277372 -1.6680331 1.4744328 -1.2537048 -0.867565 -0.984657 -2.1435769 0.6535434 -0.67014503 -1.9808832 -3.2664616 -0.5113493 0.6256319 -2.1858106
3927 1.1184168 0.28374922 0.40197268 -0.6644489 -1.3898145 -1.7651021 1.1317021 0.07837475 0.6554518 1.6344403 0.7283298 -0.4604639 -1.8221115 -0.051233865 -1.8419939 0.7003746
2240 -0.4471893 0.32881808 0.29228255 0.60307634 1.8102806 -0.9699644 3.611381 -1.1191723 -1.3969305 -0.26344693 0.50696945 -0.649812 -2.028333 -2.3347406 -2.0024593 -1.1640824
4020 0.91612464 0.5437648 0.06590703 -0.5873849 -2.1521683 -1.0534353 1.5423435 0.35804516 0.2890445 1.0447857 0.78746116 -0.48810065 -1.275038 -0.26127228 -1.6849711 0.16594367
1801 0.76409614 0.8382159 1.134996 -1.1868753 0.77840763 1.2741613 2.1489923 -0.58160645 -1.3581915 2.894024 -1.6483667 0.107015565 0.83359677 -0.008441223 -1.8336273 -1.570476
4944 0.49541658 0.09412768 1.2023233 0.20234632 -0.27243248 1.8744227 -0.7946835 -1.3117459 -0.49878624 1.63604 0.5916252 -1.7471368 0.14017974 -0.8925384 0.25952616 -1.0348349
3037 -0.4500738 1.4905547 -0.18023847 2.365746 0.43138975 -1.5799735 1.3103539 -1.589729 -0.34686306 2.5848303 0.79665 -1.8613719 0.2319388 -1.9855466 -3.445668 0.27987966
3319 1.7231811 2.2620516 1.5410218 -0.09319342 -1.4642175 0.0085944 1.201919 1.1933696 -2.2469726 0.79271513 -1.3741676 -0.7652385 -0.3711848 -0.16631685 0.44814548 -0.06205989
3428 2.8380811 0.9488356 1.1258761 0.75483423 0.10481801 -0.050786387 1.477033 1.8632381 -0.69450814 0.5130613 -0.21731961 -1.2030023 -0.5895844 -0.066367224 -0.033076547 -0.6967841
1798 0.6571266 0.9521063 1.1442676 -1.3976825 0.7990162 1.5703427 2.3780618 -0.6705153 -1.5227823 3.5966086 -1.7500647 0.4787265 0.5861726 -0.09118442 -1.9255779 -1.2337769
3895 1.4322398 0.18255474 0.28232 -0.5333242 -1.5493728 -1.5697119 1.0259411 0.27255818 0.4417637 1.3468517 0.9375955 -1.2181886 -1.9671476 0.657322 -1.7721564 -0.0025660796
3035 -0.24494474 1.6052701 -0.008786068 2.1142745 1.1539468 -1.4513142 1.0674095 -1.5742581 0.17559172 2.2711182 0.60306185 -1.549105 0.26208046 -1.8490573 -2.8983808 0.46355477
1670 -2.4122016 0.8167511 1.0414097 -2.8828225 0.44934824 -2.8061683 2.4493718 0.58856475 -1.1472828 0.4321017 -0.34418088 -1.3400182 0.23531865 -2.4679718 -0.30791864 -1.6164831
4071 0.99086726 0.9692123 0.17854393 -0.4325616 -1.3660092 -1.5502259 0.43134487 0.16666305 0.8665977 1.4555209 0.68290925 -0.6494007 -2.1074386 0.11976004 -1.6342107 0.24521127
7830 0.6097922 -0.24232906 0.23395307 -2.0470715 -0.110100634 0.0071322895 0.23500213 -0.09743369 0.11915829 1.1271864 1.5030146 0.13823515 -0.4663553 -0.4712934 0.7542158 -0.46628335
2124 -1.2991792 1.3732901 0.62119615 -2.2844748 -1.2250105 1.1912715 1.466431 0.226773 0.71191055 1.2564538 0.8640713 -1.7186618 -0.5225402 -1.8924403 -0.39395913 0.59747785
3919 1.2513429 0.31266555 0.30270666 -0.42421275 -1.2325836 -1.9864124 1.0427492 -0.238343 0.6115606 1.2383764 0.88532984 -1.3871874 -1.4933763 1.0213646 -2.0755284 -0.46928102
3844 1.2372156 0.30575857 0.37910858 -0.50360787 -1.1184739 -1.2744124 1.1700635 0.49582684 1.0768707 1.124244 0.9767442 -0.81224114 -1.7638848 0.34292975 -1.9275907 -0.18510775
3352 1.6608328 2.7574933 1.680802 -0.1261946 -1.2539743 0.082911804 1.6037343 1.1718234 -2.2774851 0.86188406 -1.3395255 -0.6995093 -0.121087715 -0.3385312 0.630351 0.1517062
1368 0.73470795 1.0495323 4.7314773 -0.7980512 0.90443194 -1.0680007 0.04240592 -0.9062698 0.03675109 -0.13099267 1.4090077 -0.7160783 -0.85934025 -0.2174742 1.3989204 -1.0668592
3373 1.7489294 2.51644 1.7226049 0.15691338 -1.4159317 -0.12440643 1.417587 1.1014277 -2.1249442 0.6236829 -1.1988584 -0.922146 -0.15327157 -0.30380952 0.6652686 -0.1723863
1393 -1.4992756 0.65907073 1.6045573 -1.1251785 -1.1417818 1.4075156 0.47209048 -1.2645532 -2.8936265 1.8035089 1.502495 1.4966619 0.42257223 -2.941558 -0.14062533 0.36519888
4950 -0.4801148 0.12444904 1.2661653 0.40568098 -0.35688546 2.15145 -0.5978899 -0.36801812 -0.36430296 0.35678574 1.361459 -1.2623801 -0.6419693 -2.0272212 -0.9262381 -0.9544269
1973 -1.668625 1.5529295 0.9136172 -2.2210314 -1.4595467 1.0023222 1.9184142 0.03540495 0.6032272 1.769744 0.91061884 -1.5933771 -0.43542054 -1.3713162 -0.29298237 1.0139575
2712 1.2797598 -0.119813025 0.10440788 -1.0485574 1.2500197 -1.279657 -0.6933195 -0.32114807 -2.2986505 1.0843897 -0.4895891 -1.2266518 -3.3586981 -0.88717514 0.32945177 -1.5697346
8270 0.780218 0.45193705 -0.47365335 -1.7485664 0.62886333 -0.3614138 -0.064241685 -0.08864352 0.49606627 1.1803142 1.2876923 0.18309811 0.46441755 -0.793647 0.658068 -0.9260186
4987 -0.32249928 0.14125015 1.0709972 0.5672567 -0.7563767 2.1232762 -0.245797 -0.23904873 -0.2589041 0.25921604 1.4468615 -1.6036284 -0.5784202 -1.530731 -1.1486686 -1.3728218
8277 1.3653386 0.5026509 -0.26594314 -2.6720645 -0.045263592 -0.70070446 0.15869547 -0.33729386 0.8335958 1.8442842 1.4684639 0.3355489 -0.3542129 -0.29341313 0.7174376 -0.34948498
1412 -1.2964433 0.6186617 1.727159 -1.0610706 -1.3493302 1.4377694 0.5459196 -1.4029572 -3.1096148 1.646795 1.5331713 1.2790527 0.19002989 -2.7177925 0.14875172 0.58116823
1540 -2.2780333 0.56887215 1.1509281 -3.1114163 0.85602534 -2.8123627 2.574081 1.0453231 -0.8250057 0.4085842 -0.12016562 -1.7539605 0.6828123 -2.6226888 -0.8118547 -1.5643022
7963 0.95333666 0.6005494 -0.5700696 -2.6010172 0.67486066 -0.21102157 -0.09096166 -0.5315918 0.82303786 2.527967 0.727778 0.82138073 0.30922517 -0.6739512 0.27040437 -1.1252464
2893 -0.38477948 0.5295216 0.11324909 0.76721793 -0.30935624 -0.8527577 0.054937396 -0.9552756 -0.7255266 1.9260119 0.35530668 -1.6513631 0.17593291 -0.7528225 -1.969335 0.62076664
2254 -0.035557874 0.05223189 0.7741098 0.78133124 0.9979078 -1.2694784 2.6997385 -0.7636372 -0.96589005 -0.368267 0.26844805 -0.6728437 -1.3235458 -1.8310105 -1.9117999 -0.99510294
4605 0.91164225 0.293545 0.4325906 0.5496883 -0.32281157 2.2392392 -0.8262938 -1.3884662 -0.9477209 1.9220905 0.9324295 -1.9468791 -0.24005175 -1.1056296 0.36518255 -0.22554861
3098 -1.583834 0.62775207 0.66464204 0.9256096 -0.307515 -1.6200563 0.9238721 -1.0615704 -0.2869231 2.3571308 0.9421349 -1.7752669 -0.6308521 -1.674981 -1.6054046 1.3570293
1025 1.0578792 3.9776988 3.1316328 -0.030292882 -0.84464455 -2.0778196 -1.002673 -1.2686383 -0.5338148 3.9836586 1.4583445 -0.2715066 -0.25685528 -0.010446397 0.5283632 -0.691399
3441 2.4233587 0.7746605 1.5630332 0.57934153 -0.3408918 0.31719223 1.1526103 3.0681262 -1.1468782 0.3379223 0.053006608 -1.2672362 0.017249878 -0.9067265 -0.009568029 -0.5509208
1303 0.75142944 0.54151595 4.7633142 -1.0112752 1.2855057 -0.47390747 0.36130574 -0.9685232 -0.00034703093 -0.048294086 1.4380981 -1.4250605 -0.99429876 0.06487138 1.3696588 -0.75238615
1064 1.1045028 4.2098784 2.6823213 -0.020554833 -0.56110734 -1.9819074 -0.63629586 -1.379 -0.6064659 3.7886808 1.2830321 -0.22362897 -0.13915862 0.12749752 0.6150166 -0.64535403
2849 -0.7465358 1.4269227 -0.2467604 2.0009794 0.28408223 -1.5645131 1.1562074 -0.9074206 -0.11681482 2.4314635 1.2042935 -1.7794671 0.236544 -1.4778748 -3.0554984 0.22180955
2188 -0.63709986 0.074149385 1.7498404 0.29333758 0.8458879 -0.9146303 3.1039147 -0.6881485 -0.9903574 0.23915847 -0.07171567 0.19290473 -1.3794844 -2.0804331 -2.1460996 -0.58461726
2142 -0.29311177 -0.44894108 0.5748 0.6101443 0.8604115 -1.0256591 3.0862176 -0.40293157 -1.3112321 -0.013242126 0.49704552 -0.81584066 -1.7260514 -1.7333412 -1.9593275 -0.818706
3617 3.2468028 2.1413639 2.7724662 1.718187 -0.6823005 -0.29581618 1.935172 1.2396941 -1.3964605 1.2144533 -0.9619232 -0.28013384 -0.45576352 -1.4895263 0.24213953 -0.56607014
6451 0.5517586 1.9616637 2.7728229 0.0823279 0.8744871 1.5817031 0.2932103 -0.22947513 -2.079271 0.10627054 1.4308841 1.0369028 -1.5332726 0.29778737 -1.5082718 1.3491404
4432 1.5319446 0.41286182 0.5384403 -0.9027345 -1.3634994 -2.0597274 0.7909268 0.04291207 0.5275121 1.6887708 0.71203536 -0.79806286 -1.2929847 0.9686232 -1.5910658 0.09957334
1183 2.340295 1.9304088 1.5066098 -3.1059222 0.28699 0.20604658 -1.6036608 0.24678741 0.99709284 2.6511166 -2.5026515 -0.8962398 -0.81748044 -2.4383674 -2.3504658 1.4214953
4480 0.24176076 0.6262251 0.37653694 -0.98518914 -0.8363451 -2.2432928 0.6369022 0.44899347 0.5645409 1.3911526 0.23985587 -0.8828686 -1.4898096 0.07970083 -1.3231537 0.47666422
9459 1.0567082 -0.048962213 -0.63202196 -2.9481914 0.57279724 -0.29270095 0.20101827 0.04836892 -0.68170285 2.023486 0.6923165 0.739062 -0.19161066 -1.0786086 0.66323984 -0.66498256
1327 0.43397167 1.106278 4.6681814 -0.69858944 0.80960095 -0.81729436 0.45062208 -0.98985505 -0.22746035 0.031941045 1.5074635 -0.9845101 -0.97189015 -0.10424351 1.7549708 -0.57642895
2570 0.98029464 0.14615698 -0.040661395 -0.646612 1.1258144 -1.759739 -0.4494243 0.37299934 -2.3397639 0.9709559 -0.58944714 -1.1637137 -2.6727273 -0.99224967 0.63060755 -1.7311302
1377 1.7882439 -1.8560185 2.2860596 -1.8683835 -0.5919108 -0.97626203 -1.5673696 0.24041522 -4.458389 3.0638778 1.5650156 -1.2600397 5.8807564 -3.9047508 -3.1841037 0.5418232
1429 1.4305171 -1.5264077 2.1687746 -1.6627702 -0.41728967 -0.9595792 -1.5816388 0.40958023 -4.462601 3.2353847 1.7256062 -1.1331897 5.627991 -3.639589 -2.8122883 0.41077167
4537 0.32477212 0.77651596 0.0012044127 -1.4995849 -0.63582927 -1.6587895 0.3092146 0.66151905 0.51666224 2.103891 0.27555934 -0.22101797 -2.1132555 0.31691772 -1.5419681 0.3607517
1246 2.4225175 2.0260694 1.1130327 -2.903697 0.32076102 0.16157746 -1.9265879 -0.07864631 1.1571038 2.774221 -2.3094194 -1.0056083 -0.99330187 -2.57384 -2.5952783 1.2523729
9163 1.1421458 -0.45447817 -0.99199367 -0.6570427 1.0626953 -0.33358642 0.4056262 0.35923964 -0.99816066 1.4452046 2.226592 -0.7073963 1.3212533 -1.2775806 0.5214247 -0.21488777
2978 -0.57631594 -0.46320155 0.70402664 0.16482024 -0.55803835 -0.7375031 -0.67361724 0.16733335 -0.9868955 2.3189938 0.29459408 -2.4208002 0.059688184 -0.6859923 -1.8671532 0.030109668
4780 -0.6040617 0.49939322 1.1693155 0.5333424 -0.41559148 1.9490459 -0.54612154 -0.37647876 -0.18026468 0.7865747 1.3110472 -0.8501947 -0.6570389 -1.8795176 -1.0348067 -2.1519058
2907 -2.0423534 0.9922833 0.5088382 0.94884264 -0.2675212 -2.0619545 1.5250053 -1.1190019 -0.09981206 2.5365674 2.1166394 -2.7436156 0.036705315 -2.151697 -2.1820762 1.2715116
7786 1.1861736 -0.22512469 -0.5338345 -1.0766772 0.66323143 0.40781876 0.9788167 0.7068303 0.20371768 1.1538758 1.4663689 -0.34179342 0.4739912 -1.4575646 0.64025456 -0.18309629
674 -0.2707323 1.0949059 -1.5469698 -0.15403384 -3.3075209 -0.57240945 1.2305542 0.73950666 -4.4696527 1.1312716 1.738715 -0.9922966 -1.9946859 -2.6038268 -1.1741005 -1.9191651
2641 0.7782489 0.0035324045 -0.22337532 -0.729524 0.9340031 -1.0928383 -0.7351122 0.4753334 -1.8850832 0.74309224 -0.1321853 -1.0874423 -2.725419 -1.0581774 0.18549024 -1.992186
6413 0.7665432 2.1076913 2.9423823 0.43917346 1.139009 1.392722 0.38859987 -0.24393123 -2.0522346 -0.044448446 1.4637352 1.1240566 -1.2406685 0.14748174 -1.8461199 1.0400697
1117 1.7784793 1.3045167 -0.20515136 -0.78402287 -0.64093655 1.2394234 1.7739084 -0.9093498 -0.9786845 0.9417201 -0.16602935 -0.3189228 -2.7712893 -1.7110236 0.3131086 0.36084974
677 -0.38408574 0.9842996 -1.3935847 -0.26234636 -3.5241432 -0.40972218 1.5990983 0.77075714 -4.5936103 1.0721623 1.8261911 -1.5146518 -1.8886795 -2.2409735 -1.0284501 -1.5035067
1958 -0.99093187 1.1289462 0.05376957 -1.4832498 -1.005439 -0.43146476 -0.0627725 0.30445233 1.4258182 0.9964841 0.4593134 -1.4390702 -0.5492046 -2.773381 -0.57763577 -0.97242177
5073 -0.6589765 -0.3749697 1.6257756 0.10329419 -0.75067097 2.228603 -0.82267326 0.31710476 -0.27424178 0.99481577 1.979479 -1.1698887 -0.52248883 -1.9470025 -1.1625597 -1.3560531
1802 0.8747307 0.191022 1.2785797 -1.4800041 0.683259 1.2508231 1.9274015 0.05001023 -1.0681827 2.5134046 -1.4319733 -0.15636979 1.0445576 0.052676424 -1.9520469 -1.8665373
3506 2.6443808 1.3166825 0.7741364 0.36060727 -0.96087265 0.21328133 0.7255472 1.5660644 -2.0888717 0.8858634 -0.738104 -2.3157198 0.613502 -0.3602187 0.9812716 -0.8718415
353 -1.3787645 -0.653385 3.2501686 -2.1602108 -0.30303425 2.972833 1.6635265 -1.0237646 -0.9519043 0.26430172 0.011330885 -1.1881045 -2.563413 -2.1704261 -1.5189135 -1.2302197
1148 2.0906608 1.4452517 -0.0827579 -0.4768717 -0.9356123 1.0328373 1.6838583 -1.1313249 -1.0954682 1.2129658 -0.08379454 -0.38028148 -2.7245464 -1.636628 0.51452076 0.5849395
357 -1.409093 -0.578784 3.42374 -2.1211147 -0.51939803 3.030944 2.0145605 -0.92549765 -1.1252302 0.21514156 0.055784546 -1.2829562 -2.6266203 -2.1336021 -1.6818699 -1.3007045
2696 1.9692798 0.006594639 -0.4643791 -0.45557296 1.5579387 -1.5833819 -0.8921002 -0.09991198 -2.0759473 1.338313 -0.28504488 -1.1608461 -2.6003983 -1.0146799 0.4651523 -1.7365845
2572 0.80346084 -0.08771666 0.9146697 -1.2032671 1.8956952 -0.71756977 -1.1999489 0.32100636 -2.556981 1.6772772 -0.40754113 -0.7499136 -3.8081713 -1.8239582 0.69376695 -1.9286212
2496 1.1025542 -1.1327844 0.6338288 -1.9945096 1.8172573 -0.20857482 -0.7936003 0.3961974 -1.9809318 1.280484 -0.38818148 -1.6697853 -3.2620783 -1.7473321 0.118255265 -1.6577939
6442 1.2250196 2.3061051 1.4950603 -1.1295824 0.48846707 0.69461906 0.064608656 -0.4272212 -1.9302841 -1.2617275 1.852139 -0.0005257769 0.30948743 0.4889206 -1.3189672 0.10380162
2125 -0.7089023 1.4237586 -0.051620174 -0.3932333 -0.40193334 0.34660345 0.8233234 -0.12282045 0.6410732 0.94128317 0.29822165 -0.97255546 -0.48076916 -1.7876103 0.40945402 -0.16234939
4061 1.3387103 0.67916167 -0.6171541 -1.2399598 -0.75147593 -1.6437525 0.41747257 0.19532147 0.62462205 1.6427219 0.5059539 -1.1288674 -1.9344243 0.63020176 -1.5917308 0.3277804
5086 -1.014092 0.59140015 1.4642422 -0.48680913 -0.99430686 2.733207 -0.7556332 -0.2265207 -0.7428997 0.4841276 1.7993003 -1.3416417 -0.15421785 -2.1303036 -0.6776217 -1.724718
2239 0.106497504 -0.9790248 2.3204763 0.80849445 -0.08051375 -1.1827956 2.1626441 0.35317725 -1.1233215 -0.5479509 0.41273656 -1.6138654 -1.4148291 -1.727072 -2.4601495 -0.25663787
1146 1.7241436 1.3176125 -0.08377708 -0.7677344 -1.1033597 1.304023 1.5513427 -0.96212745 -1.072678 0.75920063 -0.014076658 -0.5270344 -2.5780756 -1.2462807 0.24871951 0.21137579
245 0.13039145 4.0885468 0.79330564 -2.2207353 -0.4739358 0.0066590067 -0.13893567 0.36389896 -0.15738763 -0.5824962 -0.1000912 -1.1855359 0.26984176 -1.0659494 -2.5516727 -0.17246985
7503 2.147409 -0.87141407 -0.18442191 -0.7553204 0.66564244 -0.01982346 0.25188527 1.0123975 -0.45028335 1.1303868 2.5031292 -1.1687171 0.7052859 -0.63270736 0.34526822 0.45476586
1704 0.54015553 0.91424733 1.4227086 -0.42582014 0.8239132 1.2976754 1.8209275 -1.7609237 -2.314501 2.808736 -1.1821573 -0.9698384 0.6637775 0.9487802 -0.7489661 -0.3127617
1662 -1.4490764 0.6003496 1.1178932 -1.6762427 -0.04554408 -2.592751 1.7376387 0.11393337 -2.2513514 0.13058574 -0.18108149 -2.159376 0.44779512 -1.6458746 0.065138295 -0.743608
1945 -0.8742752 0.9262515 0.428994 -0.87761617 -0.5686142 0.44045725 0.5688157 0.22460617 0.77959424 0.8897338 0.5161577 -0.8513166 -0.41088864 -2.0462198 0.27389494 0.18822047
250 -0.090514764 4.967966 0.25373152 -2.6196434 -0.92303836 -0.26540056 -0.53243476 0.22858241 -0.61340886 -0.37092003 -0.39677382 -1.2518584 -0.080341056 -1.2443528 -2.8256557 -0.5441289
118 1.4322294 3.104346 0.4346515 0.18828899 0.0074550794 -0.98559695 1.0505764 -2.003373 0.09896994 0.6440815 0.53713584 -2.5598361 0.89312243 -3.3595762 0.5750584 1.0140287
859 0.91567045 2.151493 1.4129096 -1.4018899 2.1993184 -2.4229996 1.6231172 -2.3523552 0.19626665 3.2784278 -0.8408254 -1.86136 1.7126245 -2.9027107 0.5602764 0.14737715
1532 -1.4025472 0.9359212 0.9166831 -1.8034016 -0.056801744 -2.1632361 1.5268093 -0.51191497 -2.0139205 -0.4269088 0.45710307 -2.0724208 0.34101924 -1.1870914 0.15047786 -0.49817228
4240 1.1778963 0.3826161 0.69595075 -0.67960197 -1.946374 -1.9304247 0.9199848 0.036375463 0.95529014 1.7988933 1.4101783 -0.6711358 -1.933994 0.18713474 -2.3960578 0.19037555
7426 0.8528745 0.04293044 -0.6714102 -1.5433894 0.6305343 0.14053977 0.23889631 0.31918472 -0.03706388 0.8011084 2.089654 -0.34820884 0.33143565 -0.7459187 0.69877046 -1.0563955
3257 0.28942806 0.92664325 -0.031197438 1.0504708 0.026135048 -1.5088128 0.7620763 -1.2943277 -0.23695771 0.9554861 0.89022195 -2.6415453 0.82744294 -1.3057599 -2.8686767 0.58917224
650 2.304796 3.134057 0.8116496 1.1903973 2.1853497 -0.28163123 1.9053869 0.9224617 -0.29689592 -0.62132126 1.3532232 -3.3969734 0.3172654 -4.4127464 0.9653943 -0.095436156
3465 3.0533185 0.5819706 1.0576519 0.6889234 -0.032910682 -0.2890363 1.1170776 2.5622993 -0.36906475 0.80343807 -0.08817957 -1.7066097 -0.73481435 -0.5337862 0.11312341 -0.19240913
2120 -0.91229755 1.2975814 -0.05912382 -0.80935866 -0.46284106 0.6520666 0.9043117 -0.18870263 0.62817234 1.1414208 0.33843362 -1.2281189 -0.8547212 -1.6821761 0.4547665 -0.077358656
122 1.5052185 3.4391115 0.29652625 0.16596375 -0.01026247 -0.9676191 1.3926197 -2.3936641 -0.13409153 0.9240124 0.60793084 -2.9961843 1.0407221 -3.2965627 0.7149486 1.1817493
640 2.1349056 2.916321 0.4938316 1.0885389 2.1820757 -0.39103305 1.8921487 0.93377984 -0.33913484 -0.55408585 1.3452964 -3.5957358 0.55049765 -4.133275 0.6876141 -0.17472924
823 1.263461 2.1148388 1.2368792 -1.0774814 2.5565877 -2.490906 1.6138935 -2.3494809 0.29311502 2.8542237 -0.54635215 -2.227366 1.6948608 -2.7588372 0.3805299 0.6022783
3771 2.7750828 0.74701405 1.3686756 1.230973 0.34804884 -0.39454564 1.5455076 3.1738775 -0.18942583 1.7004837 -0.25896934 -1.1065476 -1.1163211 -0.5975988 -0.57497513 -0.9240397
2549 1.2629981 0.6792231 -0.6284629 -0.9985867 1.3598533 -1.1331556 -0.512572 -0.8323144 -2.1762753 0.3031375 -0.49670017 -1.3901176 -2.0906408 -0.27043736 0.10518428 -1.9880817
5950 -0.17237747 2.4744058 1.1322867 -0.8480588 0.8605892 0.8556456 0.68301105 0.030278264 -1.490932 -0.898297 1.4045289 0.6465736 -0.7237207 0.03568878 -1.3567364 0.111631244
1313 0.77161735 1.1917154 5.0119967 -0.83099806 0.23740792 -0.9505331 0.08826451 -0.82558525 -0.9894687 -0.08283584 1.4595102 -0.82179135 -1.0521513 0.27486947 1.4041795 -0.68751633
1590 -1.5985643 0.9316217 0.6944287 -2.4560385 -0.024411203 -2.4986184 1.360822 -0.13071412 -1.5367788 0.0092643015 0.032760818 -1.7634158 0.5421682 -1.8459803 -0.0834373 -1.2674634
108 0.49139485 2.3392873 0.5256512 -0.71269125 1.1875421 -2.2109702 -1.4073584 -1.1239729 0.2924058 -1.0900002 -0.06164525 -0.6356663 -1.0381795 -5.013774 -1.8304682 -3.4179795
811 -0.38094497 2.798665 4.852207 -0.7901425 2.3135993 -1.4411783 0.16037 -0.63913125 0.5877848 -0.26819247 1.8684161 -0.48527968 -2.9965782 0.52336854 -0.47431174 -2.3064563
2651 1.3771025 0.06851337 -0.33385143 -0.99007577 1.2916278 -1.2087605 -0.45790613 -0.7908717 -2.13202 -0.05534728 -0.0253304 -1.226473 -1.6802167 -0.57022125 0.22021684 -1.7084721
3380 2.6465013 2.3103645 2.4247344 1.390976 -1.5691928 -0.3343808 0.8647806 0.3109452 -1.2108991 0.56229836 -1.3371066 -0.9173764 -0.38169524 -1.2343084 0.24079174 -0.13318497
252 0.9011483 4.0150924 0.13520086 -2.3242252 -0.53197026 -0.19093245 -0.30750328 0.38799703 0.12134776 -0.19597872 -0.14115506 -1.4190972 0.5327132 -1.3006178 -2.488967 0.3024456
3608 2.8495965 2.1494565 2.623211 0.8335835 -1.598504 -0.5860322 1.0971283 -0.0477652 -1.046333 0.6397552 -1.721044 -1.3665516 -0.7375327 -1.1618909 0.7646965 0.67748785
1908 -0.91485554 1.4188362 0.41288486 -2.7445908 -1.8775712 -0.21917407 -0.7482141 0.4126929 1.7270561 1.2703131 0.74702626 -1.3090554 -1.4008149 -4.005692 -0.5659153 -1.09292
103 0.64486074 2.872776 0.51739174 -0.5862746 1.0678247 -2.241257 -1.1861372 -1.2611768 0.13649894 -1.0904299 -0.17880084 -0.5755507 -0.9436558 -5.1778855 -2.1209874 -3.446917
2898 -0.79908365 0.12817349 -0.048775643 -0.23423594 -0.5515231 -0.5351873 0.39417574 -0.37072614 -0.43473813 2.182653 0.7146538 -2.069401 0.24952021 0.37237686 -1.7066224 -0.5340322
764 -0.2889092 2.891506 4.941565 -0.35845536 2.0809848 -1.7462233 0.13004085 -0.7646731 0.18546785 -0.2628797 1.7195714 -0.08402944 -2.9915323 0.42506796 -0.53094625 -2.5635517
797 0.009221117 1.5567456 3.3174937 -0.76223123 2.6574502 -0.4479687 1.5690506 0.7154612 -0.29064178 -0.50272965 1.778477 -0.6851504 -3.0794096 0.24237274 -0.35655412 -1.3713074
2586 1.4553096 -0.1027832 -0.6884025 -0.30627778 0.98637515 -2.0243795 -0.44844586 -0.6330344 -2.887771 0.46992937 -0.3654603 -1.335348 -1.8890002 -1.2087193 -0.036344845 -1.6130233
2515 0.6812163 -0.10382561 -0.71249473 -1.2064464 1.9304507 -0.24058065 -1.1420511 0.17328796 -1.7349255 1.4153385 0.060334865 -2.082889 -2.8986406 -1.3736687 0.5636114 -1.2955147
1819 0.042033106 0.1158305 0.99666095 -1.3974414 0.23971798 1.4825947 2.29653 -0.2598238 -0.59876645 1.9939897 -0.8729756 -0.10642931 0.98640907 -0.32023773 -2.1593153 -1.8772368
3448 2.083295 0.41905582 0.51095843 1.145057 0.21628468 -0.4639228 1.567434 2.374561 -1.7845997 0.5331868 0.18386053 -1.6079346 0.23634711 -0.97034496 0.08823426 -0.37683916
3253 -0.67592764 0.5641765 -0.10894887 0.1622017 -0.24349199 -0.9012882 -0.022759853 -0.37099683 0.065408036 1.8172112 0.68227017 -1.4758459 0.18369442 -0.07918741 -1.561702 -0.5801779
1744 0.08595113 0.94469094 2.2551825 -1.3088889 0.77261364 1.918019 1.8626828 -0.031528298 -1.0527587 2.8015306 -1.6304264 -0.14023298 0.5681181 0.18339914 -1.9256263 -2.4122224
946 2.2116933 -0.101708196 1.7843142 -4.08065 -2.5179267 0.23599306 1.9155037 0.012378075 -0.868868 -0.7529718 -0.6799032 -5.33772 0.51624244 -1.1701977 -1.1766539 -1.190133
2082 -1.2464491 1.5619706 0.25926363 -2.109419 -1.0566914 0.6120014 1.1479824 0.38171905 0.70819795 1.1730031 0.75471526 -2.3549488 -0.5284557 -1.0424803 -0.04828677 0.29372683
251 0.8494982 4.213267 0.63760066 -2.5638175 -0.84159684 -0.39664674 0.09017873 -0.13567041 0.2550193 -0.58148557 -0.17813146 -1.449482 0.23526464 -1.1516119 -2.18605 0.3884007
263 0.5422489 4.7749996 0.57937086 -2.576277 -0.9871682 -0.3659088 0.30356175 0.34699067 -0.17393763 -0.55294114 -0.26127636 -1.8249389 0.4416099 -0.9073833 -2.6988547 -0.24999097
478 2.9722786 0.31566426 2.3693695 -2.981932 2.7768002 -0.3982392 1.2430191 -0.5113831 2.1242042 0.4745855 -0.43793052 -2.7717845 -0.3700566 -1.3562529 -1.8317579 0.727173
2185 -0.06275533 -0.813417 4.237269 0.36048794 0.4768661 -0.3967198 0.5648546 0.39689526 -0.86489975 0.053179022 -0.15026976 -0.032293387 -0.80501187 -3.7737274 -3.420067 0.76161206
468 3.0586314 0.3682784 2.4454837 -2.9291377 2.936325 -0.55414903 1.1533911 -0.6386689 2.1297555 0.53835166 -0.25041595 -2.983006 -0.31151405 -1.2262377 -1.8501397 0.8928872
1909 -1.5470599 1.1939363 0.552066 -1.0302533 -0.7171288 0.37901625 0.9446553 0.13197036 0.60828847 1.0646404 0.50870466 -1.1204014 -0.6519161 -1.8593489 0.21463268 -0.40284604
3889 1.5601914 -0.4319205 0.2986833 -0.9790737 -1.2786435 -2.9387758 0.6955769 -0.10674829 -0.05614407 1.7734958 0.76620847 -0.7123966 -1.7738473 0.12977128 -2.3746002 -0.07140582
1911 -0.6408297 0.61337554 0.20828287 -1.640536 -0.7634484 0.53320324 0.6359823 0.09905873 0.6001901 0.50634146 0.31776795 -1.6684762 -0.51815826 -1.5737901 0.08450552 0.340454
943 2.587439 0.2506413 1.7060901 -4.605111 -2.5497465 0.1151082 1.6743416 0.23440202 -0.88438976 -1.3115079 -0.4029578 -5.6422114 1.041724 -1.4297255 -1.8051254 -1.4796691
910 0.5851681 2.2321942 2.2185602 0.78124267 -2.692129 -0.30900016 2.3185658 -0.9795115 -0.12205172 0.69002223 3.3370814 -0.8334555 0.70388776 -0.07235944 -0.8099993 -1.6938332
3522 3.6686115 1.4244871 1.6223127 0.45985922 1.3642116 -0.5098907 1.1761094 3.0538964 -0.083307385 1.4876946 -0.47054103 -0.35044178 -0.8136299 -1.0304533 0.046856876 -0.5936075
1586 -1.0169662 1.3883902 0.22878644 -2.0695221 0.1354979 -2.3267205 1.583013 -0.89102775 -2.4068375 -0.27127025 0.38148543 -1.9821086 0.7105072 -1.4357774 0.12571752 -0.4743892
328 1.0487894 -0.36521423 -0.28262994 -0.5376031 -1.3474185 -1.0615997 1.2148464 2.1605334 -2.0038295 -1.1089005 1.2278925 -3.7938938 -2.5872002 -2.864465 -1.4622667 0.6383144
1067 0.7539807 3.6750004 2.6611376 -0.20009018 -0.96563154 -1.612049 -0.8790785 -0.99313885 -0.24787696 3.5299163 1.2176481 0.19879603 -0.43616524 0.23797339 -0.10262203 -1.2357801
1678 -1.2799411 1.3942298 0.9640865 -1.6491975 0.018952318 -2.6967802 1.5190833 -0.53214663 -2.1851077 -0.4691403 0.98223627 -2.43089 0.7601063 -1.2559191 0.22885938 -0.91900474
2627 1.3561633 -0.3321046 0.37542236 -0.84488755 2.259769 -0.25662827 -0.6216968 0.391989 -1.4360089 0.93761325 -0.331844 -0.7656492 -3.0668235 -1.3898492 -0.49554312 -2.4059906
7589 1.197627 -0.84814775 -0.5726807 -0.8979251 0.8859497 -0.12296571 0.4968069 0.80020005 -0.54219127 0.43075833 2.5173848 -1.1863092 0.9155139 -1.5274248 0.5545981 -0.3266466
713 1.2821951 3.3174765 -2.2124724 -1.7462134 0.3877023 1.7093585 0.53379387 -2.5303013 -1.9375677 0.30969733 0.41029632 -1.6203254 -4.12104 -2.149158 -1.2512994 0.3510494
335 1.0180733 -0.84708184 0.15056373 -0.32149577 -1.5756634 -1.291384 1.6932495 2.427706 -2.4394267 -0.7734081 1.77228 -3.9748445 -2.8446417 -2.6994796 -1.4460067 1.0519074
1206 1.6477519 1.50687 2.1227918 -2.0609457 0.5988068 0.08576436 -1.3998938 0.3907102 0.5750088 2.4345083 -2.1667063 -0.61535954 -0.6776221 -1.7852873 -1.7787788 1.5791124
1905 -0.85832155 1.0738236 0.3074096 -1.1647425 -1.1515574 0.23495041 -0.09988314 0.08321863 0.7663494 0.92313135 0.60781914 -1.3296286 -0.9843429 -2.1782672 0.3772044 0.04094511
3832 0.882328 0.45678425 0.2461258 -1.7577636 -0.018413305 -1.7868322 -0.01792966 0.9892478 -0.004132047 1.5938731 0.38685134 0.06617791 -2.0738518 0.16802414 -2.1536787 0.72359693
1448 -0.2978957 0.09047613 1.7819222 -0.25530192 -0.5682772 1.0893613 0.48464566 -1.5059044 -2.5658734 0.86787117 0.45347247 0.6463583 1.0150279 -2.8964906 -0.31403008 -0.4264457
8218 1.3923019 0.21443062 -0.9224579 -2.6913316 0.5091942 -0.3471933 0.51624197 -0.9929066 -0.33799794 1.7262715 1.8811766 0.036976945 0.24291876 -0.577344 0.9699832 -1.2068012
6806 1.4448161 1.8208668 3.2977204 0.37636754 0.96658254 0.5749037 -0.25411737 0.07665702 -2.70477 0.1612425 1.0464283 0.1441657 -1.5327897 0.7449529 -1.7497236 2.102194
1939 -1.1424079 1.3716663 0.47728586 -1.4017202 -1.6997944 0.629297 1.0835943 -0.17092091 0.53966826 1.0373249 0.5764276 -1.8003864 -0.5365559 -2.3419876 -0.08976344 0.40511924
3183 -0.5621174 0.32593048 -0.11034416 0.12723276 0.36767486 -1.0265489 0.4068282 -0.60972095 0.03704792 1.5851928 0.75366986 -1.6463351 0.27229038 -0.18141843 -1.3118389 0.12715185
711 1.013363 2.9792252 -1.7428416 -1.5436482 0.20009397 1.6890994 0.3586123 -2.212551 -1.8984787 0.2954072 0.34593883 -1.6744959 -3.7758002 -1.8142128 -0.75930506 0.6354326
4491 0.9765558 0.81801695 0.7712335 -2.0264862 -0.5115978 -1.6090883 -0.0081235515 1.3373643 0.36705938 1.4387138 0.31134737 0.20811471 -2.1769722 0.084069796 -2.1820889 0.47559625
773 -0.20625424 1.795708 2.7629335 -0.50075257 2.2684712 -0.37329108 0.8536917 0.49414465 -0.17047527 -0.36174256 1.6209787 -0.9751932 -2.405416 0.61197114 -0.036667828 -1.0721015
603 -1.2410773 0.6397101 3.361919 -1.1264921 1.9488392 1.001246 2.025395 -0.30044016 -0.9404973 3.7725363 -2.6925387 -2.8811905 -2.3908753 -3.0857723 -0.40125045 1.3137686
597 -1.0898691 0.2581501 3.2836375 -1.2413043 1.603111 0.8013067 1.8006961 -0.50626713 -0.8441162 3.34928 -2.8427167 -2.5235167 -2.273086 -2.738921 -0.71904093 1.1567993
2748 0.58420384 0.0037541054 0.060827777 -1.7868081 2.2370062 0.34906802 -1.0862412 0.85697514 -2.954212 1.4204738 -0.30901414 -1.3268746 -3.5168738 -1.2154882 -0.3532569 -1.0105281
568 0.61281925 1.2781354 1.8870851 0.93790376 -0.69702154 -1.8123822 -2.6417234 2.4121294 -4.1311674 5.4045734 0.25479442 0.64374334 -0.63808775 -2.7052727 -2.0168016 0.22247902
11 -1.3610338 4.6850295 1.1900997 -2.5494702 0.27940822 0.35825852 1.3893287 3.401907 -1.5927804 1.7365291 0.7712143 -0.23601118 -1.0162652 0.4991731 -1.0536675 -3.0501485
1544 -1.1950864 1.2888042 0.8869219 -2.1444883 1.139053 -1.7899348 1.4744136 0.901679 -0.95227647 0.601452 -0.24308479 -1.6379441 1.1258894 -2.0732555 0.4772292 -0.41701472
25 -1.9399757 2.0131469 1.9429218 -1.4021939 2.2243967 -3.133295 0.20646854 -0.8891886 0.08575822 1.4997977 0.98668283 -2.6018941 -0.7594883 -0.38515013 1.0393928 -0.39841333
1132 2.4443753 1.6152955 -0.15263842 -0.6324369 -0.80439603 0.9020544 1.9910946 -1.6263463 -1.1146872 0.46447176 -0.58517003 -0.60091543 -2.2707996 -1.6262465 0.33782285 0.17795108
522 1.0270582 0.555759 0.3107605 -0.26113105 1.4193956 -0.037286006 2.4131691 -0.13360289 -1.4982494 1.8675815 0.04936711 -3.4205618 -1.3645914 1.3336463 0.44518003 0.08383969
2640 1.2888238 -0.1903353 -0.029487114 -0.9257526 1.1699986 -1.9578692 -0.25809914 -0.2657796 -3.2503738 -0.062253784 -0.32215995 -1.1992184 -2.655843 -1.1409831 -0.65310687 -2.5910697
2992 -0.91646624 0.49357274 0.10413509 -0.031855047 0.015594075 -1.3422911 0.47038794 -0.6042233 -0.045181546 1.855815 1.0732881 -2.171251 0.113879375 0.1165291 -1.8266119 -0.420627
2930 -0.5481261 0.56294787 -0.36696064 0.1964085 0.3049259 -0.9117928 0.6571028 -0.6321706 -0.15550706 2.0340996 1.0746739 -2.0999613 0.06841101 0.4700378 -2.326232 -0.37062454
961 1.7933081 1.5580535 0.9009304 -2.9317322 -1.7148641 -0.84146774 2.5210094 0.0576635 -0.366461 0.35486835 -1.3794265 -3.8989732 0.6866929 -1.3142842 1.2183319 -2.6454585
1676 -0.97522885 1.416288 0.2416453 -1.7960043 1.0039234 -1.1511408 1.4065872 1.3432643 -0.9955862 0.07406098 -0.20174758 -1.2051834 0.7459096 -1.9263576 0.121807486 -0.8560209
1418 -0.7151234 0.14192015 1.3635792 -0.51154023 -1.0585879 1.2733893 0.53359866 -1.0859748 -2.8158855 0.7699129 0.8880001 1.0352069 -0.10988874 -2.3067765 -0.26614025 -0.3459363
1888 0.31028682 0.54403645 0.7540275 -1.1302798 0.43728787 1.2514894 1.152017 -0.43932483 -1.3852384 2.8614476 -1.2925909 -0.6898743 0.39469606 0.77822936 -1.3647699 -1.0712662
929 0.7307666 2.5616202 2.6089861 0.86174 -3.4545538 -0.10952874 2.6067157 -1.5100017 -0.074677296 0.573157 3.765315 -1.1088957 0.26205698 -0.11039051 -0.5456992 -1.2270534
1400 -0.4871984 0.39518943 1.5430976 -2.032031 -0.96615195 0.9112811 -0.24906659 0.33777303 -3.7644808 1.3120373 2.5855145 -0.04860855 3.0072768 -1.2866973 -1.6681794 -0.20150937
495 4.715652 2.2078884 2.8119798 0.8439435 1.0333178 -2.8796704 -0.5094771 0.40830126 0.17035434 0.084025934 1.9412491 0.13520896 0.14895079 -3.457144 -0.38544238 -1.2889924
798 0.32071984 1.4208605 3.7455225 -0.7251975 2.0442023 -0.4347287 0.9040566 0.6571955 -0.10421123 -0.024896054 1.97162 -0.16747893 -2.5217786 0.8258814 -0.6854176 -1.6857209
1169 1.9938912 2.0727596 -0.14248674 -0.6869877 -0.589383 0.9803544 1.8633718 -1.8051039 -1.1627474 1.1902891 -0.47923934 -0.5572333 -2.3627446 -1.3385121 1.0723709 0.34184748
483 4.7281337 2.3714972 2.8960254 0.94957745 1.0285059 -2.9216864 -0.6644944 0.46736044 0.13766345 0.32871303 1.8734102 0.070401944 0.31057227 -3.5621295 -0.08861929 -1.3224001
1545 -2.087507 1.3137785 0.28514224 -2.7375407 0.5396073 -2.4081464 1.876119 -0.48454335 -1.8740238 0.5381065 0.05944039 -2.0333426 0.5209894 -1.2377114 -0.08823147 -1.0987995
1408 -0.592301 0.21320343 1.8997939 -0.3987629 -0.97956294 1.6326889 0.23600921 -1.3338269 -2.86867 1.3093492 0.3755887 0.86908346 0.5119417 -3.5678885 -0.40070462 -0.5786362
397 1.8012269 0.42507368 2.2295697 0.32090968 -0.12056884 -1.2808248 1.1542103 -2.2347045 -0.4537759 -0.46856692 -0.9476463 -2.4811175 0.117205895 -1.0396113 -1.1661793 -0.9550452
980 0.7552173 0.44741473 0.84481937 -2.6356583 -1.9790478 0.3393307 1.4608495 0.8366725 -1.1138488 0.1569975 -0.6093046 -2.6884181 0.008192617 -0.77506596 -0.02747468 -1.3937376
388 1.8339688 0.7975042 2.1132245 0.17491406 -0.15098326 -1.4685477 1.1535501 -2.0597892 -0.50172085 -0.5526979 -1.0875463 -2.7088835 0.114091285 -0.86542803 -1.2249627 -1.0140989
888 0.47450653 1.899359 2.7698383 0.8165129 -2.6209373 -0.7120874 1.5299395 -0.546041 0.03043301 0.24984777 2.7627459 -0.8978199 -0.20256448 0.13376804 -1.0987027 -1.660949
1826 0.55905104 1.2745053 1.209367 -0.9680757 0.9475344 1.7322271 2.1452804 -1.3371297 -2.033155 2.3438365 -1.2395853 -1.3035922 0.74911934 0.8660996 -0.75939995 -0.51246196
6833 0.30013943 2.4629788 1.7428963 -0.7096425 1.1278726 0.83276045 0.572034 0.15212193 -0.64459807 -1.4093635 1.6237358 0.48371848 -0.8993139 -0.115495145 -1.113348 -0.123356916
736 2.0283868 3.6779802 -2.2844934 -0.94367874 0.08907033 1.4342017 0.04394292 -2.146964 -0.5685976 0.71769136 -0.12650245 -0.38691494 -2.6600614 -2.7862685 -1.646972 -0.5582372
4872 -0.28649244 0.04901339 0.38759294 0.7797138 -0.06041565 2.2808092 0.019399067 -0.09494778 -0.46702245 -0.033806786 2.0841773 -1.6619961 -0.3353917 -1.3010639 -1.9585472 -1.3084424
5859 0.84012085 2.4631371 0.49988803 -1.6152614 0.6299832 1.415156 0.1559222 -0.5588515 -0.6144992 -1.180497 1.3820442 0.6967838 -0.82935095 -0.6345566 -1.2370276 0.017226577
917 0.37429765 1.3346207 2.4531212 0.5388458 -1.7988439 -1.0794252 0.81594324 -0.5400781 0.45035058 0.23354436 3.000892 -1.0588158 -0.7469334 0.7137962 -1.2050383 -2.0704231
2801 -1.5053611 0.57860094 0.40264976 0.5004635 -0.118729144 -1.5300788 0.8422229 -0.24234463 0.07450468 1.279727 1.1297491 -1.4479996 0.11410229 -1.1828796 -1.3240589 0.43798143
822 -0.0422622 1.9230098 1.0399013 -1.8486274 1.2590967 -2.1844487 0.16539484 -1.23595 0.26490065 3.187438 -0.7581415 -0.71091926 0.90515155 -1.2359216 0.6119187 -1.5037258
264 -0.07847402 4.0449877 0.16533159 -1.2826602 -0.8136196 -0.65354025 -0.59562534 0.25056297 -0.51735026 -0.3737083 -0.4127958 -1.0818923 0.27569163 -1.3040533 -2.1847882 -1.1158736
2851 -0.84803593 0.35508022 0.6341634 -0.2748141 -1.121499 -1.6085521 0.12038419 0.3148067 -0.24290787 2.227395 0.3631332 -2.187355 0.46088055 0.14414169 -1.3216343 -0.5420251
1934 -0.8772353 1.3312737 0.04727104 -1.6870954 -1.0133474 -0.11687136 0.81060374 -0.09365337 1.1281123 0.9419547 0.33111742 -1.4788893 -0.7342736 -2.5001836 -0.16515297 -0.25618333
1093 0.5041313 3.049638 2.5055523 0.20935406 -0.8135785 -1.6380618 -0.72030604 -0.9261842 -0.19749734 3.5061173 1.3077847 -0.29365346 -1.1780366 0.1320674 0.8865837 -0.42606768
26 -1.6163371 1.5182017 1.8785856 -1.1882132 2.812599 -3.0811944 0.64922744 -1.1768525 0.20619427 1.7522413 0.5435749 -2.2897675 -1.3457386 -0.64184326 1.3276622 0.21426307
2243 0.28555068 -1.5453966 4.6286206 -0.17498842 0.46247187 -1.1117564 0.0437035 0.8165722 -0.83501244 0.6070733 -0.05679295 -0.72119737 0.11134099 -3.2534347 -3.799326 0.9139941
876 -0.9294733 1.5910292 1.8712798 -0.0020990903 0.04955918 -3.3932035 -0.28919062 0.07617355 -0.34738895 0.75182104 3.425957 -0.47235632 -0.8462945 -0.49833405 0.04468337 -1.4153345
6 -1.3889192 5.2245975 1.109068 -2.558342 0.32571167 0.20448403 1.6350203 3.0496864 -1.6860375 1.8837646 0.75137246 -0.042756047 -0.8265493 0.38303417 -0.8338539 -3.0205822
1821 -0.150367 0.80451703 1.1390004 -0.69741666 -0.023208285 1.4134843 1.3478558 -0.7901799 -2.0976255 2.8175683 -1.0174936 -0.9115054 1.2968411 0.26599222 -0.7862347 -0.72877187
510 0.18775873 0.8885173 0.28986883 -0.46319816 2.3354254 0.9038426 2.4655836 0.82883394 -1.5292271 1.8803139 0.45806095 -3.8388278 -1.6657737 1.3469448 0.18295649 0.39312068
8732 1.4589334 -0.5226763 -0.21493438 -1.4235718 0.49684247 -0.2369102 1.1349622 -0.05297866 -0.505693 0.49776033 2.0533264 -0.48307168 0.5133827 -1.004302 0.7838369 -1.2338549
1335 1.383698 0.58801377 4.1455407 -0.37004983 1.4469029 -0.55761474 0.7022363 -1.0334576 -0.005796102 0.22701149 1.2388012 -2.416049 -0.38668382 0.3638516 1.5512046 -0.31861448
193 -0.52375454 0.23963484 2.7177227 0.30443457 -0.04834916 -1.8411005 -0.13200359 4.7698936 -1.371361 1.8983709 2.7128093 -3.157937 -1.6125875 -2.784754 -0.8559343 2.1981094
579 0.45935073 1.7905077 1.9082465 1.1221905 -0.4538993 -1.6813613 -2.403734 2.1027098 -4.1725254 5.952137 0.07229796 0.91015375 -0.6260141 -2.7641313 -1.8108716 0.20875593
1840 -0.14839512 1.1017107 1.7077835 -1.4511936 0.33647284 1.7388586 2.3028505 -0.32980093 -1.2432054 2.6706314 -1.8665867 0.59898484 0.3604866 -0.6163617 -2.0486045 -1.8294502
269 0.2995152 3.22993 0.8769186 -3.1771913 -1.5330468 0.0797822 -0.5798743 0.11387436 -0.7043159 -0.78727454 -0.6404817 -1.9387662 -0.4919489 -1.2759594 -1.7597799 0.42685786
1551 -1.6565932 1.5860982 0.6170736 -1.5355898 -0.19424742 -2.718912 1.1966367 0.24892606 -1.6344758 0.32217398 0.65803367 -0.8086936 0.5970078 -1.5657809 0.38665366 -1.2106456
629 -1.5559739 1.0879602 2.717285 -0.5581715 0.9425373 0.7361055 2.1030219 -0.2898527 -1.9890876 2.998974 -1.9550711 -2.3928306 -1.7912332 -1.3449613 -0.31467342 2.1005769
199 1.251104 0.3006004 3.704154 -2.4300644 -0.53538805 1.0582005 0.31090653 0.92444485 0.97212744 -0.08153356 3.1854863 -3.0440607 -1.0435765 -3.2629783 -0.6999723 3.4595504
1824 0.48559168 0.85640275 1.4508463 -0.17269433 0.7991389 1.1569355 1.1072876 -1.1246065 -2.6042144 3.2315896 -0.91003716 -1.0779752 1.1678879 1.0033094 -0.55689275 -0.86138844
204 1.493308 0.29857138 3.9037237 -2.6991215 -0.25620082 0.724995 0.25055617 1.0143472 1.3801538 -0.2699259 2.9497654 -2.8812366 -0.73860633 -3.1385083 -0.7987177 3.0629609
8576 2.2017808 -0.77871037 1.4044932 -1.6253786 0.25684485 -0.74337196 1.7424334 -0.19680111 0.028428804 0.96230304 1.6870319 0.32344094 -0.08854138 -0.3480497 0.7624953 -1.3534973
512 -0.22112349 1.460958 0.29709384 -0.49452224 3.79252 0.8010389 1.7587994 0.6895117 -1.7319816 3.0525556 0.07530481 -4.1604977 -1.7773871 1.5416392 -0.0048410087 0.46459943
361 -0.6122683 -0.79897875 2.3667014 -1.7134571 0.0061254506 1.8452039 1.3808163 -1.479456 -1.2004995 0.48666143 -1.130047 -1.9795022 -1.462935 -1.7491945 -1.2531369 -1.0060261
2790 -1.131092 0.65931326 -0.20485921 -0.50198644 0.4421279 -1.278425 0.4992862 -0.81693375 -0.53606564 3.4243274 0.2292045 -3.067399 0.14600949 -0.046219923 -1.9050468 -0.58084166
1095 0.33542836 2.8987856 2.775595 -0.6056929 -0.068145484 -1.8826089 -0.9248281 -1.0175331 -0.3109853 3.7458384 1.1471401 -0.061008945 -0.48326346 0.35346207 0.6149479 -0.36012578
506 1.4028863 0.9236377 0.34575105 -0.23917118 1.515362 -0.43474394 2.3995028 -0.45576066 -1.2505071 1.7495952 -0.15728801 -3.8172317 -0.9236627 1.2106299 0.56135255 -0.050729956
188 -0.022045026 -0.117866166 3.4080062 0.07491388 0.039712723 -2.150938 -0.41637874 5.450637 -1.1864892 1.4923899 2.7803943 -3.3233585 -1.3243018 -3.3348918 -1.3745613 1.989474
2133 0.0827438 -0.95492923 1.2444916 0.71344584 0.5340446 -0.94676423 1.6342236 -0.10682465 -0.89059573 0.2622648 0.28850126 -0.8039555 -1.6285586 -1.0238796 -1.5457819 -0.7222795
352 -1.023176 0.22615077 2.2800362 -0.8215503 -1.0272195 1.6534628 2.070175 -2.4269195 -1.2325939 0.7721482 -0.4656818 -1.1126341 -1.901008 -2.3021579 -0.37497857 -0.44224608
2192 -0.10034403 -0.7078638 1.0383633 1.2002219 0.5246872 -0.7855841 2.1741283 0.4646497 -0.8678068 0.05501356 0.79676664 -1.1840241 -1.28944 -1.2163042 -1.484957 -0.92023784
882 -0.8607188 1.7700317 2.2274187 -0.030929906 0.46551242 -3.3015785 -0.20504919 0.12580146 0.45106778 0.77395093 3.2158635 -0.7360827 -0.6946405 -0.17773974 -0.6229366 -1.6479431
937 0.34872183 1.552159 2.7004638 0.39199868 -1.66377 -1.6648566 0.9768325 -0.5898286 0.43349075 0.01760577 2.9946423 -1.0998764 -0.51088053 0.47299698 -1.4451392 -1.871586
1770 0.66689163 0.63911307 1.2892566 -0.6752155 1.0429884 1.8390001 1.5529027 -0.6918315 -1.8346367 3.0640378 -0.85705507 -1.0887574 1.09996 0.80934256 -0.5871664 -0.5081864
553 0.9704143 0.8534079 -0.84922785 -0.67852604 -0.73552394 -2.0407126 -1.2618701 0.21166915 -2.501796 2.5887737 -0.03322694 -1.4251579 -1.7050544 -4.2983 1.2648324 0.9973369
1457 0.21242067 0.13682175 1.2632889 -1.1081305 -0.00457383 0.7094007 -0.15973711 0.14578308 -2.4376125 0.8969553 0.6909836 0.35582328 2.175644 -2.42784 -0.34305185 0.2597862
253 0.89479446 2.9051785 0.9207597 -4.015248 -1.3297825 0.1054145 -0.24096365 -0.110647835 -0.08067643 -0.90152895 -0.49546826 -2.8913743 -0.4406815 -1.2773632 -1.9546691 0.6811636
965 1.6481144 0.6547267 1.0566726 -2.9994996 -1.4776233 -0.55387294 1.6535206 0.30850407 -0.45139134 -0.4390011 -0.9989033 -3.9206502 0.63501143 -1.1058387 0.23826359 -2.174995
3519 2.392458 1.3117194 0.83791155 0.99239147 1.0975757 -0.067632094 0.79429835 2.6608338 0.25006008 1.1589895 -0.022878552 -1.0009356 -0.32510546 -1.3300195 -0.10841822 -0.14841934
9469 1.8008068 -0.75378263 0.8966506 -1.3867569 0.33208546 -0.26566222 1.0311705 -0.11522897 0.65694326 0.8859162 1.4825534 -0.2126093 -0.03724922 -0.24747314 0.25907525 -0.80824655
4180 0.84754145 0.6987232 0.29409015 -2.2692308 0.2417036 -0.7969016 0.098044194 1.3598021 1.4133701 1.3173952 0.45721775 0.36169177 -2.296965 -0.85478634 -2.6434984 0.22610505
540 0.9324999 0.38960472 -0.8945584 -0.36885148 -0.70199454 -2.0327992 -1.1075765 0.24977784 -2.4309928 2.1336164 0.14900735 -1.6689457 -1.9617093 -3.662336 1.1904854 0.71924186
981 1.0454701 1.2980747 1.1742414 -2.3910298 -2.1532617 -0.18223034 2.266225 0.21505487 -1.8729199 0.35204133 -1.4316527 -2.6840682 0.75226414 -0.9400607 -0.0062558227 -2.6977232
962 0.80820143 1.1991929 0.9886673 -2.4176738 -2.2533863 -0.17363417 2.0685272 -0.14802547 -1.5729573 0.3721355 -1.3396972 -2.312593 0.22058092 -0.7592058 -0.05733053 -2.68493
1222 0.31738308 2.3501809 0.31973544 -1.6384543 2.3488848 1.1160944 0.07640608 -0.03307914 -0.28584749 2.9912274 -1.4480585 -2.132721 -2.9716845 0.2879809 -0.69028574 0.044125684
2664 0.62463665 0.15910684 0.2517698 -0.011616165 1.6047447 -1.573646 -1.1012812 1.2873259 -2.6957264 0.54945976 0.35169038 -1.5479962 -2.644313 -1.1648939 -0.009380355 -1.2625307
618 -1.927204 1.2235898 2.5755167 -0.5209761 0.8226556 0.9449992 2.3362644 0.18417475 -2.2607973 3.0885623 -1.5562428 -2.3722517 -1.7628928 -0.9744686 -0.5794167 2.3037765
4867 1.1950142 -0.3059808 0.04583481 0.9581204 0.6655901 2.4392269 -0.53586596 -0.2972645 -0.95943666 2.2031412 0.821808 -2.0981371 -0.017241534 -0.830749 -0.44245943 -0.11201251
1702 0.2127916 1.1731733 1.9736378 -0.24445176 1.2940472 1.1876469 2.142246 -1.9645474 -3.0199244 3.8494055 -0.8450285 -1.7897644 1.4714334 1.3778998 -1.4524462 -0.6631093
1245 1.150265 1.5630834 1.2835809 -2.293657 0.5140536 0.26386663 -0.5316634 0.31425062 0.67816424 2.1694117 -2.121113 0.1924791 -0.89969987 -1.9607666 -1.0271242 0.36453113
1012 0.67802775 1.2711637 1.4069711 -2.0334628 -2.4794393 -0.49519125 1.8663244 -0.050810795 -2.622243 -0.09342933 -1.0557486 -2.8242188 0.31153312 -0.78648233 0.14840254 -3.2005289
4919 0.21776833 1.4823136 1.2945592 0.2793255 0.013574086 1.1629364 -1.5670255 -1.2144628 -0.4506356 0.4497751 1.6285746 -3.1301234 0.5976427 -1.1839876 0.5944051 -1.7850025
1009 1.8568628 1.9997964 1.1481991 -2.8022208 -2.0682242 -1.2165889 2.2129378 0.05054314 -0.48512107 0.2205344 -1.2830861 -4.1624417 1.0844332 -1.579102 1.1692657 -2.8744347
3196 0.32493523 -0.6140475 0.67572933 -0.6391773 -0.30803594 -1.4333502 -0.23765752 -0.863833 -0.878199 3.905113 0.11985336 -2.8861804 0.017433047 0.63521296 -2.780924 0.26628035
268 -0.072350845 4.578359 0.16202906 -2.2175145 -1.0899477 -0.82663494 -0.9706116 0.051303037 -0.86968166 -0.575628 -0.33821526 -1.4174024 0.38214457 -2.014439 -2.3330252 -0.38628793
2143 -0.26247835 -0.34744307 2.211601 0.05346088 0.8987742 -0.6714536 2.0420976 -0.16503598 -0.34860724 1.039575 -0.8049896 0.55360615 -0.89932173 -2.1936104 -1.9610062 0.01739819
349 -0.6915046 -0.7959671 3.2098587 -1.5724521 -0.14711943 2.2052171 1.791926 -1.2578803 -1.6107519 0.59115976 -0.6888683 -1.7450459 -1.8970946 -1.4199415 -1.4917147 -0.2757756
737 2.6359036 3.9245856 -2.625943 -0.8675994 -0.031702287 1.1911334 0.19699316 -2.9060292 -0.7910307 0.8333026 -0.16668108 -0.07488741 -2.1318152 -3.2667358 -2.102655 -0.61890346
214 -0.1492397 2.552082 5.1712117 -0.93686914 -1.4656855 0.55456567 0.30992076 2.0752306 1.2543277 1.2484448 2.4069338 -0.14749925 -0.016456408 -5.585219 -0.676246 3.2172537
2434 1.2698237 0.36577973 -0.9189952 -0.75602454 1.4452636 -0.4563838 -0.77332014 -0.9692985 -3.2612965 0.54593515 0.61440545 -1.5228137 -2.4977016 0.116669066 -0.12258117 -1.5767404
983 0.9461481 0.8623684 1.2571903 -2.2463071 -2.0304716 0.034646556 1.5849532 0.099101484 -1.6063466 -0.040694345 -1.079363 -2.717929 0.45516652 -0.46362808 -0.04617208 -2.3943827
1261 0.69622916 0.7582512 3.888688 -0.19088818 0.058378536 -1.5582635 -0.6894332 -0.28931338 -0.4290003 0.41376913 1.3425167 -0.6664524 -1.1362455 -0.4166909 1.3981584 -0.40719688
6646 1.2681091 2.1833327 1.0687617 -1.4545368 1.3236992 0.105261356 -0.31123114 -0.32072273 -0.9158155 -0.63469446 0.8004499 0.6767598 0.63083684 -0.536844 -0.8438084 0.1552997
8787 2.2005277 -1.1377261 -0.08003331 -1.5433148 0.45633698 -0.39290363 1.5847341 -0.07952498 -0.9947271 0.61853814 2.5948174 -0.56020224 0.55377156 -0.86609584 0.5875399 -2.1484842
2879 -1.3505774 0.7406559 0.7480964 0.5438996 -0.19504935 -1.7663735 0.36568037 -0.35273328 0.42548475 1.5645436 0.7525764 -1.7583419 0.19699946 -1.660659 -1.7036406 0.29548573
504 -0.29903072 1.1523335 0.51523775 -0.53230464 3.4230287 0.65141726 1.3888246 0.35982087 -1.8574615 3.253654 0.45764133 -4.1781964 -1.5534364 1.4997393 0.20964304 1.0916617
100 -0.28577745 1.4569718 1.9557039 0.19192018 1.0887166 -0.3940281 0.62746996 -1.3032043 -0.96848315 1.300213 -0.72911596 0.90110415 -2.3897712 -1.9661152 0.69131625 -1.1835282
7494 1.7697369 -1.5650712 -0.48976517 -1.1134082 0.44794577 -0.020349724 0.22927503 0.61889917 -1.068017 0.6754403 2.052822 -1.350703 0.7632256 -1.9013357 0.7273242 -0.17688029
1177 0.17036174 2.6796608 0.4509218 -1.168763 2.163507 0.48951057 0.18147096 -0.18634543 -0.78143245 3.2352655 -1.3383873 -2.1381774 -3.3817456 0.24630786 -0.38893476 0.44454312
1962 -0.84199554 1.0621724 0.24620682 -0.4285588 -0.6306248 0.5236982 0.946709 -0.101671405 0.12016089 1.1425875 0.46606928 -1.1162827 -1.1634346 -1.7072277 1.1981552 0.4244395
363 -0.41906786 -0.1250492 1.8629133 -0.7094902 -0.9049897 1.6363097 1.3368785 -2.1612034 -1.0260267 0.024360811 -0.16042686 -1.3599373 -1.2655529 -1.7989712 -0.62715983 -0.85364234
577 0.71396595 1.7116404 2.48331 0.75223637 0.38276356 -1.3178717 -2.7424545 1.1696938 -2.0948186 5.4664803 -0.97604567 0.7946811 -1.448278 -2.571902 -1.9885678 0.061213586
85 -0.79975307 1.7291391 2.5041175 -0.03560673 1.6088628 -0.5773923 0.4755964 -1.3347124 -1.2109021 1.23607 -0.55040926 0.71688765 -3.0584538 -1.7612852 0.72084993 -1.2725543
1455 -0.26196194 0.18516031 2.2349687 -0.45152992 -0.99938107 1.0632662 -0.07541513 -0.9618425 -2.7052536 0.26073134 0.6485851 0.5776227 1.0132991 -3.011592 -1.0056984 -0.53478026
347 -0.38494018 -0.1850855 1.8237956 -0.7294205 -1.008962 1.2095823 1.5809565 -1.8507015 -1.0136708 0.36975428 -0.28831118 -1.6800979 -1.6123017 -1.4615388 -0.4705328 -0.67246896
2004 -0.786911 0.97591275 -0.3958974 -0.03853333 -0.2166731 0.27136275 1.3992792 0.64803165 1.0869688 0.83865577 0.8144262 -1.2404659 -0.5822391 -1.9057795 -0.8835131 -1.3365147
49 -0.89612454 4.758003 2.34548 1.1640062 -0.30895314 -1.2587863 -0.3910704 -0.88797915 -3.1634707 1.9340994 0.38728794 -1.3308678 -0.31771672 -0.6245193 0.08068954 -3.2867584
95 -0.6569604 1.4711002 1.3093103 0.1911725 0.43055496 -0.70712376 0.4817763 -0.6096141 -0.8164458 1.156121 -0.22467321 0.60316926 -2.192341 -1.4720951 1.1478509 -0.5962375
2106 -0.3422437 1.2414021 -0.032280974 -0.39251626 -0.29480293 0.75833225 1.3684021 0.763619 1.1841433 1.0037514 0.64079845 -1.1071417 -0.955963 -2.2457993 0.07262656 -0.33358756
255 0.18582453 3.9335165 0.5568875 -1.4097289 -1.1699045 -0.69511324 -0.8105706 0.46435082 -0.3216104 0.030851504 -0.6179045 -1.0788964 0.48698205 -1.2710193 -2.6495173 -1.1115787
53 -0.9926912 4.868466 2.5508645 1.1544282 -0.39187637 -1.243855 -0.41658026 -0.9079698 -3.2831495 2.2996368 0.43183422 -1.4590453 -0.30416006 -0.40448216 0.14532314 -3.3095982
266 1.23751 3.7614906 0.052354228 -2.3910477 -0.84814847 -0.6447226 0.69983536 -0.7668101 0.25686485 -0.32213727 -0.36829033 -1.8464893 0.6507888 -0.50266445 -2.6656625 -0.6011648
1204 0.7266176 1.9190173 1.6296403 -1.7309376 0.78562504 0.11107383 0.06457728 -0.21727595 0.23713191 2.3525934 -1.9567087 0.42211154 -0.98492676 -1.6875917 -0.188097 1.0130818
776 -0.6932178 1.8964362 2.4720433 -0.43406096 1.6326513 -0.43002638 0.7690993 0.75633764 -0.1061284 -0.16755974 1.4241208 -0.7570443 -2.2488477 0.47871956 -0.27216345 -1.2732675
867 1.8112214 1.3806125 1.41411 -0.4935414 0.9746107 -2.040499 1.3293837 -2.8747625 -0.6671226 1.7336944 -0.8724698 -1.6266315 0.48672 -0.36197677 -0.0042442447 -0.79819626
446 0.13618454 1.7115785 0.93847466 -0.41085345 -0.4095094 -1.1619896 0.16897123 -0.1451359 -0.5499252 -0.5455683 -0.5741043 -1.2206938 -1.3484704 -0.27462503 0.5256948 -1.478233
892 -1.442712 1.5479153 2.1304033 -0.19258024 0.4055465 -3.8790941 -0.5011426 0.3968869 -0.24715601 1.4206367 3.3374262 -0.8951664 -0.72542155 -0.30442324 0.12268745 -1.2857462
3324 1.7106717 0.55942374 1.1282899 -0.28972828 -0.24103299 0.2966943 0.22290808 2.2850275 -1.5073369 0.3843707 -0.7189173 -1.2707722 0.40844414 -0.7880314 0.27686718 -0.45750225
835 -0.003278002 1.8149467 1.3501443 -2.2282789 1.3435951 -2.304857 0.020563893 -1.294828 0.46860063 3.5944407 -0.96005017 -0.73163694 0.86078674 -1.2300471 0.44874227 -1.6412406
990 1.7351742 0.7570796 1.2757051 -2.5723224 -2.0484154 -0.7797525 1.7112914 0.036631517 -0.42494452 -0.118260995 -0.9922345 -3.5258512 0.62751615 -1.2495147 0.59905213 -1.8856003
885 -1.4602646 1.8580707 2.4315658 -0.50325555 0.3428814 -4.1053786 -0.56730455 0.40125817 -0.58112264 1.3253081 4.0131817 -0.5547507 -1.0864403 -0.34217063 0.20148967 -1.5810223
733 1.5255669 2.9079049 -1.5365585 -0.60147613 0.07609222 1.0791032 -0.10039868 -1.6005561 -0.8508268 -0.083928384 -0.08117144 -0.15148781 -2.2958949 -2.0774076 -1.5924214 -0.69365656
75 -0.22922924 3.636533 1.1950667 1.7761339 -0.13263202 -1.6857665 1.3524705 -2.1154792 -1.019568 1.530786 1.175139 -0.13239244 -0.76061666 -2.2108831 1.6765671 -1.728594
1100 2.3099763 1.3476536 -1.1405358 -0.44266224 -0.60714275 1.2161986 1.153186 -0.2636057 -0.083185144 0.34491816 1.4354156 -2.9107842 -2.6161685 -0.0044487566 -0.34820506 0.14026965
543 1.5803994 0.23048109 -0.28481096 -0.7968587 -0.2612328 -2.1608748 -1.9201338 0.0022012282 -1.6592913 1.9595169 -0.13555986 -1.0557171 -1.1259016 -4.5565357 0.6332023 0.21119751
1344 0.27798787 1.1995537 4.1218076 -0.6947564 1.4813946 -0.62418705 0.16242866 0.3167857 0.8719907 0.4456641 1.7472866 -1.5234977 -0.6389627 -0.07901009 1.2334096 -0.03939846
3062 -1.0618865 0.655007 0.22816148 0.51386523 0.25842854 -1.1653153 0.46982452 0.019017683 0.45107672 1.0495502 0.9774654 -1.2898877 0.28585804 -1.0970043 -1.7248446 0.07817805
68 -0.5803606 3.9493392 1.093668 1.925819 0.14231734 -1.17027 1.4190441 -1.6382872 -0.585207 1.947246 0.9137341 -1.4278251 -0.2347104 -1.6988877 1.2484705 -1.7778666
213 -0.28020284 3.9555204 3.8489783 -1.329543 -2.0767639 1.2139401 -0.5398892 2.5163004 -0.22999339 2.0570312 1.4864196 0.5508015 -1.1796961 -7.9095902 -1.5865203 4.1379232
3120 -0.9471879 0.7322695 0.26084056 0.069326125 0.1117053 -1.4748629 0.6237546 -0.11827239 0.8080438 1.2079047 1.1114479 -1.714234 0.80057275 -0.69276863 -1.5451156 -0.096333966
1363 0.77876014 1.0212134 3.6006424 -0.19783096 0.75522095 -1.5901471 -0.49294645 -0.5760137 -0.62474483 -0.22186151 1.7808815 -0.93271744 -0.98067105 0.12945287 1.1934934 -0.87515527
2400 -0.13446315 -0.59892243 0.91066146 1.3611188 0.4345135 -1.2247837 2.213847 0.0038514545 -1.3833007 -0.10534601 0.6999172 -1.3598502 -1.8633366 -1.2464963 -1.6859777 -0.59855133
2091 -0.9972592 1.4516559 -0.44846725 -0.14732172 -0.17615579 0.24810189 1.3247914 0.5126639 1.1955364 1.3317742 0.85462755 -1.3489414 -0.40067926 -2.310304 -0.6342764 -0.92027116
276 -0.22783983 3.1140585 0.24785201 -1.0090933 -0.5665226 -0.95415217 -1.1212132 0.45672962 -0.3497705 -0.20387305 -0.05540428 -1.2039002 0.2118977 -1.1884414 -1.9816587 -1.3478405
1207 0.4347387 1.4254804 1.0567932 -0.7043719 0.58309186 0.5194793 -0.23902981 0.021431629 0.08017498 1.9591362 -1.402576 -0.14016725 -1.4558868 -0.7329148 -1.075569 0.12774636
3537 1.6153388 0.7697963 0.7096295 -0.20775309 -0.19415417 0.503395 0.79133284 1.946114 -1.4813112 0.83019966 -0.94087666 -1.6746985 0.40693635 -0.84378976 0.42251548 -0.18070239
722 1.6187519 3.0432563 -2.1072257 -1.2256254 0.3907228 1.4301753 0.009241345 -1.8122214 -0.9030837 0.65541595 0.1132175 -1.1610521 -3.1640477 -1.2677292 -1.1225579 -0.20045684
870 1.7722366 1.5973706 1.3599985 -0.6336946 1.0679343 -2.1345048 1.755135 -3.2099075 -0.9583005 2.1337793 -0.6311182 -2.0299568 0.44655144 0.06828121 0.102205455 -0.75314516
2541 2.2108593 1.0694839 -0.66532004 -0.59593356 -0.16566211 -1.0108743 -0.4536914 -1.0262043 -3.7989848 1.0576282 -0.6694664 -0.15320696 -1.8814386 0.180116 0.07726617 -0.50893766
77 -0.81291944 1.4143717 2.1465204 -0.1392229 1.3314662 -0.36079443 0.35521823 -0.9655403 -0.7294433 1.3322428 -0.46526307 0.3725252 -2.7412617 -1.5902258 1.1266576 -0.58031386
4885 -0.29974762 0.8799308 0.667722 0.2950416 -0.25296313 2.4888716 0.011025765 -0.5851859 -0.7108835 -0.56969696 2.3189037 -1.4724336 -0.23287976 -0.96003526 -2.3967843 -1.4693906
267 0.95062685 4.236878 -0.070349105 -1.9142797 -0.72054625 -0.7020553 0.45033255 -0.8633058 0.26167473 -0.14286472 0.058739904 -2.028847 0.863367 -0.3967184 -2.7310934 -0.7452086
2897 -0.15545008 0.06957394 0.3300367 0.37451413 0.41983396 -1.1801078 0.30989772 -0.23397319 0.10629706 1.3043696 0.85255647 -2.0853755 0.41558897 0.08408378 -1.7492889 -0.4792132
570 0.71644264 1.6301233 1.5838591 0.5438731 -1.2508912 -0.8721908 -2.358733 0.8207353 -2.0888965 3.0542102 -0.23610036 0.6228027 -1.3579727 -0.8415737 -1.2523557 -0.92351115
243 -0.02385257 4.458111 0.36605293 -2.0512013 -0.75453603 -0.16096304 -0.64649147 0.23296656 -0.61752796 -0.5272005 -0.06958128 -1.1678995 0.65464604 -1.6830181 -2.557558 -1.1596982
4168 0.4995533 -0.016783228 -0.28891075 -0.615386 -1.0523664 -0.5149306 0.41255406 0.63816714 -0.1241897 0.6369617 0.6510352 -0.07204797 -0.9035382 -0.4256281 -1.0096531 0.14898461
5425 -0.34172532 -0.13413033 1.8532372 0.12980616 -0.54554456 2.5012844 -0.96993804 1.0277936 -0.5062058 0.6612211 1.5345433 -1.4076464 -0.38085294 -2.1194215 -1.1733062 -1.6309845
1642 -1.0748355 0.85249925 0.612976 -1.5303905 -0.11741675 -2.2507281 0.89725506 0.011082487 -2.0686324 -0.31342834 0.013990446 -1.3526623 0.45203573 -1.4277269 -0.29928476 -1.3512064
905 -0.51805294 1.5563921 2.1849756 -0.22095083 0.10596517 -2.7249734 -0.70750016 0.34957412 -0.2765402 0.352328 2.4264336 -0.34474546 -0.3913712 -0.6330228 0.08973943 -1.3653958
539 1.5016923 0.37723255 -0.628681 -0.38369644 -0.060499076 -2.1172576 -1.8297585 -0.080864646 -1.8057551 1.7495799 -0.111575805 -0.9992207 -0.9309268 -4.369399 0.50742465 -0.49192995
1447 -0.38583198 0.32484418 1.9370993 -0.09610249 -0.37727502 1.1775352 1.3186988 -1.3329489 -3.3514905 1.0813028 0.26043278 1.114292 0.0031736353 -2.4051685 0.5917491 -0.70255965
3126 -0.24718799 0.5383498 0.5242038 1.4480655 1.1122193 -0.97852784 0.7189676 -0.7773155 0.44808602 1.3183042 1.1435996 -1.7295916 0.28621837 -0.86483675 -2.2349768 0.31568864
78 -0.6832001 1.8392199 1.9556867 0.35886824 0.5613366 -0.5121973 0.8501484 -1.1608392 -1.2774936 1.3864645 -0.4116713 0.77594656 -2.6635833 -1.7290514 1.0507128 -0.57608306
564 0.9139686 1.7736281 2.444737 0.8467612 0.28360093 -1.1976541 -2.832894 1.2804403 -2.2430964 5.7594895 -1.2076153 0.99687886 -2.6240919 -2.9766529 -2.196722 0.007494564
585 0.60132265 1.7811038 1.6404428 0.94220126 -1.5968018 -0.9785474 -2.1319003 0.9733782 -2.355443 2.9000597 -0.3534615 0.86611927 -1.6219333 -1.1904272 -1.2044076 -1.1765985
392 1.5757083 -0.8169461 3.2445195 -0.91529924 1.8973123 1.356535 1.4426811 -2.0623517 -0.16985196 1.491696 -0.9045743 -4.6173925 -1.8827482 0.2849728 -3.2911901 -2.76024
395 1.3457881 -1.1028945 3.282262 -0.8607605 1.3901709 1.799943 1.5673469 -2.0340214 -0.4960792 1.6379482 -0.6040941 -4.835429 -1.9414352 0.21018425 -3.9513803 -2.7639155
1541 -0.6035129 1.0161701 0.3965749 -1.5179164 0.50941855 -0.95177406 1.1610225 0.7573242 -0.38880822 -0.20408715 -0.12734604 -0.9950486 0.64630723 -1.6964138 0.13525513 -0.43627757
2195 1.3911606 -0.6235394 3.7925935 -0.3440722 0.079236604 -0.112358935 -1.5509408 1.4655297 -0.7268753 1.2006651 0.7765851 -0.4191378 -0.2848236 -0.7254111 -4.5982223 1.5778129
254 0.9582561 3.78037 0.33736113 -2.4423091 -1.2982863 0.04311326 0.18054609 0.07405068 0.0011403095 -0.48949218 -0.5933109 -1.5721064 -0.12163753 -0.51499915 -2.031089 -0.1280307
2815 0.7067524 -0.47581074 -0.058841098 -1.1024649 0.046451107 -2.1315055 -0.6959442 -1.2517806 -1.7663829 1.3685786 0.25478148 -1.4557847 -0.15676989 -0.018473899 -1.005907 0.83458227
3566 2.260388 -0.19063729 0.5807597 0.18315479 0.16315755 -0.40831757 0.8362342 2.3020458 -2.091935 0.7993573 -1.0962319 -2.062019 0.53180885 -1.232953 -0.122356564 -0.4426002
960 2.3221629 0.79507816 0.6809253 -2.775131 -2.3576074 -0.8145647 1.2977962 -0.30079693 -0.5109168 0.16635613 -1.0110706 -4.312664 0.6599717 -1.7202839 1.0532178 -1.5172883
1125 2.4758363 2.2161517 -1.3121924 -0.20205961 -0.502893 1.442807 1.3449272 -0.9735295 -0.42533144 -0.059331246 1.6598548 -3.2572668 -2.487363 -0.13682763 -0.46122798 -0.12875926
187 -0.6546383 1.6387703 0.84969693 0.8089527 0.5103 -0.9298257 0.4775815 3.3307416 -0.73089004 1.2848957 2.1973605 -2.240415 -0.14533764 -1.3047547 -0.3133985 0.7389613
114 1.1297163 3.1591866 0.41091123 0.12325726 -0.007019647 -1.1457957 0.7896445 -1.8677002 -0.046170346 0.075948164 0.30138618 -2.1777556 0.68163335 -3.2177484 0.27165607 0.47750708
1778 -0.75889343 2.3572767 0.81098205 -2.279044 0.7390599 1.5491328 2.9201682 -2.2899654 -1.3883089 2.2593806 -0.13203946 -1.5639403 -0.43720433 1.8499379 -1.6481616 -1.9222062
359 -0.86319333 -0.9980403 2.8434641 -1.6223375 -0.63128304 2.6259387 2.8053372 -1.9878904 -2.2488112 0.06585767 0.34186152 -2.7326858 -2.7830727 -2.249923 -1.9147685 -0.7355033
2010 -0.98799455 1.0288959 0.62665856 -0.63668394 -1.129854 0.690347 0.74025923 0.2503875 -0.18902753 0.87658566 0.6258378 -1.318101 -1.9601947 -1.5137337 1.0469618 0.46858266
2052 -0.83997923 1.1365389 0.44608748 -0.43183416 -0.51929885 0.8139604 1.5550307 -0.73815155 -0.443079 1.7261668 0.14303681 -1.2842523 -1.367304 -2.2120438 2.084052 0.089365244
1341 0.7574767 1.5897547 4.281938 -1.0678821 1.7322232 -1.2671593 -0.29009038 -0.49649605 -0.46088257 0.76911414 1.3015493 -2.220227 0.73905253 0.12679148 1.9858061 -1.0073286
2111 -0.5883557 0.9734334 0.9172098 -1.0178216 -1.4289615 0.8859242 1.1836922 -0.4770302 -0.006049036 1.2845732 0.3806416 -1.8023596 -2.2305534 -2.128289 1.5658894 0.7591506
812 -0.3734912 1.0849692 2.3362093 -0.08392338 0.54651195 -0.1702667 0.46465603 0.35034642 -0.39017898 0.102142684 1.2881085 -0.8417054 -2.5699372 0.57860947 0.32177794 -0.75710386
813 -0.049282603 1.2667748 2.4128647 -0.048289344 1.0266927 -0.46646637 0.4564809 0.15287128 -0.3112248 0.10563537 1.7214606 -0.5711488 -2.242716 0.7868007 0.43382803 -1.1148704
964 0.79886436 1.4414958 1.6332495 -2.55391 -3.0828116 0.17232665 1.4823219 0.015346716 -2.8352592 0.71094733 -2.1332507 -1.3914162 0.40527233 -0.99550366 -0.9960473 -2.463832
939 1.8080928 1.6147153 0.59663755 -2.8607876 -1.5509518 -0.7501989 1.6279483 0.458034 -0.61226934 -0.24796279 -1.368791 -3.486571 1.0104125 -1.8496392 0.7631319 -2.4039419
351 0.27485874 0.3226417 1.6971335 0.036992677 -0.7628872 1.0150434 1.7383907 -2.186314 -0.38168004 0.32030326 -0.43645883 -1.4476575 -1.5837212 -1.7864541 -0.1774309 -0.9342399
99 -0.84160554 1.4668407 1.652656 0.1884362 0.6239078 -0.4415408 0.4585636 -0.7161533 -0.66512734 1.1211948 -0.18010385 0.49283624 -2.1598344 -1.3055359 1.0018249 -0.8255661
94 -0.8101823 1.3193833 1.8445555 -0.06503191 0.5937597 -0.7027676 0.24173346 -1.028244 -0.8138121 1.2716322 -0.51080704 0.6002207 -2.1226127 -1.4961579 0.9246444 -0.722879
433 0.35805944 2.287785 1.0157137 -0.071932554 -0.23591664 -1.6618896 0.074480556 0.02899948 -0.7174628 -0.13034089 -0.6913452 -1.3843447 -1.5541527 -0.33699444 0.97738177 -1.9581836
1965 -0.49928853 0.98174995 1.0426319 -0.89462954 -2.2608035 0.8340503 0.8141785 -0.03585404 -0.07236623 0.98393905 0.6223854 -2.082385 -2.4284704 -2.388532 1.2466352 0.30243504
2098 -1.1559981 0.920901 0.85994256 -0.6924128 -0.88727313 0.63676894 1.5327004 -0.8850989 -0.32857868 1.6064175 0.09723704 -1.6984234 -1.6674204 -1.9844255 1.7770251 0.020844411
757 -0.05888117 0.9164211 2.3574667 0.2179749 0.7794117 -0.19261214 0.8468065 0.23707873 -0.24699293 0.17020425 1.6627083 -0.80881315 -2.5372643 0.71338135 0.29512632 -0.91440797
576 0.34663683 1.9953228 1.3413068 1.0727729 -0.8341873 -1.6871438 -2.5964334 2.0359302 -3.0854688 4.3306494 -0.015669286 0.69449216 -0.86623937 -2.6780286 -1.9676423 -0.5771453
3583 2.6089463 0.027420424 0.38713512 -0.3692626 0.662572 0.14164431 0.9096246 2.0767486 -1.2924628 0.5351204 -1.2390796 -2.032953 0.7785853 -1.1362287 -0.36815834 -0.4941857
616 -1.203153 0.41078106 3.0361974 -0.46307418 1.5302142 0.17121774 1.1609762 -0.44329774 -1.3583763 2.4112818 -2.1790175 -1.9741007 -1.5695701 -1.7799255 -1.066438 1.130497
591 0.8014667 1.5812738 2.0219414 0.932888 -1.2152575 -0.9921094 -2.395827 0.9725992 -2.3560774 3.3705423 -0.64438504 0.8781352 -1.3544755 -1.2839432 -1.7401822 -1.1096394
3264 0.9771383 -0.62371826 -0.13915955 -1.5445912 0.155071 -2.4762485 -0.86003685 -1.6323997 -1.8791252 1.5930254 0.38585111 -1.7726264 0.17307149 -0.3839859 -1.2591072 1.089439
2738 2.7455773 1.4905497 -0.6948465 -0.15813918 -0.42772093 -1.5466084 -0.65086955 -1.4660884 -4.2447762 1.3050088 -0.8087488 0.016086249 -1.9032412 0.03682419 -0.081705496 -0.7348907
1696 -1.0269942 0.84841895 0.6618694 -1.5827432 1.0199903 -1.2808696 1.3617764 1.1160198 -0.36003813 0.16511327 -0.012068541 -0.7813063 1.1414955 -1.6761183 -0.387894 -1.3519536
903 0.94215834 2.124487 3.037249 0.7564522 -2.921511 -0.9422299 2.3094418 -1.4149075 0.018383523 0.4182408 3.1121821 -1.2082535 -0.025158383 0.32237586 -0.8969221 -1.0295085
703 0.19838926 0.5931412 -0.87126815 0.14981318 -2.7586598 -0.7194295 0.5510619 0.6507138 -3.5432694 0.72576433 0.8451161 -0.9648501 -1.3338004 -1.8725663 -1.0221637 -1.6041106
1449 0.49688953 1.6374276 -0.2625973 -1.325349 -1.5265262 3.5244875 1.9437017 3.4026551 -2.8342597 1.5086409 2.190296 0.65929705 1.621912 -1.9601249 -1.8391759 -1.5850453
1460 0.49436805 1.7728096 -0.3057048 -1.2468966 -1.5758055 3.522877 1.9743439 3.4932988 -2.7982123 1.5277839 2.2913086 0.7225073 1.5597898 -1.92358 -1.8485236 -1.5387502
240 0.053290226 3.6905937 1.3042682 -2.233246 -0.022385981 0.17196812 0.48095867 0.7798947 0.27769756 -0.67259324 0.43012118 -0.8721637 0.06939276 -0.3547898 -1.5772629 -0.040532205
242 1.4247429 4.590426 1.1231167 -3.0896816 -2.8817644 -0.33766913 -0.83876663 0.51050013 -0.8552524 -0.56656456 -0.5886027 -2.0642595 0.12636094 -0.8732436 -2.3009045 0.019038202
662 1.3408645 2.4085631 0.4768723 1.1967318 1.7749379 -0.25552383 1.5683936 0.6327007 -0.50926316 -0.36701074 1.3568894 -2.433844 0.029553246 -3.0848985 1.0439641 -0.14051102
1184 0.53139246 1.5280175 0.92620873 -0.9921928 0.35988942 0.38180515 0.14995067 -0.2207492 0.42182857 2.0329163 -1.6312044 -0.05818572 -0.9324284 -1.027777 -0.86475533 0.49388272
716 1.2882725 2.6442447 -2.0309076 -0.7771741 0.5126839 0.6915459 -0.17745838 -1.8835053 -1.2039961 0.46101364 -0.0071945707 -0.734165 -2.4735484 -1.3441869 -1.2494928 -0.29492518
5 -1.1212474 4.3855844 0.75826573 -1.7426547 -0.11435865 0.6395283 1.136929 2.7568402 -2.1710305 1.7019423 0.28783208 0.2124975 -1.229122 0.044506863 -0.58782583 -2.5079534
746 1.8761636 3.5601456 -1.8699725 -1.0007138 0.65075576 1.6109482 -0.33116716 -1.8213862 -0.7713399 0.016195899 0.25866944 -1.000067 -2.8064125 -2.3966994 -1.2782502 -0.79166776
550 1.3508403 1.2633253 -1.0100826 -1.4537839 0.21633302 -1.5614398 -1.6744634 0.4858836 -2.043652 2.6330872 -0.304249 -0.53692687 -0.96926934 -5.7969103 0.7657116 0.357692
1894 -0.7073708 2.622062 1.3181822 -2.1112914 0.58986753 2.1159196 2.6862435 -2.2451625 -1.7685901 1.9402648 0.21544097 -1.6220138 -0.18349788 1.9785851 -1.5867276 -1.3447173
8 -1.0629586 4.4311514 0.94988644 -1.8334553 0.27202648 0.76297873 1.3770547 3.0794446 -1.8694469 1.578766 0.45669925 0.038675405 -1.3576924 0.037893612 -0.4893394 -2.479491
1094 0.048670452 2.3543184 1.9479747 0.07962523 0.12777631 -0.83298373 -0.2486137 -0.19769928 0.08598535 2.3130372 0.9100298 0.40956384 -0.38031563 -0.41214058 0.8421654 -0.9479854
852 -0.0593445 1.4830203 1.6097257 -2.1925507 1.1636373 -3.092714 0.37693968 -1.9843606 0.1289691 2.8294287 -0.25218067 -0.5566261 0.50806934 -0.986837 0.8925457 -1.3838346
3051 -0.25946644 -0.05691755 0.41820684 -0.86865383 0.064546436 -1.4398761 -0.567239 0.7680538 -0.7483046 3.3383067 0.36552903 -2.946386 0.054385938 0.72506493 -1.2743081 0.3036616
556 1.6977838 1.2874142 -0.8342976 -1.6822702 -0.04170055 -1.753489 -1.5763426 0.8010961 -2.0581074 2.536963 -0.40412533 -0.8013494 -1.0369036 -5.8448944 0.65943485 0.98923373
1601 -1.0363383 0.80797625 0.7818019 -1.6252254 -0.28353786 -2.6570222 0.51900554 -0.5227572 -1.3371918 -0.47036734 0.33311117 -1.6389555 0.649956 -1.745268 -0.49838987 -1.1199793
2482 0.6803021 0.06961798 0.14622736 -0.0139063625 1.3041877 -1.8755337 -1.0758089 1.2659765 -3.3162389 0.4732691 0.49922794 -2.1568205 -2.4559553 -0.92024463 0.0012061542 -0.8032159
2012 -0.87692475 1.5394485 0.021103257 -0.8670749 -0.547475 0.4041107 0.9634094 0.23449832 0.37684512 1.251101 0.22176094 -0.4273457 -0.12859815 -1.1923951 0.26190215 0.022586811
2950 -1.367166 0.33745366 0.74946606 0.30924106 -0.52523357 -2.103262 0.9821343 -0.06528003 0.5800525 1.4232562 1.6813349 -2.4656043 0.8497141 -1.5586146 -1.9577568 0.2575117
80 -0.75458694 2.2137365 1.6687706 0.16501889 1.6901183 -0.30608955 1.264153 -0.7600588 -0.65787244 1.9456202 -0.23526293 0.712406 -2.5975988 -1.5795743 1.1720396 0.029708002
82 -0.73977536 2.484907 1.603476 0.264552 0.56480914 -0.61714184 0.75578225 -1.1695596 -0.74855024 1.5508548 0.54202646 0.68475205 -2.4096196 -1.3590155 1.5717542 -0.7331475
1196 0.99847317 1.549389 0.089121096 -1.2155759 -0.26251572 0.54496026 -0.32141972 -0.64380676 -0.29928198 1.8003329 -1.7741183 -0.25000718 -1.1155438 -1.2547649 -1.1952125 0.62170076
563 1.3633001 1.6712742 -0.53662384 -1.1188478 -0.2711551 -2.1545303 -1.9527228 0.15472181 -2.1310608 2.6885166 -0.3866555 -1.3442789 -1.1701336 -5.119091 1.080712 1.1117312
3612 2.22446 0.50968224 0.80747956 -0.41471067 0.017870935 0.19855079 0.758139 1.5508035 -2.1528912 0.29807624 -1.2881705 -2.3468478 0.8623994 -0.42151114 -0.14985107 -0.9093656
829 0.7420226 1.4520967 1.14036 -1.1918482 1.5471511 -2.320165 0.6385755 -1.6736549 0.17638195 2.0698 -0.26294252 -1.1812705 1.080015 -1.2279456 0.5932638 -0.42623958
1241 0.51092124 1.9905858 0.9274269 -1.3799121 0.30023807 0.004082017 -0.0031510307 -0.1370496 0.28166303 2.1049163 -1.730962 -0.052863915 -1.1967372 -1.2534378 -0.9123234 0.88195556
513 0.5773311 0.89428234 -0.0014553271 -0.056048952 1.4639877 -0.09684239 1.9198895 0.08931552 -1.3478212 1.6554732 0.2798952 -3.010686 -0.65286046 0.8560324 0.6865405 0.3998972
371 0.04117123 -0.894396 3.775753 -1.9668365 -0.51729095 1.4383982 0.14554802 -1.6115241 -0.88669705 -0.023383016 -0.7154698 -2.5639067 -1.616353 -1.774611 -1.5799892 -0.33302724
628 -1.1497053 -0.21598034 2.8222587 -0.96872866 1.228928 1.1027595 1.678132 0.092997804 -1.3326133 2.9255624 -1.6350833 -2.2111208 -2.1620305 -2.1822157 -0.62027985 1.797972
184 -0.3965246 1.513085 0.83753204 0.45072398 0.4701228 -0.8927521 0.6667006 3.6263785 -0.68860686 1.3557868 2.4684546 -2.8112001 -0.027209764 -1.8426528 0.113594145 1.0548896
104 1.0025632 1.9746848 -0.13109383 -0.27267426 -0.06389417 -0.85522777 0.32833412 -1.4263576 0.3923631 -0.33505893 -0.1404478 -1.1494794 -0.010276967 -2.5701096 -0.43164098 -0.09911248
818 -0.3403154 1.761475 2.2530935 -0.15647759 1.4091651 -0.7326603 0.66329086 0.00333019 -0.088827275 -0.10461159 1.1768224 -0.86330914 -2.1768014 0.74775404 -0.21206355 -1.318057
3318 2.3657749 -0.42935237 1.0353341 -0.79215264 0.21451007 0.21092176 1.2615875 1.7634062 -2.0263412 0.88055885 -2.0875099 -2.7967029 0.7184612 -1.1230502 -0.27733174 -1.1219904
83 -0.8929702 2.1548295 1.5786661 -0.13559347 1.4085177 -0.31964627 1.315556 -0.44832373 -0.83596474 1.8034294 -0.2312127 0.9748112 -2.7218018 -1.7149978 1.0098294 -0.07562114
1008 1.3031338 1.2195091 0.99153864 -2.293919 -2.373138 -0.8782939 1.4429015 -0.27226904 -1.1898234 0.5278477 -1.143753 -2.445242 1.087613 -1.1809386 0.67425835 -2.431465
181 -0.5038596 1.5428294 0.6660502 0.35100737 0.4564616 -0.76250106 0.678042 3.4835465 -0.7663315 1.1831295 2.4931195 -2.7941196 -0.030488353 -1.8362572 0.020721138 1.156579
1822 -0.14209265 1.7725772 0.49154612 -0.8136342 0.2690273 0.13434078 1.1259665 -1.3738934 -1.2369454 2.2921875 -0.69202816 -0.054218587 0.61214155 0.48525894 0.14558211 -1.0042048
21 -2.1449702 2.5082145 1.22022 -1.6155428 1.5091679 -2.631126 0.59677774 -0.84321845 -0.51049393 1.1107128 1.6455901 -3.1449711 -0.781411 0.22669534 0.9249052 -0.4315019
779 -0.38906667 0.9934438 2.37398 -0.1713126 0.59398645 0.0111992 0.8881828 0.36606115 -0.91141397 0.11495145 1.5036539 -0.89998746 -2.600846 0.96886104 -0.07220579 -0.52754486
858 0.035973046 1.0878145 1.3627816 -1.7270753 0.98234785 -2.1697729 0.9651552 -1.613528 -0.25665018 2.449324 -0.79303265 -0.41676733 0.77859324 -1.0984809 0.5037968 -0.6893236
109 1.7391102 2.9000185 0.074501745 -0.61906767 -0.15006919 -0.96284133 0.30818096 -1.581808 0.78910464 -0.9059985 0.21130608 -1.4615221 -0.09022838 -3.4413846 -0.9302691 -0.78127164
1005 1.3730206 1.0676774 0.56587183 -2.2060266 -1.7630707 -0.62779725 1.4479818 0.09070615 -0.9029686 0.40563616 -1.0205168 -2.4924557 0.7904481 -0.5499159 0.38649374 -1.6036178
8707 1.5210338 -0.63049483 -0.349852 -0.6834651 -0.19695969 -0.4729936 1.2022046 -0.75281155 -0.3774216 -0.07403179 1.7747579 -0.8809427 0.82162446 -0.5646372 -0.19222945 -2.274798
898 -1.151453 2.5263164 1.8265437 -0.56824696 0.15079252 -2.8519382 -1.1940875 1.3887699 -0.32829335 0.48496157 1.8618157 -0.10908998 -0.7195379 -2.2097464 0.40610886 -2.0863645
931 -0.22289321 1.2830168 2.2279296 -0.25584993 0.13041745 -2.3046715 -0.7231784 0.15958454 0.37582186 0.22011572 2.227384 -0.032972287 -0.756957 -0.6066371 -0.09517052 -1.1403828
79 -0.32525137 2.8512108 1.0265224 1.240723 -0.27817532 -1.1197128 0.74692494 -1.71781 -0.9421042 1.3769306 0.87405586 0.17687267 -1.3019304 -1.6469917 1.4656482 -1.1986694
372 0.9256029 0.30430183 1.2569803 0.020522946 -0.977087 0.1249239 1.125287 -2.01877 -0.24009795 -0.06741295 -0.6622655 -1.6940794 -1.0648876 -1.2802348 -0.3088505 -0.57406545
7943 1.3168509 -0.935323 -0.3870807 -0.8541868 0.38937214 0.30031744 0.14712863 -0.013801986 -0.7523362 0.6755314 2.0370939 -0.7214396 0.64029294 -0.7404073 0.18547595 -0.485581
864 0.32113376 0.7803896 0.8667551 -1.2138625 0.85394424 -1.9824154 0.848267 -1.7640823 -0.17962845 2.08876 -0.7585181 -0.9162641 0.48461965 -0.8166076 0.32427555 -0.82332766
1250 0.93498594 2.8976748 2.0496476 -1.6136309 1.1250262 0.1091843 -0.09970103 0.2784723 0.030923814 2.578399 -1.9236333 -0.35654113 -1.0146444 -1.5518658 0.54612285 1.3739485
1089 -0.1839262 2.6800466 2.183508 -0.32174185 -0.25918192 -0.7607273 -0.823571 -0.024017083 0.6997762 2.7526865 1.2212051 0.9298437 -1.3742564 -0.7974285 0.30128977 -1.1830127
5829 1.4339186 2.1351948 0.76636845 -1.8051547 1.3733654 1.231478 -0.399279 -0.028571278 -1.8172277 -1.000293 1.1794364 1.2544781 0.62115484 -0.9885967 -1.0140097 -0.7740041
6725 1.2529056 2.4494517 0.97906697 -1.1576113 0.53269905 0.8251955 0.6022295 -0.62577426 -0.9846061 -0.85783213 1.6892705 0.39017612 -1.8282635 0.0019543031 -1.9317993 1.344225
5903 1.1348443 2.2160237 1.090206 -1.3920784 1.7797669 1.5957942 -0.36952642 0.5980508 -1.157531 -0.5160994 1.4613981 0.954558 1.221169 -1.0011213 -0.8079708 -0.4254554
470 1.2155699 0.5225388 1.5186074 -2.2628644 1.8011539 0.48220348 1.1306131 -0.16062744 1.6606705 0.5371049 -0.59202623 -1.480273 -0.43967202 -0.8866766 -0.7991513 0.2576592
8309 1.2399961 -0.4022505 -0.17194115 -1.1093634 0.15051451 -0.4981462 1.3421171 -0.8398926 0.17204611 0.33750498 1.9854515 -1.102268 1.0176452 -0.5908068 0.36871085 -2.376424
348 0.75539327 -0.18860576 2.4867523 -1.1465347 -0.32303345 1.327906 0.2189033 -1.6210227 -0.18036425 -0.3299904 -0.79222256 -2.123956 -1.3156922 -1.8758628 -1.0565308 -0.5809962
96 -0.60474247 1.7357533 1.4866084 0.20861477 1.1687704 -0.46064842 0.53740835 -0.7127089 -0.8315552 1.1529497 -0.3901197 0.7564897 -1.9920905 -1.3928865 0.66282034 -0.7858456
619 -1.3344814 0.4549648 3.013901 -0.6551079 0.7905167 0.08003279 1.0438265 -0.05023715 -1.2612877 2.7371154 -1.9692019 -1.848132 -1.440262 -1.0159289 -0.8398 1.6338774
418 0.051149696 2.5010269 1.6071566 -1.0472782 -1.1182709 -1.662394 0.22712474 -0.14804237 -0.8683359 -1.1499609 -0.67618525 -2.0582538 -0.88126534 -0.1125741 -0.0054778676 -1.4315177
685 0.24600999 0.70368236 -1.0853856 -0.1396637 -2.3079536 -0.9058959 0.54779613 0.3734881 -3.1016243 0.41008812 0.8696177 -0.5114799 -1.4489799 -1.549237 -1.2083863 -1.33119
93 -1.0965798 1.7981294 3.3673434 -0.30033705 1.9040815 -0.52505296 0.92314947 -1.3562403 -1.2094396 1.7179213 -0.74933493 0.6338919 -3.5448613 -2.065913 1.0748508 -0.9007545
407 -0.25287703 2.666179 1.5284406 -1.4092233 -0.6366993 -2.0116203 0.14763828 0.42681164 -1.4313309 -1.1752537 -0.563779 -2.4285555 -1.5138519 -0.027195841 0.30930927 -2.769595
1127 2.9777286 2.381321 -0.51003516 -0.71247023 -0.9742832 0.6692747 2.7282505 -2.4174461 -0.9616259 0.8440011 -1.0263417 -1.0901889 -2.4019399 -2.173992 1.0095515 0.06308222
1137 2.3560536 1.8650924 -0.7996769 -0.5675996 -0.38511857 0.9001288 2.2030623 -1.7094778 -0.52086025 0.72995645 -0.3593396 -0.9066527 -2.1733062 -1.5709715 0.45768118 0.25635302
113 1.5266804 2.3301992 -0.10639053 -0.52917314 -0.30746442 -0.9286501 0.16235939 -1.4250377 0.7482644 -0.40627408 0.20238198 -1.5054806 0.08096276 -2.913949 -0.62434715 -0.2713772
105 0.36763147 1.8773973 0.08431824 -0.23182759 0.2610072 -1.0327195 -0.17391571 -1.1156579 -0.17501272 -0.6674122 -0.21930641 -0.38531172 -0.4085851 -2.5063 -0.5950086 -1.2158499
4935 0.44683853 0.29373744 0.057061434 0.58799666 0.031217325 2.6055872 0.07664666 -0.78091973 -0.7022085 -0.0153522445 1.9953798 -0.84395033 -0.15831676 -1.2605315 -2.516057 -1.2818758
383 0.8152613 0.37961364 1.3440727 0.2205741 -0.4137051 -0.2779878 1.0203916 -1.5722659 -0.4203952 -0.15701053 -0.6195267 -1.6036199 -0.33698037 -0.8105019 -0.19062056 -0.38069803
1082 0.3305083 2.8696115 1.6921519 -0.61465734 -0.5287885 -0.18476693 -0.272118 0.31015453 0.39553732 2.5104754 0.7674983 0.3339897 -0.49289238 0.1743174 0.17042342 -0.74299246
376 0.7222749 -0.25495628 2.4126046 -1.1157674 -0.7100043 0.89056 0.98256797 -1.4361271 -0.11819333 -0.0051963283 -0.52649355 -1.6598073 -0.9001734 -1.0140626 -0.45978898 -0.08795205
726 1.3514504 3.1192856 -2.1101696 -0.74928933 0.5544007 1.2588067 0.68797094 -1.6714551 -0.8957071 0.4053592 -0.03604311 -0.7138349 -2.3650696 -1.097575 -1.0263194 -1.0247203
136 0.24393009 1.5509322 0.27349678 -0.24113643 -0.18545072 -1.1037943 -0.61447096 0.5666287 1.1058395 0.73852664 0.2405495 -1.2951214 -0.52155066 -1.7712504 0.39903158 -0.32538316
4759 -0.40186024 0.4241219 0.939447 0.7198847 0.1227867 2.1961672 0.63302785 -0.34499148 -0.4233519 -0.5172512 2.256197 -1.0273917 0.01179949 -1.1410098 -2.653025 -1.4070382
1247 0.12057315 2.020336 1.2082013 -0.29117638 1.1694727 -0.104612105 -0.24169205 -0.11417566 0.031272653 1.7743251 -1.3986678 -0.11318268 -1.2833728 -0.66748756 -1.24676 -1.1484482
428 0.37132442 1.9065498 0.8632815 -0.44370127 -0.7521313 -1.4649526 0.1901334 -0.20759888 -0.7168469 -0.69908863 -0.5741167 -1.5702528 -1.0662115 -0.21863493 0.11260462 -1.7011285
623 -1.2340505 0.47355708 2.5369034 -0.6287872 0.8953709 0.08218267 1.5531595 -0.2516708 -1.2373046 2.1447504 -2.052755 -1.8364931 -1.6990409 -1.6369255 -0.5984323 1.5430082
799 -0.046499915 1.0465671 2.3413491 0.19715394 1.3730046 -0.23464613 0.6312535 0.5732059 -0.16372755 -0.04976461 1.3675814 -0.5747348 -2.5422995 0.3664522 -0.067141056 -0.7627991
1212 0.67337584 2.233937 2.4610054 -2.4139984 1.153493 0.4365737 -0.3112229 0.59413016 0.24517104 2.693262 -2.0134594 -0.80032605 -1.4615207 -1.3762654 0.49245715 1.3704586
547 0.49595597 1.9894403 -0.9237636 -1.0217712 0.11526741 -1.6628109 -1.2010101 0.8549797 -2.541689 2.6543903 -0.63182586 -0.2350135 -1.5827254 -5.4011984 0.7418581 -0.28019953
534 0.7397213 0.88423723 0.102267236 -0.6812889 1.0169477 -0.11837501 2.01716 -0.36161423 -0.8495189 1.5704706 -0.4232821 -3.7331238 -1.3831097 1.0901067 0.545245 -0.3599294
5860 1.6127827 0.73931026 0.8128416 -0.52226907 1.5589004 0.12790865 -0.69679457 -0.63600504 -2.3101604 0.1594776 1.3147849 -0.9090354 0.5973497 0.20812836 -0.7937097 1.4677246
404 1.0427754 1.2900337 1.4951097 0.32253695 0.062112518 -0.85236377 0.59589547 -1.5165108 -0.5937535 -0.30705482 -0.9153119 -1.7317529 -0.5403584 -0.4190068 -0.09889615 -0.6550856
366 0.8332982 -0.5642488 2.5851483 -1.4660054 -0.61312777 1.0971693 0.787749 -1.8941495 -0.15413328 0.050414085 -0.4206643 -1.8095489 -1.6275158 -1.1904197 -0.65014243 -0.33298078
24 -1.3272816 1.513216 1.5983955 -0.9876074 2.8484476 -2.2900581 0.46945348 -1.1033057 0.47843102 1.4722074 0.69551164 -2.234176 -1.1760286 -0.51012945 1.1754329 0.43745086
28 -0.99764925 0.7420886 2.3050518 -1.0629935 2.5787587 -2.7070239 0.5540029 -0.028744476 0.562874 1.6457007 0.18639547 -1.7543764 -1.7350056 -0.6256548 0.680905 1.3503472
33 -1.0739642 0.7184543 2.1877472 -0.78681 1.7477193 -2.2953956 0.23722506 0.28006932 0.4634048 1.3063854 0.54064345 -1.8316948 -1.9813969 -0.69913805 0.43005684 1.7760301
7920 0.64872086 -0.23760551 0.1962093 -0.7533317 0.64150435 0.14173505 0.16967256 0.6902605 0.37752634 0.25635374 1.9196719 -0.35365808 -0.002539389 -0.91095066 0.45802307 -0.12924205
2159 1.3541807 -0.16811836 3.4146984 -0.3699875 0.5325239 -0.48087254 -1.836674 1.4441122 -0.72011256 1.0635107 0.46863237 0.25886226 0.4995224 -1.6861686 -4.675167 0.90759784
373 1.179277 -0.40472087 3.0517497 -1.5125893 -0.79623085 0.72595036 0.24181749 -2.3413904 0.2600823 -0.16058555 -0.7389098 -1.5374069 -1.4185433 -1.7618256 -0.980005 -0.20146257
7561 0.5816595 -0.45084852 0.09872561 -1.2898805 1.5478897 0.7202076 0.18795267 1.1070071 0.76715195 0.786824 0.88824457 -0.3577023 0.15033945 -1.6756254 0.0186934 0.10229341
56 -0.49787948 3.4464064 1.5988466 1.0236815 -0.20911708 -0.52126 -0.19110702 -0.52435774 -1.9915518 1.5131155 0.22382958 -0.7400543 -0.28970268 -0.25166848 0.15359607 -2.1677122
634 1.3036425 1.4287935 0.73179287 1.9790586 1.4316175 0.039301235 0.13781387 2.0432827 -0.4642242 -0.7526129 1.996741 -2.360814 -1.4307284 -3.363315 0.39035413 -0.6719291
758 -0.41778448 1.1687646 2.4950397 0.20859535 1.1058849 0.107631765 0.99898505 0.7126315 -1.1319768 0.402687 1.9658979 -1.2748322 -2.970745 0.60215896 0.74658287 -0.816956
959 1.8045939 0.50449735 0.8096684 -3.1701903 -1.8536521 0.25218257 1.4623151 0.43991268 -0.62959665 -0.9641997 -0.8999881 -3.1302412 0.26630935 -1.0796945 -1.1690313 -1.0694312
982 1.2526209 0.4565768 1.2108569 -3.1368032 -2.2775662 -0.070906736 1.204182 0.029496564 -1.1057642 -0.9486008 -0.6879128 -2.967928 0.897476 -1.5959692 -1.2109904 -1.7169538
415 0.26983184 1.8679527 1.4652525 -0.5920147 -0.40623808 -1.562382 0.075087205 0.1273939 -0.7183512 -0.9458187 -0.488248 -1.5194113 -1.1003215 -0.41113558 0.39929667 -1.7804564
370 0.7717816 -1.0216484 2.0781488 -1.3618882 -0.39490342 1.4031037 1.0207222 -2.0920064 -0.29423213 -0.011443797 -0.2333051 -2.0315018 -1.2252495 -1.4514438 -1.3454529 -0.3062687
236 -0.20208491 3.4717681 1.4455197 -1.838538 0.373481 0.78863376 0.78065383 1.3272488 0.74204355 -0.6510571 0.5779521 -0.80409133 -0.25726876 -0.6381924 -1.4740767 -0.28602505
678 0.07279832 1.125933 -1.3299367 0.07967936 -2.4670713 -0.76241946 0.941387 0.070763804 -3.1951835 0.13129301 1.3590685 -1.1924897 -0.8590033 -1.5979724 -1.6916969 -1.4642377
7 -1.5983113 4.2012286 0.70535153 -1.9419984 0.053195707 0.8732461 1.7234788 2.7145584 -1.4451822 1.3859673 0.47389945 0.4152928 -1.4873862 0.097958066 -1.2328541 -2.9089007
19 -1.5953609 0.5577663 2.8247397 -1.6826209 3.8149228 -3.0581467 0.92055106 -0.6192537 0.8758121 2.3658724 -0.12104603 -2.0593195 -1.7876315 -0.9750064 0.82566386 0.73352057
866 -0.29818314 1.7236226 1.24958 -1.4919344 1.0959913 -2.3287008 0.8725083 -2.041224 0.2092329 2.4563353 -0.51926136 -0.6241728 0.6493676 -1.0274866 0.17704116 -1.5900314
3304 1.8654766 0.86843204 0.27247146 -0.32803923 -0.48487857 0.9322846 0.19451629 2.4352908 -2.0319128 0.7047362 -0.9793529 -1.2518243 0.61561936 -1.1561588 -0.050661884 -1.2761096
1121 2.0260718 1.0575844 0.016673272 -0.7864662 -0.5351773 0.73543215 2.327507 -1.226517 -1.653881 0.7282392 -0.23097292 -0.43794438 -1.676878 -1.2328184 0.43825194 0.507415
1848 -0.033629965 2.1864512 0.24891938 -0.975036 0.6914438 0.4809983 1.5667086 -1.6420159 -0.5947209 2.8679402 -1.0387764 -0.16274266 0.7694058 0.02440881 -0.03582013 -1.0090582
211 1.0453691 0.8832891 1.6857778 -1.0184494 -0.70634186 0.21125199 -0.4006093 1.0550244 1.0951291 -0.16382891 1.2062707 -2.0717142 -0.42072555 -2.0443242 -0.18938133 1.2985129
1165 2.1547754 0.76073235 -0.5841895 -0.13804884 -0.7547022 0.83752865 0.8357975 -0.27402386 -0.17262097 0.14118128 0.5295386 -2.6683962 -2.1651497 -0.5498319 0.41148633 0.29104903
111 1.1549175 2.0010948 0.03227184 -0.36472228 0.29212075 -0.86235934 -0.10779742 -1.3490117 0.5839376 -0.46333662 -0.021651667 -0.94017655 -0.05068581 -2.808431 -0.73005235 -0.33046865
128 0.5152355 1.5157795 0.28046003 -0.22712749 -0.15427004 -0.85814756 -0.65878046 -0.10978991 0.94251686 0.3584149 0.31568268 -1.4351487 -0.4631599 -1.6876851 0.26828027 0.073014066
541 1.3397168 -0.046989214 -0.34537327 -0.30354938 -0.08036755 -1.9893112 -1.2918483 0.12575053 -1.6813108 1.0587163 -0.07916057 -0.9402683 -0.7887744 -2.9838305 0.29538804 0.07489975
1816 0.32402954 1.2738701 1.4012227 -1.4101274 0.5359215 0.8144098 1.5417999 -0.80458724 -0.5095162 2.2571588 -1.0624902 -1.0546987 1.1627382 1.0477641 -2.1809473 -1.6624967
354 0.38081926 -0.35483763 3.6338048 -1.3061968 -0.20531899 1.781998 1.0534251 -1.6402946 0.26080173 -0.58978856 0.002201046 -1.2729857 -1.5281044 -2.8654866 -0.88013154 -0.6970791
1063 0.3646635 2.3413117 1.3369713 -0.38835058 -0.32091573 -0.38352606 -0.3886874 -0.368287 0.44577467 1.7961249 0.42470258 0.92174554 -0.77550447 -0.5505249 0.007397134 -0.78386325
419 0.22113606 1.7935317 1.4096723 -0.49421093 -0.45545283 -1.4883363 -0.24832495 -0.26393977 -0.5215395 -0.35983858 -0.63828593 -1.5757059 -1.4312197 -0.23211952 0.56469715 -1.6369648
5902 0.5837477 2.8010116 1.712847 -1.2101321 1.3194995 0.96191937 0.11685539 -0.42485398 -0.20891812 -1.2328074 1.4834465 1.9256201 -0.6948526 -0.98164505 -1.6298608 -1.4133089
1180 0.51438254 3.7779171 0.10796144 -1.0789117 0.022514278 0.14644924 -0.21566476 0.33049595 0.5782992 3.3677335 -0.3558096 -0.019123603 -1.4448878 0.080446094 -1.1210289 -2.9807591
3669 1.8794802 0.7126276 0.86330676 -0.11744653 -0.37160575 0.2897725 -0.2022148 2.2250514 -2.832652 0.8260117 -1.0523107 -1.2960899 0.6449204 -1.1176465 0.4828933 -1.1394554
365 0.78595996 -0.581933 4.021052 -1.3140842 -0.5453219 1.4455578 0.26160204 -1.9989057 -0.1490947 -0.38088456 -0.49890125 -1.7183242 -1.1000856 -2.952448 -1.0190398 -0.12929133
1554 -1.1960849 2.085362 0.47409493 -1.5122181 0.9858313 -1.4917744 1.7274698 1.2417724 -1.2085668 0.38654047 0.48399714 -1.570382 1.4420886 -1.964354 0.7569795 -1.2388965
509 0.8598751 0.39920133 0.60307693 -0.42475605 2.1768045 -0.37670252 2.1170964 -0.061449025 -1.3625075 2.0005164 0.24949224 -3.3502283 -0.9014179 1.6257312 0.17324618 0.11389812
588 0.67333025 1.8409706 2.239871 0.9817623 -1.3672454 -1.3397695 -2.6803887 1.1824485 -2.6690898 3.776626 0.046455987 0.5938539 -1.2460707 -1.0389742 -1.5445894 -0.8704525
549 1.6852937 1.5896435 -0.5816021 -1.406578 0.34181714 -1.556969 -1.8606142 0.6669391 -1.948189 2.7104855 -0.33350185 -0.07581267 -1.2617401 -5.8369856 0.8961881 -0.15959984
442 0.3221675 2.339661 1.1347641 -0.121258035 -0.1786105 -1.5040251 0.27336118 -0.051846605 -0.7944174 -0.40957382 -0.44409794 -1.7617462 -1.5267996 -0.24870926 0.8149975 -2.0116637
3 -1.386046 4.0900974 0.6934483 -1.7272365 -0.3391097 0.8245392 1.2707024 2.228077 -2.2115757 1.6155541 0.059349675 0.22168823 -1.4435029 0.21852738 -0.89022505 -2.246392
1191 0.3469679 1.9859499 1.1580125 -0.16757114 0.5726336 -0.031330895 -0.18146291 0.10445697 0.129477 1.5582149 -1.2414522 0.025587732 -0.7326802 -1.1867666 -0.53133905 -0.09602194
2868 -0.8463248 1.1338177 -0.5156233 -1.4366647 0.15323287 -0.10112978 -1.3979867 1.175193 -1.2430015 2.9781272 0.77499044 -1.7655499 -0.47187898 0.8981611 -1.1648499 0.6783801
4166 1.1254327 -0.10209441 -0.13409978 -0.06667045 -1.1780415 -0.9547387 -0.038060326 0.87628055 0.22628719 0.5896306 1.0101554 -0.74809825 -1.2589898 -1.3864678 -1.1571741 0.9234296
897 -1.3162212 3.1679702 1.9594126 -0.6477864 0.6402336 -2.9233336 -1.0732311 1.2755157 0.20830387 0.1985549 2.3444722 -0.4992333 -0.36456728 -2.2413633 0.30757606 -2.1762917
2653 0.94804 -0.06606638 0.54487294 -0.84028834 1.9162947 -0.59081215 -1.2114812 1.1486387 -2.1545174 0.46955824 0.42655286 -1.9422356 -2.9213712 -0.53261137 0.008089794 -0.73179233
1566 -0.9536821 0.6377562 0.67280066 -0.96635616 -0.44484782 -2.229404 0.29004484 0.17015396 -1.9251294 0.3869466 -0.19010021 -1.5917342 0.45843622 -1.9372431 0.42174768 -0.61780727
624 -1.3855108 0.579541 2.690667 -0.50561184 0.3916847 0.7328802 1.1421678 0.084196605 -1.6736807 2.7600386 -1.9695785 -2.2508187 -1.5595843 -1.3127095 -0.46119192 1.4250406
656 1.6779178 1.7758335 0.5196078 1.8599792 0.58325905 0.07550602 0.25227877 1.3018643 -0.3418861 -0.7360945 1.9120485 -2.5102956 -0.901802 -3.2337592 0.66281426 -0.4900655
1717 0.044223707 1.9450799 0.75776523 -0.67530364 0.31209835 0.3956836 0.795372 -0.5870776 -1.2138636 2.8409026 -0.8884956 -0.928289 1.1772016 0.8584094 -0.040079713 -0.976545
84 -0.5170817 2.2743957 1.4213868 0.8654535 -0.40151545 -0.956934 0.43578014 -1.4129454 -0.8317409 1.4094849 0.705445 0.44021124 -1.6881404 -1.5732183 1.6359144 -1.2174426
1593 -0.80230176 0.9189845 0.889528 -1.2862595 0.7556799 -1.1839339 0.8414878 1.3688438 -0.48633555 -0.43396124 0.4410006 -1.2437657 0.4887991 -1.4773535 0.09865588 -0.9662379
848 0.113087535 1.5772028 1.1159757 -0.7320268 0.39944315 -2.322367 0.5180483 -1.9020797 -0.4980939 2.5057914 -0.46118948 -0.70096105 0.76317245 -0.88648087 0.7103748 -1.2003093
2731 1.8096837 0.6137851 -0.21559389 -0.92250556 1.1147594 -0.9475439 -0.45582098 -0.90261257 -1.7461804 -0.3479238 -0.9864715 -0.3371183 -1.0836592 -0.812418 -0.5606436 -1.210694
723 1.6512642 3.2899823 -2.398146 -0.890606 0.35529616 1.317287 -0.11743974 -1.6603633 -0.8159319 0.6271039 -0.04253716 -0.7524472 -2.5647655 -1.7059156 -1.8168604 -1.112856
546 0.6287508 0.7853166 -1.6931187 0.05652775 0.46286178 -0.8723114 -1.3 1.9230492 -2.2029316 1.7713239 0.5848053 -2.2570024 -0.7225865 -4.2514615 0.11428474 0.33459926
18 -0.9415059 1.0186728 2.687096 -1.5533739 1.89552 -2.6797144 -0.07833306 -0.35997033 0.38283554 1.2273539 0.29157737 -1.9493347 -1.3290279 -0.32670557 0.41870505 1.3078477
8358 0.98642105 -0.20698927 2.760561 -1.5761623 1.3733511 1.7284154 0.7329315 2.485303 1.5263705 0.6743543 2.0436025 -1.0672903 -1.9316248 -1.2507709 -0.7657531 0.4697013
143 0.12996507 1.9476595 0.30194384 -0.39698318 -0.15292077 -1.3893182 -0.94304395 0.8741272 1.234097 0.8765928 0.309835 -1.7121077 -0.62741363 -1.7277622 0.2731865 -0.4072708
1083 0.26974252 3.011861 1.7224269 -0.8092801 -0.5774121 -0.54999965 -0.7356067 -0.5749654 0.65132976 1.930168 0.5569849 0.6967309 -0.96929544 -0.73148 -0.18075496 -0.878699
614 -1.1602603 2.0731363 2.7271674 -1.0516087 2.5525398 -0.29907566 -0.3222144 0.8989725 0.81999797 1.0183105 0.61638105 -2.0609663 -1.8982228 -1.5773364 0.55792886 -0.046335958
911 -1.3249294 2.9694095 2.0793393 -0.66441554 0.1512762 -2.783202 -1.0238135 1.0292727 0.19770983 0.82138515 2.2507324 -0.2747131 -0.59437627 -1.7459978 0.5053305 -2.2794647
1049 0.5026968 2.4748452 1.8702308 -0.43822563 -0.4780163 -0.4103596 -0.5729855 -0.4691476 0.6808935 2.2253048 0.27521864 1.0453461 -1.2388636 -0.8945359 0.07223677 -1.1324046
734 2.9063811 3.7205107 -2.2919512 -1.0144163 0.4001618 1.4070748 0.24446866 -3.3800497 -0.6042288 0.4807321 -0.0519268 -1.0580479 -3.3789473 -3.2024322 -1.3252978 -0.112818375
920 -1.7950606 3.0391698 2.1660793 -0.73386085 0.1472828 -2.9976778 -0.7726976 1.702102 0.27907363 0.48670247 2.3629348 -0.7802287 -0.6699682 -2.1675844 0.26347026 -2.4675293
471 -0.23735587 3.1040416 1.4185357 -0.79467267 1.4780362 -0.0831787 0.82168645 1.0621185 2.1619632 1.7046167 -0.6392347 -2.4057755 0.5018856 -1.3502527 -3.3462124 -1.2681452
179 -0.41000417 1.6441337 0.6939239 0.27418104 0.019364636 -0.5186773 0.015658384 2.6027296 -0.31813866 1.0277264 1.8396797 -1.6786429 -0.8582525 -1.0593162 0.14056072 0.97810817
704 -0.9390433 1.5549431 -0.6914291 0.1853432 -2.8633122 -0.051276304 1.2144177 1.1065999 -3.7346385 1.1034486 1.4265723 -0.5720381 -1.6886017 -1.967358 -0.8324908 -0.8254002
2774 1.8123237 0.50502795 -0.22180246 -0.8829821 0.41723108 -0.54475296 -0.5129557 -0.8830726 -2.513346 0.17550644 -0.73083055 0.17240225 -2.4148204 -0.5362502 -0.7427203 -0.9870762
2822 -1.3382552 1.2544549 0.56618917 -0.25702703 0.25761142 -2.4447482 0.7241618 0.09728695 1.4184233 2.1981323 1.283143 -1.6003885 1.4645776 -1.0972214 -1.4070355 -0.4540773
2173 0.19914292 -1.0252652 0.3947328 1.0457646 0.534844 -0.15435278 1.5436076 -0.0040811948 -1.3362532 -0.3054173 1.1562245 -1.5538762 -1.8872371 -0.584773 -1.6821663 -0.95403844
557 1.6377082 1.3501363 -0.99735576 -2.1869748 0.24057262 -1.1901174 -2.014097 1.0960966 -1.9834726 2.8526492 -0.40736365 -0.04670329 -1.3800023 -5.8895907 0.9092105 -0.29007488
72 -0.12392945 3.6629348 1.5630155 1.5344286 -0.11228598 -0.8214551 0.98376215 -1.4005278 -1.0230435 1.5664781 0.7249268 -1.3769274 0.026662288 -0.9323408 1.2465823 -1.9667524
1200 0.277937 3.6132047 -0.061419416 -1.3787246 -0.4983168 0.5003268 -0.0040793503 0.68561053 0.45292938 3.3274932 -0.34324682 -0.0056272214 -1.6650611 0.30175167 -1.261785 -3.139743
467 2.109951 -0.461969 3.1343355 -2.7047555 2.9176533 0.36077935 1.9422556 -1.2903774 1.4801884 0.54917186 -1.2617147 -1.7327206 -0.42320397 -1.6425962 -2.11861 -0.09856333
464 -0.6386081 2.7969935 1.2110226 -0.410919 1.208799 -0.08134331 0.5974957 1.417547 1.8100712 1.7550969 -0.6484226 -2.2845569 0.58328843 -1.3654841 -3.0654452 -1.5514318
1981 -1.11139 1.2128922 -0.27406076 0.118369356 0.06409392 0.3500774 1.8177074 1.1521481 1.331523 1.1001813 1.0916079 -1.4131112 -0.55058694 -2.1514683 -1.1349765 -1.4973135
851 0.13376251 1.3920212 0.72089654 -1.8467736 1.0665953 -2.1516714 -0.38020048 -1.1919501 -0.3050881 2.5689375 -0.8553133 -0.5715821 0.5404283 -0.8510301 0.38693875 -1.1558857
785 0.2633732 0.68117434 2.4102266 0.13783005 0.68620795 -0.49657524 0.58822525 -1.1851782 -1.3025277 0.37597784 1.7008538 -0.93436533 -2.8418686 1.477968 -0.026424592 -0.9805181
183 -0.43032402 2.4563794 0.61616206 0.6292218 -0.100224316 -0.82313246 0.4375579 3.4166205 -0.5363576 1.1794275 2.9767811 -3.2774928 0.17119938 -1.7568184 -0.22438172 0.5725494
935 0.14446297 1.7643723 3.2004352 -0.1471742 -1.1300424 -2.764485 -0.061275765 0.4757348 0.18067855 -0.10250155 3.216789 -0.89981955 -1.2114149 0.016315082 -0.30749455 -2.0055037
638 1.5527333 1.7409546 0.66529346 0.70920146 1.6565287 0.05939272 1.5325797 1.2686441 -0.7557685 -0.7707857 1.2164172 -2.7826233 -0.12842818 -2.9934728 0.7578378 0.51673925
202 0.79322654 0.73230034 2.1074648 -1.3435886 -0.49499014 0.42046705 -0.6310936 0.91430503 0.79767984 0.1787433 1.6039783 -1.8697814 -0.5634173 -2.129564 -0.20598213 2.1338136
1218 0.06458619 1.9300239 0.7276372 -0.4451382 0.51813734 0.2070777 -0.5019861 0.3179372 0.108444944 1.6741192 -0.9393563 -0.0127371 -1.1397246 -0.89420336 -0.8807904 -0.58582103
228 -0.2892388 1.969391 2.0933092 -1.9293133 0.5275004 0.87574226 0.4397593 1.3987197 1.1353166 -0.1656957 0.949824 -1.6010174 -0.7903602 -0.19164306 -0.2853178 0.21810777
6114 0.8278201 1.5538261 0.7139332 -0.43877444 0.49526557 0.27768868 0.035411928 -0.70943546 -1.6811881 -1.1654916 2.0030034 -0.5283563 -0.58651835 0.65435725 -1.1319966 0.08893489
4382 0.10776515 0.78556275 -0.6486031 -0.5337775 -1.0122547 -0.34220612 0.059702605 0.9045854 0.51783234 1.0954126 1.246428 -0.19565396 -0.6475127 -0.71952385 -1.5463545 0.3392635
200 0.32153213 -0.24142987 1.7848763 -0.15221259 -0.5850869 -0.15100113 -0.58675075 1.963123 -0.4283507 -0.07477012 1.2684221 -1.3462741 -0.63447803 -2.7957613 -0.88307136 1.3924413
2633 0.24040356 -0.032508712 -0.18712543 0.48758194 1.4887695 -1.164829 -0.8700298 1.6869233 -2.5626962 1.2636719 0.597 -1.633014 -2.3881376 -0.744526 -0.4582356 -0.20024727
396 2.2090745 -0.21228702 3.149161 -0.7560326 1.7572122 -0.7308316 0.99352163 -1.6147029 -0.48430616 -0.39700013 -1.0257596 -3.354826 -1.7616745 -0.27183405 -2.5313065 -3.336671
1667 -1.0945567 1.2669125 0.81681 -1.8929594 0.7317275 -1.6270185 1.0123351 1.6499707 -0.5024805 -0.13283205 0.27774125 -0.97271895 0.46803072 -1.8231542 0.34899366 -1.2092046
686 0.21328917 0.58923376 -1.1584617 0.08762534 -2.3418758 -0.50277036 0.7457613 -0.1596246 -3.5419095 0.54846084 0.91406035 -0.55237466 -0.83870935 -1.3489292 -1.0416365 -1.4924769
1159 1.8563645 1.9480971 -1.2522153 -0.48723057 -0.7788885 1.3667152 1.3929752 -0.09670179 -0.6401799 1.4107943 2.0924401 -2.6566987 -1.7172873 0.64068645 0.53661245 -0.23288588
