10000 16
4751 0.93541354 -0.013280484 -0.20651469 -0.9090151 -1.7300087 0.36844426 2.5709114 -0.5827738 2.0575743 0.03599617 -0.706225 -0.81672925 0.6474357 0.6676371 -0.7118565 -0.0064828475
4613 0.910698 0.015993938 -0.15275708 -0.9078454 -1.6677147 0.3781872 2.5992122 -0.5327791 2.1179526 0.10328532 -0.6879733 -0.82025456 0.69237965 0.72859776 -0.6985803 0.0035888383
6123 0.62595284 0.12861992 1.1233277 0.8131702 0.51652247 1.0983746 1.4789783 0.40678322 -0.14447305 -1.2913239 0.06323492 0.08763045 -0.22856283 1.9545833 0.6231288 -1.2666553
5732 0.82728255 -0.02108607 1.0209342 0.7880141 0.6216054 1.1650974 1.9419768 0.62471426 -0.2531073 -1.6902465 0.089030445 -0.02909566 -0.10190867 2.1254413 0.500148 -1.3959146
7603 0.5798822 0.0066934344 1.0682672 -0.14874952 0.5364967 -0.45479903 1.401209 -0.38793132 1.1866976 -0.37822595 0.54373515 0.24452412 -0.16088386 -1.1942518 1.1765851 0.30381086
7424 0.33644122 0.73553777 0.4287473 0.3685711 1.4335822 -0.5563877 1.6989338 -1.2198299 1.8233494 -0.4251335 0.5199638 0.2691593 0.5154968 -1.0272278 1.7265748 0.40902603
8408 0.4900664 0.52356905 0.17392763 -0.15448953 1.3947837 -0.64862436 1.5262377 -0.57493204 1.6185765 -0.55319923 0.36446995 0.5390858 0.30858573 -0.878095 1.5213664 0.14740694
8381 0.10914896 0.14148821 -0.020371266 0.3680585 0.8744589 0.16802584 1.769869 -0.75925446 1.3641063 -0.09287543 0.10429831 0.06232928 0.60102284 -1.0976313 1.0722489 0.20116691
3910 1.8289665 1.0151979 -2.0002604 -0.20973232 -0.13700235 -0.42421696 1.2852772 -2.865606 -1.0662086 -1.2064989 -0.8192319 0.7362869 1.0565866 1.0366734 0.06365538 -1.0184448
8724 0.26799035 0.043640368 0.41491282 0.15453838 0.59466517 -0.1505817 1.5912826 -0.75004214 0.89150846 -0.18140729 -0.13796088 0.16673464 0.092842504 -1.2887865 1.0676728 0.3633693
3991 1.6885473 0.60167545 -1.6878453 -0.37959924 -0.27428263 -0.4694368 1.2370001 -2.420639 -0.98504823 -1.2982548 -0.77594227 0.76230496 1.0980608 0.95297515 0.031441282 -0.84150136
6607 0.021426845 0.1306047 1.4729102 1.6378202 0.068846904 1.3773705 1.2557857 -0.24453679 -0.482196 -0.35713154 0.18092987 0.18741791 -0.71885645 1.1862075 0.79390293 -1.4198487
5865 0.49865878 0.3361746 1.2681931 1.1536475 0.0017528206 0.8488895 1.3568301 0.050321672 -0.7716383 -0.6003279 -0.21763894 0.28371117 -0.51127076 0.8556359 0.55703664 -1.607365
7924 0.855773 0.2308039 0.99186516 -0.26653916 0.8477016 -0.69017726 1.4167235 -0.3036982 1.3989124 -0.3653543 0.48430336 0.41634107 -0.13217467 -1.1274712 1.3047649 0.37766793
7833 0.23767705 0.33899245 0.3008231 -0.049359627 0.92252666 -0.26297498 1.4797555 -0.8592209 0.9988988 -0.36660346 0.03433134 0.13356817 0.25042987 -1.0136275 1.1792723 0.21524003
4065 1.652785 0.64204514 -1.5509784 -0.3989745 -0.056040134 -0.5480551 1.1726629 -2.4507687 -0.9643888 -1.1172813 -0.68518645 0.69887376 0.9691011 0.88694096 0.0018419739 -0.78630644
8840 0.2749548 -0.10792222 0.3248842 0.020539755 0.7372336 -0.41376317 1.5697134 -0.4427931 0.7466093 -0.23805933 -0.2790853 0.2102601 0.13487512 -0.9458179 0.97034764 0.06906381
7503 0.109431945 0.033090375 0.14780563 0.5658439 0.93516695 -0.1392522 1.767137 -1.0486029 1.4760127 -0.04718253 0.16985193 -0.014040161 0.47946745 -1.0680524 1.1723316 0.32426852
8609 0.012226617 -0.45458955 0.2638608 0.1930566 0.7088685 0.27702013 1.8532696 -0.66183394 0.86946046 -0.22442925 0.31776348 0.1334616 0.22380792 -1.4864067 1.5187606 0.20019478
3835 1.8091685 -0.23286012 -1.5015539 -0.5772817 -0.34306327 0.0014593018 0.76708966 -1.8505507 -0.34627655 -1.8685294 -0.8506665 1.4528067 0.56788087 1.0608444 0.12297411 -0.70209855
7616 0.24040921 -0.26724866 0.111928776 0.13796271 0.5950157 -0.3865076 1.5739329 -0.39027965 0.8571534 -0.14338768 -0.16705579 0.21530716 0.18562269 -0.9902276 0.79805976 0.059889305
6155 0.45749953 -0.3990836 1.4521952 1.6087447 -0.18963188 1.1446034 1.7402439 0.39653865 -1.0291847 -0.76201487 -0.33120555 0.2943019 -0.821371 0.7283649 0.9203336 -2.241413
5914 1.0474426 1.8651203 1.2112414 0.6467886 -0.21607262 0.046236157 2.2186317 -0.3562652 -0.5016762 -1.6868867 0.2720677 0.25211465 -0.6886016 1.0873743 -0.7219499 -1.1004226
2519 0.5391398 0.40067667 -1.2470263 -0.40542406 -0.62410426 1.9467872 3.4636607 0.25252604 -1.3886786 -1.5846416 0.63563514 1.7484566 -1.1665628 0.7448734 0.95267254 1.7617447
8824 0.22954996 0.9089504 0.118059546 0.51904607 1.458241 -0.45821938 1.9024531 -1.3520764 1.7621952 -0.6415371 0.59337926 0.06847492 0.9385469 -1.0545748 1.2998735 0.19511525
8977 0.49193016 0.68856484 0.3338436 0.34471852 1.6248394 -1.1127775 1.5123215 -0.93129873 2.110313 -0.56399727 0.70764005 0.40188903 0.51884115 -0.59404194 1.8000077 0.38880068
8812 0.36897817 -0.026661614 0.21919826 0.30063573 1.0997635 0.32194486 1.5097208 -0.8235926 1.4994891 -0.45445618 0.20990041 0.10375443 0.42040628 -1.1533582 1.5688614 0.30615252
2232 2.0684128 1.2997304 -0.28342336 0.06880819 -2.204344 0.16453373 1.0903298 0.599121 0.24602751 1.4036397 0.35092002 0.60730684 -0.14462264 -0.9529725 2.9756866 -1.346642
3502 0.39663026 -1.5454903 0.68850404 -1.1448963 -1.2488945 -0.40504694 0.9774414 -0.7536424 0.5780998 -0.035123084 2.1314433 0.7091438 0.107304715 1.6424314 0.5356873 -0.90641665
1989 4.0071664 -0.6095907 1.6673288 2.3896194 0.06476942 -1.7519774 1.2162975 -1.3975416 -1.4142247 -0.540691 1.0508655 2.1538453 2.0865588 1.7110893 2.0693986 4.084978
1998 4.0463824 -0.5781837 1.525813 2.478845 0.09153704 -1.7992957 1.1842558 -1.2803463 -1.2709727 -0.55980426 1.0254598 2.122184 2.1708703 1.9256287 2.1123686 4.115032
5967 0.98890525 1.8817788 1.1936061 0.78919524 -0.49191168 0.1305978 2.161762 -0.1879642 -0.56503755 -1.588407 0.21995093 0.40388447 -0.6316881 0.8971758 -0.463678 -1.4539284
1810 1.2127286 -0.17420866 -0.062112782 2.169833 -1.9846575 1.2576375 0.84491205 -2.3721173 2.957006 -0.17042479 0.09126993 1.5173022 -1.5045975 1.5882112 -0.8319015 -1.5863774
1837 1.2328237 -0.18857254 -0.14352083 2.2038338 -2.0653534 1.3285729 0.7566876 -2.4953415 2.961032 -0.035660516 0.10692261 1.5372552 -1.5821577 1.7260472 -0.65544826 -1.5929614
6419 0.20867348 0.37029642 1.2475594 1.5109807 0.118391156 1.0350968 1.0765084 -0.17374103 -0.25956407 -0.31630248 0.41980022 0.39612165 -0.7740852 1.3412971 0.5176428 -1.2851486
8335 0.17818618 0.19952159 -0.22973762 0.0586662 1.1679367 0.2089704 2.2576108 -0.8150448 1.131534 -0.40886152 -0.10447303 0.19947532 0.53799963 -1.3036419 0.948682 0.31466433
2193 1.9292467 1.5729553 -0.29414263 -0.20382527 -1.7775519 0.08821386 1.1272943 0.4797987 0.10449766 1.2815683 0.5375143 0.54049045 -0.17285065 -0.9786326 3.145427 -1.3951687
2910 1.0753264 -0.12177666 0.05291355 0.027397973 0.15380906 -0.5048524 1.8646181 -0.48357406 -1.112601 2.0389626 0.6161148 1.4131751 1.599559 1.4229114 0.4466028 -0.32772943
1666 2.9072173 -1.3417082 -0.319859 2.087531 -1.975242 -0.5393367 1.5968107 -1.0550188 -0.070262596 1.9479015 0.6388643 1.9534204 2.5257182 -0.6390089 -1.149082 -0.4742494
8183 0.26816127 -0.06150199 -0.056762457 0.123194575 1.0424896 0.14418887 2.0645504 -0.75664145 1.053404 -0.3992222 -0.06871922 0.28350502 0.42441398 -1.3189532 0.9814117 0.43964112
6028 1.0122626 1.4859867 1.4320449 0.9048148 -0.39270574 -0.31164894 1.8628874 -0.21559173 -0.8186617 -1.6765954 0.3043613 0.35213086 -0.5891178 1.0032544 0.098899186 -1.6623846
6353 1.0924362 1.8219656 1.173367 1.0503923 -0.563439 -0.29044974 2.521351 -0.08512687 -0.95126116 -1.8876618 0.396658 0.015085622 -1.0882587 0.85439116 0.15798016 -1.9452994
3444 0.4218746 -1.43129 0.72850347 -1.3032167 -1.1992953 -0.35538796 0.9762864 -0.9941371 0.12964019 -0.06727734 2.3357105 0.8280261 -0.42949268 1.548443 0.7191526 -0.8063851
1638 3.0434792 -1.2384698 -0.3686802 2.2526243 -2.059611 -0.59385276 1.6278895 -1.1555793 -0.033342782 2.0785708 0.63982224 1.9109422 2.426893 -0.68364185 -1.2805463 -0.6138465
8811 0.5700593 0.03832203 -0.71095836 0.58249944 1.3395954 0.35674974 2.7610593 -0.10795426 1.8188397 -0.20568442 0.22502619 0.07526435 0.73425806 -1.5111701 1.1674668 0.26069912
7435 0.15073165 0.2711219 -0.43854246 0.15596321 1.1338576 0.2304861 2.3790562 -1.2185394 1.3301728 -0.012002156 0.28318104 0.16773218 0.4254304 -1.5479771 0.73155636 0.4810459
6744 0.712023 0.8350362 0.79676646 0.45115742 0.32088763 0.7472814 1.983228 0.31483653 -0.030045057 -1.6294435 0.2930953 0.47522017 -0.25789565 1.981045 -0.5439841 -0.67579436
8402 0.061598297 -0.42694762 0.49917212 0.12475797 0.5710523 0.0025618146 1.77096 -0.9481334 0.113615595 -0.21026635 -0.21425399 0.4053748 -0.34609112 -1.6662272 1.0621384 -0.18006939
3901 1.8380568 -0.25117847 -1.7139678 -0.53452444 -0.6732441 0.3201424 0.62231475 -2.0700893 -0.14523423 -2.1387422 -0.71217084 1.7528137 0.64031404 1.0044278 0.047643654 -0.71648765
3585 0.62908506 -1.7984865 0.78647536 -1.4756696 -1.6940197 -0.68563056 1.163659 -0.765532 0.5656123 -0.12374239 2.322648 0.8065419 0.056107793 1.5722184 0.561973 -0.8198645
2732 0.38375816 0.5442338 -1.1052303 -0.32977143 -0.5759961 2.2787764 3.0490587 0.043286473 -1.1651565 -1.6811299 0.8818105 1.4826632 -1.0411685 0.5379788 0.9366806 1.4627763
4778 0.86631966 -0.034839842 -0.116624445 -1.3031849 -1.2772535 0.8454592 3.238297 -0.7313316 2.7213743 0.24428265 -1.0961878 -1.2194035 1.2278159 0.8914037 -0.42186886 -0.121539
7778 0.87638366 0.5858871 1.1106136 0.3294284 0.9964032 -0.94664377 1.6820444 -0.1671393 2.009584 -0.6938363 0.8475735 0.038708307 -0.20194124 -0.7874565 1.5626587 0.9517093
8681 0.88331115 0.22624095 0.90889484 0.36700863 0.8464472 -0.81914365 1.5336478 -0.6456055 1.9988704 -0.7620785 0.5672193 0.80832285 -0.13952075 -1.4893152 1.761232 0.59809357
7674 0.5292115 0.047763865 0.58324677 -0.27320933 0.67770517 -0.11841483 1.4707564 0.001662994 1.4014841 -0.19166939 0.4646837 0.42381415 -0.07975498 -1.2226804 1.1560503 -0.12200483
6726 1.1037688 1.3115457 1.4878684 0.3704903 0.2890495 0.7919044 2.226532 -0.027382178 -0.4932455 -1.6306062 0.07272576 0.20945951 -0.37432933 1.8853022 -0.34739783 -0.88313663
3960 1.7467729 -0.11259941 -1.5647342 -0.6987428 -0.45026347 0.41478583 0.60359615 -2.0566783 -0.36762926 -1.7019389 -0.58763015 1.5212221 0.7051015 0.9411342 0.023882886 -0.9022548
5934 1.4843711 2.19319 0.8213819 0.52636284 -0.061255816 0.3208728 1.3526429 -0.20368226 0.25827917 -0.9037914 0.37737754 0.46788707 -0.65981185 1.9606203 -1.0333929 -0.33094043
3659 0.5907207 -1.2318058 0.72095513 -1.0159802 -1.1842489 -0.15683436 0.5185433 -1.196282 0.51124346 0.23782904 2.4189153 0.4669671 -0.010914738 1.2306494 0.8234087 -1.0050613
2505 0.6651637 -0.066530615 -1.3309159 -0.43897474 -0.6332214 1.9922878 3.3370414 0.017066773 -1.430237 -1.6781777 0.065992005 2.4089215 -1.5651537 1.1573615 1.3536806 1.9056854
2817 0.589307 0.8943835 -0.34885293 0.6646375 -1.0545189 -0.030128492 3.5036907 0.701519 0.84891504 2.8167822 0.5580124 2.7730153 1.9815794 1.3653194 -0.24583891 0.4561974
3145 0.07707998 -0.25611827 -0.6769613 -0.19016987 0.30088797 -0.025504274 2.058176 -0.25205022 0.14472601 1.9635497 0.44062594 2.008578 1.0884079 1.3589075 0.81040084 -0.3621552
3161 1.579043 -0.59154785 0.080745056 0.9788921 0.64035213 0.044455275 2.5302975 -0.8465514 -2.0095077 2.126078 0.3528424 2.000541 1.4134822 0.5097573 -0.2905949 -0.8909132
2814 1.5543046 -0.4232063 0.13966192 0.8428408 0.6255412 0.10445637 2.65074 -1.0379348 -2.072293 2.2888114 0.23183313 1.9440469 1.374373 0.4917677 -0.2566293 -0.9528409
3547 0.041683305 -0.70024294 0.4528774 -1.1509346 -1.4345692 -0.22761416 0.99892044 -0.7416922 0.86107785 0.008705818 2.304954 0.854435 -0.35140076 1.409933 0.7082903 -0.5780361
3338 -0.23965228 -0.50592774 0.6440001 -1.2836505 -1.526316 0.070359655 2.0120223 -1.028826 0.26231223 0.3005039 3.219067 0.18502404 0.2567425 1.9791462 0.43371642 -0.2827257
7817 0.3367205 -0.048175395 0.934027 -0.2576366 0.7623036 -0.30237404 1.7055585 -0.44095826 1.3106883 -0.6079977 0.8299911 0.25173652 0.23394473 -1.2143096 1.1462207 -4.7748574e-05
8018 0.21589315 -0.6173104 0.8005833 -0.048265398 0.5810609 -0.31790727 2.0803437 -0.723462 0.0020801 -0.21928853 -0.08000996 0.22147325 -0.32124954 -1.6101705 0.8752162 -0.024900677
3117 0.6740426 0.7121593 -0.17941459 0.83302116 -0.5726956 -0.18906572 3.868023 0.6513402 0.46813643 2.7408476 0.8991734 2.9923193 1.5805486 1.1488088 -0.19955045 0.94113886
2917 0.8090201 -1.7881536 -0.6401707 0.19901592 0.9053679 0.7738908 2.7635596 -0.5071969 -0.23839384 2.1352768 0.4959991 1.5379615 1.1577817 1.3723376 -0.014267908 -0.12432371
3482 0.72105896 -0.07959102 0.21921615 -2.3402064 -1.7640111 0.8650948 1.3367908 -1.3325574 0.22338973 0.7529137 3.0620098 0.16489081 -0.91031766 2.0356812 1.1603383 -0.6194338
1467 1.3709557 -0.7262672 -0.5782035 1.2206405 0.22261438 1.8551908 0.40295973 -0.17638636 1.2919114 -1.0373156 0.5026221 0.9556149 2.550979 2.299336 1.869618 -0.7386778
3288 0.4179953 -1.3364273 0.82900757 -1.6249771 -0.98737097 -0.71317095 1.7171078 -1.2851032 0.41872603 0.50820327 2.686367 0.71074134 -0.54369134 1.3808056 0.20096454 -1.2233976
5912 1.4544649 0.35875937 0.9367408 1.3973566 -0.025758453 -0.13707216 1.6347764 0.504849 -0.9649286 -1.8589712 -0.550437 -0.1546081 -1.2348344 1.4752991 1.1380343 -1.9497832
4767 0.96044767 0.041887905 -0.104166895 -1.3007691 -1.6268673 0.53361714 3.006886 -0.872772 3.0069368 0.071763635 -0.5568608 -1.0074639 0.63951474 0.19190302 -0.3281546 0.7338041
1512 1.1157291 -0.0047239373 -0.9064569 1.528083 -0.083609335 2.0364728 0.3778789 -0.5634869 1.1460633 -0.991712 1.1461784 0.680629 2.4651577 1.770617 1.7068764 -0.6094227
6517 1.4876354 0.18521722 0.25025696 1.1653357 0.614959 -0.25340876 2.4062614 1.8751338 -0.28924096 -1.8237 -0.22011349 -0.12940075 -0.34118512 1.5788534 1.2050487 -2.161568
988 1.4046683 -1.5064149 1.8681328 -3.2378712 -0.39672297 -0.0323795 2.2275896 -1.503317 -0.777497 -1.7373376 -0.7797839 3.5471902 0.50979596 1.9856946 3.2746456 -2.188064
1014 1.398182 -1.3749776 2.0296307 -3.3357577 -0.5454035 0.31952497 2.2524884 -1.619705 -0.9026393 -1.7493287 -0.7074518 3.5042748 0.33068976 2.0514057 3.2379398 -2.4326832
2565 3.0432441 2.1480632 -1.6725354 -2.3471289 -0.13796687 0.6242777 2.3363547 -0.36077115 -1.0003178 -3.2813733 2.8304713 1.9730155 -1.2332497 -0.7888433 0.5995054 0.11457136
3524 0.41462228 0.2792821 0.04182461 -1.8973364 -1.5123717 0.7467281 1.3459492 -1.3485003 0.31286147 0.7242726 3.1964376 0.24005806 -0.7609998 1.7550977 0.9570591 -0.39341956
4287 1.4990973 0.8972379 -1.4845997 -0.11098035 0.120618254 -0.55006 1.7059093 -2.445635 -1.2451484 -0.7969087 -1.6102809 0.20103806 0.7931073 0.9838532 0.44412553 -0.3593458
3096 0.84280753 0.40141124 0.2379421 -0.0013594878 -0.33126748 -0.6155874 1.6926892 0.37139606 -0.08885705 1.7767717 0.33000988 2.5449917 0.8574181 1.0254191 0.42010546 0.039524246
2934 0.59470445 0.08887896 -0.41618818 0.194579 -0.36242634 -0.19113027 1.8560337 0.32361946 0.1750254 1.9192467 -0.05244202 1.9234948 0.5234549 1.4334325 0.7112358 0.7087207
2618 2.873117 1.9910825 -2.2466083 -2.120844 -0.395245 0.7428162 2.5181646 -0.09414989 -0.56835 -3.330181 2.8764415 1.8090075 -1.0231112 -0.8245477 0.86203706 0.050781514
3459 0.4322218 -0.06527774 -0.33079883 -1.9526056 -1.6600132 1.2107472 1.5703646 -1.0887433 0.8813549 0.38412613 3.100934 -0.2129841 -0.7568351 2.123183 0.6705991 -0.59817106
3353 0.098443694 0.7394931 -0.17177059 -1.7059869 -1.7869498 0.40270504 1.8238298 -1.259381 0.53517187 0.91974986 3.424454 -0.23263028 -0.8260853 1.8047653 0.8351679 0.12213763
3543 0.23119609 -1.2846233 -0.06860842 -0.7162402 -0.8092698 0.67829996 1.3857849 -0.83221185 1.1611327 0.2567818 2.9869926 0.20026517 -0.87880415 1.6324402 0.073146075 -0.81037354
768 3.691211 -0.81642115 0.9380052 2.3401494 0.05835193 -0.38314366 1.0661808 -0.60447574 3.4308953 -0.60451233 0.7814878 0.7909858 -1.7695643 1.713885 -0.73278147 1.7398895
1338 0.113890044 -0.3023464 -2.0482392 1.0661236 -1.4752638 -1.8051456 2.5994403 -1.7924564 0.110668086 0.89806753 1.2881502 -1.6548488 -2.758583 1.5396408 2.0037746 -0.014937233
1360 -0.046213478 0.13701719 -2.272934 1.3521963 -1.411771 -1.9134341 2.764602 -1.5745615 0.20515536 0.5158429 1.43343 -1.3444457 -2.498809 1.4146158 1.7148997 0.116683446
1300 0.5053642 -0.5426711 -2.356771 1.422223 -1.9393115 -2.1846647 2.4732218 -2.002983 0.41085395 0.87343246 1.5034986 -1.8220276 -2.5729806 1.683294 2.4586163 0.094364755
2897 0.075820655 -1.420221 -1.1534355 0.09768208 0.05586824 0.10997937 3.4619153 1.030908 0.63567436 2.297011 0.6709955 2.2131066 1.0999308 1.1226606 1.3983132 -0.31677336
9580 0.07445676 -0.17684196 -0.5346141 0.15414813 1.7037706 -0.008811834 2.9883766 -0.7363697 0.8619417 -0.604117 -0.17239459 0.8028157 0.041247156 -1.3656785 0.8334181 -0.022514436
1148 3.8198152 0.6572217 -1.7566698 1.2517344 -0.108487695 -0.05271747 2.3256776 -0.9511008 -2.170946 0.9294074 1.4732224 -1.6439874 1.1620923 0.20710178 0.15286356 -0.5791248
1143 3.7063696 0.56633556 -1.7534108 1.2984825 0.00031503366 0.37777916 2.261025 -0.9522247 -2.4545705 1.2167642 1.2588849 -1.2902794 1.170072 0.3074214 0.17642339 -0.5635848
238 1.8982698 -0.25807652 -1.7609683 0.1872491 0.73434055 -0.38780236 2.0284076 -2.6363087 0.21345103 1.8977704 -1.11582 -0.8208077 -1.0173978 1.2219838 1.0253474 -3.3134897
3013 1.7865912 -3.364502 -0.93186575 0.2404148 0.31942967 2.0388386 3.0408056 -0.28272066 0.26406392 2.2999454 0.26470935 1.3411679 1.8718662 1.5354921 -0.62040246 -0.3223404
1504 1.9489862 0.398285 -1.7056803 2.0241816 0.009879675 0.5133965 0.31946182 -0.18122573 0.5285222 -0.15429485 2.1829271 1.4985147 2.3287396 1.5536011 1.1206086 -0.8899336
3003 0.022675427 -0.25419405 0.20101808 0.10905356 -0.02648594 -0.18497592 2.417166 0.09861907 -0.15629731 1.5268103 0.48250136 2.095387 1.2928948 1.5274733 0.58759415 0.64277726
792 3.5117526 -1.0473253 0.75744516 2.34261 0.6420136 -0.78956896 1.4072512 -0.4817165 3.0767007 -0.80533993 0.8749116 0.79821754 -1.6602228 1.6016316 -0.52288556 1.9421456
1340 0.111177735 -0.16766661 -2.132495 1.2231885 -1.2009149 -2.2678573 2.4812639 -2.0692704 0.006917215 0.44482675 1.3614031 -1.4662281 -2.5233889 2.00205 2.5495124 0.19414061
6464 0.35475704 1.0526671 0.6772318 0.841799 0.066760205 0.6831021 1.3234942 -0.342667 0.14795592 -0.5234695 0.39407924 0.17820635 -0.23390774 1.3701847 -0.7223078 -0.38613105
2406 2.1039605 1.0105463 -0.42314842 -0.11180413 -1.9328204 0.23294114 1.039725 0.27953997 0.46256012 1.2996634 0.13444568 0.034577332 -0.2783267 -1.032475 2.0941174 -0.99539965
2171 1.5055083 1.5117162 -1.0369054 0.6474812 -1.5548923 -0.33479294 1.1318702 0.9077798 0.17065778 0.47404137 0.302765 0.9702063 -0.29459068 -0.7737023 2.8584564 -1.4800384
1140 3.7658064 0.5820005 -1.6422163 1.3659146 0.61191994 -0.2028586 3.1496043 -1.303769 -2.8105717 0.9507722 1.8193796 -1.4665496 1.2813534 0.5777607 0.2531761 -0.2850162
230 1.9937618 -0.27947098 -1.5946217 0.27622005 1.0531825 -0.7607286 2.2035983 -2.4371548 -0.3700401 1.6288294 -0.6790206 -1.1653367 -0.80502576 1.5240943 1.0583997 -3.093124
350 1.7387295 -0.8281628 -0.29223385 -0.7506045 -1.4569564 0.8631739 1.2325108 -4.037282 0.049955603 -1.0663677 -0.8256696 -1.681006 0.53047436 -0.24571516 3.0689428 -1.2496724
6557 1.3792464 2.5750928 0.9530435 1.3808563 0.0728052 0.18801573 1.8978484 -0.0076194345 -0.12550636 -0.021260202 0.97509456 0.2565344 -1.1396215 1.8896091 -0.7320712 -0.23616509
4910 1.6521668 -0.9353362 -0.25854862 0.07094889 -0.9865429 0.7475028 2.5201626 -0.5558297 1.485019 0.3409089 -0.6440641 -1.1703902 0.23238115 1.0281041 -1.3721224 1.2996138
1506 1.6037714 -0.53545034 -1.6075127 2.0532284 0.19742891 1.2602745 -0.0350263 -0.63050735 0.32355332 -0.6740287 1.3138627 1.7701569 1.7447834 1.1372211 1.6812136 -1.0427375
1208 1.7592572 1.1207937 0.08454049 -1.7407421 1.9953383 0.925751 1.6891555 -0.69785655 2.921445 0.9232198 -0.54677814 3.0975385 -0.2615615 1.4824135 1.100855 -0.58067566
382 2.9297864 0.20777443 -0.27271584 -1.2181011 -0.94341016 2.7623298 1.929884 -0.95045733 -0.5831476 -0.9764642 0.3822583 -1.5540336 1.2044413 -0.5704655 0.6628607 -0.91721576
1893 0.63044673 0.6277993 -0.26436862 2.3666992 -1.6888134 0.32008657 0.7588516 -2.293025 2.236111 -0.46654654 0.39211145 1.3159902 -0.9865118 1.0238765 -0.9777694 -0.5208907
1037 -1.6658502 -0.1733114 1.2911061 1.4508934 -3.0962985 0.4770367 1.7631482 -2.5564277 0.06930704 -1.9384276 -2.0196774 2.7833326 2.3306248 1.5192158 2.8266013 -0.5384489
2702 0.3832895 0.7905743 -1.1061059 -0.46023983 -0.84009534 1.6183513 1.9273945 -0.65458435 -1.0249841 -1.1922544 0.4989087 1.0141679 -1.0717661 -0.066301174 1.421695 1.1382989
5876 1.4711637 -0.24675028 1.1482596 1.0261825 -1.3243213 1.6317104 1.8883427 0.9012067 0.45218703 -1.775282 0.3726963 1.1761438 -0.2637655 2.4685454 -1.433489 -0.6406402
716 3.1877115 0.49243483 1.4920937 -1.0471591 -2.6353467 0.7574637 -0.3513935 -2.2112293 1.2200255 -2.6505826 0.17234893 0.28372988 0.8787485 0.4832341 2.20675 -0.4008511
27 2.3166928 0.6020953 1.1285837 -1.205499 -1.168584 2.4406598 1.4869106 -0.99180585 0.052212473 1.8294648 -2.8676682 0.90560395 0.13777043 2.1775045 2.8405354 0.18707702
3143 0.67435086 0.17837033 -0.66338193 0.30307925 -0.02503187 0.14608301 1.9782486 -0.046682604 -0.27136615 2.010504 0.219773 2.96842 0.64272636 1.0122966 0.9579161 0.4965295
3189 1.5258931 0.64862955 0.5595512 0.45839083 -0.07594124 0.66373223 2.0693018 -1.4749197 -1.2436447 3.1778479 -1.3122597 1.2211074 0.45579472 1.0451249 0.40386152 -0.40590027
32 2.3419688 0.736316 1.3022656 -1.5023048 -1.5237254 2.3160436 1.5812737 -0.8859528 0.23627278 1.9880136 -3.065714 1.5031098 0.04500376 2.0477238 2.9462373 0.19290231
4305 1.6882331 1.1692228 -1.9816906 -0.63037354 0.6513176 -0.29834536 1.2027653 -3.0292983 -0.67261297 -0.8354406 -0.47420207 0.27183968 0.21629493 0.915399 0.3415502 0.17502989
1029 -1.2604935 -0.22814554 1.175033 1.8835799 -3.311943 0.8026785 1.564007 -2.549757 0.51672393 -1.9638089 -1.989748 2.7205043 2.4226818 1.2881554 2.2221096 -0.4664713
2607 1.0595609 -0.017313201 -2.127782 -0.2464592 -1.1402302 2.50799 3.8233573 0.15600723 -1.1194344 -2.5661473 0.2730522 2.4917445 -1.3837539 1.1970376 1.2854513 2.2787714
2320 1.565866 2.6113796 -1.0806773 -0.18776506 -2.5541108 -0.011621096 1.6419022 -0.24641989 -0.2861282 0.6842051 0.9852765 1.2007128 0.09327716 -1.7800102 2.7739315 -1.5615969
371 2.8577735 0.36977988 -0.3085112 -1.009842 -1.4322809 3.0112371 2.1535175 -1.3178221 -0.3116844 -0.9785963 0.4124043 -1.5940526 1.5587591 -0.7060736 0.38674802 -1.0953672
1253 2.152046 1.3463975 -0.016882781 -2.1546884 1.8613188 1.078583 2.1341782 -0.4726041 3.882213 1.1410927 -0.20660165 2.8901136 0.006721949 1.1354632 0.7728375 -0.47896057
2037 2.6541317 -0.09800443 1.5342406 0.6568256 0.050548427 -1.3529588 0.59171206 -0.33667883 -0.7812156 -0.2952477 0.55902785 0.9548642 1.7674446 1.4086528 1.8147843 2.4313874
719 3.2704458 0.8050828 1.2891893 -0.62676823 -2.920958 1.2571607 -0.31435376 -2.4264743 1.4595377 -2.5459242 0.25241226 0.09349364 0.9293156 0.17254744 1.8049035 -0.3820948
347 1.7850593 -1.1095523 -0.25123614 -0.12265735 -2.2533529 0.55633855 1.4963549 -5.0720553 0.7408855 -1.2605386 -0.861755 -1.947716 -0.0008059831 -0.34306258 3.043236 -1.4004046
8340 2.0328977 0.6818934 0.62749654 0.8112809 1.089594 -1.2963105 1.2498244 0.109996304 1.6917961 -0.6372066 0.5142634 0.12576075 -0.41193375 -1.2880142 1.5426596 -0.2621597
3467 0.8866663 -0.8131252 0.52871484 -2.1917188 -1.1057948 -0.029898403 1.3225691 -1.3629963 0.5495213 0.12420576 2.2432697 0.22669713 -0.55536056 1.8806316 0.05935341 -0.95655173
2184 1.232017 0.9137556 -1.4226019 0.3756169 -1.5298972 0.1635147 0.98958445 0.3773806 0.20666827 0.47029507 0.34885415 0.6450963 0.042202834 -0.9393284 1.8997468 -0.910497
2915 0.13899569 0.2879818 0.1658651 0.7204476 0.30227703 -0.18819617 3.103928 0.79032564 0.23097867 2.1662083 0.38396055 2.5336366 0.8265074 1.6008525 1.2391717 0.51593935
4147 1.8790437 -0.58108974 -1.2928008 -1.0016702 -0.79102916 -0.5047317 1.327728 -1.907623 -0.8396168 -1.3429329 -0.8944269 0.89062965 0.23629484 0.7726411 -0.47462893 -0.63701004
2677 1.6452223 0.73728484 -1.3186636 -0.6433452 -0.25897565 1.9971683 1.6662695 -0.45631844 -1.0769179 -1.346913 1.809066 0.90284324 -0.975767 -0.85883594 0.7092609 0.8174095
1271 0.68293554 -0.005938843 -2.102112 0.56121737 -1.2999772 -1.3697417 2.2278864 -1.5893182 -0.041711885 0.5224819 1.5619727 -2.167879 -2.3597672 1.6512896 1.6077079 -0.10098981
2426 0.49129733 0.34817517 -1.1447616 0.07163612 -0.8933971 2.2477157 1.1065681 -0.5916834 -0.72225165 -0.99500215 1.1472397 1.0409833 -0.7141773 -0.23024867 1.6216366 1.1603223
2007 2.9735827 -0.3368227 1.7778989 0.83411926 -0.057345945 -1.387814 0.6248213 -0.2589562 -0.7674281 -0.5502558 0.22772042 1.083373 1.2922809 1.6797942 1.8035936 2.5812123
2145 3.5636282 1.6967002 0.68239844 0.08884825 -2.2848196 0.55451167 0.891771 -0.046561092 0.80620456 1.3212764 0.056509327 -0.55317277 -1.3855983 -1.1401863 3.223239 -0.7487203
688 1.0526822 2.6688662 2.434666 -1.1350176 0.38419613 -0.7724295 1.7295719 -3.6049526 1.4197112 1.6641688 2.1412337 -0.77066076 0.67918956 3.278558 1.8994796 0.7343503
3368 0.71881473 1.2063942 0.66011775 -1.3150319 -2.3548062 0.64811265 1.1212108 -2.0277042 -0.09594105 0.9765421 2.9114451 0.85234475 -0.9192911 0.6306629 0.085317746 0.025417851
5955 1.5501266 2.4874103 1.6918173 1.4938847 -0.7215925 0.63549465 2.7667325 -0.7490798 -0.8704112 -0.5685651 0.6612896 0.46875334 -1.6150608 1.5525074 -1.5929837 -1.0881604
692 1.2424788 2.429507 1.8108292 -1.1979283 0.053968 -0.37222993 1.5104792 -3.3776999 1.0901175 1.7565386 1.7851353 -1.0293641 0.54555196 2.6020353 2.0026782 0.5735315
1196 2.685877 0.9699255 0.041766904 -2.1929822 2.2758234 1.4915361 2.1960812 -0.63541746 3.8529148 0.83860993 -0.3896528 2.3029943 0.056547992 1.1690763 0.6656705 -0.44490194
1484 1.8678838 -0.19420741 -1.2078695 1.9425726 -0.0021351695 1.0007398 -0.06768559 -0.5258942 0.8003838 -0.33319625 1.6837053 1.076061 2.1984825 1.5849066 1.2298 -1.027887
4666 1.4411484 -1.2327324 0.31972829 0.16858378 -1.33928 0.86980087 2.7453742 -0.38025457 1.8513976 0.7021464 -1.131365 -1.0368166 -0.7514554 0.9307252 -0.5472241 1.4217254
4403 2.4232755 1.8437749 -1.3604665 -1.4162884 -0.3200485 -1.0703998 1.7262728 -3.0404627 -1.4023935 -0.1896159 -1.088225 -0.3066447 1.6965426 1.9712924 0.4612322 -1.4426527
280 2.5602496 -1.6155795 -0.6333373 3.381197 -0.94496614 -2.6478372 1.6907355 -1.8846202 -0.5001153 1.480926 -0.35121787 0.78843796 -3.0368912 2.6215472 3.1602688 -1.7101002
8933 -0.11144943 -1.5807127 0.33668026 0.29038697 0.18359877 -0.12822023 2.0852377 -0.6599 -0.12964277 -0.48604488 -0.35250404 -0.5955385 0.09221168 -0.97433704 1.1757243 0.13619903
7772 0.31280288 -0.6698589 0.72262555 -0.032649178 0.033365555 -0.3153198 1.8379039 -0.26334685 0.055312417 -0.5349139 -0.14033201 -0.0044074 -0.06720662 -1.5873559 1.2090495 -0.16721918
155 0.5537928 -0.16868792 -0.52164924 1.1270047 1.079874 0.6252031 0.74836594 -2.4789546 0.49643183 0.661846 -1.0116793 1.4649607 -1.6691025 0.49926022 1.8551215 -0.77896255
3347 0.51599264 -2.3477423 1.3646891 -1.0255687 -1.4796019 -0.0482346 1.5853276 -0.53908557 0.1362081 -0.6626987 2.9354296 1.1975683 0.16821554 1.1480104 0.31598535 -0.37143934
2811 1.5490088 -0.016954858 0.015222744 -0.016336681 0.09459923 1.5482471 2.152016 -0.76652205 -0.79856825 3.3061159 -0.49286282 1.0067403 0.73528653 1.4884758 0.8561644 -0.60632527
277 2.3162153 -1.6328874 -0.7953413 3.9169538 -0.7784761 -2.7282226 1.6926305 -2.1513953 -0.14665434 1.4532799 -0.14594229 0.75965536 -3.0511563 2.750433 3.3610036 -1.5403872
2726 1.3386604 1.3068703 -1.3954115 -1.243477 -0.40296498 1.5995469 2.214365 -0.2230063 -0.46916133 -1.3635736 1.573967 1.4307215 -1.437724 -0.61477 1.1190782 0.80799204
1482 1.8754284 0.43651393 -1.9500506 2.412869 -0.3922931 0.892981 0.4460319 0.12856838 1.0875152 -0.19204494 2.1535475 1.3883034 1.9048799 1.3890039 1.0952865 -1.0931127
1574 2.1884654 -0.9505098 -0.41881707 2.118916 -1.2075187 -0.9246533 1.292359 -0.5566319 -0.43488097 1.1477498 1.0199558 1.1973909 1.8014841 0.28707147 -0.7622202 0.51531607
3667 0.4973876 -1.4182358 0.614435 -0.30506352 -1.7289668 -0.4691562 0.7028891 -0.99762785 0.29259038 -0.036496826 2.6735141 0.47023204 -0.16409059 1.3895785 0.43252683 -0.6593113
1478 1.7409359 -0.75095874 -1.0571954 1.9084322 -0.37904295 0.94089997 -0.21333322 -0.39388278 1.1228565 -0.8433712 0.79453504 1.9275312 2.0011194 1.2314091 1.366211 -0.7914081
2299 1.2402421 1.4899589 -1.0599414 0.14378634 -1.4632894 0.25224352 1.2268143 0.4599727 -0.022791464 0.098321676 0.17306225 0.30317035 0.019299753 -0.9923902 2.2704246 -0.61210436
106 2.9909494 -3.0194912 -1.7866567 2.5275693 -0.60919905 1.8163065 0.719036 -2.3139732 2.1825104 0.3943564 0.44948268 2.7988088 -1.1506296 -1.0455321 0.59561133 -1.5056746
98 2.8549914 -2.891812 -1.7159281 2.442087 -0.74038535 1.6249071 0.7105617 -2.3032236 1.9307473 0.5566114 0.47078583 3.021516 -1.1951101 -1.1217027 0.59174734 -1.6131043
2451 0.40803948 0.24524084 -0.9893991 -0.11304406 -0.7652633 2.2835407 2.0102973 -1.0787586 -1.1851267 -1.3781236 1.2204825 1.090967 -0.5131056 -0.3008098 1.7145671 2.1212473
1796 1.1735135 0.2923162 -0.10764282 1.8432631 -1.3833967 1.0924556 0.56415683 -2.306479 2.2673016 -0.8599171 -0.11640437 1.2154112 -1.2086092 2.0237613 -0.84035856 -1.2889311
147 0.777542 -0.489802 -0.2750211 1.2182488 0.9743793 0.22980289 0.98806417 -2.4709873 0.20892617 0.7498546 -1.5279287 1.3934946 -2.0890121 0.97759175 1.9981155 -0.4139284
2265 2.9145982 0.94920284 -0.7894114 -0.15218209 -2.0986164 0.44242907 1.3616745 -0.22205435 0.0057442654 1.688705 -0.10573852 -0.38249192 -0.8557739 -1.2246809 2.700182 -1.2090241
888 3.1256201 0.064507335 -0.39684734 2.3142323 -1.6378287 0.1110124 -0.59503126 -2.7088091 1.379895 -1.5022745 3.6507828 -0.39194226 0.6336683 1.3570274 2.0379908 -1.1887702
891 3.1281404 -0.040309377 -0.08401049 2.5655692 -1.3145858 -0.16123207 -0.5507584 -2.7651887 1.3680924 -1.1026738 3.4275508 0.03385742 0.74393594 1.2201775 1.6344694 -1.2394153
7568 1.3664796 0.49668726 2.1608021 0.2751283 1.4253792 -0.14455023 1.6684154 -1.037558 0.6707594 0.5004506 0.12579419 0.04745568 -0.6363021 -1.5770937 1.0039747 -0.47505197
3029 1.6889225 0.88226503 1.1645567 0.64917475 0.4909917 1.2637498 2.4593008 -1.6612155 -1.3771043 3.6937137 -1.3742251 1.3006648 0.5885402 1.5792633 1.0214089 0.013742315
2175 3.0834434 1.4237934 -0.67995423 0.37940523 -2.2020342 0.5791763 1.5648389 0.99951905 0.26418194 1.6441872 0.35015497 0.2532651 -0.058081765 -1.2362477 2.0158627 -0.837332
1873 0.72483534 -0.28590012 -0.46895748 1.8502556 -1.7073457 1.0588228 0.43745193 -1.7599757 1.9785175 -1.0490606 0.41214657 1.8899004 -1.0274298 0.92585295 -0.3911334 -1.030455
154 0.6254472 -0.47889966 -0.00036183168 0.943778 1.6323358 0.8311336 1.0646325 -3.2070775 0.22644421 0.6744717 -0.8823492 1.7473686 -2.174657 0.768506 2.1127355 -0.7623361
1054 -1.6310343 0.1511722 0.42214465 2.426357 -3.340728 0.044565596 2.408303 -2.0691779 1.0006863 0.21217702 -0.99432 1.0542576 1.9035834 0.45104852 1.0580989 -0.2716359
1336 0.17358519 -0.17819571 -1.9939214 1.2699355 -1.2270491 -2.198661 2.236945 -1.881565 0.11459975 0.37567756 1.472458 -1.2224404 -2.53526 1.940361 2.527755 0.40069732
6156 1.0625719 -0.038568914 0.9517368 0.96575236 -1.414613 1.7058996 1.7662135 0.23532182 0.50487864 -1.9156647 0.39846593 0.76695037 -0.66678137 2.623966 -1.2964144 -0.40504995
1097 -1.4837912 0.04858043 0.19700529 2.987537 -3.6897092 -0.2077024 2.616645 -2.2770581 1.2856734 0.15235172 -1.3507105 1.0407722 1.6042552 0.609538 0.9523997 -0.013255507
576 2.6184537 0.33000484 0.9587828 2.110617 -2.1534963 1.974095 0.5663404 -4.160362 2.0906594 -0.062088694 0.4505206 1.6167421 0.19436581 -1.2810649 -0.9008057 0.91637117
2698 0.7167276 0.36532193 -1.2605282 0.12604463 -0.8174067 1.362662 1.3023515 -0.16108426 -0.21507458 -1.3907329 1.168587 1.0876737 -1.3617585 -0.42893162 0.82288283 0.62507737
583 2.7969484 0.39041758 0.92210597 2.1864269 -2.3675523 1.8879089 0.8088094 -4.3332667 2.1307242 0.012693474 0.47173977 1.8386246 0.28692847 -1.492675 -1.0894369 1.1059738
7317 0.9081192 0.35150424 0.41742876 0.7491069 -1.0152484 1.5000707 2.4764614 0.72243446 0.34111646 -1.2154373 0.69937253 -0.5954166 -0.20980814 2.0127735 -1.1277364 -0.12894903
591 2.2681758 0.5983987 0.8219475 2.059654 -2.2368248 1.9539952 0.49204555 -3.895517 2.1652765 0.013942204 0.38799456 1.5966579 0.36711606 -1.1512263 -0.65339774 0.81534404
870 2.082838 -1.14756 2.06085 1.1622133 0.018842699 3.7353487 -0.13668025 -2.0676293 0.2648215 0.23421305 1.2345437 0.74728763 0.1908031 0.9344291 2.0261445 0.6149313
7380 1.538769 2.3091636 0.98064107 0.76076585 -0.7797505 -0.44067276 2.836258 -0.13523698 -0.42463762 -1.6884502 1.1467344 -0.38667762 -0.4084439 2.8320165 -1.2439308 -0.3932782
6446 -0.27630776 0.41300347 1.6997813 3.189685 -0.42111322 1.4219184 1.6314926 -1.0768778 -0.84492904 0.018184079 0.40990967 0.0579386 -1.8027269 1.1920362 1.2541003 -1.9500121
618 2.5963647 2.100779 0.102780424 -1.5214603 -0.14001955 -0.94834733 1.5090103 -0.36284935 0.4741111 -1.9472115 0.5078352 1.5122691 1.6439247 3.4600315 2.8123405 0.27570578
3132 0.967766 -0.5375391 -0.2556531 -0.16645323 -0.22350705 -0.28227955 1.5202739 0.2533369 -0.1207062 1.8666649 0.5331559 1.1412681 0.573882 1.2609452 0.21486482 -0.11626366
4757 1.1896431 -1.7806742 -0.4067114 0.8837865 -1.0386722 0.446731 2.9947464 -0.5038849 1.8094448 0.7478381 -1.1788993 -1.29805 -0.3239818 0.98506385 -0.6250378 1.4831442
7541 0.07368699 -1.1112856 -0.051779624 -0.06345704 0.87185276 0.3148452 2.8933954 -0.30888423 0.50451064 -0.4205266 -0.15972136 0.10691641 -0.48310077 -1.5144557 1.0207711 0.6001341
149 0.8433902 -0.5543309 -0.08415214 1.5794762 1.348295 0.7463698 1.3564432 -3.5126562 0.6036248 1.2286102 -1.1251514 1.9783963 -2.537092 0.17248918 1.4798362 -0.77423626
7344 1.1001008 0.42465997 0.6132601 1.181075 -0.015059635 0.6846515 1.3824664 0.2886794 0.013098015 -0.7962879 0.11932928 0.5070663 -1.1416165 2.2309854 -0.6306404 -0.034361742
836 1.8496448 -1.02956 2.1370475 1.5728055 -0.108737655 3.9623373 -0.12184315 -2.5429764 0.49184352 0.22452874 1.3889074 0.76721245 0.3100456 0.8223374 1.5452071 0.68412745
3088 1.5414456 -1.5266411 0.27198124 0.016174601 0.101961 1.2959826 2.1696265 -0.6087756 -0.9855001 2.5212798 0.1669729 0.071272515 1.0048056 1.2755632 0.45562676 0.3781034
2280 1.9649656 2.3941724 0.09326433 -0.6353429 -2.097229 0.49339956 1.3182521 0.033092145 0.38357496 1.4789475 0.32751265 -0.1853694 -0.868214 -0.6180859 1.8399752 0.06686594
1500 2.034747 -0.67531765 -0.90055853 1.84809 -0.5310062 1.3466285 -0.057797294 -0.42664418 1.2501081 -0.6037175 1.0244284 1.5254577 2.5181406 1.9161999 0.84860814 -1.0648898
553 1.5187719 -2.8120859 -1.0524217 -1.9554625 -0.24474205 0.6284806 1.8236951 -0.71628433 0.5787326 0.43770164 -0.8630673 1.6258886 -0.61023957 0.20293792 3.130807 0.39910328
562 1.4844685 -3.0156834 -0.6444536 -2.0117831 -0.38634607 0.5948382 1.9910711 -0.79287547 0.40197846 0.32976648 -1.2461585 1.6002308 -0.5835255 0.3256513 3.2580905 0.343594
8153 -0.030814465 -0.7874702 -0.43133962 0.60627455 2.0225413 -0.07097954 3.639402 -0.26802993 0.28162205 -0.08439261 0.030964019 1.0372401 0.21908656 -1.6157522 1.1547648 -1.2332069
623 2.5879626 2.0096219 0.11014516 -1.244725 -0.17008626 -0.7748206 1.5083305 -0.3072099 0.5584349 -2.245991 0.561724 1.2786148 1.9589268 3.7880147 3.1143634 0.143469
2695 0.76849854 0.56742567 -1.4996078 0.35462862 -0.3850053 2.4776657 2.0015776 -0.41777366 -0.70451623 -1.3873193 1.0171307 1.8238198 -1.5320554 0.5790568 1.167316 1.4036938
4536 1.9993956 -0.40265518 -2.587892 -0.6536835 0.038007006 0.6628793 1.1970631 -1.7048289 0.028245447 -2.7401397 -0.5259459 1.5002367 0.66319185 0.78403854 0.5757458 -0.2337427
357 1.7963407 -0.38529104 -0.12960412 -0.16595985 -1.799579 1.41987 0.7959083 -5.27864 -0.040971242 -0.9376382 -0.49522313 -1.257939 0.45062414 -0.16147354 3.02031 -1.4401844
1334 1.1136533 -0.5648357 -1.6879869 0.56402487 -0.92887986 -1.6831526 2.0864863 -0.8652153 -0.1838489 0.31346542 1.2020359 -1.8932467 -2.3905542 1.646715 1.9115256 -0.010118136
1245 1.7036521 1.0916864 -0.71388 -0.59001255 2.1703336 1.2819004 1.5583621 -1.4806712 2.779156 0.91110086 -0.6501262 3.5633395 0.39973167 2.0846453 0.549794 -0.5571236
203 0.41402715 -0.83272433 -1.7476847 0.6761973 2.0161262 -0.3975034 1.6302379 -1.176487 -0.109374665 1.3651295 1.7045058 1.109341 0.18343174 2.488956 4.0751786 -1.3083677
1186 1.6581419 1.4453509 0.28805497 -1.4091539 2.3171241 0.91465145 1.6274415 -0.76524746 2.7286763 0.9014805 0.12302871 3.325315 -0.3564933 1.5114309 1.4380738 0.3085425
1210 1.9637882 1.222211 -0.51682675 -1.4901981 1.8707162 0.965979 1.7330331 -0.8540084 3.1402667 1.4453181 -0.78515655 3.2413347 -0.09256446 1.8228942 1.0250907 -0.25792685
925 2.4084935 0.8477471 1.0818918 1.4624869 -0.8555686 -1.2425109 0.5462429 -4.3901763 1.4407536 -1.1153725 4.1391225 -0.99492073 1.5747002 3.196035 1.2805772 -1.3865011
1900 1.0002552 0.5684407 -0.4484557 1.2617984 -2.2499294 1.0094767 0.7263127 -1.5969574 2.330871 -0.009640592 0.07905293 0.97936374 -0.58757985 0.6316222 -0.7939815 -1.182167
1569 2.7706878 -1.1851239 -0.24970965 2.2160976 -1.0278746 -0.9171281 1.7923855 -1.2637938 -1.0041418 1.5493213 1.0113182 1.4968977 2.4771483 -0.4004866 -1.1039449 0.13446954
649 1.9102957 -0.02041326 1.5786643 1.4643809 -3.3649588 -2.3570192 4.3544044 -2.8035512 -0.9464589 -3.8780003 1.9292148 1.6979865 0.017636267 -2.6552188 -0.11951916 0.10813199
518 0.5968444 0.30411422 1.9192804 -0.49676022 -2.1560657 1.6837605 1.3611643 -2.2521307 0.26375103 0.7825001 -1.1641277 1.0505588 -1.5236437 2.0997403 0.86014205 0.79793465
856 2.0008953 -3.1268423 0.5533252 2.4321818 0.4775627 2.4476688 0.6651531 -3.4442823 -1.0969126 -0.31037775 3.1971025 1.3943163 0.24899054 -0.4054287 2.2498157 1.1628652
1689 2.695695 -1.1947901 -0.1591651 2.1300755 -1.6489326 -0.91097313 1.7906384 -0.80238485 -0.1174943 1.4827504 0.8390178 1.2575619 2.301385 -0.54641694 -1.4420959 -0.5087538
323 0.07314819 -2.3482985 0.4189185 0.18845937 -2.416239 -1.7906148 2.5948446 -4.2496753 -1.4517163 -0.67095643 0.5609151 1.1333492 2.0189931 -0.602022 1.4817361 -1.8336831
5753 -0.33729485 0.26145932 1.5552833 3.527778 -0.10756108 1.8048514 1.5291994 -1.1808822 -0.5134943 0.25615832 0.47708398 -0.1656262 -1.6720626 1.3962437 1.572828 -1.7660542
209 0.5840862 -0.29716328 -1.9390321 0.57097226 2.0285351 -0.40059066 1.643236 -1.1359293 -0.13380356 1.2475952 2.0911915 0.9272842 0.7925447 2.9012074 4.652772 -1.1547085
338 -0.065848865 -2.8409374 0.43708792 0.35066637 -2.8892095 -1.8440363 2.7636898 -3.9977415 -1.0993215 -0.63989556 1.3223196 1.6531852 1.7678323 -0.5987878 1.2802073 -1.9720781
862 3.1281152 -2.3338292 1.1348926 1.2828027 0.24017687 3.0554335 0.08048418 -2.5972428 -0.6275286 -0.88942665 1.792986 0.99143785 -0.78828174 -0.12143491 1.6243185 0.07055476
1152 3.2062502 1.0795834 -1.4085779 0.60076094 -0.10637103 0.58186257 1.7309208 -0.7034746 -2.2960196 0.59321845 1.3560519 -1.3451439 0.9607277 0.8444285 1.3351163 0.06851178
499 4.075748 -0.92138755 1.0446175 -0.8130618 0.44210365 0.9374189 1.850421 -2.7153747 -0.86425304 0.7956199 -0.0344532 -1.8882157 -1.4712899 0.4299033 -0.07903381 0.8271401
863 1.6310685 -3.827585 0.9482867 2.5857222 0.35523695 2.0653925 0.76886165 -3.883658 -1.0258417 -0.38245663 3.1178637 1.7161812 0.09984869 -0.064304866 2.5281262 1.0823008
208 0.63065785 -0.96136355 -1.6480265 0.24918088 1.9527464 -0.4576619 1.5394421 -0.9707663 0.31185445 1.4261448 1.650264 1.1267363 0.20609589 2.5090609 4.2565966 -0.7519147
837 3.2512255 -2.3560488 -0.06904182 2.1151638 0.021027202 2.2901502 0.006451908 -1.9581686 -0.5568103 0.07617242 1.3565632 0.4609605 -0.8868116 0.44705084 1.2258868 0.3402729
1524 1.6618549 0.5172397 -1.2094935 1.6372554 -0.279141 1.3231598 0.2638965 -0.10256025 0.12425279 -0.5603133 1.1441939 0.76024485 2.2322373 1.4750344 2.0177028 -0.42969778
8944 -0.4598063 -1.7399037 0.53770804 0.4505769 -0.20815343 0.15832792 3.0396838 -0.6824923 0.102447435 -0.9146417 0.19046228 0.01148402 0.59077376 -1.9280968 1.1778404 0.4423138
1362 1.0903361 0.57488453 -2.19295 0.25685042 -1.6945466 -1.4303716 1.9594959 -1.2189183 -0.007947709 -0.16346905 1.1602052 -1.4698228 -2.6997612 1.7985398 2.3631554 0.47473544
485 4.230221 -0.9679523 1.2746841 -1.1657541 0.52373266 0.85948855 1.8941346 -2.6150606 -0.97970605 0.8528431 0.20279221 -1.3029082 -1.6324252 0.06827553 -0.39440453 0.58281255
1135 3.3333225 0.8532735 -1.167172 1.8513694 0.060061086 0.059129473 3.326327 -1.6243751 -2.7793248 0.9491052 1.9260179 -1.4832605 0.9812462 -0.0021197868 -0.5704952 -0.2078051
4742 0.90754426 -0.80896115 0.11766312 0.15117404 -1.590437 0.38999197 2.7422528 -1.0534706 0.82901925 1.5317658 -0.30837 -0.6641225 -0.6011603 0.08974118 -1.5796094 0.61018926
924 2.8024273 1.422018 1.4627781 1.2521737 -1.2181805 -1.5754713 0.40916416 -4.4693904 1.7332236 -0.7714644 4.265907 -0.9551998 1.5843388 3.6895783 1.5424887 -1.7867405
399 2.6105852 -0.9907867 -2.3229814 0.2502603 -0.6198917 1.2587498 0.7288336 -1.6893709 -0.2832601 -0.51381767 1.8863686 -0.36104387 -1.0136846 0.15997878 0.5758925 -1.416564
3067 1.5492471 -0.9066638 0.6938958 0.06026837 0.35343215 1.4269105 1.9524819 -0.7876919 -0.9822393 2.8662834 -0.051413316 0.40686387 0.5275435 1.1281664 1.155325 0.3639602
385 2.9386487 -1.5220605 -2.1249804 0.096037164 -0.2594251 0.7967616 0.5349377 -1.7467569 -0.5054198 -0.6030691 1.8249398 -0.22085641 -1.2937244 0.4905866 0.7507693 -1.3736631
855 3.1085007 -2.511676 -0.3032874 1.755764 0.66065776 2.0165713 0.2957329 -1.4067377 -0.57326424 -0.17472804 1.0135309 0.4099612 -0.68263364 0.43232822 1.5162948 -0.01795602
2581 1.2053807 0.603889 -1.2939537 -0.91724414 -0.4141503 1.3849194 1.4708456 -0.79547644 -0.99106723 -1.821185 1.6591551 0.99941957 -1.0976484 -0.9558987 1.0450672 0.4049834
1252 1.712217 0.825454 -0.15281993 -1.1469707 1.7704636 0.7737344 1.5125843 -0.80277675 2.4925668 1.3222055 -0.4943907 3.1570437 0.49407786 1.3360435 0.48103878 -0.57062465
2498 0.08241602 0.43854466 -0.95131207 0.03222561 -1.1703534 1.4352556 1.740307 -0.38345113 -0.3256701 -1.7022414 1.0943813 1.4037151 -0.6852583 -0.58163464 0.8127582 0.86346555
2321 1.8623089 0.7609424 -1.9140911 1.0141203 -1.6940507 -0.39229754 1.0151417 0.47747713 0.5749673 0.6801682 0.46927902 0.2817372 0.32228372 -0.5336349 2.8136127 -1.5825272
2753 1.7363969 0.89735866 -2.4701982 -0.9482705 -0.22329022 1.367995 2.0473468 -0.15839073 -0.18085514 -3.3116984 2.5141733 2.1862414 -0.94927746 -0.44489354 0.6543945 -0.23133463
1812 0.10006079 1.024641 -0.81654376 2.6475797 -0.7917428 0.82500726 1.1464291 -3.1956372 2.1887803 -0.7047407 0.4857013 1.8451413 -0.33691353 1.016958 -1.3368222 -0.7931502
672 2.0205216 1.0793407 2.0561345 0.023341388 -0.15148221 1.1508218 0.72119784 -2.9561064 1.1917664 1.7062079 1.1557794 -1.6031162 0.6186965 0.9925439 1.4073879 0.0528793
3653 1.2741565 1.5325298 0.5451839 -1.4088533 -2.012156 0.06644953 1.1066171 -1.8982365 -0.5707247 0.5287772 3.5618236 1.3169603 -0.74771595 0.5230009 -0.16722281 0.23894057
2494 0.51604784 0.45588362 -0.83734125 -0.40829897 -0.9781415 2.0399928 0.7872042 -1.0504037 -0.15169539 -0.8949442 1.0045537 1.3766626 -1.0502589 -0.6661786 1.4153498 1.0228775
3325 0.93902534 0.60260767 0.3163359 -1.452382 -1.7318776 -0.3599311 1.1687868 -1.3262483 -0.41609463 0.59793496 2.635187 0.2026527 -0.4896943 0.6594619 0.09114124 -0.0782968
388 2.297312 0.23670647 -0.87867534 -0.42681217 -0.65680903 2.0837035 1.2898372 -0.2970868 -0.07065528 -0.66507566 0.6471034 -0.4149391 0.63660616 -1.0879334 -0.25538123 -1.0585699
487 4.161588 -1.4820713 1.4369683 -1.3375561 1.1485219 1.0914897 2.1047366 -2.4518945 -1.1955693 0.62420034 0.63242507 -1.3019722 -1.8658134 0.37251982 -0.2655896 0.8972146
25 1.7006471 0.36073628 1.3304907 -0.6800516 -0.868818 2.0731146 0.8503409 -0.49319005 0.442242 1.1135939 -2.1086135 0.73924327 0.009407743 1.8904692 2.1986587 0.05127304
663 2.002688 -0.57354057 1.1980133 1.4143205 -3.1428227 -2.9135437 4.970061 -1.644791 -1.1277202 -3.7935436 1.8488376 1.1296777 -0.26932597 -1.3372838 -0.42727354 0.21424632
1083 -1.203398 -0.28916994 0.76111 0.679717 -3.1179914 -1.0897946 2.381936 -0.9550796 0.23950928 -0.662497 -1.2671291 2.7131562 0.8254087 0.60879993 1.2984751 0.46451074
7004 0.7754831 2.417435 0.9056253 2.260555 -1.2711446 0.09715018 2.6530347 -0.9075848 -1.0981276 0.06461911 0.36707783 0.047024123 -2.4294288 1.3448753 -0.90478796 -0.812567
653 1.3476537 0.51265275 0.42789117 0.08985565 -3.178375 -2.0961337 3.301145 -1.1880237 1.6822258 -2.7234616 1.0548066 -1.8692682 -0.71714616 1.5627412 1.1613709 0.14566608
3977 1.7298657 -0.028369088 -1.4857537 -1.5475409 -0.9568195 -1.3812312 1.4221727 -1.7935702 -0.54401535 -0.44095272 -1.2634618 1.460426 -0.21811992 0.9931145 0.52778983 -0.81031287
4835 1.0010836 -0.76115996 0.19052349 0.0126286885 -0.9273105 0.3807272 2.5226579 -0.24991421 0.7484614 0.577993 -0.14547499 -1.5602098 -0.42846265 0.6304349 -0.7260757 0.86271906
9614 0.54637414 -0.83766645 1.0076419 1.2455292 0.7103909 -1.0678655 2.7650173 -1.1157293 0.55686176 -0.57867336 -0.024576467 -0.1891572 -0.64691883 -2.0472982 2.2410975 -0.4580826
814 2.1270058 -0.8595522 1.2952527 1.5768003 0.09762172 -1.3246834 1.5591005 0.0009702543 2.6197035 -0.4267722 -0.034564972 0.49844038 -1.6783644 2.0644813 0.015416587 1.6746516
404 3.261467 0.47055182 -0.66156626 -0.30486876 -0.7631447 1.8319438 1.3418409 -0.91623247 -0.14220193 -0.888275 0.700631 0.69173515 -0.2536022 -1.5947552 -1.0126898 -1.0935498
1078 -0.8104442 0.055106953 0.32139528 1.1180813 -2.6120198 -1.092815 2.109966 -0.34371108 0.3198285 -0.39888254 -1.3237344 2.485628 0.64041084 0.4950807 0.82393014 0.34847984
516 0.701054 -0.0013342636 1.7495859 -0.38665655 -2.0609734 1.3692968 1.506106 -2.5243695 -0.37857807 0.712016 -1.3102453 1.2278415 -1.5560127 2.278727 0.7124617 0.9945371
1213 1.9804368 1.1442994 -0.920469 -0.37552127 2.3144252 1.1649739 1.8963073 -1.5379624 2.7757356 0.5178765 -0.86968875 3.663858 0.31885114 2.7230628 0.74275106 0.2475219
679 1.649583 1.1648601 1.7653081 0.013287359 -0.25294098 -0.05519505 0.85293573 -2.3022866 1.1397829 1.9598103 1.7566371 -1.4725302 0.28789377 1.4510357 1.629887 0.38171634
7 1.4278921 1.9590349 1.3670465 -1.1184529 -1.7259209 1.4607776 2.3989758 -1.7789081 -0.2591619 -0.73220176 0.31630102 -0.49732783 2.8603544 1.6951506 0.71710825 1.3712405
635 0.65907556 -1.8417234 2.0212076 -0.110014744 -2.4360082 -0.2527978 3.7707174 -2.5320563 0.53066456 -4.2305717 1.1769708 -0.32051915 -0.092023544 -0.34005496 0.78601193 0.7814178
1072 -0.8058457 0.30830422 0.114785776 0.95383185 -3.2690234 -1.2338392 2.5924618 -0.6844364 0.21160275 -0.32470378 -1.250299 2.8433328 0.43752176 0.056860566 0.70975924 0.670909
982 0.7690477 -0.8908203 1.1860635 -1.6443897 0.25841856 0.09181777 1.4348226 -1.6754212 -0.42115194 -0.71003 -0.5875002 3.0689187 0.14127086 0.42814562 1.4613992 -1.0261464
22 2.3112924 0.7639399 1.2575506 -0.6083445 -1.5331752 1.909986 0.93313915 -0.34975976 0.4721455 1.3399106 -1.9134588 -0.118052974 0.06981635 1.5272988 1.7055147 0.15175045
509 0.975466 0.25732055 1.9532696 -0.28973502 -1.9786884 1.4563967 1.3185028 -2.6786828 0.028250935 0.7867317 -0.9163996 0.9588031 -1.5400105 2.1197312 0.25230104 1.1217753
1996 3.1733537 -0.16981363 1.8131523 0.55232906 0.108066894 -0.35611817 0.5661369 -0.7739433 -0.35851473 0.015288164 0.14851095 0.5043362 1.3925203 1.4310124 1.4255873 2.8746557
8 1.3954852 1.8274668 1.5508077 -0.8764786 -2.193792 1.3892542 2.1621778 -1.7921958 0.1477028 -0.69108844 0.40567073 -0.23458253 2.6976788 1.446029 0.37986273 1.7258742
625 3.340314 2.3797758 0.5340427 -1.2256753 -0.5428578 -1.0764909 1.0375408 0.154344 1.3534425 -1.0286578 1.1622733 0.9820372 0.33221608 2.4824677 1.1958516 -1.3347849
519 0.19455299 0.22955664 1.8763244 -0.15849863 -1.9605767 1.3405485 1.5439187 -2.6960142 -0.07400438 0.76513094 -0.9272433 1.1721569 -1.3072269 2.294617 0.5770944 1.1948155
491 4.26574 -1.0200813 0.7931354 -0.79881114 0.8788097 0.813663 2.002216 -2.6306992 -0.9363235 0.7973275 0.5336151 -1.6073723 -1.3226287 -0.10710363 -0.54344785 0.6297786
1749 0.918195 0.4407113 -0.73325115 2.471723 -2.1869652 0.8987015 0.9313669 -2.2060163 2.402881 0.75405705 -0.13890132 1.940866 -1.2657607 0.5247797 -0.5286631 -1.5332688
803 2.4874742 -0.8577544 1.2562383 1.7096212 0.32889804 -0.95046693 1.9453038 -0.54431415 3.049474 -0.4954938 1.1957351 0.4232312 -1.1010996 1.4713584 -1.2409192 1.9494072
231 3.1067073 -1.0659223 -2.6347804 0.7114664 0.7894511 -0.62662596 2.08409 -2.0260305 0.10059257 1.677605 -0.32408535 -1.0925196 -0.8537459 1.0997236 0.92694163 -3.3023903
1234 1.1834558 1.0594119 -1.026773 -0.2353219 1.749893 1.3274659 1.8523456 -1.8614794 2.6598766 0.47351092 -0.5174595 3.3010683 0.4689117 2.1751423 0.42465204 0.52992237
658 0.3328403 -1.9132198 1.4988633 -0.07895859 -2.606902 0.11291841 3.826643 -2.5111442 1.11352 -3.8377056 1.0987822 -0.60526824 0.07821611 -0.53799045 0.48212484 0.36601064
4432 1.413829 0.07017208 -1.7406527 -1.2741674 -1.1564744 -1.3436503 1.6502017 -2.0499208 -0.70798284 -0.61195946 -1.1520536 1.6233207 0.47102907 0.62913054 -0.07613748 -1.284807
349 1.5640683 0.12277846 -1.1041439 -0.6294006 -1.603428 2.279119 1.0654628 -4.689315 0.112939954 -0.6097106 0.18787576 -1.5818291 0.06880925 0.4484636 3.7001634 -1.299324
894 1.8237889 -1.0147331 0.046541713 1.5331618 -0.82559437 -0.32848495 -0.39978218 -2.415861 0.8542436 -1.4381742 2.2709305 0.097396374 0.89232194 1.469466 1.8876888 -0.93244314
895 0.8924696 -0.7082196 0.43894225 0.97491413 -0.8934112 -1.2367162 -0.09543082 -1.9528105 1.1440452 -1.3711574 1.8104602 -0.11484435 0.82829 2.1018639 2.1828215 -1.0108379
843 3.0981076 -2.6204944 1.1228269 1.1442587 0.3712122 2.4498024 0.46875513 -2.802734 -1.1833749 -1.3685489 1.9868941 1.3109787 -0.5905801 -0.5878006 1.541695 0.23118682
2163 1.7284856 1.5400411 -1.4233716 -0.1493937 -2.0095556 -0.03248736 1.0542071 0.58913124 0.13650955 0.96814674 0.45430234 1.0247028 0.013925624 -0.22544688 2.7061577 -0.9034865
1452 0.8515571 -0.5597688 -0.6279541 2.3609622 0.33086774 1.3641182 0.8660802 -0.16378513 0.24903797 -0.55559003 1.2322735 1.1195705 2.6496944 1.1520723 2.297176 -1.8615035
7452 0.2655581 -1.435171 0.08768896 0.10810201 0.70663047 0.68544906 3.1812444 -0.3419671 0.21041583 -0.58399326 -0.49615288 -0.356054 -0.14330897 -1.5609738 0.72704226 0.6055303
3997 2.034531 0.26628363 -1.4936875 -1.4264684 -2.3786743 -2.0099742 1.3589629 -1.7688017 -0.07868168 -0.5231169 -1.3118345 2.6712224 -0.687396 0.3066972 0.6768742 -1.0316166
523 0.57220626 -0.16563217 2.3371196 -0.38496107 -2.1811786 2.2208004 2.0539782 -3.3307018 -0.024678806 0.8606812 -1.2480842 0.9019714 -1.5191847 2.6177151 0.3650314 1.0552174
314 3.5543497 0.9703507 -1.7008868 -0.22386052 -4.9341264 0.36396185 2.8862867 -1.2133291 0.18456708 2.4741564 0.012951553 -1.5780389 -0.26654962 0.7891263 1.2588075 0.40152755
1541 0.970668 0.8096806 -1.0226789 1.6845 -0.94893366 1.1160054 0.9244607 -1.1497431 -0.11254093 0.31413054 1.8224221 1.238543 1.2928213 0.36375785 -0.17607483 1.1552013
1065 -0.77801 0.39899752 0.711682 0.42633182 -3.652996 -1.4648494 4.0494967 -0.4022332 -0.3857813 -0.48304865 -1.9272825 3.3011253 0.28714445 0.9617914 0.9702461 1.6301291
725 3.2692049 0.287861 2.0096571 -0.6627299 -3.0677602 0.6630432 -0.48271576 -2.905106 0.9717326 -2.5131443 0.075784095 0.8796041 0.8897831 -0.11700704 1.6700764 -0.68551725
654 1.8309255 0.7358853 0.31874794 0.32805508 -3.475329 -1.8268664 3.7260144 -1.0813127 1.9794277 -2.239395 0.93299305 -2.3754334 -0.7091063 1.2295208 0.65328306 0.05001061
1956 3.1757138 0.020285722 1.3280905 1.6757079 0.6441054 -1.4765935 0.61541766 -1.1106819 -0.18468945 -0.24710481 0.34378305 1.4056318 0.13395019 1.7953295 1.8295267 3.2096405
887 1.8246096 -0.6955565 0.8569911 1.3361626 -0.828508 -0.47365612 -0.3813202 -2.4422321 1.0719739 -1.2329943 2.3695142 0.43633452 0.43428364 1.1529579 1.0711783 -1.4589382
1021 -1.0622017 0.14175253 0.69120413 0.8743289 -2.9800327 -0.64765507 2.3947158 -0.85716736 -0.03605597 -0.476007 -1.4967546 2.8438752 0.2180716 0.7349595 1.0567765 0.7027439
10 1.6803887 1.5046319 2.1325831 -0.6380693 -2.3999119 1.3238552 2.4451776 -1.8598198 -0.34915662 -0.72611976 0.11850045 -0.30565828 3.22355 1.5405973 0.38152453 1.5607499
9897 0.8371014 -0.14856969 0.45685458 -0.311743 1.1252006 -0.5804531 1.7283232 -0.0596555 1.2563025 -0.14876156 -0.08431504 0.36929128 -0.69911546 -1.0578223 1.2529991 -0.72380996
139 1.0681486 -0.5507171 -0.96946484 1.7397708 0.52250004 0.19857347 0.66485727 -1.6964256 0.54620254 0.4818081 -0.6976085 1.1122931 -1.8789511 1.0016334 0.80567396 0.3957108
4919 1.4148815 -1.3732002 -0.058429535 0.39493465 -1.0360237 0.0037145114 2.4495308 0.0039862804 1.236675 0.40822783 -0.8555197 -1.0720791 -0.3407541 0.47694865 0.03516976 1.5828891
790 1.6944112 0.021286722 0.72535473 0.7057647 -0.2966569 -1.6402194 1.1780797 -0.62811553 2.1509006 -0.023601133 -0.2741785 0.2682749 -0.67139333 1.699938 -0.17333227 1.3979949
39 2.058649 0.20680057 0.82890475 -0.43367043 -1.4471403 2.2198622 1.0186636 -0.6942064 0.7634183 1.8367406 -2.7724564 1.370626 0.20094985 1.4593018 2.1689854 -0.18679518
206 0.73822606 -0.042044643 -1.8458073 1.3589101 2.086227 -2.5851166 1.6799945 -1.5286119 0.6910615 0.99288684 1.6436443 0.5528762 1.09766 3.3461835 4.9682846 -1.2667181
1442 2.0888782 -0.68065274 -1.5388495 2.456525 -0.17899665 0.5398217 -0.10921028 -0.36826965 0.5742422 0.17017646 1.5225661 1.4929006 1.7575359 1.1585491 1.4049531 -0.60788316
424 3.9105809 -1.0471791 -0.9329107 -1.1997932 0.045164563 0.23975568 0.54092884 -1.2220104 1.4372987 -0.613999 0.87777483 1.300628 -1.1561804 -0.80245185 -0.29103422 -1.0836937
616 3.5502899 2.4619634 0.33592775 -1.4510391 -0.35544708 -0.71874636 1.3178825 0.03537116 1.3491601 -1.1418926 1.0608436 0.84619266 0.69974065 2.6441758 1.1059465 -1.5089252
3935 2.1202824 -0.6590241 -1.444636 0.16158076 -1.0164503 1.0229512 1.1697611 -2.0320852 -1.4053605 -1.8440162 -1.3434633 1.3147439 -0.25399354 1.3023411 -0.58896196 0.43155107
620 3.4662685 2.443816 0.53805083 -1.4196494 -0.5225666 -0.9068595 1.2440455 0.13478744 1.0611348 -1.1989951 1.010652 0.94691736 0.59518814 2.5387068 1.3493118 -1.4188377
4873 0.6046705 -0.7084852 0.033849698 -0.551414 -1.663369 0.04872984 2.8932161 -1.4291242 0.7855215 1.1016402 -0.7099629 -0.14565024 1.1073501 0.35566503 -1.8753353 -0.10149986
978 0.69512 -0.8483766 1.2179863 -1.6363443 -0.036181893 0.09702358 1.5611639 -1.1956775 -0.65211064 -0.47488168 -1.0544181 2.3273327 0.32547888 0.55932367 1.4418468 -0.848533
2694 0.80781794 0.4378496 -1.5780748 0.6356997 -1.3624504 2.0388076 1.10654 -0.9578441 -0.1525867 -1.4612644 1.5268489 1.1898757 -1.3335044 -0.85752237 1.0422647 0.8875234
157 -0.087546006 0.04853522 -0.46792388 0.7082871 1.8998859 0.16137375 1.3764194 -3.4233224 -0.032584175 0.78756726 -0.4190778 1.5110605 -1.826565 0.8099613 1.5817558 -1.0490544
150 0.3887268 0.2554307 -0.30981103 1.3453085 0.4412055 0.14954607 0.88315165 -2.0687742 0.3835003 1.0222652 -0.91583884 1.356863 -1.7750547 1.048859 1.623574 0.4024309
2603 0.279729 0.96198946 -1.6729388 -0.14913563 -1.7328079 2.387959 2.618405 0.39818218 0.43458292 -1.344622 2.263784 1.6281682 -1.345717 -0.0737743 0.695984 0.28569674
1432 1.3314009 0.03833844 -0.8969646 1.7985725 0.2588185 0.40705147 -0.0021597596 -0.098954044 0.652873 -0.092784464 1.7797065 1.2880346 1.4628253 1.141289 1.2185489 -0.6589992
204 1.2802294 -0.53085333 -1.9084889 1.0083537 1.0230504 -2.1413195 1.3538752 -1.1396726 1.4067476 1.2767013 2.000734 0.3343009 2.0541472 3.0205464 4.8561225 -1.1319972
356 1.9061736 -0.77043444 -0.7922582 -1.2062289 -1.4026235 0.23983696 1.4650073 -3.7966297 -0.2491326 -1.444931 0.027833803 -1.728825 0.37398475 -0.49572936 1.9271528 -0.8072709
2344 1.9079636 2.5160673 -1.5623063 0.23409745 -2.4997008 0.7758126 1.599815 0.1040736 0.24597536 0.9934745 0.5046831 0.9101861 0.36875376 -1.2181565 2.2820385 -1.056475
1904 2.5183702 -0.63692087 1.682581 1.5489286 -0.22876954 -0.93775517 1.4600252 -0.7376687 -0.7875859 -0.5431627 0.0027575588 0.7662898 1.8396286 1.6284039 1.261293 3.5463974
1036 -1.2798883 0.38174632 1.3290715 0.8781452 -2.9448223 -0.7955876 2.056983 -1.9316016 -0.5321694 -0.46015087 -0.7153141 1.5900769 1.7360721 0.23973264 1.5208347 -0.5630479
1966 2.89121 -0.7205466 1.4362065 0.86862683 -0.31006077 -0.61402845 0.74349123 -0.13910438 -0.24392092 0.08384212 -0.2318771 1.5069007 2.0460904 1.3642718 1.2926985 2.883411
685 1.2188594 2.046002 1.7241051 -1.0297549 -0.09276927 -0.7754239 1.1350534 -3.1667128 1.6558579 1.2340977 2.152718 -0.83528423 0.9422876 2.552845 1.4740801 0.89412767
1197 1.4700465 0.7965011 -0.6403596 -0.62938476 1.537457 1.5495408 1.2312535 -1.5980072 2.1565645 0.27916217 -0.38306603 3.2633529 0.48037827 1.753416 0.73567796 0.40795365
2094 3.8957698 -0.7162949 1.2981133 1.3885766 1.4249488 -1.6200937 0.9260834 -0.5546275 -1.2471713 0.09420558 0.5416638 1.3400091 1.2909133 1.6736029 1.2661554 2.2567706
555 1.1946537 -2.4256902 -0.5474582 0.5140474 -1.7441915 0.7978746 1.579629 0.7069141 0.35027075 0.2509195 1.0536759 2.813101 -2.3229058 0.49396068 1.3726494 0.19631499
428 3.5651898 0.07761768 -1.0687568 -1.3340368 -0.71231234 0.91411215 1.0707277 -0.78558505 0.82762384 -0.47162735 0.8828999 1.2819232 -0.7801173 -1.4264258 -0.58802986 -1.1102931
1207 1.4746242 0.8473288 -0.4383559 -0.60637796 1.5790763 1.1538147 1.1229703 -1.3767287 2.0150158 0.22873679 -0.7539034 2.883566 0.7891057 1.6459599 0.84884214 0.2656686
1974 3.93441 -0.090964496 1.84052 1.6131663 0.52050763 -1.5198249 1.2644362 -0.01327646 -1.3465828 0.11288215 0.71043867 1.1352338 1.4308726 1.6832922 0.920217 2.6902199
913 2.342137 -0.8049398 0.15745947 2.647568 -1.7903546 -0.19152144 -0.2122563 -2.7341187 1.936245 -1.2461697 3.3014739 -0.46912703 0.5674919 1.8956115 1.8207424 -1.619907
1942 4.202444 -0.11005546 1.3489594 1.2969933 0.71324944 -0.9461873 1.0933102 0.086338714 -1.4436424 0.21982872 0.36632895 1.5837176 2.0188742 1.8008968 1.3621391 2.883549
677 1.5352141 2.2060134 2.3161438 -0.70376927 -0.8797224 0.2812927 0.67919004 -3.0338438 1.339612 1.5684233 1.3086927 -0.6770806 0.13321796 1.5295146 1.5837065 0.77107847
930 1.2994771 -1.0056543 0.8423627 0.7961795 -0.9178534 -1.224207 -0.37816402 -1.9113542 0.91748077 -1.0773231 1.5866888 0.42333147 0.668046 1.6778663 2.0946355 -1.0219564
73 3.2111294 -1.1618047 -2.4079847 0.24733922 -3.323881 -0.30378035 1.7725666 -0.28665233 0.9085658 1.5717103 1.5896556 0.3154725 0.74442387 1.0128328 -0.19219767 -3.1679974
5203 0.7515475 0.009997045 1.3859144 -0.8411235 -1.4792553 0.28619975 2.5858624 -0.8259412 1.1176444 0.59336346 -0.96169025 -0.1114843 -0.10989316 -0.3375915 -0.8938954 0.896581
539 2.0518558 -3.4115052 -0.7044496 -1.0724756 -0.553946 1.5249187 1.4836481 -0.52753013 -0.18413687 0.087510385 -0.04350433 1.5436416 -0.524464 -0.44983414 1.8096317 0.44697258
427 4.1325235 -0.38263115 -1.2162259 -1.4698135 -0.712179 0.8448257 1.4715837 -1.4721016 0.40936673 -0.8060372 1.1296741 1.0394531 0.045202035 -1.3496935 -1.0813553 -1.6479869
5962 0.20207316 1.1243955 0.8795859 1.1324487 -0.6279678 0.4737157 0.8473166 -0.5980205 -0.36256468 0.018020984 0.40784487 0.43751892 -0.7441925 0.8523703 -0.22587071 -0.49165642
21 2.543091 0.035567958 0.475644 -0.86780775 -1.7949431 2.151206 0.9897601 -0.40204927 1.0770078 1.803443 -2.4888523 0.9373182 -0.123821884 1.5906909 2.1238632 0.3959445
564 2.2190828 2.000134 1.0753872 1.8604524 -2.3899415 1.3991771 0.47431552 -3.5392058 1.5588207 0.5086103 0.5401176 1.5589663 0.045494437 -1.3985316 -0.13955344 0.8078503
507 0.2685845 0.17553782 1.9986509 0.06384506 -1.7424437 1.2391431 1.2611276 -2.0449128 -0.19555391 0.83234394 -0.76157403 0.9871983 -1.3874782 1.5715116 0.70195466 0.6153509
878 1.406117 -1.0439068 0.6065831 0.7440306 -0.36482054 -0.9889843 -0.18281122 -2.3438416 0.5010384 -1.563294 1.5597961 0.11176261 0.8674737 1.8539286 2.0225728 -1.2016283
546 1.2945199 -2.6426926 -0.5734803 0.62070775 -1.3283821 0.5518073 1.9378775 0.8253109 -0.017982345 0.28282562 1.4082477 3.0106454 -2.501398 0.7491932 1.511441 0.54073507
4833 0.969766 -1.0737195 0.3423224 0.042415705 -1.2438437 0.18508267 2.8132446 -0.11709695 0.43896002 0.46874192 -0.23630969 -1.4019529 -0.4096742 0.2563956 -0.58532 0.9339026
739 2.8567405 1.0005217 1.3701147 -1.0200467 -2.6578722 -0.8407055 0.32138184 -1.9348224 0.86852014 -2.877846 0.66598463 0.434533 0.3230211 0.27296272 0.7235674 -0.4723321
2610 0.51035607 0.41491687 -1.3851347 -0.18451644 -0.5865122 2.4417346 1.3671362 -1.840795 -0.83516777 -1.4279641 2.1498446 1.0890988 -1.2766515 -1.283865 1.3531276 0.36677763
1038 -1.2445837 0.45311055 0.5097342 0.8351586 -2.099681 -0.11473133 1.8974043 -1.5276357 -0.19413409 0.016252672 -1.1740077 1.0108633 1.3175819 0.5120838 1.019839 -0.28821385
535 0.30216092 0.48030654 2.1194491 0.45111948 -1.6937155 1.4268743 1.4679891 -2.5450833 -0.13768129 0.8923134 -1.0758986 1.213353 -1.7993369 2.0872765 0.6979278 0.7339805
879 2.2112956 -0.18641894 0.4724435 1.8814557 -0.62295127 -0.494816 0.025867581 -2.2235286 0.66791856 -1.5576384 3.3564718 0.015154798 0.6071177 1.2057346 1.207808 -0.741147
831 3.0586061 -2.139983 1.401358 1.6042002 0.23236181 2.7807827 -0.013325616 -2.326529 -0.2929032 -0.69233805 0.9670828 0.68502486 -0.37231058 0.35279343 1.101291 0.57325405
99 1.4330505 -1.5563583 -1.8870335 1.0812081 -1.997093 0.5405883 1.4223591 -1.2574258 0.7981183 1.0262215 -1.4796605 3.8545146 -0.08985153 -0.6875913 1.4545785 -0.5727641
34 1.8580271 0.65703684 0.28093296 -0.97013885 -1.7090847 2.305759 1.1466068 -0.66226304 1.2727039 1.8301691 -2.2839322 0.8840009 0.3120567 1.5771242 2.256101 0.521298
8281 0.28659132 -1.5043275 0.6957854 1.0693972 -0.23786153 0.13969855 2.468334 -0.69390434 0.7398269 -0.60842544 0.09190754 -0.3660813 -0.18806285 -2.0791733 1.5439028 0.4622786
770 2.8166008 -0.7792772 0.3899603 1.9470606 0.44115087 -1.0310645 1.1939121 -0.26126274 3.2282577 -0.86830527 0.56364405 0.6601421 -1.8903992 1.4675896 0.56552756 2.3009682
315 3.81137 0.6397096 -1.5507618 -0.3020763 -5.114611 0.1543903 2.7419796 -1.3111758 0.16146792 2.2041378 0.18933505 -2.015683 -0.46135315 1.3856173 2.0116422 0.5805466
877 0.66559637 -0.69551724 0.596413 1.1251022 -1.0772169 -1.7282441 0.29730123 -2.2458446 0.81566936 -0.7189752 1.0082648 0.6863848 0.4652354 1.1784804 0.6848533 -0.7785923
527 0.46103042 0.54954594 2.1185987 -0.41675967 -2.1186192 1.6614478 1.6229161 -2.686905 -0.17406084 1.2817265 -0.7485953 1.2280234 -1.4998223 1.8880999 0.44055727 0.94617075
681 1.7289397 1.2128437 1.7450317 0.22997682 -0.2915012 0.7636801 0.5876226 -2.8833504 1.5147377 1.8355052 1.330291 -1.4291285 0.3654206 0.9867028 1.4183888 -0.029636392
148 1.0008451 -0.18206058 -0.60594994 1.9923921 0.60998154 -0.23096758 1.051433 -1.8883102 1.0081273 0.86789393 -1.0025446 1.4429662 -2.9574592 1.1425544 2.1707847 0.12414213
65 3.7383435 -1.4919223 -2.924095 0.47407138 -3.4552047 -0.766636 2.2061431 -0.09817049 0.79330033 1.6865559 2.2253468 0.46616045 0.84005153 1.4461488 -0.23107913 -3.7241676
46 3.2544894 0.03277035 0.03652676 0.23077412 -1.1014252 1.0227224 1.6162308 1.1165512 1.4529442 2.1826658 -0.9299945 -0.84467965 1.5371069 1.7202924 2.259602 -1.1383708
418 3.4106581 -0.74611825 -0.53819925 -1.6946092 0.30224705 0.26443875 0.5100624 -1.3111053 0.94779676 -0.2077981 0.97621906 1.3955256 -1.2984252 -0.71101254 0.18120065 -0.9795844
1227 1.5379688 1.2366322 -0.19565354 -0.90557414 1.7698406 0.8405814 1.5338565 -0.7033711 3.5437565 0.36584362 -0.117777035 3.5295372 -0.24665973 1.4231365 0.67758805 -0.10543081
779 1.4250051 -0.022568485 1.1465185 0.53123754 -0.5996781 -1.6863292 1.6064312 -0.7627687 2.5607533 -0.08269252 -0.5325628 0.22039092 -0.54161805 2.2703137 -0.059705753 2.1254487
960 0.823774 -0.7611782 1.4057742 -1.5609975 -0.41619486 -0.15397418 1.1194824 -1.7150371 -0.6551015 -0.76512724 -0.02355302 1.8727225 -0.14985363 0.22031249 0.81719446 -1.1320846
903 0.73575807 -1.1187699 0.3226963 0.75272954 -1.5117611 -2.1499102 0.51785064 -1.3760545 0.40229252 -1.1631043 0.70010644 0.8458922 0.7297911 1.2548898 0.94863313 -0.6923294
1039 -0.40578452 -0.16358845 0.65354705 0.6877332 -2.2555852 -0.65214264 1.7286171 -0.41503292 -0.11534213 -0.4406189 -1.2440515 1.9807955 0.9965581 0.25563014 0.75008297 0.10081583
1969 2.773457 0.2086149 1.3568593 1.5961816 0.05203732 -0.9752023 0.41810554 -0.9947894 -1.0726426 -0.3173869 0.05086861 0.50296456 0.41484258 3.0551903 3.1079197 2.557743
3335 -0.14095202 0.5945229 -0.008357798 -1.5395019 -1.069498 0.0746536 1.1669062 -1.3977488 1.0863385 0.22046377 2.7394304 0.7196347 -0.4841994 1.7363065 0.8494871 -0.18991014
1630 1.3755072 1.6626304 -1.107031 1.9423988 -2.5175445 1.4756473 1.5646076 -0.7388048 0.06071928 0.097237915 1.6616805 1.3618243 2.4432983 0.42216954 0.54650265 2.025552
2989 1.9481491 -1.6218303 -0.96821046 0.16468062 0.40059605 0.7873637 3.215867 -0.49600813 0.27606338 2.842755 -1.4554256 1.9072896 1.6714224 1.7388161 -0.5175411 -0.42531368
38 2.897781 1.5169873 0.68463844 -0.96025527 -2.4656808 1.6878041 1.2544866 0.18555622 1.2874342 2.010411 -2.2899244 1.2521394 -0.22434913 1.33758 2.6678534 0.5373178
819 2.45991 -2.095901 0.837993 1.6003629 0.42165038 2.6965883 0.18060225 -2.2847939 -0.80831575 -0.32558888 1.9987897 1.1529926 -0.7920851 -0.11162156 1.3579663 0.7487882
346 1.3879263 0.0008893541 -0.016223524 -0.654313 -1.3282514 0.5625322 1.3833646 -2.8665683 -0.3933505 -0.826501 -0.3928296 -1.8385394 0.56947875 -0.46174237 2.1170745 -1.2015228
433 2.6547313 -1.1616551 1.0213503 -1.0735111 -0.51394033 0.32553884 0.08390005 -3.3276744 1.800723 1.1876515 0.4332291 1.6043452 -1.3279632 0.42743695 0.29051474 0.33121765
178 0.40494236 -0.038401555 -1.0679426 2.0738192 -0.68824184 0.65579677 -0.08503967 -2.5410776 0.40343383 -0.26204422 1.5752873 1.2412789 0.7866166 -0.22944154 2.3576467 0.45645326
543 2.1784916 -2.89088 -0.9127316 -1.1610217 -0.35008594 1.1964035 1.3706486 -0.40443146 0.63067865 0.5603601 -0.6605762 1.5206218 -0.84766173 -0.16411854 1.9377657 0.08283459
11 1.4423473 1.8563876 1.6118459 -0.8448199 -1.7552867 1.4558331 2.3446681 -1.8345143 -0.3337516 -0.629342 0.49983504 -0.47403795 2.899176 1.6055504 0.35937768 1.241594
915 1.9760692 -0.5557425 0.7224482 1.2656935 -1.0506203 -1.1720715 -0.15506901 -2.096328 0.8850807 -1.1813388 1.8004305 -0.026939277 0.20525186 1.5214244 1.2519803 -0.915438
24 2.7628524 0.39341724 1.7784754 -0.91440046 -1.6056819 2.0945125 1.187471 0.11689414 0.27305907 1.4533877 -2.4152856 1.123372 -0.36307603 1.6473855 2.562238 -0.22979537
4741 1.6304983 -1.640099 -0.7398657 0.33642262 -0.80644983 0.90205455 2.6134994 -0.6158806 1.7399998 0.7820972 -0.9558938 -1.4359016 -0.29017973 0.5594826 -0.4696004 1.2876117
5801 0.3154509 0.31828368 1.4325503 2.0099168 -0.34446156 0.9476039 1.7646776 -0.454626 -1.7258617 -0.21553925 0.021032812 0.106885836 -1.3030386 0.19950901 0.7299986 -1.5745705
52 3.6048272 -0.0881451 -0.056608718 0.5256562 -1.4377422 1.5292786 1.7700588 0.9884149 1.6336458 2.3079455 -1.142772 -0.9664553 1.2733186 1.8772964 2.3748922 -1.1978469
639 1.4226061 0.24846895 0.62278783 0.857426 -2.5871284 -1.3864671 3.498067 -0.88320124 0.9262063 -1.9655402 1.5422221 -1.7755615 -0.8577569 0.5293893 0.40514797 0.75332606
526 0.40755117 0.17543411 1.9615595 0.60335416 -2.2944193 1.6430361 1.427077 -2.7456367 0.12161269 0.85302126 -0.8113933 1.3009644 -1.9966995 1.9979403 0.3246597 0.95178944
343 -1.0224472 -2.9017448 1.120708 1.3737445 -2.5355601 0.33526298 3.1875854 -2.3538187 -1.7194568 -1.3023114 0.19322434 -0.5965053 3.0987 1.0630864 4.223445 1.6718228
2250 1.9229586 1.2797955 -1.9949905 0.31197187 -2.588104 0.51638037 1.475327 -0.0807531 0.69151264 1.1915584 0.2560202 0.33264068 -0.4882831 -0.87853324 2.0287998 -0.8241596
1211 1.3132572 0.38086852 -0.85739577 -0.7255021 1.9231722 1.5143136 1.805578 -1.7170289 2.2278621 0.3234995 -0.00016744735 3.4026706 0.5165341 1.5165468 0.42422283 0.5544676
55 3.4696805 -0.2800588 -0.021183433 0.36913267 -1.463295 1.4987369 1.8227789 1.1311669 1.7116337 1.9329035 -1.124984 -1.1156697 1.1610492 1.9044294 2.3257647 -0.8643425
336 -0.28126323 -2.9820943 1.3554187 1.5047421 -3.547315 0.1538894 3.0873137 -2.5789933 -1.3833363 -1.029181 0.23423772 -1.1269919 3.097381 0.9570836 3.2727416 1.9778197
211 0.3680014 0.2328969 -1.6746892 0.7648701 1.5686368 -1.1678118 1.5211374 -1.138724 -0.03724994 1.4382353 1.4007955 0.7179387 0.0809853 2.411511 4.1473026 -1.2858118
6263 0.7859273 0.87061185 1.4600846 1.9648607 -0.75215673 0.60796225 2.297591 -0.2477985 -1.6642858 -0.4922328 -0.24236625 0.7850325 -1.4899359 0.21512964 0.008205494 -2.1945767
26 2.0860467 0.36469126 2.2493126 -0.8005717 -1.6065241 2.627873 1.0626522 -1.0490024 0.7584923 1.8665571 -2.5810149 1.2144381 0.22143604 1.1684535 2.555019 0.28150922
403 3.8434265 -1.2135019 -1.4874635 -1.5067502 -0.46489027 -0.07865593 0.8079446 -0.813776 0.8442041 -1.1664685 0.8027234 1.4283583 -1.6620505 -0.7375059 0.3963032 -1.6997981
853 4.2359114 -2.7028477 0.88691944 2.0644596 -0.102111526 2.7093325 0.14340478 -1.2500929 -0.27649376 -1.189938 1.2535995 0.93961734 -0.23370732 -0.11901594 1.3232754 -0.88328457
1100 2.8266652 0.1321762 -0.6247918 -0.081321344 -0.076885715 -0.26398382 1.282423 -0.9364757 -2.4678288 0.18592386 1.4422058 -0.85382277 1.1793735 0.714328 1.6820405 0.06537471
5165 1.5368915 -0.5154535 -0.5802562 0.28082561 -1.1039407 0.49914092 2.561023 -0.5109843 1.8064239 0.91461736 -1.515302 -0.75766855 -0.39832756 0.76121926 -0.6575082 1.317622
941 0.18037663 -0.33325848 1.3784189 -1.6654096 -0.19946888 -0.41054547 1.559427 -1.5002208 -0.7627547 -0.83072793 -0.42551702 2.1001925 0.10120746 0.52032506 1.2359717 -0.7018114
800 2.4360688 0.51413727 -0.04539921 1.9530832 0.13065204 -1.6926626 0.99623334 -0.67519844 2.7856624 -0.85837245 1.2277819 0.5664229 -0.7941698 2.1142697 0.06520438 1.6544433
218 0.8116523 -1.4080645 -0.93219906 -0.33185583 1.1243706 -0.26874056 0.80649614 -0.57332885 0.8431347 1.0367972 0.8163028 0.41713324 0.48429462 1.4730407 2.5392725 -1.3769853
674 1.6949462 0.9499044 1.7156407 0.662469 -0.42608124 0.88867795 0.75377136 -3.023445 1.665933 2.1513538 1.5283643 -1.6142848 0.66395855 1.3699402 1.6977715 0.15130623
3473 0.6862725 0.31266803 0.3947933 -0.73145664 -1.4547403 -0.510055 0.44311717 -0.7787519 -0.3935085 0.14948817 1.696408 0.5188881 -0.4324265 0.40169838 0.3221936 -0.061498247
221 0.7657506 -0.9344408 -1.1419145 0.10032946 1.4770116 -0.3659673 1.0726191 -0.3798658 0.46024963 1.0252398 1.2138382 0.40541375 0.26880863 1.7580323 3.0796328 -0.9257709
1136 3.7628574 0.7906599 -1.0328774 -0.2508095 0.61327904 0.020191632 1.9980842 0.22540528 -2.1989937 0.10683214 1.4127814 -0.8956828 0.23251297 1.1721982 1.3819125 0.84439105
216 0.92487377 -1.4420149 -0.7094514 -0.3177658 0.94613284 -0.04036126 0.6347635 -0.7149529 0.5420522 1.2719765 1.0825797 0.54992265 0.15676321 1.3897003 2.674014 -1.1958148
112 2.39356 -2.6011016 -1.7002927 1.1164856 0.06359312 1.6149814 0.9697136 -0.92396617 2.1543386 0.76072705 0.27506226 0.88581824 -0.82183784 1.5940416 -0.07821925 0.021101052
1169 3.9349577 0.53042674 -0.631225 -0.09139709 0.77521425 -0.39760867 1.4611988 -0.117129005 -2.4800131 -0.13352177 1.3402224 -0.8494253 0.72482103 1.478447 2.0919547 0.1944719
1237 1.5095658 1.4555485 -0.072353564 -0.8902398 2.068172 1.1812053 1.7164834 -0.84711474 2.3181334 0.4930577 -0.09398833 3.4063435 0.71739084 1.482243 0.1983718 -0.06858361
397 1.9652585 -1.1270983 -1.1882652 0.23394008 -0.38889796 0.89479166 0.2742656 -1.0557555 -0.21258208 -0.5402908 1.0105671 -0.32066175 -0.49667007 0.15785445 0.5522812 -1.1484714
1142 4.5023875 0.42303374 -1.0007682 -0.12217854 -0.47654924 0.08747169 2.6041424 -0.22417444 -3.4166129 0.5473361 1.4294668 -1.572847 0.7312316 0.9995404 1.9258806 0.07534222
370 2.0193617 -0.17329057 -0.74272203 -0.29967675 -0.9731297 2.039429 1.6952881 -2.1660209 -0.6213145 -0.39647973 0.72429883 -1.4983913 0.5095643 -0.9975696 0.78454906 -0.3897685
2437 0.50664556 1.1650019 -0.9400592 0.5885339 -1.0821838 1.9549198 0.5489781 -0.9128057 -0.40430406 -0.66154265 1.2230948 1.0111766 -0.825522 -0.4558471 1.8036364 1.1903558
3854 2.4702594 -0.05499962 -1.4378097 -2.0642142 -2.970179 -2.296456 2.0376759 -1.3380423 -0.15393206 0.3204062 -0.7871926 2.5890281 -1.2387276 -0.14922185 0.7741001 -0.8412273
4909 2.088547 0.43304735 0.38397792 0.57564354 -2.0550344 0.075109825 3.533499 1.2367277 0.96404904 0.20451978 0.52646804 -1.6365786 -0.4485394 -0.40121248 0.5623443 2.2442758
363 1.4643942 -2.6713376 -1.1309633 0.15721144 -0.7397861 -0.3610704 1.7304196 -6.5853953 1.0026325 -1.9005651 -1.2091612 -2.0858755 0.25369456 0.71772045 3.3530214 -1.361592
4791 2.2586403 0.712483 0.08588429 0.5509502 -2.1514146 0.23943049 3.4892044 1.3510299 0.8912373 0.31638557 0.6775106 -1.6517556 -0.25865015 -0.009310465 0.72957027 2.440715
1664 1.862368 -0.5416664 -0.18967703 1.3533708 -1.3718795 0.62459713 0.950256 -0.09545889 -0.40155798 1.0431795 0.7654023 0.8549569 1.2410438 -0.2573513 -0.054332316 0.75053704
805 3.2407813 -1.3788421 0.49364346 1.831107 -0.1683807 -0.803996 0.6010474 0.15857486 1.9013641 -1.8251454 0.22335626 0.9857034 -1.4334431 1.7297026 0.16764206 1.149297
734 2.5801373 1.2005883 1.0374634 -0.45290467 -2.2640224 -0.8665355 0.01968319 -1.9436038 0.7630036 -2.3377643 0.96881664 0.9701138 -0.65970767 -0.27441257 0.45557764 -0.50445616
4620 2.5769074 0.46667966 -0.26702502 0.41933197 -2.3223262 0.9690557 3.7690194 1.321423 0.9018183 0.13305451 0.85968333 -1.7536974 0.77034557 0.6462551 1.1100392 3.3394845
1015 -1.0434068 0.4107081 0.5557263 0.7199525 -3.8828864 -1.3286555 4.772245 -0.3325434 -0.5172772 -0.3946377 -1.8163838 3.0804307 0.63515365 1.0150353 1.4270809 1.9593946
438 2.7952554 -0.56671304 0.547057 -0.87479943 -0.043278225 0.1286206 0.010302522 -2.1550562 1.2725666 0.24285275 0.7480286 0.9873834 -1.2610666 0.14196956 0.15518734 -0.30084634
791 1.9064701 0.40589586 1.0824939 0.7170819 -0.44742027 -1.8488816 1.3485297 -0.83944225 2.424438 0.20234506 -0.49694037 0.0969844 -0.56042594 1.9863228 -0.19227721 1.6288987
1224 1.4831964 1.0872955 -0.6222292 -0.712605 1.9675943 0.6927509 1.1198033 -0.6718443 3.0771258 1.1720091 -0.13308358 2.954814 -0.16646552 1.571443 1.2871652 -0.34021008
512 0.56625295 0.252531 1.7366563 -0.14513338 -1.9581354 1.3893247 1.6254038 -2.731534 0.2081708 1.0569276 -1.3681045 0.27926403 -1.8270285 2.210083 0.5337361 0.6839174
82 2.0979438 -0.49793372 -1.4348093 -1.2865396 -1.9308791 -0.91872317 1.5579115 -2.29521 1.2410772 0.17109196 -0.33850425 5.2515607 -0.09154475 -0.9861956 0.25049418 -2.8656275
824 1.9029722 -1.2415663 1.2507384 0.88929987 -0.10586284 3.0342448 -0.0671498 -2.0775652 -0.17049174 0.14283338 1.3050476 0.46266618 0.035260066 0.11638174 1.3151928 0.33932382
3289 0.95167935 -0.8862974 0.47133514 -0.7613032 -1.5975199 -0.9505936 0.57919437 -0.22937015 0.09399823 -0.50715256 1.5827283 -0.1368766 0.17181948 0.86250937 0.71170014 -0.5766216
212 0.58643043 -0.3985242 -1.8710378 0.75118685 1.8270816 -0.5544681 1.6050466 -1.0903469 0.15535852 1.2140001 1.256677 0.7702316 1.0972066 2.7930477 4.0762463 -0.83084506
984 0.8091444 -0.71670955 1.5954995 -1.234446 -0.23340988 -0.028034316 1.1963757 -1.6199946 -0.6458504 -0.4670889 -0.2734465 1.7941921 -0.08242018 0.1452134 0.4735404 -1.401652
637 1.7083191 -0.74958086 1.2959251 1.3918438 -3.0639544 -2.0244794 4.256082 -2.0916853 -0.78210086 -3.6286275 2.4656553 0.99752414 -0.14772405 -1.5529504 -0.3102448 0.31008017
738 2.4082243 0.838986 1.0715377 -0.25082853 -2.1086185 -0.43824095 -0.050813727 -1.976509 1.1579255 -2.0782044 0.82270515 0.26445657 -0.43407938 -0.06630239 0.5967669 0.1695426
934 0.96298885 -0.8326658 0.5110284 0.27094585 -0.8804498 -2.0324347 0.36439794 -1.3250519 0.7707784 -2.2413597 1.2218382 0.29826906 0.79112643 2.415041 2.0406287 -1.1467822
1590 1.651109 -0.084392115 -1.0767791 1.4221659 -0.6205151 1.1781262 1.0678629 -1.087709 -0.48409697 0.6796352 1.9280314 1.0294783 0.9144016 0.2459099 -0.30700403 1.3007507
1020 -0.70157087 -0.010887742 -0.11912425 0.884167 -2.8143206 -0.008327145 2.0193954 -0.42846403 0.7561714 -0.29792014 -1.503859 1.8102946 2.697045 0.4394111 1.3342159 -1.5699834
227 1.5565661 -2.0136628 -0.558046 -0.7652725 0.77131814 -0.14162144 1.1017454 -0.4776991 0.20100802 1.6237183 0.8666172 0.6810388 0.5029478 1.2990743 3.1200309 -1.6743327
1086 -1.0232786 0.1471005 1.3263457 0.98682296 -2.537641 -1.0518188 2.2237115 -2.1974285 -1.0530304 -0.024702819 -0.7611991 1.0019542 1.4596001 0.529885 1.1419808 -0.8600427
125 2.8326757 -1.9617678 -1.8951421 0.84239024 0.17149636 1.3879298 1.0160888 -1.004564 2.8489602 1.2745315 -0.12259018 0.9758976 -0.66847044 1.5202744 0.28927502 0.07471892
122 2.8367147 -1.9548162 -1.7736669 0.93752867 0.049272228 1.4911402 0.8072338 -0.9106572 2.694707 0.9767976 -0.045860633 1.0397124 -0.42734772 1.4619327 0.1315672 0.2048998
896 0.76357085 -0.85103786 0.350079 0.7595549 -1.8872584 -2.2766683 0.66748405 -1.0573776 0.5802162 -1.3475062 0.65152276 1.2071851 0.4791955 0.866536 0.9163629 -0.7750964
882 3.2696404 -0.3472075 -0.033802878 1.5212234 -1.2775977 0.263342 -0.36336702 -3.0600352 0.76131696 -1.7012224 3.632781 -0.6075708 0.83306664 0.8529712 1.5179945 -1.4371959
823 2.255902 -2.4620717 0.030116184 1.6170021 0.541138 1.918938 0.27884296 -1.7033657 -0.5398831 -0.019810596 1.1013874 0.3905266 -0.64955616 0.11960522 1.4108238 -0.3921764
756 4.039888 0.50090426 0.38936353 1.7342395 0.09325874 -1.1377017 1.2149812 0.31676516 3.2480767 -1.2425258 0.4940538 1.3723942 -1.114746 2.3408237 -0.01881388 1.481117
787 2.234797 0.49842945 1.0278914 1.1288681 -0.20791604 -1.6282821 1.1578407 -0.59123325 2.7674446 -0.1589469 -0.052393325 0.66882026 -1.018996 2.071712 -0.00956881 1.7175069
108 1.9320132 -2.7652836 -1.273036 1.5779436 -0.89115834 1.4373255 0.72045547 -2.6781254 1.5661762 0.16327834 -0.11397265 2.7140877 -0.6391668 -0.85332334 0.16181116 -0.9228101
411 3.7241077 -1.5995983 -1.5298672 -1.4327037 -0.42060632 0.07919128 0.6449501 -0.7811798 0.60399616 -0.88188255 1.0298076 1.3084053 -1.7841386 -0.04330446 0.16052853 -1.4344269
330 -0.42038906 -1.8162527 0.70611614 0.3860393 -2.4064777 -0.90005267 1.9909613 -2.8417084 -1.0782448 -0.077169664 0.7335899 0.9820576 1.2769885 -0.44027302 1.8226204 -1.2538108
181 0.6275282 -0.07606826 -1.2586074 2.3065503 -0.98421913 1.0544562 -0.16982259 -2.5111382 0.6072373 -0.15974051 2.3536315 1.6931975 1.0624204 -0.67097205 2.324742 0.55171776
732 2.489777 1.7184113 1.1633627 -0.97685045 -2.603468 -0.70054704 0.1265305 -1.7887324 1.1427869 -2.3542762 0.78179675 1.2277497 -0.40147993 0.16788606 0.9957117 -0.2993917
907 0.8824465 -1.2297972 0.6534559 1.8386576 -1.0876172 -1.5720886 0.46806183 -3.0197303 1.008797 -0.1759015 0.65038925 0.7585928 0.55923283 1.245265 0.27286455 -0.5184637
249 2.8275423 -0.91696405 -1.3243846 0.59626627 -0.56676024 -1.3045405 1.4685192 -1.7082329 -0.4040895 1.7575299 -1.81108 0.32740352 -2.1905775 1.3243982 2.1182895 -1.9500124
632 1.5731685 0.5306462 0.6975787 0.64735806 -2.7340436 -0.9963542 4.708254 0.120821364 0.41891387 -2.034823 1.5317793 -2.2012079 -0.40529263 0.009598114 0.60368013 1.4741087
993 0.47661465 -0.37393066 1.3002486 -1.589509 -0.18672214 0.32213593 1.4948318 -1.2381265 -0.07886946 -0.5843292 -0.6840107 3.0133514 0.30367413 0.38602892 1.2514864 -0.8233083
445 2.1724627 -0.814628 0.79786664 -0.97077245 -0.57402176 0.28319144 0.19117023 -2.9767094 1.3984499 0.8162327 0.6454017 1.3592976 -1.1214701 0.07230877 0.28493437 0.36342064
253 3.0415776 -0.83945507 -1.2747616 0.90310216 -0.69798666 -1.5689192 1.3534623 -1.6087719 -0.09430301 1.5285108 -1.8955979 0.3331147 -2.109386 1.3778799 2.1856952 -2.0022562
340 -0.10060569 -2.048566 0.27912393 0.4897535 -2.530605 -1.3319136 1.6270162 -2.610919 -0.44026345 -0.5902946 0.8889629 1.089784 1.4613662 -0.74403757 1.460165 -1.9562422
802 1.4989339 0.016703699 1.1490573 0.9691705 -0.69055957 -1.5703185 1.7780577 -0.26379755 2.916726 -0.0730206 -0.3734412 0.34292653 -0.5413961 1.7759639 -0.38795868 1.6880813
912 1.8018041 -1.2406471 0.31207058 1.4388915 -0.95137775 -1.0915196 0.10724532 -2.888163 1.2077265 -0.67423624 1.126012 0.33665583 0.6335912 0.93456805 0.30280027 -0.8126772
94 1.0956982 -1.322385 -1.6034471 0.8951696 -1.7753216 0.675109 1.0971172 -1.3886201 0.7911589 0.7773376 -1.3094792 3.444126 0.110809185 -0.7049632 1.1834573 -0.6950287
1804 1.1625292 -0.062032837 -0.6005645 2.0593967 -1.9139955 1.399732 0.9934034 -1.9080464 2.947612 0.8053189 0.17146888 1.1556075 -1.7298619 1.6539137 -0.5832881 -1.6779127
324 0.07233047 -2.7781947 1.6760026 0.9917826 -3.4311023 0.2039667 2.2775512 -2.4493446 -1.2802641 -1.59551 -0.27374855 -0.43417567 2.9168274 0.5898533 3.6200547 1.7281618
1067 -1.0148406 0.15060666 1.5757167 0.94838303 -2.8118923 -1.5904151 1.982493 -1.8808255 -0.7255057 -0.43361694 -0.45190683 1.6632233 1.0446031 0.13048857 1.3772107 -0.6855201
1591 1.8874916 -0.23938073 -0.6845651 1.7018443 -0.3131055 -0.11526827 0.9995957 -1.089189 -0.606907 0.30814683 1.6437125 1.2810897 1.7919945 0.8704161 -0.72446465 1.0812092
968 0.5610371 -0.2117226 1.7680371 -1.8609982 -0.8850722 -0.41470245 1.685809 -1.5755978 -0.56410336 -0.4004829 -0.68807024 2.535444 -0.48414606 0.32432994 1.0903368 -0.9674879
1660 2.5312455 1.0100114 -0.5695618 1.7938951 -1.0616201 0.8645209 0.9707587 -0.064387426 -0.6598415 0.59362024 1.6134552 1.0988394 1.6831993 0.06536225 -0.1824362 1.252478
1203 1.2524357 0.70283914 0.051989824 -0.3461636 1.5503771 0.45151877 0.8929485 -0.71440333 2.5611022 0.5014123 -0.26571283 3.32305 0.28636348 1.8049495 1.1793978 -0.25712648
151 0.61007106 0.95537853 0.66379726 0.024719765 2.2809072 -0.24588461 1.0482405 -4.5711503 0.6527676 0.7613815 -0.13841528 0.7633879 -2.8300989 1.0811186 1.7264084 -1.3473258
3430 1.1841257 -2.3915706 1.9660116 -0.66539925 -1.7406423 -0.12079022 1.5435462 0.43799254 0.6214599 -0.5855289 2.6371233 0.25233048 -0.2717956 1.0007758 0.62009174 0.80571145
153 0.43097934 -0.0063115433 -0.23357517 1.1523656 -0.030829638 0.073762864 0.4708129 -1.2605586 0.6645019 0.43193802 -1.0369614 0.87065256 -1.11133 1.3397229 1.8025563 0.6395275
2159 2.422956 1.0751467 -0.988502 -0.148368 -1.5649438 0.9782982 0.7478866 0.6729011 -0.59776974 0.43317795 0.5097494 0.7707381 0.40225288 -0.72085667 1.0522454 -0.03149433
1062 -0.4051152 0.37698555 0.74932015 0.20974597 -4.8817744 -1.7337531 3.804269 -0.62148607 0.1444345 -1.2304502 -2.0294273 2.44276 0.6341797 0.31637055 1.6067151 1.6042796
1461 2.0483863 -0.9088852 -0.76606405 2.0294166 0.018891009 1.3246161 0.13099948 0.2925282 0.20913336 0.3422086 1.576977 0.87051576 1.4978985 1.7037407 1.3601146 -0.3892257
416 4.2092338 -0.96332276 -0.7492084 -1.6046461 -0.20160905 0.22339681 0.6299554 -1.4098098 1.3541733 -0.8733928 1.0847049 1.5486772 -1.4786896 -0.80994827 -0.33915174 -1.1059656
542 1.8154944 -3.4546556 -0.9430219 -0.378621 -1.3896148 1.6114725 1.7454392 -0.2726402 1.2737756 0.54335696 -0.8001003 2.6373188 -0.9836438 0.37507883 2.6096566 0.55084646
355 1.5749687 -3.3617222 -1.5790129 0.54172915 -2.6844172 -1.0353466 2.0813658 -8.702844 0.57670236 -1.9175434 -1.0325048 -2.6793985 -0.85051227 0.7484147 5.579594 -1.1789362
146 -0.43620977 0.5232482 0.42625305 0.18865356 1.9187098 -0.31380957 2.4626818 -4.309984 0.12038732 1.6959598 -0.9822855 2.9550905 -3.3551893 0.6783416 1.8747818 -1.2714783
1559 3.4285228 -0.9580072 0.20535082 1.4240884 -0.11340371 0.93335503 1.1326321 0.37186188 -0.85431284 0.08534365 2.2074976 1.2116002 1.6918457 1.2480555 -0.059645984 2.144608
7566 0.6277228 -1.2333902 0.21179412 -0.57935643 0.72697717 0.39943653 3.0667608 0.09567157 0.46563736 -0.3752892 -0.33156213 -0.19449365 -0.26118416 -1.429583 1.0255352 1.1808687
372 2.4469764 -0.7008878 -1.2346855 -0.8328543 -2.050727 0.42899004 1.2035242 -2.8846948 0.28716403 -1.6396855 0.26964676 -1.4203975 -0.16490032 -0.9136371 1.2827246 -0.33437398
368 2.4444854 -0.55224234 -1.0682865 -0.99737245 -2.0877252 0.86944884 1.7775108 -2.8482301 -0.0027103878 -1.40786 -0.0758688 -1.9134246 0.04419218 -1.019071 1.223038 0.15198961
223 0.8765238 -1.4975129 -0.8348119 -0.46793565 1.4980584 -0.13238114 1.0602726 -0.63441825 0.5921256 1.0457858 1.0610495 0.5653203 0.3675795 1.7174127 2.9337313 -0.98307
354 1.9445561 -0.28149906 -0.73583347 -1.2627693 -1.2653767 2.5598989 1.1859356 -4.137785 0.0043466454 -0.5035836 0.2907243 -1.6712846 0.03833853 0.38111573 3.4859066 -1.267067
175 -0.21271504 0.03875999 -0.08299718 0.7030864 -0.7487293 -0.08279604 -0.012445558 -1.5769737 0.5986054 0.067803316 0.18127917 0.8157592 0.22973697 0.4584399 2.2178247 0.13344292
417 4.048428 -0.997536 0.109514095 -1.8332022 -0.38838223 -0.1107389 0.45574078 -2.5186715 1.48364 -0.09358901 0.8568289 1.2377695 -1.5705024 -0.12338955 -0.037170313 -0.49054527
957 0.9595648 -0.6422875 1.942205 -1.6394068 -0.6914334 0.37635678 1.1254154 -2.0599213 -0.6518286 -0.758875 -0.55016583 2.3111484 0.12052544 0.4065311 1.4543679 -1.230909
827 2.6346967 -1.282926 1.6392835 0.8884537 -0.36982965 2.8141367 -0.13574752 -1.8939924 -0.19975524 -0.22139595 1.3690481 0.7942381 -0.14471833 0.12082801 1.0571065 0.22345579
130 4.136893 -1.9113036 -0.9703161 1.1292193 0.47420982 1.3992332 0.118474305 -0.71173704 2.6133633 0.79063517 0.62038577 0.7223392 -0.9252878 1.4002773 0.8322323 0.018506115
603 2.9198613 1.7755284 -0.07603432 -0.37920994 -0.8522608 -0.64177334 0.4178824 0.38534838 0.83189285 -1.1522332 1.1038972 0.6306355 0.5151252 2.4508758 1.2841172 -1.1997668
569 2.0649614 2.2710943 0.38296694 2.1907873 -1.8900003 1.5625821 0.3821383 -3.6556206 1.712688 0.39675593 0.67259663 0.80219495 0.17923707 -0.9419944 0.052304573 0.7608067
655 0.5046055 -0.951479 0.900287 0.1148977 -3.0695043 -1.7394769 4.2567725 -0.8543421 1.2216238 -2.319164 0.8127441 -2.006582 -0.61889523 1.0293015 1.0051923 0.03463473
383 2.3884335 -0.26978582 -1.818206 -0.108123384 -0.80043304 2.227189 1.0782188 -1.4371796 -0.33403963 -0.15448737 1.8529884 -1.2996086 -0.018649 -0.12527972 0.65039843 -0.70993435
1997 2.5201046 -0.31489468 1.1640617 0.91303533 0.2594819 -0.09101174 0.8008927 0.44336405 -0.47429726 0.19991711 0.26310074 0.85488695 0.62962455 1.0310977 1.9689037 2.9095728
538 1.5733612 -2.837665 -0.791583 -1.6952757 -0.16251321 0.8837796 1.7608472 -0.78978354 1.2664089 0.5184598 -1.4583627 1.4760959 -0.8084569 0.3560586 2.6860082 0.6864961
740 2.642915 0.34221175 1.5282866 -1.0250096 -2.6547844 -0.008744862 -0.27499786 -2.3427565 0.48068267 -2.0244133 0.019644666 0.7470813 0.46640548 -0.10080098 1.6514156 -0.21585266
37 1.9092753 0.59288 0.46132997 -0.7252392 -1.3891677 2.3573296 0.9781551 -0.451742 0.7821821 1.877823 -2.1461573 0.84336984 -0.23382413 1.5775738 2.136578 0.3148332
722 2.8269596 0.5975686 1.4095796 -0.68131995 -2.5857692 0.22256003 -0.6168237 -2.824019 0.77846026 -1.9075172 0.35901716 0.7161849 1.0727974 0.07987807 2.3502219 -0.6058994
4528 1.9362772 -0.8441048 -2.081188 -1.3533478 -0.6718396 0.31513438 0.8541067 -1.7743698 -0.7637808 -1.171629 -0.61013067 1.4208777 0.012304961 0.9163186 0.5221583 -0.2894137
100 1.8476326 -1.1803473 -1.9843504 1.1642556 -2.3475287 -0.37433618 1.8345548 -1.1219621 0.84056324 0.8914191 -1.4023734 4.246133 -0.4370281 -1.4797844 1.5572795 -0.76131916
590 2.016388 1.7079419 0.21816856 2.5019329 -2.300923 1.6278126 0.37781832 -3.377142 1.8996125 0.3308536 0.75243175 1.1603485 -0.039755665 -1.3816751 0.061388124 0.7081904
5965 0.55907434 0.676136 1.9451336 0.51995665 0.11633187 0.47208318 0.9915387 -0.4424254 -0.31455505 -0.17768547 0.18376075 0.46436402 -0.7959927 0.9594947 -0.056156978 -0.2562608
570 1.9575038 0.94777066 0.424925 1.8778126 -1.7841117 1.609201 0.4069072 -3.373769 1.8115972 -0.04797267 0.76396596 1.0979224 0.004105257 -1.0483632 -0.49048674 0.7529967
1081 -1.6467263 0.21937746 1.2203901 1.7650391 -2.4837506 -0.030200358 2.0659733 -2.577353 -0.4242924 -0.72944146 -1.485754 1.7212533 1.7142707 0.6716583 1.4265738 -0.36326453
1394 1.0730367 -0.54196626 -1.3610361 1.5894891 0.042895038 0.3408332 0.18996242 -0.15401405 0.53465664 -0.3537611 1.7576857 1.2122885 1.3894894 1.2198087 1.2672138 -0.5951986
40 2.3580165 -0.003978325 0.25181422 -0.13618374 -0.81318784 1.5118026 1.376571 0.3157726 1.0223155 1.788747 -1.729129 -0.3637997 0.9125053 1.5283016 1.9485264 -0.5730969
615 4.44274 2.7031076 -1.4852346 -0.21647699 -1.9560945 -0.8848775 1.3557107 -0.8269598 -0.73819 1.279126 1.4943006 -0.07866317 0.79189414 1.5581715 -0.731446 -2.3624692
609 4.148683 2.9828393 -1.0684388 -0.68659675 -2.0018797 -1.0520996 1.3513956 -1.3399533 -0.99253356 0.9983788 1.6000272 0.57113266 0.90655553 1.0880195 -0.56801516 -2.7605562
4080 2.0956044 -0.83370507 -1.4906543 -1.9655619 -2.4327056 -2.0149477 1.3890152 -1.7645675 0.4071394 -1.3670788 -1.3598554 1.7193662 -0.8307366 0.43771613 0.8880418 -1.5488418
3511 1.5100654 -0.7421658 1.0836015 -0.44816536 -1.3598673 -0.75468653 0.83863795 0.24306872 -0.100835614 -0.99913925 2.8315706 -0.17261164 1.0345298 0.65144014 1.0511005 0.46260324
4330 2.5782037 -0.124666445 -1.3008164 -1.9523716 -2.602107 -2.2252219 1.6581393 -1.598918 -0.2706124 -0.35738412 -1.5488262 3.0467892 -0.5266379 0.41943195 0.8079635 -1.2046177
708 2.4435384 1.9466405 2.0911884 0.04891544 -0.46750364 0.83697957 0.48806098 -3.626188 1.3621908 2.2280357 1.6785635 -1.256287 0.49592042 1.1215591 1.7384008 0.20511986
35 2.1247706 0.4001786 1.4809542 -1.4441586 -1.5118366 2.271766 1.7106974 -0.3738434 -0.08554181 1.94535 -2.4145265 0.9522058 -0.14137629 1.3394479 2.7856627 0.6516684
4544 1.8178056 0.35111824 -1.6000869 -0.9847973 -0.0029861783 -0.3986693 0.7372267 -1.7618853 -0.019910444 -0.9030333 -0.95421803 2.2978013 0.3155683 0.9156935 -0.2473799 -1.6173518
320 2.123682 2.1964142 -1.3371416 -0.4427551 -4.514969 0.104931876 2.8907 -1.5936413 -0.6043088 2.09538 -0.3070448 -1.1084915 -0.51918226 1.4568605 1.6749382 0.44688275
264 2.6626425 -0.95176286 -0.3509441 1.9029199 -0.80625594 -2.3190875 1.3957736 -1.493209 -1.1475539 1.0504566 -1.2201728 0.68066204 -2.3410373 1.328142 2.7265515 -1.5616083
4701 1.323944 -1.2118263 0.2296822 -0.3056572 -0.046617296 0.96308404 3.0443447 -0.9582036 2.0305908 0.7888346 -1.5424057 -0.5561268 -1.1700617 1.1098887 -1.2437938 0.8893838
420 4.018158 -0.93193763 -1.1286367 -1.3852077 -0.095055416 0.72692186 0.9057425 -1.4188033 0.82426167 -0.73985815 1.2732829 1.3208452 -1.1745822 -1.2839152 -0.49072555 -0.7530823
23 2.6150308 0.20930544 0.30952933 -0.7213406 -2.0953004 2.2359684 0.918975 -0.08704229 1.3184232 2.0425034 -2.1560822 0.92285633 -0.32230932 1.722087 2.3161166 0.30963793
4310 1.6675099 0.86463237 -2.1168582 -1.0773492 0.025339844 -0.0591308 0.5537848 -2.0709016 0.19233711 -0.49944976 -0.8855833 2.2326198 -0.032466102 1.1097316 0.15203622 -1.4026623
376 1.7012491 0.23350768 -0.24946673 -1.045801 -0.7693857 2.0690844 1.0444216 -1.4029481 0.33760962 -0.5085916 -0.5651783 -1.2308334 1.0911285 0.23850855 1.3637185 -1.5270443
4688 0.11347551 -1.065562 0.991173 -1.2400441 -1.2914405 0.112832285 2.810724 -1.6592132 0.9452073 0.9487048 0.44410047 -0.49789616 0.5022883 -0.033521943 -1.3452989 -0.22599141
77 1.6395829 -0.20823802 -1.5577109 -0.7029612 -1.9309812 -1.0829957 1.6486459 -2.3127685 1.4190956 -0.078396864 -0.5006295 5.9555655 -0.36564976 -1.3213137 0.7113518 -2.324584
711 2.7299283 1.5609406 1.4746974 0.016554518 -1.7947731 -0.27386847 -0.007903772 -2.2251627 1.173944 -2.7703595 1.3662696 0.4652095 -0.5311662 0.17923783 1.1892945 0.47594094
596 4.4261503 2.0602682 0.058168575 -1.237202 -1.0552267 -1.9554228 1.3491837 -0.28793123 1.2136867 -1.3750614 0.59457237 -0.34952503 0.5428448 2.9558272 1.0085329 -1.900325
332 0.07003466 -2.5438793 0.30731362 0.33263114 -2.0378845 -1.0105654 1.8571525 -2.7260206 -0.6867745 -0.39761385 1.177856 1.424377 1.0554342 -0.81575406 0.938408 -1.0134999
1073 -1.05783 0.5111103 1.4226685 0.77559185 -2.4158566 -1.52022 2.2428217 -2.0193253 -1.0736892 -0.73507655 -0.5841256 1.7687752 0.9289715 0.45665938 1.0839154 -0.11805562
2403 2.6504488 1.2902452 -1.3965534 0.004983999 -1.0255846 0.9190347 0.8923209 0.48460606 -0.5998979 0.59309036 1.0400355 -0.013037884 0.14600553 -0.65608174 1.1451544 -0.14137466
560 1.8019224 -2.7306666 -0.65575975 -0.80087495 -0.5887109 1.2887259 1.2986081 -0.7344061 0.0876711 0.5196241 -0.7157856 1.2811793 -0.61399126 -0.010645548 1.9527473 0.8106812
1094 -0.26773626 -1.0408312 0.87092584 2.156412 -2.485063 -0.84348154 2.0419428 -1.4840808 0.31436622 -1.5763277 -2.7214477 2.2315476 2.520432 1.1125324 0.98203903 -1.094074
1089 -0.28943965 -0.71048886 0.48244387 1.3158115 -2.5342643 -0.80803776 2.3823864 -0.13893728 0.16660558 -2.0531452 -1.1698569 1.9587852 2.8868217 0.46432197 0.7524285 -1.4513718
979 0.42005238 -0.26544476 0.9346652 -1.0222723 -0.2527001 -0.38753226 1.0541294 -1.279914 -0.5162875 -0.42220056 -0.49399123 2.213378 0.3034586 -0.13316153 1.2491704 -0.6900716
341 1.0648717 -3.0711424 0.48150003 0.081669316 -2.5799344 -2.2003605 2.0959384 -2.8574603 -0.62593025 0.026751976 1.1221784 1.3928578 0.5701947 -0.8804239 0.962873 -2.438943
1487 2.6097126 -0.8697441 -0.68095124 1.6022893 -0.06352928 2.1492238 -0.040190265 0.07121176 1.5273004 -1.3008746 1.9557866 1.802269 2.020056 1.0717081 1.6392468 -2.1538901
943 1.1496488 -1.1678439 1.6854365 -1.5661155 -0.027817445 0.059783403 0.94202924 -2.5278153 -0.28267345 -0.62181115 0.17955483 1.7627269 -0.64227873 0.31665403 0.92691433 -1.502266
506 1.3409662 0.59908694 2.0586562 -0.38689128 -2.7751744 0.8343357 1.3628412 -3.353482 0.6709482 0.8318021 -1.4621356 0.9188889 -1.8658215 2.858261 0.6790127 1.0464383
102 1.9599392 -3.207304 -1.7242529 1.3809898 -0.4505718 1.2739906 1.0026908 -2.22368 1.0443342 -0.041705012 -0.6833574 2.945081 -0.43103522 -0.26799518 0.75527996 -0.44159552
950 0.8756407 -0.6471212 1.2494591 -1.8604618 0.11822573 -0.69043905 1.9822086 -1.9615488 -0.6713006 -0.8579407 -1.3986388 3.0219462 0.37772688 0.5629262 1.7809501 -1.1509353
1012 0.9561939 -1.4476258 1.4813561 -1.7839074 -0.5258813 0.625224 0.9213251 -2.8859801 -0.38402036 -0.8319694 0.33625874 1.991236 -0.59476274 0.120019354 1.1088783 -1.8883982
2501 0.59603786 0.36303583 -0.46624896 0.19470026 -1.2118471 1.7943089 0.7350523 -1.016481 -0.68343085 -0.5849086 1.285847 1.2520843 -1.0569016 -0.9601825 1.4069341 1.1076862
901 0.7730992 -0.73437774 0.62413275 1.3701948 -1.0123283 -1.9111869 0.3616567 -2.6598186 0.68321025 -0.5146749 1.0069721 0.85764277 0.28685796 1.1462722 0.65018535 -0.5564462
111 2.9545426 -2.3862767 -1.426382 1.0764048 0.22984788 0.8327336 1.0228704 -0.05665492 2.6425834 0.93092424 0.3100038 0.8546337 -0.998896 1.85575 0.41983294 0.25613767
440 2.2350333 -0.5122321 1.0103037 -0.47550234 -0.83153224 0.66708004 -0.13832003 -2.2502317 2.142474 0.55372643 0.56525767 1.2335703 -0.6308782 0.36554933 0.7719854 0.7995385
2894 1.7080147 0.58128387 0.23350798 0.34378076 -0.37035525 0.09429206 1.0535661 0.49950823 -0.16832438 2.4723246 0.34302574 1.2539006 0.32951605 0.93644667 1.29482 0.22131881
759 1.6140956 -0.23269835 1.2327638 0.6833268 -0.9170317 -1.9975697 2.2407854 -0.08496678 2.8425457 0.522238 -0.49706984 0.96515125 -0.69605494 1.4706964 -0.39354035 1.8732891
1183 1.5676306 0.33559716 0.28927228 -0.12896347 2.6317847 1.1703742 1.4115865 -1.0572352 2.5316432 1.8669367 -0.0400934 3.0633063 0.27595896 1.1599836 0.9823571 -0.8181587
5010 1.3594341 -0.1549774 -0.3262645 0.03661456 -2.2934377 0.8034458 2.7968197 0.7031716 1.6750478 0.43353787 0.57796204 -1.0797508 0.13700758 0.98643893 0.87947816 3.3017023
375 1.7938515 -0.9090571 0.34983563 -1.0082976 -1.4559067 1.6670823 1.5992305 -2.4855268 0.438081 -0.45862398 -0.9509531 -0.9617813 0.33860767 -0.2312978 0.9187421 -2.1508634
1530 1.6361064 -0.46871418 -0.38885182 1.4332186 -1.7028246 -0.24717715 1.1154282 -0.7109494 -0.13674651 1.0412511 0.9916859 1.0927038 1.0452391 -0.82239366 -0.28700212 0.75832534
166 -0.46498314 -0.4109723 -0.34024557 1.3907622 -0.46581563 0.1696399 1.0797952 -1.6661714 0.63275635 0.023357244 -0.7794975 0.97351134 -0.599854 2.1339326 2.2493088 1.1505383
229 2.367335 -0.9705096 -1.3895198 -0.23958343 0.49419674 -0.93939716 1.1377921 -0.4955301 1.3094262 1.6267638 1.07458 -0.92255336 0.9233575 1.1822003 1.7604073 -2.2790132
883 1.0142008 -0.93104696 0.34949896 0.42988226 -1.6896794 -2.7651563 0.9081925 -1.0858111 0.6521465 -2.0188673 1.2327198 1.0456936 0.7381216 1.2347848 0.86466384 -1.2825905
88 2.097017 -1.3537319 -2.0432916 0.71419543 -1.3571005 1.2573081 1.7236873 -1.5748277 0.02388436 1.8735064 -1.3999578 2.6084843 0.5262763 -0.22091666 0.41052547 -1.6518924
342 0.6444195 -1.3423713 1.1766562 0.5260698 -2.4454288 -2.1794925 1.4774882 -2.870777 -1.034754 -0.4256509 1.1127765 1.4456204 1.472386 -0.86002254 2.2603722 -1.0561721
714 3.034818 0.7857582 1.3245637 -0.4830579 -2.1800497 -0.8842437 -0.33710626 -2.3031695 1.983225 -2.5387113 0.97822046 0.6042552 -0.48629445 0.2890707 0.99122643 -0.47743547
161 -0.35553956 -0.5426508 -0.015551011 0.9376315 -0.4987924 -0.056223832 0.82058656 -1.5349764 0.6594154 0.34278318 -0.7539078 0.9903678 -0.44980565 1.6726773 2.4086282 0.728308
1050 -1.2368592 0.20253111 0.96554714 1.0232438 -2.250167 -0.3395208 1.780434 -1.4175886 -0.03803237 0.41732338 -0.36045575 0.9881389 1.1641345 -0.026372856 1.0087779 -0.50687873
662 0.88443935 0.42136952 0.18239659 0.65663326 -2.6343594 -1.653952 4.1964498 0.017501742 0.35878012 -1.6516935 1.0432693 -1.643033 -0.2501748 0.4445567 0.49781916 0.6552815
120 2.7114332 -2.809347 -1.7736747 1.1732094 -0.5005194 1.431296 1.2220932 -0.7250039 2.5262322 1.0558676 0.061835285 1.1931596 -0.66705483 1.6283578 0.06339 0.21356419
245 2.1300974 -0.7637223 -1.2656367 0.5253592 -0.09112582 -1.1543236 0.9855737 -1.3665287 -0.13298076 1.0895482 -0.84933424 0.3570056 -1.6950306 1.0404001 1.966595 -2.3670716
598 2.274931 1.6511314 0.60421723 -1.0234412 -0.2834165 -0.699533 0.7742046 0.24131116 0.7452273 -0.7257175 0.657697 1.0583706 0.41756403 2.421164 1.4073794 -1.1190776
2140 3.6778543 0.3237742 -1.5351763 -0.25377464 -1.1458472 0.99690855 1.0402931 1.0353222 -0.42311022 1.0768158 0.79179007 0.9467527 1.059324 -0.25870246 0.54207206 1.0526046
20 2.2009811 0.5017018 0.99461526 -0.65895677 -1.7614563 2.4603333 1.2116723 -0.2676847 0.84791344 1.7263626 -2.3698525 0.8759486 -0.23853838 1.4685581 2.1977751 0.076134175
630 2.2803712 1.5171973 0.033162363 -1.277099 -0.3723882 -0.18102537 1.0368104 0.021577274 0.900527 -0.45014012 0.14181869 0.50073564 1.0345823 2.2640889 1.0658165 -0.7097827
622 2.6141312 2.000688 0.0463294 -0.642603 -0.59894115 -0.8352705 0.670097 0.20596382 1.0369812 -1.5074105 0.8509471 0.7456274 0.5102687 2.4007957 1.5902867 -0.9612876
608 2.5926166 0.80558515 -0.5072968 -0.9840461 -0.65551084 -0.92297506 0.8634026 0.24042046 0.7667211 -0.87272364 0.23136641 0.503323 0.6951623 3.0017538 1.1573124 -2.0898461
1643 3.5865326 -0.6838032 0.13214146 1.8377813 -0.4354723 -0.5319315 1.4529238 0.26180327 -0.9874401 1.0192512 1.8700883 1.3239912 1.7286667 0.84447837 -1.0662642 1.0481858
1607 2.059598 0.907704 -0.37197804 1.6945858 -1.2304704 0.17511776 0.97377795 -0.30836466 -0.556571 1.0037221 1.4639555 1.7115811 1.7741822 -0.024672206 0.014042361 1.1300813
134 4.83492 -2.0151517 -0.9543041 1.5530653 0.3497441 1.8527629 0.14826912 -0.91364205 2.7901745 0.9351259 1.112159 0.7977728 -1.4475622 0.87633055 0.3761244 -0.11196247
610 2.291401 1.5294535 -0.1955775 -0.5792805 -0.4598168 -0.5063557 0.58653027 0.1901437 0.7848486 -0.80788183 0.70439917 0.010988906 0.38597342 2.6352851 1.2835015 -1.1811527
1244 1.1495225 0.7512945 0.8406442 -0.007944993 2.7202559 1.2010854 1.6757921 -0.9980308 2.2352073 1.8217216 -0.21418789 2.9532216 0.49135786 1.3349066 1.0266192 -0.9409921
217 1.0905786 -1.6180533 -0.49855378 -0.6120859 1.1970477 -0.3139089 1.2451879 -0.49502978 0.18402183 1.2085385 1.2314568 0.3844389 0.13149275 1.4418551 2.975136 -1.282892
248 2.281927 -0.74677545 -1.2173691 1.3835537 -0.23719662 -1.0405354 0.8414615 -1.0998803 -0.115124404 1.1501659 -0.8630051 0.6875718 -2.4470253 1.6745304 2.0973294 -2.0915592
