10000 16
5826 -1.1662519 -1.5245063 -1.2329744 -0.9983646 -0.5991663 -1.452256 0.612817 1.2753344 -0.86640364 0.45934755 -0.25306857 0.45292088 0.38693103 -1.8857937 -1.8266717 2.1662369
5909 -1.239091 -1.557589 -1.2670287 -0.9462674 -0.61946726 -1.4736545 0.5497366 1.2842047 -0.8308136 0.43609425 -0.23908426 0.4851794 0.31633174 -1.9513274 -1.8553756 2.1549041
8438 -0.42514813 0.4014747 0.911252 0.12657756 -1.1907673 -1.5920284 0.17075393 1.6664075 -0.7072219 -0.09764864 1.1920527 -0.063362695 0.8138063 -0.08091269 -0.35726285 -0.17634487
4103 -0.04299329 -2.0840504 0.9125845 -1.5984325 -0.92860925 1.0136793 0.29047042 1.448179 1.6552289 -0.053651538 -0.098663755 2.1942687 1.9231629 1.6631058 -1.9366537 0.55362946
7564 -0.4138463 0.3765101 0.87008506 -0.08486944 -1.5750568 -1.2459458 0.094826005 1.5062482 -0.9194683 -0.41704822 1.3869317 0.04521704 1.0921981 0.2019251 -0.48711795 -0.33627665
4230 -0.13510744 -2.1158273 0.8564551 -1.5557108 -0.8784198 0.9371378 0.14668187 1.4173962 1.5555061 -0.015710771 -0.18261227 2.155657 1.8582116 1.5886335 -1.8190186 0.53022844
7631 -0.19330421 0.34439543 0.4732889 0.06593189 -1.1980679 -1.0625207 -0.018948516 1.4894856 -0.5759316 -0.19494459 1.1009426 -0.054309297 0.731414 0.20346457 -0.3785699 -0.38093787
8422 -0.23602992 0.5978626 0.5257264 -0.032252338 -1.0142766 -1.2482188 0.026672093 1.4786216 -0.44775984 0.084196776 1.0560831 0.021754732 0.82225716 0.36190948 -0.48181155 -0.43729463
8490 -0.22835717 0.2980363 0.6465949 0.07133705 -1.2804649 -1.2037688 -0.07537007 1.333846 -0.61074054 -0.24375114 1.1946961 0.03838692 0.80732244 0.20101461 -0.3946685 -0.3253419
8411 -0.22169846 0.71989036 0.51726633 -0.0628441 -1.323563 -1.5774537 -0.14302462 1.8426876 -0.6238975 0.17944281 1.2928025 -0.010048063 1.0784315 0.42579997 -0.61468357 -0.48323706
4831 1.0038636 -0.115982465 1.1311725 -0.20903845 -0.35196948 0.35833752 0.33639514 0.56435776 -0.37642246 0.9603742 0.933106 1.6797206 0.16151506 -1.9319978 -0.74287385 -0.85189444
2841 -0.7296289 -1.0128654 1.1422935 -0.42463914 -1.8948027 -2.184539 -1.4139711 -2.190922 0.1283759 1.3377373 0.86456555 1.281795 -0.1316242 0.92328584 -2.8534322 -0.04621331
7838 -0.4398933 0.37647447 0.87488776 0.30432695 -1.0753412 -1.5767423 0.15910296 1.5743973 -0.6949213 0.00479197 1.1909666 -0.055766705 0.89586765 -0.11601953 -0.32461897 -0.14861956
4668 0.9411542 -0.27705392 1.3190475 -0.4061828 -0.61413443 0.47508305 0.46628475 0.3108701 -0.6780171 0.7469067 1.030471 1.736468 0.29370555 -2.0041387 -0.67289215 -0.5910766
7233 -0.5538366 -1.6491209 -1.0182059 -0.08911849 -0.3496604 -1.1399311 0.29619515 1.2842584 -1.1161023 0.737076 0.15549752 -0.0051751835 0.6964298 -1.2639735 -1.2601001 2.0206316
4744 0.8421344 -0.22718747 1.0036564 -0.31352553 -0.24346533 0.39856404 0.42028514 0.4580739 -0.44393972 0.9296786 0.7468519 1.6486028 0.28264365 -2.0280359 -0.8431844 -1.0318469
2887 -0.80026215 -1.178878 0.9409423 -0.46808213 -2.206557 -1.8848603 -1.7780869 -2.4220219 -0.12720071 1.4360195 1.019112 1.1986877 0.12864903 1.2060548 -3.0317092 -0.14257735
8147 -0.3538841 0.47756594 1.0770159 -0.029139942 -1.4448998 -1.735715 0.03528535 1.9840311 -0.77778614 0.01772221 1.3400062 -0.107772425 1.1893249 0.08739593 -0.35576135 -0.26641864
7774 -0.45794922 0.38849595 0.81216604 -0.12007259 -1.3411099 -1.6373072 -0.028699448 1.7186935 -0.7063912 -0.051733263 1.1474055 -0.029471822 0.96120906 -0.042907335 -0.2554451 -0.18808557
8985 -0.3437535 0.38839033 0.9393083 0.092294775 -1.2032067 -1.6722304 0.05023887 1.8070201 -0.75378317 -0.16397488 1.4177053 0.105074205 1.061878 0.13746355 -0.5434037 -0.39799988
5366 1.0762236 -0.510621 1.3674173 -0.48182455 -0.7531933 0.30910906 0.78239536 0.15767194 -0.70228213 0.3340904 1.0082392 1.8517178 0.26478273 -1.926354 -0.79716116 -0.3983111
4715 0.8663062 -0.23662674 1.0560483 -0.37467948 -0.25552103 0.14457062 0.4937157 0.4477624 -0.09201392 0.60678416 0.77232134 1.6486298 0.2346126 -1.9550349 -0.84351426 -0.7263774
2204 -1.3796252 -0.19819383 0.85113263 -0.78209907 -2.2866642 0.53704447 -0.6023283 0.18804821 -1.8935361 0.3181125 0.2876663 -0.9241751 0.89486367 -1.311124 -1.4271387 -2.5560071
6116 0.13536051 -1.5715691 -0.36022586 0.22438636 0.20467713 -0.47134063 -0.15330362 1.5621828 -0.9437943 1.1112419 -0.23181814 0.028412485 0.6049524 -1.0545341 -1.3786789 1.7073891
2057 0.17951809 -0.57734305 -0.069083184 -2.037928 -1.1155984 -0.34773904 0.8484555 2.1336148 -0.42738307 1.7013382 2.353344 0.59589356 -3.5584817 0.53275114 -1.8131803 0.4919932
8686 -0.31498155 0.6249711 0.26931456 0.5682894 -1.6010503 -0.9539773 0.40667102 1.222884 -0.23989479 -0.2682219 0.9463886 0.58182544 0.71914625 0.48003542 -0.32744128 -0.42573792
2282 -1.3215878 -0.28931028 1.104259 -0.6644867 -2.3681343 0.6277293 -0.7490316 0.42839897 -1.8714793 0.32166755 0.19332126 -1.0809181 0.98752654 -1.3441465 -1.5130987 -2.6049457
7798 -0.42791003 0.39061397 0.8321576 0.666254 -0.63300693 -1.3952123 0.68330824 1.1278689 -0.7246662 0.31263 0.727391 0.10420021 0.31835556 0.30590495 -0.31922787 -0.18724395
6866 -0.51090956 -1.7701324 -1.1908965 -0.0006578883 -0.4807558 -1.0742451 0.15334098 1.3806229 -1.1627465 0.48552316 0.24391991 0.47917834 0.631622 -1.2877473 -0.98879516 1.8343375
3382 0.4187684 -0.23480581 -0.8238647 0.22474745 -1.6178002 0.33612266 2.0459301 0.18607494 0.017022079 1.8447539 0.8761725 -0.8557099 1.2705194 -0.108398266 -1.1955218 0.53287905
1987 -0.08245639 -0.6012409 -0.06486398 -2.1081035 -1.0790287 -0.3714097 0.95552546 2.104742 -0.554079 1.6884533 2.4928212 0.46762177 -3.5749605 0.62579405 -2.0747666 0.37978584
4790 0.88123643 0.109599225 1.1330966 -0.10680679 -0.38099715 0.6171477 0.16727257 0.40245974 -0.7647278 1.1251233 0.8863413 1.4995424 0.32199803 -1.7922716 -0.7478822 -0.7877117
4911 1.0785061 0.0023644448 1.0910833 -0.3596046 -0.2630169 0.5337594 0.18284759 0.7628039 -0.65428394 1.3001747 0.87508565 1.675796 -0.17209582 -1.8141822 -0.8325908 -0.83912796
8841 -0.7265973 0.67084837 1.0041045 0.28233215 -1.4707035 -1.7773552 0.631256 1.3641118 -0.79057807 -0.11680624 1.0457962 0.5549634 0.90812874 0.55603975 -0.4609274 -0.36375517
7796 -0.4728188 0.6797112 0.62478083 -0.08724245 -1.3186398 -1.0566322 0.01954292 1.4647695 -0.67146075 -0.23639934 1.5417099 -0.02863114 0.8099651 0.20631827 -0.69213355 -0.43467444
3551 0.04206657 -0.004275665 -0.6624659 0.32871184 -2.2231848 0.68781954 1.4244488 0.51398265 -1.2192547 2.2619138 -0.23038732 -1.2426429 0.5852614 -0.28988567 -0.7823981 0.33210573
3414 0.11146977 -0.36080384 -0.88980675 0.14038633 -1.7008916 0.45484304 2.1375926 -0.09240813 -0.3296205 1.6162305 0.8587668 -0.8973124 1.27152 -0.26014763 -1.2338829 0.5648754
5770 0.48054913 -2.058499 0.12498925 0.5696918 0.27495128 -0.17445618 -0.27100578 1.7842267 -1.1961777 0.88520503 -0.073252715 -0.15630922 0.6563547 -1.0652412 -1.4580551 1.6251037
3742 -0.043634932 -0.20263582 -0.71649194 -0.024682619 -2.4247406 0.68283737 2.0676644 0.48168635 -0.892975 1.967012 0.1469343 -1.1728864 0.7804278 -0.051467422 -0.7828941 0.45067137
6293 0.49606383 -2.1256177 0.07770209 0.28955188 0.18314117 -0.2061918 -0.034135424 1.9093857 -1.1424891 0.85940224 -0.16371483 -0.27661097 0.7027545 -0.91204584 -1.4276845 1.6650147
6051 -0.3760767 -1.2818815 -0.77528226 -0.25245288 -0.05056261 -0.7443106 -0.10662104 1.130591 -0.92206675 0.60912967 0.19109136 0.24597672 0.73688793 -0.9857402 -1.2150419 1.6035467
2508 0.90108454 -2.4655793 0.65623426 1.7041208 -2.9387074 -1.5694703 -1.7746084 0.71443594 0.77928126 2.2265394 -1.0776902 2.4556706 0.05768507 0.5929013 0.013921741 0.6338841
2674 1.0612653 -2.4242084 0.76244414 1.7111013 -2.9669101 -1.8180522 -1.6733217 0.85564494 1.0453514 2.2647362 -1.0928811 2.3845885 0.22702855 0.58227384 0.060925853 0.52387553
1391 -2.4039853 -0.67013705 1.5837126 -0.41501862 -1.6611288 1.6903311 0.8072548 0.39606977 -0.6834866 0.6505271 -1.3388399 1.5364411 1.5700986 0.7268956 -2.6657777 2.03503
7929 -0.12477247 0.5363208 0.78316367 -0.021903511 -1.134788 -1.6728605 -0.21260831 1.9884995 -0.849154 0.2997164 1.1608481 0.14702559 0.56695825 0.119609416 -0.24258785 -0.6801897
2851 -0.5702939 -0.7431568 1.0904448 -0.68316853 -1.5771182 -1.7551455 -1.1772808 -1.7438376 0.11027925 1.2248718 0.58523583 0.7489648 -0.479865 0.39883915 -2.4510143 0.12824734
6215 -0.7434716 -2.1726837 -1.2399575 0.14274362 -0.67613006 -1.0459476 0.39769843 1.0106099 -1.6850728 0.71205294 -0.38975367 0.2127331 0.4578646 -1.4666297 -1.6696885 2.259397
8091 -0.2334348 0.88637674 0.9855067 0.29617167 -2.0712006 -1.6723812 -0.2081295 2.4388497 -1.9105927 -0.10544434 2.026556 0.34902194 1.5037109 1.3554927 -1.3327998 -0.7307682
3713 0.47863525 -0.5528717 -0.39706463 0.23437987 -1.8720615 0.63386714 2.0667105 0.19957736 -0.62313336 1.796943 0.6485659 -1.1841873 1.1305526 0.12018492 -1.2170563 0.84418297
4788 1.000994 -0.8166935 1.3739227 -0.0821479 -0.6141134 -0.22470814 0.64739436 -0.6405199 -1.0963339 0.36773887 0.29007283 1.5401963 -0.14636303 -1.8942018 -1.2489111 -0.59808
4746 0.7857991 0.052072864 0.7819045 0.20691954 -0.27243754 0.35069746 0.61211646 0.5419103 -0.4905752 0.8894606 0.23271324 1.4876342 0.27908754 -1.6785558 -0.84044176 -1.2079846
2707 -0.7101124 -1.10781 0.47741464 -0.3245379 -1.9670919 -0.9100058 0.04023998 0.26739532 -0.4177274 3.0158963 0.627363 0.89730674 0.2696052 -0.40152034 1.4865772 0.26473504
8247 -0.066057995 0.5514323 1.4075402 0.36312976 -1.7216411 -2.2671027 0.24198304 2.2126021 -1.1839724 -0.11249024 1.464773 0.06528887 1.0248884 0.05620531 -0.82150966 0.13870528
6208 -0.07384422 -1.706678 -0.19127384 -0.03308929 -0.2507587 -0.5143505 0.119092606 1.3620638 -1.2460777 0.8880343 -0.1312277 0.2943462 0.037471265 -1.1186376 -0.596092 1.6846414
7973 -0.32904214 0.21616907 0.80589056 0.5823235 -0.94530886 -1.5688915 0.25570917 1.087256 -0.7058112 0.22751696 1.1206927 -0.07415794 0.32850054 0.0629116 -0.31400493 0.19210604
4471 0.19108662 -2.0882885 1.0138361 -1.3335681 -0.5918068 1.0948992 -0.12350819 1.401013 0.88351125 0.79631925 -0.10967093 1.6975205 1.032222 2.2191572 -1.6506251 0.12575409
5286 0.8543007 -0.23844904 1.3672444 0.034369588 -0.67141616 0.6867033 0.4215955 0.37184376 -0.7722158 0.8363657 0.9937497 2.0015528 0.09453981 -1.994482 -0.5981894 -0.5430958
5470 1.3502786 -0.46677393 1.4604788 -0.3441718 -0.3481754 0.54292846 0.80351114 0.72917956 -0.6410931 0.8877837 0.6046784 1.3447452 0.42879418 -1.9574515 -0.8353218 -0.37320718
3531 0.9580703 -0.2582792 -0.7486438 -0.26642755 -1.7001259 0.8307953 2.509452 0.8270126 -0.52433044 2.0998523 1.1470041 -1.3394784 1.2944039 -0.46011966 -1.5797336 0.20834711
1792 -0.2683439 -4.8721247 1.6035278 -1.0102841 -0.8513131 0.38909748 1.7297451 -1.4326906 -1.1785496 2.0765157 3.1989608 -1.5733167 1.1776645 -1.090219 -0.86635494 -1.0207505
4008 0.37235036 -2.0615005 0.11572889 -2.2981637 -1.302774 1.000666 -0.577777 0.72391325 -0.14146768 1.9081783 0.4519926 2.0026512 0.72683936 2.0359712 -0.5023958 -0.8553748
2915 -0.40406123 -1.1582577 0.8012413 -0.57076865 -1.7562586 -1.6417345 -1.2186769 -1.890222 -0.08218254 1.523178 0.65554965 0.44180623 -0.3150623 0.41264692 -1.9251678 0.32123092
1367 0.093973376 -2.2593675 -1.7238787 0.81147474 -3.3069556 0.5562361 0.30161574 -2.2913845 -0.5142839 2.0053816 2.0512984 -0.29041865 1.6462744 -0.88459754 -1.2852417 -1.1238968
1398 -2.4524086 -0.9708044 1.9455104 -0.21075115 -2.0974965 1.582323 0.6766949 0.31343216 -0.73615885 0.5988149 -1.8037282 1.9616076 1.3386389 0.8694368 -2.8691335 2.3439512
1766 -0.24868937 -5.0508213 1.5806198 -1.2183658 -0.92089885 0.3884504 1.7457337 -1.445492 -1.3347514 2.2017462 3.5334241 -1.6311811 1.1707559 -0.9026998 -0.9388164 -1.0057955
5231 1.1470753 -0.38083404 0.6195234 -0.6446826 -0.6305668 -0.08132894 0.41284305 -0.036912974 -0.5871935 0.88699704 -0.110906675 2.495958 0.79347855 -2.002502 -1.1793424 -0.75705695
8297 0.36604455 0.8501869 0.3594219 2.012805 -1.7870942 -0.53531 1.3937125 -0.3126821 -0.99642694 -0.21594627 0.74555814 1.1357168 0.692017 0.8741992 -1.5277903 -0.88284916
3328 0.42136967 -0.28291398 -0.69478613 0.35863465 -1.0238936 0.997596 1.6402849 0.42716265 -1.1934019 1.6970608 1.0799228 -0.88366 0.84348327 0.20436706 -1.3144934 0.42934954
7907 -0.5690937 0.7446069 1.0754147 0.77939165 -0.12551256 -1.1749028 0.53151023 1.4345257 -0.8078195 0.60743135 0.57860243 -0.39014167 0.39197332 0.8237674 -1.0085646 -0.7917468
4077 0.36925378 -2.3826687 0.116172284 -2.21567 -1.1558925 1.37697 -0.6576177 0.50646573 -0.48928276 2.1598594 0.8110481 1.6506077 0.78900456 2.328664 -0.8072464 -1.1136292
2747 -0.6060148 -0.91262615 0.53402644 0.018355645 -1.7676942 -1.0654538 -1.0823083 -0.07245365 -0.18933138 2.310178 0.37784296 1.1127408 0.23009993 -0.28950807 0.9426394 -0.09199707
4024 -0.15927784 -1.7071753 0.88282883 -1.7693269 -0.3096592 0.6637764 -0.2450992 1.4840539 0.96175545 0.28358686 -0.11186744 2.095785 1.285374 1.7011472 -1.929866 -0.33810726
4388 0.30268782 -2.404894 0.24413906 -2.4192836 -1.06906 1.260841 -0.26841784 0.1459478 -0.29611796 2.0840678 0.6695927 1.9139571 0.71744865 2.0824342 -0.9262842 -1.0953366
2634 -1.2681409 -1.0376582 0.7160356 -0.71248317 -2.135889 -1.0109549 -0.3714689 0.6258487 -0.70880854 3.601451 0.65949494 1.0486205 0.37738717 -1.1493343 1.855879 0.23753898
6280 -0.741817 -2.349218 -0.45789164 0.38098744 -0.26435634 -0.74433064 0.26817188 1.2443894 -1.593824 0.4922433 -0.14853267 0.29358408 0.4123534 -1.0396003 -0.970569 1.9095523
3539 0.3660248 -0.28656185 -0.5239141 0.18853547 -0.9719524 0.670588 1.7120636 0.25184825 -0.5935128 1.3926144 0.64862615 -0.90535295 0.42044953 0.14976963 -1.4893191 0.4713645
1346 -0.10157301 -2.3258278 -1.392171 0.7903773 -2.6504025 0.56629074 0.27749434 -2.2750313 -0.72873265 2.5751317 2.189953 -0.44567013 1.6390767 -0.7722325 -1.514824 -1.2139006
5076 0.7391161 -0.3097905 1.9208556 -1.8727545 -1.1143676 -0.21027993 1.0225079 0.0351428 -1.6690146 0.14697577 0.6683766 2.2363672 0.041282028 -1.7743317 -1.2012326 -0.5151329
8318 -0.5377018 0.13452198 0.4033917 0.6008536 -1.4015573 -1.1858549 0.48388943 1.002549 -1.3791864 -0.41239303 1.2588626 0.2097271 0.51589 0.21392095 -0.4818377 -0.5112562
6225 -0.5364003 -0.91111547 -0.45521855 -0.30248407 0.055885725 -0.60383457 -0.35117766 1.2529421 -0.9781626 1.2927314 -0.18001337 0.30048823 0.31752545 -1.2933147 -0.63047135 1.2554649
8709 -0.06531057 0.5224871 0.933531 1.4167469 -1.2044519 -1.167162 1.1936197 0.19431089 -0.97285426 0.32626832 0.314975 0.05951303 0.576389 0.46548197 -0.79304 -0.2432049
8531 -0.069801554 0.4095655 0.6018278 1.1071846 -0.9632282 -1.0924767 1.6392448 0.0819725 -1.1002815 0.03389604 1.1423951 0.6588773 0.19148225 0.581966 -0.73955375 -0.21064179
7652 -0.08038077 -0.3746765 0.5812365 0.8931733 -1.6150937 -1.004806 0.3649538 1.1190009 -1.6945628 -0.6478702 0.8482294 0.5805919 0.4255886 0.88821965 -0.2576815 -0.7654511
2072 0.15921047 -0.93228316 0.20187198 -1.7858517 -0.29156473 0.015272619 0.96337146 1.948165 -0.35572198 1.7662874 2.054125 0.6395301 -3.1799212 0.4274552 -1.97241 0.048756022
1603 -1.978224 -0.89990145 0.15816203 0.08641886 -2.774455 2.655733 -0.026016256 0.43470275 0.3158336 0.64870626 1.070615 1.1984483 -1.0501112 -1.8177707 -1.126159 1.6833664
6380 -0.890887 -0.9974004 -1.2065856 -1.0556476 0.20019856 -1.4457773 0.46582204 1.5011594 -0.90139025 1.5691907 -0.527399 0.72265834 -0.2235222 -1.4634491 -1.1881164 1.136153
1145 -1.9219862 -1.2351902 0.75510424 -0.69627666 0.79833865 0.63603854 -0.06568416 1.7178307 -1.430477 3.3145065 1.7439085 0.32492787 0.94017816 1.3289884 -0.16341543 -1.858075
6064 -0.5402591 -0.8512849 -0.5430558 -0.35520145 0.0770705 -0.9920852 0.42712462 1.4349058 -1.3523052 1.4116888 -0.32401577 0.78047806 -0.15660186 -1.1058011 -1.0775759 1.9312891
1871 0.4690143 -3.3256302 1.4375626 -1.0795306 -1.0544331 -0.21254805 1.8173425 0.6903821 1.4964062 1.3663832 2.9441016 -0.5011682 1.0291753 -1.8766923 0.2009019 -1.9467726
1702 0.3026595 -3.2577116 1.3747401 -1.5792439 -1.2527775 -0.5186772 2.0661364 0.99872035 1.61791 1.5406241 2.8005118 -0.12612924 1.2775004 -2.0578942 0.7753253 -2.118988
3663 0.9061846 -0.48156357 -0.7918329 -0.4168415 -2.071474 0.62971145 2.6311257 -0.082080744 -1.1378995 2.3654144 0.9352115 -1.2032948 1.6986886 -0.16171138 -1.9582554 0.34425023
757 -2.0761635 0.40413097 2.7992501 1.567106 -2.4128718 1.852081 0.4428614 1.2947605 3.0574834 1.3835675 -0.2542728 -2.3375187 1.7138684 -3.818633 -4.4512205 -0.28185928
1041 -0.5524256 -0.09353769 1.234591 0.9188817 -1.7652645 1.8742324 -2.5242507 1.5429465 1.3172046 2.7433598 1.8885809 -1.359007 -2.434286 -0.49852976 -4.27284 0.24109398
1223 -0.21232776 -3.2734354 -3.1314573 0.47795478 -1.8199112 -0.08094781 1.2040211 1.3866189 1.906021 0.65758926 1.5046705 -1.0193357 1.0281718 1.0907803 -2.5974362 -1.1261189
1566 -2.6988368 -0.116438426 -0.45639646 -0.23567457 -3.0420358 2.5913815 -0.22163163 0.8514327 0.4360888 1.3183556 1.3445607 1.3256277 -1.2533977 -1.6951749 -1.0206044 1.7257192
771 -2.0392265 0.15604068 2.838968 1.6046594 -2.553061 1.9497013 0.15310955 1.3237087 2.7596512 1.2170871 -0.15415107 -2.69743 1.8510611 -4.0558724 -4.7619543 -0.4731727
1016 -0.5013534 -0.11870257 0.997836 0.95237064 -1.8025599 2.204838 -2.8427975 1.8674947 1.2737075 3.0088744 2.0991056 -1.6465479 -2.1939788 -0.43424913 -4.4883094 0.27489644
3351 0.70530987 -0.665326 -0.7617317 0.20378605 -2.6901796 0.66626173 2.3688154 0.1089786 -0.7561089 1.5371375 -0.08525524 -0.7565972 0.78373474 -0.18779455 -0.85848457 0.49242282
1117 -2.0897918 -1.1686519 0.23938294 -1.0713975 0.91455084 0.42690748 0.05233832 1.8020326 -1.1056896 3.2843642 1.6334788 0.5552265 1.2521605 0.87441224 0.020007448 -1.9632305
2934 -1.5232344 -0.69459957 2.0113196 -0.18808927 -1.4795905 -1.1667032 -0.38257977 -1.7115917 -0.0045095813 1.9571276 -0.23770723 0.9429827 -0.8539175 0.45197555 -2.0092573 0.34945384
1841 1.149101 -2.9064057 1.3487928 -0.5218881 -1.3364781 -0.41749832 2.1502178 0.4411227 1.19519 0.6846829 2.1640515 0.24687678 1.1471128 -0.56747144 0.2841052 -0.23539166
7902 0.16658135 0.13598067 0.07549665 0.31698745 -0.5961594 -1.1377623 -0.24773529 1.815111 -0.444035 -0.045299098 0.61066264 -0.342249 0.3077553 0.47520256 -0.9815258 -0.8203307
1569 0.4612788 -1.5148381 0.53135085 0.48845154 -4.611561 3.071558 0.13042718 0.34662247 1.6281927 3.2750404 0.5264939 1.6623192 -1.9406203 -2.9040895 -0.50322306 1.907478
3231 -1.3969195 -1.0038011 0.16457637 -0.037990306 -2.0125754 -1.3000996 -1.2754323 -2.0824382 0.20488857 1.531075 0.8161529 0.66533947 -0.42599693 0.53077984 -2.618591 0.37071007
1751 0.5621845 -3.3286421 1.3610938 -1.1652532 -1.3603815 -0.25793728 2.1445773 0.6686713 1.1328356 0.7526082 2.4248633 0.20855868 0.8820255 -0.9636081 0.5150938 -1.0663979
2706 -0.30224174 -1.2970186 0.42222106 0.75235605 -2.57532 -1.3711324 -0.4310694 -0.049300727 0.6154392 2.5844166 -0.40397462 1.8497119 0.30445278 0.10943551 0.8058805 0.0049381685
1684 0.43623653 -1.5022061 0.3592934 0.17524712 -4.4190702 2.8765376 0.42034757 0.40531626 1.8507211 3.0320554 0.43714336 1.8753569 -1.7336109 -2.797069 -0.32673785 1.8304044
2675 -0.74749047 -0.8560183 0.16662908 0.10800929 -1.329725 -0.8486027 -0.075222276 -0.2925732 -0.19895922 2.5776985 0.11425017 0.90338445 0.33437094 -0.120099425 0.78186566 0.16491401
6077 -0.620493 -0.9377162 -0.38558862 0.33005777 0.015256737 -0.8859667 -0.41400903 0.93273485 -0.8775567 0.6493606 -0.3918507 0.85515845 0.22790474 -1.2849642 -1.2027707 1.4748282
1602 -1.6538815 -0.41883382 -0.10384986 0.09075449 -2.4262033 1.8886231 -0.09718466 0.20800424 0.15649371 0.60967875 1.1530473 1.6419078 -1.4035046 -1.4618424 -1.3290348 1.9580247
1177 -0.22350098 -3.2060275 -3.218286 0.5008419 -1.9789797 0.19826274 1.0217032 1.4445605 2.0689452 0.4245287 1.9748394 -1.3742045 1.3351688 0.48141304 -3.1845527 -1.3990016
4996 0.77290875 0.27520326 0.69334674 -0.05745443 -0.019124895 0.91278946 0.4707827 -0.07408909 -0.5558999 2.2786772 1.9991616 1.7571568 0.88970155 -2.124083 -0.85967904 -1.5199981
9749 -0.17327285 0.045509335 0.28332567 1.4277931 -1.7684841 -1.2284144 0.5953883 -0.077998966 -1.5472428 -0.7690051 1.0879487 1.1407748 0.2834055 0.7210644 -1.1191565 -0.8902938
4587 1.012009 -0.09211672 0.72733855 -0.41133395 -1.3984381 0.46949214 1.0525795 0.20395814 -0.1965362 0.7179192 0.62200534 1.5427178 0.5034146 -2.4242916 -0.7592655 -1.8480575
4798 0.91743845 -0.348669 0.8255172 -0.27519727 -0.52484816 0.062318195 0.43159047 -0.7537598 -1.5004617 0.89594287 0.13986367 1.8069233 0.44816104 -1.8394804 -1.3597503 -0.40928543
6006 0.11364988 -2.2002807 -0.06548009 0.8254661 -0.10109823 -0.42628548 -0.9074145 1.3764415 -0.42155448 0.47606248 -0.79878426 -0.3761307 0.13514104 -0.73808026 -1.8106763 1.0946699
2988 -1.1874938 0.0065485146 1.0542047 -0.82699215 -1.791601 -1.4818208 -0.80754983 -1.8833138 0.9555202 2.3227978 0.6172373 0.5950041 -0.24600995 0.37026316 -2.4070358 0.30444878
8469 -0.25691938 0.8423135 1.6889349 1.2138674 -0.964257 -1.5016345 1.6514513 0.7995885 -1.3229573 0.54186255 0.7442168 0.7673734 0.3352387 0.7372601 -0.68189335 -0.56300163
3442 -0.22897007 0.025212495 -0.35337004 0.35846284 -0.47062477 -0.00708176 1.6348172 -0.36723143 0.055136293 1.9257785 0.8455717 -0.48371944 0.83619314 -0.1888742 -1.5319253 1.20376
2816 -0.8620518 -1.8108375 1.5878847 -0.47101086 -1.8459134 -2.1113014 -1.8054165 -1.8574162 -0.42614323 1.0584296 0.97761947 0.82549864 -0.43330488 0.73317313 -1.9254721 -0.07587163
1614 -3.4143481 0.25232047 -2.1525965 -0.23245947 -3.5843732 1.0182912 0.7201602 0.2533539 0.23320691 0.4797717 3.2360098 2.2972353 1.1868597 -2.1407049 -1.3912024 2.892682
1628 -3.1706696 0.30639893 -2.6064692 -0.044359326 -4.1272283 1.2175735 0.8263499 0.20542362 0.19953388 0.5336002 3.1548333 2.4691348 1.2646799 -2.0477545 -1.7605495 3.2060304
4423 -0.037528396 -1.5295595 0.52600235 -1.9050055 -1.0335969 1.1048236 0.46037522 1.1269021 0.61135453 0.5801675 -0.7657347 2.4272685 1.8926635 1.6086035 -1.7593343 -0.43979642
2720 -1.1771256 -0.8545697 -0.65838766 -0.1534449 -2.3719769 -1.3178174 -1.4585272 0.09173083 -0.11111859 2.9079473 0.883067 1.120304 1.422173 -0.61511934 1.2042279 -0.55768836
610 -4.671808 -0.15523903 1.78427 -1.4037101 -1.9707942 -0.3194248 0.45063093 3.4967582 1.2047668 1.9932863 0.87319255 0.8392277 2.1059675 -0.30273902 0.26667133 0.38161367
3885 -0.8437492 -2.3263922 0.4613722 -1.5586655 0.12276227 0.8892961 0.15362206 1.7443734 1.2017585 0.24430384 1.2617123 2.4800627 1.4842702 1.4264114 -0.9827358 -0.10716535
2335 -1.0411873 -0.44449762 0.57504183 -0.4523572 -1.4379706 0.26558307 -0.377469 0.27024928 -1.0545688 0.3497772 0.11146107 -1.0631062 0.5025612 -1.2064886 -0.8812542 -1.9730364
1442 -2.5444484 -0.30084628 1.3969332 -0.39897394 -1.8873832 1.1867702 0.61910766 0.5282357 -0.5055275 0.50909084 -1.2313523 1.8837051 1.32917 0.6413052 -2.2912567 2.3354623
7527 0.22911966 1.4732643 1.7222956 0.31838763 -1.8454944 -1.4130172 1.2987312 0.61024797 -0.37339622 0.48655918 0.28525275 0.44113946 0.5215021 1.1692913 -1.2403135 -0.85442746
432 -3.5212882 1.4406028 1.3125708 -0.80796677 -0.42376706 -1.5130206 2.719126 2.2559466 0.6904302 3.6776822 -0.40971023 1.8954395 0.7923611 -2.2475817 -1.2525861 -0.5488171
5420 0.7347067 0.57347405 0.32846615 1.182091 0.28223854 1.3882583 1.1629692 0.74375594 -0.86303353 3.382583 2.5764315 1.7928898 0.4809555 -2.4684176 -0.536938 -1.5290899
8072 -0.32515773 0.5018681 2.5390043 1.8217723 -1.1238409 -2.3799453 1.5676273 1.3461154 -2.1868336 0.62972486 1.2272314 0.9376344 0.596823 1.6409875 -1.0829791 -0.033990186
9812 -0.14500317 1.3425694 2.222958 2.0278766 -0.4373669 -1.3210257 1.4435531 0.9669845 -0.51320004 0.85142845 0.5335482 -0.15699479 0.41934222 1.206374 -2.1265302 -0.37525198
433 -3.4118228 1.472394 1.3221589 -0.81014585 -0.37639695 -1.69711 2.4534907 2.0448287 0.5572115 3.667991 -0.31154856 1.9862944 0.77804065 -2.2320042 -1.4482809 -0.3358265
2223 -1.3106776 -0.3114281 1.0946281 -0.29573664 -1.3413184 0.7010183 0.649288 0.49507904 -0.57154197 0.9124393 -1.0761486 -0.94331104 1.4635144 -1.220248 -1.191447 -2.4050953
6714 -0.91624475 -1.2076093 -1.7417839 -1.3396744 -0.39830658 -1.3088076 -0.008688359 1.9338287 -0.8692287 1.473233 -0.9273993 1.0369141 -0.06442545 -1.7842975 -1.1283617 0.79327726
862 -2.27307 -3.4534478 1.84198 -3.6294477 -1.1604353 -1.8205743 2.2754922 -0.09431514 1.3939463 2.7278848 -2.6511948 -0.7725913 -0.5582038 -1.6203825 -2.464739 -2.8714485
600 -5.2026258 -0.08903163 1.9458073 -1.4077613 -2.4302785 -0.48178303 0.32096437 3.5043318 1.3017964 1.9119157 1.0486883 0.9470214 2.2516904 -0.022685686 0.1387945 0.44132698
2467 -1.4952852 -0.4067951 -0.06659902 -0.25058305 -2.53678 -1.3677272 -1.4381543 0.5732571 0.21951213 2.9224586 1.2141161 0.71416664 1.0192779 -0.61463124 1.478913 -0.0011064671
2191 -2.665095 -0.6261171 0.3962808 -1.6497924 -2.6747098 0.9705388 -0.9069292 -0.113951586 -1.8935841 -0.6850342 0.8073564 0.16338877 1.7878474 -1.5283256 -2.2983928 -3.9109952
950 -1.9537266 -6.0296655 -0.80793864 -0.71724796 -4.5709043 1.1486621 0.17171797 1.4688076 -2.1578996 0.5516725 2.5531995 -1.8276087 -1.7238957 -0.0015852634 -0.065477625 -4.6267595
1932 -0.10939882 -0.33716974 -0.1874789 -2.4997022 -1.244639 -0.5774332 0.8882421 2.087778 -0.4627773 1.9561357 2.6067219 0.42894986 -3.3815176 0.3369318 -1.7055589 0.749448
8714 0.19659223 0.19907747 0.5463188 0.052957833 -1.4865831 -1.7864002 0.19515182 2.2591066 -1.1104088 0.1342198 0.83451235 -0.21231857 0.5665109 0.8755781 -0.54472923 -0.999961
4303 -0.59126997 -1.4325064 0.17354465 -1.0449413 -1.3853941 0.9732872 0.548901 0.99765164 1.0712707 -0.5446975 0.18058799 2.3912947 1.4447179 1.1851768 -1.2107028 -0.39849925
5836 0.16923112 -1.8162239 0.009715086 0.7003022 -0.52883065 -0.19980387 -0.85205364 1.5522391 -0.080924325 -0.2511139 -0.37177172 -0.28292236 0.28040534 -0.614963 -1.6635238 1.3598503
2324 -1.9289162 -0.17145151 0.5866624 -1.1709205 -1.4138199 -0.2607616 -0.12752824 1.0807161 -1.0823973 0.45181194 0.10494 -1.6360465 1.9166212 -1.3769848 -1.3110482 -2.3672333
2004 -0.41714454 -0.7886707 0.0127674015 -2.0014129 -0.41005564 -0.7591312 0.46852493 1.3885038 -0.13677688 1.6761503 2.181587 1.14076 -2.9829443 0.1153634 -1.5494767 0.18730468
357 -2.5378554 -1.1904478 -0.9223635 2.2355094 -0.36851475 2.3721058 2.053215 2.879198 0.07124437 0.42458168 1.7074407 0.74890393 -0.35084805 0.101121284 -4.095217 -2.0820975
5602 0.7642188 0.186061 0.986816 -0.056389704 -0.5058359 0.5622758 0.68045723 0.30734035 -0.4162496 1.1128496 0.45085075 1.5332768 -0.021700298 -1.5602293 -0.6836982 -0.42075625
4044 -0.38791874 -1.8071074 0.13790692 -2.0514557 -1.0568763 0.76177293 0.41793898 1.3708647 1.7732247 0.2970295 -0.33493814 1.6935134 1.5825909 1.2108331 -1.327172 0.35003868
1381 -1.7707074 -0.497527 1.4864008 -0.17532894 -1.8686446 1.4982587 0.7570523 0.3349227 -0.63046 0.99197173 -1.7012737 0.93890285 1.5602578 0.940598 -2.344059 1.7291161
193 -1.445793 -1.7957407 2.6885183 1.3264072 0.68288225 1.7092104 -2.0204806 0.50985837 -1.5104483 1.6733346 1.1623758 0.987342 1.3090482 -2.0435462 -2.5839355 -1.0863953
352 -2.4325016 -1.1005836 -0.8241658 2.1301146 -0.355584 2.3929946 2.0351605 2.7841377 -0.016821489 0.3821992 1.6160861 0.8956965 -0.5850436 -0.011523876 -4.1225953 -2.1321294
192 -1.2514174 -1.9464469 2.6693525 1.5032815 0.5197421 1.8299334 -2.0094864 0.38616377 -1.2067728 1.5041378 1.3214518 1.1179053 0.9675832 -2.0512376 -2.5688915 -1.281788
676 -1.3543123 -2.4733362 5.063811 -0.58054006 -0.88246614 0.25988886 1.1201218 0.96367425 3.9452991 3.1703 0.5260327 0.2624378 -1.572466 -1.2958409 -1.6730745 0.3092978
186 -1.2542341 -2.0723536 2.6476922 1.6290377 0.46647322 1.7324312 -1.9650744 0.31979775 -1.3069087 1.3883926 1.1660422 1.2313602 0.85117143 -1.9101108 -2.5223818 -1.2534223
4879 0.22866519 0.7074179 -0.027215198 0.8495752 0.32290307 0.85222226 1.1482807 0.7695844 -0.70606995 2.656091 1.7680463 1.9943289 0.40441298 -2.3258328 -0.35642168 -1.3250972
1048 0.0135375485 0.04712558 1.1663747 1.2104146 -1.9828571 1.4843434 -2.4434533 1.564287 1.0140449 2.3776038 1.5759352 -1.1689469 -2.1165762 -0.65379167 -3.546172 0.07830569
901 -1.4848243 -3.921054 0.6049063 1.2022418 -0.45364293 -1.4715654 1.4970477 1.2791557 0.029300017 1.1966616 1.1514224 -2.4703155 -1.1492227 1.277016 -2.3326106 0.3098695
847 -2.0648103 -2.1000116 1.297912 -3.7764754 -0.86320144 -1.4141027 1.8088183 0.004206233 1.3481925 2.1012082 -1.88352 -0.4110621 -0.056174167 -1.1885517 -2.1151175 -1.9849253
977 -2.013219 -6.0814667 -0.5259162 -1.2477776 -4.9712563 1.4937953 -0.3172671 1.8172764 -1.8865888 0.67951834 2.2911143 -1.8015888 -1.9333807 -0.21360025 -0.11770371 -4.849086
2517 -0.4107581 -0.635859 -0.23378654 -0.38140267 -1.888401 -0.8849202 -0.50594 -0.4152328 0.43494058 3.1045003 0.8674405 1.2401223 0.6701653 0.091024704 0.7372875 -0.5258656
3694 -0.40712464 0.16991235 -0.19358593 0.9914919 -0.40117767 -0.18000002 1.6321806 -0.4292292 0.61129713 1.7782011 0.74673253 -0.33601344 1.121453 -0.28246206 -1.412477 1.2449056
853 -2.3095217 -2.1901436 1.4703683 -3.8649404 -1.0239449 -1.5151469 1.9278481 0.090821415 1.4649746 2.4427528 -2.0657089 -0.6127273 -0.15290686 -1.4335647 -2.0417655 -2.0733635
2864 -1.4702784 -0.014526021 1.862213 -0.24903995 -1.715928 -0.93143547 0.042885303 -1.0976485 0.6019397 1.6783042 -0.50035226 0.41715023 -1.0814745 0.16258222 -1.3055788 0.19437425
896 -1.1531126 -3.3936062 1.1832219 1.125257 -0.1887807 0.3054664 1.8488793 0.24100837 -1.2622947 0.5842384 1.4846207 -1.3181185 0.56222624 1.7010192 -2.2132587 0.9908338
106 -2.4720006 -2.2537203 2.0756528 0.20771696 -3.1751506 0.48588863 1.0650612 2.0427766 -1.0622363 -0.06743723 0.7040119 -0.09326482 -0.105116405 1.4979726 0.6666167 1.4571888
1642 -1.5057716 -0.17672044 -1.1389353 0.08833593 -3.0738502 2.474518 -0.34566477 0.8705714 0.3656745 0.89629793 1.3610919 1.5334812 -1.0093064 -1.3804879 -1.1336362 1.3067657
416 -0.70847714 1.5311928 3.4280543 0.71767527 -3.1896355 -0.23542956 4.4111285 2.3305092 2.6535838 3.2984366 0.8231229 1.6007292 -3.1546702 0.29232392 -1.2592167 0.37020707
2845 -1.4057816 -0.0940127 2.34254 -0.18651243 -2.1055884 -1.3679487 -0.23981829 -1.3690251 0.8720312 1.6628344 -0.8455116 0.33887744 -0.96419305 -0.18755262 -1.7656827 -0.02006078
2044 -0.44755504 -0.83138263 -0.13595943 -2.2058656 -0.7910915 -0.39876893 0.5283895 1.8130249 -0.63911563 1.6433898 2.312401 1.0263357 -3.067841 0.44821313 -1.4663519 0.23357876
6847 -2.4949837 -1.5327945 -1.3483713 -1.1979941 -0.41936824 -1.1236793 0.062181152 1.9297796 -0.57494354 0.7355217 -0.84901434 0.7105261 0.77525777 -2.3517501 -1.547526 1.5901101
413 -0.53949845 1.7096866 3.5462444 0.7202988 -3.5509982 -0.10333392 4.263281 2.4047806 2.6843283 3.3565085 0.89757204 1.547373 -3.4773645 0.4886226 -1.6797149 0.4742145
2637 0.07595301 -1.5054363 0.7945887 -0.2225375 -2.404425 -1.4303106 -0.6813334 -0.34386244 0.75554085 2.4060292 -0.20160706 1.8907 0.14285669 0.7081519 0.44306657 -0.108707115
305 0.2342005 -0.956811 -1.0820792 1.6727599 -2.1229434 -1.8720018 0.34007138 0.63994765 0.41361633 1.6231648 -0.112497486 2.256621 -2.0396705 1.3701329 -1.762958 -2.4351768
895 -1.8522575 -4.264002 0.6977889 0.85762715 0.09299264 -1.5376582 1.2590463 1.696279 -0.11477858 1.9065201 1.1309321 -2.8043337 -1.0503964 1.2184281 -3.086985 0.322947
987 -0.68299484 -3.3442016 0.41350347 1.055935 -2.0210989 0.43882772 -1.2523458 1.9695233 -1.2281619 0.056456245 0.65768605 0.45991668 -1.3742234 -1.124824 0.5302198 -1.6035401
296 0.2134735 -1.3306438 -0.812257 1.9742601 -2.2551403 -2.2332494 0.49928764 0.7972993 0.4015651 1.7860333 -0.004719952 2.429345 -2.4815238 1.6393167 -2.055072 -2.6937277
2178 -1.0372007 0.122354314 1.184689 0.13476105 -1.7025723 0.632523 -0.15093188 0.7842619 -0.6770618 1.2669138 -0.93892115 -1.3068024 1.2015893 -1.0107322 -0.687652 -1.3482409
693 -1.6476263 -2.7477872 5.517759 -0.3461968 -0.75153285 0.3933383 1.1483905 0.6606518 4.164826 3.3519554 0.43178475 -0.053231146 -1.6090271 -1.7939397 -2.5874224 -0.37465423
5210 1.2904212 -0.3796012 1.5370373 -0.6226109 -0.4994046 -0.45484456 0.5650073 0.918492 -0.10174566 -0.04369381 0.5298385 2.2704792 0.018961104 -2.4452102 -1.9724944 -1.4344282
102 -3.0270495 -2.3112295 2.1921463 -0.21063584 -2.9568608 0.66356814 0.91104054 1.7338476 -1.5544643 -0.29546687 0.6205207 -0.048196595 -0.4881134 1.5217203 0.32671753 1.4374205
1436 -2.0268602 -0.18197946 1.6208372 -0.13876882 -1.4204971 2.0617905 0.7097273 0.34255508 -0.26082727 1.0550902 -1.1623533 1.6273813 1.905178 0.7133817 -2.6446438 1.6382015
1781 1.8777336 -2.698767 1.1083596 0.5683672 -1.9782565 0.12384674 1.9866048 -0.46302408 1.0950403 0.90791225 1.1293691 0.12774499 1.0368177 0.040558286 -0.12165169 0.15348138
924 -1.7700284 -3.3606887 1.3976448 1.1582704 -0.33578968 0.5751953 1.9489098 0.013965184 -1.6206362 0.9030268 1.5049663 -1.6046315 0.50963545 1.6873072 -2.7680383 1.0640068
1878 0.54561836 -4.306649 1.9979348 0.07270064 -0.9478312 -0.41970336 3.2448335 -0.64641005 0.45319575 0.9166564 2.4539683 0.17675826 1.1196764 0.044979498 -0.4786068 0.44361553
2678 -1.6092469 -1.0381293 -0.1750766 0.15320055 -1.9453079 -0.8419312 -2.3301528 0.071973525 -0.41932607 3.0409527 1.3113152 1.3272814 0.19158414 -0.11636621 1.0214096 -1.0630625
4779 1.6867651 -0.86233145 1.9950054 -1.2041734 -1.9751098 -0.2563368 0.85050434 -0.40523857 -1.8247032 0.105073854 0.38978446 2.276845 -0.31150004 -2.3388703 -1.3425107 -0.18241453
5771 -0.08871857 -1.027076 -0.40669408 0.4194765 0.2978408 -0.50019157 -0.4857611 1.564218 -0.57202154 1.4389027 -1.2988635 0.49858287 0.66314614 -0.93629146 -1.1370239 0.6851835
233 -2.6672068 -2.2604063 1.0451555 0.5179029 -1.5041858 -0.17879649 -1.0436879 3.4584594 0.6387056 -0.48277882 -1.2223029 2.1624982 1.3778354 -1.7201695 0.01807465 -1.012981
1208 -0.58743674 -2.5635302 -1.740836 1.0335217 -1.2552341 -0.6817437 1.1032854 1.149474 2.5387638 -0.10967141 1.6064175 -1.0372514 0.63145953 0.6168085 -2.766936 -0.81506544
290 0.58038193 -2.0373902 -0.4180308 1.7897124 -2.1440752 -1.8720529 0.5003502 0.6704346 0.087837555 1.6341943 0.20556825 1.8501748 -2.6118197 1.827511 -1.5632595 -2.712012
2771 -0.124539986 -1.1396822 0.17283244 -0.42381895 -3.4664018 -0.99513006 -1.563737 0.7839314 0.81748027 3.771199 0.29350802 1.2953224 0.77796596 -1.7429317 1.4315475 0.39527065
947 -0.810737 -2.9431236 0.579799 1.0705446 -2.4263299 0.5036716 -0.85681295 2.257181 -0.9098367 0.5746313 0.9317533 -0.00838419 -1.7218298 -1.3904626 0.80301404 -1.6794212
11 -4.332839 -2.125331 -0.08683868 2.4170506 -0.09006532 0.14723964 2.2781763 0.3402128 0.55341274 0.54921097 1.0625924 2.2554004 -1.5233078 -0.88732296 -1.1419551 -0.36620358
1655 -0.9522795 -0.56151336 0.1488137 0.1983121 -2.2705433 1.7019932 0.10785556 0.5545089 0.6226576 1.3774214 0.74960625 1.392844 -1.4218479 -1.647676 -0.5294762 2.1756537
335 -2.2886093 0.177326 -1.400591 1.3619351 -1.9014455 -0.3806304 1.5603718 1.2178247 1.336248 0.03720542 0.72292376 2.2284448 1.0208408 -0.2515775 -1.7004575 -2.5386918
2702 -0.33361322 -1.1568199 -0.45595974 -1.1199477 -2.5360153 -0.46312025 -1.0817715 -0.2777427 0.28092617 2.7561395 0.33727267 0.95588744 0.07051405 -0.14721783 0.7477284 -0.5920223
1240 -0.939523 -2.768566 -2.0828688 1.2199723 -1.2987225 -0.73309696 0.9420632 0.70423776 1.9401629 -0.22617756 1.3300581 -0.8469307 0.69793844 0.64475626 -2.8624713 -0.9712427
3259 -1.6310836 -0.31219923 2.254454 -0.19404575 -2.175194 -0.81482434 0.20962758 -1.1688783 0.12759016 1.7147647 -1.2100552 0.08556996 -0.7959167 0.45058012 -1.2630134 0.37802926
2454 -0.56307817 -0.64437616 -0.0844564 0.002393311 -1.46975 -0.8521914 -1.4635664 0.1336795 0.29370725 2.404485 1.0884607 0.895726 0.5292697 -0.08025102 0.84367514 -0.7054566
5983 -0.41131294 -1.2330616 -0.32537735 0.060153928 -0.21313117 -0.41308928 -0.71126336 1.751904 -1.1281496 0.70288205 -0.25519294 0.23478216 -0.42966783 -0.9329621 -0.58076483 1.1207979
2464 -0.9130399 -1.1523609 0.03188905 0.72837615 -2.0499148 -0.67730844 -1.7759483 0.20887399 0.17610896 2.2274916 1.1140602 1.0102657 0.7116285 -0.3267229 1.1706349 -0.69849527
341 -1.8281239 0.24614275 -0.57252973 1.401989 -1.668008 -0.0881154 1.8154112 0.8870207 1.1315421 -0.16605778 0.62613106 2.843579 0.95425105 -0.15274274 -1.5788968 -2.2404432
530 -4.400722 -2.0158892 -1.6303533 1.4896395 -1.5038999 1.3777064 -0.94942075 1.0817819 -1.1350245 2.4217594 0.8329109 1.0062902 -1.5155923 -0.5973624 -1.0978886 -0.84279174
2400 -1.5911634 -0.92510945 -0.013690518 -0.9058854 -2.2627735 0.3492248 -0.14437053 -0.39432204 -1.3168095 -0.25792575 -0.7194022 -0.33966374 1.8379983 -1.3706074 -2.193954 -3.464196
559 -0.23847072 -0.7091513 -2.8419163 -2.4342427 -5.840757 1.1298512 1.2942102 0.6640194 1.7228698 -0.67618626 1.0420139 1.6581703 -0.13370733 -1.2588031 -2.9345944 0.0036179312
1351 -0.5818442 -2.0390089 -1.1600294 0.32332036 -2.442542 0.55392087 0.12877227 -1.6541804 -1.4416176 1.7135361 1.9538373 -0.39537987 0.6259728 -0.77701473 -0.81285393 -1.4715323
4657 1.0161979 -0.10378828 0.7089199 -0.4070922 -0.32676953 0.70545775 0.46576458 0.2864668 -0.4387559 1.4567915 0.99879456 1.6934524 0.7098486 -1.963588 -0.63028 -0.9088964
3775 -0.48088554 0.27531484 -0.24720654 0.38209444 -0.86151224 -0.063905045 1.785857 -0.7856773 0.66440696 2.8096528 1.0065811 -0.6203361 1.818629 -0.6118769 -1.3274503 0.87923074
6 -4.210891 -2.6618142 0.87673473 3.0481644 -0.2825097 0.14015427 2.4706173 -0.022185791 0.28705612 0.3302409 0.87863964 2.7422552 -1.5065942 -0.7914356 -1.0658273 -0.20277268
1237 -0.42659748 -2.6447375 -2.3759851 1.0756677 -1.2974514 -0.52064776 0.8778321 0.6567038 1.7234964 0.22356668 1.5591156 -1.1130346 1.069886 0.59011465 -2.9865491 -0.83100307
262 -1.5626622 -0.1471301 0.7720833 -0.2895839 -0.056710493 -0.31340322 0.9211398 0.8636886 1.6064746 1.6251149 1.5054177 0.23408042 0.36788616 -0.9918966 -0.8013782 -1.9905306
107 -2.3806176 -2.2498825 2.9593916 0.32970488 -3.5734074 0.68378043 0.6769523 1.567101 -2.0298808 0.36268663 1.0814033 -0.2521233 -0.5885292 1.6875128 0.42360047 1.7671168
6108 -0.0341959 -1.415944 -0.7045089 -0.015224857 -0.77922004 -0.5910606 -1.0740536 1.1732852 -0.90316933 0.24792093 -0.20475177 0.18960108 0.26135513 -0.74005985 -0.9659565 1.0374703
533 -4.066099 -1.7101396 -1.8736813 1.462239 -1.7563131 1.4261239 -1.1832479 0.8600271 -1.1560879 2.1745417 0.884303 0.8718195 -1.4035522 -0.80000615 -1.4210358 -0.8982416
1002 -0.29018953 -3.828584 0.3225963 1.1721607 -2.4886434 0.6324578 -0.84371895 1.3337193 -1.0363626 -0.022049297 0.5765864 0.2571472 -1.6057312 -1.2464929 0.21849445 -1.4778723
340 -2.3005881 0.21265256 -0.65376717 1.7252499 -2.188222 -0.6162246 1.3427007 0.6506501 1.381131 -0.21115705 0.96598446 3.7695549 1.1406522 -0.046921987 -1.9098388 -2.625296
328 -1.8299185 0.29933453 -1.1614715 1.6264865 -2.0513577 -0.38793245 1.3149812 1.041679 1.498488 -0.19038351 1.0882372 3.0411637 1.4211029 -0.3820514 -1.8586249 -2.4649537
278 -1.9407117 -0.5533186 0.6969703 0.13562673 -0.13201915 -0.6924622 0.74534124 0.6229167 1.7113403 1.4335849 1.5071753 0.33191636 0.3655152 -0.36290672 -0.8391313 -1.8728869
280 -1.6904973 -0.101033606 0.599266 0.25921524 -0.13415752 -0.6009075 0.75183517 0.6632559 1.6826509 1.3711122 1.7056842 0.5137093 0.46490303 -0.34786013 -0.9047097 -1.8093641
1286 0.342791 -1.6918654 -0.9878833 1.44014 -1.8902864 0.48587504 -0.10855362 -1.9882921 -0.08083938 2.2511253 1.1919978 0.10074164 2.492551 -1.2253181 -1.7837274 -1.2935827
2 -4.1891084 -2.710612 0.3247666 3.0901685 -0.6134262 -0.015277215 2.4318044 0.063961394 0.49921724 0.15540884 1.2429487 2.7389605 -1.9245615 -0.72537637 -1.077542 -0.14166404
3490 -0.31665424 0.44207412 -0.40235737 0.24955037 -0.675336 -0.107221015 1.1952497 -0.69862336 0.62144774 2.5899153 1.6225076 -0.66704834 1.735565 -0.33939743 -1.6562155 1.1699212
2169 -1.3409663 -0.21149288 1.0213319 -0.28566128 -1.513447 0.6246334 0.830153 0.7528614 -0.41435134 1.1955773 -1.6320125 -1.0746766 1.205997 -0.9709103 -1.2424111 -2.08381
670 -2.6526935 -2.135359 3.9687 -0.098691665 -0.49858835 0.48548877 0.9838091 0.07532963 3.1459138 2.8878207 1.0736902 0.22943066 -0.14700907 -1.6807622 -0.9835425 0.48184106
4383 -1.0349225 -0.9081876 -0.02384894 -3.2347615 -0.9664287 -0.08039546 -0.17933492 0.7107205 -0.82107294 2.0352688 0.5861387 2.3560805 1.5010062 2.4679673 -0.47294322 -0.799701
4272 -0.68221146 -1.0840657 -0.41349813 -2.2744145 -1.0208937 0.6502043 -1.0485477 1.2171922 0.01942292 2.2404513 0.051510092 1.9606613 1.0037864 2.0319023 -0.6682944 -1.9791975
4574 0.3267206 -1.7688124 -1.6599457 -1.3714081 -0.50450784 0.9033983 0.74146956 1.4103626 -1.6300293 2.9120145 -0.36167744 2.8306398 -0.49484804 1.1962248 -0.93549657 -2.5317016
242 -1.9816058 -2.14856 1.2193581 0.9053533 -1.5895352 -0.8769831 -0.86552477 3.1023 0.78379554 -0.73129493 -1.4016745 2.5276747 1.2197027 -1.7872173 -0.18161538 -1.1674055
246 -1.7848468 -2.1622353 1.2004042 0.86525697 -1.623379 -0.4409919 -1.3166996 3.4170237 0.69295627 -0.5446586 -1.3429741 2.3371139 1.0641338 -2.43282 -0.083219364 -1.1087137
100 -1.4083966 -3.1385312 3.4909904 1.956092 -4.0872717 2.1295178 -0.24408045 1.715027 -0.8593634 -1.5283872 -1.3020515 -0.65136474 0.08344248 -0.16776328 -1.823129 -0.33118367
2415 -1.6853459 -0.17221695 0.78221786 -0.41881007 -1.8102194 0.47217503 0.834241 0.5048577 -0.2518331 1.2746696 -1.3451426 -0.91200453 1.2355498 -1.1733311 -0.70047754 -2.5243137
2257 -1.46667 -0.16145687 0.7908515 -0.70386523 -1.6653891 -0.0837163 0.70371246 0.29034933 -0.5779894 0.8746832 -1.5602914 -0.94113135 1.2502227 -1.3040625 -1.1748921 -2.1416225
485 0.21351862 0.047348216 -1.4497119 -1.0036589 0.24902304 1.2552004 0.6130368 3.9348748 1.8731633 3.9070592 -1.6137136 1.5375122 -0.6744842 -0.44257507 -4.658695 -0.83090746
1212 -0.4170528 -2.9958575 -1.5664862 1.6710066 -1.2658867 -1.0230392 1.2906795 0.5715974 2.3781068 -0.12823324 1.2765483 -0.57152945 0.51542395 0.5714529 -2.6627626 -0.6417261
1341 -0.6800001 -1.7403457 -0.76264584 1.166506 -1.8366234 0.2880944 0.67146605 -2.2175977 0.13951442 2.022192 0.919865 0.38345933 1.1952145 -1.1598252 -1.1059775 -0.95262
966 -0.7180613 -2.882016 0.38364223 1.4353156 -2.488727 0.280834 -0.8551857 1.7446616 -0.5749113 -0.023277786 0.9123153 0.39926258 -1.8198932 -1.0690651 0.46123928 -1.6086054
99 -1.3022978 -3.1860714 3.4665248 1.6996559 -4.104335 2.047081 -0.4034012 1.8322119 -1.0123034 -1.5073129 -1.241298 -0.9147581 0.113959365 -0.17386357 -1.7567261 -0.37785178
1014 -0.411987 -3.582577 -0.038876273 0.93880945 -2.658681 0.16867119 -1.1167728 2.4014857 -0.9224369 -0.4458564 0.6058643 0.26170734 -1.6755888 -1.3419081 0.4314541 -1.619042
95 0.116477154 -1.9599476 2.0727339 2.0925694 -2.6525762 1.6260089 -0.50823617 1.0446332 0.15351158 -0.5819421 -1.0386477 0.62835467 -0.19466507 -0.066328965 -1.1315252 0.19659266
524 -4.3895674 -1.6533142 -1.9971687 1.2683854 -1.7862813 1.1050566 -0.77616996 0.892603 -1.077879 2.1010578 0.945961 0.80992556 -1.6567543 -0.52017444 -1.1954528 -0.8800555
259 -1.9968996 0.0035604825 0.7877926 -0.5452086 -0.62873554 -0.6538222 1.1105053 0.8702066 1.6515911 1.5487037 2.0383208 0.381886 0.08604548 -0.9403662 -0.3908991 -2.0140026
486 0.47974634 0.005435401 -1.3088124 -1.1301725 0.11514688 1.1260316 0.35456407 4.026248 1.8609357 3.5825605 -1.7132405 1.1125827 -0.44494992 -0.48900434 -4.627001 -0.69209087
677 -2.904723 -2.1373937 3.7103891 -0.3213333 -0.3458876 0.29428172 1.0570186 0.021430507 2.7355826 2.9697351 0.6527205 0.25688288 -0.3118615 -1.7954279 -0.6325382 0.2979376
569 -2.1828485 -0.7660885 2.3801486 -0.91281515 -2.402564 2.82065 -0.16020243 1.5469444 0.390793 2.3091846 1.203461 -0.736678 -0.23167025 2.046307 -1.0605032 1.1722529
6999 -0.84592646 -1.2755628 -0.07694615 -1.0086614 0.037704933 -1.2956359 0.92073625 1.8958817 -1.8849314 0.7947409 0.06692041 1.396773 -0.13636588 -1.9664207 -0.8890874 2.091447
1216 -0.62032086 -2.0188944 -1.9924275 1.2766399 -1.2196403 -0.089444295 1.0889518 0.9145633 2.4275708 -0.26130277 1.4837166 -0.55078024 1.0119355 0.14628199 -3.0887456 -0.83725363
504 -4.4634967 -1.800806 -2.1988127 1.5024854 -1.8051147 1.2046113 -0.94890875 1.3558654 -0.6847827 1.9542757 0.6251874 1.1269842 -1.5967671 -0.8197034 -1.5259136 -1.000024
2265 -0.678521 0.13107556 0.564586 -0.9620483 -1.9621432 0.26395237 0.6613342 0.8591144 -0.19148377 1.3581405 -1.2613376 -1.0177873 1.281401 -1.4471575 -0.76997435 -2.728267
2310 -0.34646195 -0.2911705 1.422943 0.8420663 -1.8760787 0.67689234 0.521866 0.47793308 -1.2061663 1.6266695 -1.711102 -0.7770247 1.2332538 -0.3895062 -0.40375963 -1.67718
571 -2.1611068 -1.4814966 2.286016 -0.9320357 -2.3579423 2.6985593 -0.05522819 1.6768379 0.17117593 2.7199874 0.8668422 -1.131759 -0.18321905 1.8879857 -0.94719553 1.0310142
2900 -2.3906434 0.44980356 2.2563689 -0.3497662 -2.4935443 -0.6674823 -0.18008012 -0.84141874 0.6813624 1.9042059 -1.4281979 0.20616837 -0.51171917 0.086066805 -1.2290475 0.18855102
1462 -1.7547513 -0.6171354 1.8688934 -0.068329886 -2.438607 2.4480875 0.45599464 0.91940933 -0.034418333 0.90495056 -1.2779069 0.84878045 2.1119409 1.1772556 -1.5395343 1.3826195
1281 -0.33655763 -1.6860284 -1.6056376 0.09560015 -1.8878951 0.29285535 -0.24764505 -1.3980973 -0.16234455 1.8883964 1.5574511 -0.031773042 1.2431155 -0.9520049 -1.0564804 -1.0265838
592 -2.206604 -0.7397051 2.3292103 -0.9519925 -2.651885 2.6517785 -0.10848343 1.6904439 0.27519682 2.3218958 1.5491284 -0.7451837 -0.76654714 2.1948535 -0.75155574 1.0293821
687 -2.7342017 -2.050277 3.6819415 -0.12870987 -0.38157725 0.14549744 1.220513 0.41971648 3.197278 2.9292247 0.4504554 0.45508456 -0.5731326 -1.8257471 -0.7238985 0.040612143
4348 -0.050639447 -2.9317808 0.5198071 -1.3300587 -0.35627824 0.45350733 -0.14727698 1.1254897 -0.51205635 0.46395177 -0.38000458 1.6948178 -0.09629446 1.3316506 -1.1481221 -0.8654422
484 -0.12334397 -0.19333278 -1.167608 -0.9470172 0.58603567 1.2054195 0.26872683 3.6828363 1.6955587 3.410093 -1.9988487 1.1282448 -0.108787365 -0.66889703 -5.081131 -0.87336856
553 -0.8235983 -0.4224256 -2.9364705 -2.900121 -5.655577 0.5317972 1.4950141 0.43428463 2.0304549 -0.5912613 1.2764121 1.6836426 0.11237581 -1.7826437 -2.9337234 0.029678222
1250 -0.5631735 -3.461488 -1.7907182 1.5442884 -0.9908912 -0.40027222 0.89376163 1.0839293 1.8368142 0.02658555 1.6182038 -1.0387554 1.1412858 0.88065284 -2.8771367 -1.0248247
1295 -0.16583249 -1.7256961 -1.8140669 0.9240659 -2.7685366 0.6890076 -0.63368464 -1.7044697 -0.34661472 2.2561877 2.3889537 -0.6981671 1.6470517 -1.1423024 -1.9096475 -1.65206
268 -2.7374027 -0.21675399 1.0133123 -0.16825745 0.000112488065 -0.46554717 0.89009696 1.4364427 2.0086055 1.8722198 2.4546213 0.7261427 1.0009902 -0.6426096 -1.1957258 -2.6585932
729 -1.5538678 -3.0269947 0.6735724 1.311585 -1.1497372 -1.1947018 -1.4752756 -0.29622003 2.3756955 2.3406785 1.507389 -0.7667643 1.4193541 -1.7749281 -0.2055193 -1.1203738
3953 0.032268155 -1.4342303 -1.8498342 -1.6875046 -0.490128 0.85260284 0.29009062 1.265268 -1.6995785 3.144544 -0.040287968 2.6842954 0.194742 1.0368291 -0.6621077 -3.062781
3689 0.14702836 -1.1535757 -1.251859 1.4862778 -1.6319865 1.9352543 2.653038 0.08031543 -1.7201383 1.8840133 -1.5453327 0.47646418 -0.6497579 -0.7249598 -1.1289284 -0.8008043
1843 1.5958887 -2.890163 0.917675 0.3604373 -2.5233192 0.23332806 2.3070378 -0.41519222 1.7214023 1.350667 0.96284246 0.16430207 1.1693112 -0.46316066 0.21252485 0.9017784
6544 -0.5541168 -1.2305596 -0.70257497 0.36743727 0.33974493 -0.015057999 -0.9838392 2.4722776 -1.273514 2.0722098 -0.59627056 0.7624998 -0.38294175 -1.6514183 -0.9985364 0.95805484
1621 -1.2250054 -0.44696778 0.80801016 -1.80971 -4.264851 1.7523127 1.6950026 0.6269812 1.7882642 1.7914921 -0.4894401 2.532078 -0.5923117 -3.4546864 0.23556553 2.3737295
2138 -0.76107395 -0.4388022 1.5479302 0.12602782 -1.6856592 0.4993432 0.48466626 0.71781355 -1.3664476 1.0588589 -1.6731801 -1.1733617 1.5979474 0.23092893 -1.2319419 -1.5909286
777 -0.080801874 -0.53555495 1.8636341 1.6605158 -1.7813321 0.32003748 0.16691993 0.84334517 2.6804101 1.695927 -0.2259186 -1.0633886 0.73156404 -1.4387183 -2.006598 0.35598108
639 -0.93331605 0.41017807 0.46036804 1.2209692 -1.9291408 0.11199536 -2.5626476 1.8126687 1.0227572 5.1943264 -1.2960302 -0.1737944 0.84764636 -1.0300872 -1.623285 0.3359628
1073 -0.6950512 0.33615845 1.0443926 0.3421888 -1.9846972 1.3181283 -2.465458 1.5028609 1.7614322 1.7945219 1.6078229 -0.8908195 -2.408872 -0.7541755 -4.393538 -0.15165481
222 0.9736706 -0.51533985 2.2001593 1.0326585 -4.5142016 0.90965414 -0.28543317 3.058482 -1.1206893 2.3989046 -2.0113025 -0.16228126 0.91694146 -0.74943304 0.68760866 -0.96545756
584 -2.679573 -0.92055184 2.487405 -1.7545944 -2.3984823 2.7902346 0.035181772 1.7919664 0.23570177 2.526415 1.6788785 -0.7859932 -0.627971 1.935025 -0.8805898 0.92979634
736 -1.0863076 -2.6525786 0.7069273 1.2469478 -1.0711701 -1.134375 -1.1339548 -0.2760995 2.4674423 1.679912 1.3733407 -0.5936668 1.0931758 -1.8615378 -0.5272219 -1.1273812
8376 -0.3060351 0.36279288 0.5070706 0.3000978 -0.71274877 -1.7675812 -0.39882752 1.6819896 0.051176004 0.30664384 0.67880875 -0.123238616 0.57726073 0.117307596 -0.4777843 -0.49690536
1140 -1.2488582 -0.9237245 -0.276094 -0.7311961 -0.18202028 0.6613296 0.6420853 0.9868887 -2.008861 3.0866277 0.77124566 0.92187184 1.294517 1.1710254 0.36138108 -2.1464896
650 -0.7470211 0.27981067 0.89349586 0.56320655 -1.5020705 0.3873995 -1.8870775 1.7149992 0.91006404 3.9540193 -1.422469 -0.47261858 0.43338382 -0.72585046 -1.3086771 0.2898337
1156 -1.4576383 -0.795127 -0.1547752 -0.6512495 0.103963256 0.6057762 0.7923707 0.92853034 -1.816986 3.5889738 0.9958098 1.0966686 0.94212 1.1618412 0.28637296 -2.0994856
215 1.2591841 -0.7257693 2.2226791 0.7627718 -4.391898 0.75101376 -0.43544754 3.4088132 -1.0431178 2.5459633 -1.9132203 -0.2082319 0.8168934 -0.9738662 0.56354123 -1.1156172
2192 -0.64763075 -0.2922407 1.6972568 1.7608118 -3.3101285 1.0324917 0.9164887 1.2040366 -1.3594655 1.9096411 -2.1431224 -0.89591336 0.84133464 -0.11992384 0.030153306 -2.1811378
942 -1.0318432 -2.9313538 0.7034761 0.7661707 -2.1265006 0.2381689 -0.26204616 1.1974291 -0.8806905 0.12293601 0.25563356 0.07300085 -1.5795637 -1.1488459 0.6584361 -1.4633017
1810 1.4748373 -2.8030126 1.5798203 0.40261364 -2.0938506 0.42357242 2.4490225 -0.7158305 1.2567205 1.2478163 1.1583157 -0.091113016 0.8466732 0.18679436 -0.38605294 1.3682349
745 -2.2980998 -3.6492434 1.4640628 1.5328505 -1.137004 -1.301472 -1.0003633 -0.08029429 2.822142 2.6860206 3.3540952 -0.80973905 1.0031626 -2.1603591 0.60937744 -0.95380217
1528 -1.395553 -0.10154665 -0.05869032 -0.111499056 -2.113975 2.1255379 -0.17858893 0.29913962 0.21582559 1.5229114 1.191296 1.1792647 -0.9462427 -1.1024324 -0.8823785 2.1097808
182 -1.1724074 -1.3492825 1.8124739 1.2515187 0.3791343 1.650137 -1.6225953 0.09893804 -1.3933887 1.4300473 1.513427 1.0603327 0.3830996 -1.3885969 -1.6541781 -1.1410196
2339 -1.0557007 -0.026612217 1.7136418 0.32050702 -2.0179646 0.8519599 0.18167663 0.81774765 -1.1620721 2.1562886 -0.8058066 -1.3972963 1.0628906 -0.5136534 -0.43514326 -1.7615601
90 -0.08524827 -1.2332143 2.605817 1.6705993 -2.8881721 0.78050745 -0.22011983 1.356347 0.28072095 -0.03130769 -1.1821966 0.26845238 -0.6215013 -0.41467106 -0.68810713 0.3228262
925 -1.5436974 -3.0872586 0.3602189 0.23788941 0.42038906 -0.74988407 0.771866 0.79635423 0.32825682 0.859135 0.67439026 -1.202538 0.34069154 0.44516703 -1.2499144 0.2950444
3303 0.23349108 -0.82300144 -0.95461 1.1786401 -1.8534319 1.7227062 2.8182147 0.6588115 -1.759437 2.3021774 -0.98221827 -0.1585667 -0.77338314 -0.25026393 -0.8807688 -0.5857751
654 -0.91658646 0.6597718 0.38928145 0.93142444 -2.4821668 0.41962606 -2.3961942 1.8809271 0.93802863 5.498785 -1.1998537 -0.24820621 0.47062764 -1.2681943 -1.3372662 0.33311927
93 -0.23265567 -1.9297482 2.6002686 2.4511364 -2.900482 1.646372 -0.30991724 0.99412394 0.33418736 -0.48724174 -1.0637171 0.36850375 -0.38730386 -0.24631174 -1.6464728 0.32443255
739 -1.5068146 -2.8957543 0.6558246 0.8329379 -1.524293 -1.3981109 -1.6384442 -0.2673168 2.8552394 2.6514401 1.6561325 -0.82083625 1.4028251 -2.0141113 -0.36296368 -1.1745399
294 -0.31929934 -0.4747858 -1.5590489 1.1118253 -2.243689 -2.4408298 0.80019855 1.7670107 1.4213365 1.8655449 0.14090012 1.968064 -2.1147454 0.73430026 -1.8403155 -2.9161115
1267 -0.42451152 -2.0338027 -1.6606731 0.53167665 -2.3511274 0.39705622 0.08493947 -1.9270084 -0.15749273 2.3828685 0.82438844 -0.038094863 2.1624155 -1.7911108 -1.1615485 -1.5182906
1123 -1.8303443 -1.5594412 1.3080362 0.9258853 1.137401 0.60235137 -0.22787058 1.7792358 -0.6164862 3.2215786 2.1082978 1.0385382 0.965237 1.926595 -0.4052667 -1.5248293
277 -2.7198725 -0.6890149 1.236422 1.7024274 0.3587562 -1.311303 -0.45244417 0.2710934 1.7777141 2.562941 0.025803149 1.025201 0.39361647 -0.08863077 -1.4676399 -1.192425
815 -0.19692118 -0.41280288 1.9928774 0.99345845 -1.65691 0.10991514 -0.04048962 0.86593336 2.6170924 1.9697573 -0.55775076 -0.8130777 0.39882934 -1.2526728 -1.2743424 0.5492862
1762 1.50158 -3.8213732 1.8561751 0.40408623 -2.3985198 1.3361564 3.0848515 0.013342464 0.28603354 1.2665612 2.2072594 -0.2720078 0.10735172 0.34315854 0.32948026 0.94792247
1446 -2.0743876 -0.72008 0.842318 0.24332178 -2.2764852 1.9938034 0.19555305 0.61899585 -1.0477828 0.91439015 -1.4923528 1.1104162 1.8081732 0.9603374 -1.3306768 0.8359872
2457 -0.75087696 -1.2586559 -0.010598066 0.2534881 -1.6744637 -1.304954 -1.6348982 -0.15395188 -0.06606104 3.0154748 1.2291969 1.0649946 0.44013473 0.3159574 0.7819767 -0.53075415
750 -1.0722704 -3.5244203 0.82746 1.4489428 -1.4828804 -1.4718922 -1.6060003 -0.15061271 3.155892 2.701477 1.308362 -0.638149 1.5006449 -1.823378 -0.4649923 -1.1037832
297 0.16599214 -0.26677158 -1.5126334 1.1597725 -2.2626126 -1.7142605 0.5617433 1.5694585 1.6925966 1.5769857 0.67419076 2.3845255 -0.9270908 0.8590031 -1.6480159 -2.8263962
1630 -1.5981523 -0.122388184 -1.1648731 -0.24110845 -3.0533442 1.9325207 0.081817314 -0.13789527 0.68431246 0.7257493 1.9988788 1.1480191 -1.063072 -1.1272203 -1.4164817 1.1241804
2891 -1.2292533 0.5176919 1.707898 -0.9425776 -2.1647885 -1.6038991 -0.6276416 -1.1641074 0.9083844 1.7933714 -0.36574605 0.12545285 -1.1537569 -0.040626243 -2.6281853 0.38670507
4308 -1.0919873 -1.4396642 -0.06724638 -2.3736556 -0.58904177 0.38479754 0.12376975 0.97288096 0.11831586 1.3388683 -0.1252443 1.9806782 2.313559 1.8833963 -0.7448082 -0.5708046
882 -1.1319579 -3.741737 0.7184827 0.6856052 0.32286227 -0.7618079 1.3670286 0.71199447 0.16936463 0.91475636 0.18725611 -1.1342509 0.33522794 0.73782855 -1.5824267 0.28069222
1257 -0.01625752 -3.690398 -1.724267 1.7331941 -1.5630412 -1.0086768 0.68679833 1.5853875 3.1411226 -0.5388923 2.2511764 -0.3652542 0.5973899 0.74339265 -3.3647056 -0.6941686
748 -1.5163054 -4.084648 1.0470777 1.7429984 -1.6913168 -1.4757891 -1.6084249 0.0024059152 2.916225 2.9667022 3.647255 -0.69101644 1.49972 -2.285521 0.5197437 -0.95231354
3468 0.3635821 0.36057568 -0.17191422 1.3310761 -0.86925477 0.1898145 2.3093736 -0.4919306 0.47904402 2.5070958 0.8422132 -0.07354603 0.6787324 -0.6139634 -2.2496753 1.3104509
6452 -0.12838459 -1.1357179 -0.3471662 0.46035764 0.21362276 -0.15804806 -1.232354 1.9922581 -1.1483724 1.3757118 -0.44863775 -0.005685046 -0.58053726 -1.4510795 -1.1825986 0.52944636
1455 -2.3120668 -0.8361771 0.87015027 -0.90784484 -1.6539955 0.21254268 1.2514462 0.19968726 -1.6169243 1.0926257 -2.710277 2.0254924 1.980903 -0.35325015 -2.317449 1.5923316
1064 0.38849843 -0.59457165 0.7794269 0.6024673 -2.1736002 -0.62607443 -1.6682662 0.6236812 0.91469055 0.6165651 0.8123262 0.15106979 -2.0902703 -0.10477516 -1.9443953 0.8593435
1639 -0.48358926 -0.94213146 1.0066761 -1.9250153 -4.79393 1.6287148 1.7152518 0.5659254 1.8396053 1.6345922 -0.41771248 2.1555293 -0.72341436 -3.3845625 0.4812046 2.410618
501 0.34698445 -0.3087399 -0.7690221 -0.9162574 0.28465495 1.2740539 0.23992549 3.4396873 1.6401833 3.2641048 -1.6147672 1.000273 -0.73802805 0.03956213 -5.041068 -0.7154818
727 -1.8037109 -2.9058218 1.4086287 1.920984 -0.83323914 -0.7992444 -0.78432196 -0.48733127 2.8322701 2.6103103 1.7505374 -0.72597647 1.0053487 -1.7339104 -0.39860937 -0.8161952
24 -3.9850223 -1.7664807 1.101138 2.9167502 0.06970049 0.37076575 3.328698 1.260331 0.30239055 1.6305498 -0.5113418 1.1810699 -1.921636 0.7623554 -2.6760368 -0.4919578
3086 -1.8790209 0.4073156 2.9014373 0.3509409 -2.7222211 -0.29580843 0.46417958 -0.8064663 0.47006378 1.6679689 -1.3033504 0.02357089 -0.951237 0.5326106 -1.5404168 0.36180198
988 -0.5322361 -3.5372622 0.24113013 1.4806858 -2.6790323 0.90891004 -0.72304124 1.9566684 -1.3348671 -0.16324107 1.0985293 0.83321995 -1.8188887 -0.94709384 0.5997352 -1.7405536
744 -1.2782227 -3.1112843 0.33919588 1.2747772 -1.5133339 -1.4158044 -1.6199733 -0.024550974 2.752755 2.1118162 1.519975 -0.23395422 1.1446637 -1.7626371 -0.3505954 -1.0008126
1371 -0.9372065 -2.6806006 -0.9875858 -0.14571336 -2.0387352 0.0668037 -0.54200923 -2.017181 -1.0845661 2.3250175 3.6732154 0.108389445 1.6932813 -1.0161397 -1.026607 -1.0113449
864 -1.6425055 -2.5797598 0.74564135 -3.3184588 -0.96292764 -1.3651428 1.4228594 0.1312564 0.94703543 1.5152191 -2.28919 -0.62257004 0.010470332 -1.1957264 -2.2084453 -1.8977432
3911 -0.5458878 -1.8262339 0.9213996 -1.9607756 -0.90816444 0.6871818 -0.9278894 2.1689627 0.9358535 1.9197533 0.47848386 1.8758719 0.6676223 3.0035625 -0.7325604 -0.90581656
546 -2.0327976 -2.4213428 -1.3936254 -1.4121143 -2.730922 -0.09123073 2.0595381 2.4365718 0.38542193 1.5770526 -2.860894 -2.3547826 0.9387044 1.229695 -2.7204187 -1.2566367
866 -1.596301 -2.313123 1.3651936 -3.7873154 -0.8131879 -1.6111133 1.695301 0.2354733 1.4365847 1.7064494 -2.0517392 -0.4277894 -0.5952171 -1.123636 -2.6184647 -1.6055198
4241 -0.16501464 -1.5590295 0.3194923 -1.5169185 -0.521016 0.37763426 -0.473468 1.3083838 -0.15815441 1.876381 -0.104001865 1.9457011 0.69583493 2.155047 -0.50304973 -1.8762709
1172 -1.5388671 -1.5373763 0.6541297 -0.34449527 0.7672363 0.45835033 1.0588582 1.3339995 -2.3659372 3.7048879 0.51800334 0.7721083 0.92109925 0.8152738 0.009207059 -1.9117583
3866 -0.059398305 -1.8936851 0.6486756 -1.2076126 -0.76106066 0.43535876 -0.1968826 0.9573335 0.13052975 0.586431 0.12433479 1.4308028 -0.27198228 1.8514891 -0.8208745 -0.13078889
634 -1.0791746 -0.02934803 -0.87079513 0.8482344 -1.0381095 0.18554662 -1.5152243 1.5087517 -0.14716566 4.420038 -0.14351496 -1.4856143 0.29248634 -0.15848128 -1.8589103 -0.27665564
548 -0.39277306 -0.69852626 -2.5753827 -2.1075895 -4.8775873 0.62241626 1.2294108 0.8849464 1.4608623 -0.4246381 0.45104283 1.2133899 -0.077692546 -1.1906463 -2.4754715 -0.36203498
570 -2.0275152 -1.3051451 2.4760804 -0.5987762 -1.9147457 2.2044027 0.30027732 1.4761726 0.08739002 3.006309 0.57263136 -1.0113674 -0.26011547 1.693114 -0.97648406 1.009541
905 -1.4915382 -3.2687347 0.6933376 0.025937578 0.24994448 -0.86752605 1.1972333 0.71802133 -0.17861532 0.77654475 0.30759084 -0.98592204 0.159487 0.5497205 -0.94980305 0.20371136
805 -1.0862863 0.48706406 2.4987493 1.1136578 -2.8567526 1.0720178 0.59967935 1.1981746 3.2682 1.4957651 -0.56371856 -1.9342891 1.3556303 -3.3546417 -3.2609377 -0.13745588
3409 0.4493289 -1.1162447 -1.042006 1.4917973 -1.8646488 1.8265078 2.209853 -0.0046827924 -1.8673443 2.3134732 -1.6408749 0.519412 -0.95905393 -0.23400688 -1.1519212 -0.66279966
945 -0.3483431 -3.0152307 0.15403095 1.2173265 -2.152547 0.20384486 -0.666593 2.0753474 -0.8222912 0.2821046 0.3876993 0.5116676 -1.1759627 -1.5373081 0.9686833 -1.572238
12 -3.8501892 -2.2165077 0.39283168 2.4023116 0.07020335 0.16810891 2.2026122 0.07336028 0.07350933 0.22425674 0.6592089 1.607759 -1.622349 -0.47320837 -1.87237 -0.14668112
3878 0.056465022 -1.8222845 -1.8595096 -1.4091351 -0.5086618 0.04435743 0.22845547 1.1655533 -1.3867528 2.7531672 -0.12620522 2.822637 -0.6161825 1.0281917 -0.57689637 -2.29777
171 -1.0094692 -1.4340034 1.3942883 1.4354608 0.6620963 1.0237776 -0.854501 -0.062313337 -0.9629485 1.1193118 0.76925653 1.1290592 0.18584685 -0.7566194 -1.2692536 -0.67717284
9999 -1.5633901 0.55122876 0.27860877 1.658236 -0.9017787 -0.7584632 -0.059350584 1.3187217 -1.6866455 -0.3034387 0.15451568 0.043994028 0.28047895 1.155284 -1.5082783 -0.90777284
21 -4.529119 -1.6491702 0.8531136 2.9325867 0.1465831 0.34663436 3.6023915 1.0020403 0.16915141 1.7805644 -0.65105295 1.6678572 -1.6441431 0.5844281 -2.7132852 -0.70273566
2376 -0.94611514 0.021400552 0.7810543 0.41651404 -1.9258661 0.11804995 0.3948457 0.9957152 -0.4709989 0.9023851 -1.1807857 -1.1869361 0.966468 -1.0197035 -0.16015215 -1.3641175
1593 0.50922567 -1.3026745 0.02485316 0.050614044 -4.889629 2.5692403 0.18548349 -0.34299675 1.1417966 2.327623 0.92893636 1.6567025 -1.8169847 -2.0949423 -0.7027227 1.6549411
3977 -0.5940112 -2.2371101 0.35364828 -2.9207516 -0.92215985 0.6237127 -1.1047678 2.5011358 0.1446663 2.691504 -0.20309348 1.8401209 0.9816327 2.5408337 -0.38935974 -2.02988
734 -2.07585 -2.4999871 1.1978488 1.8183938 -0.559315 -0.9687743 -0.25580597 -0.64293677 2.5178132 2.8638003 1.510552 -0.65194565 1.1199397 -1.8833476 -0.18075287 -0.6951235
842 -2.1692846 -3.2426515 1.0781714 -3.05851 -0.62687707 -2.5017407 1.6037344 -0.38183624 1.3964882 2.5272775 -2.3878117 -0.34352702 0.19395746 -1.9315501 -2.5294168 -3.102664
1736 -1.3669499 -3.1449482 1.3853432 -0.44703695 -0.5997622 -0.5468847 1.8706225 -0.055170428 2.1073968 1.0391669 5.2048 1.1996285 1.4819245 -1.4338695 -0.2716892 -2.0830584
665 -1.2875414 0.15779604 -0.53548515 1.1453065 -1.5945904 0.13724346 -1.7939394 2.0117266 0.09006159 4.6200275 -0.757214 -1.6712432 0.6022841 -0.939893 -1.5441538 -0.43843132
7638 0.23581429 1.6831625 1.8671821 0.23394011 -1.539854 -1.3190895 1.813321 0.4766611 -0.08914914 0.80436605 -0.113443 0.37768272 1.0419322 0.91754264 -1.470573 -0.8864254
539 -1.7415997 -2.433846 -1.2251936 -1.2194612 -2.7003193 -0.007367696 1.6537004 2.5923023 0.6522455 1.5177838 -2.795459 -2.47044 1.0167334 1.1589978 -2.6519282 -1.2451196
583 -2.029618 -1.5049819 2.2219 -0.77886146 -1.8381195 2.4219582 -0.49275935 1.7703426 0.7071047 2.8299959 0.978367 -1.4019195 -0.005892335 1.4020033 -1.062918 0.9148092
1329 -1.6815374 -2.0358763 -1.1447386 0.46318287 -2.525801 0.06864795 0.0810624 -1.8129755 -1.3222971 1.5890499 2.6191065 0.45475402 1.0080913 -0.4042193 -0.34716314 -1.9081404
1039 0.13439214 -0.7195586 0.9356107 0.24752757 -2.0758972 0.022396358 -1.3229506 0.6044397 1.0557394 0.34802926 0.7851744 -0.41650647 -2.1166282 -0.13837622 -2.3685017 0.666052
1133 -1.4081508 -1.2095612 1.3709538 1.7455621 0.93403786 0.29106665 0.08365913 1.6824014 -0.40808934 2.65358 2.0868716 1.3140911 1.0815516 2.2571948 -0.38364887 -1.4706632
833 -2.1284423 -3.136852 1.1221464 -2.8268533 -0.8787641 -2.2782362 1.7272675 -0.25693667 1.653046 2.7706378 -2.982296 -0.39111754 -0.020452417 -2.6179225 -2.6940508 -3.7426553
1116 -1.9148976 -0.16713215 0.7184058 0.4902613 1.0000604 0.19126658 0.3564942 2.3577466 -1.0808384 2.7208095 2.1784577 1.2455643 0.014871732 2.0494754 -0.91530216 -2.1910274
15 -3.960727 -1.2857951 0.8547041 3.090278 0.20199363 0.20899902 3.113646 1.0778395 0.3232856 1.6569427 -0.39612058 1.5745022 -1.5846727 0.33005208 -2.3655772 -0.73040587
720 -1.3683668 -2.8937056 0.86282086 1.4767509 -0.81232643 -1.0104268 -0.8074076 -0.294307 2.4869063 2.5514052 1.6035004 -0.73316336 0.7800559 -1.6233361 0.045592785 -0.94945925
10 -4.147811 -2.5879135 0.84751934 2.4606166 0.1461569 0.48651624 2.2300057 0.661821 0.35492864 -0.15359828 1.2194626 1.8109682 -1.5471934 -0.6275036 -1.9099617 0.14935108
176 -1.2785244 -1.2008154 1.7144831 1.4355245 0.30633748 0.95638573 -1.0218105 -0.063051425 -0.9595204 0.9144751 1.0984625 1.1693318 -0.3326105 -0.84928876 -1.2532976 -0.76765615
5933 0.7578252 -2.602926 0.20792113 0.41400003 -0.5924564 -0.10050453 -0.17494194 2.333092 -0.48168352 0.0394621 -0.045500368 -0.5800083 1.3274281 -0.9781982 -1.8661282 2.2690296
1444 -1.3537868 -0.2009132 0.5509719 -0.052994307 -1.6547791 1.5331393 0.35443443 0.78369236 -0.1847841 0.25837564 -1.3059285 0.88714856 1.3940076 0.6056581 -1.9820106 1.0670383
187 -1.3946568 -0.71983224 2.8275135 0.9907517 0.6540323 1.3778039 -1.9099401 0.95121926 -1.2601001 1.9009825 0.8755398 0.33889323 1.810892 -2.0586936 -2.236819 -1.0406487
1013 -0.4708255 -2.5675428 0.41054213 0.48278826 -3.0550733 0.54399526 -0.41142133 1.311903 -1.4718231 0.8548013 0.6273018 -1.2393227 -1.3373301 0.019660322 0.77375644 -1.4160216
1056 -0.109206624 -0.43498543 0.67204666 0.5063162 -1.9086074 0.26832774 -2.1094172 1.063537 1.0062057 2.0789185 0.5202739 -0.85327107 -2.302973 -0.47923505 -2.8303835 0.3186731
92 -0.25454333 -0.9370881 1.8096602 1.3051643 -2.2418728 0.39042628 -0.50824565 1.0697852 -0.14160028 0.10171784 -0.85317326 0.19079788 -0.6146868 -0.08762904 -0.30110684 0.5527427
4069 -0.53389573 -1.4737991 0.8369126 -1.8307211 -0.34375885 1.4801669 -1.1665077 2.6585388 0.80488986 2.638393 0.90175337 1.5449368 1.1832643 2.7044914 -0.77524215 -1.8874342
3205 -0.48613337 -0.15524805 1.0294054 -0.36598787 -0.34829146 -1.9833789 -1.7490385 -1.1345891 0.6233621 1.6406126 1.3801643 0.26863632 -0.16468184 0.116961956 -2.8952324 0.087305814
1591 -1.7902483 0.049167033 -1.1560057 -0.09058426 -2.8176637 2.3071773 -0.36150306 0.22859466 0.18908383 1.3567673 1.0000305 1.2132368 -0.8846254 -1.375282 -1.2271698 1.2554858
55 1.4199989 -0.31109133 2.43846 0.7559213 -2.6299803 -0.22936885 2.356411 1.2525383 0.14555931 0.2240548 0.11176466 0.49346548 -2.6914344 0.08139865 -2.939472 -0.61540836
4546 -0.13873695 -1.8670737 -0.25646308 -1.068566 -0.637282 0.43442032 0.40993148 1.1440723 0.12364446 0.9290415 -0.19797765 2.4257426 0.27808243 1.3566842 -0.6520436 -0.7337942
557 -0.79171956 -1.0370975 -2.5326962 -2.5979903 -4.31738 0.878182 1.7862743 0.89627796 1.7054167 -0.46335462 0.1231972 0.93698466 0.16020837 -1.2886623 -3.305978 -0.12850673
56 1.3537239 -0.03890548 2.3394692 0.6053146 -2.5334477 -0.3698438 2.4578056 1.3058501 -0.00010830334 0.29595727 0.2124098 0.53710973 -2.7986615 -0.006799717 -3.1144602 -0.5550275
812 -0.34889823 -0.70414335 2.2892666 1.232176 -1.6243864 0.8192366 -0.019395217 0.6817788 2.7867572 2.138932 -0.39119273 -1.2511388 1.1914847 -1.766687 -2.2982574 0.20506366
287 -0.110684045 -0.11570259 -1.2673553 0.6860139 -2.212994 -1.8269343 -0.25649345 1.8260576 1.7647407 1.1646765 0.47523418 2.3481421 -0.7594283 0.63751096 -2.455674 -3.2169425
3235 -0.31341046 -0.87918705 1.1177621 -0.41067094 -1.4490414 -0.5777187 -0.96735877 -1.6963009 0.537669 0.8427616 0.28822747 0.52978736 -0.112942874 0.58407414 -2.136718 0.09884796
2380 -0.91526806 -0.37552893 1.579885 1.6528727 -3.1470711 1.1487603 1.0473536 1.3711565 -1.2560248 1.7003433 -2.0096097 -0.969697 0.9876744 0.28634673 0.03990164 -1.90846
70 -0.16345738 -0.74622595 0.2267632 1.9976946 -3.7591772 -3.5857487 1.8073286 1.26111 3.9098908e-05 2.9289646 -1.9780711 -2.3815582 -1.0899312 -0.86093533 -2.2832918 -2.9077957
3130 -0.98422825 -0.60862994 1.1618152 -0.038704276 -1.7145888 -1.4201607 -1.1040757 -1.0239631 0.61637574 1.5415411 -0.5130395 -0.5659917 -0.5045316 0.29901353 -1.689392 0.05106448
706 -2.4122248 -1.9232306 4.0478096 -0.65943444 -0.52137697 0.089819826 0.8368154 0.12408938 3.6407354 2.6914148 0.13496652 0.5610109 -1.2005305 -1.6866982 -1.8468968 -0.08245125
248 -1.463351 -0.8465195 1.7448393 -0.8446047 0.72437525 -0.147659 0.5071548 1.3132563 1.1497641 1.5985953 2.6216226 -0.30723906 -0.01220398 -0.820792 -0.6607828 -1.0234227
88 -0.390531 -1.8175743 1.862761 1.7219251 -2.863924 0.57025874 -0.6315123 1.4126325 0.12443482 -0.045188513 -1.3929117 0.48508325 -1.0481237 -0.28788275 -0.58774626 0.4748401
8182 -0.085025676 0.58772284 -0.26263258 0.5814737 -0.7314675 -1.4721968 0.06389884 1.7904977 -0.8300228 0.013086867 0.20604552 -0.13382307 0.12170283 1.7494746 -2.2890923 -2.0184007
3271 -0.28511253 0.3860589 -0.8212503 0.9100426 -0.7361591 0.045717333 2.5380552 0.3101879 0.59651136 1.9024274 1.9332824 -0.69302005 0.5432409 -0.3224428 -1.7205007 0.5887828
635 -1.7228547 -0.1794067 -1.3110507 0.6460326 -1.52596 0.17150848 -1.6362336 1.9479212 -0.3282854 4.2765293 -0.67085403 -1.7518457 0.36031005 -0.08715596 -2.1633883 -0.63210595
1331 0.016924903 -1.7470385 -1.0141163 1.1654468 -1.7117368 0.2929775 -0.21109928 -2.0127072 -0.36402234 1.6887109 1.2656472 0.0899757 1.976128 -1.6338205 -2.0454216 -1.1011451
1110 -2.0302312 -1.3308976 1.9017665 1.5439867 1.3555609 0.088704206 -0.028783873 1.6863952 -0.83806926 2.8510923 1.8038142 1.4320381 0.94652754 2.206692 -0.7654372 -1.559687
933 -1.7014395 -4.4088902 0.036663476 0.09616066 0.47279432 -1.1020602 1.4769924 1.5278822 0.1783922 0.008199218 0.49833432 -0.86343515 0.032900177 0.46670893 -1.8145187 -0.35616678
609 -3.4876606 -0.053977992 1.3995571 -0.5753126 -1.2671703 0.21027383 0.2635199 2.4945638 0.68180496 1.3013058 0.95042396 0.6015892 1.8001467 0.24422304 0.17896883 0.28311038
2317 -0.50565434 -0.65658593 2.0583072 1.1859956 -2.5436072 1.5230577 0.8020773 0.7810089 -1.3425676 1.8312486 -1.6041278 -0.8569398 0.75670326 0.37541372 -0.2377585 -1.5005198
646 -0.7319834 0.48145992 -0.0626344 0.65858823 -2.0126207 -0.04957935 -2.4509625 1.0422723 0.9731532 4.9109087 -1.0388819 -0.087638706 0.9017134 -0.9901795 -1.6994257 0.14768617
648 -1.4102404 0.03636775 -0.28302318 0.57030755 -1.3822573 -0.08249902 -2.1961107 1.0511836 0.4188454 4.6151857 -0.010375637 -1.4173247 1.0575465 -0.770487 -1.3922634 -0.33710733
2250 -0.3615986 -1.3686337 2.428105 0.9504192 -1.8639109 0.90280426 0.7526331 0.62286496 -1.5550426 1.3478484 -0.9690382 -1.2585652 0.88726676 0.25719187 -0.33562073 -1.3161505
5329 1.315197 0.32518724 -0.4717872 -0.6875129 -0.6072325 0.69326967 -0.4828693 -0.3452823 -1.331469 0.9002762 2.469759 2.2330174 0.0797725 -1.2269615 -2.522017 -1.0987322
935 -2.2753942 -3.6536393 -0.3411172 0.8392845 0.06588514 -0.63966405 1.4932967 0.5479181 0.81530166 0.5396912 0.6228876 -0.4523746 0.4010838 0.6324405 -1.0691706 0.49259287
358 -2.3594127 -1.6841867 -1.061072 1.6599731 -0.6768873 1.3675697 1.7509456 3.376962 0.24967264 0.47675595 0.5467759 1.2168145 -0.58965206 -0.088498734 -2.0595112 -1.4998405
886 -1.7589141 -3.06067 0.1728287 0.47234464 0.54341614 -0.4519901 1.2232331 0.73483646 0.44238552 0.88120526 0.64381045 -0.4219315 0.6940141 0.6049733 -0.70275503 0.07525636
1273 -0.08050324 -1.5419387 -0.9726598 0.34185797 -2.3091984 0.8782747 -0.36929372 -2.294655 0.50043947 2.5369263 1.6651355 0.08452531 3.293983 -1.9364724 -1.5211986 -1.1322829
4003 -0.04281369 -2.8710876 0.6616031 -1.3616492 -0.7738948 0.49325603 0.32633945 1.3275874 -0.30024004 0.33562195 -0.32973874 1.6000912 -0.4870427 1.5122153 -1.125132 -0.7916134
104 -2.4083474 -2.4725966 3.022601 -0.08468498 -2.0772305 0.6580304 1.5214611 2.0150313 -0.9230344 0.57634175 1.3743345 -0.49616057 -0.11827475 1.347735 0.8685617 1.416965
1031 -0.15304448 -0.035923168 0.68807787 0.06488674 -1.7223554 -0.053955812 -1.4098027 0.43665388 0.8141275 0.8873964 1.0002472 -0.11322108 -1.9298478 0.006881829 -2.204982 1.0591481
234 -1.9303739 -2.0912814 0.9614637 0.82110053 -1.9232948 -0.5922776 -1.2497623 3.1245484 0.61504394 -0.50366384 -1.1922987 1.7585672 0.68468404 -1.7750002 0.22500263 -0.9324954
271 -2.7232862 -0.3779772 1.7550339 1.9566556 0.005922863 -0.64770514 -0.5436438 0.49866414 1.9912845 2.6186216 -0.15953475 1.3369946 0.37247494 0.2285073 -1.5098352 -1.0504276
1051 -0.26728722 -0.31895813 0.7334548 -0.2802635 -2.1571867 -0.4021513 -1.8710684 1.0036352 0.6649698 0.95940113 1.0389872 0.010360851 -2.838293 -0.19310594 -2.00716 0.89808345
82 -0.17385425 -0.9405966 1.0510434 1.4637104 -2.0392396 1.0325497 -0.5268244 0.963855 0.07385946 -0.10543119 -1.0710418 0.31326208 -0.4187406 -0.22562315 -0.65539885 0.16028291
1042 0.23368672 -0.2443374 1.1567333 0.6048321 -2.0395954 0.26170844 -1.9757452 0.47268185 0.6203805 1.7053173 1.1965038 -0.93866646 -1.9431995 -0.33481523 -2.5257788 0.5062292
731 -1.9558043 -2.5724077 0.7374548 1.6938806 -0.6034598 -0.68003803 -0.6129608 -0.1946278 2.3227992 2.4534295 1.4268882 -0.62190735 1.1888883 -1.9203163 -0.15593463 -0.94113076
47 1.8201481 -0.43424454 2.2410216 0.53766215 -3.1149073 0.027875498 2.2356887 1.7562469 0.025304765 0.17045304 0.7064855 0.1033009 -2.9589548 0.17014015 -3.0540757 -0.48294374
5020 0.9271083 -0.06064968 0.9312356 -0.13162439 -0.6379866 -0.11145439 0.70625275 -1.1225144 -1.8161675 1.2575762 -1.5894175 1.6735946 0.73899883 -1.504827 -2.3181605 -1.3152753
1717 0.948421 -2.5712507 0.20457134 -1.422866 -1.2043126 -1.0560497 1.9511697 0.5533636 1.7415773 0.66745454 2.8043792 0.03432381 1.5372977 -1.3436675 -0.48720476 -0.04449841
1225 -0.57858664 -2.5204093 -2.7719364 0.33870494 -1.0494118 -0.455719 1.4281642 0.26336074 2.6394188 0.99659085 2.9563527 -0.51178867 2.9076397 0.5316956 -2.9723525 -0.14613551
633 -1.4953597 -0.44610226 -0.20764303 0.6025275 -1.0672084 0.4859332 -1.4227306 1.4982275 0.14979805 5.506769 -0.864609 -1.3927857 1.1935208 -0.48708934 -1.6620485 -0.0032913338
1229 -0.8552028 -2.3209822 -2.0953636 0.9799238 -1.002558 -0.56236684 1.7133193 0.23799524 1.6104622 -0.117598355 1.2970932 -0.29876608 1.098561 1.3308991 -3.2045007 -0.57585627
284 -0.77747387 -0.54048145 0.060568012 0.6968421 -0.4180929 -0.939406 0.41649732 0.6151105 1.3363556 1.073451 0.37034994 1.0623285 -0.25780353 0.28622276 -1.2031175 -2.0088882
1538 -1.9299349 0.5793301 -0.55813265 -0.09545791 -2.1964407 0.6655678 0.06755472 -0.15739211 0.87874424 0.7493292 2.6472397 1.7794019 -1.0145149 -2.1841257 -1.0425824 0.93891376
180 -1.705366 -1.2851 2.0127192 1.0708379 0.51830435 0.6788853 -0.5062134 -0.20170818 -1.0802917 1.0041394 0.93370473 0.86370903 -0.008464228 -0.42733616 -1.2392825 -0.7112418
753 -0.78280663 0.05535446 1.4135704 1.9028476 -1.8383191 1.0100217 0.2611833 0.52902085 1.3881792 0.80977196 -0.52086955 -1.7173716 2.1195185 -3.1857488 -3.5263183 -0.7674803
117 -2.8186278 -2.5615625 2.5976229 -0.91051567 -1.1742195 -0.5424738 1.6503149 2.2831025 1.340971 1.2240698 1.5435493 -1.0224943 1.07307 -0.28056708 1.244681 1.246313
1867 0.91829413 -2.2553666 -0.21742281 -1.0729007 -0.4291847 -1.4248883 1.7549813 -0.18322524 1.5702904 0.72162974 1.1834472 0.46037793 2.1759958 -1.1133645 -0.9835983 -0.6016294
345 -1.6657034 -0.5582491 -0.8632032 1.3868686 -0.3707085 1.4335068 1.4233643 1.2611588 0.038156673 0.41825378 0.7932091 0.85147727 -0.37894565 0.47754663 -1.946951 -1.1313057
384 -3.7186127 0.65490043 -0.87574595 0.69066733 -1.931945 0.3634899 2.754308 1.6190639 2.8522422 1.7884905 -0.3760142 3.09442 -0.7143724 -0.33685398 -2.3161209 -0.43385246
1570 -2.3450189 0.32669422 -0.9780339 0.1610746 -2.2763646 0.6721177 0.1889139 -0.21012405 0.44614226 0.41340122 2.2425623 1.5153679 -0.8487975 -2.0045722 -0.9629218 0.81286347
1155 -1.6584469 -1.160732 1.3242259 1.0823767 1.5595546 0.47424197 0.11321197 2.349379 -1.2079413 3.1254315 1.6936747 1.3165175 0.5760646 2.435102 -1.3901299 -1.9682381
1799 -1.3414088 -3.9605594 1.8241796 0.14903814 -0.71439344 -0.21250351 2.7575147 -0.20642152 2.2897968 1.0312235 5.8455853 1.3663615 2.0702631 -1.6824427 -0.78570163 -2.3086677
240 -1.8306522 -2.208276 1.3958699 0.98925906 -1.6046189 0.09257204 -0.87037075 3.4719605 0.6847799 -0.4142877 -1.7146841 1.6220319 0.93934715 -1.5935384 0.20179844 -0.67670345
3227 -1.6518565 0.16532415 1.767331 -0.025363943 -1.3999543 -0.58462965 0.7315309 -1.8079369 0.20673029 1.4944974 0.13068692 0.5195867 -0.7729325 0.13652857 -1.9016436 -0.32291043
697 -1.8044016 -1.7551652 3.1022646 -0.066234864 -0.52725464 0.39602044 0.8384474 0.22498152 2.5827541 2.6485112 0.32142472 -0.06631446 -0.4833361 -1.4136182 -0.53901875 0.3387504
811 -1.5783798 0.3887232 1.600868 2.226465 -2.0866613 0.57476807 -0.8358926 1.5292758 1.8426439 0.72135156 -0.30135947 -2.2485163 1.6106446 -2.95699 -4.121942 0.1137176
395 -3.7070332 0.5307691 -0.97287023 0.45083123 -2.0689397 0.36106968 2.7532153 1.7234967 2.8575282 1.623174 -0.122640535 2.8645453 -0.93277425 -0.27855715 -2.6255114 -0.40155348
219 1.0105654 -0.5161966 1.8406013 1.4080663 -3.901365 0.13146965 -0.3558168 3.4473667 -0.58983445 1.723679 -2.8263233 -0.89145386 1.0336585 -0.8909098 -0.41314197 -1.29389
71 -0.22758032 -0.88975173 0.2885652 2.610009 -3.9439669 -3.1296947 1.607878 1.5688738 -0.040272173 3.0432897 -1.9123625 -2.2305617 -0.95703256 -0.17910156 -1.7399948 -2.3739343
1962 -0.94803226 -1.5200988 1.3850716 -1.5275769 2.033139 -0.3006916 0.92596126 2.9356518 0.49675158 2.1074653 1.0777838 1.942928 -1.628846 -0.16141511 -2.3340256 0.4306274
3627 -0.12728277 0.8385353 -0.5442307 0.63004833 -0.88527775 -0.48859966 1.4001517 -0.9653711 0.9887767 2.6455123 1.6466433 -0.6537699 1.2927458 -0.92821157 -2.0009506 0.49104148
649 -1.8847582 0.49122497 -0.24440591 0.42315727 -1.1084235 0.38499692 -1.8704156 0.986843 0.6669253 6.134079 0.0021216376 -0.5530353 1.2118473 -1.0126705 -2.1635687 -0.42049208
86 -0.16453773 -1.0896996 2.2777467 1.4573475 -2.4987588 0.14678532 0.00023496636 1.4969754 0.22944464 0.13909613 -0.7407155 0.43930492 -0.9515919 -0.061154034 -0.3202505 0.65594786
2819 -2.2117834 -0.67765254 1.9584932 -0.09380459 -1.9070506 -0.20589095 -0.2121727 -1.3867623 0.5053333 1.3459458 0.33922055 0.18474002 -0.277858 0.64819396 -0.93636477 0.1910274
8369 -0.38312194 0.10027279 1.1307758 0.563956 -0.8206015 -1.678756 0.5448017 2.5868428 -1.1906718 0.28954268 1.0490224 -0.4811916 0.6880461 0.94849855 -0.618031 -0.5680932
113 -3.0160632 -2.6043468 2.653368 -0.9278919 -1.0812052 -0.5722997 1.4989082 2.4361165 1.683967 1.1767583 1.8937314 -1.1139284 1.0443194 -0.1630984 1.0119432 1.1042414
2330 -0.6504594 -0.21891935 1.748232 0.45800757 -1.3400949 0.20105165 0.5980833 0.5629968 -1.3480893 1.6594133 -1.7705132 -0.7434523 0.66103345 -0.43567047 -0.71978825 -1.3389133
4066 -0.23174657 -1.3408738 0.46623522 -0.09423717 -0.4056746 0.7002213 0.8780178 0.75712866 0.49550954 -0.073444754 -0.5181879 1.365113 1.4392285 1.1870378 -1.2925661 0.11587756
183 -1.1857301 -0.4681554 2.1513102 1.4488279 -0.026219945 1.2562 -2.0819905 0.726488 -1.8826889 1.5628583 1.515538 -0.3639783 0.6713022 -1.1220894 -2.1512167 -0.72092754
101 -1.1456585 -2.6265516 2.3054428 1.238471 -2.4944975 1.7824475 0.08744609 1.5258173 -0.025445752 -0.29593426 0.51656675 -0.112720996 -0.23758852 1.6966994 -0.44709668 0.4835422
883 -1.5712029 -3.8231728 0.541644 0.35412353 0.5192132 -0.6812529 0.59555596 1.2263103 0.2566645 0.676966 0.2725369 -0.8756041 0.8615547 0.2190626 -1.0677971 0.019580161
347 -1.7498757 -1.8023831 -1.4143445 1.8240149 -1.3295927 1.3668664 1.7728552 3.5247126 -0.1265703 0.05170157 0.95541865 1.3495218 -0.6403234 0.91655976 -1.9474105 -1.3468506
1723 0.84588933 -2.7605228 0.54070765 -1.0808839 -0.2417426 -1.7253249 1.8883133 0.40397006 2.5391018 0.7332592 3.1304715 0.09324677 1.6335354 -1.2548571 -1.178177 0.31249237
167 -0.87326396 -2.319242 3.125156 1.465752 -0.03472324 1.5933961 -1.1561114 -0.3854543 -0.8637559 0.752292 1.7279571 1.9172275 0.51099175 -1.4920038 -1.7541758 -0.8775012
888 -1.6811724 -3.9935257 0.43463814 0.5638448 0.23889875 -0.3398462 1.0684319 1.027987 0.0407759 0.3865012 0.61949277 -0.45536864 1.0349354 0.8928652 -1.1335651 0.30674997
790 -0.98974884 0.64115566 0.8154251 1.5675138 -2.1631966 0.87196034 -0.12529856 0.745989 1.8043183 0.6870658 0.0099014575 -1.5889175 1.8201605 -3.0874865 -2.9121604 -0.59952384
249 -1.2951791 -1.0861729 2.3683105 -0.6950246 0.5579749 -0.27170068 0.5471537 1.5175514 0.97897816 1.752388 2.708237 -0.23210286 -0.3697304 -0.7061411 -0.18747301 -0.9172479
185 -1.782044 -1.1655272 2.7369335 1.4878511 0.8976866 1.034597 -1.1279548 0.42141417 -1.5504696 2.0338604 0.58631516 0.596595 0.9323933 -1.5649252 -1.7877007 -0.81690156
218 0.59192675 -0.47399205 1.2750789 0.66536224 -3.2966256 -0.35043323 -0.37564892 3.2994044 -0.35468778 1.2889233 -2.4518194 -0.8898351 0.80702066 -1.1887159 0.012608765 -1.1011761
2432 -0.17702584 -0.16050488 0.3068083 0.34925786 -1.5441976 -0.8793318 -0.92779297 -0.3799674 0.504369 2.643688 0.5463775 1.4613794 0.4791973 -0.24836445 0.28007218 0.29540178
849 -1.7571216 -1.9042778 1.7711099 -3.2350876 -1.1315027 -0.8112952 1.072481 0.1901293 1.0521059 1.5249653 -2.2332356 -0.7313956 -0.45248273 -0.7529866 -2.3360834 -1.081555
53 0.5456885 0.60835284 1.28567 -0.03320217 -4.1630235 -1.6966155 2.7876134 2.0600662 -0.077163704 0.249033 0.30048472 0.8133798 -5.0761743 -1.571142 -3.929368 -3.2169724
1401 -1.8987747 -1.2899101 0.8965854 -0.07415174 -2.0564458 1.0351351 0.88878584 0.4399151 -1.2250369 -0.15848719 -2.2621381 1.1090773 1.0940593 0.74838567 -1.9844949 0.39281982
590 -1.8764383 -0.18016332 1.8201058 -1.217688 -2.0558777 2.38521 0.17090106 1.6989685 1.2533616 2.0843596 1.0259944 -0.5836778 -0.7228584 1.7594017 -1.1337689 0.81829715
407 -1.533721 1.0463624 1.2990259 0.31819528 -1.2643361 -0.016313065 2.9941983 0.39333737 1.8684275 2.0875823 0.19171923 1.5610956 -1.7445945 0.38597286 -1.7339991 -0.182409
606 -2.6638508 0.12083638 0.98263437 -0.7926216 -1.426286 -0.061763793 0.32803166 1.9056655 0.9562423 1.0266014 0.46509448 0.44719398 1.3472809 -0.2528744 0.20293978 0.3598395
1908 -1.2818441 -1.255112 1.0621102 -1.5033752 2.291772 -0.5564149 1.0810167 2.702823 0.42894852 2.399544 0.85648954 2.0894809 -1.104896 -0.42020264 -2.371338 0.23895176
4434 -0.43846312 -1.9117496 0.56940526 -1.0959096 -0.5677693 0.68485284 0.07151388 1.5081824 0.13210657 -0.089956775 0.272053 1.1882174 0.035185013 2.110458 -1.3851234 0.14256111
175 -1.4476839 -1.5347193 1.7141865 1.4002589 0.48591343 0.76926714 -0.25855488 -0.38438326 -0.9353008 0.79347324 0.8158035 1.1879216 -0.28923306 -0.5416922 -1.1919513 -0.74999696
1105 -2.174355 -1.3857337 1.6180091 1.195418 1.1355115 0.6994972 -0.49330252 2.370732 -0.5694674 2.8714926 2.8531404 1.7060802 1.316362 2.9008265 -0.8870017 -1.508928
1164 -1.8639902 -1.4879339 0.86914575 2.1894047 1.1121833 0.28268304 0.21559678 2.0678947 -0.36227745 2.7745454 2.4828637 1.4775534 0.6060361 2.7619593 -1.0143017 -1.423824
23 -3.7502985 -1.3581122 1.1764047 2.6623302 0.4933522 0.5742944 2.8871975 0.6949366 0.16674413 1.401006 -0.008171685 1.6511194 -1.1883667 0.35369405 -2.3490407 -0.5653745
651 -0.90041214 -0.029270489 -0.12154457 1.4012134 -0.1374614 -0.45444834 -1.196386 1.6607387 0.13962178 4.352852 -0.94692165 -0.84646696 0.047837026 -0.28012824 -2.0342693 -0.17159835
710 -1.2898321 -2.4785469 0.7428504 1.0189004 -0.9015074 -1.4533418 -1.3083851 -0.02434271 2.1181562 1.8452376 1.2721869 -0.3465583 1.023096 -1.6621138 -0.012184698 -0.79733604
938 -1.5473558 -3.010679 0.25895566 0.9627576 0.45951626 -0.55610013 0.6663699 1.0462732 0.58900046 0.6342819 0.43372804 -0.93433553 -0.036177255 0.42307475 -1.5236975 0.6394311
3400 0.3934795 -0.655281 -1.4682589 1.4902823 -2.1348357 1.8137693 2.2190533 0.6248989 -1.836348 1.7353102 -1.5419443 0.6449717 -0.9230357 -0.35671017 -1.2973315 -0.8964923
517 -3.6598353 -1.12812 -1.6181093 1.693201 -1.5000712 0.8960085 -0.58630097 0.83919346 -0.85898894 1.9683452 0.41264987 1.3302562 -1.3469095 -0.7376134 -0.62798595 -0.6579806
724 -1.7175679 -2.0495331 1.0508761 1.4791733 -1.0430499 -1.067719 -0.8180364 -0.33394888 2.3253114 2.1775799 1.1602495 -0.62571526 0.747479 -1.8110482 -0.31690085 -0.9346034
589 -2.0549793 -1.4826108 2.4531338 -0.6370674 -1.6552979 2.4059823 -0.35316435 1.6952848 0.49412102 2.975388 0.8279141 -1.236114 0.3135938 1.4297485 -1.0126505 0.7964742
830 -1.4931107 -1.8424443 1.2856276 -2.999678 -0.9324654 -0.76423913 1.7836128 0.57090837 1.4526124 1.1762105 -1.8665655 -0.79581416 -0.26887193 -0.6266607 -2.0097764 -1.2938161
281 -2.859685 -1.101935 1.0721606 1.2890674 -0.86371964 -1.708617 0.5118058 -0.4043845 2.4699552 1.6542332 0.82178307 1.2864094 0.78326464 -0.32556352 -0.9133665 -1.9164331
1035 0.24232978 0.082432374 -0.05197534 1.267717 -1.4379762 0.22790611 -0.12739332 -0.6879397 -0.5885661 2.3719695 -1.4183487 -0.44533923 -1.3424506 -0.22524492 -3.4057536 -0.08668306
274 -2.556135 -0.08007755 0.8943476 -0.21587737 0.2651941 -0.9883156 0.8829255 0.7881242 1.9066317 1.6974242 1.7399985 0.7016306 0.64536214 -0.48637867 -1.5492538 -2.0128326
25 -3.5871856 -1.5960306 0.41152367 2.5992432 -0.013849979 0.09378531 3.3646383 1.0476372 0.40559575 1.4770393 -0.84320194 1.2418895 -1.7368062 0.3126917 -2.4095273 -0.6974292
266 -0.37900645 -0.06844436 1.2194943 -0.91065603 0.29251269 -0.15005034 0.5432419 1.2899153 1.3316903 1.4463116 1.8180193 -0.5305847 -0.046073712 -1.1655548 -0.9036224 -0.5175862
164 -1.6240087 -0.78529483 1.6345202 0.90378517 0.07151715 0.4965083 -1.0695323 -0.2339959 -1.0993788 0.68341357 0.9690471 0.55505246 0.040190905 -0.8212711 -1.1088095 -0.69330096
855 -1.6595033 -1.7798151 1.6550311 -2.6531327 -1.1478801 -0.7916191 1.0662727 0.0905666 1.2455219 1.4772887 -2.1888788 -0.46996874 -1.0354111 -1.0060052 -2.1386018 -1.085827
839 -1.8059632 -1.5555393 1.668752 -2.571319 -1.1051567 -0.8554698 1.0642395 0.32984537 1.3398999 1.2837199 -2.089246 -0.6042338 -0.72127664 -0.68799853 -2.052085 -1.2626383
1053 0.46573862 -1.1031181 1.0469353 0.15245555 -1.7728899 -0.54019225 -1.3497524 0.42844766 1.0692375 0.9345831 1.017657 -0.03415105 -2.3026733 0.1699085 -2.24874 0.6723618
1 -4.931335 -3.9622812 1.3523601 3.666577 -0.91715777 0.43233755 4.2021446 -0.40816513 -0.82774454 1.3922889 1.8516694 2.3186593 -3.6897252 -0.8168489 -1.5904921 -1.1383252
505 -4.289363 -1.6543 -2.6837108 1.240976 -2.2208116 1.508142 -0.82850343 1.4368404 -0.8525676 2.277809 0.6489936 1.2833333 -1.3235406 -0.56327206 -1.1777673 -0.7233979
5224 0.7683336 0.5454948 0.4040709 0.5265284 0.29999897 0.59806895 0.44762033 0.6266032 -1.0299319 2.1205 0.24432863 1.7454946 0.122781664 -1.1693958 -0.9013773 -0.9309965
1023 0.46620417 -0.5202781 0.20355248 0.8943369 -2.0942528 0.21789491 -1.7769458 0.65623593 0.31332108 1.1036801 1.0274398 -0.5533124 -2.2673423 -0.32261303 -2.5808017 0.19169256
566 -2.524806 -0.011866509 2.3544161 -1.5042069 -2.5375276 3.0398045 0.2119747 1.8867499 1.0910811 2.4842987 1.5947586 -0.3287954 -0.40777016 2.0286593 -1.2164693 1.22532
51 1.309741 -0.7261772 2.145822 0.656461 -1.7752204 -0.6198671 1.8345306 1.4934605 -0.36751264 0.47895765 -0.24595757 0.27748442 -1.968858 0.20353231 -1.6151145 -0.26093876
852 -1.6750373 -1.6951879 1.2772354 -3.6802294 -0.63211286 -0.99997926 1.1970179 0.49457127 1.4113564 1.642125 -1.8217018 -0.8048397 -0.4032697 -0.93455064 -2.6257043 -1.1582305
959 -0.6850671 -3.1643424 0.4862597 0.09947206 -2.982381 0.5781725 -0.630254 1.0452884 -2.156417 0.7499269 1.1173536 -1.5796039 -1.1363736 -0.3983465 0.624145 -1.431947
1001 -1.0773549 -3.4946322 -0.61750495 0.28759176 -4.045979 1.1766931 -0.2837445 0.7848788 -1.5068878 0.4900067 1.7480651 -2.3507936 -1.0561074 -0.032808356 -0.10946928 -2.813008
87 -0.49749017 -1.3024563 2.300103 1.5031279 -2.457711 0.97238344 -0.46835482 1.5125318 -0.133753 -0.53211015 -1.0972978 -0.0011823862 -0.39548942 -0.35120198 -0.76844954 0.021574482
1071 0.28914902 -0.4053872 -0.30611962 0.7073241 -2.0482895 0.22876877 -1.5246996 0.64030004 0.3336636 0.99130076 0.30066875 -0.2555879 -2.3195605 -0.18334934 -3.072578 0.004742713
59 -0.5187262 0.13416483 0.7130549 0.61743635 -3.7720847 -1.0442632 3.3819087 1.8918545 -0.4484688 0.040004097 -0.17003803 0.30778182 -4.8052998 -1.1498357 -4.02904 -2.721194
227 0.69632304 -0.5253739 1.5100691 0.42663735 -3.0167134 -0.32250905 -0.61356187 4.429363 0.21181706 1.5695126 -3.0987475 -1.0721511 1.8120522 -1.337896 -0.92568254 -1.6770202
652 -1.5546229 -0.39587897 -0.23171133 1.227602 0.0041710143 0.075757496 -1.6051013 2.2916896 -0.49846494 4.375381 -0.5200882 -1.7233049 0.5679904 -0.031635795 -2.560708 -0.37227488
1959 -1.2592478 -1.128324 0.58931345 -1.2626327 1.3807402 -0.38268468 0.63501316 2.044127 0.16503817 1.8305529 1.1766788 1.7557886 -2.0330994 0.101336755 -1.7286417 0.041320585
1143 -0.98023826 -1.7374305 0.1054683 0.25768617 0.3995612 0.5708928 0.21423334 1.3318042 -1.8822153 2.9407606 0.2787493 0.100427106 1.2957429 0.9557694 -0.00596375 -1.741694
2576 0.57981914 -0.50228524 0.3581631 0.13724823 -1.5802685 -0.49518123 -0.8100923 0.17912476 0.5641369 1.7716818 0.025055274 1.0878397 0.45416784 -0.36378258 0.41281137 0.30806148
1158 -0.44711158 -1.546399 0.5704483 -0.04905339 0.38521346 0.7425259 -0.06668343 1.3946085 -1.837908 2.836577 0.32989767 0.04070559 0.14238001 0.45313805 0.04951163 -1.8029205
555 -2.664101 -2.9661121 -1.5186228 0.8768998 -5.2985477 0.84614295 0.78933334 2.2276983 1.2276356 0.6515589 -0.72498834 -0.1629292 0.6216703 0.7568 0.7139733 -1.2589952
560 -2.713777 -2.9987028 -1.4910061 0.9331129 -5.3372474 0.95508444 0.8141326 2.1788335 1.2712728 0.69873214 -0.64384145 -0.07326672 0.580656 0.82983154 0.74665064 -1.3365507
529 -3.5946503 -1.5653532 -1.7440586 1.7801734 -1.6361444 0.71632403 -1.1211709 0.7793096 -1.1852856 2.2285721 0.5990857 1.2050383 -1.5913109 -0.7476185 -0.8157543 -0.73117113
535 -4.3008623 -1.7173364 -1.4673053 1.4350606 -1.3168025 0.85860014 -0.76380086 0.87979853 -0.8143476 1.9283018 0.5479801 1.3817103 -1.3237166 -0.6605605 -0.8579051 -0.67959434
613 -2.7628493 0.06999315 1.3563845 -0.57656276 -1.3068335 0.02542017 0.43902868 1.8328522 1.1322541 0.9817861 0.6696916 0.2852791 1.4308975 -0.28470364 0.106798604 0.37350002
1115 -0.39694545 -2.3417466 0.7971516 0.48562235 0.73545086 -0.1504251 -0.9457311 1.2560732 -1.9590713 3.2233863 0.6802377 0.030406086 0.586181 0.93752825 -0.45208624 -2.4467738
13 -3.1826355 -1.734631 0.2528266 2.0898001 0.3245878 0.0631388 2.2072396 0.022740759 0.5233527 0.5560687 0.50156146 2.146222 -1.3847313 -0.26156595 -1.6741323 -0.4950187
135 1.6377912 -1.9624354 3.1860638 1.9626727 0.17892234 0.054549742 -0.9466505 1.083367 -1.0948968 3.7081094 3.9077394 -0.92752606 0.90946615 0.39953426 -1.1539136 1.1999338
177 -1.0309942 -1.7397566 2.2325962 1.2748742 0.2478045 1.3401695 -1.0887066 -0.17855254 -0.80282515 0.587975 1.0264682 1.0113235 0.06311862 -1.0227705 -1.8800888 -1.0761235
199 -0.111402996 -0.2526976 1.7654488 0.9490924 -2.2155433 0.6624598 -1.1115016 1.121967 -0.98910356 1.354246 0.041661702 -0.6706449 0.4584089 -1.1526245 0.12892532 -0.2585206
934 -1.55512 -3.287293 0.7126866 1.1104712 0.5927106 -0.62793094 1.185488 0.27705002 -0.2860571 0.78442955 0.89544207 -1.1739657 0.9912679 0.530505 -1.6486512 0.0016676445
2014 -1.0143061 -0.84909457 1.102411 -1.7263283 1.5044292 -0.40553096 1.1128092 2.554137 0.27755174 2.5884962 1.6527034 1.7363106 -2.0061367 -0.10701222 -1.9113842 -0.07144396
133 1.9229914 -2.0459158 3.2230692 2.0613775 0.20157173 1.008007 -0.75373155 0.9599269 -1.5706198 3.357032 4.492606 -0.49617305 0.36653128 0.9959005 -1.4400338 0.9425522
463 -1.2433342 1.3524263 2.3657935 -1.2670565 0.61317444 -1.2373141 0.92844445 1.4044805 -0.8027635 2.4372585 -0.046859026 1.6953187 -1.483708 -0.58309656 -3.6785946 -0.25119853
6441 0.580805 -2.427725 0.39480653 0.4562767 -1.015805 -0.2944518 -1.9497753 1.0273062 -0.95704263 -0.048660804 -2.3681092 0.6693378 0.61742556 -0.22008747 -3.1105726 -0.31973824
214 0.51417035 -0.30160517 1.711377 1.1553288 -3.0798197 0.30242476 -0.28374016 1.5927663 -1.3254958 1.4603175 -1.349223 -0.6705458 0.7337955 -0.866089 0.22327273 -0.4460424
1040 -0.3607232 -0.8483116 1.1390725 -0.04654017 -2.2636418 -2.0277529 -2.4875774 1.0870804 1.8216408 0.9765188 1.049564 -0.2998251 -2.5443134 -0.5353682 -1.7400408 0.41664377
362 -2.4363241 -1.7177043 -0.9672445 1.6791402 -0.78618646 1.1232162 1.9829236 4.0209055 -0.11804864 0.7468886 0.5699799 1.0521997 -0.34327394 0.5341617 -1.6030362 -1.5964496
54 1.032242 -0.5844433 2.1017852 0.34993932 -1.5004542 -0.45979762 1.5608906 1.400518 -0.03839138 0.59669733 -0.22092941 0.22857033 -2.0345361 0.31774497 -1.5933855 -0.25981212
1083 0.28907636 -0.24076323 -0.19145758 1.1406275 -1.6888564 0.8011873 -1.7411186 1.1517864 0.24976191 1.7187415 1.1655668 -0.5633019 -2.2149134 0.44150382 -2.9380953 -0.20606202
1101 -0.86794585 -2.2587636 0.98590964 -0.40316615 0.50835633 0.8325852 -0.139792 1.9025127 -1.752025 4.0572643 1.7322508 -0.13068613 0.14302896 0.6409407 0.3831668 -2.6077054
2579 -0.31986195 -0.28762934 -0.8428837 0.6810318 -1.6752834 -0.41959584 -2.2279787 -0.12608989 0.19766364 3.1090736 1.7039381 1.5575168 0.77609605 -0.001803865 0.084715165 -1.0267583
334 -1.5195702 -0.15956113 -0.9592097 1.1723188 -1.1264006 0.2276923 1.6787422 0.7336768 0.97564775 0.09842 0.6421917 1.7690389 1.1129254 -0.36341655 -1.0656499 -1.7307932
295 0.17273983 -1.8113915 -0.44303074 2.0177276 -1.371577 -1.7685124 0.62792575 -0.03895071 -0.07988456 1.8477583 -0.31356412 1.6182986 -2.3879278 1.207112 -1.8543088 -1.8975421
643 -1.8028845 -0.35332078 -0.3090159 1.502159 0.15693183 -0.38349754 -0.56138134 2.4696817 0.37902498 4.9797764 -1.6892024 -1.4284726 0.2068696 0.13033247 -3.6477244 -0.4284711
6772 -0.26135865 -0.26327503 -0.8797499 0.17146814 0.5329224 -1.3497753 0.9190605 0.6822138 -0.1657524 0.5472396 -0.42368025 1.556246 0.1620205 -0.7713274 -1.294556 0.30465204
3354 -0.33404735 0.08155523 0.4189101 1.3096911 1.7047234 0.6673804 1.9181978 0.4660428 0.75913715 3.640017 1.5471084 1.0393718 0.87237626 0.013901187 -3.7262893 2.7196295
359 -2.7343063 -1.8995744 -1.1740038 1.7030877 -1.1849968 1.1278462 2.2704108 4.2336736 0.14164689 0.57214683 0.7102611 1.0018915 -0.37106776 -0.068557166 -1.8051986 -1.6212236
796 -0.17008625 -0.2892397 1.9808388 1.5049016 -1.5647055 0.34976155 0.14701313 0.81705827 2.5019276 1.808791 0.0059480434 -0.9242186 0.5300629 -1.2479886 -1.4338086 0.41774487
49 1.1095309 -0.7022472 1.6912698 0.34340185 -1.5751065 -0.7740652 1.6953338 1.6166784 -0.21291187 0.69872236 -0.47720703 0.36313704 -2.0994034 0.06658985 -1.3264629 -0.25900993
344 -1.8383583 -0.27159974 -0.5259658 0.5694742 -1.0410081 0.07032318 1.2916999 0.8030639 1.1090481 -0.32985228 0.49605313 1.955629 0.0061407974 -0.2803677 -1.4521887 -1.8889381
2528 0.64945716 -0.7049263 0.62245595 -0.21510915 -2.0558681 -0.6868337 -1.524012 0.47089514 -0.04246382 3.0393836 -0.43853906 0.75050324 0.52638644 -1.0703329 0.40714148 0.5665983
263 -1.2903358 -0.20784259 1.5578043 -0.8314079 -0.040906496 -0.35608214 0.51748157 1.3551444 1.4879022 1.9548484 2.38903 -0.34175336 -0.51644266 -1.262884 -0.48594004 -1.242206
2447 -0.59217244 -0.9339202 -2.0229962 2.1944895 -1.7410241 -0.1378827 -2.0170481 0.8871182 -0.9816808 2.691328 -0.13339461 0.8281869 -0.4173084 -0.056208365 -0.5699305 -0.49046564
458 -1.262688 0.95927364 1.9486521 -1.1224808 1.0522239 -1.3273104 0.82911193 1.6304872 -0.70909196 2.2882447 -0.5099374 1.6245817 -1.0422931 -0.7904228 -3.0332136 -0.18067814
703 -2.3641405 -2.523825 3.446936 -0.28461298 -0.35979438 0.46875355 0.84068656 0.31920472 3.144124 2.4637547 0.80756927 0.098872855 -0.85874695 -1.3991746 -0.7288171 0.24113272
2019 -0.56646997 -0.22842976 0.25554347 -1.0014293 0.47083834 -0.56989384 0.19781356 1.699157 -0.20989309 1.4080507 2.7651796 1.3577664 -2.8488655 -0.28096488 -2.670582 0.03558382
783 0.29349077 -0.7872977 2.0386696 2.0542746 -2.6958983 0.28623986 -0.117609106 0.690278 3.1972528 2.8193839 -0.13549282 -1.3319062 0.78557163 -1.8812484 -2.2032776 0.11871001
618 -3.484704 0.048093483 0.81725484 -0.5637985 -1.874039 -0.014676906 -0.047695383 1.153264 0.23337185 1.8564999 0.47482866 0.18092456 1.1781055 -0.78051484 0.58640593 0.3036315
1457 -1.8409091 -0.32934222 1.8520689 -0.09647523 -1.0109626 1.8645539 1.0497583 0.6536554 0.04352834 1.3703789 -1.4989527 1.0683378 1.8136702 0.89591575 -2.1686652 1.4158771
428 -0.1915735 1.2406144 1.3969088 -1.1114542 -1.5492288 -1.2242436 0.70778227 1.2763742 2.1577802 0.44311255 -0.01634597 0.59966075 -0.0592253 -1.8669101 -2.4317024 -0.15116447
889 -1.9991865 -3.397584 0.68200225 0.8583113 -0.021871181 -0.011713154 1.894842 0.6836769 -0.27660805 -0.09214609 0.6823303 -0.89320564 0.109729506 0.54821825 -1.5922925 0.55182993
6174 -0.9723426 -1.334598 -1.4967903 0.63121027 -0.1995856 -0.9771658 0.6489114 0.5758548 -0.8213921 0.4733151 -1.7077186 1.6506034 -0.9920884 -1.3394359 -2.2358289 0.15374939
594 -2.0685794 -1.4868037 1.6162504 -0.88363564 -1.5234342 2.0828555 -0.68539363 1.5300621 -0.25783995 3.0587838 0.77681535 -1.5745188 0.05035616 1.0553446 -0.91266936 0.47382107
920 -1.6128867 -3.9835057 0.99861413 0.32508445 0.687943 -0.28280726 0.9550308 0.73033655 -0.33788753 0.9272151 0.6094158 -0.7764824 0.1610752 0.41350606 -1.40262 -0.004924532
429 -1.6979431 1.2565136 1.6203797 -0.69915146 0.9924442 -0.95717704 0.9399878 1.7215706 -1.0615629 2.786335 -0.3270048 2.1062086 -0.6068491 -0.6966636 -2.5731184 -0.48524946
470 -1.3331674 1.0707893 1.7041082 -1.422533 0.14318955 -1.2708172 0.20748633 1.0535365 -1.0423411 2.0969312 0.10699111 0.5656087 -1.1982661 -1.1022089 -2.9656742 0.5535802
1202 -1.047205 -2.413611 -1.2767364 1.5634388 -0.17779091 -0.077897854 1.0419633 0.27834043 1.4969834 0.17033324 1.2132359 -0.44576403 0.7251793 0.5931752 -2.9664476 -0.8147718
419 0.0033027113 1.1503993 1.7262452 -0.92617637 -1.560377 -1.2688202 0.8924476 1.302086 2.152692 0.3939819 -0.15976584 0.7289269 -0.0011272414 -1.7885997 -2.560219 0.12850964
194 -1.0752795 -2.48125 3.4488084 1.8601329 0.6845322 1.9526156 -1.9910859 0.5940368 -1.1946764 1.5906017 0.7704241 1.1612076 0.9518608 -2.2399092 -3.3827503 -1.4720398
14 -2.9926665 -1.7779512 0.15162237 2.3920257 0.1712246 0.8122273 2.308724 0.8973007 -0.03282114 0.8126984 0.49125612 1.4055578 -1.7148551 -0.09518342 -1.3883489 -0.17499863
825 -1.9549341 -1.4981582 1.5382376 -2.570881 -0.9391324 -0.8134585 1.3029653 0.44817704 1.7029729 1.4456655 -1.9251328 -0.8482234 -0.983513 -0.8270837 -2.1573472 -1.0663129
663 -0.966028 0.46515563 0.5854945 1.1817553 -1.1557611 0.09090733 -1.3625854 1.4138316 0.8427691 5.7706614 -1.3888999 -0.21632695 0.584168 -0.66455317 -1.7746203 0.43784794
475 -0.7560635 1.1267183 2.8261771 -1.2753787 0.39865008 -1.3646569 0.7116307 1.4155403 -0.99547964 2.2913334 -0.25956112 1.2608227 -1.5849006 -0.6275174 -3.5777168 0.88678247
77 -0.4955314 -0.48240772 0.8896923 1.4192237 -1.9369788 0.7177385 -0.074447766 0.5531226 0.32286456 0.2603051 -1.4842006 0.56770086 -0.48162788 -0.05089417 -0.73050565 -0.023555547
707 -1.5422862 -1.8484149 3.573788 0.6277811 -0.09708302 0.2630423 0.6653101 -0.32929105 2.0563617 1.869848 0.94706255 1.2652285 -0.055316363 -1.7090471 -0.9217355 0.2655385
598 -3.4512868 -0.13357897 1.567349 -0.29574135 -1.9866626 0.16482446 0.54634315 3.4330535 1.3911715 1.094369 0.30153227 0.42872456 1.7351366 -0.0100389775 0.477791 0.21629475
4991 0.8244363 0.2198726 1.0136722 0.33515432 -0.6816385 -0.03071504 0.74771506 -0.3474666 -1.3849334 1.2556121 -1.1548854 1.3659053 0.15848306 -1.5456879 -1.4601823 -1.2488441
103 -0.69340146 -1.0168856 2.0349972 0.2881797 -1.8875742 0.7805543 0.02523706 1.4304624 -0.2648874 0.08275613 0.32497513 -0.29199848 -0.55309194 0.74283636 0.08706383 0.7110545
348 -1.6909809 -0.8916518 -1.1984158 0.5599498 -0.6153347 1.1231861 1.3194846 2.5316622 0.390131 0.85989195 0.35035497 0.96559924 -0.78809017 0.39990014 -1.7138678 -1.1991581
2551 -0.44123408 -0.6767587 -0.35315624 -0.3625608 -1.9155425 -0.6539523 -0.7906695 0.288748 0.29322273 2.013161 0.47432435 0.8939297 0.33919492 0.42043525 0.8566617 -0.8535236
914 -1.5417823 -4.2270265 -0.31422406 0.8001881 0.17787363 -0.6407092 0.44287845 1.7086029 -0.19314165 1.392978 0.027720118 -2.0182056 -1.2839465 0.85484934 -2.7471004 0.021955078
6599 -0.6751499 -1.6428326 -0.6680087 -0.7435069 -0.67274475 -0.5862968 0.4795219 1.9827093 -0.2784659 1.0976126 -1.0055585 0.4495192 -0.79281294 -1.6526457 -0.882542 1.7726642
97 -0.22950333 -2.7175362 4.1248245 1.8173294 -3.8030567 1.7733064 0.33388048 1.5004472 -0.5985254 -0.9859067 -1.1103928 -0.72491926 -0.32816702 -0.08076236 -1.8148974 -0.0646511
6425 -0.29607406 -1.5628953 -0.46276018 -1.3679421 -0.1505079 -1.0045708 2.0212696 2.1221156 -0.20564862 0.7609553 -0.64906615 1.1593299 0.043998413 -1.1459583 -1.0453632 2.1535172
94 -0.5150736 -1.4032549 1.8791093 1.455457 -1.9311628 0.39795682 0.15841559 1.3762965 0.42398566 -0.2391282 -0.8574973 0.53934425 -0.45840013 0.21237093 -0.38790137 0.48727173
763 -0.006856283 -0.060865436 2.305012 1.7703427 -2.1617339 -0.24091035 -0.07556235 0.03295739 2.6138628 2.3839478 -0.5673567 -0.4323185 0.40620828 -1.0848415 -1.7997019 1.1421117
